0.04229817557571388	-0.03933388123273607	0.019657382185685333	0.13252732778165077	0.03393107336063891	0.004609721839659427	-0.1398614778472245	0.06242244359633054	0.06454843459513535	0.21663658368716163	-0.030895725621390736	0.02494612713838809	0.03643240678188532	0.1602884970344686	-0.004839167863981551	0.024149344103345415	0.0665425349944234	0.018660901372516067	-0.04512123565938771	0.02847781340949859	0.1070344228958523	-0.11733029983257844	0.012635962459897914	-0.06624701981599626	0.13996208266224028	-0.15241936877433473	-0.055975320409358875	0.04046911288729672	0.1549499165695506	-0.008758423621274375	-0.06616688358565391	0.18811570694405902	-0.14969438285690137	-0.22119094688786153	0.04251487226836336	-0.056055330023569265	-0.08760763845918763	0.07083564472993534	0.02722828644765042	-0.05977636123418982	-0.12805133235460386	0.08723094836428148	0.05026997524430762	-0.00991779228188249	0.1953201734231646	-0.10700847663261526	-0.1525525170924739	-0.06919080698812445	-0.003823572444456241	0.02433297156467149	-0.0249813061541801	0.03941758030701796	-0.1251539424190444	0.14437646040732596	0.013497495478616537	0.0941020824044315	0.02756622982718692	0.045675321915378396	0.06647722897703813	0.04128720480975379	0.06432073101999436	0.1257819544568132	0.019840403249349506	0.0702974456188327	-0.00523422091296916	0.15589868198272105	-0.08265123440144308	0.17996165284668506	-0.0045485059157855156	-0.13119892065767566	0.022144382785231093	-0.08243256063264878	0.08406432663912751	-0.06596119777853701	-0.04553672203968287	-0.18584611207436663	-0.045772502086658194	-0.24259529437930125	-0.15165110446839947	0.0759082907618653	0.0870258176266695	0.041004093895608	-0.0966976143129213	0.016514198860395835	-0.00039663868039583694	-0.11642573287754356	0.15033983017671507	0.0894204549351758	-0.02255561980444591	-0.0057443846997310925	0.020790789822933392	-0.2022898125497712	-0.024947734574515663	-0.068231591633201	-0.10015042821089613	-0.03475485000671287	0.18978982262297805	0.0641898426695214	-0.057549629186399914	0.06029985770141221
0.13991913288032876	0.09246336829127688	0.011309418959018942	-0.06029869308911612	0.07250126852057154	0.039301315460040294	0.09594501692820318	0.06626840341079354	0.10495527153193351	-0.05362848175570381	0.1314952440643171	0.023114097068039872	0.2093287951706133	-0.06617560561102602	0.17669488992631932	0.019017292177471033	-0.06226820536651715	-0.04838819401003517	-0.032591799750656264	0.04733459048218486	0.05911211622148422	-0.056748824444836435	0.0045722196730208576	0.22256827057357262	0.1818475921513365	0.04932680392251884	0.0037147406167695263	0.015902860478783087	0.06499523052773615	-0.09810299115504778	-0.02068791385532822	-0.16685840738775895	0.040594494725244096	0.07455641657169117	-0.044956740544535856	0.15902420878598428	-0.1132008833648644	-0.14643748802098203	0.02683216185237008	0.10130834666460348	0.16746398801223408	-0.04589717754478673	0.117412884210612	-0.004033255687323969	-0.009584621228411515	0.08836599374866724	0.06523228784134197	-0.15763921569842496	0.14930165788688154	0.13690860572481997	-0.0632700810036907	0.04191505674441611	0.049403018628273884	0.026067376582390712	-0.052785091410212856	-0.059013969320336465	-0.0013238672407253184	0.11727290192593648	0.059073183962752976	-0.03379651463179138	0.0851728868207306	-0.28490874440354963	0.11556797310185576	-0.17446323969120278	-0.039931866972647695	-0.1086605033814055	-0.1193679018166174	0.11600526718123041	-0.04739837053287158	0.036879806601015946	0.002712358157794009	0.05033920960218644	0.007682168160504617	-0.12873129159104332	0.10389709267582681	-0.04115337672419069	-0.1561699508849076	-0.041050546249496375	0.1522456849613183	0.08490772001366596	-0.030466066002104646	-0.03301587383835944	-0.032163549917440235	0.21791175973338398	0.03804288222564835	0.042527455883028115	0.10302834540318423	0.02527421181969244	-0.02635572914934654	-0.01661909870590123	-0.008286058060225712	-0.00031253404924421136	0.07181875168494359	0.004627525721069082	0.07328123086704962	-0.0038136130474266993	0.009420939005875453	-0.1945269296489368	0.0865769904460599	0.03397564357660909
0.10090735055536466	-0.28962553781936895	0.2134225566408562	-0.011079919773717382	0.11439944058019288	-0.10402437137687161	0.06455196518861299	-0.10571137083353613	-0.06237689150139035	0.19126746959122248	-0.01911147494343321	0.024384328032820934	0.09012382611418815	0.05139973208789975	0.017478023012094304	0.03577184501474755	0.24227620815627018	-0.005238099286377178	0.019733518233013055	0.10712830768221847	0.11428606027152759	0.11773694483492911	0.06657598606004905	-0.10986629376124467	0.16934076532248263	-0.11257674488411068	0.03011050295617647	-0.07283989419650326	-0.00538622269333435	0.035547464986591414	0.03328742870827242	0.042192196004068906	0.1621929817555051	0.05019021649600724	-0.023149626373534914	0.0969703534104963	0.12366609178498279	-0.12276078151369925	0.06253991795411694	0.06843574561068719	-0.029977000576098364	0.13754049668426496	-0.012750240546021046	0.012552052740511363	-0.01279524100143683	0.0015579047581467534	-0.10962750868952019	-0.14400508825942945	0.16041791049627252	-0.08482261011620883	-0.09933385797102147	-0.21433879478753823	-0.06389617476895022	-0.13230897934074984	0.1694287240226167	0.10234668327775315	-0.06952061189307364	0.2252435805344309	0.10054101917933349	-0.0310035763372794	-0.24621004409584615	0.22934068931449778	-0.13824792084877252	-0.16455494199287574	0.10117908554327566	0.24652593338302967	0.14079450442909008	0.05693280151348328	0.05934381232751356	0.08805586578993697	0.0801309772546012	0.027446456496446416	0.010420089769223125	-0.0064177728422495995	-0.07297938223093071	-0.023676839440693827	-0.1687757261429848	-0.009058582021388479	-0.09738311927965775	-0.11042229773112923	0.020097422116862267	0.14038253800764683	0.09182972349255944	-0.14979579177476968	-0.09898406241598115	0.09410056533627587	-0.09824873935383097	-0.021606756800302863	0.05491730376249285	-0.0969144658864301	0.010044864633011526	-0.13170274076378746	-0.06030690947729477	0.03156405021304171	-0.15929539999244333	0.04506604175655114	-9.008304322216715e-05	0.057633141599634154	0.02110010740284629	0.13687917628936447
0.018748050171783742	-0.0429405541125253	0.029335582414144457	0.06157536241522336	0.018726311007115068	0.003992587593920665	-0.0647691195432441	-0.07329415496884416	-0.14026051472969456	0.17529670574742975	-0.12459043032169032	-0.06270601098396353	-0.05930796828062067	0.093795651440577	-0.022025820849398275	0.12101326331057159	-0.06072476367206429	0.028534896573801538	-0.08440441727479067	0.22365355754189664	-0.11114867577466934	0.02000197687785261	0.0676825631890059	0.05155161648386754	0.0031619871363893683	-0.007708616633387473	0.0039614139403916174	-0.008023129816779072	0.09864501458719403	0.22580193706026339	-0.056222779791661244	-0.13698025651824972	-0.011915954017328544	0.26730599674105904	-0.07782977881153508	0.1627380633876895	0.18635693423197305	-0.05535882417079946	0.06435078714116522	0.15705203191600234	-0.03916607626058842	-0.02039349654622894	-0.060801158250656316	-0.10151277880815364	-0.05027595966802612	-0.12239402667622566	0.0034083468259226072	-0.07699732310586418	0.02558664559164786	-0.15591153552688716	0.03139618611372098	0.08865658533154709	-0.19937356425714556	0.037405656984757216	0.1454914292013959	-0.1259413533642313	0.16370680277363633	0.04190190093660452	-0.060869502195881935	-0.00495654573329295	0.06392762142320474	0.0038849957860058524	0.05488614211728496	-0.09352884220553764	0.017697117285773865	-0.12894739433994243	-0.012675005995349108	-0.0902192638679483	-0.07479874091336242	0.13667990838558888	0.12184040737060613	0.05182023917777114	-0.10923131375538023	-0.03265842624932194	0.12592717085459573	0.02267406926910617	0.2326036061314829	0.04004266542938953	0.02639441687793619	-0.03120202527626663	0.023207960581040618	-0.013914052621802514	0.07080893033475842	0.12220413388215881	-0.07880476484136596	-0.13415896504454208	-0.18362053731032968	0.053041660768487535	-0.11169564493189978	-0.21978241057074996	0.03742295836369965	0.25718817976020236	-0.0014224446584639111	0.08241703417528642	0.008201070949152844	-0.010592832586181485	0.09973821188843753	-0.02414310301042277	0.02274161088550185	0.034124705501718
-0.06680904536430488	0.09920423495365228	-0.017495975669540864	-0.07557451594928448	0.053650984357040354	-0.08984679817910374	0.002818115736912825	-0.0009118996644203544	0.10858955658315782	0.04746982328799528	-0.002502695874514392	0.08177662992002871	0.13902075490173135	0.055781030635186225	0.0010352619843380607	-0.13118362323501595	-0.10651136630753727	-0.030522470435466766	-0.06095122021592832	-0.0186971302985446	0.005664992489710717	0.052969275435673084	-0.007049877805909122	0.048650164382620195	0.006447441481012024	-0.19754665663538715	-0.09393353938187543	-0.014408755572161548	-0.12096947428411076	0.05999287299962045	0.15307508323436975	0.12187618516973167	-0.021344287093020803	0.14907261368499522	0.014866745720211155	-0.033708597111803934	-0.06134026635409398	-0.030246968648812836	-0.038817681854122876	0.01704162223754877	0.01605739810498646	0.000304602015341447	0.04369381697463499	0.11906462747863414	0.09495541354413238	-0.14848979684499036	-0.25539211349019547	0.09343199112392737	-0.1366878698415421	-0.022476540189268354	-0.11701130260593595	-0.18019804375800197	0.054146272820478805	0.0759155160302647	-0.057651040072671945	-0.259104229214491	-0.05462444482524828	0.03918040054025465	-0.1478911568774129	0.018335991977915564	-0.0015309849172995557	0.05792914996010884	0.011958036841415326	-0.09730689408815556	0.11965715016644914	-0.015852957302697004	-0.002730453950993186	-0.09332679590731961	-0.044328225119151035	-0.0884802714026901	-0.0172946059923423	0.17117084801423435	-0.13719011429313563	-0.16135613978767413	0.14711703274936086	-0.02093236771518661	-0.06690727386599166	0.10399046873960766	-0.06056155397368641	0.18260097135469364	0.06779258713392691	-0.04879114081457027	0.21573082132655036	-0.060571492300333846	0.0742095372009307	0.029929258040649193	0.1301741289398798	0.15615111967268527	0.0032004149065766626	-0.07534178703461836	0.04599721429391165	-0.06777153697521061	0.20133872475266232	0.013653533108273745	-0.03653215513121087	0.018468030586490842	-0.13471262895296965	-0.09716140385106516	0.12004139079444254	-0.06568942789713958
-0.10222904412661744	0.05366527525272862	0.12865659609773789	0.07613534674110568	0.10764548992262506	-0.07571111567967266	-0.1406426551505539	0.14574896396000206	-0.03226796929326486	-0.024753292977371725	0.13271053786853962	0.05840919018280438	0.05202414253684605	0.21859940884495904	-0.06111971041947574	0.09061925384666035	0.009573464931940194	0.027051827558872775	0.15251974020037554	0.05752343014367447	0.056219658154067306	0.10044304981177211	-0.03396215936214989	-0.07792664274674152	-0.09119904499373827	-0.1943594393782509	0.20556451818555255	-0.10688461686727853	-0.021210222640618295	-0.02714479541688397	0.02819751577162553	0.08157381227866992	0.08445917472461201	-0.054737262938021565	-0.015308574563216859	0.02675825214845447	-0.013821330734188005	0.16073455760199928	0.052523658331633104	0.07035933741525184	0.06594476207243488	0.11732491202522988	0.015876736546407574	-0.129733048208928	0.04812704422494242	-0.0651356893791829	-0.05286166817497569	0.05863640187550933	0.12487431622486528	0.0016745622257556341	0.03005929515461497	0.17370744431369348	0.02407531794885683	0.2601683114180395	0.06760142048430476	-0.1806332479414668	0.07230146263476285	0.03811583848827778	0.1355461183965144	0.06729451394419537	-0.010282071743623777	-0.1261193511521782	-0.020383852134517023	-0.08564710427639136	-0.05784489554843796	0.0648777736395397	0.1649476194172456	0.0397025674660928	-0.12018688426246162	0.05087814554488624	0.12810066654527172	-0.06648537929820003	-0.013401743971913918	0.0009966286977942814	-0.07713495101273928	0.07009601843574999	-0.01334625824592091	0.042254000694428216	-0.08475153122702431	-0.04388589168589714	0.07811280564251429	-0.037151496629370756	0.17269495991527653	-0.025382574988533687	0.022445203803068293	0.0927291862207185	-0.14183657329330318	-0.17504984714865665	-0.15319501973310626	0.12391851060325151	-0.055783241529422066	0.25847038479590384	-0.05667901686228493	0.018269809059548114	0.15422029768859077	0.19999034306270938	0.21109619624630893	0.12332106650802058	0.09952534569688322	0.05966108098225252
0.07736246135544378	-0.055118571632853344	-0.09036732267778554	-0.002382134103805509	-0.024679586502068494	-0.045322758584793475	0.08226668866209101	0.1057944181250821	0.008840688629184737	0.14760026061920736	-0.11416920841873579	-0.01768902268220131	-0.07507150441034352	-0.1866424492630785	-0.007103681092857295	-0.009811854065800483	0.14796506005165688	0.06459185513664817	-0.10250795610682428	0.17550871662475373	0.13208707149646914	0.06996404242934101	-0.019243769868407725	-0.09477862659394916	-0.05045326579432511	0.11308760752232452	0.18783717828763452	0.1559474707070769	-0.044899594850356134	-0.10207149723748485	0.03226685000243419	-0.17684389910490506	0.03733627884816715	-0.003124557602297552	-0.04372816784200596	-0.15070647702193715	0.043387421985936106	-0.053270083966191144	-0.11541292776163396	-0.28715945238570323	-0.0040969390998036636	0.17722231431326463	0.18424738908985475	-0.04569280254112714	-0.06368200993038474	0.04687742560750238	-0.09983854391882915	0.0301791899819466	0.07814575627669945	0.12269303306599827	-0.010494072648451447	-0.024360423454989334	-0.0877982586756561	-0.082688035403986	-0.02669225928406173	0.058993424595410016	0.09823873082589443	-0.0803178950680345	0.1417565721413622	-0.021490412102547048	0.004607767930621662	-0.06478282501658192	-0.24151653708580215	0.08770610442890524	0.06899353512011591	-0.0316471917560743	0.026299832119088307	0.05246306800973209	-0.15666915444577423	-0.05616079632559734	0.07297049831004014	-0.11415437339175805	0.02935579321666293	-0.1358715224987212	0.053849609126660605	-0.0022438375763086803	-0.15673653102307405	0.11716486428733627	-0.07704678607435525	-0.08107375318248876	0.014770015561392093	0.11993494185118593	-0.10158484715361352	-0.0018913138274105612	0.04258950941230535	0.06929796689701616	0.01764415552772252	-0.03671810844592427	-0.08330256873380912	0.01497024228094929	-0.10807276768002419	-0.285586902522938	0.04381913775644962	0.08802259275074628	-0.23629351531692747	-0.09175664354693921	0.053826938960967935	0.20892560538042643	0.0017507610791369138	-0.07268699224350922
-0.020316187908766423	0.1374876419148185	-0.06876665351182429	-0.08096813283274464	-0.052008459432719645	-0.09533286082587124	0.01830342384427689	0.16869169731000222	0.03230792731160291	-0.02487340476660257	-0.02921523723419309	-0.1562830468212527	0.08460460030578143	-0.007783791724600124	-0.018587882349517262	0.3209174992545066	0.028314446955078117	-0.07484624895358885	-0.04264339476250144	0.11142362586000125	0.015159126100602343	-0.1368612199299188	0.09522982257301403	-0.06453649264580003	0.18205667242393134	0.1103034830755421	-0.044627985393132855	0.1293706364798575	0.009260776452676887	0.0889877012869719	0.056470560294320626	-0.0846355944572448	-0.06106464023718703	0.10889337299347022	-0.03151262358333543	-0.03602428105237404	-0.09919243086325087	0.04235990655934611	0.2063298435004443	-0.10662225506474789	0.0022036116042492546	0.14122209761845703	0.003335175020938121	0.04512184236938044	-0.1076946615293841	0.04283070972076486	-0.018714426500454878	0.0985729995679863	0.12012756376751291	0.2583688681013897	0.05796278657508391	0.03104267771767417	0.019438430157733604	-0.03531662928106884	0.028830621525395818	-0.01720623104088053	0.020147486353941715	0.13175975356079597	-0.1032645022034676	0.1172217192502011	0.13534439472284251	-0.008001703710762262	-0.21143107625185806	-0.060774130735866363	0.12580027052883194	-0.004925474491849651	-0.08851507259325861	-0.049744115306135865	0.08406202113325924	0.050739483627009085	-0.026247634296046277	-0.029481240745738654	-0.03917581490438219	-0.09223478846034369	0.16496169895427623	-0.02983575652347107	0.12287227860739083	0.15296776658619207	0.09751446255743962	-0.043136803158773974	0.03798126872022967	-0.00023078317265785457	-0.09037066917536253	0.027792287099520144	-0.1179617852923408	0.11883824089216208	-0.04646172972983931	0.020022808099159184	0.028328809971354004	-0.021225952375756876	0.05866220892817981	-0.045458382031815577	0.08704605715270444	-0.13481136851172534	0.012637447690867797	0.1998643949512454	-0.10320472471241333	-0.06545580378583901	0.049859266207850805	0.017552355382927664
0.03448538604995168	0.04891871301476636	0.06109774265554613	0.11022718318932594	0.038539362750475314	-0.024125461636334875	0.06985563025377839	0.1927501545842532	-0.013263374638257356	-0.09741385286573226	0.11070805997434735	-0.011819214056759344	-0.21868590587180192	0.08474267455481203	-0.053542417883651924	-0.008280151089089787	0.03202278919668885	0.019208180636017154	0.07089365467854858	-0.04590893801128299	0.05298400535504509	-0.02281840767681366	0.07496635038978298	0.06205651605659169	-0.09682358897684364	0.10980418911574354	-0.053622712039397905	0.08126228312777996	0.03799480640229962	0.1859131652841582	-0.018280917514593188	-0.03493167961181975	-0.0009191321132903789	-0.027602366941400155	0.08062981236351148	-0.15965449116256136	-0.10785853509178035	-0.10678029215791932	0.09519855718668399	0.1712238916646989	-0.010544388197151791	-0.01688212843045595	0.011628259736295507	0.11619263823499072	-0.09384601160833249	0.023836898273478513	0.09751976297824298	0.050109416993984524	0.019473172720398342	0.10010455525774971	-0.2703723609202595	0.0669618295037094	-0.06540756831274239	-0.1830632896856457	0.04852142220613513	0.14330396105862772	-0.011843745572002674	0.09528745472029389	0.1593473213477568	0.1328478507468611	0.16556776411023563	0.07634757999326704	0.007813763915280634	-0.16026168810909602	-0.025661192282413932	-0.08593338438435554	0.22166218174699429	-0.017442371102204295	0.012277672089249108	0.053643070336646774	0.0024504993925363607	0.17258573614256179	-0.062264936173445196	0.019393689887257173	-0.07238425861705425	-0.131613526707136	-0.0600398321623959	-0.0034438321263723956	-0.04427178162441461	-0.06924456103279726	-0.14198266743826324	-0.007226559449807654	-0.15047232702887892	0.07373611075077054	0.008243950415092231	-0.14577603485008805	-0.030920907704986345	-0.07530680951509247	0.03186734330603327	0.1360357126962889	-0.1875555297149567	0.013218518785071805	-0.01615158451480549	0.06687624850487896	0.021319603147604095	-0.07290063069312852	-0.03358883045219912	-0.07857466359237471	0.1075784280976707	0.002146229046796696
0.17246298740687702	-0.006066081381462078	-0.10037444433852984	-0.1531278049249472	-0.2133281296807733	-0.15842039686788903	0.059953105165788674	0.09513833705811305	-0.15811906544471738	0.08883288372819187	-0.048560677482760474	0.01373318441711499	0.13425725934905322	0.09047018911479222	-0.03251596335361931	-0.07929717805803652	-0.22451764188505702	-0.0710489603656463	-0.02131923153092685	-0.11255052095587723	0.009051906314038193	0.05308912738682685	0.0037716669220273537	-0.04869012062810016	-0.014304490648164643	0.0629239853768947	-0.108538409448225	0.14520018289025807	0.007758566876417331	0.019980230804554886	0.11973431749311447	0.02332210196747719	0.11379415780055363	0.06552366698210274	-0.04737917938258458	0.05971625145263444	-0.13004910085305	0.010855970577652314	-0.0012920628816432027	-0.02164249861262514	-0.015138847390470427	-0.1881935873436597	0.021979374113065053	0.00861948369198992	0.00863254857238725	-0.10276751409259582	0.12657078408647007	-0.0866174848214501	0.10194911099319183	0.039080259006466646	-0.06471670929737942	0.17179692742784974	-0.11936368317564801	0.09191541736100016	0.0440646378363139	0.013704806798044518	0.16055966839963062	-0.025004651459895277	0.016117848364021057	0.04764362274352355	0.012500874706040442	0.1007945964921635	0.08197717309038327	-0.17492639245553737	0.10476064648952062	-0.19241121610417225	0.18141655455391958	0.11394514203386293	-0.10930846711066745	-0.06921867604709059	-0.11512868135198392	0.028536668375447233	-0.030803440591660753	0.07844881953101207	0.1494992485690557	0.15885292919705182	-0.05573460996333117	-0.016029309494104645	-0.18390002400766337	-0.08053328759829496	0.08375002106444504	0.1738433587365105	-0.12343865654846697	-0.08945384013142561	-0.0027959330346173676	0.028128743452374854	-0.08096035199216461	0.0419806313764832	-0.0476425169078047	0.0338582220917598	0.05249418876638412	0.006457883666659589	-0.04506985050947608	-0.011992921535399081	-0.008827340472081871	-0.0021573749444938144	-0.049478235047438056	0.17690899508946464	0.04148225314116547	-0.03820547442657892
0.0692609289944964	-0.033381948975601	0.11698260669939865	0.03696175188738516	-0.010910880740796026	0.04477169688890186	-0.157012235874372	-0.11205441814914521	-0.11939249557357255	0.01415368856497612	0.17325302799077236	0.22310252266084837	0.06333947698051973	0.05008464848408762	-0.18018853530727635	-0.0542053901002476	-0.07865868996169524	-0.06208475982511161	-0.016835678282979667	-0.04737353642416829	-0.197482046373939	0.07518541008841714	-0.1067905393029594	0.02401884111149026	0.20742284317119086	-0.09188079530647121	-0.2530571216048082	-0.029198546462339922	0.11020758712950406	0.19584406983500605	-0.12260980845546367	0.049669990441312685	-0.04630152659531554	-0.010456902018465265	0.26424449285945917	-0.15026342492461078	0.025374995885999903	0.04676931717654332	0.10856714283511446	0.009798148808924122	0.030809079152025416	-0.03916485848433907	0.027923789277230562	-0.03446442181412809	0.062267995369645196	-0.0369610336043634	0.03771003939021865	-0.0029262813684978357	0.11273957029847666	-0.005326928103435194	-0.1773036632591972	0.12577971221969284	-0.09057323008626189	-0.06537663386488199	-0.060323210910469764	0.1379770915107597	-0.21349206466432938	0.3137748533659994	0.1055428108499872	0.02254193366545433	-0.005152355267527653	0.028563730640113128	0.052119160743925995	0.06451904444797107	0.05484886809865191	0.008688291940214116	-0.0187693498624697	-0.015261054930104923	-0.019491709334949918	0.11302692483103889	0.05935590835169178	-0.2931276291046969	0.0655900985523495	0.019523709391873853	-0.0017444116562795164	-0.038477965516541	0.11241095090675605	0.09499974912724635	-0.0773831558144693	0.04070594597140673	-0.09718074193611043	-0.13797436561751467	-0.06267174634682297	0.08591648689725563	0.09531251384586986	0.051308322321657565	0.07250957868479972	0.05161584562436249	-0.06413988481826192	0.04356067083587343	0.08025292842826269	0.07473067874609711	0.11878004651048374	0.07083038472010637	0.035144827799859266	0.10744934225475736	-0.002988086833226104	-0.08822741577640097	-0.016830049793962742	-0.0744990911476198
-0.068083968236856	-0.014451867071551784	-0.07973855366849977	-0.03099525019142991	-0.19027231295834113	0.021329370235585336	0.00150866805211784	-0.08062573064493447	0.06592456688780753	0.09407593984429377	-0.160759612302823	-0.07641759130003152	-0.0775871045900536	-0.09397292579622708	0.08268363244733745	-0.019024001134843916	-0.026839395063149345	-0.2003789349437252	0.06360251035772707	-0.12393340824473684	0.006312819586238594	0.028982010391714358	0.13713400652722185	-0.12997863853821348	-0.3026738260354583	0.019179129704466894	0.18009451293257814	0.1244555120351793	0.021675607504930926	-0.048549940695899935	0.08238863836411262	-0.09735457823569434	0.04788930284090046	0.05192848209198361	0.10692179360128247	0.2770326583444158	0.039006875405509525	-0.05089636257074988	-0.0026148631951538044	-0.1769594576839436	-0.06949161368708795	-0.04092794376678249	-0.04978692126642605	0.01524728570032793	-0.0822141311045399	0.11210306673244715	2.0706491819709387e-05	-0.0009300321138614418	-0.032378689771020173	0.015463178607933314	0.08237584164141788	-0.08631653469335579	-0.06581164890752567	-0.030372602877666466	-0.13633689418137804	-0.07904813291211638	-0.04711528643068845	0.08743891807127276	0.02612174594249485	0.020049527609040132	0.08605736689478438	-0.013358886400964377	0.03919555466249183	-0.010573904482914145	0.02579293336125898	-0.05935744097333316	-0.24101528532767116	-0.013301953178119155	0.14219407118202015	0.0921411585799577	0.09657178671476326	0.12485581147408216	0.00886576290455571	0.019739158139309525	-0.061042361856681604	-0.030934517592388404	0.061436490349388306	0.12024350377609908	-0.014243533233775868	-0.04502224415034825	-9.275422896087207e-05	0.060509698045198276	-0.14438549858143834	-0.22995035587197352	-0.055053669839742275	-0.12214089261305502	-0.05081401976473109	-0.014846446109157418	-0.04555579416242285	0.14655865246665634	0.032492839742983406	0.03117993618066691	0.06217810112078974	-0.11390125027732388	0.10391117874202688	-0.006183896612060557	0.06648931738488592	-0.1065717390646055	-0.1560650908263813	0.08121963571834996
0.042340746527552084	-0.09020515543575104	-0.0712722031748653	0.11755094486395386	-0.10670261752807415	0.16422799457106926	-0.08849631334441917	0.05555519297782966	-0.03286182745054609	0.0610214753551543	-0.05447590510461348	-0.01185295021338939	0.014724069234756715	-0.09742286452366056	0.07927669497893688	-0.05437787935035229	-0.018126073957802503	-0.09910440207906919	-0.25672745089036964	-0.01049249677257136	0.24366470824116687	0.06719458980012924	0.00037510354615821555	-0.019175245900814427	0.020831559523739534	0.05746234044307598	-0.1182832274639408	0.11646572431645794	0.0723821070619626	0.07262539964465192	0.039645604787682046	0.0019617143896279777	0.06386495227439237	0.06342566517693667	-0.034274741970649704	-0.059669948289666916	0.0247530211546371	0.15490201514951873	-0.11930083488110114	-0.15064855593992343	0.016082022238684913	0.005060723882715909	0.01105401125829688	0.02442944641962785	-0.011349418311116894	0.14898634386020823	-0.16009039784765156	-0.0828497024780246	-0.008617041786164386	-0.16452099836527143	-0.018936703973001352	0.1710765562765496	0.002088648829596179	0.02307009057186835	-0.10731439342715778	-0.06985810312379682	-0.042126153882390105	-0.03177150967562341	0.13722572547335687	0.05503500292063732	-0.10730946364650204	0.01922987221892025	0.050458134671136426	0.11284608975410232	0.15970443757298755	-0.09188772968804022	-0.08746826074528592	-0.12549587186086536	-0.024429930771036293	0.057442313558864214	0.10888973733785491	-0.01816266646032461	-0.03198475542834592	0.014243562695328978	-0.08153018672358407	0.214801609672238	-0.16101079166085577	0.018508931868333935	0.20858752120120802	0.0004884603980312442	-0.010798545199062327	-0.03556858580497851	-0.018040295003303397	0.15860074867792323	-0.2212080880540262	0.1524416244985378	-0.14239571524501451	-0.025314476228368517	-0.043978284974385336	0.05404135706809296	-0.1605853636094463	0.05161701566157724	0.20200797425077183	-0.13685736055830813	0.018976819912849906	-0.06831347110681846	0.05053271794472819	0.004762870324378067	-0.06654351041556317	0.05015335264208588
0.1728367467710232	-0.01909037917272987	0.05869414138279243	-0.12895513017999952	-0.11060047203788433	0.04724032339500085	0.1659020625358761	0.057386019967759855	-0.03130580305231544	-0.000895125846090693	-0.12510786398690021	0.06188456683165242	0.07637237404615953	-0.04482920015827597	-0.04823810965172474	0.031082799130364856	-0.04712580222184149	-0.005769935078611401	0.20986105608079608	-0.03056924266028348	-0.023916891517396562	-0.04304007836290833	0.08722567234697676	-0.009172976768441966	-0.0788628307944026	0.14038990835230597	0.1418718450355506	-0.0577480652964257	-0.17902093322746843	0.11033991266184007	-0.044682693942461806	0.07906285608715115	-0.1868010281751636	0.10786097118432002	-0.11416463314865993	0.08491096425814075	-0.004580280255490174	-0.0953939419396645	-0.037674118717364105	0.06838329028039035	0.009228192333385184	0.05843141891769931	0.2351355509283549	-0.15673072595080967	0.1590051685348815	0.010435593752321294	-0.08987840483231282	-0.133031362573899	-0.016471665052677817	0.09036292352531877	-0.012832387895629472	0.14821755082756263	-0.1451175690051559	-0.0012088947846054562	-0.14880771889725025	0.07445687402341054	0.09827622344622461	-0.04207617936810533	-0.2662215154176416	0.0310410240245247	0.056962505956334744	0.05029158887803623	0.12505565354015233	-0.10698711312983306	0.05536366330768321	0.10762092445681197	-0.13967545407180712	0.03303530178768173	-0.05057092989941023	-0.020922862338012396	0.034105328784643375	-0.024700544019698352	-0.06757080791616119	0.003664207378091129	-0.09974721902307243	-0.09782325820205534	0.0682678587803409	-0.11193275780899054	0.061375933778978306	0.046275491539103486	-0.17822625784123644	-0.0615875885451121	0.11940771525645281	-0.11138800081843495	-0.04651635965804413	0.04635396453766449	0.07833905092825955	-0.02576784014076279	-0.059823108002969895	0.1585124940524928	0.1723807845054628	0.09955274480273361	0.007977655563384417	-0.08188249011164081	-0.08304140163685708	0.06924061474417925	0.03004817382653375	0.14807821336098434	0.05758717104574446	-0.1550188505434297
0.11114916237137813	-0.0998060627314413	-0.013144790113903742	0.03349856526381013	0.21947817288027988	0.3109345998951672	0.059206400453087595	-0.03219311140119653	0.053450603880240415	0.08959745737821137	-0.03214457971260986	0.1844439386172026	0.03879395693898642	0.05388117018802182	0.07292275420921135	0.036742288142392256	0.0924187460907908	-0.061724922674737885	-0.056449095154108016	-0.09342455529561547	0.04546986713479521	0.058070841752485225	0.04934851263166632	0.1782049948432068	0.03150715456575884	0.0702293968157233	-0.10925741546876633	-0.03300738446722607	0.07010522159777745	0.08211066275136457	-0.03983548577094132	-0.007159699168021978	-0.15809298336844965	-0.03248836036840325	0.09021936106082916	0.05137961386153953	0.07595103208680853	0.004977368718096008	0.006521410473171318	-0.07260148948706113	0.06927327689214433	0.04205656834978023	0.03738591748158806	-0.05278613504623356	-0.19720420340163508	0.10971527117536957	-0.04788374560084042	-0.08627757640431206	0.07118947489221443	-0.04008114558805336	0.10387037133307939	0.07035418006960596	0.06835693232004776	-0.13659557112005344	0.14799668030545968	0.008788307192153313	-0.04586801971933415	0.014338846734225108	-0.16113817968507166	0.038385796042776935	-0.09802482401105166	-0.14720803816330905	-0.1517080399123502	0.10944045038663197	-0.06058137767194626	0.1680870926860137	-0.06537205176343323	-0.17093400360528826	-0.11317436385022167	0.13998157719058982	0.0033793561539816985	-0.07178302074734524	0.01600180786217961	0.04896038756289277	0.11231510452413113	0.1543036969117112	-0.03945910319013043	-0.13299757783680502	-0.031602334738903066	0.025734730171099496	-0.08218772554392952	-0.09712310112399977	0.03437758892270368	0.029025891349510835	0.003256091819784736	-0.07735806733094193	-0.023040071420576735	-0.09024862230776824	0.08729446675312588	0.0957296217958552	-0.18534214703558088	-0.08834382586534463	-0.15016123925349664	-0.06503082693990092	-0.008334962909966666	-0.14986433123875717	-0.07930038365284184	-0.09674860490203793	0.014964328108602114	0.008657441333568631
-0.07526490722498165	0.0176820872139398	-0.06031283801314386	-0.026811543359767417	0.16084637298206417	0.1340437348688088	-0.12210464459532787	0.09232484042980993	0.08113965544915921	-0.11483608052424103	0.08175300250010338	0.15443702852248872	-0.11770259890764502	-0.09145820974622736	0.10137928415590258	0.029068122208113386	0.053964761192289296	0.034107532460937805	0.0390454666265053	-0.13400982531034972	0.10947370404095462	0.12636474519514407	-0.017073741834155665	0.0001455442431288667	-0.15861303960571635	0.05544420393917758	0.05734110891964401	-0.004245484320974109	0.1160437517003696	-0.028989139824106402	0.06631821150566283	-0.10196643392496677	0.0015949904224247977	-0.009062556405412172	0.026327573536033263	-0.031803077117986064	-0.015060565879846376	0.08260471714415063	-0.0422142168674195	-0.16104046206430842	0.17439228041701307	0.13814540836535766	-0.11295648449781456	0.06893806667485826	-0.051067122378739185	0.026348721533105957	0.029422412901349372	-0.0234407800316322	-0.0772754516626981	-0.06986363585423559	-0.09162114934262525	-0.08366637357277903	-0.006717829004935526	-0.07157599891107518	0.05769638226493889	0.1653973365423147	-0.053462854414139865	0.023940450053537708	0.04780564179203754	0.051879550876782705	0.0134626363270026	0.07842933058970057	0.04886491875352428	-0.12374527044691679	0.08164622177741791	0.08406152211485964	-0.05961411800502395	0.004264378185951572	0.06826127462727588	-0.02657513718830459	0.10724989261700357	0.24667238684260556	-0.07859860326349824	-0.13804737044047818	0.03423474745675142	0.07683604309739633	-0.023157955375744204	0.1466384255349364	-0.13555003474654148	0.06929205524664485	-0.06237925360422775	0.17438557648921288	0.19925129892915444	-0.0818560982900015	-0.055002264011722875	0.08596318569608541	-0.03871306497895147	-0.004752076388710076	0.0024894520731863117	-0.18468345315612825	-0.0024244043288733147	-0.06716978056253403	-0.04974865983467126	0.14409437605472883	-0.12564486601051025	0.08894672534243235	-0.03241421200054911	-0.024152944852928678	0.0756174868898679	0.031647967134479954
0.05553034168999485	0.09681846605328612	-0.02851183313678365	-0.05805245494394679	-0.10698059390633849	-0.08256357590308407	0.30036180094659887	0.12730880838999004	-0.13510742577422416	-0.1318790417314748	0.0481063102712251	0.05626246697597265	0.055816775981543096	-0.023704939580588114	-0.011356880318083745	0.03231171094088005	0.01022931382869397	-0.22192656651878812	-0.023284315545409023	-0.08048078104700798	0.022141825873587675	0.2988188631231334	0.04334536826971829	-0.023495015057133643	0.09970693247900027	0.05356460826389124	0.04212383685856876	0.06381115106976776	0.20960149632351371	-0.11111151290147757	0.05243569445767071	-0.0926379787632284	0.05615917729662743	-0.08352769162664855	-0.03831252197387728	-0.027666075193267543	0.10559004314116484	0.09184544439424139	-0.12184737674572779	0.00253859298690807	-0.07156169418153266	-0.12586244825459475	-0.01148447427752799	-0.031062286047141983	0.2489304556519279	0.043295982536069616	-0.13776175007542374	-0.05647740041709423	0.10383338140643449	0.2076421457998685	-0.1595751375553438	-0.18520161078994374	0.18709651753717824	0.03896141773709039	-0.08803890855608658	0.06216885705613547	-0.2629104723256289	0.00033755065971609994	0.037486559632348176	0.09532742930785036	-0.09432175551070973	0.007082589778036245	-0.09193066504345805	0.024668691083829592	-0.09331285946067927	-0.040428774619489	-0.08918265503853468	0.06512886981270477	0.08504176497926999	-0.022384161624527044	0.01107987501272019	-0.14204171355116438	-0.02996766650450788	-0.005456091742368773	0.26578480341573196	-0.10361427454741406	0.14456276489834372	0.10052383888351152	0.028544801590278987	0.17574391395724	0.04092512620921218	0.04052296475042487	-0.00531287726863066	0.13082270750328784	0.1096382068314015	-0.06325511286488575	-0.13192471945987674	-0.0195166522164676	-0.08084117072235157	-0.0023809488921395358	0.12304804249597721	-0.042426357148992726	-0.004934757498893749	0.005684969901206853	0.08484840904264529	-0.2196757222797984	-0.05994458776619776	0.026156311255403106	0.1143485300061413	-0.05060256875951486
-0.18767157909551022	0.061971144596613625	-0.06355427511224186	-0.11897632826821383	-0.06245977971983693	-0.018452404643820714	-0.06044859673116225	-0.22053568498212991	0.08970662968146834	0.12749103582156648	0.06515245640433409	-0.11377837500945874	-0.02016882001453157	-0.0006541085169690455	0.05987308159216503	0.06683925654217703	-0.07343324619085288	0.008199555641356042	0.04572858433220395	0.1455644110202986	0.07046277696951397	0.07893460509399443	0.008394396455058363	0.14105237085159975	0.04094775406337892	-0.08609313242769401	0.1403385569539579	0.06979154218398823	-0.04428605608229205	-0.0479379237937388	0.02969590778535205	0.04631850582039771	0.01974262801183071	0.031155576084747224	0.17000231375180083	0.10717582788819598	0.01903928696818561	0.09413105807674833	-0.1032592033406171	0.03979266928729014	0.18093069773588216	-0.021807935474418377	-0.08470808138974223	-0.06521150615434833	-0.10897163836206776	-0.07847619081277035	-0.0370508098590029	-0.1405567019178642	0.00156994296671073	0.09022783326434712	-0.09077653749749287	0.15192258696235256	0.051079208852759475	0.10305805856240574	-0.06581055458399176	0.0855151131564913	-0.10917515753316735	0.08902475008365088	0.01717556067621414	0.05533881568572168	-0.11754619324898476	-0.08949346344709086	0.05972320391004134	-0.09484347161633028	0.04630395521559096	-0.13673776025664403	0.0848690998994186	-0.12325149617879774	0.05522979320414762	0.06254281276888338	-0.06969064163638061	0.058233423902734054	0.026044229622601504	-0.05388598209026548	-0.10084046414209395	-0.1962531339315662	0.03496500472996937	-0.1564804516056148	0.009519546225276891	-0.026345504308557605	0.06790116739363292	-0.03019587171247326	-0.03294488114837839	0.07316336406873093	0.03350580290841176	0.03161428032360965	0.04692675898085263	-0.15355804991577213	0.075675942290164	0.06127338442658692	-0.10166536588255236	-0.024392630529876603	-0.003938741655818387	-0.013449678440173272	0.03338599665685347	0.14316243552310248	0.10816468715073348	-0.1312075488699835	0.06219787101390294	0.13287218362432895
0.04178421193423489	0.1090980425185967	0.21123393891030343	0.10716256358385834	0.03322215955933112	0.10447814684955796	0.01542936032088468	-0.0017632969143495981	-0.03514141633558301	0.1559783149628323	-0.08193029141795713	0.15674339301084378	0.056826718116363896	-0.13787385786878895	0.04059098425699169	-0.21240768680000902	0.06715932868327157	0.08882135260479056	-0.059565353220109904	0.019275818896960333	0.1985338768547993	-0.0578094139314102	-0.10373421980473974	0.153531705404687	0.2098598765871537	0.001973145367444781	0.10087624359844015	0.13632088713653948	-0.0741043943500079	-0.04807386760768037	0.1202277956228141	0.16850154080943264	0.05478667410649799	-0.08489436783787249	0.1994568615700734	-0.055173811005122524	-0.021490602303987427	0.03423378344896215	0.15966665796865073	0.08245402086767586	0.04078240816007278	0.046310509609161964	0.001429904948171012	0.05568106088788937	-0.24454364930378755	-0.029660745906979837	0.0241321934916781	-0.11510140836195071	0.03925760680805349	-0.020948073000442345	0.17473481683815031	0.16026741012137102	-0.046580556911816284	-0.015083771156669533	0.00511029791611326	-0.051381588313968676	0.016189061447214676	-0.07582820688875902	-0.10662105781095031	0.06207582360236537	0.0666559933641142	-0.08420892898776125	0.08985503555629411	-0.06377135186389295	0.02547998861267719	0.08892358057943835	-0.005853230388690647	0.045431306396549125	-0.05234875421652214	-0.012671128946709383	-0.011677540768014668	-0.08008631826595475	-0.017677430827364924	-0.1552648087777983	-0.0482209489965523	-0.0232893431261089	-0.02652881299276453	-0.023628243035791724	-0.0010809690920955631	0.04780270507300783	0.09358857436813481	-0.06515608897322477	-0.12032154853456421	-0.08954044769199246	-0.04879693467516466	-0.03566863664572146	-0.07699960661974574	-0.1286494092028961	-0.04627421707021296	0.014956319461172497	0.05880698053268617	-0.05473833796897351	-0.04161763628816967	-0.09326715301325846	-0.0031349054433414828	-0.08635037286517647	0.061556258178247704	-0.17680636475331854	-0.039030007116123894	0.03089801982197735
0.02061949548171268	0.2693033663980497	0.047161853488840715	-0.09549899847548077	-0.0007471336420896111	-0.17765037335966155	-0.006586696862256024	-0.08752198121430502	0.09153904513925541	-0.05476233044070606	-0.011787358492002815	-0.060502371549384114	0.1807425068234208	-0.029946252665614216	0.18673400710418092	0.07907905245972523	0.052647790129490106	0.03687352234266454	0.039093161579355565	-0.18370389304180712	-0.02553681847027194	0.07650312953032971	-0.000839356780420174	-0.13309968834020808	0.01096258322061002	0.17354470793634286	0.12466704075965393	-0.002864605274296964	0.09665016038369502	-0.03718490730282453	-0.17290792228712124	-0.09244653202113193	0.15410725206729792	-0.023023426581157726	-0.022705269567350844	-0.031942924621256155	0.20458912831663648	0.16259589153620635	0.22586451437131	-0.01950044729970918	0.028943096161068216	-0.15167636357969394	0.1466970665762902	-0.11692618682786882	0.03146595855094619	-0.10973025276328441	-0.05888668267386961	-0.08372624310497004	-0.059522335094958044	-0.05481922761138763	-0.05606539099463235	0.08789718063699987	-0.11048627930625202	0.022054142701386687	0.13307416339672204	-0.055546701374373224	-0.07527626213478639	-0.023052462518025084	0.12665985473554905	0.019657412475717038	-0.04839203961281351	0.04271145400535005	-0.10985438977682796	0.0671006017479995	0.04017179925322867	-0.023958729859483992	-0.0848018335490661	-0.08881178011579262	0.05251091819758558	0.1299503197565831	-0.05288044417933553	0.03992866210155451	-0.20870270771931562	-0.05915682750095751	-0.001685143949666537	-0.08393351231241877	-0.0956556888171741	-0.06642198492231058	0.03437132233383231	-0.018892962672983623	-0.21633476866962806	-0.21211211720891893	-0.06068704810716104	0.06273078451460934	-0.2747768303398396	-0.05086826520699886	-0.05262478565174211	0.13982989915915356	-0.03948588592045621	0.036396857008817056	0.01339260808186232	-0.21059096952287856	0.076291706776668	0.02140197462097977	0.050836541738259265	0.3923273043765043	-0.2030035103712306	0.17564278432897482	-0.03337715668631026	0.028918350993907497
-0.021996930263691965	-0.042423633339804354	-0.0934585645513412	0.02902488679031489	-0.1908770853008716	0.07505557648958561	0.001409104335369713	-0.06134611309509639	-0.045001285799581375	0.1252662139968399	-0.05376952360201081	0.036581580797999405	-0.10316067714255174	0.07650047122061474	0.06411765914933087	0.19684184667512583	-0.03002526079082243	0.06875929923346621	0.009331618722956611	0.10734376363649151	-0.04368757289723544	0.1296773803232285	0.00809029582559255	0.010197742914736602	-0.03378389216855507	0.04612457180488051	-0.01143822268424159	0.02862517912224564	0.1775561624174966	0.12488279163096733	0.14836045329122946	-0.04555360808385785	-0.06580012801123933	0.14059065097842785	0.10403435562362644	0.17775465607731838	-0.08528991413006616	-0.022954865536034708	-0.16054626251183943	-0.03921263442923026	0.09683452405309176	-0.04666859643378695	0.15250011053525794	-0.01936073955858836	0.020956712765760072	-0.11476913898156674	0.008520944963390106	-0.29911359709007235	-0.012562806071516228	-0.16603562436834987	0.12056973056579823	0.0692179706533471	0.04666709819660811	0.15210062271593802	-0.15294819152597233	0.27165261414394365	0.11996695639786759	-0.023655528721894605	0.094176819153528	-0.0847555708492555	-0.05298331847663443	-0.0323062410021102	-0.049393290900458825	-0.10551142235922704	0.0951117460570832	-0.054469238650060134	0.12556350486048998	-0.05435439228969963	-0.1820766881611612	-0.004437543578907672	-0.20230041454223013	0.05073112245372453	-0.13683150388328105	0.1990539559822173	0.11503384606293357	0.02988624619522506	0.13072332377593565	-0.07898054171830934	0.036009256001814934	0.020038271429916533	0.007968483960219258	0.14352557736513155	0.07324334376815109	-0.009166667104731322	-0.1657932134177802	-0.09561826324431648	-0.012270893359572415	0.00871534965153789	-0.11297756716915644	0.2807488975065833	0.14841470209598542	0.07165360730856553	0.006025032405886581	-0.02357427260731092	-0.09518224389741166	0.048719554153377004	-0.0028989505373994426	-0.10502101377936383	0.021206455577273627	-0.02472948008244073
-0.18555246921904142	-0.08603850107795019	-0.025281455080074226	0.19199362117903215	0.06960739297181856	-0.13356853210026776	0.045035468648036966	-0.16677738682176338	0.10826912736869924	-0.04609688267095499	-0.009381922661035592	0.13461996275868357	-0.11755098029266392	-0.13786627260924705	-0.054682563293201036	0.10017275966802049	-0.1473050296602123	-0.28321555419412864	-0.04546289393685958	0.0633625470072414	0.1186954988834273	-0.06131859809689485	-0.04259956110945226	0.11858425532639819	-0.16837242286322	-0.03899532850123456	0.019002924531315628	0.047686026115604886	-0.0521888160167195	0.0007976420851520129	-0.25760864909226106	-0.06582483860178245	0.039796183181617234	-0.09978282777130723	0.004885270215514921	0.03976402173434353	-0.02092256822095115	0.01704637709965709	-0.09425897989084728	-0.023847569093867742	0.060996339468937094	0.01568261602048066	-0.07262450535843303	0.02242139561345075	0.08104035124763836	-0.20499412785774782	0.11590740649558978	-0.0336254738681072	0.043572167006416467	0.11972068472635987	-0.1385229759436164	-0.06625450414386846	-0.028854869587570484	-0.07837535211244284	0.19470521881532094	-0.10156984087981988	-0.061851395958046146	0.02043890316029768	-0.11129063116024956	-0.043350300615338774	0.03157782367406318	-0.04088950341881272	-0.009256998152709646	-0.054254661344807935	-0.14709541810880034	0.0429306093396398	0.1613569064453421	0.0017293495494448954	0.021635045839605852	0.08112767952942962	-0.11866155422652294	0.1560374675879728	0.02023289731161836	0.16230163914086707	-0.07393298967109235	0.18359087854720071	0.07652720779262664	0.054247076580859026	0.029220519688526517	-0.025017387553218324	0.12808755532863914	0.012334376179111994	-0.19670698592171312	-0.09122266149671164	-0.01859172758656245	0.030018506023022723	-0.005658848889989584	0.12308520987305556	-0.19619805131419427	0.006480461543070977	-0.18170069025729302	0.0799308672595468	-0.009580698557042936	0.041952360593915175	-0.0863861722431779	0.12235449694618342	0.11321240664603106	0.058454511295875096	-0.013710296625142265	0.060546452281190564
-0.06561777690350533	0.08555556590207121	0.17873910458530984	0.11074691070111445	-0.06134593941019541	0.036126863649608154	-0.12974100463423185	0.049078183780809366	0.04506037374521631	-0.18691214098899211	-0.11622978800763423	-0.02526077681479943	-0.020027751944469156	-0.11926750356036314	0.043091036186805556	0.02240738309577967	-0.015074561614153765	-0.0750737053334805	0.10465877673179541	0.17238920050517367	-0.04705869274734367	-0.07249737322383042	0.04941277852481637	-0.03195374066077458	0.0016434781534400407	0.07467729933348245	-0.19119253988414986	0.1342547243719745	0.006718315851474905	-0.04223095680470713	-0.013505860651846443	-0.0037569376762191685	-0.17629775865304442	0.15056365336696076	0.0036405848568283965	0.0413425642790739	0.10784254769719961	-0.10211624575603002	0.050633931883161454	-0.029717074763223553	0.08393763678275806	-0.21274139239249143	-0.01829943938877335	-0.06032417659776136	0.051938404327858415	0.047004418736820215	-0.07076258948220261	-0.07121738641760436	-0.010200948133303966	-0.08976717265680881	0.08287490184452126	-0.03310100002084618	-0.2906988219321642	-0.037482205662180614	-0.08426856699947403	-0.1739137978517791	-0.1290288056118764	0.010940847183297006	0.14061633281848476	0.029885780882430487	-0.05875488519746056	0.03983233292358887	-0.04568547239788188	-0.0706566209653531	-0.11347285113878013	-0.16522546432295385	-0.047043154951108924	0.01578647748560732	-0.010577219497291514	-0.031237965870964057	-0.08588828280993187	0.050124142076178775	-0.13171318557812442	0.07678151530911338	-0.09985716646725813	-0.07155940933500117	-0.14719710484338777	-0.05089306443678476	0.1036180614140432	0.051400551180250185	0.1045852017936076	0.051898648359062015	-0.11036879322900686	-0.015551676317054893	-0.07815750126048221	0.1321796328431457	-0.11967886464263117	0.09031222379897094	0.08821533731598104	0.17702358190364334	-0.04135046748704672	0.07389313577082111	0.2282501075024408	-0.06234794284824624	-0.15349699266788489	-0.19178620319072384	0.07766856586683513	-0.1876489578555404	-0.03883073982421961	0.04585738162315569
0.025869440600245236	0.04254448641841723	0.05146405773762962	0.13830958320322034	-0.07124040043031256	-0.06778126400201752	-0.07999674796726768	0.0658780783851088	0.0900398835790588	0.04596835228544045	0.11821452490209791	-0.11172424412772299	0.18534075287670493	0.15760976971541116	0.08133889885330128	0.17141638300678025	-0.1549995628096884	-0.052444705979044555	-0.07445152749589874	0.09106629883289186	-0.1025198929107632	0.052365454946316815	0.14015917277318327	0.08135030056260435	0.06604514194484576	-0.09539686667924796	-0.08484211357029149	0.1313682448445191	0.07793676926720472	-0.006392969966946911	-0.05549983116834814	-0.20258066066431402	-0.11461626299800182	0.19427283847439936	-0.12703880871495715	0.010938837298543388	0.13058277551580552	-0.12549226680022926	0.025461524045118925	0.08610231036461878	0.0007205512934535305	0.28679518910047563	-0.18291124539607576	0.10571446291754623	0.004227873086292626	0.07719201548366751	0.04413071516992459	-0.07331561971099966	0.024647405469037723	-0.18664754940196493	0.05823039311530053	0.039196222362163274	0.06386601686431025	0.10581183250871502	0.06908334311340687	-0.007609540712733905	-0.09833481931047564	-0.0712220763649051	0.1372417438577621	0.13982889777205007	-0.018665919389336864	-0.008302620801774518	-0.08987993133416675	0.1154827511186526	0.07019155972515452	0.21195780855713553	-0.10371985074061565	-0.03805492175574842	0.021565428609515314	0.0842246012940138	-5.416654754194636e-05	-0.1075010591685972	0.08814072010440065	0.07087482528134244	-0.09114197642501058	0.14556176332052825	0.11362497119991767	0.013443756744719499	0.018857323205689287	0.05508326942520621	-0.06960386361378244	0.0010761984496898166	-0.2152387783177063	0.12760725944951368	-0.1561919923009154	0.14894214201630177	-0.03301200939664503	-0.018195908939482537	-0.06441617941027682	-0.03896359137548098	0.14106367864947636	-0.24372490479521097	0.12691276478175684	0.033679580433698494	-0.12068904140153928	-0.11429968171312285	0.18311289650782758	-0.09066006160538705	-0.12099563144122781	0.11637778368718096
0.03392248564629744	-0.09379255765363989	0.021784880331097472	-0.10253257344036924	0.11022936277748689	0.10613710931155099	0.053172285761892826	0.03607989539424216	0.17611881346671823	-3.770913121663373e-05	-0.1181964150695014	0.0449760718048408	0.20870543633230226	-0.10147538431627517	-0.03611023647974737	0.04162169405093705	-0.0053063704298151985	-0.09821735388412038	0.11218554546157714	0.23208289189176487	0.019611645617542126	-0.09050772842938488	-0.15492567623279524	0.02580027437374758	0.11052738484169895	0.04745604673087442	-0.00023982167459900888	-0.05892521240057307	-0.10928061777361552	0.0834337289750506	0.09126896090797317	-0.15457297783132914	0.159004884609656	0.057338812233448264	0.13994621601266324	-0.13425415455586823	-0.13645040614625417	-0.014896930976729693	0.05033164435959007	0.17963093718455933	0.07060202357618543	-0.02426814157220852	-0.10277714595201574	0.12300015649300676	-0.09640714320700529	0.16284685547723218	-0.028438464960650934	0.15905820726178505	0.06787906584963273	-0.01370365958660079	-0.0519398950303893	-0.034069164745076486	0.04283166923752375	0.007715649621771674	-0.05917770613244133	-0.01677563184802462	0.0077611041688375034	-0.21287340944148123	0.04587660857028509	-0.09799080096550368	-0.115354439692175	-0.1687864528640832	-0.1793898630291747	-0.13554415646383705	-0.07088319203420419	0.19544422760569816	-0.05270457955243785	0.017787282385878966	0.04004801664143982	0.013182723172006605	-0.007638384725117097	-0.11965452695584178	0.1450927483945454	0.1807189458956998	-0.16831263896875087	-0.10237848279430421	-0.028010887902713017	-0.09645318202958125	0.05068799499467349	-0.07282725117546993	0.2165503513820066	0.11903467094016469	0.021257104411750737	0.10280778855219151	0.11058969886967072	-0.05639427910540774	-0.08162172445419648	0.00780935050097684	0.08616171496097265	0.013808109940896467	-0.1577137277148174	-0.08036866525386534	-0.007388287360160081	-0.007567210261004577	0.19725516779597843	-0.13866807695327746	0.050609688998163885	0.14886789490421865	0.22713983628574178	-0.04040684290876155
0.039171123337920326	0.0569760357198647	-0.0030738491058838473	-0.012372906114097608	0.019275155405330868	-0.25322566330107515	0.09837461934926812	0.046287552100438265	-0.02224748967782654	0.20460869763638165	-0.06767651889954622	-0.0389540507581999	0.18057127934359768	-0.08274590435493338	-0.056848195415544034	-0.006705463554363708	0.07602841226304602	0.022290734966610926	-0.12951129502925915	-0.06787590680224294	-0.04193755773978222	0.028522430060499124	0.060387476649083685	0.05351536494779074	-0.20555633195698478	0.1199944522397049	0.025374057958938018	0.14494200031745752	0.057235736279291946	0.1286930956011713	0.08774863469453752	0.13462276581749708	0.06820744906814873	0.02084399713402585	0.23883208331740838	0.1099534885877709	0.040769593962453485	-0.1276304416538336	-0.12564397591300766	0.029290875880481817	0.0125969856140326	-0.061430897157408654	0.07187816149459925	0.15883094588042837	0.062240173325216586	-0.11410085097527384	-0.011150882714294371	-0.08049664808525608	-0.03439548123447324	-0.043083752511690374	-0.047794645152368406	-0.13039083110001898	-0.012765468151819013	-0.056060763684731	-0.3260697495759483	0.26900336345429926	0.12611512052980509	-0.03763007249249961	-0.010539979656657017	-0.0994817794532684	0.18911858554096256	0.20896410531265777	0.018310507893659587	0.10252713944632624	0.00028180430358944186	-0.15041045399542807	0.01799613662301673	0.015623227416370122	-0.04547476640191872	-0.04141532560716616	-0.016118387045553417	0.028608020403102827	0.0052258469801087955	-0.10596824358694336	-0.055402507740767416	-0.11530434168643511	0.10084080816292933	-0.2071134178110909	0.10456008388386763	0.13865305315241855	-0.04255707776947474	-0.2488971300981162	-0.03613570974566574	-0.030224636298970275	-0.1013130978807115	-0.05122219500002442	0.15301951988633514	0.06596276588151753	-0.09243773153284192	-0.13431523147806523	-0.03524444568361566	-0.012291134628748484	0.04912012101590212	-0.055076420835962675	0.05116074143398004	0.22072292967323148	0.0633904933069277	0.007997275598311565	-0.025441021326709175	-0.041998440491745406
0.11800726707492544	-0.06273134459513029	0.0044246339428803535	0.0050816187228728445	-0.050285923385788425	-0.13724630668439555	0.032374892497183214	-0.006014890357878451	0.050024051888595156	-0.05335512012504883	0.12208229936925503	-0.087716797727168	0.1711200199885998	-0.17476748977353337	0.04345064552176437	0.047570989222696085	-0.07961728175408539	0.04243939378610126	0.12795205543303548	-0.2217649534990757	0.05031853999743418	-0.2492003461820413	-0.09653359358081309	0.16292656002213365	-0.058312473840314516	-0.11733031436067194	-0.019790361589830257	0.20679664254120542	-0.18310867355455276	-0.10508098604732818	0.14989026776567782	0.18577025742402473	-0.010305531988968351	-0.12382184976211388	0.20961098634232964	0.15951609947408177	0.06778689856503481	-0.081240234893742	-0.004934721580311081	-0.016036008104483076	0.03308518784372411	0.1450931389123422	0.08812458094255651	-0.10774020607766147	0.13760231471567838	0.03131321400131553	0.06870657958589163	0.1466540859278603	-0.11114075356936128	-0.00358246504971558	-0.053146140376011446	-0.1568117062848009	0.03467099776049199	0.25115565515844235	-0.18416404866771177	-0.0029920535707121635	0.06413631385391169	0.012307820165618115	-0.011365387344724698	-0.12987770126861256	0.02331756485628924	-0.0756114307500323	-0.21899164927625273	0.11942893393326347	0.09579167564334605	0.005076504276708838	0.02308619590220869	0.10742684292107765	0.02243342036723006	0.09032475320898821	-0.029818287996068293	0.1313144751972921	0.032078584879404876	0.01940225832606883	-0.12695086044634724	0.028703598190826976	-0.08319278292243275	-0.06382862269175527	-0.08161955607937464	-0.10662441497405202	0.21242375440683656	0.13316711852717938	0.19203661946951542	-0.1223997125554593	0.007125374991089249	-0.1293460147840794	-0.0695694877197064	-0.09181397674917066	0.12395612548334445	-0.03952295630154788	0.10684152063173152	0.06047630457468731	0.23032788845878177	-0.1479444223139724	0.1259233239786799	0.11473430905252027	-0.09739496548543279	0.10076524798062085	0.03360478225313975	-0.022825306144595877
-0.08057945960816042	-0.0719109451449186	0.210771790951123	0.002227616107684268	0.08327091125473667	-0.07911327245760041	-0.07833032576635159	0.10435714081265074	-0.13495762115515322	-0.041321648954394254	0.003370565822775402	0.01269109903146745	-0.013725971124455717	0.040872902253401004	0.07122355911016137	0.0719137646875679	-0.09641934773296389	-0.02833859021830051	0.11917356650154083	0.09256644557534548	-0.1360739195531894	0.030313226817597454	-0.1976137671700757	0.006872363450690731	0.19725566003462758	-0.0939954869917735	-0.08354150035843996	0.07788095363569131	-0.1542519312325069	-0.06293728501283719	0.05715424844317514	-0.06342856923624475	-0.025268761368232813	0.0753729718457995	0.042225370775496054	0.025116064723197072	-0.02824839625134212	0.037006111526895535	-0.010742990062845322	0.04409502112255751	-0.049772365800510324	-0.01827022806137518	-0.10278197282916496	-0.0035234101299612044	-0.07663264787730545	-0.11140464501619934	0.025866114785538814	0.021273977585766032	0.07867187077345028	-0.04316060227613027	0.04042442776532272	0.05657887688661619	0.04447738078315948	-0.08256536828021421	0.022204475732053416	0.03184044669788855	-0.0010195920425911233	-0.20864776583710848	0.01932259597412133	0.22030483700030123	-0.03492613512796631	-0.07466326232616546	0.037497446289564695	0.03094116539301724	0.12047482969187233	-0.12192921089439694	0.06939592622750332	0.059000332518700446	-0.014523798384387202	0.03825182971346986	0.10664239229498239	0.08299395116868666	-0.11430194170850363	0.08175970456540518	-0.005994884847885356	0.008855399574121226	0.007300262782995604	-0.014850429755730204	0.12101180436606936	-0.008445195475354638	-0.10869012866169334	-0.03961430727502653	0.017868989070825115	0.1314340101131468	0.06029851875463289	-0.08527882914188001	0.24851899166788916	0.02726000341023628	0.12728631272780438	-0.017600811118223796	0.05322603177753498	0.08562356875962507	0.12159806447103162	0.10551713180023156	0.08722229439148083	-0.0329866581354153	-0.05395761358430662	0.03411188148020524	0.09265680461555209	-0.021394438816110816
0.10691155012454612	0.14526167454861794	-0.09078623046714322	-0.08364131413741994	-0.01329759753000043	0.03076126691098733	-0.05280204863736626	0.13452586529577507	0.04240668615184512	0.004114257537411411	-0.14359093429737588	-0.1316322940814803	0.02873846493981286	-0.21324152536857469	0.10131709122925107	-0.016056260655190235	0.324556837909206	0.23079214916880375	-0.018107527106394655	-0.010115274570978909	0.09928179278859392	0.16929889149638389	-0.1640193743391178	-0.17854713980155942	-0.061224463957261714	0.058127903693209526	0.049671300879115636	0.10693042003755171	-0.12011890691842847	-0.2319132677637247	0.08531012819342251	-0.08281960966306585	-0.20237268378737194	0.014206125780079827	0.07934432586053373	-0.012458558615905111	-0.04497137234055176	-0.015936223214590657	-0.03699272098876539	-0.13494659479934062	-0.07148115245425535	0.052128042809381735	0.0313481022238261	0.016800092011193587	-0.09895501775908566	-0.018150316213566716	-0.21770650464428548	0.017847666388538973	0.14293992771444045	-0.14742375591497983	-0.05875286846170039	0.033327336981151805	0.12528426344274837	-0.044822461630014944	-0.06791153900944766	-0.19789588429837301	0.009875622868338119	0.20420760401437443	0.028181553376025903	-0.0025805977602006308	0.03223712000629635	-0.0017660994654264855	-0.081322092569485	0.08207211257964493	0.02293870799577496	0.002247948147708658	-0.09821622814635053	0.13031134611931225	0.0663809751203563	-0.0544483660942117	0.10071398294268129	-0.050536572614730935	-0.0782003492511037	-0.07596927578599799	-0.17718099577346427	0.04702664651599372	-0.18335719809614795	-0.12312019495672077	-0.2072327091515415	-0.008621896879070131	-0.014526250095735306	-0.03294723628562443	-0.10425778131054624	-0.11596498491241668	0.04643708145474956	-0.055143005073714196	0.03163583215361448	-0.08854563481543988	0.017877588214123896	0.12987700786543369	0.05863667393611916	-0.04082072651939423	0.025702603681328044	-0.024075963380290836	0.0007880246021443397	-0.03284789378801998	-0.016152464603930935	0.02107332840548687	-0.09954896804051568	-0.10156880730397518
-0.13888074774383416	-0.160027110450371	-0.12177695248777938	0.015924445506397555	-0.08933215122285343	0.05136144114789233	0.003508431643112267	-0.19681096925750732	0.06549756184638325	0.08108235752162893	-0.09938626748348534	0.041996305400351645	-0.08569127051057064	0.009764953795709755	-0.1264617053303161	-0.17929652239375946	-0.03831243734763081	-0.012372894627483616	-0.039767915628081955	-0.11844579772873583	-0.039968773963898974	0.026991337150084904	-0.004474625998807708	0.018253727217335917	-0.06708014620573027	0.11720154890939442	-0.11761604732678664	0.04876031437273937	0.11821891420427469	0.04811688291699788	-0.020177059317419824	-0.05282970466629792	0.10362361009909232	-0.14225467039099168	-0.09699804558628564	-0.03971960575287152	0.12370965764196795	0.03797676360408961	-0.09682277943695233	-0.031033033456878575	-0.06143232285039429	-0.07098311235062206	0.09797804767093686	-0.13717431292635057	0.16085307325311096	0.08282296901846228	0.1090861670603698	-0.04629395120252583	-0.014984900894726354	-0.1433151814524712	-0.05246713046649219	0.04935460328843939	0.12960630617813962	-0.11071568168024518	-0.036635146451829304	-0.01501002864797468	-0.13953392440168358	0.059134924175840035	-0.07242814392998156	-0.01951993808538381	-0.04517674353185175	-0.07890168601071477	-0.0007045094430298492	-0.021578614987931788	-0.03720631389204705	-0.07289220123424377	0.03203828072415744	0.16535834820431847	0.013988923523774273	0.09957680896090722	-0.13906078738290398	0.015831071518648952	-0.1097368362440902	-0.1476929186909303	-0.07390734897814863	0.11918991019561988	0.09500197916941523	0.024299661693680644	-0.15331499206651408	-0.019628919655294404	0.030145905040630146	0.017569264153243388	-0.1843793583480746	-0.08908567023092559	-0.0064077764148716635	0.0536318052391807	-0.21961278210999466	-0.016212516287145918	0.014302157461097175	0.08501147137499925	0.069285928379892	0.058296910468351316	-0.08001382747537615	-0.19080021371233077	-0.0393052757061401	0.10020768634582025	0.13931576275630075	0.07108109660432559	0.04293443486134	0.0379250925078585
-0.05561187467607806	-0.013006029355362004	0.1669069525826331	-0.09425580057918764	0.16147787907098515	-0.03220281544920584	0.13254321090950785	-0.14068150094975382	0.05859042011646492	-0.0736770135947622	-0.14152671919241874	0.021853404241094568	0.10094717885959688	-0.08449414385934964	-0.14990159604584014	-0.009184476433495513	-0.008743532877718108	0.054831962755449874	0.09495945713644882	-0.00594151812724941	0.18555033147942632	0.02242347445352918	-0.03464265060068996	-0.1611567359102828	-0.026265952031616774	-0.03363869454111362	0.09603047962814704	0.04624836240668541	-0.11793691216326173	0.01722543864110375	0.06715311717290534	0.15280313593878328	0.08875039674140595	0.07608466543114778	0.0060085994615163615	0.038831200542344964	0.12495049007061587	-0.13327773974796497	-0.034943932721695596	-0.07725687487562408	0.03791531187261241	0.12302221756507876	-0.059697428672107394	-0.2390304367469438	-0.04122207450244702	0.09134737320174066	0.05376299029498797	0.042818624781057614	-0.027999330187447977	-0.12790307362197864	0.051529432162446744	-0.08342818100346248	0.21840967333804562	0.057050720835451596	-0.058064830255395106	-0.061138524738862825	-0.009294420661358828	-0.02395019220217498	0.11168337755299543	0.018641616974404633	-0.0731631738908528	0.18904406851557828	0.004930833152022264	0.07688396759688969	-0.06082265074447593	0.03631156277445234	0.031110999114319523	-0.1889649292096153	0.20152751104606403	0.12906444609225473	-0.03971953161459876	-0.11022697404558555	0.034756161380355206	0.00866976994143966	0.03556689485632294	0.01915773961940896	0.05062409893059261	0.14473056993918065	0.05681032051286461	-0.10496554989099412	0.1362562852712452	0.16406145634882874	0.31520567345120853	-0.1123494033239598	0.0242882013150275	-0.20820987031889873	0.05531491563792092	-0.05482002981667727	0.19234457948249534	-0.0774614970018582	-0.16891830379672618	-0.04712637407025197	-0.19754877712171376	0.07510994545073102	-0.20650830462563208	0.0028457581183158882	-0.20778118198561968	-0.03202978045366419	0.1643378155804534	0.036064789143579495
-0.08640779283126494	-0.0031203488939083976	0.001353179178321707	0.04716240758832384	-0.13688285355626556	0.05925672738473307	-0.26938299498419144	-0.062158675800439385	-0.04882738424515447	0.06326290082854055	0.002263085267686914	-0.1405557167030926	-0.09867451979301657	0.01986800095474069	-0.007909089402460462	-0.057657348849858035	-0.0482265018378034	0.06988763043011521	-0.05176925728692147	-0.009725079496523152	0.2179473069463519	-0.14128997311363897	-0.184962334236455	0.07849308534548241	-0.06895259779872188	-0.031541206528934815	-0.07814800985043938	-0.02585995549878223	0.16015661583625618	0.08090933147248201	0.08766529741362213	-0.14162270557926457	-0.11429331704030252	-0.28304603431831843	-0.08070970185552484	0.09642365419542955	0.0509754996239132	-0.02215132629521239	-0.002232215522826832	-0.06888855395803188	0.020411498397162064	0.07658788234110478	-0.16005037724561758	0.029970364670785097	0.09299251409082374	-0.04151002889633696	0.07007006121205837	0.2814654444472553	-0.010395483298018985	0.039330705000532366	-0.07380553499112522	0.01775255779538522	0.046027162498230384	0.019484234027013807	-0.10199455161425214	0.022301311339109293	0.146562807818981	0.04486357645145273	0.0956484527340309	-0.023160876237606442	0.07551275347767285	0.028715869418217854	-0.09493897707153588	0.03182456707581342	-0.09977004090671245	-0.06347658748132082	0.02062888350022277	0.02986900484532251	-0.11892324650771291	0.10505526769439433	0.05697517330772036	-0.06968015052188463	-0.15375847964491754	-0.014490511147642113	-0.043988762006955756	0.011616012848788201	-0.0360894462199455	-0.20074568178049845	-0.0394951303039404	-0.030561911106831298	0.06282027439060177	-0.06923163461114047	0.16786746470147262	-0.19191326119852076	0.13109022418146743	-0.022363928211228956	0.08595848723435562	0.00799752446554284	0.11395555360254693	-0.03815490680038685	-0.10987060151046499	0.14227990671744528	-0.011263273338910515	0.022052018476861522	0.12347519140447952	-0.10242588699218594	0.05889111768893876	-0.058708014154701005	-0.013208471381864794	0.007198332047743524
-0.15002218614469362	-0.07788370428204348	0.13510728924131393	0.08861911885847956	-0.006263957732723487	0.02431234585128931	-0.029424250563645768	0.13565833858279822	-0.02003525777941639	0.023184209213484807	0.1146030144142065	-0.07773714848459067	0.1558789184496894	-0.1530461409743377	0.16296421311127987	-0.03726755839519746	-0.024269874782528178	-0.1890010171182943	-0.04547947173776929	-0.10398065310268843	-0.06076463453734726	-0.013731096578887962	0.09577916144729057	0.020760335140062577	0.030767665340111383	-0.10955193888455624	-0.08807540896027302	0.1798725018351312	-0.07352010347632466	0.16562082520572957	-0.02430611988808665	0.00022879361435040494	0.10703651602299298	0.12718924219386565	-0.01108125602790875	-0.03882430535215389	-0.005592044852221312	0.03379575282321183	0.08913036868697555	0.00042298589941515766	0.06188862980231537	0.1638359732270941	0.038130961226478466	0.031165285600477835	-0.1518910825090068	-0.26307301368290636	0.03883757292301684	-0.009482423128087225	-0.051478267491474196	0.024353020418634463	-0.006040372919690829	0.11277802506338985	0.00861108682589779	-0.07469232850701676	0.09901662389592891	-0.02171310749462025	0.05265366836723071	-0.04774107061928005	-0.06498268854974364	0.008416823018569615	0.001282864354368512	0.047982703536683304	-0.026864575330974257	-0.18363597837703974	-0.04327738835883887	0.07938184671438157	-0.029737607924310645	-0.024638340251454803	0.0986376505905937	-0.07119732272589228	-0.15428032182428997	-0.016063111952549437	-0.048417395124873704	-0.0966246319753254	-0.017537845589869074	0.04915056472467837	-0.0009288561567815747	0.030698107268623778	0.18134076985154232	-0.03428788615575641	0.02783486346446696	-0.050921336259913456	-0.0846359719886973	-0.05849076534177699	-0.047875857152168855	0.03594757975471256	0.23490757867007575	-0.07160434362758404	-0.04166253056154626	-0.006312301311124826	0.03957988487097471	0.026355081195478497	0.12840957939481173	-0.24263920705352082	-0.2386929870195673	-0.04958781720101493	0.10973001875437088	-0.15656480316055965	-0.30076323396937577	0.057117940621920875
0.024365722370271445	-0.10902084067994298	-0.098553960072093	-0.09697437196346745	0.011053531747394013	-0.0626315276183007	0.04940639189755197	-0.2854626662904391	-0.08568518651277994	-0.11260539609110504	-0.02563406783724922	-0.05380477584901386	0.07978437798957666	-0.18593367716600576	0.0045491476330752	0.05583364232117055	0.18566474365619548	-0.04817659710934752	0.03244586043525171	-0.18038627925623651	-0.23919562043130238	0.08447743757817	-0.0005560293648070566	0.11785126897984229	-0.13734028889697492	0.05199021395287526	0.18688178405438532	0.04197056083572659	0.02765815055910488	0.0008556080824349832	-0.15708814571259122	0.13555729357103483	-0.06108576398050658	0.0504483256383017	-0.15630343065712538	-0.11794596645077804	0.14350873992222354	-0.034730228895784296	0.14532754760425445	-0.007823065905851781	-0.18418977729578576	0.08920675997317207	-0.058989231775560785	0.06986888135170435	0.002521086754008212	-0.15431182279428704	0.016429476537056908	0.21962231421527992	0.04929864585144592	-0.005751775300546313	0.10753434019568978	0.021066846520311083	0.020953423026279436	-0.10916251721591026	0.023384802578959838	0.10354434164169449	-0.08360621521000247	0.14244958212469477	-0.009170602414512598	-0.08877695115385408	0.09976320769202446	-0.02867942357382693	0.0759514887486108	-0.029175863225853717	-0.00598261435299037	0.04935602043342916	0.029089705759000592	-0.19955317804517386	-0.11212437400943918	0.09294099847908155	-0.013213658890154726	-0.05237313027714218	-0.13585740152574743	-0.10797363212758485	-0.20217986399619475	-0.010128071870153289	-0.05984375805810469	-0.09665878909853153	-0.00681234251679531	0.036397063085273816	0.20931979322099448	-0.15118834195632136	0.11593810433005221	0.0973101561015072	-0.07790927393767005	0.020323595458603103	-0.04576332493376153	0.018568858041873894	0.15091310134045507	0.0605606232631313	0.050860837323344205	-0.04303093199546424	-0.14840566649243353	-0.02084682105404079	0.12066081548639151	-0.15271678565896477	-0.10550893681766951	0.012626773623406818	-0.09846547848472625	-0.07925234471152126
-0.060165506761964034	-0.13656174041901495	-0.12743858259868016	0.06719747138963486	-0.1641995428893128	-0.15978715432103913	-0.0313412023182865	0.11554825624411402	-0.019692180799688958	-0.04662704342907773	0.004312320275770446	-0.17634108348431518	0.022727688677489595	0.038728922779594784	-0.04715006784967422	0.11030161075722826	-0.12343945301611721	0.11356644676225802	0.015188515715095479	-0.04930013280463269	0.018639766074709796	0.033653318261404414	0.14625305595187152	-0.09336938717508463	-0.10908768985011384	0.12173365573101683	-0.05905399485701092	0.0939916802432686	0.1872622959787733	-0.022443851204412762	0.1161674350079437	-0.11536882120740351	0.09275666037349171	0.05502079724986265	0.06035850099841653	-0.04146237103501412	-0.18456669155546743	0.05032520647495048	-0.20566725738512595	-0.0320037172852752	0.09230804770327498	0.019182863553760844	0.2683784243673326	0.10196825264784312	-0.0742454098307799	0.002731337985143867	-0.004737070254443595	-0.15821767633461273	-0.08909840565421034	-0.05931269398076239	-0.20370016090056728	-0.0014442362406668554	-0.024907184465304072	-0.16728939013115743	-0.016097396323070123	0.15097647526712268	0.04431408112546718	-0.03240681752089702	0.04543087344990564	0.08835287176971518	0.0545512896630065	-0.06234157620126735	0.030093033072103554	0.11945205803833123	-0.08333706071312824	0.18279638769272438	0.02179496369529763	0.004505029068259571	-0.06745741046751527	-0.005522439930553723	-0.18148250947181208	-0.006378319576234029	-0.10921212003485672	0.013909043851264452	0.11759413043668827	0.08125450107104217	-0.23586778884161225	0.20874465796939815	0.012379731449324713	-0.07757908074946619	0.0020586499844263604	0.02966614621880834	-0.06668821662916712	-0.011400024454839763	-0.06080900125848488	-0.04033290719796656	-0.06862791357550845	-0.14369074769584794	0.014429658865647642	0.09289232418238949	0.049736525293253675	0.08922083516502956	0.03102776461468535	-0.0542916326880829	0.08396670325928805	-0.10188939518874221	-0.11318150851444142	-0.08008732767075114	0.0953585925297463	0.08620413739478568
0.041837130306546386	0.10719298652117973	-0.10177979629334542	0.03434908931445629	-0.02809450682949254	0.08468696999616447	0.006847634726023573	-0.01681813486139367	0.054090851856099	0.08734379162154958	-0.06697300154318811	-0.00483633930777928	-0.11799754461240132	-0.24943539575081003	0.018970070079609543	0.06565000940328136	0.02185644682772672	-0.19434238359031109	-0.035212210900392005	-0.228607496496485	0.14847745246658983	-0.08613339330548775	0.13770978533005684	0.10307904606856148	-0.10577820491726357	-0.10438760666477835	0.035108756594611	-0.08053782925343357	0.018391199631911916	-0.03745060470536483	-0.15334370814465967	-0.22304678539147296	0.032482322649433425	-0.03693530378255906	-0.04765929979783523	0.0821844787891952	0.10950131626573834	-0.02725447213618092	-0.03133258741669386	0.04984506931550371	-0.13703662235638997	0.022313091664698744	0.09234452617508912	0.06793621397655304	-0.19730329499378058	-0.07613552698089407	-0.08782632528234667	0.009988695440921298	0.050616364519352385	0.1481727898004748	-0.049527967951845074	-0.052208302083722936	0.11496720188787471	0.02965769385303051	0.10388680347041139	0.0685191807780594	-0.1049010008248907	-0.13331283547778067	-0.16167692957973295	0.07731497526750787	0.13171398929797748	0.19587587505397874	0.08582592858596233	0.1164159231946091	-0.06946979953784083	-0.12656538412323212	0.12290941110669765	0.043020922915998266	0.010566841252658082	0.025882911998512233	0.029777521776909923	0.15199196773558302	0.12949855848169559	0.05450058347853777	0.09414350307365844	0.060891867043444174	-0.04502925978519972	0.07836201939710855	-0.14509327895663623	0.10540358062167125	-0.125784689931238	0.035199263568399246	-0.08451736664430443	0.04118841321592371	-0.0035227699141712763	-0.15938232590248327	0.042069963101847886	-0.05825673513070639	0.0880870516417656	0.016626783815819987	0.03766892970665726	-0.09135327000132556	-0.059558995042212966	-0.046806363285694944	0.08567717952193876	0.18498964519770947	-0.09186004170664798	0.11612530632464926	-0.22304999808233641	-0.1241580292579713
-0.09588798092822255	-0.13525086894407223	-0.1583247630400646	0.04127858436084717	-0.02141657031601966	0.03794146894607992	0.06908625413861949	0.026570310792635988	0.06577633376625408	-0.006940901959179524	-0.11869901237886435	0.10577790414361984	-0.058908162399811566	-0.09356134071853564	-0.017790631464382173	-0.09127243668613728	-0.0417702792983585	0.03440539215634665	0.03483315896737289	-0.0897898312509788	-0.048772126894228836	0.10743744355321719	0.049673678244714	0.20751338114814918	0.11801704301093757	0.11445103088918634	-0.13878544013136024	0.07639195522075627	-0.005286576597779825	-0.05511032504942889	0.016853127428665547	0.09452119788242876	0.05008791445048882	-0.0878097445710365	0.07424721141346702	-0.06373267044123715	0.02165799353116057	-0.030335006747713424	-0.021895923743067616	0.0766241265622605	-0.10401928750352141	0.19451522755116535	-0.18204832209389038	-0.05977024657189411	0.03703000822400143	0.05843141664353099	-0.010047572057170516	-0.005739070300154241	0.04108188837791683	-0.023107240511895638	0.13930937526194664	0.08394313198627837	0.08728243510056347	-0.09661567233704171	-0.007918839844745559	-0.02996440711010274	-0.10055559001107298	0.03601641839457669	-0.05374561368082455	0.06555783280468708	-0.1069966998849388	0.17189458401444596	-0.08963259780779133	0.02191504502586473	0.07916930348105945	-0.057069984421654014	0.08528526241631966	-0.12291691061466398	0.1452064174911392	0.0014174454985689837	-0.05964670833916106	-0.02993086682357653	0.08089193809531037	-0.05847268588471354	-0.07491658022155581	-0.022122475771616846	-0.11769707032198444	0.182052305988576	-0.056637810896434014	0.08316060471803531	0.020948843304138813	-0.09844274108039547	-0.0005956267748702518	0.07841238674878213	-0.018826133508630657	0.11929668921510665	0.10215153927818639	0.09188179810687107	-0.04597407710566077	-0.10796261509515627	-0.0613543589467064	0.01966304598200681	0.05457191400721057	-0.21715714047604476	-0.000811320161175029	0.015831723918033145	-0.02773846888508139	0.12914640426249072	0.04216639542221292	0.1309980128081566
-0.021596052035023225	0.0937477492506925	0.16350663945275196	0.13116934492726612	-0.10921415934287332	-0.0253676077542381	-0.034516470544979645	0.04892545350763276	0.06863535550145332	-0.08388926740257363	0.006783851391693768	-0.20199273321561365	0.14419450058018898	-0.05123742406766936	0.005586393984449697	-0.030964971398806124	0.11460275750134151	-0.2837506441397379	-0.0016610342325908988	-0.010581875749769789	-0.04536363875916828	0.17262265456356327	-0.08873294588557712	0.07717961772356613	0.03562527887060836	0.1261519252535516	-0.06671890847775054	-0.0732968899123759	0.10960699074773986	0.04253213083301104	-0.15449373466767588	-0.053930501446327044	0.0386382653848061	0.08377642215465891	-0.06792306531929551	-0.2914255989816941	0.05232231857370332	-0.12203206899439759	-0.20173387981224114	-0.2832325924984141	0.08139808601977412	0.012861745040496654	-0.022565638071225164	0.13890243629627616	0.06373246830230726	0.16163000427219165	-0.13927354721669966	-0.0034550623953963516	-0.16167133749480145	-0.022938233185546723	-0.024861585376667737	0.06266136372630708	0.004556388114189832	0.062340713827991556	0.07034401331388943	0.21549286773831422	-0.03152966552861244	-0.0941022700666379	0.024608361531640883	-0.08022800271395436	0.1481960768436536	-0.028321803894523257	-0.056557636787399036	-0.04713157211511179	0.0718417423471641	-0.015774698323148525	-0.06416668201303824	0.1665351917623531	-0.08561698406617502	0.003556607403299353	0.06523061516102305	-0.16313351104170734	0.0480260501405925	-0.10551076754804495	0.08227827808340026	-0.09626510119189763	0.06927690318488605	0.11058330662947127	0.08614365256328049	0.02513166482381024	-0.023130094292969944	-0.05764195763348439	0.1471034690817104	-0.06994952201676433	-0.10370660735699962	0.066536893503283	-0.07961368031864954	-0.09500634974661272	-0.1443604262169765	-0.048290983946051774	-0.00827150238964932	0.024309172766069878	0.09513062442994835	0.05268979236657937	-0.01908722195531798	-0.01981956763797199	0.051015746891518346	0.12725701629285696	0.01263141994832002	-0.0469130854210409
-0.09606571214707593	-0.14452052644122257	0.07764997999970315	0.06067796745256236	0.06676618227416992	-0.012884693951746988	0.1382669197339375	-0.05559205527708023	0.09552693272511413	-0.0036201170787662634	-0.06086301467481316	0.06145912302119211	0.04797491024812698	0.036985403227604616	0.010943949802811966	-0.006094735623458906	0.24232650865808225	0.11842566968506862	0.07209900739136485	0.017787113114794823	0.10007325278507918	0.04244244659912845	0.00259229753548555	-0.02757674803943793	0.005032855211160854	-0.3172357140739164	0.020931146664794543	-0.04750096774058732	0.15822392815449637	-0.00018670939785953602	-0.1252433897732345	-0.004988010275340767	-0.10780209065042867	0.04640047116449794	0.028336842710879124	0.09234250419872858	-0.06901131369633616	0.0034008096228146803	-0.13435257030463862	0.06824965372982286	0.05180742449649387	0.049576379359354654	-0.007999910500355844	0.04138178283270272	0.16722040382216438	-0.028509425704201397	0.01386451837100845	-0.10861262991814098	-0.08630113909678341	0.009496413638057241	0.10957417845937878	-0.022598882059248832	-0.023591652931212393	-0.04068852445043747	-0.04000457562443664	0.019137404669824686	-0.1541324383086591	0.12809395766667275	-0.05994090661939074	0.07022955707027256	-0.1266519304932827	0.061326033026535734	0.06727105739596549	0.03763649953302199	-0.09759487193266082	0.03203692517378563	-0.12674823724991366	-0.02545326231130826	0.10234097928905833	0.08708851077928231	0.008164555981487673	-0.1061404765141287	0.06455878287249735	0.0014384611864368144	-0.23276993418619724	0.08070751162299875	-0.003242217312281931	0.12007651420641814	-0.1046007585249013	-0.3177370213231389	0.0337444626551063	0.027899673726509467	-0.16906716412438788	-0.08445002296588772	0.27551158490019667	-0.031133209520645945	0.07309589763762162	-0.06446654566835944	-0.2096522030422567	-0.021794987430768503	-0.026559311230024012	-0.0390925986731927	-0.011730238708150504	0.026388533725533948	-0.01500848827524115	-0.1299251935374359	0.054381527919563986	-0.19482505124325566	-0.20645718213112912	0.07512606153928628
0.04724949669333336	-0.005739536507403602	-0.14430782455434774	-0.07209851152664375	-0.031414697857919865	-0.15958938433500555	-0.06781674669547817	0.07127651039731911	0.14273053642892164	-0.041107374834142334	0.07559582194879297	-0.19240624152254437	0.06134822570769692	-0.08040218058436668	0.029488765584464584	-0.02307808394333075	0.12960425008821738	-0.08744356495419708	0.06274664695236587	-0.030902956253146572	-0.013158299102762458	-0.011026584175703315	-0.08076516634814886	0.0012229579483568893	-0.012028635130376919	0.027331253773656736	0.00858405665416802	0.08181327732757888	0.09542715015175747	-0.10163606350384198	0.09482946354110824	-0.11863364218407219	0.06159763564151418	0.06783538721178002	-0.18832112844412158	0.013920912089995824	-0.051112407668981896	-0.0758765257935375	0.13428847489616053	-0.06535170304023134	-0.08063529709436622	0.007568340184358936	0.0804498041412768	-0.014180861327697126	0.11494013660310094	0.053097566196409055	-0.21782113197314304	-0.05294669635070083	-0.054703742219475264	0.04745909885117067	-0.26248161318325075	0.25420195625776765	0.053102609489421006	0.01488768039176911	0.10893638754367398	0.24795386848283338	0.09078713023781008	0.09488130964716202	0.010940382790014148	-0.010856048124418786	-0.0444030257115533	-0.07881647213105616	-0.06808451649944375	-0.13505875968805958	-0.011059797001833401	-0.1731184526109495	0.031069115202434897	-0.0030042315410418632	0.014693534721128318	-0.056747323203635736	0.3051232170103908	0.14328169199883692	-0.12445425000847228	0.023287291572412057	-0.05772881476993087	-0.09919785925841057	-0.13405654600311231	0.04389927802427857	-0.07127682676349435	0.09680077035922255	0.09686794436390042	0.13969500548571687	-0.08523869733030472	0.04245621317360165	0.06324124965158302	-0.0474139231686481	-0.07717719573928751	0.16090305408162198	0.022749076354800942	0.06943775685510707	-0.08244098069283343	-0.11889817702786963	-0.057073733357416626	-0.012402548871552602	-0.10642160172401269	0.005480278709788435	-0.17171586573990646	-0.10921821745912137	0.06545419471561777	0.05803059421008447
-0.03941774885012514	-0.10177643090769531	-0.1049830036860131	-0.037822538179979624	0.062417760580168284	0.09282456913443246	-0.04764771096195919	-0.11309673732147207	0.026784363786633333	-0.08249317237218533	-0.05182755619654299	0.13252465027881663	0.08137494397316027	0.0157989849893558	-0.1272253437954269	0.021673722242575553	0.1055833170933415	-0.03749121696015363	0.1350689657042798	0.12744298868426213	0.1681299831854479	0.03322896869930915	0.05942475628605843	0.1411117155442449	0.041735091172313915	-0.049342341330672265	-0.04492752926277158	0.023817147436700593	-0.12844718827119636	-0.012715204131531313	0.11298848953015105	-0.21912538511652813	0.15436201642157152	0.11412610843673537	-0.045449988446944596	0.05580628754951544	-0.001388261237185502	0.12299903684386831	0.09824173776902742	-0.1400023900095735	0.058324132361408036	-0.020562763839616513	0.011732823628878114	-0.07281698744864382	0.17390527301217074	0.1040061819902576	-0.07397711639729673	-0.13346106069102326	-0.038469655785226445	0.043450264815024064	0.024017675435331058	0.12459147535998816	0.07899197221808524	0.09695690257529069	0.031192120185107475	-0.1347228340597093	-0.018045265175704338	0.10600897399086656	-0.00656279195595149	0.05131586835313832	-0.030810283399924584	-0.10102394001625414	-0.012301394555306077	0.03089664989969966	-0.06641278777973578	-0.024064989502188626	-0.09001970728973038	0.11194604616566836	-0.029445486193855213	0.14426011332582386	0.1514807513541743	-0.005512048272888806	-0.10084487325473497	-0.20859036890393345	-0.14622294959600118	-0.13737516530501806	0.13848242432289276	0.011695021356013335	0.03819332999402854	-0.2220416534008929	-0.12106849096677315	0.0895452175689919	0.02867741093131863	-0.017229845037857502	0.05635187093028217	0.16359968977814543	-0.02210424635370506	0.007110312953882347	0.019258009252094418	0.24058355253418182	-0.21018938216141284	0.06893507079257762	-0.0114354201451391	0.0563239398181701	-0.06573671231287605	-0.0035154968631814147	0.06946380541910112	0.3117436291121324	0.08079874406294629	-0.08482220343634651
-0.0376031065202372	-0.04534141083838541	-0.16952481928304197	-0.029919876426902837	0.08293686786554823	-0.1274392648937258	0.10436594827167253	0.042105083473382446	-0.07342331715830286	-0.0142499794288651	0.15981178400655915	0.0765437198295291	0.008914352258823094	-0.022525947248597144	0.011481510416289491	-0.0534841018765294	-0.20649823227327171	0.2048864718271917	0.015337511545263492	0.0443963693185814	-0.004447418098592074	-0.0820748294156595	-0.019680742749955252	-0.15767419320988735	0.23897298924962418	-0.12455269825656229	-0.10353969789250704	-0.042393469055723616	0.1270279511028711	0.0014142864790264538	-0.12840952305786232	0.12543388553229637	0.07145427462137321	0.05379541700781779	0.07080128964014037	0.2370595651875371	0.22727478695815662	-0.06867153430032953	0.16546832721174357	0.03658317942274609	0.04953561155651302	-0.16924792603853087	-0.02519539791704171	-0.0812779008872426	0.08897732427697912	0.10710805004028051	-0.20744863510163114	-0.002203486400427045	0.11268268839556196	-0.0186677917904402	0.07228035671107898	0.03690467952181269	0.034166023195262636	-0.027131497806829746	-0.10410278727582559	-0.12274186975492705	0.06656861917957275	0.001945825551888312	-0.009189269376271885	-0.04394944008763967	-0.029832408818090635	0.101331591584417	-0.033147221637540664	-0.13461826335789254	0.07628427098854672	-0.012288100618381918	-0.004840911050902758	0.16124638012878545	-0.002486720717371737	0.03683420622305365	-0.11231180081085	-0.03028822575366072	0.06095260301117242	-0.15595510810320262	0.02000952209016956	0.012101381437068041	0.004671111728722686	0.10362581108557284	0.038902076848021064	0.14770824105210414	-0.09455727714564227	0.013009595736519124	0.008444784537087083	-0.09424715889164698	0.09555496281337784	0.23218583562852244	-0.0017006074483830996	0.051061759567671214	0.007930284090174024	-0.07724510577966845	-0.18239231057315025	-0.06960351916264805	-0.13899416179296245	0.16973062820511953	-0.011507306614982855	-0.037952730666199044	0.09358221078471742	-0.11261999872922078	-0.07700476430886248	0.008942631191118934
0.10287689914234806	0.05016850451687882	0.024832514251588222	0.007811773523601635	0.040023585552677515	0.020165290512925465	-0.10299722747769358	0.004607922163315134	-0.10736886589177526	0.008108254290082372	-0.04806479414882414	0.25393816227828614	-0.003989438375171192	-0.1404239566261589	-0.013418021067692458	0.051935874563788814	0.16733639461525238	-0.05894523999387185	-0.15824279740236402	0.08168370114309813	-0.13805987058996513	-0.0436155441507485	-0.025762048551099405	-0.006963345330010817	0.06891644570743356	-0.06836342822863876	-0.027372925216676072	-0.0014270352949388506	0.014959795751878805	0.009782717470792268	0.04360057752225798	0.08438395096417373	0.0392634115650968	0.045358552350921844	-0.15822231667464778	0.005022769916568044	0.047950754800160866	0.07289411945704503	-0.06923507742337942	-0.0659039274888645	-0.05741006752835984	0.05364138998913434	0.10338810549242086	-0.04074601072916016	0.0907962313627049	0.012347980916459422	-0.01242857771624363	-0.021138422981796898	0.07466113646021572	0.03255778167870701	0.22758254276476375	-0.08522246429973242	0.05181017020299758	-0.05292010098115129	-0.08692869869886438	-0.0010867137034972145	0.013735247940703603	0.29181735550600924	-0.018414581568320206	-0.11301787294846835	0.027301071749438573	-0.20746400375463683	-0.009195678260426587	0.0016025282295160427	0.07946003829452114	0.0973622249427847	-0.05035696189077175	-0.015061401462993302	-0.0766120830610671	-0.11280625548076939	0.030989477938063455	-0.12735855485965994	-0.041462690057186315	-0.09951739598992375	0.05496831862902597	0.1801430099266488	-0.13015879828033314	-0.18530184828975693	-0.01248868853500674	0.001569779595775838	0.021865930675729773	-0.044632051523434496	-0.020063929882543186	0.03675104105406022	0.1040430892644839	-0.19550487703182828	-0.03689394390314622	0.02138087939410634	-0.0917976104610736	0.17311696317672998	-0.06354098802287371	-0.004129268700728284	0.055602209684229076	-0.059128478880189454	-0.18465730478044173	-0.04286545269165333	0.10294405559270406	-0.033689512678513854	-0.08464343014589787	0.09256722095027217
-0.03716399346368023	-0.051016081365021726	0.010317372740124205	0.07955332707151525	0.23023237199050878	0.08268202283956541	0.13345350579368828	-0.035028009622163105	-0.10258681059694763	0.006402172321353742	0.010446962632737445	-0.10432520269287845	-0.023595950570607215	0.042437231676311804	0.03794964379230132	0.05303800175551738	0.027908311707421602	-0.050415780389252714	-0.05198348090680288	-0.12126290365245962	0.19087548638357196	0.01627212184792352	-0.009615460077080688	-0.08085743143671312	0.2899750270728473	-0.09678975321980236	-0.042848660181867705	0.04821931058566027	0.06841796955811556	0.10693577890454965	0.20117476544089158	0.050615715358079676	-0.09902038297606489	-0.005241893413055187	0.0386051660610438	0.2167882072329735	-0.1387405327928707	0.12025765052252275	0.02307677454759513	0.08108818435449199	-0.011663596559241011	-0.0842557253383429	0.10586890231177802	0.06535559845351412	0.10051039552456763	-0.001330463537863531	-0.05998220233198494	-0.15587869950238417	0.08523793021184381	0.040919099867473455	-0.09717994293415452	-0.05317747135107891	-0.046675881195144056	-0.1482984431982418	-0.09402025504883411	-0.08088843728081255	-0.032985052314982	-0.07386974983295629	-0.16351031142294847	0.21204861140188652	0.1395620862826111	-0.07030111652345108	0.028904672548355347	0.04146158923552114	0.10980995407426022	-0.08614045254531016	0.14084757698625971	-0.05389204205179083	-0.1342042097082297	0.06630031069585285	0.13208889401033447	0.27540773682941755	-0.11997252702415694	0.06950010163374958	-0.030953632480976254	0.09024384752171069	-0.14631706751091486	-0.12336698917883501	-0.07993663219539089	0.007803739796883318	-0.06523296194658362	0.07197189309511681	0.10268857609185986	0.059163789240110745	0.16168456675457335	0.04121045637489817	-0.12168967103401672	0.13714708399865977	-0.060895125485135544	0.10392756592921541	0.15527645136010249	0.05304372792608823	-0.15079481701935504	-0.09280709521093766	0.13229240389467248	-0.0024671259016313964	0.002554540993670793	0.08568668764104177	0.06277975919852909	0.024160649642019496
-0.020866837122046584	-0.03126684457323573	0.0857898825291343	0.05535695310677933	-0.025730000061778963	0.10821123129931408	-0.012903411512978379	-0.08516621743343933	-0.07589706989033448	-0.0978740836309766	-0.02724100166036872	0.1233724278336193	-0.08050951810305089	0.01884757610181029	-0.06566893456274132	-0.026030904127143758	-0.15100412119852524	-0.02205382291565374	-0.019370537980496205	0.05402879440356954	0.022328091325537057	-0.11983921249520453	0.10841982440435427	0.021030304022199537	0.01983935171774867	-0.0009182353385138938	-0.051775744722221975	0.02178023397487261	0.047558843592858245	-0.1746895691345555	-0.05387608373460957	-0.025494697040358935	0.025617060569427814	0.1193311005927126	-0.07717408145967825	-0.049796184681784206	-0.05125341106465501	-0.08015275901045416	-0.034718649511226246	0.07708022199879712	-0.10538354953643457	0.04278143951529032	-0.17019022300183356	-0.0561337996442206	-0.032948930021798606	0.1674859672914065	-0.027480230475268805	-0.22012434734509184	-0.199888890686125	0.003402958634668099	0.06137708557899087	0.037545585762725285	0.01675701058009903	0.1162259597505667	-0.053959122073713166	0.08949105560268253	-0.16320148850264174	-0.09049478329380663	-0.18070413949318165	-0.027484530066979224	-0.004626121726634254	0.011410149222651992	0.0061883352887135215	-0.0927553330811728	-0.01902408444132157	-0.14974466686057486	0.13632289751322504	-0.0303626072898001	-0.04888861190436913	0.15889403284440828	-0.12422465335492293	-0.11255871140319691	-0.10962203248685652	-0.00678713816994819	0.04316316296375974	0.07396754681178337	0.2571995317494969	-0.22494324542007638	0.0608735589124417	-0.05571305725722312	-0.058641514888877345	-0.06197721282538776	-0.09087696708079734	0.1684524834603452	0.08422973270139028	0.0023195978557374822	0.13510157524870003	-0.15125289652988758	-0.13307051313309262	-0.21779677321946878	-0.06994145401232875	0.016169852670475292	0.010285857793233408	0.014934191105988046	-0.14110568310660818	0.0803154742614022	0.023962751823899796	0.07330542814659985	-0.1892762177590052	0.03114908587977899
-0.11862484785857748	-0.03973232525513619	0.05366541073853567	0.009256963625130938	-0.08483451160461561	0.0006273314810637245	-0.15301390108809176	0.11489545795087114	-0.020528401949625127	0.1118027176697072	-0.05265311215098376	-0.05219215206941059	-0.0761243036322769	0.08761588245322789	-0.07080799839619763	0.06442210908736468	-0.03813642320995176	-0.19746938580422782	-0.057030132457754554	-0.11787332832382495	0.0035595459969647446	-0.11916230397585034	0.0925707262521369	-0.009017328394489193	-0.017559533991051323	0.06544177401903581	0.09634777098410914	-0.0019530550167593632	-0.07724539225603783	-0.17735977800367209	-0.06864051096523203	-0.06172119123006276	0.010860066574864677	-0.03445657616437369	0.06877010859554941	-0.06126316628147561	-0.005519788367956083	0.11839874431968894	0.03433787264649958	-0.0060093432901416445	-0.060206275866075985	-0.06332671461190467	-0.08518244132796009	-0.05410304077715637	0.07565671125017048	-0.022188827129226874	-0.13497730693812313	0.17681692930597837	0.0320157289769805	-0.1406940692846647	-0.04418564646297263	0.011014145266850633	0.1704592093297377	-0.11081124582588693	0.09834099172470637	0.13969654459660097	-0.06306763836631298	-0.027751361886023347	-0.1036025599141497	-0.020305096771640267	-0.003637114844863289	0.0659791613557743	0.10908585516374951	-0.07476710068660525	-0.19679693606034182	-0.0019456457950825054	0.029229163684077027	0.025065244629739	-0.03266738408565813	0.012659645179562739	0.15175493352236855	0.03797892951394951	-0.03733684250030844	-0.05001790836029008	-0.016984765834545775	0.1638369516776473	-0.018247474344997808	-0.001979534986324785	-0.04804001641585447	0.10989767907733251	0.1960315549961043	0.04509835987000026	0.00827672366795363	0.003929442715932996	-0.23843250998705912	0.07454358778907702	0.013416641599584354	0.042830798455266716	-0.07114700285034514	-0.03863275905747605	-0.04110218668301398	0.10204607443472041	-0.03774826072868351	0.20820878460223505	0.043086241901503744	-0.12756591603836992	-0.012855407192730345	-0.06521626010276704	-0.2194457688168409	0.16005185748147896
0.0703142542220004	0.053320731789931256	0.016540366029970426	-0.13820175686924377	-0.04836171395554367	0.08417807747840128	-0.10512200297825028	-0.25317693162508137	-0.0227106007780926	-0.01417575540275386	0.013556341641470916	0.07285186435145362	0.06376058122312087	0.025876980524392162	0.11955313880867094	-0.15189697808133149	0.05045818144773903	0.06265383633369424	-0.12395622860802397	-0.15028706086823895	-0.07459421264756014	-0.0661541442515292	0.07534194635024308	-0.061453878369109496	-0.0856348518281204	-0.061163373669455914	0.11186323341542118	0.0013043374376952134	-0.01792510253569118	-0.011000549870105148	0.12920603343265227	-0.07491717266032419	0.1315508290940104	0.021049629892150364	-0.016041938197534772	0.25009004979342814	-0.10556394897985964	-0.03536857595670061	-0.12324312391640002	0.09524619705361695	0.1689188933651679	0.1669922781404639	0.12239487531460047	-0.019762046779596563	-0.03652409774898465	-0.16711697724940652	0.20358735351817928	0.04689780781484677	-0.04919569048694831	0.13280568889869676	-0.09727645167600009	0.04066220342226741	-0.017262913429083468	0.0638677139880301	-0.006357353918612147	-0.14509278911112242	0.007557637267003783	0.10488641418753622	-0.0029216405853985244	0.07751151215890861	-0.10455294856740532	-0.002626079326985214	-0.062451045508857744	0.07469808401047098	0.0031491562261995775	0.06900736763366126	0.10877104261578661	0.06916185751213884	0.02731184342936442	-0.09982122585114053	-0.0002786110666901238	-0.053309040201583315	-0.03440639567042266	-0.03745341507502509	-0.09799255747822445	-0.195733858913399	-0.06681430483277669	0.01933794519241591	-0.13481770454274902	0.0015682236471624344	0.19002684243109647	0.10230565552522393	0.16435415091205294	0.03911278769327262	0.11675098229864461	-0.07239647304677875	-0.06443402670219843	-0.2739140206137473	0.1186145474042299	0.15403239798198862	-0.055317724534727	-0.02539517063972351	-0.07538621136909615	0.03826535514774916	0.11249325453032409	-0.1742771973881041	0.04094385306422523	-0.027667177171914543	0.011339439196668936	0.0458994001674291
-0.016633810704264538	-0.010358685340578062	-0.013861176394443701	0.099400862821718	0.04804987254612934	0.022050471262005426	-0.1292018518773186	-0.0424760525400777	0.08986693144590344	0.0037273925892813264	0.06590119551420447	0.1782449080047487	0.10865163568607591	0.010817732672278077	-0.04908951161764418	-0.2567258275960719	-0.014188448673966387	-0.032599127521650485	0.03875195113079177	-0.011774904374261683	-0.031472472686649745	-0.18298271262498936	-0.09347004886567747	0.049259740562926355	0.18104471355614965	-0.009984899144608836	0.03279172070225559	0.09590838200248165	-0.08221823029814068	0.03580737945931912	-0.07822321362555462	0.08648244384910114	0.013120829001435368	0.03015363132992135	-0.07932762876557782	0.06770237447195791	0.21471543254791153	-0.10079116954282062	-0.03273126674524698	0.021813364706246348	0.07863014978092729	-0.05597050192509246	-0.28920484101106075	0.13591978133969201	0.08122383895241071	-0.1742947530486665	-0.060756879177955594	0.1568182429527326	0.1451688470321656	0.09386399813012837	-0.01778851774905774	0.009816837465226203	-0.013092580512612651	0.11282397832688376	-0.07870467895422258	-0.08724540488425073	0.09808491177902069	-0.004436145551156164	0.14199405800172055	-0.06836363734996498	-0.0047743931466288315	-0.09488910886322076	0.0008373315521351685	-0.1479299268140467	-0.04735070946223166	-0.13828375890276232	0.06335879410228472	0.07162126138772314	-0.17305142121227893	0.13839890598451746	0.2540570827884779	-0.000714702231021242	-0.06411142863602896	0.28215444422204194	-0.13185915934192766	0.0041514974218868515	0.01801864946647242	0.13452493000349355	0.03840085092272544	-0.049863641349429146	-0.09198215839585332	-0.034965978236550344	-0.10069279189130821	0.013952110750247028	-0.056438605266853764	-0.14946600185768563	0.12551457883749037	-0.04865381532158009	-0.12682629738873608	-0.02033249022576237	0.006870086160382167	-0.17483991937628834	0.03305338281468219	-0.10471977428840237	0.17110843516303215	0.04896633028810358	-0.03561841092450807	-0.07441746047743646	-0.010500086503079747	0.06440252516665591
