0.00745505379840486	-0.03754721857082113	0.09529529052036814	-0.12178041036615829	0.04299532158138389	-0.06534688121346496	0.022303802482647513	0.0068552833801567405	-0.025137029812173136	0.047785345291820706	0.004356626617603396	-0.013266575419247313	-0.03564165326673501	0.007759838974533694	0.022213892995592916	-0.09892128450275912	-0.03492656923431897	-0.10552091898506769	-0.00394572301119636	-0.059203469623487805	0.07707818066600733	0.0672866775915652	-0.09223794230319651	-0.0002260044587480821	0.06388689778375846	-0.01749683691940515	-0.07282415453042601	-0.1092447927784443	0.08546323797095028	0.09027130994728004	-0.02079450816547008	0.07662752345866307	-0.2965373747659911	0.13272131485147665	-0.015696369933434786	0.014263968257968539	-0.03205383568768166	0.1395630171021755	-0.10607951626221564	0.14745758079097165	0.039658922675570536	0.06226662098127681	-0.03292045633289162	-0.13075356621692197	0.09307345502845789	0.031140832657134476	0.13614726494921106	-0.019337502247238205	-0.041923162743209744	0.13885844561453276	0.19123676119181535	0.0009347176365730015	-0.07528781401435568	0.08104841584413415	-0.02537583316559722	0.059915037406130016	-0.025933953853663084	0.15638565440050808	-0.06991656087800455	0.048044195645813484	-0.048870324703657056	-0.02815065614207691	-0.04120657013869299	0.07385484081742019	0.0917851006805745	0.055773882893237106	-0.010798348006000134	0.014042797758089512	0.0897721478400974	0.09294090413572093	-0.26900415374073083	-0.027256932512418362	-0.02238452952826314	0.0669213357354886	-0.006682811985751031	0.07194085286754359	-0.10786609561811045	0.025999231626468604	0.09002055141670336	-0.14739798528993162	0.2513643468208903	0.11907374703328708	0.00013601131705977368	-0.08283643603202577	-0.01748016121369326	0.008338504767285702	0.04400296703454842	0.15007857676176273	-0.04761003143795749	0.05626559866609292	-0.12921356002919604	-0.041360071483197265	0.03771453657540499	0.06912542967531604	-0.07527304898342511	-0.044100459203486674	0.14606234133001628	0.11619352546029502	0.020831591687513862	-0.22366402700340082
0.25111325476900087	-0.001993282929215729	-0.03125663458247831	-0.052235992585411485	0.03763682197319744	0.038658257425575236	0.09506277819366489	-0.09260585642499901	-0.0312497098114128	0.20305449010226656	0.022459134144410184	-0.017252438142742698	-0.09416193710833774	0.050593386714329225	0.10310177681350503	0.08745879327151576	-0.02588017912891186	0.03612530059213773	0.1671656751015008	0.10708822682126141	-0.07841622623527962	-0.2546006147850544	0.029677036660983945	0.0798567887315636	-0.10892265724755455	-0.0008790664899380126	-0.02636990591690533	0.010428786666468974	-0.05446981231362367	0.12905109976279935	0.014796801392989384	-0.08790173073093871	0.09174632785611231	-0.1264187595991705	0.12844945937639363	0.09910550357744588	0.13897771654368202	-0.01582449587160412	-0.049611246010299155	0.008402105048076753	-0.00844383171058296	-0.06527362861750739	-0.055362331525946655	-0.03663766561048482	-0.11700049668081491	0.06779633100222117	-0.005229713757100654	-0.030838033732575165	-0.11103541609416774	-0.11603757416650656	0.19359121758927467	-0.06272574628615696	0.06105284179946075	0.01626344699001771	-0.27751899183211737	0.1792450961491406	0.06840842787487805	-0.07676698494782333	-0.0028367825527969622	-0.1149183339065391	0.18262208108864944	-0.09076577082414646	-0.052308383129721865	-0.07295607997863046	0.008037940020917022	0.1370316705652551	0.17893744437158224	-0.0398997830316047	0.03782593957958735	0.008190495093236157	-0.09816108730985117	0.2422558179457516	0.13627573779885443	0.018911585660582597	0.1581876276981701	0.12121055011247957	0.008186240966934025	0.03259636757432099	0.1512126142376654	-0.09461557710800586	0.16736906973213395	-0.02251093175947373	0.15246766573355916	-0.000522678704293692	0.03376047892211135	-0.0034305180492649376	-0.053184008568459555	-0.027005564224983847	0.1379111403168567	-0.23141639830754707	-0.12389674409705465	-0.07254717093581023	-0.10783471918317997	0.15099796104154892	0.12576751564615282	0.05920318093946156	-0.06378040770675242	0.13350517336373233	-0.15881299270298743	0.21419825332135847
-0.06847412229012098	-0.03057350077160665	-0.04074210510060237	-0.10731203720361422	0.20665353198224173	0.07857152861093376	0.11871432795340331	-0.08952693693180977	0.012919248190328254	0.05007594044621854	0.03382371207527082	-0.1149189999353781	0.10669703567175784	0.010584442108764311	-0.10449915731327324	-0.18540816649650652	0.05512596431217895	0.24552963992001506	-0.10859558791207571	0.012700279101531218	0.125923427065987	-0.13422925632736932	-0.0633782630062546	-0.08540862920922469	0.09447038386127503	0.12727009826711977	0.01343768958001022	-0.06006669845522794	-0.049846138274541464	-0.06305431445375417	-0.10151019464877607	-0.017491632460341116	0.07370321893861681	0.04920298670044846	0.004038065699964916	-0.016931974453059436	0.009924108807714114	-0.11520063358516534	0.03595467264507199	-0.06302205474783121	-0.14278313071641285	0.037071140561007174	-0.061173010200242885	0.0073136199342093465	0.07388950791679724	-0.0950235903645094	0.00919058644947017	-0.18526787568322828	0.15314916026301253	-0.14681294202523765	-0.059757490190956754	0.132902515065351	-0.016723885906921903	-0.10774418788101019	0.06968640035025572	0.06903784498094519	-0.06336867193926721	-0.05240871355408494	-0.0538555805150608	-0.02071671210785643	-0.18197334251328084	-0.018142386111809947	0.1785777107772722	-0.08947636547064118	-0.03955825559587583	-0.11156600180703592	0.06075082375600276	0.11032396803029564	0.11804828402672694	-0.12896052602144634	0.044547181691655245	0.16666263544613324	0.040030313365164036	0.053123795218889165	-0.04709533647905882	0.013998478594120909	0.13039258424178277	0.03281017700183807	-0.12802336079616708	-0.05494976425068963	0.12086945690263311	0.06043888299152533	0.008612210169470905	-0.05246796132527271	0.11800890528512964	0.1942855499754202	0.15673329973238825	0.14034711494018418	-0.03587047716769769	-0.04940082104358097	-0.028050589949001763	0.0038573212303669416	0.13232105414428888	0.11654359086434818	0.04959112096287746	-0.1334303329587808	-0.170125924705923	0.022239764605156337	0.0882534535118163	-0.00833027971178724
0.1914904280474269	-0.1082595192407874	-0.12083559617104006	-0.06642813168540859	-0.07008165213381366	0.052554445912734525	-0.04217494938804688	-0.15447910197997666	0.08908845651846288	-0.17598884028310638	-0.10705675748715976	-0.16232199395214936	0.020712122382954397	0.01860474891451141	0.1915121608270123	0.0913828624951513	0.14407767554886083	0.028860943509638012	-0.09776922670294498	0.012729653108309617	0.05942305270943995	0.07031942256572535	-0.047394726137841674	0.04889686666221546	-0.09338382808367117	-0.10443103138818234	-0.1116207243207756	0.0026958278735432703	-0.11788813860019891	-0.042474451321415314	0.09027954569913225	-0.10297858555744062	-0.050259035920580404	0.007164025339002482	0.02474631252090166	-0.0501996160627915	0.07884319520828727	0.059188079115918425	0.11419891591378198	-0.00822973703466249	-0.051354452636631805	-0.06826318742731889	0.03070275179293628	-0.037900577289152096	-0.05701810858336615	-0.04482872050745781	-0.06836883805228954	0.019788156626339454	-0.1412583182544061	0.030160217914435933	0.06759249020002182	-0.058094804124670336	0.19227611103643694	0.0018792166826572074	-0.15616787571464366	-0.0281243994466354	0.0062653939591906654	0.04489720456269662	-0.02582947197590606	-0.10115695381277633	-0.10942405616482324	-0.06535992851816712	-0.05577650537334965	-0.11349711022714307	-0.07309565094805275	0.06602059798966627	0.16483689376965954	0.07541692990702477	0.13058610861868122	0.09737808959297578	0.08320662348616127	-0.033565300923490714	0.01395526613817752	-0.04201733156540081	-0.02191062475717385	0.006756381133530246	0.0714291178865663	0.04233231745887238	-0.01619862976547188	0.0054796390800301315	0.043345415817190966	0.06699930576655952	-0.15193989525597185	-0.10768939344233114	0.11077236416085721	-0.005828871276940228	-0.04212703654249059	-0.02642710740053486	-0.026370471382157326	0.055796131614718095	-0.11092333913693295	0.002477774649676122	0.02445901642104239	0.03962666028442901	0.022158508608984648	0.0516921571549614	-0.057299935834314544	-0.09420345396875357	0.24570076140313782	-0.030126679755232658
-0.018445447065456807	0.06778400977178844	0.15960892921942413	-0.054452811693469584	-0.09988152681895257	-0.12421533507916104	0.15931062215029257	-0.10381069864610343	-0.0027555936515566764	-0.0977284832042969	-0.1448355917958304	-0.029237535309368602	-0.09377866663411605	-0.06916284254233128	0.20061050974174038	0.04248961041724029	0.0931469519553989	0.0824659562849253	-0.010086092307902481	-0.04397183593776238	0.02489346118611167	0.016845076993249438	-0.056880541716530814	0.012984783046686064	-0.0706329706696292	-0.017145793064083977	-0.0335283474517337	-0.12688725926057792	-0.235115821311217	-0.09390632499396992	0.18041046645863013	-0.030968178203672793	0.07759681608964043	-0.21244451430933584	-0.10082860679643278	-0.13544896173623505	-0.020230001008711487	0.24219554805352433	0.046023894322791796	0.16956125332780866	-0.02544367276856635	0.13648693738550718	0.20732567066828908	-0.010936906641045824	-0.05392647112273649	-0.13178109369901528	-0.030906025857696962	0.008189667520079116	0.2030953617349149	-0.12949739740960864	0.005966189369697817	-0.18143081213896173	-0.0426762828838568	0.031139535741201874	0.051258315268855804	0.058902307964192185	0.03974040328868454	0.058042194009624105	0.004573912900266336	-0.10478663059889717	-0.18516569636800562	-0.05466878217372169	-0.013461543306322972	0.12539317971754804	-0.010060167515618699	-0.01965690342166925	0.03855271268417797	-0.02700119874512021	0.08105419989469384	0.19793336183838783	0.21907855142107008	0.009704062724448922	0.03368923646954482	0.15788561203734836	-0.014996202289627098	0.0679192141924179	-0.11351601296858252	-0.031083914827499805	0.11561146166453072	-0.07181956337876233	-0.012805117872967776	-0.15742096456021196	0.2005768294509637	0.12630280698169033	0.01880995661527483	0.05075128720823281	0.03958981069433685	0.13843117530307858	-0.05188000423713725	0.07322676199282319	0.10774164988521734	0.1215325970476457	-0.22593708838316978	-0.05992744782651446	-0.10191706213019042	0.01495882855706858	-0.20160302195142724	-0.2045622890945603	0.21700949918762602	0.061768938826334045
0.012100924319881162	0.03634645797603832	0.014643676026114908	0.09973512924726231	-0.06322707393716044	0.01865868879535397	0.022741831866015607	-0.1046365113317711	0.1276639501831475	-0.044581174672790096	0.10175286007846329	0.01149122601712722	0.1633336659704027	-0.10414127088590971	-0.10847588015104499	-0.09055573625875873	0.013327802469347212	0.1541581558897824	0.15926780384802972	-0.2309969053659388	0.02497609804622226	-0.32129801920217643	0.07947235116436328	0.11181301745378774	-0.004055048103377315	0.008384462602773795	0.007364067670921447	-0.07842785381262576	0.04314886255252689	-0.023140800165325725	0.09301547386919562	-0.011363136166452192	-0.08608701616881022	-0.1535861185477232	-0.18640363958226114	0.1311854583169056	-0.04576259209916803	0.03387850826006421	0.17834484169368367	-0.05629000112670705	-0.06276558988198057	-0.01321617523553239	0.0029432700419992817	0.18869776539166488	0.15656334519070755	0.0620875571074533	0.14494137631889453	-0.01782431769438638	0.0299160452083573	-0.030193041730238537	-0.12903701539931994	0.12038747417935952	0.05317675496819663	0.0018074725481406206	-0.00026911168320069783	-0.15062148059476518	-0.09774751325284109	0.03362687365339923	-0.05292963999627125	-0.021771170081300903	-0.010465354816462406	-0.06824687690171108	-0.0967917874993456	-0.1612353948117919	-0.014651636806409308	0.06186085857212994	-0.16436577107830405	-0.002418388607953329	0.028114404642960843	-0.09895866722763046	0.14221401750052948	-0.038532392637794545	-0.0101595253571502	-0.016126770991524656	-0.17707255481855425	0.10085629485175637	-0.0955510201846528	-0.023651722289531368	0.05976602514058679	0.14605647267870783	-0.10799322818968393	-0.04460634881722515	0.1382413926460955	0.04636769234355487	0.06709311494402179	-0.10506498411166125	-0.03786692858395339	-0.016794043510778355	-0.0857894757342974	-0.16745695207119293	-0.05107278180806486	0.135428819958443	0.00588151885798311	0.13742909135733763	0.017902077169313406	-0.07647061714611755	0.12776183181606296	0.021230294015348854	0.09618388698611255	-0.10683320345431442
0.10377474829683966	0.10747518814909027	0.028660944373111227	-0.0807200783972886	-0.005036311264509385	0.06169977569951398	0.023453897813083185	0.05980722872651549	0.10223428459350647	-0.06472143618386798	-0.11575093470727964	-0.00337561307383183	-0.03297904220071357	0.07857655008814941	-0.10727098931936438	0.10153857808203438	0.13588900232320017	3.1616361288844074e-05	0.006526587543649813	-0.07651285824506643	-0.05426676646178069	-0.04075363621968686	0.1452106620143699	-0.007101596241072603	-0.1318331544410232	0.025981115154522647	0.08258163879287198	-0.0025443420469398164	0.1478239925748942	0.07765682065692985	-0.10491560974958382	-0.05480520505667963	0.022238188541091553	-0.1674777961470312	0.033560115552573794	-0.17401411156168223	0.10233379589884639	0.09040214736905887	0.05044804995176981	-0.067301755118156	0.017812723399274488	-0.05133606972280703	-0.10308152774500663	-0.03222047242302081	0.07037845155354018	0.004363151386374221	0.14453188599041406	0.0773746318545019	0.06586907791957626	-0.15977572204242382	-0.027338833471443537	-0.10643724104341996	-0.01857722994373335	-0.06936088621563073	-0.037113099045985934	0.10561699541520972	0.04679423953207326	0.10030815999061703	-0.15983518594412252	0.005507485974649083	0.09667038031203845	0.15062959148871558	-0.15481214746666333	-0.035247056024212776	0.10206364546323426	-0.019227831281144536	-0.09104089504737106	-0.15482294120517504	-0.09487018427341781	-0.1686669434243198	0.006032257167197086	0.08856600012391064	-0.12510405922159376	0.025489797226954075	0.08438553452213828	0.0002611070282972012	-0.16109925818113224	0.03844620918716583	-0.005465192577882294	-0.014652969115446559	-0.05468372457604648	0.007990775327567154	0.0510053794150639	0.23916421094564871	0.011903582604668759	0.14986511480811676	0.03420131058818878	-0.009648613834761855	0.014854361237032616	-0.12230677108143509	0.031310636811560974	-0.1992065060052194	-0.08550107657956274	0.01057665420824565	0.12066275477990918	0.14233288993149107	-0.023595006666805005	0.01564091892282901	0.09805998263591803	-0.1329493576658143
0.04047485118231685	-0.08287379787691837	-0.017137889427743528	-0.0459021398579839	0.04360349070893182	0.05501131522423535	0.08910661524174006	0.03503612765794746	0.01702814854715395	0.18534709913872538	-0.15239849038860398	0.16951889857405042	-0.02898331766066032	0.057081173623978826	-0.032565962203816426	-0.07019134000294583	0.04839920177697811	0.10421458419388054	0.04713852474676102	-0.05426617256475195	0.36115311466731853	0.11983465785583383	0.0932159088124768	-0.03531086566898252	-0.06259733039261836	-0.02799427429165722	0.1081507026270159	-0.0989277707285907	-0.10685819824175803	0.0539553732164622	0.031870043612936376	-0.07706299282677434	-0.10906271816479496	0.14381774156880314	0.035711285739212624	-0.13659131773834401	-0.12936214879919006	-0.03607599875235302	0.0733687389503691	0.059467929973155656	0.11306370938771662	-0.14903497846650526	0.022384668977965674	0.14236463047749615	0.13321062230770597	0.03589148175468021	0.23485956915604908	0.060800101833898376	0.10427466127636897	0.0042802850329080955	-0.07824348526519206	-0.08752092007787461	0.018200324224750496	-0.02107755343177381	-0.17694645312535778	-0.10257870568467979	-0.03184008411645277	0.07277696138438132	-0.001730587677522487	-0.007161636050418862	-0.09868991562216169	0.002316608006209883	0.13191012556186832	0.015597892400745456	-0.15055886099267993	-0.12515226613730948	0.058861404337444065	-0.022431547873872814	-0.007458022366119569	-0.06130423930767349	0.050340787165978416	-0.029937436413585462	-0.0186830116699006	-0.08511667385119938	0.09218850941091784	-0.022186423468388384	0.06079043695582422	-0.11935834659120596	0.1733242338970671	0.12760226349849824	-0.1909797669658927	-0.08016272157804218	0.04776344428971376	-0.13198833211194091	-0.01325800935337844	0.04285432248592338	-0.01825783760594064	0.05387150820005208	-0.06933258893670205	-0.22439998860975247	0.09811686518753043	0.09758146536025304	0.25034985636189666	-0.22071865117426168	0.0750813209988174	-0.19675989343444128	0.17562000253204693	0.04877693010539811	-0.09518166493341329	0.07799650898078923
-0.05531622084263733	0.026602333388811635	0.022450039090545656	0.1743926218336375	0.18854466699254782	-0.060028468209833805	0.10453857052830147	0.05320002265096523	-0.1457999124688455	-0.07165306606454858	0.23703637916872153	0.036430118830391676	0.09958195909347191	-0.02248996255590799	-0.05771659590181482	0.0030411764785184445	-0.0299946516119436	-0.149140927243682	-0.10603855239004838	0.06697007535805247	-0.03160700154839004	-0.0019508781521010317	0.014633375278707911	0.031175795189732878	0.11224092356370374	-0.11315151369873154	0.056232755657722795	0.08814709974604124	0.09519832383146959	-0.14129098604055743	0.022930453770857413	0.16768664750119316	-0.0020667154523948193	0.04838006392473907	0.08027412563601542	-0.11704828786020703	0.19269919679933192	0.05744300038385788	0.06169781042746159	-0.16858754915141708	0.07391734026620009	0.050641088193852664	0.16241912741524905	-0.04144404421210446	-0.10470123209062462	-0.06822192834497154	-0.05016940231565069	-0.11524118291763678	0.12898367483065196	0.12588991235186558	-0.026294979461777526	-0.0395967202333415	-0.17804865388989413	0.0764653699061697	0.1635539683043206	-0.06373142991449193	-0.011721881295277164	0.04351744344958848	0.16575925980497674	0.02024358568081186	0.023060075841879447	0.017931838913680036	-0.14245274016515191	-0.14431649758784668	-0.06969110751733952	0.10454802672805397	-0.033751229294371854	-0.057804911074853416	-0.054705309716484504	-0.016177673906233155	0.16736657389869417	-0.002583494912773024	-0.08480732027529084	0.00540351092198908	0.1756878525033439	-0.05514485158704503	-0.11551538393831902	-0.050118364522462884	0.010167593638291221	0.06224560847733112	0.10066620073381924	-0.09055882436401669	-0.09637948980371304	-0.031509390777487246	0.06608013960746098	-0.11080766345218637	-0.044209900681800196	-0.06100874673493106	0.09418383608425243	0.05343547716225387	0.08334005039722987	0.1338677492630995	-0.0360957941535776	-0.11875681342324039	-0.12078993373320412	-0.1777730981865816	-0.0469374395359767	-0.03927687746678441	0.07933249716813333	0.001041945232428471
-0.04904441843523379	-0.016573146665728143	-0.10052269948110563	0.10251599597197157	-0.06268899954145762	-0.11510155892030424	0.0788739693775294	0.09439856258167131	-0.17849528622175426	0.08313724046235474	-0.06668096643798452	-0.036836258607593424	0.018282561234513574	0.05615190963210356	0.03513457161012874	-0.0049364285322136695	-0.048575554728138993	0.04146591243470896	-0.020154602026994234	0.1742332283891385	0.07530933797754501	-0.10091766546088053	-0.06533103521593964	0.005473241617504029	0.12622945813207637	0.1350835102844807	-0.04235473722521735	-0.06605217864060653	-0.11238507334540276	0.025242875906521592	0.2260312701068931	0.045497241274486316	-0.14115844449572576	-0.07267801321033511	-0.05691922937371996	-0.10734541336387696	-0.018619904320548986	0.05325134871286332	0.09055681639792795	0.10429342162082482	0.04210303417064932	-0.195414854407489	-0.10573045908185087	-0.03243681607947238	0.0025473849305657926	0.08614216733260281	0.004395904286449155	-0.0007176298988779216	0.023725006932326233	-0.036706828391872066	-0.0032936284663451307	0.1117573211331392	-0.0006012055232477373	0.011654982573019643	-0.005163794278220255	0.129754060926452	-0.11087893741264626	0.17757990145176242	-0.12956212889473956	-0.06538516582249258	0.0828174685209448	0.10303166434471171	-0.140241681070903	-0.10917286138908835	0.050661553983409456	0.24230226801813837	0.12426797156655388	-0.03479192956727415	-0.24190999029606178	0.003131934032150938	0.030236998378247396	-0.012142618582689653	-0.09680485548410586	0.021921765946176997	-0.09418722956731626	0.17820254065711935	0.15799659704492974	0.06575580899830413	0.004736114455269835	-0.0769601012739284	-0.002127059966155231	0.19523766627277514	0.08326550717273377	0.02362392243966658	0.09132929284255688	0.08618376182781202	0.07375955606699326	0.09456051036865287	0.05170282647955765	0.08671623767315251	0.002205510618137662	-0.025412582319010352	-0.0650401171924158	-0.06679321756463835	-0.1667088268114599	-0.07874210682867369	-0.09681099033357721	-0.05275181818272223	0.15672624072460356	-0.016305763858446693
0.02393560187627685	0.021462877135249084	0.1629436953404349	-0.05776715424231125	-0.0010021753828114792	-0.008672407725129299	0.10984657715120978	0.1846581869119003	0.04225933612691865	0.1191670361021271	0.02766544191497946	-0.013692782679237714	0.11728831483149796	0.04530825093405414	-0.08287034077235436	0.09988223698885905	-0.02700868965394627	-0.03279293938205255	0.08102881421745381	-0.014073124041217753	0.06227364595120841	0.05574629055378447	-0.09950928856120579	0.03949824325157185	0.1343357619239413	-0.09990116014729064	0.041407034714067835	-0.045068505904611804	0.09758072796821707	0.10115481717787521	-0.04212591920231971	0.21041210299391652	0.13522745311837941	0.06726514026122342	0.07301437647742805	0.07111464036416945	-0.07236456886367126	0.04099722608270581	0.06854609392539168	-0.04522345343055232	0.03415847169660022	0.12317044255257278	-0.042176916090635806	-0.021976003150905598	-0.09736770103029602	-0.17870351530632037	0.07807995159716981	-0.006712493252558597	0.004701992196180631	-0.10941545094179476	-0.03234609783810209	0.108564680791228	0.010111101745090523	0.023830968017411105	0.02077484123809544	-0.12425926534378448	0.06130081936516943	-0.12705663010394275	-0.10842198547245688	-0.10484448927145003	-0.005679840525720164	-0.035245276653234875	-0.00022011507728834893	-0.09115407625303278	0.1305995740640263	0.09456463701423	-0.017912237244403308	-0.05739457189653684	-0.057920818209635835	-0.03730111996862287	-0.14386293924543084	-0.06212803924628845	0.07431084908558937	0.037756781735538016	0.1632342157744962	-0.04110886733513923	-0.02769958282694337	-0.041388911826712664	-0.039330652764225926	-0.0782573479140858	0.02703310517134478	0.04350174338662175	-0.05561827544199748	0.12959437968788448	0.18911787356191817	0.15810273356831153	0.09934388796709037	0.0735052477088353	0.1856542884267685	0.07703731362686894	-0.07553859087062116	0.03922712131735038	0.05375424487890717	-0.10007981013557496	-0.03151640167987185	0.12629664398022605	-0.18459620700690055	-0.12764752374350202	-0.017822946449886117	0.03423848989873875
-0.13578426014873757	-0.017463074985225025	0.11904141294424195	0.006834106437465232	0.109105823949352	-0.05954859761793937	-0.08348329549970689	0.12020497497068774	0.03181913977491786	-0.12089532308983866	-0.0729583364514973	0.15765923590178776	-0.09253763841915444	0.09106032762026275	-0.05604197149755811	-0.00022110149912146472	0.02420425653899482	-0.21003523158938472	-0.15357590254011075	0.003042208492613395	-0.05638429049039768	0.09155033301311868	-0.17710108449846546	0.05714893342458368	-0.13964571710388068	-0.03994645601332629	-0.10904696875606876	0.2164172831635906	-0.13906181234665038	-0.012205225377383812	-0.17692708446014407	0.15184201539010928	0.057550438071364445	0.01357408619505121	0.15278102048736794	-0.007788533632293092	0.04105482213752111	0.028730993834726517	0.07772233343021519	-0.053431285362649086	-0.03157414869874562	0.08103355257722321	0.027737295155788197	-0.025409421784651307	-0.15166117760274245	0.14980540798843306	-0.06590224340263086	0.09367253219805062	0.017563280106810467	-0.13863830589139042	0.11303115494124669	0.024740521544178926	0.1411445216763901	-0.0034439645610706963	0.06943364489965947	-0.1762708452346986	-0.050160816641248926	-0.12736344017773868	-0.04869818671860411	0.0473224368089659	-0.052447003662048346	0.08638419525943583	-0.08563413263789034	0.08861056019149359	0.15406041374510218	0.10893092773123222	-0.034726295074397666	-0.22083804100881835	0.05821668388101089	-0.017420331695486548	-0.10248386698374458	-0.030648445724801517	0.13325055113798745	-0.10798855366604952	0.04689918141894953	0.01316477685715498	-0.030255621074235736	0.06440630466397214	0.15850807435978612	-0.03964123975239295	-0.0243615150326773	0.09163770267992823	0.08841222972153259	-0.009657911472116245	-0.03158316466793289	-0.19159038864074449	-0.04514147182753621	-0.11635610906199352	0.06846646448935914	-0.02347026401149119	-0.0414329001431622	-0.0009056263389096781	-0.09497869341366744	0.15523715478611005	0.12412469957133175	0.17462405048327503	0.06563224927326922	-0.004879908302067529	0.16210641021227185	-0.06869446895678455
-0.08713426297713951	-0.06778896950208756	0.05732741326906808	-0.07621464230802674	0.008163046569047783	-0.16196163039369454	0.0437200039690687	-0.09642734156187628	-0.10263322853363721	0.11808851717770762	0.12923086596249844	0.03829199068580308	0.026759104240999143	-0.05680645058181797	-0.09140296145931123	-0.036105665194609775	-0.16059015110205466	0.025682555173125444	-0.007990041649780556	-0.10273674196827637	0.18152362704555658	0.04781551449318112	0.04278294063847015	-0.047822125454210856	-0.006044942084762925	0.053521612693777976	0.011237758025642804	0.20080954205670212	-0.03010483740841585	-0.05045767901477123	0.056920084316276806	-0.13902458584733698	0.11953701194049098	-0.1298591151449928	0.07192270418621005	-0.10294279451126238	0.07785938930769606	0.11513878059958876	0.04869066430248114	-0.12736458494410882	-0.10517526920058728	-0.07286554932240813	-0.18950069315984222	0.08735958776226081	-0.007304744028506455	-0.11355118185248732	0.14567877272039248	-0.07899306094410889	0.02496629298055885	-0.09975525057349728	-0.21967491007696663	-0.13769927600277238	-0.033265006597184676	0.11161613433571917	0.03170104556760386	0.014003834585865044	-0.20106467152580726	0.12710706276199685	0.004369116863839582	-0.011885767945692117	0.1255493112848372	0.12474965752037087	0.11565298820961055	-0.024432714707143807	-0.06632804129083329	0.11042821521569754	-0.13706702337293156	0.17943153458413966	0.0028143031381159373	-0.11359280604507418	-0.13240572322954128	-0.08851578856198872	-0.0038731155254799303	0.008359162185835208	-0.12348620590420417	-0.049305280276103265	-0.12724443636833688	0.058905743587882475	-0.011733085151522457	-0.05442616621189283	-0.12888438662378593	0.016888621558965655	-0.04682639967717358	0.03654091150337641	0.014802043459376503	0.1264959500454111	0.0028453034595341633	-0.19145166133607433	0.09910978372609033	-0.09230391046645596	-0.13165866953620264	-0.004311654511375217	0.014418232882682675	-0.053148814389473914	-0.0632985448586563	-0.020668999036745076	0.13760491557960294	-0.0032819298616597347	-0.09593784049882796	-0.09662168386413007
-0.025149942495460972	0.02448742485182463	0.04800348910801599	0.012382633581217925	-0.08460495676551946	-0.04169430497396268	0.073390794313485	-0.11520136521711807	-0.04536685223389035	0.059840627649290365	0.08724064952467625	-0.018846373780125318	-0.041120681578590376	-0.13221064439939523	0.05297104213980333	0.13162742036567465	0.2571408720113614	0.0386281467994002	-0.003985826107836906	-0.09114035536057162	-0.18788750419706643	0.01809198718337737	0.2361584805958268	0.12720786772771175	0.11256526113173994	0.02546934590112472	0.03590232037980387	-0.2424569609914307	0.07737179940619354	-0.05795583095191941	-0.0701715664201091	-0.03190404810671904	-0.03604416551750974	-0.07277647278305319	0.0013421810856450382	-0.053224107569615604	0.00988755024590651	-0.14906447827145872	-0.021601005795503093	-0.10926749736574493	-0.0631883228226104	0.014340698970049606	-0.1603997614754958	-0.08020559079540426	0.057571389071777584	-0.14132227269898961	0.17746111721137492	0.12157688689994355	-0.04945270844522792	-0.0772833463991497	0.021601364010622466	-0.14474622570271597	-0.20057811765088784	-0.04617042553618323	-0.012616956296596472	0.00915105275767882	-0.06185339843731536	0.12693852937046793	-0.14874395722437067	-0.11405110674662805	0.04866341093739331	-0.11616473903529907	-0.12006525763834192	0.012130152559386015	-0.10672194763199012	-0.013308442792068727	-0.06998565347921634	-0.08544494621833172	-0.2102305414767388	0.014247457065384495	-0.12400401578336157	-0.018022088524240937	-0.049951646320767006	-0.02091842774256126	-0.015123237428626713	0.020030518088856922	-0.07279890107934038	0.12408818131853092	-0.18474000592765566	-0.021468154366589418	0.08362309764108673	0.04704849525262113	-0.09744814994446734	-0.08071426157248532	-0.09988300601042895	0.05876724945115111	-0.07585625045294418	0.02589410390021162	0.02642931062010543	0.23668565058982416	0.032210764535504775	-0.08111440147504635	-0.14480676734990605	-0.02776720027691153	-0.010380567984958625	-0.22176374852236666	-0.07111180609859667	0.02981231352643467	-0.05359301025961922	0.09687079762309121
-0.15587170159836544	0.0671768980147381	0.09157023339595552	0.09554353695946706	-0.1561857319216685	0.03201136218296638	-0.06694740691447928	-0.13898330150040386	-0.04191291225148568	-0.0909702718116212	0.09224608906596578	0.05166993646693286	-0.11548526873682634	-0.07257908779508217	-0.0375177628001102	-0.007067223526659443	0.10056514786523142	0.069182507749631	0.0044556851021348605	-0.026030536899010498	-0.1771367831508306	0.12898152681218267	-0.04497119891772197	0.15531948662028647	0.019679878946531598	0.20273857766505454	0.06082790388555786	-0.14211558633294763	-0.061126108495889266	-0.01691544380018921	-0.08780949565356992	-0.03773198978897249	-0.136293873707042	0.00015055786159717108	0.02385585733080227	-0.10118239121864955	0.19453649238891962	0.006829622704836345	-0.08111060359759091	-0.16293265051699174	0.005779872117128188	-0.02604837189889939	0.07830408371719803	-0.015092691590467817	-0.11959511512110728	0.1670726344067523	0.04370492742201085	-0.025305882175047204	0.01644651164663029	0.047002193641008855	-0.14315665257421265	0.015763514783476654	-0.04486338909210428	0.05123402665974694	-0.07434758256686523	-0.06058414153315133	0.16611531679863256	0.12306291478335131	-0.329994818878156	0.1157991911645387	-0.007196054335107826	-0.0708182062899012	-0.1007141519414744	-0.09485822732932651	-0.06766376728155103	-0.11257429622282217	-0.13549676631515456	-0.10364908263606724	0.03235518667195152	0.004964495822529832	0.05617192626998841	-0.005847769630038909	-0.1305163001512733	0.04948234833784884	-0.10040613141118104	0.064302655356297	-0.11657242345110545	-0.06879348292332754	-0.03657596736805846	0.06691450250122612	0.0175997252127395	0.002689728129298191	0.18868666441275025	-0.18385002981499057	-0.10452714725239895	-0.10697274916582317	-0.17622744015395947	-0.07180212250871275	0.06877994970169382	-0.05909283904012284	-0.0335451923145353	-0.1722554827880282	-0.07950569734017576	-0.04627125575756414	0.06513548397086391	-0.1672130258508582	-0.04538922087102216	0.10869438360846714	-0.044612960252805464	-0.2117362842570224
0.12791756955359396	0.07346247231032563	0.08695287757104414	-0.17437829605417415	0.15127023390112893	-0.0773443852153005	-0.05094480858612971	-0.07020089125422681	0.09464697814085882	-0.017997499298230222	0.0481889662959814	0.007579896181416059	-0.009532444353092348	-0.09468504601744931	0.1811989669834961	-0.1463306566070281	0.04120826805247921	0.037666455532886674	0.11539123343976106	0.13877297078100365	-0.013729355324790662	0.053018102066856615	0.17644333452815134	-0.006522700866266972	-0.10667583423367435	-0.0384656298383403	-0.13046378345876528	0.037221359847401936	0.10640287480501416	-0.012104164134573254	-0.16211413559010993	0.10215408159405673	-0.1776070328939218	-0.1545805176586489	-0.017829400718455474	0.025078722554933593	0.0422524125785499	-0.006583946501565801	0.17603591453930348	0.006502565634505633	0.10343033221129527	0.07869546160822204	-0.12928737322045297	-0.01705273504427497	0.21230563463037458	-0.05043500326483325	-0.06746205428443501	0.017018893280172927	-0.04685199396755404	-0.07942844549558441	-0.048346879500553316	0.14320096713686256	-0.013656834336515976	-0.13280742328834405	-0.15120430205963958	0.22068323589706787	-0.022330480064067883	0.04346024960130751	-0.07717252792206299	0.032098605601725005	0.14593580639604498	-0.06522631837437548	0.04586033638599258	-0.14056205583139342	0.20228903989934685	0.026854659141482492	-0.04127944460254629	-0.029816617494708812	-0.051002863264283306	-0.045897952547913415	-0.2447751548093531	-0.00974205128079484	-0.01403648116106932	0.048874582090433924	-0.052309499172852186	-0.07712754182028854	-0.0007475491041556582	-0.16123629276022508	0.014342101386379738	-0.18622818316161246	0.11208186488307958	0.06849599660376454	-0.09262004477082607	0.0661095277666872	0.011120525986102128	-0.10083421423464131	-0.20221311590133859	0.031628286416799684	-0.07942808081192389	0.10950197208612006	0.0013690264032335596	-0.0699582696497317	0.179733718387533	0.05764463100075224	-0.365524148713242	-0.04863794385226343	-0.13841280069945924	-0.07998277161901589	-0.014473494738311297	0.035398509325555806
0.023371729654597058	0.12588934561267526	0.045332110016180344	0.04927125232119028	-0.004124643715484278	0.194121146218882	-0.031823265342676155	-0.08135871146586263	-0.1302820978445585	0.10416413979125196	-0.019445897732665873	0.33987627748153204	-0.04098407080025542	0.008801155897607306	0.11618308080624978	-0.11101851816934781	0.075171563806829	0.0035370870950514636	0.04363172718583215	0.1873737853026949	-0.10012180749685376	0.05958442474479752	0.2193225055842201	-0.07162582662297168	0.03562835129289312	0.30679415032708274	0.05842978711627053	-0.07775387962088243	0.16145406917599414	-0.05694210163174717	-0.158476906198328	0.16415079236782767	-0.13261190829774647	0.2059164198758835	-0.047854802942005885	0.36432619662263516	-0.16477336462133843	0.06747156899688316	0.01567678296074092	0.11531716094889594	0.15381501972202458	-0.049771621803363565	-0.13088438697226076	0.11005019168236956	0.060859344263978245	-0.047208608210461744	0.026551434210760665	0.11787509087576137	-0.09103818450809972	0.12621833055678136	0.04667730875523587	-0.07002789054974255	0.06288193875255836	-0.09880043142025889	-0.004103966091280207	-0.0009951801719873766	0.12589776801017152	0.003485239013277842	0.10178973323494742	-0.03091302758757382	-0.00932218230498108	-0.004887805873265916	0.026813810806702646	-0.0421424297145105	0.06162216376087694	-0.03806328579124927	-0.17081202141719057	0.3403700176888638	-0.032737103963418036	0.14997105744964678	0.21401207591387605	0.02838168416976296	0.06569241965121585	0.010480115859533446	-0.12981039501465488	0.2281695155631887	-0.09366332537232572	-0.0294869210129801	0.007237317242831696	0.04786356172596909	-0.06571563707275495	0.07717014669076855	0.1056239367641897	0.027930927670972678	-0.0288668329233844	0.04730082613771568	-0.14507154568475308	0.1884342672726403	0.011123815986498314	0.1190717899901451	0.042813908876385406	0.007153033647290003	0.194780849358022	0.20987100577099135	0.2606551474300946	0.05129834882379581	0.094548888966698	-0.04431116090217553	0.011585090254054834	-0.0914619189766433
0.03752546833431004	0.04409633385717068	-0.19616973286703154	0.0038738717739539414	0.04152924135472783	-0.008217546391546636	0.03572669785086294	-0.13353859768923393	-0.07742973380833364	0.10339844906772401	7.427534480731763e-05	0.03415735786859283	-0.054761396865299614	0.0018909892471886793	-0.23029159398610644	0.08445550497520597	0.18092953953892646	-0.10645492573508764	-0.0941584037362686	0.04405647726960682	0.14755516476532965	-0.0003583379528412829	-0.12291748372677454	-0.020841155514988514	-0.10309297783748685	-0.06683582644022659	-0.030448952648270963	-0.09245941319314033	-0.07767839116997388	0.007406240420993425	0.02137792787061927	-0.14236751481612356	0.03970502851568343	-0.038572313721773895	0.07204892413934828	0.07824734869832771	-0.054132210030863055	0.06157942358445459	-0.08334798700098786	0.13237819932785982	-0.07983134666648933	0.03527534057868007	-0.018760916055816403	-0.10153462514775881	0.09009961414674544	-0.061421094397784246	-0.17025291749047544	-0.2880125528927174	-0.08750741552850265	0.13767309724615526	0.1261610693564414	-0.07186458021590662	-0.03751787363251246	-0.04639309209812825	-0.1332069251900936	-0.09511045498386984	0.09778177465766458	0.05020242387008134	0.027084409296661643	-0.13362990273873912	0.010149261354728734	-0.23038449694880217	0.08428624253824571	0.02585271680756892	-0.13489746033559083	0.16171418635340984	-0.17963341432794155	0.052876183585033446	0.05552078939875518	-0.12394822076632306	-0.0038530224087622226	-0.16365467451201074	-0.28455011620100473	-0.10680815195208494	-0.06170773561205903	0.0644577254532877	0.006933878542315955	0.009264153785997048	-0.1015177614631828	-0.052907684627764774	-0.09299286463341636	-0.12220336434338729	-0.05940109678870532	0.007495551377123695	-0.05712543171319847	-0.03233379104554078	0.06946103345651097	-0.050059076778335	-0.13339390447050478	0.05629833090954917	0.026607736049964373	0.032865847747784456	0.0626124241393963	0.04549833907193301	0.003451593995965699	0.23888340028145016	-0.12847096910282083	-0.058641659393086354	0.0965389894047665	0.014209996916382384
0.07579227350822113	0.016976163482635098	0.13740534431839915	-0.10075113479952341	0.1342455520467587	0.11710013368112378	-0.12102891142303801	0.06306622749468797	-0.00430306386837127	-0.06065783539918549	-0.18886205250517427	-0.10108105774670385	0.0708112140184589	0.08138412692605569	-0.021070089679821713	0.08169812042814051	0.09452634423293359	0.015463831781496094	-0.07223329580975393	0.04410589227753372	0.048698460172594805	0.06739478153058735	0.08654114789491783	-0.13621635322923203	-0.050992078007694154	-0.18986164367459799	0.07469954118021621	-0.02123114479804162	0.04308221455658787	-0.14756787481901584	0.14009822331655436	-0.11943361275182109	0.07745611154518695	0.011794221436656703	-0.018944342102205223	-0.02701415813686571	-0.063806300931613	0.12951905337537906	0.0012610811261894628	-0.12692190301758732	-0.03839530438961074	0.012834012053707293	0.08978052814453255	-0.06046042829341322	-0.05377715435592569	0.0023432127147405314	0.08734207963983494	-0.1368746403154431	0.050535463099174574	-0.04640523797636978	-0.0324421876856182	0.2001575745129749	-0.019647194369083562	0.07546858157794527	0.07189184315035389	-0.11800274963976687	-0.18453995976992427	0.08209784239402085	-0.10835404747338746	-0.16641860956221716	0.10261621112388115	-0.1019426733775593	-0.07725181566090625	0.19743725411423946	-0.1659747526963411	-0.12562860414069255	-0.045969814247392056	-0.024025395900871542	-0.08937452821176534	-0.11586529128293528	0.15099972178628734	0.02629755961730143	0.05851779521142669	-0.013722616485518275	0.028945368352808868	0.09329067088446741	-0.09962990242737671	0.02648344683092866	0.06960423134078912	0.15448065045345388	0.19478909798017616	0.006984757532426258	0.11386390401509275	-0.26701669069288075	0.15522894784273666	-0.072589206606267	-0.02411120288858705	0.044110688089978985	-0.015344236731551376	0.01964521304776101	0.15876995200811195	-0.03842200453459713	-0.10869141395091893	0.18134618831981805	0.05267754544960955	0.19222389740542792	0.0863631546140713	-0.1323594034467372	0.06453816317688052	-0.09839480658825546
0.0006486954171971168	-0.011405723708376026	-0.16035184047879505	-0.08161438185276348	0.23347885265173707	0.026776465200462927	-0.020395643432600336	0.2114652254863132	-0.04204392431818118	-0.011172333082700764	0.10523697913095365	-0.03667509108388964	-0.07538244654084596	-0.22722799775866567	-0.09933058403815075	-0.09445856908797881	0.01208339146558495	-0.06064316915507849	0.21215404386518327	-0.10688170305074064	0.15438007161205491	0.016116628855749913	0.06887463481611998	0.07510356023549415	-0.2225340050627314	-0.002858605166944319	-0.028042352529816864	-0.09063564011591724	0.04451520411177222	0.17165403104778923	-0.2711706001378342	-0.059631083611549694	-0.1094997678218093	0.006137790823345083	-0.02756770909374487	-0.07591662834570297	0.08534057757430623	0.17654114623965844	0.28433845380908573	-0.07702418464577818	-0.18751146241999556	0.05591966964264634	0.16104846808554105	0.0714426953066227	0.15136544779105293	-0.02254807069337565	-0.060929499870418465	0.011178861840807991	-0.033138943327022524	0.059726393431394326	0.09187961130949836	0.10384181830412537	0.057239156038510826	0.03584015422791266	0.07968557553346853	-0.19651833427135093	0.02063201710813071	0.004869715556398317	0.013196193500039916	-0.008723060419182497	0.050392766927627064	-0.0574602965091462	0.11302388805121036	0.04702747214748354	0.031250414667565535	-0.06313264358645397	0.08106843645265895	0.014394734996799155	-0.07553818152546433	-0.009025499602611264	0.06131583899601193	0.07564017714672949	0.0424046357693102	0.013771548240433125	0.10263157333776556	0.1168691927258019	0.08008409124438316	-0.05884252167581888	-0.10924469614312664	-0.06096510690745087	0.1953019829867044	0.05312071397684303	0.20988071866410135	-0.009339165372094746	-0.02656871626263467	0.01792102695907786	0.017197085443791643	-0.079603774680326	-0.11488461817294755	0.05067687500055158	0.0956431468669672	0.24449808392102376	-0.05039424799192484	-0.035564342593808224	-0.07631447153409876	0.12098012569173909	0.08179316535191587	-0.08922387356366514	-0.09080968542030594	0.09482404597594554
0.038009223864015555	0.07752208841474778	-0.09003890030400545	-0.18883616576753998	-0.08983746859180702	0.07647555286379187	0.21103234067221172	-0.04796833590827705	0.23429333454830673	0.08276337681628829	-0.1404314510391077	0.026889350600262	0.0863694208677075	-0.24264954731256944	0.07175867192653904	0.11727799119774791	0.04439982194728738	-0.006164411442448233	-0.009029066756589875	-0.015126155320947837	-0.11838506220854655	-0.06523035301208834	-0.03346063583696506	0.011141731357754881	-0.047945180471540005	-0.07843263394096132	0.07736184657066475	0.034609764477103955	-0.044494927274183464	0.05062788824965193	-0.04564001153274796	0.00923308254317329	0.0954024899258242	-0.06465709372743267	-0.11692839761026624	0.0025023851151715552	-0.13916436810166713	-0.031481723796608345	-0.03159823597983406	-0.2426420098005352	0.05921737163160851	-0.01826894484444242	0.11818964425284433	0.034654045787263305	0.07770831262948928	0.11900391857696102	-0.01315537956602148	0.00969253272840608	-0.15735503838291942	0.13392444755542246	-0.007004683587121519	-0.10060482428711262	0.07245876558532391	-0.22003604580674002	-0.03827303487111719	0.0899277681688458	-0.04501880324551619	-0.07343673322235943	-0.03622394421559525	-0.20102819152119877	0.07158252364498788	-0.012288607782548727	-0.027527551013022424	-0.028270953480718532	-0.006268994518799668	0.06548074249139646	-0.005211171465565827	-0.12840650275616575	0.05755154406521619	0.05186589970253561	0.02927174240775616	0.10055131236982462	0.0128640215416041	0.10916798978696635	0.14054059285467896	0.06124857506507341	-0.07583647432249488	-0.013458928027432412	0.12345864662975521	-0.14343638099046677	-0.039195366939239494	-0.04080609281228412	-0.08527604346591687	0.08674861691028823	0.038497549469201045	-0.07693087750993603	0.05003668346032545	-0.012024565697512379	-0.0890201289426171	-0.07164496323699523	0.04954994711511529	0.09390098785218387	-0.040297867489948104	0.05330333785896116	0.1700203392505515	-0.12943339882878596	0.039515408849583926	0.08378113767711981	-0.011538706756711403	0.12379845914811817
0.21987763781592423	0.028205699106075895	-0.019019321713417938	0.09769257545185712	0.1041598399095271	-0.25351795010368655	-0.003955797791401503	0.006725364912060377	0.03207037010686838	-0.022157674604982597	0.0008726198885805359	-0.08588414714508068	0.07289975442482716	0.1623443702244846	-0.09684607742398205	-0.13962025740394018	-0.005710403199127601	-0.0025388225143145194	0.106581475583433	-0.1307256477489009	-0.032794866280434216	-0.22542023777921602	0.11545571491924887	0.025927451081540806	-0.05103609804923476	-0.13980457935035745	-0.12655570199629015	0.0754631346661952	-0.11875619476866596	0.010400543660535333	0.1989806940726855	-0.04527696110574302	-0.07325961317603732	0.038389211792230545	-0.1157494817508426	0.14055006970942513	0.16553445195730718	0.0040509342528341945	-0.06161804695628498	-0.04878832453412221	-0.042471682879561386	0.03835727740609817	0.10396322436749453	-0.124500153973307	0.08580396346586577	0.061769735110966874	-0.05069501259727491	-0.11611797676367919	0.011551045169901901	-0.12005520406792679	0.08724544270422911	-0.11346590763815738	0.0646012052300362	0.010436137861247297	-0.05842200624826707	-0.010287573931300364	0.10798329537794465	-0.11908419168794679	-0.056008060759032634	-0.07511733370574628	0.0065825204614703104	-0.06846810323507518	-0.17664444164461227	-0.10538851379643675	0.19260327970028798	0.034510666732224145	0.020768142775562652	-0.04092375274646234	-0.005147644139959414	-0.04927732081875661	0.04497953900705498	0.042882281499296945	-0.1319303675786616	0.03285266541146309	-0.2458243550678428	0.03009803943416568	-0.13310377258751507	-0.009614918088563008	-0.12463979776644991	-0.013368043066346995	0.05776937382396195	0.18952007098220267	-0.15870851083358348	0.10171616152442427	0.011978246029448757	-0.005544349581895524	0.11883203600305867	-0.028073311620894173	0.07175315397744457	-0.09817311683971608	-0.08078773030648084	0.09436000527945995	0.13555514470555974	-0.003527021801417616	-0.2869636412492399	-0.0042890917515078925	-0.00043328381706332175	-0.02582659865343042	0.034339167737849716	-0.04828923550287797
0.08304700682757701	-0.11155516162420621	0.11803956524158178	0.152490866388601	-0.0993804368268952	-0.07133488674284097	0.04093764195313149	-0.13520454388807718	-0.031533462017237134	0.10959415712516456	0.06990552516841428	0.21210681225440525	0.016602348900714874	-0.06118221822964058	0.024375292912611365	-0.015119898040356636	-0.0016082082029334887	-0.0022410440298547786	-0.07117304158477922	0.049486415610919716	-0.14511650122878447	-0.06182257323699556	0.011100265137968406	-0.22648297902412406	0.0960310489785807	-0.1831583552650544	0.07069613956565897	-0.13830255146361844	-0.015677280984910075	0.05187254355636627	0.2191104470753732	0.020194633093927102	-0.20594522601975948	0.08373573544827048	-0.02331208974130185	0.05289709937365607	0.04662154504535307	-0.23361400341121163	-0.010661075847544579	-0.031219739129801444	0.13985152289018632	0.07271353497060526	-0.16270020740185023	0.1606883274196666	0.056977137045385796	-0.15472972144223068	0.005242905073726495	0.1293660233374645	-0.1214272351310102	0.1637333868492002	-0.12834004093145832	-0.07912243114837479	-0.0995319746614866	0.1301402208940855	-0.03703966519899356	-0.11880205869850399	0.04100231444750972	0.061564652487560656	0.0815590402261112	-0.027429532970424567	0.024352685423416384	-0.06502334403206411	0.1667653572456014	0.11097488294645108	0.08488398378105272	0.0785345070679953	0.05190910376429111	-0.10403326101982119	0.06334956981877003	0.017313481051965385	0.14891243787000955	0.05993346999873387	0.08135151470732681	-0.17414616973897598	-0.009486085395374377	-0.046943567113599004	0.022488329637124226	-0.04277582674508797	-0.02820197936236021	0.06351816839484595	-0.04322025554871124	-0.007722263448104255	-0.14843699516792383	-0.08498282986003433	0.06809535782593093	-0.14162021174321293	0.09369233922546752	0.10691121429617205	-0.02681888880315207	0.29871737106588675	0.1411891166382609	-0.09492807253167286	0.09641415393920554	0.0036982809204824806	-0.04492010430442003	-0.11866546972124666	0.11059805203866042	-0.05773274572515538	-0.015651593411182187	-0.09226728228834516
-0.07482476821695906	-0.018366004386888735	0.042362791474791904	-0.258839925783349	0.01812148366851843	-0.07536488985618199	0.1370138827897184	0.3329451416358235	-0.04272274373775264	-0.17509406287299822	0.019501348132970685	-0.019516644352058323	0.19631196960293276	0.16403311906882256	0.07722435367268028	-0.05847952679516871	0.061390622473120514	0.026932696070065168	0.014794872389406463	-0.16205312310036665	0.12301449927446025	0.0017491041777605311	-0.0285430165372531	-0.059511379690920366	-0.08338254675212246	0.025508956224617723	-0.1775468017323566	0.1072221947627519	-0.11200196515582933	-0.20586804777861978	0.17738602066371645	-0.09451837281829976	-0.05348426360464257	0.11350969229930165	0.19103626041191804	-0.18014906777020587	-0.07455681317297484	-0.07125511954991386	0.11653756660707532	0.158828973892894	-0.11883973410784274	0.14147465879376447	-0.07090341761883034	0.015549916197498983	-0.140000815901892	-0.012191671841399168	-0.010982594095852193	-0.037346206126359895	0.038407298136560256	-0.1129282600203981	-0.10078797863935025	0.04288230188445487	0.14217574860561255	0.012739584959160926	0.048119244492922555	0.07580420673366564	0.08302479174348548	-0.09527994383429508	-0.0904298899035014	-0.0689103576756209	0.20139406516315603	0.05081928800550468	0.04647187857998419	0.03683362579993006	-0.10860883096547262	0.20177666389871668	0.047502810673324285	0.06178597858776773	-0.17653276690103284	0.0727360998080851	-0.041639619651267584	-0.10476431966428648	-0.10778617933891763	-0.12021994393795682	-0.12806058233586076	-0.0036772947889601544	-0.03192717883856228	0.03338006999219247	0.16306433146679672	-0.024827456640167386	-0.2245379268632344	0.008483014664595782	0.11571412951118687	-0.005483748991570807	0.15103224160164633	0.07847150713128558	-0.1478018343302576	0.007277527981948281	0.02970087957312064	0.10896641374731843	0.1672583358226954	0.09077255197086992	0.03296650564112299	0.06759689324805392	-0.022610296319470844	-0.13368985862733673	0.0016148935270513074	0.034457576950948636	-0.11981888749876882	0.13198180912306298
0.09989160180108639	-0.13384167560776314	0.13372446390240583	-0.032461336468675515	-0.08035047563286943	0.12086822846270558	-0.005484649291704487	0.18551856533489275	-0.07356881470366626	-0.173997318114351	-0.029375764082543172	0.0883278794672893	-0.09271920732612768	-0.13374107187801007	0.03397115445127136	-0.14683962282218457	0.03806377432062041	-0.03409798036765375	0.06287265019630697	-0.12558733469914132	0.13060711896140667	-0.013357289623051933	0.08855385011326836	0.09599690629166799	-0.10230455685580798	0.10211124565622098	-0.14089085475083382	-0.13761521201529864	0.2120906827814223	0.11110875802744957	0.20609573656349237	-0.0328337415899543	0.008510848762895313	0.043707773284253494	-0.00018262625791563256	-0.04701101154708576	-0.0916570604724896	0.016979971983655265	-0.10974075036895597	-0.10368902880055154	0.04886545793066496	-0.009513430839211395	0.09372062423481152	-0.020727544030293223	-0.051987918937471164	0.042341131833471324	-0.08178474663609633	-0.049606941419306584	-0.06184784167232766	-0.004228849085126152	0.1894353645887529	-0.13770733789569878	0.12744985984436796	0.07268112640281883	0.16528148714938065	0.3115834749409606	0.1402754964892329	0.0888689656856387	-0.12336317670219825	-0.11905876459782781	0.037196522253003544	-0.16980762276313385	0.06099166773997693	-0.21616156186487082	0.10429462618653461	-0.030870630593458903	0.01262675075964109	-0.06257448138088395	-0.1898527762513763	0.12636618966221472	0.1475653021022482	-0.04477981805019732	0.08211811149362783	-0.04189398939866199	0.028196018646274267	0.08070192333508157	0.05421864522318761	0.13302826256699238	0.05014247306164417	0.013142809374273765	-0.07614517585281301	-0.055523928891112614	0.08255887909076058	-0.1504314962562525	0.11321780513393886	-0.035504172735887615	-0.09721297147597212	-0.10349545352129076	0.06743997966251523	-0.002174629275353683	0.16781905438479813	-0.12630761729765821	-0.043358970682676946	-0.01141667908213247	-0.05499696123588427	-0.0044652674222891795	0.038031708982584386	0.049439797110818036	0.14696145249169654	-0.13057020227079227
0.032726274243983666	-0.0675118715741656	0.0422693338651346	0.04006449761302837	-0.08056202401791902	-0.06625363188174559	0.04640071612398609	0.046870287916262715	-0.010649861658092239	0.06017354317074834	0.0816459111675491	-0.03330838195455437	-0.08633071896599231	-0.13023004300465357	0.01176681659692104	-0.14203730811182227	0.014097020074564945	0.12221188921410142	-0.02278066709662053	-0.037702259450126466	0.2240400924574159	0.1481775113787002	-0.07920244230071388	0.014322776277729241	0.05169293929434527	0.03784547482543723	0.1812742829875993	0.045596764568422155	0.043847176407921754	0.06884716480373561	0.11011580504063957	0.0893166513713068	0.07642413056241182	-0.17065710288132904	-0.03905829334885205	0.09402523370004186	0.04906933422698539	0.09747341640274461	0.21382751094650945	-0.11408570616499054	0.11695867430660407	-0.033034679431027524	0.09353496802344334	0.009622644028958556	0.20585477203116978	0.013007743353137254	-0.0637746806139148	0.06407554536698441	0.03228419866776635	0.12647520009967406	0.05097352342594728	0.24605864062259902	-0.003733792467025502	0.007682552662260147	-0.04824258342531397	0.005578653703057681	0.018660783965752385	0.022212630184081136	0.004150165782239864	-0.06096268643125121	-0.07457129222913991	-0.037517420206285304	0.11334674991717329	0.1313563842749832	0.005617352627598533	-0.08132579922022626	-0.008852142455072017	0.21761699944345028	0.09991877486797872	0.053394882695789604	0.11483375112296611	0.17480701664648327	-0.10318586842773327	-0.03560588893154192	-0.053516242595808346	0.053471462628948405	0.02366545704893393	0.07400771729004477	-0.06009499690245646	0.13963174641931173	-0.007028957329850883	0.09919200699890773	0.11761731442096128	0.11495110671048686	0.03678381359978985	0.11479228017251857	0.1969398973673882	0.05751510345039391	-0.07295221821888816	0.058527072377676764	-0.007793860817847102	-0.23480022707600437	0.05605816590541555	0.008101317524762838	0.14538432361946288	-0.06677287028150582	-0.14120680099356536	0.015813813803534842	0.03254982173800855	0.007955673960927194
0.002070194821730135	-0.10701559065790538	-0.013925875369767202	-0.0348412955399452	0.10782528626620022	0.03791228174801007	-0.02782571601008238	0.17363439515695542	-0.027162998335742	0.05572894865959518	-0.01643264721024873	0.16312789322491233	0.00863823978065741	0.01163783614432513	-0.014511509936299072	0.019658212466750542	0.11958976418191118	0.08458698824528091	0.002650034278192454	0.16982140525345862	0.08790598301681096	-0.04411297597225031	-0.13862020912263276	-0.04146523779211659	0.04101568763261063	0.05947243292772619	0.1357961332706768	-0.1085351679519413	-0.044104079151571614	-0.11776426698745131	-0.13401894374691134	-0.06303860719165344	0.03729641935261585	0.07715702212706377	-0.09463743360774654	-0.08202519353242588	-0.17732091556414684	0.0219954780126298	-0.07242836449098078	0.16604890174334003	0.04080632271641132	-0.017144532180818878	-0.06411124320370887	-0.15024519855477783	-0.1372055471177154	-0.062214093663191625	-0.06989037698632938	-0.10015688737348154	0.03770947097855327	0.050850123896052354	-0.045908692118660964	0.1934653237526796	-0.1744114288324141	0.006220336196940272	-0.021941186784365168	-0.05506886266529961	-0.0697658970536239	-0.0006934705971329005	-0.022928738459258247	-0.039188109219065466	-0.129601710781539	-0.16181118542329606	-0.028841452977290124	-0.04018563300768863	-0.019048899587879843	-0.010609626846242023	-0.05227687895604357	-0.02177821387365226	-0.08535275597298708	0.15228797736154973	-0.08030267788140295	-0.03621732986798625	-0.07286853252755543	-0.07386541383770354	0.00247119888094734	-0.010509931886545611	-0.045591965814216935	-0.02834773058419883	-0.07206562894804878	0.03987140672010314	0.2055135224023387	-0.08641702632001393	0.03926132264038125	0.0046298936172639625	0.06687962929125822	0.07074274444063594	0.021695360510055793	-0.004296647931274886	-0.04344503801083582	-0.07647235509650382	-0.010179827186854703	-0.12845888314176804	-0.060092390747727216	0.11068534414798957	0.009702740975847701	0.08958915935637192	0.14697365567548068	-0.017780806450472926	0.020729545555630887	-0.030201841924397798
-0.08126704551003358	-0.09526298786808973	0.08429791565605471	0.020862728037175784	0.18463342107902736	0.09723168174263556	-0.0731212989536368	0.08402214012663216	-0.030452555413554214	0.12169822282591122	-0.04864486805909295	-0.10522517562461763	-0.07957550770614097	-0.07446561631002625	-0.08401660616905222	-0.05729398846295185	0.08569564855855091	0.17960402377357618	-0.1330158999463675	0.12635156041375178	-0.047770679839557434	0.034788313601490144	-0.16536810920140907	0.05240855381993128	-0.20051968349798976	0.03139419192115146	0.02572107276148782	0.019100763429546738	-0.07344576755503815	0.05494361542870109	0.039108497701972285	-0.020978418521979052	0.06716248909959939	-0.00960861004678748	0.052872981731993035	-0.012475472617951682	0.02167019745634662	0.05743872373735696	-0.039795294234295626	-0.1233704299947817	0.027649336227407353	0.11893955711526505	0.029915097295744597	0.031898811005226756	-0.0041887304423419884	0.07390970201341482	-0.018625303686442485	-0.04536856645433003	0.11052982528748659	-0.05300723325516298	0.08900968416117684	0.11059354619577089	0.05666575253993179	-0.12492638309362339	0.002750659724688205	-0.020229271497892054	-0.04965575521401485	0.014252239470399577	0.0769215809413536	-0.04587395330086348	-0.01713828368898679	-0.02410589338319876	0.11638701835850125	-0.025713024061218937	-0.12351286855449745	-0.1573434838990514	0.036272959120794306	-0.07606807279019433	0.06687243966470124	-0.13311174979078025	-0.053891080328599184	-0.13311860705741563	0.043509593691574595	0.06486731914201285	0.033853970715505305	-0.10856476233319678	-0.07457637839962342	0.023420463001165577	-0.1687741408124364	-0.02405940698840455	0.15169053533358814	-0.018075022994424067	-0.14885462725826798	-0.06073495155386089	-0.06302938267544382	0.21395422015972435	0.16648180249509148	0.0731066344854094	-0.034307593074139824	0.12005540742934458	-0.11330872961583482	0.10765753152442592	0.09282759397487206	-0.015184478647080895	0.11398280565139862	-0.04476073306444634	-0.12650838736510653	0.09779930476790327	-0.008544789178828484	0.06017806032986677
0.18151442199600332	-0.06923772472603663	-0.017614413077044547	0.15524678602392133	0.062199638535492575	-0.05666945636656179	-0.09562749286347576	-0.06218944153199383	-0.06258547120580045	0.022903663945252745	0.005523080208077595	0.03716087106839379	-0.08422275618430597	-0.007695397801409877	-0.1921999297364447	0.014583321906744717	0.12521258144213102	-0.14241544303912954	0.0621630743797368	-0.04748967785285456	0.07803432907755978	0.022099900189111753	0.05492706017022839	0.006085028881353948	0.14598345735324794	0.0493420686952242	-0.0680606378677774	0.005037297121180722	-0.020295255797363142	0.01621459784233757	-0.042818228661662204	-0.062350687556375545	0.015572249986746901	-0.002457740705803159	0.10655861512531761	-0.0121421031124728	-0.20376846915173685	-0.04310768540590136	-0.16929332149560053	0.04791848325629665	-0.15647676756271883	-0.09883672818917703	-0.03623344862947502	0.1763013197373885	-0.09979667648087713	0.001237570441647465	0.05798344106152793	0.16516321641361092	0.07776259098695366	0.1263919903868509	0.10012539108546026	-0.12091486052689907	0.03293479698004537	0.08122967688903096	-0.08797237535664021	-0.05968965966840558	-0.08259715460465145	0.0741903717853047	0.002262901123072016	-0.03208773639527481	-0.12847807478682563	-0.006739447331295202	-0.05727745030314955	0.0219783837169448	-0.12794982814636632	0.017639386885394227	-0.043954942779219124	-0.11083281734148463	-0.13272509975249963	-0.11406190872307181	-0.005194340896078625	-0.0005221857275819709	0.04452612550930991	0.027146416304130096	-0.07623414083493205	0.11126454441858127	-0.04639916425882385	0.04417357432476104	-0.017495555774363056	0.04848035205279708	-0.02143365311080942	0.02715245853690725	0.0015817140231754769	0.08025270004653881	-0.08058715965434522	-0.18781376570339756	-0.11626283546370818	0.11342482636984905	-0.01544966102759046	0.008558197810847793	-0.09477945115276082	0.006555296955142788	-0.08733340598934208	-0.08949724426450366	-0.0186123076541796	0.03787724958199055	0.06199159472329232	0.059195973543184725	-0.16236220230488932	-0.0009257587780597846
-0.019678183338273605	-0.15321824160814557	0.0015983766722198454	-0.025042721743676135	0.051152567211788735	0.008124707623980248	-0.054932053028325316	0.09257624504569774	-0.22212335007751244	-0.0064265128429610175	-0.1763250931991936	-0.091219327120612	0.052481370300934964	-0.1274197480440803	-0.14237178187039348	0.23819449834156245	-0.13592890514201647	0.16505209030879733	-0.01722021645792605	-0.05248291214389753	0.05667863905882048	0.1336594075544499	-0.11460679421083285	-0.05102497897285305	0.08468697346842524	0.028799431242700003	0.11019178306413827	0.05151119544317794	0.18082240091491483	0.017858859883365028	0.022181114833096188	0.032172137201579874	-0.014248885172655802	0.08480871588009245	0.02370412238630261	0.0788180009145144	0.09444998536241601	0.04284546815603274	0.05017163242341968	-0.10103297875965339	-0.055035358781982124	0.08433834529907315	0.14236311818185135	-0.19404302255083605	-0.056786314725141486	0.0023620602414650073	-0.08792744620806779	-0.08225196441816829	0.047491987379380485	0.15813759691714335	-0.2031823556322141	-0.01704761489816962	0.046328034179038795	0.07802139722002417	0.03191273430690385	0.17614025499361152	0.002890659332579404	0.13119927903920975	-0.0646367670345969	0.005798294658884979	-0.12127150757988509	0.09008644405489943	-0.01204428626411764	0.0357821062519898	-0.03133686312850738	0.058642850165901594	0.03974339738557521	-0.09946514299712064	-0.09367674325830105	-0.0027768730341351778	0.06595739574066574	0.18628955531138477	0.0302990856665729	0.10075314024885403	-0.16128509347641687	0.20129558494339828	0.060568621112919274	-0.004960451115877974	-0.01646960474579254	-0.11071997978589983	-0.0821286795720171	0.1910435632133414	-0.09890044382860126	-0.10082677578663451	-0.07022204860755792	-0.11981807529612727	0.0015306574845510056	0.10889105126652388	-0.061049232627203354	-0.13733242797608214	0.02918613130146538	-0.005577433767981307	0.10027245500816247	-0.045450829930227046	-0.026015677962667516	-0.014953036454326897	0.00890041105534821	-0.03925616773575899	-0.055464410804600885	-0.18503776848818415
-0.05653874408021618	0.0714966832689378	0.08504065327686537	-0.04711130235913006	0.12999611024010022	-0.0028725972858844183	-0.13381865472106017	-0.1651190832502518	0.12180449033168166	-0.037315551046947386	-0.12138200336251204	-0.22592795391875975	-0.03957807678356219	0.04041639649553235	-0.06976911440462046	-0.10531184253247057	-0.05494278771591156	0.12432438237404946	-0.13931269276472832	-0.06417027312626196	0.12111658689955541	0.049396051809891844	0.017866765027364492	-0.06484573703810324	0.003032719983928268	-0.053782975044438686	-0.08593859000039683	-0.10793140999856593	0.07839652794242831	-0.006040829444507548	0.031433893615716295	0.015145758418778297	0.04414361204218416	-0.02546104577606835	-0.04815175781186723	-0.08156876472655099	-0.14134607984351488	-0.1121522310184843	-0.03647667963307649	-0.16030927499783612	-0.1382501248168234	0.10421399261986541	0.022417948485379244	-0.0452214690139261	0.22711836861094592	-0.16482489362400612	0.09756240360278119	-0.011150838324159583	0.07850465762904348	0.01087001740315886	-0.18724934733141513	0.009544032341246156	0.033576593875589776	-0.21915932477580605	0.19439288861482698	0.03112214461134884	0.06719827660710131	-0.1165495272071928	0.06901470904321576	0.10895135620939582	0.025376886093053823	-0.0009371558520764512	-0.08935865803828003	-0.02161679084723617	-0.05114166094812643	0.05721916257292828	-0.08499013332909411	0.05646500802626057	-0.08389853777851135	-0.026249878350730147	0.061604426831226564	-0.07029309863218558	0.06503753675840308	0.055318000142151415	-0.027091847112381506	0.1161449533207155	0.007787769820863338	0.11022935259541596	0.17933358131942756	-0.024170788746728115	0.06449549840273966	-0.06365776502894809	-0.1032885036400067	-0.019541719883763384	-0.13627973870095783	-0.09365570608302652	0.05925802069782456	-0.051370962012265015	0.07105148643197455	0.029944016235367646	0.18508615218798058	0.0524337288362982	0.11139694066767908	0.04018846631275464	0.031139340107201804	0.11651939526803459	0.06686993122447578	0.02100138746777831	0.02056558656579198	0.05382155947496609
-0.06713777256912522	-0.07421697022662539	0.14455701872420462	0.1864432007479841	-0.08694916584407851	-0.06748008865078134	0.11322229342260164	0.06814309849058645	0.06410536443658407	0.08809226023444791	-0.02127146982005297	0.03305037687928685	0.025210999129147503	-0.08713934225924674	0.029197363629596892	0.12409812326632141	-0.035970327168583324	0.01528732339086815	0.01588200950383595	-0.0316687229181242	0.07309105234308444	-0.07162064149656293	0.12606893324561305	0.06254794256877702	-0.09496616846586964	0.16735717860307336	0.016126100896749786	-0.061736706146986536	0.1078975248434376	0.04946925772238222	-0.17918061695087434	-0.05593235356244754	0.0344745533385871	-0.21572324147692853	0.010285423048347868	0.004772398791581435	-0.11096251220433528	0.03334283735230704	0.008951270311040059	-0.12087817781614553	0.0870297949097113	0.08378540267898472	-0.02897370868523613	-0.027521771215095633	0.06768532367730269	-0.020064477058273324	-0.1926806460970256	0.04557153952990882	-0.0813302165219036	-0.04395881280599576	0.1392735128672966	-0.013640237450769194	0.0032438371540264403	0.057212255934492216	0.04888015987865398	-0.09192092391322272	-0.0060318574291622256	0.003847622128189262	0.021591621715981273	0.02926737178066728	0.26155679805998344	-0.11758597705872448	0.09802607945592076	0.11881363301287416	0.05963230545900623	-0.06239131910196912	0.1662824987812955	-0.22214222970991684	-0.0683266725185517	0.11505399668975229	-0.038746030119091376	0.17017350887993682	-0.15543103340243944	-0.10883043384750933	-0.05297714809602337	0.037706705437557775	-0.020753204006435558	-0.04903712314878117	0.13952325344454036	0.14601589112317084	-0.04145245271095475	-0.15969701147768275	-0.21682533882514826	0.02466431659436312	0.06371574804531041	0.01901879705024988	0.006797511759151049	-0.08143065996120676	0.06551049270769206	0.16840501107858294	-0.22737041574707276	-0.007750212956082603	-0.10032706937330187	-0.14904653305741486	-0.11561002443257504	0.04399097316052044	0.03912817700522466	0.14529842929893455	0.0015441460553283612	-0.1763769128585917
-0.02401690504913201	-0.13719049194121335	-0.1218383307820741	0.057529503351631886	0.018180156549546262	0.06287303009526185	-0.03578247870238415	0.07653105834192116	-0.03708618199801566	0.11178575907564735	0.033819405120955985	-0.01785345523036114	0.021208045462958118	-0.0017903723846847803	0.1632765835751783	0.024293808961444133	0.0024528677113831764	-0.023861566581023175	0.08911132321504743	0.07521033353719463	-0.02740189600167917	-0.11355883095413863	-0.08549200413270716	-0.01834124423026401	0.13914327647956404	-0.02041970908797177	-0.0589073645293144	-0.1770396206807733	0.1566176558052028	0.05686280674996474	0.07948782843955389	0.09779108188236207	-0.017442172808897524	0.0057274846755334	0.14902906534190913	0.028093240560009093	0.05746106762071908	0.08513158836341514	0.0627817880569664	-0.010851192834796812	0.00030251707117134977	0.07776565419003778	0.07760028599347263	0.12467325111639228	0.05750297931350283	0.05965303637873011	-0.044913412277942266	-0.05272320980364453	0.07806291120902153	-0.0515868016839838	0.0027654882515724477	0.13788377162136473	0.12114354618233804	0.02900756902566019	-0.026748484661014673	-0.013015877339757342	0.08574282362545124	-0.004755906095942324	-0.05266456405246963	0.12135862842468648	0.018264842921854856	-0.05772558209917464	0.04773490429726116	0.09632749918222883	-0.10532993881983421	-0.01992800487978983	-0.024673203274464765	0.04936382466458447	0.06320061654578366	-0.05400918568931513	-0.14469512717483157	0.09912490586979883	-0.10636453437707966	0.02599499163829425	-0.01341006800908029	0.018186588642598617	0.16473728665964343	0.30350331483774057	-0.16347020915895427	0.10246262002997847	-0.015626288164097	0.10131638229040356	0.09624513455533157	0.1409513750931932	0.029772529270408743	-0.09232875567200323	0.08666357706928252	0.01383821526014117	-0.023384470995152746	-0.047932222208419785	0.10408169591119078	0.16033693405131708	-0.11469466607690083	0.06140227895004223	-0.030495210605513946	-0.1488536435050008	0.016844029659582416	-0.08296048774458485	-0.15899980478369566	-0.0781504009018642
-0.10381351898120199	-0.0575336674641079	-0.139511044822215	-0.04244898672547634	-0.08093198794068913	0.06126849141094147	0.05908093079712813	0.005402879620292797	-0.0010379235273559892	-0.026689910520523143	-0.08840158603704606	-0.06465056092867241	0.06992726501587636	-0.1760069451309644	0.014850887962025027	-0.032734630602079436	0.07470741025288832	-0.1423307531707373	0.028460938861440275	0.060549656116150985	-0.19474474829629096	-0.09519856839850453	0.018806424096609396	0.05112130845923375	0.04210968923055024	0.08269218657167772	-0.10386949607184803	-0.1698594326165105	0.03826459818291606	-0.12299350421669178	-0.08710453323648923	0.10358570376699851	0.00988852691264221	-0.071579122361688	-0.0697460801938006	0.11895602874646174	0.010317269168365248	-0.13480089453225846	-0.2080544904072363	0.19983111353589855	-0.1006015415503149	0.05277192135725967	0.15106928260996755	0.05761747705667984	-0.04528821689779407	-0.14261474827004283	-0.1446981046958755	0.06912261016880561	0.14504916264843595	-0.007350938507597307	-0.02756517554046663	0.06971010103786776	-0.07494609553049947	0.01887476069953934	0.01923110880750795	-0.04410602835334737	-0.005895679660898496	0.1703776694629667	0.07905338864644072	0.10867535489348384	-0.09278514129407277	0.1095935966204129	0.06301274901526792	-0.1546041581715022	0.02563898207992333	-0.051946130561579686	-0.15463763238016826	0.03748962880757246	0.05391999471284561	0.022290988088424914	0.01618516673989582	-0.05848108963740564	0.2785194916308053	-0.1252333639939892	0.08633350924107659	0.012782793592474159	-0.08866606399777004	-0.006445314061331604	-0.13988293473964836	-0.03743865535907014	-0.0046982789707491045	-0.17883705227081498	0.05460473587935386	-0.09798544590623452	-0.14066966883417623	-0.13123471669417028	0.17965938709193502	-0.18635643717743172	0.043611944015833785	-0.07675904919996125	-0.014383881647972323	0.060392955437683526	0.0822664461129906	-0.07154140223894376	-0.09683688945525677	0.04778507288261176	0.06825975265932321	-0.02606841636936953	0.037424932039477485	-0.04459054887987628
-0.08270377336658043	0.00039549891029267125	0.05190378150512915	0.03092496574117948	0.050917443219601025	-0.0760586240689552	0.15818807711969354	-0.0342349884957724	-0.011892740843393944	-0.13186591666004863	-0.019384921602830393	0.05322341505358155	0.07625105301360528	0.1561940457427526	0.052022738033247216	0.02769136003820688	-0.04463024807191542	-0.06617422720504569	0.09702337744728763	0.09510580622179202	-0.1077003050341391	0.07230877518223253	0.06503699047919603	-0.11138094646575648	0.05404485999243552	-0.1049556273605299	-0.24292929960091952	-0.016008109608904177	0.025780294033331805	-0.011507079365443026	0.2867104502464137	0.037884426618031916	0.01471546482415127	0.042959377646342896	-0.044131597220141205	0.09294515200250385	0.036101997417201014	0.031518516857459	-0.06241040611454751	-0.15643343142467203	-0.05013964339545427	0.028263388354790843	-0.04446994797449463	0.029170748920814765	-0.023237226184858954	0.04305795241724409	-0.09768229153327869	0.01928780930160909	-0.06409541463513971	-0.1538297398409887	-0.016516860410146772	0.15363173638015185	-0.1458570114467969	0.011940014272764839	0.07975702746173613	0.23000308320586024	-0.04929329295968434	-0.06320007934162879	-0.11667036671951257	0.11405166681945457	-0.08674108213170315	-0.037059648710564816	-0.18489378765035364	0.08839743958660258	0.11582719119110002	0.08457783746399167	-0.1605325368951768	0.06071408979114164	-0.1672670384724001	0.0058036033985657464	0.02050681100601725	0.031020489053832603	0.05346232349295822	-0.0008028029699750088	-0.19624287249865785	0.05351121473518196	0.009761405141251003	-0.09026198399265198	-0.15694015130522368	0.15400102312469763	0.12313005382906828	0.07059799784175314	-0.06763018255776505	-0.25169946253579456	0.0764673420711567	0.03667140939318477	-0.037463327927446013	0.11248021938536375	0.08479992138038625	0.01760969865573462	0.0035048345763561964	0.005096771759968127	0.06799296920576176	-0.08574763509093931	0.042596880879921875	-0.09205814887183622	0.13365503896677547	0.053212718013664576	-0.06882262435372535	0.008059366551290427
-0.0853852269197916	0.1399645764302187	0.16895063646258157	0.06962580393238503	0.18518252498196444	0.013082402865171198	0.07138632447410853	0.19219492802690835	-0.013776965683642934	0.0019268541394546056	0.10732034473349254	0.06603815010620154	-0.07652183991286704	-0.2229298317804572	-0.03514541148570588	-0.2092701663156406	-0.11111697276262285	-0.08691332886175224	-0.0745438919573222	0.06919579893305525	0.13370477476789527	0.034314089515662914	0.029403474767954862	0.06644239475391409	-0.2573863776932417	-0.010947850783378597	-0.18446358169997348	0.10183115704543282	-0.22196309093674002	-0.0180425718868489	0.04631524980245785	-0.1276207130247404	0.12970060207764889	0.05115432677465093	0.047951911908947716	0.019295819606269478	0.0016513810011313768	0.045783310099011224	0.042377546433461595	-0.010691577970376457	-0.08761040236525391	-0.12425318225117761	-0.033685836248579154	-0.07288998850736728	-0.09689817487164723	0.08520783845974512	-0.1167233589460942	-0.029207342511142036	0.11653177949667104	0.06794484683539709	0.09778433977809728	-0.06054129781603819	0.09295647394398686	-0.07880508646378034	-0.03192069541836475	-0.018166502959448935	-0.0575949001838517	-0.03584910975767094	-0.0727825473872178	-0.09787428999595901	0.1006985647014535	-0.018245007204052383	0.020366382468834935	0.01709431120573939	0.0490256019598648	0.023263759807798313	-0.03125869797649441	0.12264406707201933	0.0760911662531565	-0.0077077165965177726	-0.05628787193765224	0.037712870243197485	0.018609063493645685	0.1613473287684387	-0.13701265662393353	0.04833463062532862	0.12427702045245838	-0.14868218206146647	-0.02668914645305549	-0.1283889388532376	0.042963247791158704	0.022358382021775473	-0.019466996076522785	-0.03562992861970123	0.06823049160936777	0.08267167896635741	0.08804946010973803	0.009411863928228724	0.05725612166762186	-0.024359236316054016	0.14315413450364325	-0.12347948338822966	-0.19255248510487175	-0.18087287743931166	-0.22014858541924398	0.0910419033111614	0.05004242676527004	0.1170329954458732	-0.10419198951597751	0.07316701430576715
0.0056586637864084275	0.016764444056685944	0.06226449903863876	-0.07566354578130324	0.25830108561316145	0.13429847093636768	-0.05320612835631208	-0.10979058984379926	-0.00799427960485067	0.018172056596684794	0.10638147502368327	-0.11605436476577025	0.028547118358214267	-0.15289975878044385	0.04436292249467272	-0.010757314023006143	0.19411575616274493	-0.1545974112904671	0.137993116907129	-0.16932536024182004	-0.13307133776537167	-0.16738760424442786	0.026004127121200354	-0.11741789959448487	-0.13401035278866114	0.021313062458985878	0.04535900433336136	0.0035021249998890467	-0.014990414949507395	0.18286784976165052	0.014508156729373133	0.08086900449594527	0.013840520559245756	-0.1099722776662304	0.054915175663343675	-0.06366105906028667	-0.009528603191912698	0.030095710875235493	-0.19465540643290943	-0.16053728099201403	0.091818968479409	-0.06637441111721372	-0.061632198910886095	0.018016422027892467	-0.03818180884768226	0.04175538622341558	-0.005134360197054151	0.021131899509196122	-0.07018587447722854	0.020432498606573073	0.11162532713656127	-0.0568253250084454	0.0913288809403895	-0.005412419782106041	0.07397445681053195	0.012791687244490963	-0.0034846737833809337	0.03490070410314933	0.12184069491686267	0.02361082074063596	0.047732270396323204	-0.03684849135767015	0.15708182639493917	0.06395772799395466	0.007106324905986809	-0.012472974592554266	0.09773845734327762	-0.059819713273482615	-0.17828750945076569	0.007500416483277683	0.12007981387333443	0.1583943139679483	-0.00949089842486012	0.004165263509200394	0.05193878919734627	-0.026184476433410472	0.05153057705885325	-0.008571612089879048	0.1010167355893188	0.07306919309975721	0.08101645728255613	-0.02143185319998117	0.19272681984369722	0.0482716231445675	0.024690640609775945	-0.0769112796252443	-0.010671284042090117	0.011787867332135903	-0.07876371487028182	-0.029255373316035893	-0.015924481254066362	0.005592013255727076	-0.1755595754252295	-0.013591781781817872	-0.03608458880468052	-0.002506719421771513	0.10413150487047541	0.20532479889210503	0.06769192250390084	-0.12345322967744848
-0.034549486975833335	0.05367706391973843	0.05254369521121381	0.09872522961119427	0.006961618349019226	-0.03867406505432142	0.17257874171415277	0.0453992709755062	-0.10977028948720767	0.14453549770095434	-0.14174159505841966	-0.3494901112623953	0.07661010779060065	0.08831374300951586	0.03128529208349226	-0.1301153118147863	-0.012843374999132129	-0.02763014301715196	-0.06450711700111571	0.13262770082248268	-0.08774777796126873	0.021919051562170385	0.09957537708820705	0.03859942313106531	0.11937100656653088	0.04869920785831192	0.04012868158100507	0.06561164190066102	0.0532394153023626	-0.03855390877302466	-0.13486380970509068	0.08628659438749824	0.13516787853882087	0.025315177344899076	-0.04931833118925817	-0.18541912263352808	0.02999596879204956	-0.11756678582911143	-0.12551375916934684	-0.007532882416180122	-0.08895378208278842	0.034530960207602795	-0.01592956025618743	-0.0803446481480445	-0.18365097890779158	-0.08528850351226062	-0.08134609274358029	-0.13048472127894256	-0.032942629418510276	-0.1279618556713403	-0.03144698857992265	0.023391202718266144	-0.07434510440124248	0.058597354874753746	-0.13886392411682486	-0.11122035067984795	-0.011364292332594162	0.06877558645168665	0.07296553851874261	0.16140082288518762	-0.02910488343670263	-0.012750160705341447	-0.10317977830489002	-0.1249999039915949	0.0481659829569448	-0.06953540452728835	0.12294128176706291	-0.15728620215365677	0.04863531509903435	-0.10620177522237088	-0.08942990819666742	0.08195556669050423	-0.08144266078867073	-0.04506120952216585	-0.08108498952165291	0.16849883800309529	-0.05577722896081244	0.005133930731661516	-0.02517936171061568	0.009020216517474164	-0.06151513385675572	0.012993595125671538	0.03577776238600733	-0.08322352646882406	0.10675801981174897	0.15241358882787992	0.09736895650025593	0.003328365195654641	-0.29905753543095176	0.043527353281973234	-0.05465040405208025	-0.024627450267041887	-0.20087026421309634	0.04932047375376493	-0.15349275266655119	0.0259052920665637	0.08670530816298347	-0.0490499249137435	0.12261380013593863	-0.07552022716153096
0.05924366827018925	-0.12865941663346225	0.10022017320096786	0.08554694254431355	0.048646781215844544	-0.023733975443745007	-0.1412235192117408	-0.03286977220466934	0.1218367418808688	0.010286784409973826	-0.15454142159145928	-0.10041578462849889	0.12466579964542986	0.04730132553291667	-0.11232531663512998	-0.1765279252652828	-0.0559888283798364	-0.1849284712044531	-0.0025730611027258233	0.2585950883864965	-0.15402715551201726	-0.015102067684093187	0.1402522275155699	0.07485169922423715	-0.0006274410765460321	-6.383373841112859e-05	-0.11416930625804962	-0.019225797993950983	0.040883473154086365	0.11046536057595618	-0.06531043862055358	-0.01624004844290021	-0.09156143944778755	0.010940222346628203	0.08139905226125721	0.08604431664803315	-0.11359469215523176	0.014195551459874606	-0.0651181325231326	0.10629802308006407	-0.007939836800553487	-0.1519508187282547	-0.021980279490281425	0.06469578333557108	0.02811691196771022	-0.05118614475788995	-0.05864296061548864	-0.08138552091211984	-0.039505273709803335	-0.07043985070685839	0.10870028697256809	-0.09030221995105461	0.011784692604947198	0.008031658659864886	0.10373031157627935	0.10658782650512451	0.06627004196833836	0.030550330429129698	-0.09911655770758322	-0.10705870740854072	-0.08066555414026834	0.0751920595382277	0.006665954943586513	0.0835431770246154	0.09328711306132043	-0.06886741614206147	0.003042002895463618	0.010595879342113087	-0.032758820484753835	-0.051359340741738244	0.1337300898200835	0.001888755056671687	0.01617375375120956	-0.08192858509009573	0.06683631706252227	-0.09772848780013858	0.04668199808995873	0.046854362276156435	-0.04494376390930162	0.04005810991409973	0.018539980865083107	-0.003916973264703205	0.0023945503174147	0.0064568661440664145	0.014700607545011419	0.00725076776511936	-0.11812351781861648	-0.00900042877498262	0.026503081681269837	0.00919136922360998	0.10165770874637824	0.06200853624464899	-0.073682141979325	-0.019159169324295136	-0.007707370888108718	-0.0037467757116755474	0.0071678080816434675	0.06179146202219662	0.01332096112653649	0.12228642538729252
0.024090426682382076	-0.08510497262316512	-0.04531235019107996	0.060378398480641256	-0.15545217672581751	-0.13523644947043684	0.00015548552548287612	0.10918125381930949	0.12803719447577205	-0.022740648697548098	0.10890468015691185	0.007432805226348168	-0.15316842499487834	-0.0016493992269238495	-0.0655953604879496	0.09189875164460785	-0.004934599269782659	-0.12775368231671777	-0.1536077126929025	-0.004835215537234154	-0.23591346187398388	-0.055190454324740075	0.016074485460762646	-0.10551273141758988	0.09788669282520555	0.11652906742915471	-0.1027169366341363	-0.019480122440654	0.09666921067417479	-0.00014064355551650937	-0.14107222256190544	-0.017587286988438217	-0.07849639855653187	0.11093841751833304	0.06259248931007486	-0.041690707262873	0.02184235236501889	-0.12465185904772234	-0.06698510195342929	0.15340675618227576	0.0009511504267200971	0.09300861462206295	0.023201308840802834	0.12468436970551938	-0.20455939394577993	-0.018822838253946008	0.16461071971577598	0.0929636037282617	0.13252937770144638	-0.005261995613710386	-0.05890866246929911	-0.10293894310711971	-0.10671058341324458	0.08651052335797793	0.0505734042080806	-0.006677101243858474	0.05077680246659704	0.014285493115839648	0.09132495472752307	0.09534369101821644	-0.10352469699871397	0.02736459874697901	-0.1668619529715012	0.013424063128423706	0.06963710301079216	-0.1285224459327175	-0.041781275754647317	-0.00297819908134111	0.023391491664382414	-0.029856763837135796	-0.11975170615535762	0.004576187551421812	-0.17008201783651455	-0.020964256288784004	-0.0440894141783907	-0.016950478425338842	-0.053836539391828864	-0.1507791055758687	-0.03850698097621937	0.08855435067796658	0.12612635421772744	0.25555661154884296	0.1678465577085979	-0.11855744775105784	-0.04151247652767719	0.009743658807268334	0.004505376676605712	0.005694813602643984	0.24076270354250465	-0.10781823670495198	-0.07686228308682909	0.1643825840854769	-0.06544729406446248	0.03932112071308058	0.10041891690070817	0.05374564443920414	0.01798855388276855	0.09310040245966213	-0.08891078156640873	-0.049915500441772884
0.0535637628342313	-0.20694800410662795	0.14166046866527465	0.03033923753526108	0.015306765516623426	-0.16305468125449743	-0.1286609162474211	-0.03984720397880537	0.08073607119588953	-0.20766423594523328	0.07883866475837639	-0.03600463509999706	-0.02234700568789741	0.025359079664886857	0.026929643254537006	-0.07124229924143226	0.062487886673744455	-0.23193976123078025	-0.045049794014801	0.01536179401867485	-0.034493635439244726	-0.18269409424607452	0.07579628405001303	-0.12483958194667628	-0.006757090767577105	0.01530012256343246	0.001982970048800604	0.1169078538058333	-0.005332673584430812	0.04274554046969403	-0.005593086493977093	0.061293607665779244	0.13935282063097718	0.013755862747302831	0.07818564634699379	0.14551799561849826	0.13572310630914444	-0.038524583461628036	0.10364780333309691	0.02487502646657634	0.11171752732245524	0.056863458356295	0.027566807603618806	0.04338550298134836	0.025519910712399535	0.02943330451365102	-0.015883236058190888	-0.025179030498443448	0.17631749293726695	0.04774429525845193	-0.057332971727846155	-0.027741743142964365	0.10562653822598483	-0.07361867019353391	-0.1482072669984436	-0.14084484291383567	-0.17289752821488863	-0.12988139577604466	-0.1180922662222581	0.13852373799432008	-0.004617796967834443	-0.03632635391367173	-0.14434117545433284	-0.014310590123079744	-0.17373270615770325	-0.036941712449627136	0.20644943898436752	0.06637509355168364	-0.020979816035453066	0.06981106772915718	-0.052158916560349974	-0.08005977564271596	0.17040572741392743	-0.11422583829694474	-0.03541131975707854	0.030599504574689074	-0.0936188750044524	0.06506052546327913	-0.030659452464225245	0.06638421186901336	0.05859841797505183	-0.024291127158264505	0.171065684864863	-0.06653425769711452	0.13488239435676805	0.11750311218676769	0.1770991646621734	0.017403391382391224	-0.07885856992280907	0.2076805303971451	-0.03347524946431402	-0.08135425727055356	-0.018986029316929262	-0.09816907161570776	0.05261221029310106	-0.06056678503237414	-0.02874926443789956	0.09677744075013878	0.062369323658167955	0.0015572842166538259
0.01708584749581496	0.0010284886200290116	-0.04303484566502961	-0.0002520618123030149	0.04940144900036013	-0.012619833251338369	0.04186750758249952	-0.08281790571607031	-0.06062994764535324	-0.07355230432423993	-0.05635029051335101	0.12870436507854063	0.07255744950341657	-0.10769626074233779	0.0436864504625757	-0.038990237713225434	-0.06843874271893817	-0.14854556815358813	0.09683779824389457	-0.1364758991282331	-0.0049440062376346385	-0.0947802880779715	0.07727940597284542	-0.03345197139983883	-0.013599617048103071	-0.010163902022766276	0.030258105057571906	0.0018856213352659154	-0.004440372455132544	-0.051843499822995034	-0.15761082596435394	-0.11198608585339949	0.0721832236861367	-0.030566056252259798	-0.0663162522436974	-0.14118906204407708	-0.17162100434061195	-0.06998167452548755	0.08924273312905637	-0.055822687072322116	0.039906972247615594	-0.06030585666033011	0.06388666788038377	-0.0357653551294248	-0.12346940249050307	-0.0268954823043788	0.1834479020084961	0.17881721628184333	0.048648351456169976	-0.014134824558550783	0.03015184580329098	0.03161007354237651	-0.0038289392450648768	0.044358397254576146	0.02060667150579233	-0.03160349782440889	-0.11953599765920957	-0.04596811560182835	0.07967612345410295	-0.0030907819150648055	0.030149292857192405	-0.028301552770441243	-0.10594949548185993	-0.023800565920812908	-0.10174160599362138	-0.10851574552397421	0.12051584463756257	-0.04220041406998751	-0.07414684996111386	0.1617227505127455	0.08147044551173024	-0.036559327395528696	0.042565524387040525	-0.02347368139891883	-0.06923982889401037	0.047230241235217574	-0.03229341125263086	0.007547489253823479	0.10199469872503444	0.09083009271835277	-0.05500983200269807	0.04907884035144439	-0.11283463537536437	0.04505968074435714	0.014682297676003517	0.0386163281785592	-0.02895458899982102	0.20824854777981913	-0.09012868287233754	0.09718520144811327	-0.10346364392511503	0.050434415894377485	0.0572117591782786	0.005491536381897137	-0.049529294007309294	0.014364146773181789	0.026700550487382346	0.17895311899716454	-0.08719668335745832	-0.05563739519490436
0.02847355570693363	-0.02560537903952518	-0.010004103773060017	0.10703518353637607	-0.2820266503429235	-0.05979493450178113	-0.17423692262512494	-0.11958164369040705	0.24046244920724702	0.059816813395275614	0.09515649250581042	-0.008052964978643138	0.07587138248319099	-0.17665645075202493	0.10382984117696009	-0.08198441185599	-0.053131581932591314	0.050515107045465225	0.03164467585822151	0.008462004839354878	-0.13630961535803188	0.009981366882164184	0.09605613534832284	-0.053248709609979405	0.1314937045340296	-0.08726919359140095	0.0006547891718373756	0.1535327733376613	-0.06813999126996095	0.1053985483377074	0.19746523622218093	0.017104406892415023	-0.05270169873833069	-0.07727388029500237	0.13046027033473254	0.1276694199339649	0.14493091228686755	-0.0032838350655947086	0.1037806941527105	-0.004883939112607021	-0.08830551216083592	0.1124176785112353	0.16338702782782047	-0.10206019727813198	-0.103943096290067	0.003998193423012464	0.09561286057410001	-0.11338191937539535	0.022701573695590588	-0.059042695405975176	0.0700829099825002	-0.07978868214958905	0.07718030002741794	-0.01582148108177082	-0.09371405236810428	0.0063689955426888475	-0.19379733144883526	-0.055909457210493986	0.03374010703246616	-0.17717547790318955	-0.25711368531054113	-0.23393673198131673	0.132712855550037	-0.007675901276272937	-0.05324653940071872	0.09451547356668298	-0.04044496824691111	0.026846189986673204	0.0025755350923262824	-0.0470999420752978	0.02941458838891059	0.07732612214201445	-0.018490661701698784	-0.04605555731546149	-0.03425124079994532	-0.2297912532785732	0.028305954650891193	-0.12091112889885514	0.06297187241189241	-0.009042410067529387	0.010512109653044064	0.07003291706062025	-0.09265237663409348	0.03692484433509569	0.026762105256266478	-0.018478083264279323	-0.09281862007635379	0.05952383640551641	0.07034545444193162	0.011360202597788407	-0.10703024157146449	-0.05274490329254542	-0.006033272242006658	0.06884945499820935	-0.15834894011131168	-0.05638034643043767	-0.040267255994220236	-0.008322157940302933	-0.13013252840248468	-0.021753277837333322
-0.03190215980659439	-0.09816403656282015	-0.017458402240992838	-0.05680984586939678	0.04082251609699318	-0.06758782748598433	0.008983074083779964	-0.0994010337003314	-0.04091201386874578	0.02928873957126309	0.01922223111162883	-0.027031565046234995	-0.026941048247118567	-0.14548238570288638	0.16118239748210508	0.0685624368254105	0.07797652541066893	-0.15953865024419422	-0.035956122065540615	-0.011144762925897155	-0.19769925414526326	0.09961061322105957	0.17009793777039292	0.20566409156621682	-0.08345428703401782	0.03521589284989809	0.13625170904872985	-0.03556785439124426	-0.030206649094453208	-0.18662132763441622	0.11277952934316264	0.0071305667178512	-0.08125417658216126	0.016234857885345347	0.015148301761363394	0.06629400680225549	-0.03189336047067068	0.1500688582741884	-0.02583665269584938	0.17246828657050037	0.07501719018969474	0.03511863751513085	-0.011327475327815528	0.1346692705433717	0.024252825811946457	-0.09321675730369695	-0.0967625145522643	0.06953533793069783	-0.09073865378570496	0.02201496474644918	0.12897994018276576	0.03039789686486562	-0.07761511725288504	0.13359333904515497	0.06765648939341225	0.09920482298299958	-0.23031657260168653	0.028293332005230157	0.10029349667185493	0.16975093601435148	-0.14751328860597657	0.12061141424254115	0.16363015249618726	-0.20552199077797215	0.02409444902416426	0.060929690985206654	-0.032713954358427465	-0.026903291368711772	0.06678514840449747	-0.05528555214121959	0.002446862851190523	0.05868499485885071	0.20367356179825732	0.047711821753196666	0.01269310661058452	-0.04207416513804006	-0.10483612168408883	0.109735899045274	-0.016178415364509386	0.13398876242610835	-0.03295647187166746	-0.08671351863489155	0.04584525755259855	-0.009467932121557963	-0.11771723343062311	0.16145704213555934	-0.09600508901136505	0.10314782447126249	0.08418721036257029	-0.12710844169481478	-0.08207919661263043	-0.03015093984527789	-0.06278316244193657	0.16959933326477622	0.01355850930103959	0.07748240579540737	0.06263758256879115	0.028608748290230083	-0.0014146721102094282	0.12359944830022071
-0.08281124813824262	0.17383890065438293	-0.13040322727791792	0.07675838089583589	-0.14283635760432997	-0.0243090729112063	0.009330993806096685	-0.05314685855830883	-0.012216713179372663	-0.13867833005729643	-0.09976384245758141	0.05491246390950147	0.002967175297851262	-0.06905280641956946	0.13967244233280796	-0.12199374843341636	-0.031798206842378066	-0.05056634105819191	0.06904228148530882	0.012265719757759534	-0.011894748299197516	-0.18099492641422174	0.09516334776658546	-0.022273426380147718	0.018297317346283246	-0.06685648881072329	-0.0887916335591868	0.147715640144822	-0.16830660320661622	-0.10541990278077086	0.14804935526382773	0.06719434453296655	-0.034651478537463413	0.12103214767809731	0.04479034362358007	0.03986569565979423	0.02013290642547181	0.042772931647433954	0.04700911756435914	0.2234397323135745	-0.013175355395232534	-0.016404643980274553	-0.1236893187570714	0.007109476316014335	0.19067677402008654	0.0984485002428866	-0.05436776591276617	0.0123752571902032	-0.12964383755849948	-0.08750853452988133	0.022385498469543883	-0.04944546028204529	-0.10578422744795085	0.046736317614021576	-0.004338935267327196	-0.15780085723518253	-0.20873532535820716	-0.0581625627165925	-0.1536235474185114	-0.1868961610371336	0.11267905711335262	-0.009771088986529283	-0.0267394476795777	-0.019937799296173876	-0.12214215958753594	0.04087592875924599	-0.013070032673254052	-0.06827439958559685	-0.06076286873825531	-0.12059581523821719	-0.032369951726344735	-0.030964965603840773	-0.03354324244302299	0.0034537904755400552	-0.007869348233170908	0.025962618701357087	0.09275421094673736	0.05911602939667969	0.09545898320023086	-0.07871042303554601	-0.05086148940886573	0.058993342354116615	0.06867875507833679	-0.06865197226150643	0.061132708714330006	-0.09982757873356414	0.037134857429041136	0.0009816736230910288	-0.13844356228482704	-0.04364733522722883	0.2245088031818233	0.020278036280499484	0.2376716225420097	-0.14560668815247269	0.08628878383058654	-0.2568045454354436	0.003864233960564952	0.06397693426904147	0.08190821265350448	-0.07992696901245447
0.10308513405016559	-0.050350183125441754	-0.02006426912794475	-0.045434242176708495	-0.11652833281505241	0.17370875262931584	0.004320655844942188	0.1044718426116365	0.11742857606020174	-0.09890883249175189	0.12018651873422807	0.06278945310077905	-0.10462801236787388	0.04423459839975642	-0.08791009152946228	0.16064101853516108	0.08991708785479481	-0.006900414899440754	0.14199246752778966	-0.14227773888680117	-0.07437177108450731	-0.01927572653076948	0.23797152023960275	-0.10740145890240527	-0.15480317262374332	-0.12743108872367212	0.09302963221455302	-0.0597670481491175	0.003209954504587284	0.07622149198443343	-0.01803321986143829	0.025627215267588113	0.05145201558171955	-0.054549313463500414	-0.015268356101884702	0.05528975491851062	0.0844381096607038	-0.0845127110082798	-0.30599179734569854	0.07483604144395699	0.10428548517593957	0.02000440250932969	0.02682930910320113	-0.03231776913890652	0.05722032426510458	0.08530779535708972	0.005487216092500671	0.26915290810781367	-0.15641932409477274	0.03502562779583876	-0.10231615932160244	0.08789270109149601	-0.1607854528363132	-0.13488620376547905	-0.0535977587897439	0.02415155993672801	-0.06288464617065018	-0.06319094473789191	-0.009006474667120696	-0.024371924005889275	0.15020811682091526	0.06859108757196782	-0.03313721635916506	0.20641536588516737	0.03575942531931946	-0.09532743679697725	0.025510034082199255	0.068402751086242	-0.06874458105256316	-0.10160939466951589	0.02637276335153209	-0.04696498693806814	0.16663078384307883	0.07072127231792488	-0.06471762119507127	0.04784419644738186	0.12567612656014032	-0.14071050410466504	-0.10497879822561626	0.010361704395084163	0.0035514731879224604	-0.014506263106403156	-0.02886803021141414	-0.033431143026766405	0.040028515456330856	0.10547675918790411	-0.06572519033546066	0.2512702645962483	0.1960813056491686	0.1321737956568329	0.07262682413784764	0.20079858965371	-0.012576913302892378	-0.08583684433397672	-0.026542898372848105	-0.10704827702661622	0.02065340987074405	0.03124588257534487	0.01559814850049613	-0.0018492584156712317
0.013147723537108016	0.17367777986178848	0.06104052735313228	0.09178407792963574	0.02096930008517601	-0.15820503492014845	-0.1819328230293034	0.21317729829198878	-0.05134587152828952	-0.06208135374248225	0.025449270242542465	0.057695496895176134	0.06719493385082421	0.1773627013793613	0.1506292695589185	-0.08125243330580614	0.09743513488417493	-0.03819403153248879	-0.011867485979166549	-0.1067614720509831	-0.16643755884990752	-0.0030991734510462726	-0.09484304264120635	0.09285480307158192	-0.02643496747131239	0.03306378920791877	0.1367830333182436	-0.14427009026039517	-0.06969302434453019	0.018049052039251456	0.03038303912552613	0.11032851695967286	0.08916620944147777	0.007688120483105335	0.03141697638552984	0.03554918119679135	-0.14405207214075963	-0.014048743283246784	0.027805913872525546	0.04620394562724656	-0.09062626158385391	-0.1268788981531904	-0.02345326838675064	0.19855449227943253	-0.08222401357100269	0.11738577019243615	0.15814614239045832	0.007880532201918936	-0.06802451367629446	0.05267757479101828	0.022689691930389	-0.0862054253094008	-0.0652862586147998	0.04651088905054778	0.09488020722523734	-0.03291703183904061	-0.007755688837227119	0.06609777619409835	-0.016845698297486108	-0.030137290370634527	-0.07405909469247977	-0.07726846233740312	0.2668771241264584	-0.020136950790857363	0.13568579490162724	0.16958586970512973	-0.018522424251713136	0.03738121156438068	0.010266663830053308	-0.16094373518483035	-0.15306811962328387	0.00665095292054388	-0.04068459360627436	0.18930267321010819	-0.023772095008622564	0.1949082257450387	-0.04601164045127639	0.19098310879843877	0.05015203532709592	0.05759943411199042	-0.05119943995535767	0.06099391890503241	0.16909703120832525	-0.013999920966532872	-0.03344777311556681	-0.021518351564574222	0.16340087760678748	0.08579753260146257	0.1447667537972222	0.03122157952032612	0.004152305744342864	0.04239440390706323	0.10737469837415158	-0.025296093691912564	0.14175583178519002	0.036141712962583956	-0.23884920726865722	0.08829993758095803	-0.12825750487014195	0.08582274293631835
0.09014895850999458	0.033011434113279385	0.05435608675533157	0.10988707122263645	-0.04957941788326427	0.07936728892914673	0.11630233029570364	0.17595730106725851	-0.11053874624166071	0.040851826623774755	-0.09615441066283748	-0.10037681946586106	0.03590277724059801	0.007745889662828359	0.11451420104115309	-0.03461864019266831	-0.013384285910542103	0.021150426099191377	-0.08613463326890858	-0.07226903620630834	0.11160659079380279	-0.05488116789732535	0.11828561690851182	0.06073542943720144	-0.15471793057587618	0.053073045195945356	0.05224701503179226	0.0422595757727572	-0.014149564665172991	-0.09400719104212461	0.13462127663920792	-0.010143596670606346	-0.08835600303998038	0.04572010069362921	-0.07427872163941404	-0.09482223070289006	-0.03756758753110724	-0.06655720750792206	-0.09124133336497132	0.08065389831828114	-0.011351062978823202	0.12522799455158923	-0.08545094777299357	-0.17268894329058287	0.014899553946325448	0.1855978738906806	0.05309500718058375	0.3215780811723125	0.03320591209490886	0.023604263024246053	-0.2154904350281476	0.042794744058852835	0.016854743016600934	-0.04074625766604557	-0.013652470541388104	-0.006817624599543419	-0.017994143907539208	0.20895757915010055	-0.03705334591143575	0.016931125273248582	-0.04039095089856771	0.07834311866438803	0.01767584951027403	-0.028002374891521114	-0.19262115063506566	0.02433082492061316	-0.030957673254572673	-0.006038678242036548	-0.11824579472453334	0.14333792201623843	0.0857093250214027	0.1430305467545403	0.114740529549246	0.05921920722762968	-0.11423276905364052	0.18436086175184663	-0.09276432611539212	-0.026845395161041032	0.07068857401389872	0.07569281795916331	0.05722367269445582	-0.0400734826034952	-0.06069146171078619	0.25345640920096885	-0.003906680553803656	-0.01622608542090552	-0.07138223560193706	0.024480293939562473	0.019803108678420753	-0.0016274175914730749	0.03820237259085132	0.17635372791663728	-0.0594631630643485	0.004307889280976324	-0.06473382756114236	0.02943748816995918	-0.05683099944016307	-0.052541684676034525	-0.14596551287808576	0.009784329551321604
