weight
-0.14179884343498803	0.09803366396473112	
-0.027037139854891055	-0.13897801437795496	
0.13520396022675252	0.20994072842093103	
-0.004616248115938308	0.21640355067834718	
0.009131472861134962	-0.03804559041663512	
-0.06304582742325376	0.16370822280398026	
-0.07798185089184755	0.0734943937505691	
-0.05592669670495152	-0.04602036305840563	
0.10302466693272905	-0.038003382164707715	
-0.04064645607758078	0.11344738785303218	
0.1593018666956661	0.06490684295491957	
-0.06573473386795683	-0.05080309362419605	
0.008005875685705295	0.032078656880864205	
-0.09878423440395448	0.07230143734796368	
0.008551311541910018	-0.17157081044176306	
-0.09289264824607305	-0.05041286736516637	
-0.007424912079296496	0.1890670227455906	
0.02381713061396283	-0.08407718898986251	
0.02165669441388099	-0.03480238872855276	
0.03247582395335418	0.05805676870356148	
0.12085601021284594	-0.0023615950574547074	
0.16389669468032275	0.09080162433327969	
-0.0707437266618604	0.22098533875548804	
0.03256985284635664	-0.0833828519165704	
0.16486740799482594	0.20820165564806073	
-0.0033025263719560563	-0.050365026037559636	
-0.017237495745366198	0.07147317275176998	
0.12744906167264491	0.05738533691676385	
0.010172301598138242	0.1498011962794815	
-0.03128676523553354	0.10309505176707204	
-0.02902970390324578	0.04332571986920724	
-0.01149370761375847	-0.005447767130567765	
-0.03779681947094101	0.13454357084278945	
-0.07329260381085351	-0.07402322525487084	
0.21191044437087964	0.09797366867906447	
-0.23848615133299914	-0.056551092457344895	
-0.18119943261720214	-0.0950685704805288	
-0.313851466623404	-0.013698957769394239	
-0.11447195471295064	0.006268298476463318	
-0.16272867797926047	0.00850773740821198	
-0.04149162781203273	0.15019529651885957	
0.1411430663979848	0.07852718007760599	
-0.03266137806612126	0.19853803952602933	
-0.15529256007437026	-0.14036683066597808	
-0.008716232870349365	0.22574173377355483	
-0.020233890687008756	-0.018324524320928192	
-0.14424515629338058	0.09464707920923748	
0.09532499382216501	0.07890015175076137	
-0.0628694980501244	-0.07072324607191242	
-0.12931220204521354	0.008387227180809856	
bias
-0.020924861252004576	0.020924861252004573	
weight
-0.044184915151058796	0.011088638282841786	0.1704592093297377	-0.11081126644413106	0.09760407193559467	0.1399486426972343	-0.06286544459186764	-0.02775136224419599	-0.10363092484072121	-0.020346128515891015	-0.0036589885070845104	0.06596499845739452	0.10901834484365015	-0.074809622153086	-0.19673250642259946	-0.0021244779276242127	0.029353734610946137	0.024941768768504166	-0.03266731938432752	0.01247520996639345	0.15154448083522476	0.03817341689625093	-0.03733686370208406	-0.05001977082013036	-0.016985239748905118	0.163673996183064	-0.01833007095261973	-0.0019794278237682122	-0.0482313570936303	0.10989833574419648	0.1959837187363778	0.04506130440237199	0.008277274240535044	0.003678283317423478	-0.23843066816688926	0.0745150726603325	0.013416641599584354	0.042834205066072495	-0.07114623067010578	-0.038445703902587954	-0.041102493650317304	0.10216230427325243	-0.03787598366030934	0.20826603219958212	0.04308621999528611	-0.12756826599957316	-0.012854629325195686	-0.06516751221564157	-0.21943824698200243	0.15994709401137897	
0.0703142542220004	0.053320731789931256	0.016540366029970426	-0.13820175686924377	-0.04836171395554367	0.08417807747840128	-0.10512200297825028	-0.25317693162508137	-0.0227106007780926	-0.01417575540275386	0.013556341641470916	0.07285186435145362	0.06376058122312087	0.025876980524392162	0.11955313880867094	-0.15189697808133149	0.05045818144773903	0.06265383633369424	-0.12395622860802397	-0.15028706086823895	-0.07459421264756014	-0.0661541442515292	0.07534194635024308	-0.061453878369109496	-0.0856348518281204	-0.061163373669455914	0.11186323341542118	0.0013043374376952134	-0.01792510253569118	-0.011000549870105148	0.12920603343265227	-0.07491717266032419	0.1315508290940104	0.021049629892150364	-0.016041938197534772	0.25009004979342814	-0.10556394897985964	-0.03536857595670061	-0.12324312391640002	0.09524619705361695	0.1689188933651679	0.1669922781404639	0.12239487531460047	-0.019762046779596563	-0.03652409774898465	-0.16711697724940652	0.20358735351817928	0.04689780781484677	-0.04919569048694831	0.13280568889869676	
-0.09704731210338255	0.04066220647512602	-0.017263003985174084	0.06396865919327609	-0.006357353918612147	-0.1450937394914317	0.007401410949847103	0.10489190552362702	-0.0029219608518894066	0.07758204056336662	-0.10459665543689704	-0.0026194423732210158	-0.062437542885054514	0.0746736388974497	0.0031490087504453808	0.06900736763366126	0.10886105853793691	0.06916185751213884	0.027285569116144787	-0.09982122585114053	-0.00042811196118960144	-0.053307819075989464	-0.03441173694650637	-0.03752746039849632	-0.09797306618742016	-0.195733858913399	-0.06681430483277669	0.019290487683100512	-0.13481759460315537	0.0016640488607924636	0.19005983155697048	0.10230933609919414	0.16443316125225488	0.03911278769327262	0.11669853877992377	-0.07259600627754799	-0.06443167607994596	-0.2739140206137473	0.1186961931753705	0.15412275023769625	-0.055317724534727	-0.025423886321212102	-0.07538621136909615	0.03826219945023939	0.11260050554655694	-0.1742771973881041	0.041289200957036136	-0.027664306372193734	0.01134077201298576	0.04589929141969699	
-0.018642119188937118	-0.010358683607078067	-0.021387546615807218	0.09715229877769951	0.04187599601274966	0.022057957337902386	-0.12715347524365078	-0.03785223136066134	0.08986678010763512	0.00385397608512392	0.06590089600000539	0.1766590946162383	0.10387479141150689	0.009306563223830186	-0.05109900274545564	-0.25535495960558985	-0.016730879455427138	-0.032601249581684914	0.03900520886091795	-0.01539052269746876	-0.03214079608497204	-0.1779394649215048	-0.09399869328636289	0.04759303023888528	0.1716140646822615	-0.009752538374562345	0.03278110735741233	0.09520337325757942	-0.08108930214210791	0.036740438517200276	-0.07400957258879594	0.0864860231219737	0.01523476056579341	0.029845181398143978	-0.07832255524427226	0.07062896122250376	0.20847292980699408	-0.10079116954282062	-0.0339001782317198	0.023258679255952663	0.07864062119958165	-0.05598896168337305	-0.283303029014274	0.13591759294118436	0.0761788290672405	-0.1742947530486665	-0.060542313376088785	0.15681952417241524	0.14477856076497608	0.09386394127317221	
-0.017611291504914525	0.008298741881250998	-0.013092584654609437	0.11282369470431083	-0.08758424064951102	-0.08057996548842047	0.10102726268245277	-0.0044361573417421455	0.13784673552786159	-0.06715141889119111	-0.005477713232063943	-0.09224131706645444	0.0007362370293594832	-0.14785484084362974	-0.048763342095496286	-0.14362538649281179	0.06939207040421635	0.07165893397596516	-0.17302619922632181	0.1333885745500573	0.24974151342702938	0.004600638673634095	-0.06411142626058414	0.28243320890922696	-0.13189690459431871	0.002010646686909839	0.017962227263192344	0.13451481788457814	0.03597389751267884	-0.0498633892260821	-0.09511852972730654	-0.034182189489691976	-0.1006929580873859	0.004782531978468295	-0.05641947063714113	-0.14940392525780277	0.12551457883749037	-0.04976725234290394	-0.1268138315615024	-0.016826133916933418	0.006837156596765876	-0.17464659166245428	0.03316476671257628	-0.10471575686902646	0.17110257957926675	0.05239605120767348	-0.03998999847684645	-0.07451677703173505	-0.010496761989429082	0.06127907415832898	
-0.0025494106205274938	-0.021715880713685663	0.005837029081789565	-0.060385891191230695	-0.03432059268430377	-0.20857924389050042	0.09737262308523678	0.029879778118996985	-0.07734558564192105	0.1898734994859145	0.008701647202527437	-0.10361435707091067	0.08567374235871604	0.03980482165092625	0.03945799854842194	-0.042575560465159056	0.04504957410104132	-0.026175829022109454	0.05559414466159664	-0.1904944454010639	-0.04338734629791891	0.17221550978081948	-0.07670674527251412	-0.06038383076994464	-0.04479613347186208	-0.12148061358886433	-0.22082807762282522	-0.023058640473605323	0.013585942408165689	-0.005250506647564167	-0.014487855563254742	0.004304087135722658	0.1022841486676267	-0.01904461859292168	-0.05740825871268997	-0.02811254832192795	0.05793467597567758	0.14120268785432497	-0.06281437286140086	0.009893380202961037	0.03383574419359597	-0.09925780122267397	0.002041716721291813	-0.14656738564142338	-0.17690502832075858	0.0366746407892257	-0.03838747400372269	0.020228040656381764	-0.0017894977008350054	-0.09764000388470452	
-0.004507336644503877	-0.12331013005997891	0.1390972313502019	-0.13558315229786366	-0.019578527096858134	-0.10422715880472484	0.057042141724548794	-0.03314243537874389	-0.05186666789578961	0.08532985526479406	0.002937048510948905	0.051665355267764834	-0.09813094418001916	-0.14048167686233	0.010720796204013366	-0.03188463554947312	0.0626558464164822	-0.007990845266254971	0.020503920626939554	-0.16233825299412435	0.1888358966628963	-0.016423967748426502	0.06975867850244542	-0.08361779357808928	0.030803670703340284	-0.13028447635247453	0.0452067838259671	-0.03560231322297956	0.0029190503935567448	0.0698010329201266	-0.12324949439093118	-0.06844874435896506	0.045743293769947346	0.2098221474546747	-0.013815445604569718	0.05911244080976417	-0.010697104226530176	0.19422455947562997	-0.17471462316664088	0.009473945906315704	-0.1625544033562061	-0.250661106575296	0.029746205311781654	0.013949537703044182	-0.02846894439824787	-0.010619409003975316	0.30984497813982415	-0.025817280191514292	0.05101212695079676	-0.06493649040550128	
0.029523035560159224	-0.023823367308824263	-0.04105184827297301	0.18188951544820656	0.1177184963184339	0.013674664739923069	-0.2304211935943967	-0.03610092938750207	0.2703027492044486	-0.023066402696162915	0.11032190345252117	0.1441942180655122	0.021896366903280305	-0.08418216318681523	-0.24353123317828884	0.06841632086089545	-0.08147590148380678	0.017615045188769215	-0.12498194604269781	-0.02652375404702022	0.003372103685189234	0.026859445724832853	-0.11148221412143346	0.11969109836519203	-0.05968954369282663	-0.16744694604532454	-0.010902341996346382	0.0034375489601401253	0.01605894331717598	0.13621324574064927	-0.023644994058197623	-0.011961962312096388	-0.11031870249908445	0.0820553502887897	0.018431081888587605	-0.042003035839154775	-0.19046746934654638	0.14444121950550876	-0.1227681807381804	-0.05912781818202768	0.03583445110760033	-0.11965569606865778	-0.14935097782531434	-0.2123947809302568	0.0720993364189213	-0.0545186244726322	0.2927266440704025	-0.09943548105688649	-0.09214509061307832	-0.056539297574719934	
0.02439727509726543	-0.04702033258032556	0.06123318477069329	-0.09782048682698591	-0.13815917184635812	-0.17982175228960603	-0.22240658123404697	-0.051804763830377326	-0.030098186290551634	-0.06311690684465003	0.12432397414178982	0.12280554244404998	-0.03347511694977062	-0.17939962188884748	-0.05667051786088015	-0.05998213939170615	-0.06567929642495444	-0.0697718903898245	-0.06535627198793235	-0.03865416158977598	-0.06360440830302357	0.02083298462680573	0.03603514034038633	-0.09109334085930025	0.12711393793841363	-0.09800623018406142	-0.16178006138153372	0.03806042994725647	-0.08174077233099504	0.03216346425235953	-0.2403543265318351	0.13924702987482432	0.06725935924959492	-0.15004765491630018	-0.14789763728189387	0.1671623112630001	-0.07373724808359854	-0.08341848487326238	-0.22657571954547098	-0.03504313761128861	-0.022771961483575284	0.07153839955965421	-0.13990784281844756	-0.15203008805344975	0.04513701142004667	0.10067300712270649	-0.1569992404326149	0.10815274168547205	0.0037545312779849963	0.10918047756808344	
-0.006979404138485765	-0.25222779161697	-0.015196766481210097	0.10602872175521424	-0.08937460190837143	-0.03879674909979611	-0.01764946220477849	-0.28995054025769423	0.16713464409798423	-0.0901275521916891	0.05056733441729508	-0.008669168297592187	0.12576386591794905	0.040597827517949325	-0.02349248273096527	-0.08935150925192803	0.07979785745432821	-0.1873441303954617	0.06458530959958318	-0.10990447515548728	0.12519749898886642	0.016130357547171886	0.06441119735233937	0.008187103602420752	-0.17523494065620168	-0.08607291633953384	0.06723893376113825	0.01665664524123131	0.11809903426742865	0.04034933892222741	-0.09666550276176844	-0.07960582855506247	0.010302962957743198	-0.23140440660001055	0.1673367386374851	0.04412887556343172	0.12270412730853819	-0.1580603940809169	0.12446972187699805	0.22316387653161665	-0.13208783553773176	0.07713610004996882	0.00011099446872931465	-0.15444404219444097	0.04930363285255993	0.08336032048373485	-0.060042392040632095	0.11659227724007011	-0.1666756616114271	-0.1494756249405351	
0.013659739558875237	0.002538527797227172	-0.07165734884241053	0.0809594435971886	0.05308943142159494	0.0858139070934016	-0.012313643535226761	0.06025802679783409	-0.04456503030299946	0.20538186900865957	-0.08125457701219858	0.21052974294583124	0.003488794708940857	-0.13755108895687426	0.1368079350488601	0.012590138839495902	0.0851124098380238	0.12238559185425933	0.03379555541450253	-0.05922408448128146	0.09757133776692502	7.555074545955481e-05	0.0685857818608419	-0.21537305737914614	0.044698171700985195	-0.06385858251450302	0.16533096371785305	0.06230873478890952	0.02398577458492966	0.04863099933502216	-0.09984408528767183	0.1623256690528054	0.19913704184169045	0.039291351054821635	0.15904035685736387	-0.056914819867253386	-0.07971135662249808	0.004092474872892285	0.043494103836789866	-0.039398668124312045	0.05377681903684838	0.030638948207341407	-0.0998306775291055	0.05187930174517213	0.08635282425215213	0.017146931759039096	0.11526481032616925	-0.1217403793496952	0.04679504221318517	-0.11702807063967749	
-0.11138978645327027	-0.063093083373779	-0.0942060183574245	-0.05478271237801497	-0.021415031071118876	0.0837153526528991	-0.03211716359700797	-0.15856188559483175	0.11400677245374785	-0.08369722568613983	-0.00587934680046482	0.04465475593040886	0.0199628892484984	0.10941797571320798	0.04790028917849703	-0.0861309579697108	0.2178712604439928	0.019433346333823324	-0.014738413503927383	0.0963925423055571	0.024934659348278577	0.03992281929393271	0.2492180631715944	-0.027521052403716835	-0.03177283210731552	0.011657851201246381	0.10715159355810387	-0.15065882743358192	-0.1965555848990898	-0.058701971610462846	-0.16338678291569925	-0.04248269286017913	0.050263173455771824	-0.08907488635522637	-0.14269142179657168	0.006932190539652647	0.08625470030500143	-0.16949734385166126	0.08203245865071729	0.08174371529300616	0.09540851021566281	0.12184322206801394	0.2202013924659616	-0.03560920405836435	0.010975081301869218	-0.04164384332480256	0.00021721201314664615	0.15328733414453063	-0.13450150337473737	-0.08610496721655755	
0.13771622268427977	0.10200365069020899	-0.036313171156602375	0.08543604805403575	0.03412158424920333	0.1500274609000988	0.00744810510252694	0.10256304525549263	0.26420116645553526	0.05980701408051653	0.0049346143217175835	0.07224442666416554	-0.03652852581521186	0.23879490624599115	0.01800708857724996	-0.027293332022551287	-0.08357260301894875	0.10972201916064384	0.08671982199258159	-0.04973543714140932	0.05764533059536467	-0.15085542898715137	0.018497045516274638	0.04527750818846207	0.17073217924403886	-0.07708188027286894	-0.12783526288023245	-0.08954235460163269	-0.133656850031492	0.13366578881961527	0.15486257260026198	0.03202156484394292	0.12212624473096996	0.013395838058023532	-0.009509007673730889	-0.03330730967413647	-0.03103909187315982	-0.15478015563090314	0.026423420927747868	-0.004036169901938318	0.07453607240778758	0.009353532160462223	-0.01627037015690918	-0.08711934168229146	0.007210912254780853	0.07382372308161621	-0.11433392816694206	0.00874742000218881	0.02330443893152813	-0.07180647836182644	
-0.058785630490800024	0.023061084876621445	-0.1133421018292623	0.03499237152493925	-0.08953543736592001	0.10628536930332165	0.23378277453883	-0.08607568017018197	0.05342078623746747	-0.07267419048820194	0.10409541737977895	-0.1265258409085215	0.048058675842771265	-0.08729889668893527	-0.020698458909836875	-0.1031025275147307	0.08223504708957537	-0.08369803544395871	0.05519642593318276	-0.03440980282623329	-0.011447237179886294	0.014775590740012855	-0.07618246716588488	0.021036711354088692	0.1530334564354411	-0.07780947858327143	0.11718101432738448	0.14980976334877844	-0.0816154989028044	-0.1455054605090552	0.03019609001717647	-0.0547407522766873	0.18686032191630025	0.0034807540499832202	-0.08021994080351792	-0.11471595110117115	0.10899049590908304	-0.057118397408418654	0.004382879946042826	0.09558027451124809	-0.04842583519308302	-0.004592882874016064	-0.0016568409822520077	0.06833245115160919	0.05907443355103258	-0.022011373125482854	0.006364906149651771	-0.03717790115234884	-0.1477612406919445	0.02576008573981294	
0.18921922316929943	-0.08837191404563811	-0.0773029709602703	-0.08707273387585976	0.07245917787231225	0.04484854541964401	-0.015853769241645672	-0.0918019042236064	0.009237679193558791	-0.15646218248392027	0.014342637942853667	0.08715244144492076	-0.12511990892181254	-0.15325182777702068	0.15794378916948595	-0.06117596395045849	0.1135948231960724	-0.01539976651978317	-0.016195492961393863	0.04384126994966453	-0.08839990914713432	0.013249714349564554	-0.03814894148240928	-0.1320493672032136	0.03374821583112529	-0.026330780687791617	-0.015702482844470782	-0.12101610825770129	0.1591400367762804	0.08767142513764863	0.09641560256398421	-0.03054446910881482	-0.17291825506819536	0.19529173824895107	-0.006109773290035512	-0.07487997960200538	0.04168016327147462	0.11671207880032974	-0.0023050319642543503	0.127857550396577	0.10829999385168686	-0.10763813105591012	-0.06737901056594764	0.09575371631624102	-0.2712612103883971	-0.014945569316498878	-0.14308308130086925	-0.047655380143352466	-0.029882009590489735	-0.035824437819619206	
-0.05511349259726073	-0.10971436286495383	0.22919109739267426	0.18680567825288516	-0.11620658202562831	0.15821140158860625	-0.039994613677084734	0.012921956531804184	-0.006327584206404362	-0.06593330814331523	0.09835948187398444	0.012592561737152726	-0.04764729890590779	-0.13046524592864087	-0.08935951499653545	-0.16413801156020968	0.0012753930448621625	-0.11966655922843959	-0.02657153231713691	0.1370101853610371	0.11986889763132966	-0.0032267663304039276	-0.008710167847805003	0.18794483280944413	0.052087096482405074	-0.03278064598765229	-0.1426018117120452	0.039362800541293735	0.08293243988979955	-0.06312522600040142	0.029139713008020846	-0.03635520659097528	-0.018356686305940645	-0.24878220575623314	-0.0222090405717516	0.09687149956647381	-0.06313936930134538	0.005252636821531626	-0.07555387423659884	0.03609715110710235	-0.021652319753617363	-0.09394107398160466	0.1332551467665128	0.09289138129707672	-0.06042748311465007	0.04977883094177774	0.053877197149698464	0.06423179791741505	-0.16942572681677429	0.10066057993269445	
-0.05697742086255899	-0.03578279334412669	0.26378813530629575	0.030171384771850336	-0.03863224754471756	-0.2205294372755906	0.13896542728395023	-0.1345216723884702	-0.1003438907333436	-0.033146377944649016	0.1416480865690516	0.07732295345650916	-0.015785498409546357	0.030823767670884655	-0.060038570450820804	0.013965368956535083	0.007319448432803202	0.09687698956813534	0.09672196461553714	0.04939773822056448	-0.03623410820116829	0.07418222943901266	-0.009197070887052027	-0.10818301117943166	-0.040331859579248217	0.008452698378432454	0.09102157836647454	-0.018349692062115192	-0.12091987112396062	0.005674168808874678	0.011340390430341792	0.01858334445308654	0.09197466486388314	0.10189232400898984	-0.05941279910602284	-0.061626369649421954	-0.10401987053909052	0.06988156702804764	0.14487449185358095	-0.03152057680907337	-0.024143056472499314	0.1466827946865024	0.05055578532150077	0.0436235702801021	-0.11910860046299535	0.0678728069279419	-0.09291363369452525	-0.11340201859349582	-0.0346766155278811	-0.05857927234486902	
-0.022159969438503933	-0.14409816345249188	0.09588163064676725	0.1127686294516429	-0.19473424741408144	0.09784578056665502	-0.08105286298216263	0.08569755369827861	-0.006844649266641564	0.002877556408099859	-0.01850976494212187	0.12121292042334862	-0.12395880125250283	0.060784033873500856	0.11013301648895504	0.07163400805404106	0.23246989143234176	-0.05289467627246989	0.09573048225935313	-0.010609063534142033	0.12334060763526696	-0.0007688995721369475	-0.03878757818624696	0.1306072203871629	-0.049156193901893006	-0.14127257589005562	-0.051684688317382856	0.06190329465885325	0.13920387515870913	0.011112937529651212	0.13181970672340254	-0.13581749214775937	-0.04432634648179029	-0.02885751171541012	-0.011455942747251965	0.008409438825019652	0.06909109573921927	-0.04448068381704903	0.01390286869531256	-0.004512289032405165	-0.092588990389115	-0.01136666890814354	-0.014365952989711814	-0.01650805650030461	0.003175945658145075	0.007567354061338613	-0.043229517910733026	0.1272714733971265	-0.11694806292030167	-0.07209701084698963	
0.278131207850513	-0.103799135498923	-0.13537550578508772	0.07353876726120373	-0.20771198537738741	-0.023527953872997824	0.21450262648025828	-0.1544896650628452	-0.19819660198984257	-0.14985447231450036	0.08979651583885784	0.11248364052328215	-0.05124884143910017	0.06830960100574199	0.1390254062428954	0.17873464144298257	-0.0245522979211664	-0.2301471717669987	-0.0821116021312094	-0.042680419493525766	-0.025992582194284904	-0.018785933980670185	0.11188647027077192	0.1273943641012285	-0.0171497764887549	0.10984848760518187	0.03576613666310894	0.006416360598253039	0.09065448077543321	0.007280645758061125	0.20581088703417577	-0.14383871425249029	-0.05144579112858631	-0.012651889695395031	0.04389794411432269	0.12670041137561328	-0.0024383633389064873	-0.14222296495062073	0.08431419841529135	0.07556687342406856	-0.19418586593794063	-0.0004063282020146709	-0.1590141830680298	-0.06646512161262214	-0.09018410958336553	0.08092646982419859	0.011901443790200071	-0.12855909103805183	0.08800632942365635	-0.14338058128890221	
0.033164487586288545	-0.08140106625535617	-0.0365677484182274	0.05052887310612392	0.052144939905952904	0.133696467091649	-0.00828201600946568	0.030649929961201555	-0.043773914568974795	0.01827011643595653	0.04390452856066097	-0.00982430805995438	-0.1803628672424894	0.0331395113473781	0.036456061995331954	-0.0680173476347951	-0.1283479269524194	0.14758791505039656	0.04911805472962838	-0.02290810309217097	-0.11379383853010186	-0.08218096993904397	0.13025664139527934	0.013703947534515107	-0.05503905068660875	0.05096892312246562	-0.08143981874463238	0.15004686647061014	0.1352801223719586	-0.0465986849049616	-0.06283375678313208	-0.2618102285990643	-0.1480783990914194	-0.13394697749577564	0.013466147375108165	-0.03269564203400342	-0.134531963916987	-0.02811640424645573	0.05059858275256308	0.05286688449394121	-0.18996702808588814	-0.01285530816293676	-0.13833407769716105	0.09017156913621029	0.07852279903959997	-0.08980272263244585	-0.07641100101673226	-0.04612547436285244	-0.2252798325276875	0.033596773235019715	
-0.027289840874155633	0.09701750825678591	-0.1098409286639053	-0.061930374568841054	-0.15065252580391153	-0.10042906881627484	-0.11820116368282199	0.09959699186320914	-0.06982618027863524	0.012404934497186368	-0.038068512287729624	-0.12694770100700967	-0.016831395617020947	0.05990904669261249	-0.12077593925433523	0.08091127907313789	-0.08498821440747224	-0.04829839260728408	0.05307301814960485	-0.0663436157219488	0.00376536302564755	-0.0314684374111294	0.012936747680840735	-0.2380709265953783	-0.1829716724993461	0.06159670060468382	0.10371814056490503	-0.09104569174485942	-0.024402835217113436	0.02947193602984014	0.06931585166388546	-0.20276787304959	-0.08861817580792467	-0.033257937984987496	0.07032341259553623	0.24983356657216546	-0.022800572349905925	-0.14069774621039888	0.04021709458144194	0.13209102129561595	0.010801412097950092	-0.09065971011786134	0.09579939414800191	0.06635364256896734	-0.10262729356274256	0.038142561753434195	0.09971196816721754	0.11818981367833305	-0.006644273981940035	-0.03580794461793189	
0.12272738220812628	-0.12101605029808851	0.04385792909210054	-0.13700266273644293	0.10653762722596027	-0.025804551561116152	0.12685832356474694	0.049141275635552706	-0.12232202300619299	0.14246277320772435	0.15512452664277296	0.08822864925992158	-0.076158786503622	-0.030601395435740888	0.01454272174057594	-0.07037103993314334	0.16923465724632047	0.014432647172603683	-0.27033480471073573	0.03393558127562204	-0.034815739681731316	-0.007492655611844788	-0.03686193657856996	0.08070464166066874	0.11196877785533813	0.028305316225865376	-0.033931118713815905	-0.004133720480917025	0.0019599616577628295	-0.0802430039864837	0.057892864857123486	0.04600423238604662	0.15404412397766734	0.1255349780288475	-0.06856749175901303	0.08202983745089648	-0.09509533830944716	0.06959321009408496	-0.051661419876010785	-0.10232532233755845	0.028004534269740446	-0.2674567128154141	-0.1750975574405228	-0.01774918837742832	0.008244176663484246	-0.03693187701581889	-0.1579436298717599	-0.08178918421385056	0.03912093272373939	0.05817817706283626	
-0.0016225742689900038	0.11568337810369889	0.03973970234592343	-0.07474684940221049	-0.02805020534116174	-0.1402866189335583	-0.01081401115711714	0.11121005064713613	0.0685290083657791	0.14020003533873876	-0.030287968435716076	0.13460989641672622	-0.019330510703306554	0.1471585427490503	-0.0021856747442123682	0.07072313738042767	0.14751009144327767	-0.01934276285812056	0.02183923295935529	0.12888634252063022	-0.013299679900333292	-0.13208922825061611	0.21430068399436047	-0.04697635702140312	0.015875357167744655	0.11560066694511272	-0.060849390373120184	-0.10078675092351314	0.025373729677483317	-0.17930762842643513	-0.02879102730304121	0.024503860988104094	-0.026996194681034077	-0.1543450943185747	0.1594184626933241	0.01035270521473994	0.1431152122664264	-0.026003625018044475	-0.08800191690124497	0.026917925413208633	-0.02157871263282196	-0.11777578049570153	0.14697842587874957	-0.06222708895049902	-0.18402800269482358	0.13281660539573328	-0.05043087185208133	-0.06078235451886873	-0.17653871310733804	0.17409414865969908	
-0.12894808711275524	0.00584494807056499	0.09126203225404406	0.042171548046997694	-0.0059654311992191605	-0.17016658582874164	-0.0809724835767284	0.01878002778739726	-0.07871739752236095	0.020335844498049177	0.06817440377273853	0.09625027906346992	-0.122617951618624	0.21966460549789543	0.07674793445541306	-0.00017141536690639574	0.10895352878085006	0.23654077719999736	-0.14387197229873014	-0.022526264249135362	-0.23784308672965482	0.019265153627725615	0.036539424192514075	-0.003916134951328664	-0.06545338514647805	-0.20495145161883255	0.03735336834117687	0.14554349508721126	-0.059101845573343206	0.0440059929023145	-0.15681447881112243	0.0457213025889943	-0.039338343464992855	-0.07624179506029144	-0.07603628865894231	-0.03936115900328482	0.038243331569253546	-0.13121632011955178	-0.03971161249449901	-0.004147290552564241	-0.10990392245318592	0.17966656149247812	-0.08534954800613416	-0.0669437012428944	-0.09783094930919664	0.17984800871381176	0.05529041252799999	-0.09365918977822998	0.11062315879144262	0.02006986526250538	
0.025725409678842494	-0.03444772087524527	-0.07494159869569733	0.033776635623081155	-0.054508722999559035	0.18167556295751047	-0.1269291105243104	0.15361567941169837	-0.01113188487978007	0.02990859137337402	0.08331576552782613	-0.06302492781550596	0.08642484618381645	-0.27075438553811776	-0.07199895332219391	-0.09240628073410655	-0.12535057830398816	-0.021495483807895115	0.03857499012431188	0.07026599984993058	0.024087661066029865	-0.06656933578067413	0.036901644044843314	0.012428529329997285	0.09360562175936131	0.07769367029315166	0.003047641392062887	-0.08972532353805032	-0.06529501558320809	-0.05497893305311234	-0.03152662498704772	0.026805045182022064	0.07151745914212235	-0.005111869301537766	0.0016124654291101305	0.014330588813691422	-0.051590531313234	-0.09253922576429562	-0.17554377498462623	-0.06951488055141203	0.0473145453267787	-0.0702911510644007	-0.023780703742593973	0.04664312434863026	0.052068976966407554	-0.10795328521660391	0.09970596458892378	0.11273501244349632	-0.11298498668138732	-0.08238368696411541	
0.1192679211380911	-0.014685350141010928	-0.22197780647570442	-0.13984158512894443	-0.024936962517248126	-0.11630444187497471	-0.04135611473073349	0.0032456242408865593	0.14622520568155414	-0.028956958019130636	0.10719938017780076	0.142884315213728	0.14344573393868099	0.028474866139674464	-0.1963289927603514	0.04608248654038653	0.10495285096390006	-0.008106710543541713	0.17442544420958392	0.08598335614674578	0.05674868153417539	0.10863886763427903	0.033335829772581455	-0.24935584136690447	-0.049889456919129084	0.11971680272478535	-0.0807591340098296	-0.022389856945783146	-0.10448354050223159	0.17843578964561035	0.16819060758821147	-0.08838317235374722	0.014828863395988713	-0.06804940477640477	0.06142871009156943	0.0509468232818188	0.08117172458809627	0.03319184477078873	0.2936115617491427	-0.10269007680851043	-0.17106033544365143	-0.03934502618341508	-0.15679882655602675	-0.1492475944186384	-0.09999699383429096	-0.09221889054316275	-0.0953095971679663	0.05182323755140267	-0.05062112193102242	-0.017951528806606845	
0.08942010251490515	-0.07663225247814263	-0.026454611593119827	0.03656971060255126	-0.19415678006202214	-0.2384905509164089	0.03460739310837225	0.0492011543370268	0.20642195657819518	0.01580508873444948	0.08197669428295612	-0.01954767632902616	0.02972203340926695	0.1667228764862646	-0.21239930319775283	0.041361625757168057	0.21355306580010516	0.028203421920934252	0.16505893298406746	-0.06292121495294424	-0.0032045247216809774	0.003352470238858753	-0.22175921992335515	-0.1168144617914632	-0.10968872207598598	0.08220660780325274	0.08721531056840551	0.032404650333998634	0.08241032438618538	-0.016414931267880264	0.1201911120188502	0.0008786793312761193	0.005781483086906737	-0.02655926332624114	0.06844831453791302	-0.04212477642880243	0.09764317796523059	-0.11321491407160067	-0.10989479919366747	0.06873779445754691	-0.008854421458301271	-0.04538735265968443	0.08900577324754598	-0.060726136403876946	-0.02002680623385855	0.13992279500711594	0.1539142993640567	0.15723981469750445	-0.02821236575723427	0.12307029420141569	
-0.09468456854207583	-0.0906902865246974	-0.23504559982185433	0.16742020135710706	-0.08639798490760783	-0.012653782806240894	-0.09111368167900005	0.06952314369191155	-0.037563476118484554	-0.13038848861377797	0.0441085055501461	-0.14336424725756908	-0.08372435732705547	-0.2106999396378782	-0.1423958832494371	0.017852916972047786	-0.19633466375030054	-0.14811457246217158	-0.00027160845354571043	-0.05436068960930526	0.1990822245819928	0.1833906202540641	-0.08679460671157144	0.055629151499985485	0.07495400996832358	-0.05974788580244034	-0.1495541536498204	-0.0012810715046157114	-0.017284518735662387	-0.043504505289248784	0.04427527608951054	-0.07506876043892459	-0.11509535662057246	0.010908297034983187	0.03852771445754719	-0.11777111063670584	0.09281069688832819	-0.17704811377760782	-0.057723923957352506	-0.02568875603659827	-0.06362237126519298	-0.056543993046231304	0.1871074482308114	-0.08509048088334062	0.24426388542415173	0.043712677973105185	0.009469348309134047	0.04762591373669691	0.2529917487485838	-0.09935933904563911	
-0.11195822068205347	-0.07548661897821099	0.003214253364638982	-0.17256958005073944	0.002233923931860801	0.16935410589443328	0.015045963239468248	-0.029267435567109305	-0.0618160990445396	0.08985643130804083	-0.0825865386868066	0.1846401054582561	0.19333823492399	0.025656584537620375	-0.001151592067079457	0.10306598082415595	0.10948656712104832	-0.08059917310594156	-0.0526574738767128	-0.13223474346832956	0.04084422837907802	0.0666639001997575	-0.13499538535301814	-0.045538027762892674	-0.13472393733745858	-0.08987998102438377	0.055101706022629954	-0.07336255928107348	-0.030082564463787053	-0.1626843858488218	0.018701482588130963	-0.00442643318716688	-0.07289002933054685	-0.018901429768247418	0.018025574767292343	-0.08161047504716924	-0.1476250747352093	0.18055744326868153	-0.0633078888419794	-0.009659722454077771	0.10108397350203135	0.35290337662756666	-0.12444864498888658	0.044980667867594235	-0.07074722556556721	-0.05387903045767109	-0.0718673123285172	-0.11256366545133163	-0.004126986185568889	-0.14745029089058248	
0.09468075541792409	0.005500293603337463	0.04224349729014398	-0.04661886297796571	-0.03672039342117483	0.028756390516732813	-0.11640506446878646	-0.035799043515648235	-0.08596135138784541	-0.08905688230528724	-0.21098382329041893	0.1339326588311609	-0.06865387551071327	0.1163376041297109	0.10687923213942924	-0.12859997065164938	-0.10884112515754636	0.2560502959355684	0.1750925946568882	-0.0031518513328104153	0.025737310641734942	-0.06308464029471887	0.043235271420034	-0.07171818913037921	-0.20323537677418038	-0.1321555786511051	0.0021092747850587246	-0.11310672350871057	-0.006727746491353454	-0.10746610394328632	-0.0782353928330001	0.08531653059454639	0.024748053368178244	-0.0009664421313347188	0.08789639823355593	0.04806085850389608	0.14465632912513676	-0.04598592623151402	-0.0429634988268174	-0.130110928023452	-0.04289807173724197	0.09647698993761081	0.1299987372262134	0.09603051680866681	-0.17941918854968836	0.10831452126607344	-0.18385186232720707	0.08981173241223475	-0.036778452598856246	0.07025333139338556	
-0.1332647561845721	0.11711676408376102	-0.14649749519445543	-0.06687635777394481	-0.09980946277690353	-0.1754285042447934	0.00943391455212966	0.18060767653176235	0.2666904411459168	0.009694007585980336	0.11168149204772451	0.02320744577850716	0.049885175760822194	-0.03421672879817332	0.019507692542260216	0.05374787046064286	-0.05787349765647895	-0.007749429989298793	-0.005834977827768254	0.08264033173305246	-0.10659651292532686	-0.005154030917478559	0.19119987777774528	0.11642007455230206	0.13491194490689093	0.002443184017803416	0.032099756368602315	0.10023193623917043	0.1560255759906711	-0.1951600768253145	-0.1315542180100126	0.13094371357254406	-0.027713095095535916	-0.06717207892580773	-0.12540006269508727	-0.05552676942536347	-0.1402369086938544	0.20910942727324772	-0.002256647527317026	-0.005816779763724822	0.05880766751678318	0.0962432991635542	0.09458881565546394	0.10736190751902581	-0.06311734993759255	-0.029786680495686127	0.07690063173912406	-0.052738692582991735	-0.0005095875841392013	0.03987635938909251	
0.07856835274339155	-0.17776809623702014	0.07147456015685655	-0.023347579933306137	0.0707457710864381	0.0776929460942459	0.16074870257068014	0.13534652137533626	0.134657154054496	0.14438437966238618	0.02912714947905503	0.003220136810613793	0.08728458645487867	0.07320182232818417	-0.030906678902377575	0.040482340880826806	-0.0034875087082262258	-0.08539329084600561	0.12903961239231196	0.005519924253008922	0.2048324519556528	-0.16254921151815982	-0.05567885291434169	0.00324920084358836	0.1137429033327991	0.03994693726021851	0.031047275418075143	-0.11273762408247286	-0.11569413489487147	0.03227245783312377	-0.13640248623619255	-0.053187049846655766	0.05011116423270846	-0.0982324272276776	0.1605226985950897	0.12234132394527406	-0.15714142763399394	-0.09323712431819872	-0.22855613722943793	-0.07823864647767582	0.07663884765723994	-0.04139655725226614	0.04607972436159675	-0.15223360943474798	0.07982390212298636	-0.05551092279283498	0.0013104120354226266	-0.009287312845491728	-0.12715454158808076	-0.11530843317397824	
0.0971290874798548	0.039899218259843536	0.10500490414119455	0.03276555965361633	0.014299063480921649	-0.17260108226644352	-0.027040598338656543	-0.002724610510468867	0.1953104528447679	0.06890510279067898	0.15347633957750917	0.05977341922958395	-0.07109634486947965	0.01171286155314007	0.02362225323551707	-0.09391555697706817	-0.038171453822676595	-0.0205766993677172	0.16048396706699752	-0.20807405253909783	0.12041259631940955	-0.09367867758146936	-0.13720816189296894	0.11782545793357334	0.0732476823177274	0.125451870238119	0.08007019475455768	0.20588563455871808	0.05587250737680772	-0.015561308132014801	0.0343905921819646	0.12435529185254322	-0.07770292750995456	-0.06518885825313808	-0.031051721742986003	-0.2104700561878509	0.013810189973437272	-0.18861287039510263	0.005470412492419724	0.08676763072939904	-0.04768764606438357	0.16762631169331488	-0.1460500899418488	0.1191243815322117	0.06783216555772507	-0.1716033248310689	0.27139761604174295	-0.006372913476836191	-0.08775427061047349	-0.1407088098923041	
-0.021939668780450446	-0.012740687238995975	0.010264521978710826	-0.029754143304149015	0.06332253101150935	-0.03876336458519773	-0.1935520581610785	-0.014934926209027517	-0.23674781704892292	0.03539486249811633	-0.09794105193534793	0.016337708816006796	0.13141078413757912	-0.09488385775699146	0.10612557213651534	-0.04333895666861532	0.1753421946506049	-0.036515261319821336	-0.08405592856015222	0.06872384503952884	-0.04362640359712396	-0.08414473154527735	-0.04778579074694388	-0.00447784374465958	0.13422293151918482	-0.19340877454595773	0.0023080658950420676	0.062477454723368034	0.019344861127369457	0.13101959329626128	-0.007426208563505093	-0.01845428867547221	0.05925289201807486	0.009931381495134964	-0.039054107324334474	0.05154548009556776	-0.06525195998430282	-0.06111771520193271	-0.052776143530667965	0.13532911514173418	-0.32210163559857136	0.039552638326706475	0.003427181420022223	-0.1680875876452825	0.030999741428020155	0.0475751991831532	0.05907633007140857	-0.2651823469289942	0.13663976271569378	-0.07377367978494143	
0.0688799208707106	0.07410738037293085	-0.08766977049468673	0.06616848867146655	-0.03854932409123582	-0.20713836506097025	0.1166700385624122	-0.07749797486156879	-0.08544969382525794	-0.040221001674334796	0.02717063579244577	-0.005718989103318981	0.05482226843323754	-0.13396536715544038	-0.07423878161451491	-0.011599707232153356	0.18989796040369497	-0.011381253841375807	0.10849034341634742	0.003855516878431771	-0.04849626315690405	-0.024670795553181028	-0.016845515775029952	0.06027966170159729	0.13748477874967377	0.03596808476863211	0.11870776787417554	-0.09653114623341916	-0.04146293172100742	-0.07234807071964251	0.03148449022496599	-0.03589161971084407	0.0730731699567977	-0.09310017116324415	0.004239458976995484	0.0685457529512968	-0.20652815784490997	0.21216313073302034	-0.028230483497548746	-0.20239456332501815	0.015809389857678602	0.003309500810877536	-0.0081894379572493	0.09911613372720013	0.07487464245762421	0.02978761910238452	0.045304472352524626	-0.01043318072438249	0.17754906903616471	-0.1479196739981927	
0.013933647684296892	0.006502463118878012	0.08132799769400112	-0.08444277013527822	-0.17436726023965363	0.015681976282579998	0.02806496019497314	0.14895737479062734	-0.1270362059171302	0.11542927832445148	0.23676628161201763	-0.03778024721685894	-0.12910046026085092	-0.040708882058658885	0.0014004885719621077	0.05637878750069147	-0.05919064261577925	0.1555198534147342	-0.11143829584380556	-0.17392051521728003	0.11066713563197665	-0.22746209981442658	-0.020414656925514765	0.31179785481182826	-0.0012154351377960091	-0.11207676506962497	-0.005739746378679375	-0.005066506096035302	0.01606499434609632	0.06623641637141131	-0.1039298695350723	0.16875332758975944	0.024466514938252547	0.07267940464018038	-0.06278512841014015	0.12856871189038518	-0.025705011308248253	0.027755251349353173	-0.09333251597649699	-0.09973706391726654	0.06882053064528827	-0.04434435713090763	-0.08538230875043772	-0.06431840382326477	0.06983434023502216	-0.0629037861203611	-0.011735083370144209	0.001502821295840093	-0.19173235569912855	-0.14711264053735182	
0.0340054623337689	-0.07370293288331518	0.10567242053495607	0.09694889066170673	0.07191686663554372	0.18197632217704038	-0.008432615273064922	0.06490067399763975	-0.0584404278778962	0.24542437910732914	0.1982472495888261	0.0012056268692404505	0.03868949196232528	0.13590966513702618	-0.0147141937692064	-0.06566240707997048	0.08763811960731353	0.00784392460836701	0.018229642228279712	-0.08342713430679655	-0.17199169647877915	0.023615213598187686	0.09049177086180413	-0.022735772329736878	0.1436947342962942	-0.07039163254155445	-0.105470445496592	-0.006820669600497228	-0.008259113126690507	0.07712089292902723	-0.07740864048658377	0.13681712163252735	0.19690160232493456	-0.0039144026968341876	0.1248317157846879	-0.10580506756164014	0.1075254812654383	0.10472764085594627	0.086510375861502	-0.0013407539557109796	-0.29542489412420314	-0.06424900979804926	-0.06259160176846021	-0.09782758323052244	0.01250923328380369	-0.04189634455212347	-0.0819912787604371	-0.10587802424997826	-0.07155412655217336	0.11214982960535673	
-0.06610250546274941	-0.05149387064332725	-0.045669761502324636	0.03389935138094197	0.045624948852853286	-0.30446565392431624	0.10216352138276082	0.1436368034243754	-0.10501865373616695	-0.09722982447348348	-0.04502533877782715	-0.07560040194566048	0.02239268739466064	-0.19465252863588645	-0.11179276080367398	0.15391972001749077	-0.09282199673480179	0.12434282781029249	0.035533819559013684	-0.18092677145882582	0.06353291952162063	-0.011766730219285336	-0.04554670562497405	0.024495709317200395	0.04746334855667922	0.07075918219746195	0.11782528475480024	0.04081359127783564	-0.1375634088786362	-0.04736454576511911	0.29430483352686215	0.07244910603817277	0.2369287300811497	0.13954340821991854	0.024180207155574857	0.030140706978111744	-0.0036580039876845795	-0.17378046158464996	0.001804725246822428	0.12106745525421972	-0.05996399948212037	0.041195299906180954	0.08515910458931975	-0.09096804393124755	-0.045130286434366465	-0.10179114904771591	-0.08221656066894069	-0.12876052836530613	-0.09004484613780268	0.14194556807978392	
-0.09146574912696763	0.012645922112189885	-0.050286875367095585	0.11795228362739614	0.13111622966036166	0.08640696380425222	0.030604063190808436	-0.023102809594101856	-0.11918747650673425	0.19439879160197843	-0.07599574394757228	0.06636894153463911	0.10596431943831366	-0.055527961154514575	0.10380122729826158	0.07642132033388555	0.17285496124915972	-0.04693464664267112	-0.12860349969341245	-0.05054897554445112	0.02084435443126137	0.005821383700027626	-0.039344235590464294	-0.19095912047607927	0.0470609835378447	0.19723444790822	0.04642512381230036	0.060891708810933746	0.05724453632125599	0.03972790797245331	0.09318806430536936	0.0395393189759646	-0.031216301118414374	-0.07959889100087542	-0.02493149306027724	0.031399633961291015	-0.03160778722094835	0.03143386831314305	0.04395273322994869	0.08337063587771298	0.12827949688389803	0.007782052879570347	-0.13077765651476608	-0.03451102999042928	0.0044760501603290925	-0.18357687561770902	0.13895037500669744	0.014238370828002035	0.03813414991660028	0.13655263677799986	
-0.0630163161690874	0.057404193844282136	-0.010986412310193568	-0.018419468334529673	-0.07721923878043793	0.16656032136865273	-0.03755001044471465	0.06994616763573604	-0.18750074489006022	0.11799131885197632	0.10522578378596383	0.009742708887015006	-0.022694974273849523	0.039999997055072116	0.22887906608802894	-0.17632366989034853	0.07819312444607612	-0.09116173021539026	-0.0019890333550229163	-0.024788011907866305	-0.04282576065983135	-0.0010458651090019977	-0.11341711830352265	0.10291975431575566	-0.17941643292198647	0.05397645128283421	-0.032653585253457115	-0.11709018663618093	0.02023833705986952	-0.15569507356852594	0.003967858709454837	-0.14228776731496662	0.046118769591282804	-0.09243573336303756	-0.04509380037924813	0.029391749708876837	-0.0772542111842236	-0.005796399966830253	-0.1513889302291327	0.06308203240960951	0.17649138055507715	0.27922395459594945	0.009116814666643918	0.07881965072901244	-0.1780740224270915	0.1502734326305588	0.07761152304753545	-0.0483926122114908	0.12371843862573344	-0.025447642243004366	
-0.04566246893292151	0.0475334932254784	-0.10633545716068503	0.10228753536052759	-0.10559898119268435	-0.10500556893714863	-0.09097542347907865	0.075955519872576	-0.06167760972392193	-0.13471219372867987	-0.06062214752743425	-0.0031960436008272894	-0.11808354817994471	-0.11517017567350984	0.2111295755916686	-0.0860565403813887	-0.03219271801885223	-0.03672370007992858	-0.04216823147859539	0.06213467399691023	0.0947398923919493	-0.030595392608565145	-0.12364806451475553	0.12737790356699843	-0.009509961763864334	0.17303218148571686	-0.2245585897565163	0.01949922576970955	0.19186068228969452	-0.0352911367536535	-0.022508472789822855	0.029554452403510238	-0.05578169761719724	-0.03120719320527329	-0.03384648060647097	-0.06274979841493991	0.12288670229353008	0.046107803229643515	0.0251317865049342	0.0809542646116651	-0.026435583320346692	-0.07745596140850093	-0.06026243046145574	0.0001782502966908473	-0.10578829977834849	-0.050026101658667554	-0.051472680331638314	0.2124556853639464	-0.2773839041973703	-0.01796198861694379	
0.1725693762723285	0.012184447058722575	0.07534174734210929	0.00998262869813286	-0.06673333812164804	-0.22419159345089132	0.020545569668224593	-0.07756066058656823	-0.08003353878273245	-0.04989872756280476	0.1744861418798108	0.24048375404117414	0.021720793444848153	-0.0464767213021443	-0.11772264174512104	0.04685401615460691	0.1782905574991073	-0.024734038702515677	-0.23789960334344748	0.06700496718155238	0.09853997154502012	-0.15858456403858476	0.01764841836629528	0.04512260309867756	-0.0073107307438266995	-0.07907709190853537	0.10159372235635562	-0.040337973692923565	-0.14851861620150414	-0.20494744856696812	0.1260849510810139	0.06166639757336394	0.00879735251207194	-0.044027463685080356	-0.052899839959490574	-0.10757366484416114	-0.04314556388845504	-0.21200872151201744	-0.07360636688268746	-0.03109375381779871	0.060988004719041894	-0.003992645537358858	0.07949231138755591	0.1349135103169782	0.10581700639491692	0.04705098473785568	0.0011862639748349757	-0.09807880072259954	0.07399440513619554	0.16797473619432737	
0.034288960621797794	0.19172591637063213	-0.15255719908566742	-0.11536306516730986	0.08552015077482626	0.026428793535079462	0.13134182627939284	-0.0015448060364160762	-0.0867976496537491	-0.02132210479555252	-0.15329146316698336	-0.11285557700990974	0.09725023614250834	0.08727095646931163	0.036300360544910704	-0.17210775209604695	-0.03579285211334401	-0.12249998886600506	0.11763945924569272	-0.05837221335626013	-0.10862717450317017	0.002979676530808989	-0.06401654824332097	0.14834618553316337	-0.07347080332537781	-0.13992282592246313	-0.21529135157575158	-0.003098971100501686	-0.05619294185004921	-0.14286563609640246	0.11894005596635589	0.06672591553878247	-0.0027800905948029316	0.13643262441708667	0.06622592654374913	-0.08232851867953898	-0.10392127993075947	0.08179815444538614	0.03967147687873065	0.017016205099261154	-0.08464978028689074	0.06077960032805596	-0.07554988831339493	-0.010198794027118822	0.14475101580851843	-0.06608342358101459	-0.15718810035343375	-0.10525457541033008	0.09942938789455096	0.025473081787957572	
-0.012892042200786795	-0.05090938053115695	0.048535984491880894	-0.08493093072244651	0.030566556864259593	-0.0731254568812957	-0.08976840860697337	-0.06374911957651123	-0.037540742938827296	-0.004897270827962061	0.023554431979066686	-0.3688378552491433	-0.0807664489398835	-0.039158268855168904	0.15050620386083302	-0.10800026083821322	0.016261429823222016	0.14950303097358375	-0.13129153134807248	0.03939752258644024	-0.08021761121424031	-0.05046274135518768	-0.08031108795238961	-0.07318326017927924	0.272187266989554	0.08444558720716658	0.1101737861786209	0.04920270211698452	-0.16062567884019582	0.03949579659489808	0.107286279773848	-0.08534006650026303	0.09651666381970518	0.07043362098540788	0.1852146264859703	-0.04178834314416953	-0.10976109822757268	-0.03616281093725456	0.14354621876151138	-0.18284987000213965	-0.20683757154310323	0.00894534487455542	-0.04425892927741562	0.0007716559613793731	0.09450945430986386	-0.055256934611885244	-0.18731868459918052	0.20444911317278844	-0.0997221199400221	-0.10590371220120975	
0.11037042897068058	-0.0384489121041518	-0.006338985203481078	0.04826822532940349	0.10835831031099957	-0.0333460693181772	0.15199524509791262	-0.21358006568712268	0.07597872369530773	-0.08396029372277458	0.13723180220804546	0.014203750346264974	-0.06729117156895298	0.06628414997320307	0.08931883472072516	0.06418941228586382	-0.10297924312894782	-0.04840171236220848	-0.0004044760202935952	-0.00412596526500604	0.07498059469570216	-0.2014899153290652	0.03343270545535034	-0.02899812852438309	-0.08385214449163207	-0.07424867777695997	-0.021453766451796363	-0.3601070645932739	-0.070128957079155	-0.08758148246462934	0.05327479569074316	-0.08055266794979137	-0.0215198231183544	0.1542276627661302	0.0994407561333564	0.09022195737976021	-0.04998724304108518	0.05430322792896524	-0.023395660507220598	-0.01961295706903409	0.040968534374654975	-0.05969628988840963	0.14930031044432035	-0.0160137436180394	0.061824595705878733	0.14556004792572982	0.10315368064034715	-0.14089133429191122	0.04448996857606642	0.0850719394460647	
0.08923394843125897	-0.11132948341146312	-0.0657035237017324	0.09949962712924254	-0.07617603706826458	-0.029969605666431427	0.15758770600467925	-0.0047780196136104035	-0.07267747414439543	-0.08773113086176774	0.0332529670625111	-0.13331193097653377	-0.024728798575236095	0.033323188277555815	0.12991491608247976	0.06675480803699957	-0.07136745083049373	0.11784193175637202	-0.02996290507216061	-0.1235703022049409	-0.017228574259964137	0.1438169201145702	0.016524008833927583	0.0012290517598033818	0.1637296224037578	-0.1431354847054427	-0.12855991140527723	-0.16159872895620767	0.03726485743802644	0.016662977768216555	0.15428795183079755	0.02434865641746285	-0.04038143067622747	0.00017948728781070852	0.011747984821081109	-0.1671761272473135	0.2710337357588558	0.05198710181019115	0.021024756130355527	0.06155040078668154	0.0709410980586605	-0.01406781078504055	-0.06312411362407006	0.05994507440022854	0.03861762391390964	-0.08098900990894081	0.14194925276017153	0.029335196855810985	0.07298123952523894	0.13919209060028567	
0.0021888788165630164	0.03169520069841154	0.08100272385061165	-0.07248615303862023	0.005405166284600094	0.01255485866511483	-0.0956058859251105	0.2317636769238835	-0.14072934434924025	-0.12981042157579104	0.13142267690647452	0.07132662215376222	-0.10259648663970537	0.06072886722896463	0.14678504449973098	-0.0030263057596985757	0.25988225018400746	-0.17240618108680356	0.06938235700978512	0.11665283362210033	0.08913441076788346	-0.020435572664564833	-0.02904414820111494	0.04441454069505107	0.0815754400421718	0.06024734362823633	0.10400578907933894	-0.1018869950406192	-0.022777097912363466	-0.09400159321237542	-0.03861129220315254	0.10152208801014272	0.01079835711799131	0.260685916314977	0.019340659920221385	0.005969183445807	0.010618291944021628	-0.0637808692859936	-0.005783679384517989	0.11277876804498663	0.011397066812777235	-0.07934596028284539	-0.09250846204786352	-0.045020189166584346	0.007386295992753759	0.1193586535476262	-0.1340488641366437	-0.031982627788875624	0.014431003443202462	-0.18337057676294347	
-0.08335965398151579	-0.06798885397361863	-0.07959703738504983	0.019189114758800932	-0.01605596095017974	-0.05552861026010363	0.04279637642861064	0.17230747854866826	0.16392558772170632	-0.19227707062937563	0.05770714899620759	-0.01780231850687297	0.015515551840053177	-0.039828182605626886	0.011758814423412051	0.015140739607201872	-0.05789503282915596	-0.08963675478251809	-0.04486960997401434	0.023425926445676558	0.05989962146151095	0.08533489773401466	-0.04941900230669127	0.028384372091169712	0.09625029013893625	0.11655948951441282	-0.005883285413152221	-0.022093224012871875	0.01911246721146198	-0.11497073597765083	-0.019360898731312515	0.07445864405045825	0.06419483837807757	-0.027026760436388905	0.021771736851449713	-0.08246503402906875	0.07034927700714252	-0.007782143613647309	-0.027595057637047785	-0.03617225921038295	-0.0062893866899858195	-0.04478781008666021	0.06581430360025634	-0.039528348514942885	0.15929657987023174	0.1465210503481381	-0.08915426720957828	0.006970419828514779	-0.0650656623262747	-0.0326647535611068	
0.20023988518400956	-0.03075714171157992	0.03602260370774287	0.054116969479151504	-0.10006293724832407	-0.08550954744092049	-0.12060223429550576	-0.08859727174922735	-0.2850030078350649	0.05444764644996405	0.2054259480106038	0.014781090513901692	-0.14162777509863822	-0.06427763754156675	-0.04588768450249969	-0.10175847772133757	0.08600474527440803	0.08102600443753338	-0.11554123351301927	0.0725081044447508	0.15268976494176523	0.19025642579832883	0.2865212023085963	-0.090198760901836	0.28241911544311465	-0.03542063885087883	-0.059246545538051434	0.03270977829594919	-0.058206133409301246	0.03990440719541206	-0.13201267307109577	-0.02387528571854559	0.1285463576861686	-0.005706129143115594	0.014167454626434978	0.04751985388816636	0.11706616293176603	-0.1655224712189433	0.05844413983402877	-0.026820133298438662	0.016663789531183856	0.10599933001665397	-0.11941866514118443	-0.10126547002498966	-0.19355910289792397	-0.05491589417637765	0.13302685633866307	-0.012057834989713797	-0.13401196548534824	-0.048567874457504705	
-0.14878638257415125	-0.11251861017311618	0.03888189102637133	-0.11738814525490011	0.11126343052033019	-0.0071120290830336	0.008559470394452545	-0.02783733135309652	0.07728480067763745	0.07831542092248196	0.03350578703818222	0.05647885735017618	-0.02120905550539509	0.05422030069090486	-0.03378777754738068	0.00022316221624020006	-0.02746509957853124	-0.0457218539319196	-0.06891096825995055	0.04676901038588855	0.1310610424720029	0.11711020928897173	-0.12565653359454354	0.12892073256097616	-0.03181600706965645	0.06007330151455917	-0.0906215332047211	0.014198252627867858	0.03137231828969071	-0.14846047919196528	0.06082645106692453	0.1345934798546586	-0.017465430613451162	0.1360168130828013	-0.018968927166916973	0.08495845195342641	-0.22185699659510996	0.24187777793134635	0.14954538066692016	-0.028463181223669646	-0.19720890266438182	0.028803068024450314	-0.1443925547073757	0.044485298552125865	0.041155708529390836	-0.09414031690020248	0.11209590164461787	0.08055753046883747	0.09758235600405282	0.0008857643660863838	
bias
0.0063629673740449675	9.730115938095603e-08	-8.505181027511107e-07	0.004604242196213562	0.0	-9.928715331993401e-06	-0.001402612739008966	0.00022244610156717267	-8.428380252918674e-06	0.003217009511739908	-0.0019935272040685534	0.0003020321218417901	0.0005404434385440835	-0.00018259639102412737	-1.8324235304363376e-06	0.0	0.00410574336924164	0.0	-0.0011984056232049079	0.0	-0.0033850477485606913	3.4867286400723894e-05	-5.4953188544595186e-05	-0.002777860525245984	0.0008890231424178526	0.0	0.0	-0.001655117176579734	3.605340089471581e-06	0.0019143333172992702	0.0015046769680171282	0.00013792271515669448	0.003603764452292945	0.0	-0.0023920171465700952	-0.0019401947523712063	4.974675063395525e-05	0.0	0.002753198516133025	0.0038075628870194405	0.0	-0.0013098119834924543	0.0	-5.5500370672281654e-05	0.004891858442634666	0.0	0.006928449345805234	5.2401408401822196e-05	-6.233625533481286e-05	-3.2354879229302986e-06	
weight
0.12059946898192372	0.07774073527645113	0.04670968455399329	0.15210548173391655	-0.09489073486867551	0.17473632072917084	0.09324477013949675	-0.023656199362070217	0.11353473775326405	-0.11063233063285834	-0.08245141615276735	-0.06084936424188142	-0.05290565380342371	-0.10565576427602529	0.1223079025198866	-0.025901090301801974	0.035251035610983146	-0.057035136641368056	-0.1820524613791542	0.026995284958689948	-0.19122697459820256	-0.006863404608546861	-0.13683090274865556	0.19872752043569913	0.09113624908480554	0.01058194711980202	0.12636297580663458	-0.08464416722920964	0.05431023456433831	0.01998112175772192	0.026427327898801457	0.12721112466022277	0.0732818000753158	0.02891623317311538	-0.16547338512398183	-0.09604143718372697	-0.012230894389755012	0.009337237427665124	-0.11294869789766251	0.2411685708047007	0.1516172357891171	0.0602118073948199	0.007182821874997726	-0.021216725299521413	-0.09519230362379298	0.007803967339944671	0.02577521566412409	-0.12417611144162632	0.03341652326934508	-0.01552561770014602	
-0.1907807527292853	-0.08603850107795019	-0.04118181770077256	0.18879542294994728	0.05565656124916369	-0.13354815634893352	0.04868409208987104	-0.1547317616593481	0.10816408335407855	-0.04710655805295219	-0.009363618873917085	0.1326123903467766	-0.12872626504739398	-0.13971181851129913	-0.05836119786547512	0.10378592085459243	-0.15193370696520994	-0.2832155598110569	-0.04507313081979542	0.05512982266192532	0.12002420260016987	-0.0463161362085399	-0.041140645980867446	0.11538993383423041	-0.18697423004042618	-0.03882752645017059	0.01903118818331061	0.04486066509987067	-0.051122588165736595	0.003444248518141927	-0.24878151418728203	-0.06588601785355049	0.045448150689532396	-0.09806889241311653	0.00596899180884895	0.044560322456525275	-0.03409777672701967	0.01704637709965709	-0.09603209453926057	-0.020659032165327513	0.06093416561332317	0.01569727829602974	-0.05871832492591089	0.022429279762254003	0.07146011839894462	-0.20482032211538978	0.11590736065815985	-0.03362557591549263	0.04254622782330235	0.1197251407462572	
-0.1371673697230466	-0.07094410024275466	-0.0288548713107073	-0.07837535211279087	0.1734936581125119	-0.08567720938267928	-0.0555546783298347	0.02043890316029768	-0.12021495175569603	-0.03956807219353351	0.031745326125017514	-0.033286040438251126	-0.00933868709712335	-0.05293321124483709	-0.1514470309180767	0.03215932139414573	0.17549330713996425	0.001840163078343813	0.022526409922083553	0.06927227544845396	-0.12693304982712367	0.17025146581296058	0.020232879642280203	0.1631856899089109	-0.07330329955239893	0.18180619171241694	0.0775155492499661	0.05530401032435009	0.02340244715740351	-0.024852861807444938	0.12005316672385005	0.014035986472973593	-0.1967069698136257	-0.11171864676985518	-0.018584576119720742	0.030999899023939854	-0.00565885082853873	0.12189707897936633	-0.19511018675484462	0.014358794120109191	-0.18179792179746967	0.07597122954841684	-0.009445871265984094	0.0419609976261065	-0.08638829605897662	0.1279464931657751	0.10417246640588514	0.05835443030118877	-0.012951724686344077	0.05798572852951322	
-0.07068922403510391	0.08555556590207121	0.16505712572776335	0.10706333392483382	-0.07295680521320279	0.036141734000201334	-0.12921406205152486	0.05723566893662323	0.04497534227110932	-0.18700886496438954	-0.11617838439123639	-0.028279707208920785	-0.03011805097779571	-0.12094769354188054	0.0388963074167778	0.02508338683533708	-0.019424166929912126	-0.0755791500158363	0.10486915866877788	0.16551366063253872	-0.04836210313223384	-0.06121669171548208	0.04912746084431262	-0.03580321833897184	-0.01393982606192293	0.07399210585269562	-0.19096747732320904	0.1318120613819333	0.007155405995724844	-0.041148967505662624	-0.008771570472966074	-0.0038704625193078726	-0.17296945304260353	0.149634010910244	0.004148593648843412	0.04416928149498687	0.09527006568380914	-0.10211624575603002	0.0475652107818575	-0.026758635552496562	0.08460290958606963	-0.21272278104934408	-0.010000143363707144	-0.06026164506413073	0.04322422783323981	0.0472368880686863	-0.07076271839493269	-0.0712174758444093	-0.01107344781622794	-0.0896633833474555	
0.08419837842474091	-0.036920720044744615	-0.29076203861252603	-0.037497628668055526	-0.10385303872574343	-0.16312758158791127	-0.12374251806276304	0.01094084847409224	0.13288964113903445	0.03129692941246773	-0.060650338821573974	0.0455857567128502	-0.045924051777012816	-0.06946003691631446	-0.11543626682287256	-0.1751766129812882	-0.038991443838099514	0.015805348992013187	-0.009698963726537092	-0.04158150038072817	-0.09457784168955422	0.06082461916849685	-0.13171261665879028	0.07760279075595491	-0.100221690875519	-0.07525293236089699	-0.14669070446090604	-0.050104915425876494	0.0975686121069653	0.05156296688400162	0.09789077021441529	0.05219292847948297	-0.11035427332408043	-0.033112032267281724	-0.07805767927592616	0.13307985153005683	-0.11972703884409906	0.08936976893891109	0.08925254702839991	0.1829619802124528	-0.040941286381995276	0.07123221626251836	0.22816189875227558	-0.061760966449195626	-0.15350401910999864	-0.18800090812710746	0.07127114956643546	-0.1883150249171077	-0.03723184413784145	0.04373131870389607	
0.018517553682991406	0.04254448641841723	0.022227196144834746	0.12788623647710526	-0.09523163801990916	-0.06769951374989083	-0.07726632791966542	0.08301917465628517	0.09004089338190796	0.045122411378408056	0.11834936668899279	-0.11780408614361672	0.1667224986743502	0.15232386217122584	0.07356219999217797	0.17817975923800813	-0.16566231966349987	-0.052444813626265185	-0.07353023775741277	0.07214827308116716	-0.1050139235806591	0.07574951493374855	0.1370536361257032	0.06952027565707082	0.02837510767031675	-0.0987866648111396	-0.08468509775981932	0.12496215291062045	0.07793561780846797	-0.0039019519377544117	-0.04179074117516895	-0.2025804742448249	-0.10708556335936335	0.19114073960857023	-0.1280462103398851	0.018948323182980176	0.10074331694697145	-0.12549226680022926	0.01846933233727779	0.09379166885296511	0.0012500020717479575	0.2868403027393266	-0.16685988002688118	0.10587324169407383	-0.01728021418319589	0.07719203509515153	0.044130715170252355	-0.07331561975558	0.02289956117600061	-0.18579012326127148	
0.06032478545797459	0.029815846599052565	0.06393504007814482	0.10581769023748157	0.03676451152481445	0.014808943634045854	-0.08804719171301623	-0.07122233134704019	0.11862189216561507	0.14361404761964444	-0.023811043631205408	0.004619423758794677	-0.09048539836944737	0.11727568452674449	0.0665407742809835	0.19409134707280376	-0.08783062661346294	-0.03780078990182172	0.023137069747898677	0.06463159833550651	-0.021572514880281408	-0.08729610904537005	0.08814146555823393	0.07211342294213247	-0.09162731957742051	0.1355499711291218	0.11699778177471186	0.013419990114879776	0.007891530393821832	0.05540603474914401	-0.08608423901277643	0.002934829616094159	-0.21515569083715566	0.08773275437937422	-0.15613278764261992	0.15027290904272306	-0.03294373785808205	-0.02116669819311769	-0.06263349650564545	-0.028803602412935208	0.14181922083281853	-0.24878089013186994	0.12764642596270379	0.03381052996623844	-0.12070244255652628	-0.10740588503109429	0.1676391998690421	-0.09455081498445983	-0.1153355653433491	0.11373179628306954	
0.033855317809376846	-0.09379255765363989	0.021874998776232914	-0.10254104263133274	0.11008291408507474	0.1061370991064076	0.053287330409722375	0.03616494176221036	0.1759964895672229	-2.083204096258391e-05	-0.11818741254208012	0.044980709306088544	0.2086014784110327	-0.10147594931858522	-0.03614751449238668	0.041590105556839806	-0.005389672405082432	-0.09823035803773146	0.11223699948950737	0.23195225263752445	0.019611146551237812	-0.09040682897360003	-0.15489527263328573	0.025797497674432745	0.11038778202035235	0.047539511974189	-0.0002473227111936835	-0.05900146653244594	-0.10937761382554505	0.08347520102901776	0.09141595804670975	-0.1546345609298727	0.1590862337464975	0.057589869821278374	0.1400471186848589	-0.13435132776414999	-0.1364004126772662	-0.014896930976729693	0.05054795944669428	0.17963622425264822	0.07050951383769853	-0.02426817056603145	-0.10270345128826473	0.12300491432320276	-0.09647117958560074	0.16302601598839214	-0.028438494402708278	0.15905801500551464	0.06789229700123185	-0.013699186918834774	
-0.05193962894819689	-0.03409078773460798	0.04273103314054304	0.007689544771624366	-0.059379168260803035	-0.016563141031763224	0.007856843018859128	-0.21287382945953426	0.04585736300780618	-0.09800348438618688	-0.11533324032057451	-0.16874085445232254	-0.17941040736396927	-0.13554475031122892	-0.07090209565559936	0.19533170833902821	-0.052586606576356616	0.017775010626803135	0.039995720978391054	0.01313107364085505	-0.007748468732995204	-0.11952937635992447	0.14509558803868497	0.18071966336141596	-0.16826585426009932	-0.10241196785767274	-0.027998940996710957	-0.09640005723925857	0.050655160216822065	-0.0728270166096099	0.2165805746656358	0.11902325050311412	0.02127880766980756	0.10264484573301837	0.11052819026723182	-0.05636292206282607	-0.08169625764345645	0.007814306296964744	0.08609320950783542	0.013907088638435655	-0.15766197965050946	-0.08028244439341067	-0.007403596027598293	-0.007559815029511194	0.19725408241069	-0.13859507862220938	0.05055884706759805	0.1489113105993939	0.2271437158247482	-0.04043974217984226	
0.049142977418067564	0.0569760357198647	0.01960939657470684	-0.009886748286413586	0.04360067847945568	-0.25322460670109576	0.06827460897033269	0.012614479495137007	-0.022298622803719515	0.2046648504163444	-0.06749340187905523	-0.04028299886743121	0.1991246821184819	-0.08320613048498567	-0.05501269689447805	-0.01474663319605551	0.08407547592724937	0.02078025073533134	-0.1292641125589546	-0.05323249376905529	-0.06074014315764457	-0.007722104522304558	0.04258951694326224	0.041820315059354865	-0.17760142925997702	0.10641373689009835	0.025229195863781497	0.13844581731270697	0.044348384083200125	0.11013262788696049	0.04676475635744866	0.13454267769691095	0.05232590096032385	-0.009702395036759896	0.22724890865687833	0.08881490366695677	0.05744484228065601	-0.1276304416538336	-0.1286802593412656	0.029277160251396338	0.014505783852626426	-0.06141230139831324	0.01403579502086869	0.15887946357491708	0.06953831821407892	-0.11393814175484875	-0.011151007613500144	-0.0804967882881442	-0.03877658644775884	-0.04136069874976261	
-0.04776455826040052	-0.1255135371973395	-0.012769392787019392	-0.056061702125534345	-0.2929446044999663	0.2052972024501663	0.10887696802530407	-0.03763007252086897	0.001883850332574627	-0.1171668636454857	0.16957228778108654	0.18972885362190528	0.01566708541032636	0.10235306441853448	0.017528678086694446	-0.13367211964868628	-0.041182309969775864	0.013192796677195707	-0.0454565314167368	-0.0218644978212853	-0.009140263659843767	-0.008087849786546131	0.0052258486271996385	-0.10606050663830534	-0.07170161492133609	-0.12845895171959723	0.09777967057305585	-0.21056261071060697	0.11536094887681032	0.13863497043904272	-0.030215462178574078	-0.26031491079528185	-0.03613104953737619	-0.006420130346892172	-0.10106150485239532	-0.051520528402973026	0.15301672439132966	0.0664927162301741	-0.0924565292974245	-0.1597599174787176	-0.032699873300755966	-0.021345678465392245	0.049619681084543885	-0.05353122597068509	0.05114995952478795	0.19351540400602293	0.08155009228088274	-0.0048088507330772585	-0.018315044292730592	-0.03566731335532909	
0.1180640995821768	-0.06273134459513029	0.004642901812961727	0.005138739472211205	-0.05017764722065511	-0.13724655444368783	0.032349097183850095	-0.0061003928326451365	0.04995307968463523	-0.05335702772118807	0.12208212988130479	-0.08765947732274103	0.1711986224524198	-0.17476365098282617	0.04347617095722351	0.047513964079155376	-0.07955507712326389	0.04243939378610126	0.1279764931421953	-0.22171048416193642	0.05027232799408143	-0.24932708203300777	-0.0965662690198132	0.16291663992497785	-0.05817815392117126	-0.11737963020724203	-0.019800809284933277	0.2067511981505758	-0.18325864353601434	-0.10513090441744952	0.14977142222187642	0.18573081303131223	-0.010282504198779378	-0.12380074892758526	0.2096343646392638	0.15936622822207477	0.0679968988142463	-0.081240234893742	-0.004744193625199079	-0.016036482409307305	0.03303267879214113	0.14510013554850779	0.08790357428517913	-0.10773572318882695	0.13764965212153998	0.03141624026447055	0.06870654513452508	0.14665399830581344	-0.11115770352775538	-0.003582543884356782	
-0.05314543884745355	-0.1567859425365456	0.03499496711854578	0.2512120460976499	-0.1840075814978088	-0.003228059693142895	0.06417067492267238	0.012307768989491602	-0.011492512134988852	-0.12989451000907137	0.023278674294016366	-0.07562931806362487	-0.2189885525771681	0.11945922205137308	0.09583661940044809	0.005092101651564484	0.02290788164845653	0.10743180127155615	0.02252591124416137	0.09032313318501142	-0.029748708878104976	0.13119837385739466	0.0320788101468029	0.019405057845991634	-0.12700601367965053	0.02872961149155641	-0.08319745323512026	-0.06395059303546605	-0.08177665912802744	-0.10662347359467844	0.21249881861401967	0.13306656118304813	0.19216290778289777	-0.12202551298088998	0.007269767918931175	-0.12954931450704613	-0.0692970784554697	-0.09181269834165749	0.12434634473036087	-0.039622252237848564	0.10669074158022003	0.06041203431221534	0.23027810450020328	-0.14794047150143277	0.12592302030114735	0.11488383490620381	-0.09733789710625118	0.10071310303996737	0.03361341128831423	-0.022747131702549352	
-0.08239354864203896	-0.0719109451449186	0.20496212436910746	6.383126585915147e-05	0.0782131455332904	-0.07908993750492174	-0.0779873658482384	0.1081983394836589	-0.13494902136636375	-0.041525105732265956	0.003402741107223205	0.01113703928465995	-0.0179110478247322	0.03958197810959231	0.06928557641846911	0.073463814908437	-0.09858025661911696	-0.02841550979287972	0.11947204099983125	0.08946928985624811	-0.13728597210460852	0.03514799003522017	-0.1978220952191518	0.004693417765837687	0.18977673775376333	-0.09478729824412226	-0.08343391606436579	0.07640971794010261	-0.15427080549616126	-0.06327549270586195	0.059652466547787164	-0.06343086779972291	-0.023596001861243533	0.07440730273830669	0.04214484984615421	0.02668656928294473	-0.03392497914968569	0.037006111526895535	-0.012388260464411958	0.04578119651356104	-0.04968934565706463	-0.018256910107278066	-0.09899557226542723	-0.0034984525386913246	-0.08110020295399567	-0.11140464501619934	0.0258661084611352	0.021273977590580414	0.07828676453684628	-0.04311237770386123	
0.04080531964899005	0.05507975722736633	0.04467348210818679	-0.08254657125250824	0.014940375845888348	0.03641403132846602	0.0008467358127599694	-0.20865030499999593	0.01591769499870077	0.22123296615558943	-0.036003926875698276	-0.07276142450112813	0.03729842539851174	0.031237821046657174	0.11927143321265368	-0.12586626902567502	0.07314079394920855	0.05904220612514635	-0.01419225518459067	0.033820585112298115	0.10293889286817083	0.08723153800284504	-0.11429597717702292	0.08201559046741749	-0.006468922803583994	0.007318618661939247	0.007283636947759939	-0.015074696601704254	0.11899562167278624	-0.008371356250610265	-0.11180310400120876	-0.03948123837489433	0.018044935921567095	0.12313127794168367	0.06036806750564327	-0.08523143776006613	0.2487052355902459	0.026477531097797963	0.12786755727016372	-0.015166777588670112	0.05322852919478398	0.0839468226241983	0.12170922234314255	0.10575656290776833	0.08721795969843428	-0.03122223755665284	-0.057174769336609074	0.03326058239860515	0.09330677720992299	-0.022271352723093427	
0.10651719662322057	0.14526167454861794	-0.09163286560656582	-0.0836923960144121	-0.014037502413069622	0.03076126680602084	-0.05245690160671569	0.13521992221997448	0.042407114233657714	0.003944709309625075	-0.14359095238685277	-0.1315815759493835	0.028100563972579914	-0.21325956261548362	0.10126374096440718	-0.015815448820264182	0.32430926744513966	0.23079162506161108	-0.018144866034357787	-0.010633536158226124	0.09955820450541622	0.17031726099180378	-0.16380290577474543	-0.17863754653546868	-0.062203530066684116	0.05827389086268933	0.049687273464994276	0.10697759812273834	-0.11996917839817822	-0.2316143800003102	0.08580167761987058	-0.08281969659294233	-0.20184889762861777	0.014505849516519665	0.07931695598755327	-0.012205587439237352	-0.04578539574788847	-0.015936223214590657	-0.03705871555270814	-0.13480457647796404	-0.07146772964129641	0.05212799079237159	0.03216791054387549	0.01680606414375437	-0.09951500599950291	-0.018150277717815563	-0.21770650743632444	0.01784765539615479	0.14288554927569713	-0.1474132130964509	
-0.05859274753194874	0.032910677871012955	0.1252070342036331	-0.0448412801109754	-0.0692234516651126	-0.19689231415145392	0.010343427675442284	0.20420713392390227	0.02776727223660777	-0.002253845533171047	0.03220823107669855	-0.0011150665465082428	-0.08131946487590601	0.08232799156777054	0.022576152958299536	0.001768637325301996	-0.09753545509992374	0.13035079319347592	0.06642611834593075	-0.055273393181149544	0.10017852986876688	-0.04975708383852072	-0.07819968453545499	-0.07597031180935317	-0.17710691410896073	0.047142874554927335	-0.1831286725257794	-0.12280160129008696	-0.20751266665408968	-0.008606811542145038	-0.01497328529839511	-0.032695142190298156	-0.10424291838147727	-0.11726431696011537	0.046390492596149385	-0.05502828749480606	0.0315771515044816	-0.08852486861242226	0.01805307555544715	0.1303281286442626	0.058649516791506894	-0.04124138182164804	0.025716445960818672	-0.02406260345770224	0.0007878399124032921	-0.03256105911792609	-0.01643357969642204	0.02120932636600478	-0.09933614193344935	-0.10158788012018097	
-0.13885425487531125	-0.160027110450371	-0.12172989548869555	0.015945971968694187	-0.0892787497798356	0.05136144672708686	0.0034709712614802426	-0.19685043905002353	0.06549840700197182	0.08107975862547638	-0.09938626748348534	0.042019153909032485	-0.08564983149453015	0.00976703767483354	-0.126449840426972	-0.17931050754511918	-0.0382817194512693	-0.012372894627483616	-0.03976797080992394	-0.11840271912639155	-0.0399899710835042	0.0269294752580734	-0.004489303012253698	0.01825006408217875	-0.06701152054236137	0.11717202712552689	-0.11761733804501616	0.048756413605706414	0.11818978142788358	0.04809080927488954	-0.02025228721925316	-0.05282970989479124	0.10360853474119097	-0.1422985364036539	-0.0970129985270592	-0.03975576746702499	0.123764293105355	0.03797676360408961	-0.09680623687199741	-0.031030521590341406	-0.06143177745924694	-0.0709789063283698	0.09788922127173832	-0.13717406189850254	0.1608780804197947	0.08282296895239223	0.1090861670603698	-0.04629395106262474	-0.014994273167269152	-0.14331506815149858	
-0.0524662407066803	0.04936548476431509	0.12960630617813962	-0.11071568168024518	-0.03655059369852658	-0.015129922023252232	-0.13957892021924853	0.059134924175840035	-0.07239903317426091	-0.0195390351177024	-0.04519493719118777	-0.07893385057196745	-0.00070449854805547	-0.02156095785680224	-0.037185788227866556	-0.07284616216803429	0.03195246707829554	0.1653617268492285	0.013988723283912739	0.0996118214911129	-0.13902219251534628	0.01577614392937695	-0.10973683189710666	-0.14769249275319016	-0.07393714074590363	0.1191899334413573	0.09500158286696457	0.02430047220543997	-0.1532700559889931	-0.01962806513879368	0.030170000890173555	0.017553622957859793	-0.1843793583480746	-0.08903178480198719	-0.0064077764148716635	0.053629090951719	-0.21961278210999466	-0.016212397547985844	0.014304876987895235	0.08496119885162132	0.06928575842374367	0.058257131880880525	-0.07999405067019343	-0.19080021371233077	-0.0393052757061401	0.10016318252085601	0.13934545275244314	0.07105491022977854	0.04293408228017344	0.03796396483859655	
-0.05561184414320791	-0.013006029355362004	0.16707924148554984	-0.0942360011432056	0.16148096747827714	-0.032202813611691146	0.13264895016896971	-0.1406826258927797	0.05847687542370437	-0.07369276669678432	-0.14152671919241874	0.02188845460897164	0.10092022938976215	-0.08449414385934964	-0.14990322127729527	-0.009243804080549884	-0.008741412394635847	0.054831962755449874	0.09497754607555797	-0.005983195709772603	0.1855438444634119	0.02242347445352918	-0.03464012181642397	-0.16115685356444337	-0.02626585258445628	-0.03362118879745287	0.0960028326752286	0.046203567200707445	-0.11808398414824008	0.017225768346378692	0.06726482040704886	0.15270055464985427	0.08889016310253443	0.07626154633403975	0.006066160381532476	0.03869048943478385	0.12510794198149808	-0.13327773974796497	-0.034666604561544086	-0.07725613348601468	0.03783023799340828	0.1230221847143082	-0.05978268397816081	-0.23901859411156065	-0.04122263063936128	0.09156797626128577	0.05376286382009772	0.04281847101563689	-0.028000810107529583	-0.1279026794083674	
0.0515294669612806	-0.08342818100346248	0.21854949797678877	0.05706211019597581	-0.05806168899250507	-0.061138523074611185	-0.00919316447531111	-0.023952463246300716	0.11158510416283403	0.0186210094459716	-0.0731631738908528	0.18907860219282327	0.004901878590383153	0.07688396759688969	-0.0608241797761368	0.03625100307572601	0.031113419379854776	-0.1889649292096153	0.2015347304087602	0.12903001306863768	-0.03972571145930579	-0.11022697404558555	0.034760791078520155	0.008669608865701988	0.035566857586797125	0.019179079683193653	0.05059556262903222	0.14469971822859018	0.05668234731210891	-0.10496523456172822	0.13638561348992145	0.16395574232898577	0.3153481702036378	-0.11219253110828399	0.024323825850066618	-0.2083425278366298	0.055449553211635055	-0.05482002981667727	0.19258758105844878	-0.07745845132487983	-0.1689964614385975	-0.04712640154669026	-0.1976357863613865	0.07512499863628125	-0.2065096519462206	0.003067773335471722	-0.2077813019817496	-0.032029932844560655	0.16433365353405774	0.03606531805573998	
-0.08634935293036314	-0.0031203488939083976	0.0017729266174106152	0.04725514117095479	-0.13668521546033732	0.059256727724835555	-0.27044014031680724	-0.06298930402134649	-0.04881451374774698	0.06332505403015411	0.002263085267686914	-0.1405571247433391	-0.09850623872879635	0.01986800095474069	-0.007906804638200223	-0.057913120486865005	-0.04808302495566491	0.0696167997159289	-0.05178009772356853	-0.008802283667678299	0.21699305350652745	-0.1423682636883923	-0.18518295777903374	0.07835891191835193	-0.06786441493901609	-0.03182288912917257	-0.07812111319507749	-0.025966466385485946	0.15986936926786877	0.08021292554144148	0.08624324392476812	-0.14163050816798484	-0.11511080527656882	-0.283923167175181	-0.08095540247614783	0.09567522403499223	0.05167503687842961	-0.02215132629521239	-0.0022484360642176194	-0.0688867517403715	0.0204841812941901	0.07658781570947207	-0.16159104089872955	0.029968531171753143	0.09324291343936231	-0.04150380002338613	0.07007003361522941	0.2814654193173244	-0.010436297117832496	0.03933089975452415	
-0.07380569656275668	0.01812511626020504	0.04603533439769182	0.019482205296034276	-0.10196930704467387	0.02063617862468365	0.14622882728414932	0.044861618916341564	0.09619262115667201	-0.023700801443972144	0.07499002394237106	0.02793327723478532	-0.09509261943754278	0.03185210047988745	-0.0991698969332879	-0.06330164666733988	0.01893304289980876	0.029724427338012407	-0.11891387577236474	0.10539610524773234	0.057201521919163126	-0.07047284356108839	-0.15375601674894998	-0.014490669858659065	-0.04459453942517726	0.011327735472688236	-0.03631370190963768	-0.2007511119945821	-0.038848738171771764	-0.03056190432140693	0.06338217743529295	-0.06982989410280159	0.16788438374312764	-0.1911509673680744	0.13111585397689848	-0.02245538618932103	0.08597285064582465	0.00798014840587331	0.11397488539963826	-0.038732307129124184	-0.1098776738647769	0.1420503949008576	-0.011360025567799496	0.022162801145705714	0.12347390334976924	-0.10315834306948711	0.05954907792706355	-0.05898949587863748	-0.01322134169621444	0.007228542210567682	
-0.1500221858005643	-0.07788370428204348	0.13515793354437933	0.08862564066552639	-0.006263435264494062	0.024312346558690974	-0.029396982909868207	0.1356583119342372	-0.020067953099685017	0.02318189534411902	0.1146030144142065	-0.07772874580168701	0.15587516253794545	-0.1530461409743377	0.1629637940703651	-0.03728201327771861	-0.024269447556056693	-0.1890010171182943	-0.045472399346599454	-0.10399242319581249	-0.06076616775197279	-0.013731096578887962	0.09577941767989867	0.02076029921001024	0.030767736573358948	-0.10954825758403619	-0.08808063118229019	0.17985823515309735	-0.07356068004151618	0.16562089110142808	-0.024282503645066345	0.00020381484014104972	0.10707228717732123	0.12723719754472293	-0.011062392747040399	-0.03886158376609402	-0.005547732581643454	0.03379575282321183	0.08920332378526305	0.0004225962704840751	0.0618657335545262	0.16383595707080684	0.038110438907462685	0.03116724535580068	-0.15189108041588573	-0.2630185040042817	0.03883754353356755	-0.00948244362330912	-0.051478061802937194	0.02435312755637525	
-0.0060403331788271486	0.11277802506338985	0.008815667385462238	-0.0746653654203269	0.09902009046632082	-0.02171310552982052	0.05277026547403321	-0.0477410870230227	-0.06511396068475439	0.008400748356027565	0.001282864354368512	0.048019536846334726	-0.026894547828821575	-0.18363597837703974	-0.04327915798639531	0.07932143359932174	-0.029735378727948618	-0.024638340251454803	0.09865746403140017	-0.07124630485657156	-0.15428843844778317	-0.016063111952549437	-0.04841642545003364	-0.09662467301357922	-0.01753765561469274	0.04916207793175257	-0.0009592185121906293	0.030644637236099864	0.18117350127533566	-0.034287510597750724	0.02794757136098723	-0.05103195337544652	-0.08448753794891709	-0.05828826916082304	-0.0478016002281817	0.03579493840660266	0.2350885550248276	-0.07160434362758404	-0.041343796833474736	-0.006313609383770431	0.039488937561971416	0.026355047625854406	0.12831941105596606	-0.2426302155353541	-0.23869292376607548	-0.049354797607798956	0.10972987555592534	-0.1565650089052264	-0.3007623327691628	0.05711807801355429	
0.024365722370271445	-0.10902084067994298	-0.0985535099051496	-0.09697424550324905	0.011053531747394013	-0.0626315276183007	0.04940649214011976	-0.28546266614312504	-0.08568545964072459	-0.11260530039839699	-0.02563406783724922	-0.053804666899712486	0.07978443127852763	-0.18593367716600576	0.004549147506875877	0.055833517509890004	0.18566474450115444	-0.04817659710934752	0.03244601471877135	-0.18038643112199018	-0.2391956204341805	0.08447743757817	-0.0005560441721659266	0.11785126897984229	-0.13734028889697492	0.05199033156126029	0.18688185261835355	0.0419703889765639	0.027657768924395133	0.0008556080824349832	-0.15708814821745434	0.13555722708450327	-0.06108562864861501	0.050448674062744045	-0.15630326558830843	-0.117946220116945	0.14350915862979224	-0.034730228895784296	0.14532807446843063	-0.007823066046988944	-0.18418999629150576	0.08920675997317207	-0.05898937101543389	0.06986888135418887	0.002521086754008212	-0.1543114705813789	0.016429476537056908	0.21962230029705446	0.04929864585144592	-0.005751775300546313	
0.10753434019568978	0.021066846520311083	0.02095341238093945	-0.1091625214430782	0.023384802578959838	0.10354434164169449	-0.08360621872219617	0.14244957481095816	-0.009170594770039727	-0.08877694878752489	0.09976320769202446	-0.02867942357382693	0.07595148293614926	-0.029175863225853717	-0.00598261435299037	0.04935602075310772	0.029089705759000592	-0.19955317804517386	-0.11212437400943918	0.09294100067257977	-0.013213654751219555	-0.05237313027714218	-0.13585740152574743	-0.10797363212758485	-0.20217986472506608	-0.010128070071957153	-0.05984375805810469	-0.0966587833600063	-0.006812332398214021	0.036397063085273816	0.20931979808477308	-0.15118834191637512	0.11593809859697415	0.09731014696126437	-0.07790928472297147	0.020323595962180432	-0.04576333468874309	0.018568858041873894	0.15091309046694754	0.060560627222259855	0.05086084336172619	-0.04303093199546424	-0.14840566526173116	-0.02084682067089071	0.12066081269701764	-0.15271678565896477	-0.10550893681766951	0.012626773623406818	-0.09846548311293078	-0.07925234471152126	
-0.042359836956592595	-0.13656174041901495	-0.09727913008035381	0.07035635886969899	-0.13073460781843108	-0.15978721219275438	-0.0629226205615737	0.0731929522735536	-0.019778215380449094	-0.04646612010969306	0.004435879751560705	-0.17454067847627894	0.049449257183860416	0.038343503140364416	-0.04093214065952088	0.10054041034575947	-0.11274803001719765	0.11279089932535691	0.015470885738434843	-0.03368790027193017	-0.0019913134304245833	-0.010726476581094175	0.12203259538969	-0.10766807517769228	-0.07625209131683446	0.10365235933640055	-0.059574351325522246	0.09001595545816504	0.1698282268215239	-0.04017925190561214	0.06822239181830073	-0.11544581313484165	0.07558056622439481	0.020078882338309855	0.04734545676817097	-0.06467387988007638	-0.16598334134040643	0.05032520647495048	-0.20612671272049632	-0.03173130805933757	0.09404607473827366	0.019189751151945177	0.19476581220504405	0.1025230304838712	-0.06539121417869621	0.002911663903110739	-0.004737162338424344	-0.15821781697793225	-0.094044613926438	-0.05607554211639591	
-0.2036220434463726	0.004749346825164296	-0.02482996606115545	-0.16728024859302382	0.04042181945008326	0.07158727590031869	0.022741517409062894	-0.03240887568841242	0.05909741030667735	0.0680247508485963	0.030740356971968842	-0.08244505439550368	0.027656848581883494	0.1195480650825479	-0.059663539546929586	0.20976508722228004	-0.052562589126434	0.003240701334013622	-0.06722462328026341	0.022308088465254252	-0.17422231491268678	-0.05460417988167213	-0.10921016013117792	0.013533618009101668	0.09944460909845258	0.0646185495205885	-0.23717102690955474	0.20417866906292562	0.029462532765658123	-0.07764987553651004	0.0157415125652839	0.01758808773255722	-0.06663448070225132	0.0198635970315328	-0.06071867200889229	-0.040502268724212025	-0.06855597828433353	-0.1432671289739653	0.01469190580293585	0.058532966861167046	0.0514431581304666	0.08199248366139811	0.03240159743454097	-0.053265036657630584	0.08396506795412538	-0.13566003063052323	-0.09006715983386199	-0.09642005129020535	0.10800190701755195	0.09427953489157788	
0.048730536604989765	0.10719298652117973	-0.08782077350247697	0.03487614871374603	-0.0125170572426998	0.08468821210472309	-0.011478267742841778	-0.0384955771157722	0.0540296916383108	0.08762431922117624	-0.06683451948468017	-0.006088024047791698	-0.10584623786883098	-0.24980610174929396	0.020045173226645892	0.06085871649975551	0.02620703463047838	-0.19495617177543673	-0.03505115983495895	-0.22186131463616998	0.13696991207497766	-0.10860545821180861	0.12554158705687252	0.09458677187901868	-0.09005910964141468	-0.11326008739715286	0.0350334637473165	-0.0844738176705118	0.010162866219887889	-0.04828273299045233	-0.17809642634288617	-0.22307679204157924	0.022720294796867383	-0.05606235631829898	-0.055263772424459616	0.06950851899102005	0.11743970476635247	-0.02725447213618092	-0.03392006165246256	0.050016749357854585	-0.13574930042479558	0.022315257245923	0.05515314199421667	0.0680286405241091	-0.19367608869462916	-0.07603485082845993	-0.08782633936298966	0.009988613818366942	0.0480716538900938	0.1496716739415488	
-0.049496545599760716	-0.04975724983092139	0.1149540650916133	0.02965460057626724	0.1267657512313866	0.02887280030098363	-0.11571100400421183	-0.13331283489092494	-0.15514524354340595	0.06619983187007145	0.11885968230870081	0.18493551266944916	0.08430438358796719	0.11628385775349859	-0.058001645870842264	-0.11564050811697611	0.08500814774764691	0.04176807522394007	0.010736568392448919	0.03873996366559494	0.032317579272369897	0.12838168598535613	0.12949865204863673	0.05442203506388925	0.08458028730778107	0.05140397190023764	-0.0461218682550423	0.0756640153188756	-0.139442670318911	0.10538924620892513	-0.11944093149631385	0.028574864742721695	-0.08451344447636204	0.05533343615514315	-0.003399614919827202	-0.15947149342419503	0.0420604714777833	-0.05779207768327106	0.08811136246477863	0.00013257316079918018	0.03954857410667675	-0.095756894380146	-0.058934722090448775	-0.045862696762528445	0.08567026770049475	0.16773932855591064	-0.08051719889477191	0.10768477855489504	-0.21696773602349745	-0.11941894010922893	
-0.09587784487020015	-0.13525086894407223	-0.15835883245951002	0.041299891190734975	-0.021406769704126846	0.037940539760510976	0.0690472678043832	0.026561699331165062	0.06577630549876753	-0.006953232755910004	-0.11869933883057447	0.10578141393348332	-0.05891122492732722	-0.0935596298762426	-0.017791787535632604	-0.09128109438611764	-0.041743037813496094	0.03440539215634665	0.03483417815699567	-0.0897830099581396	-0.048770537168120756	0.10743330047702437	0.04964001174849205	0.20750650393485418	0.11801281737415277	0.11442930051297545	-0.13878684555658877	0.07638603659043343	-0.005310681245373746	-0.05509817991327364	0.016801525394940942	0.09452114666841606	0.050083167345301445	-0.08784737432553395	0.07424589331885298	-0.06375874977520941	0.02166831826972889	-0.030335006747713424	-0.021886601521612235	0.07662430200694226	-0.10401936878291854	0.19451950741656585	-0.18210860602332557	-0.059766768220592834	0.0370211889941741	0.058431438259610134	-0.010047572165547568	-0.005739077816392461	0.04105500853276166	-0.02310694710660299	
0.1393181326640245	0.08393491142316023	0.08739737542614352	-0.09659635487452382	-0.007938724324076427	-0.030046594949803725	-0.1005144069720988	0.03601613478558257	-0.053830196786931205	0.06554696469632493	-0.10701915628943318	0.17192207281358832	-0.08963405613336943	0.02193023372004361	0.07918516792978024	-0.0570923986135244	0.08524721899191624	-0.12291835978004162	0.1452377784632468	0.0013865921080124797	-0.05964191904778783	-0.02991817724274345	0.08089252219233366	-0.05844555038376539	-0.07493578643774797	-0.022142263181379396	-0.11769778499951518	0.1820145415834381	-0.05672530167973595	0.08316170294669702	0.020968392375649937	-0.09848464175035337	-0.0005418273480425758	0.07849801545606105	-0.018779639139468455	0.11923828102370503	0.10224883505228428	0.09189148546583294	-0.045826210782105366	-0.10798373122246868	-0.061411344084804136	0.019624089323606167	0.05454290757182388	-0.21715589335132665	-0.0008115396767062455	0.015904246326777543	-0.027754426382947284	0.12912729206382176	0.042177337863549054	0.13101927238614758	
-0.021596052013057317	0.0937477492506925	0.1636106050036804	0.13118821035091788	-0.10921411895592956	-0.025367607759410674	-0.034482812787113376	0.048925453472533735	0.06857938917957025	-0.0838785464090222	0.006783851391693768	-0.20197843239238894	0.14419548005576807	-0.05123742406766936	0.005585720985864906	-0.030986495386346194	0.11460271139042351	-0.2837506441397379	-0.0016295720937611624	-0.01060700398777813	-0.045363601998990734	0.17262265456356327	-0.0887330135263855	0.0771796170345459	0.03562527887060836	0.126161541501945	-0.06671912436165772	-0.07333712740586444	0.1095323551173966	0.04253215682283312	-0.15449447130049734	-0.053947031805990406	0.038671639268778264	0.08385824139480227	-0.06787470730023529	-0.2914855615908357	0.05240845864771966	-0.12203206899439759	-0.20161133195137163	-0.28323259194457395	0.08135248289930254	0.0128617471210732	-0.02258954249084976	0.1389025053714248	0.06373253430580629	0.16169827753182672	-0.13927355218048215	-0.003455106769612106	-0.16167132668862025	-0.022938231330372746	
-0.024861585376667737	0.06266136372630708	0.004556373577882673	0.06234071148759584	0.07034401311465001	0.21549286773831422	-0.03152966553737772	-0.09410227002543733	0.024608371334536982	-0.08022800692673136	0.1481960768436536	-0.028321803894523257	-0.05655764439572632	-0.04713157211511179	0.0718417423471641	-0.01577469552723531	-0.06416668364289393	0.1665351917623531	-0.08561698522104941	0.0035566091962874686	0.06523061734428166	-0.16313351104170734	0.0480260501405925	-0.10551076754804495	0.08227827808340026	-0.096265101068637	0.06927689747524396	0.11058331158362554	0.08614365612263525	0.025131665707111617	-0.023130089866748377	-0.0576419587566691	0.14710346936060378	-0.06994952627881938	-0.10370660961573884	0.06653689962841364	-0.0796136908556317	-0.09500634974661272	-0.1443604262169765	-0.048290983852949367	-0.008271497762985901	0.024309172766069878	0.09513062229902308	0.05268979300393553	-0.01908722194689192	-0.01981956763797199	0.05101574676148	0.12725701629285696	0.012631420029952361	-0.0469130854210409	
-0.0992865749942699	-0.14452052644122257	0.06652983166485514	0.05777207024000389	0.057739373304574744	-0.01286594424532163	0.14069962622118595	-0.04841234857085216	0.09556483453553807	-0.003910612695297379	-0.06083507646793376	0.05925025619441489	0.04093079609488152	0.03569727592669261	0.008127680541721988	-0.0037854488247400743	0.23883884972807395	0.1184256645196173	0.07222750817361462	0.011203371032805333	0.100709701895008	0.05179947763914519	0.0026228284131500704	-0.030356456747194435	-0.00809179767855111	-0.31705325910867377	0.021033851460316732	-0.04879243876956004	0.159318828102545	0.0019347397725288334	-0.1188072907614997	-0.005029813003812459	-0.10458477593625154	0.04729648509848497	0.029034959962337743	0.09580941436671352	-0.0791576525517342	0.0034008096228146803	-0.13654731415016433	0.07015097774417108	0.0519258886067627	0.04958050324264171	0.00014996185935022257	0.04148535799707477	0.16043378415571072	-0.028490534454949923	0.013864390676073505	-0.10861264333145675	-0.08682750213097737	0.009781364185959813	
0.11039335467019072	-0.025628082425157246	-0.02359172625722048	-0.04068854017559192	-0.05347566708443231	0.029497145570882156	-0.14972577383529911	0.12809395580764105	-0.06654219570066301	0.07219034302800596	-0.1269998597393876	0.06688401305462181	0.06719445893284766	0.038420207200589654	-0.09944285217997922	0.024954827753398707	-0.1183056184734389	-0.025276325509618537	0.10294131007202051	0.07967020594457622	0.00151829546493233	-0.09748065759228419	0.06455877121741935	0.0019381226382538328	-0.23203155982304235	0.07826299012139187	-0.002423283386969215	0.120245144131719	-0.10952702069849858	-0.31767038131960007	0.02790839439312017	0.029156367668197278	-0.1690671654900302	-0.09784999420058399	0.2755217454036129	-0.03056106106357339	0.0730958435891747	-0.06506598273683838	-0.20903033728704576	-0.017025810059475833	-0.026560431357813417	-0.03998782386683715	-0.011464077153465035	0.026426832935601448	-0.015011697400825637	-0.12640061679473638	0.04861847915619389	-0.19493717553224232	-0.20503575490040518	0.07391805988559295	
0.050702027213535686	-0.005739536507403602	-0.13954484979344348	-0.070791094088672	-0.026274674768650405	-0.15958939685741136	-0.07390286580232329	0.06523303381766798	0.1427305355616439	-0.04194347510999892	0.07564883543160984	-0.19140600699387858	0.06594512411136115	-0.08039484147274811	0.03073456167079701	-0.024775241996902647	0.13204140097838343	-0.08744356483399182	0.06276063045098254	-0.02795074646930808	-0.015830547800966377	-0.01838538931592097	-0.08456731044941129	-0.0014098965906671579	-0.00626482221218215	0.02412402471831932	0.008450515204260062	0.07979945461110702	0.0923508611324494	-0.10506233218278012	0.08687724946578064	-0.11863364282503751	0.05878558901262382	0.06197387874007434	-0.1911316888900449	0.009297924652940966	-0.04684961069563707	-0.0758765257935375	0.13508523360907296	-0.0653679140637419	-0.08063769311904248	0.007569494000509345	0.06855897461797826	-0.01416485860101269	0.11663705456692522	0.053097567062019665	-0.21782113197314304	-0.052946696607036645	-0.056184209935169906	0.047936095342942235	
-0.2624817056374112	0.2549009708717722	0.05310260978445012	0.01488768048180873	0.11815677164191463	0.23436540528126248	0.08707466445884032	0.09488130964716202	0.013069002211510623	-0.014152575205025426	-0.047579544400490115	-0.08261119917145421	-0.06870140970653875	-0.13505559643429832	-0.007587145068502332	-0.16846675780821677	0.019091652433669302	-0.0036330608042341745	0.014693529955916862	-0.052213157088694395	0.30768603701805036	0.1360115900180313	-0.12445425000847228	0.023286808742689825	-0.06080061429373236	-0.1014479725129709	-0.13400720680196374	0.043221668976839295	-0.06813802366690865	0.09678260240252042	0.09937822145304391	0.13739143858916095	-0.08523867662266908	0.047536561093958055	0.06324542175462465	-0.04741781751039649	-0.07717719543310139	0.1609520665775973	0.02274958779738704	0.0635967750711738	-0.08220760138910328	-0.12192844665221939	-0.05694497741012109	-0.012402138738999703	-0.1064220006817349	-0.0009844806813400957	-0.16885051880685	-0.11200474227545745	0.06709112482768752	0.06037905202778942	
-0.03918766777449276	-0.10177643090769531	-0.10274993234925686	-0.03732896877246748	0.06445228266308774	0.0928245694161954	-0.04965335159468369	-0.11534927696555873	0.02678878331092167	-0.08235676607926304	-0.05182526388612024	0.13252755536631755	0.0827073230369849	0.01579743122514517	-0.1271919001112723	0.021140319025431748	0.10626584542237834	-0.03756336657655356	0.135107740418792	0.1292768697380389	0.16637263772023622	0.030524312653135294	0.0587391812627279	0.14141871923326305	0.04473939207764396	-0.05012423520970684	-0.04485747274149489	0.023859889622103173	-0.12905155497967533	-0.014325862254955054	0.10966071914430035	-0.21912821250971282	0.153448515176953	0.11223289698699765	-0.04598091623262799	0.054342024044508205	0.0003082382351012314	0.12299903684386831	0.09826651299955744	-0.14000693898518715	0.058730043931533096	-0.020562786776237362	0.00828308204961658	-0.07281617018118448	0.1748137100647521	0.10400618204674293	-0.0739771308465624	-0.13346106069102326	-0.03856732069900321	0.04345028101699072	
0.0240205843946223	0.12531328247682436	0.07899175816864203	0.0969568602020351	0.03268554803925932	-0.13892987302109902	-0.01956985198693912	0.10600897399086656	-0.005152159585707691	0.050308976847655736	-0.03187483152461331	-0.10298118549219087	-0.012334533843664622	0.030904744303265393	-0.06556877194614437	-0.023571075285732178	-0.09394634073302484	0.1119244917564096	-0.02944562453559161	0.14527557549446674	0.15287480651510538	-0.008104596472174376	-0.10084487325473497	-0.20858978777333373	-0.14720370730267915	-0.1373834950773637	0.13784685098174074	0.011582564305107141	0.038960522982091676	-0.22204208928635744	-0.11979655464469091	0.08870795073439722	0.028677411826053233	-0.014720596844001179	0.056484189122931565	0.16357987504626018	-0.022104415501320165	0.006936980265806943	0.019259694104971022	0.23921096352739926	-0.20993553465072565	0.0683223014788808	-0.011480261617186125	0.05667718655067966	-0.06573725539947244	-0.004896499693321084	0.07114105201336451	0.3112910192699428	0.08080361894020716	-0.08480655980305087	
-0.04237595951425278	-0.04534141083838541	-0.17926234945974784	-0.03295816957789461	0.07328316342711029	-0.1274232116728288	0.10495916084684434	0.048775612071903986	-0.07359140519815505	-0.014127000462390253	0.15983218076410333	0.07340125187331834	0.0008797219629060669	-0.023768331696098433	0.0076591557414414585	-0.051249686078209976	-0.21047441868354225	0.2042177910534731	0.015617871240920058	0.039740363636201245	-0.005790969508263583	-0.0735116800724588	-0.018590858040493548	-0.1599395776162623	0.22770853082136036	-0.12341537232500514	-0.10319919805867793	-0.04413865140769591	0.12858329187006254	0.0014509333698595158	-0.12358688689349767	0.1253685460887005	0.07322286033406278	0.05409204767642366	0.07170279177519619	0.2392472825255309	0.2187649238750795	-0.06867153430032953	0.16275227270981202	0.038318656428057485	0.04976851663254064	-0.16922710232815372	-0.01712356428526356	-0.08127747843213529	0.08280490013199401	0.10733984304528946	-0.20744863607706962	-0.002203656617437395	0.1121835341450571	-0.018667502393467726	
0.07290639277255469	0.03511654676270841	0.03423923249461333	-0.02712784175448835	-0.12165529912822297	-0.1121530136424428	0.07100112043856663	0.0019456402091509633	-0.013907612468172379	-0.0424098379394749	-0.03051888454807518	0.10471148271188441	-0.03354983082184878	-0.13410647133015688	0.07436419090058774	-0.020523338069731414	0.003141463558018589	0.16075783063995105	-0.0020622638758354393	0.028900688100440153	-0.11789755841350162	-0.021966945235096014	0.060955290899434876	-0.1555373994019513	0.020084650405220887	0.01008788477670866	0.004104149711085925	0.10370563583062373	0.03337134607218293	0.1478074664357056	-0.09926320790510632	0.013518279834134297	0.008540056530349997	-0.10683281078392559	0.09564493724602448	0.23239041687982173	-0.0016271536713018371	0.05050210882737669	0.008603716478177094	-0.0713577146289319	-0.18211758907243944	-0.07057735802418444	-0.13925198242664347	0.17042060015431884	-0.011511304782836004	-0.034451985996085135	0.08891527229049859	-0.11217521018455313	-0.07668771066981074	0.006807330894467927	
