-0.04418489272408239	0.011088638282841786	0.1704592093297377	-0.11081124582588693	0.09760407193559467	0.1399486426972343	-0.06286543050745702	-0.027751361886023347	-0.10363092473737703	-0.02034611410803049	-0.003658997434293117	0.06596499980823704	0.10901834710204468	-0.07480960646216471	-0.19673250642259946	-0.0021244779276242127	0.029353752996864053	0.024941768768504166	-0.0326673247509044	0.01247520996639345	0.15154448083522476	0.03817341689625093	-0.03733684250030844	-0.05001978170959958	-0.016985235767773065	0.163673996183064	-0.01833007095261973	-0.0019794344520707974	-0.0482313570936303	0.10989833574419648	0.19598372547446752	0.045061304943138834	0.008277290378542575	0.003678283317423478	-0.23843067887857458	0.07451508642848174	0.013416641599584354	0.042834205066072495	-0.07114621940837049	-0.03844568789770916	-0.041102493650317304	0.1021622984073039	-0.03787598366030934	0.20826603221097978	0.043086241901503744	-0.12756826599957316	-0.012854629325195686	-0.06516751221564157	-0.21943824698200243	0.15994709401137897
0.0703142542220004	0.053320731789931256	0.016540366029970426	-0.13820175686924377	-0.04836171395554367	0.08417807747840128	-0.10512200297825028	-0.25317693162508137	-0.0227106007780926	-0.01417575540275386	0.013556341641470916	0.07285186435145362	0.06376058122312087	0.025876980524392162	0.11955313880867094	-0.15189697808133149	0.05045818144773903	0.06265383633369424	-0.12395622860802397	-0.15028706086823895	-0.07459421264756014	-0.0661541442515292	0.07534194635024308	-0.061453878369109496	-0.0856348518281204	-0.061163373669455914	0.11186323341542118	0.0013043374376952134	-0.01792510253569118	-0.011000549870105148	0.12920603343265227	-0.07491717266032419	0.1315508290940104	0.021049629892150364	-0.016041938197534772	0.25009004979342814	-0.10556394897985964	-0.03536857595670061	-0.12324312391640002	0.09524619705361695	0.1689188933651679	0.1669922781404639	0.12239487531460047	-0.019762046779596563	-0.03652409774898465	-0.16711697724940652	0.20358735351817928	0.04689780781484677	-0.04919569048694831	0.13280568889869676
-0.09727645167600009	0.04066220342226741	-0.017262913429083468	0.0638677139880301	-0.006357353918612147	-0.14509278911112242	0.007557637267003783	0.10488641418753622	-0.0029216405853985244	0.07751151215890861	-0.10455294856740532	-0.002626079326985214	-0.062451045508857744	0.07469808401047098	0.0031491562261995775	0.06900736763366126	0.10877104261578661	0.06916185751213884	0.02731184342936442	-0.09982122585114053	-0.0002786110666901238	-0.053309040201583315	-0.03440639567042266	-0.03745341507502509	-0.09799255747822445	-0.195733858913399	-0.06681430483277669	0.01933794519241591	-0.13481770454274902	0.0015682236471624344	0.19002684243109647	0.10230565552522393	0.16435415091205294	0.03911278769327262	0.11675098229864461	-0.07239647304677875	-0.06443402670219843	-0.2739140206137473	0.1186145474042299	0.15403239798198862	-0.055317724534727	-0.02539517063972351	-0.07538621136909615	0.03826535514774916	0.11249325453032409	-0.1742771973881041	0.04094385306422523	-0.027667177171914543	0.011339439196668936	0.0458994001674291
-0.018820243877282115	-0.010358685340578062	-0.02138751675546389	0.09703162017882815	0.04187599601274966	0.022058353773736078	-0.12709517210922827	-0.03785797432131542	0.08986691603391743	0.0037696573123922905	0.06595314695891384	0.17665118003276337	0.10386060692088167	0.009315833769974234	-0.05109891701957271	-0.25535495960558985	-0.016838492247285255	-0.032601249581684914	0.03903661943953757	-0.01539052269746876	-0.032038505943679435	-0.17793989305072208	-0.09399678291500665	0.047665104080055753	0.17159076311326946	-0.009752538374562345	0.03278110735741233	0.09524781569528054	-0.08108939362002499	0.03668140432854423	-0.07404901063321585	0.08648244384910114	0.015140304795173263	0.029845181398143978	-0.07825985974185891	0.0707032359610785	0.20847129212310161	-0.10079116954282062	-0.03397590076475238	0.023160747416809183	0.07864062119958165	-0.05595462852894689	-0.283303029014274	0.1359189494164025	0.07605061195841427	-0.1742947530486665	-0.060756879177955594	0.1568182429527326	0.1447796418457866	0.09386400226789447
-0.017611243395986267	0.008298741881250998	-0.013092580512612651	0.11282397832688376	-0.08758424064951102	-0.08057996548842047	0.10102745868360158	-0.004436145551156164	0.13784673554538082	-0.06715122069805457	-0.00547783603388251	-0.09224129848439533	0.0007362681423567135	-0.14785469369987989	-0.048763342095496286	-0.14362538649281179	0.06939232331912581	0.07165893397596516	-0.17302627304843451	0.1333885745500573	0.2497415126419854	0.004600638673634095	-0.06411142602246449	0.28243305910030464	-0.13189684983025107	0.002010646686909839	0.017962227263192344	0.13451476204524146	0.03597389751267884	-0.049863389578845146	-0.09511843703879562	-0.03418218202461356	-0.10069273609451442	0.004782531978468295	-0.05641961798604866	-0.14940377932897506	0.12551457883749037	-0.04976725234290394	-0.12681368049753125	-0.016825913448754153	0.006837156596765876	-0.17464667255790337	0.03316476671257628	-0.10471575686902646	0.17110288091907877	0.05239605120767348	-0.03998999901093166	-0.07451677703173505	-0.010496770756362395	0.06127907415832898
-0.002549412858519966	-0.021715880713685663	0.005837029081789565	-0.06038589312369547	-0.03432059268430377	-0.20857924389050042	0.09737262308523678	0.02987977803217619	-0.07734558440334302	0.1898734981355239	0.008701648039238655	-0.10361435719751969	0.08567374214704584	0.03980482165092625	0.03945799854842194	-0.042575560465159056	0.04504957237780347	-0.026175829022109454	0.05559414516458422	-0.1904944454010639	-0.04338734629791891	0.17221550978081948	-0.07670674554003006	-0.06038382974931866	-0.04479613384499751	-0.12148061358886433	-0.22082807762282522	-0.023058639852361285	0.013585942408165689	-0.0052505068538652175	-0.014487856194788686	0.004304087085038765	0.10228414715507642	-0.01904461859292168	-0.05740825770872696	-0.028112548488808634	0.05793467597567758	0.14120268785432497	-0.06281437391691784	0.009893378702888372	0.03383574419359597	-0.0992578006728823	0.002041716721291813	-0.14656738573420952	-0.1769050303739399	0.0366746407892257	-0.03838747413307828	0.020228040762121913	-0.0017894977008350054	-0.09764000486637975
-0.0045254301964336476	-0.12331013050148552	0.13909723580014008	-0.1355970344859964	-0.019578527096858134	-0.10422715880472484	0.057042117336079556	-0.033143137128150285	-0.05186667196212102	0.08532015450515545	0.0029430591677552186	0.05166444459359673	-0.09813259365174648	-0.14048169439275068	0.010720796204013366	-0.03188463554947312	0.06264346724539442	-0.007990845266254971	0.02050753392346299	-0.16233825299412435	0.18884369396142567	-0.01642419850320319	0.0697586970339199	-0.08360916702196265	0.030800990221734093	-0.13028447635247453	0.0452067838259671	-0.03559740843858328	0.0029190503935567448	0.06979740301300975	-0.12325403112202803	-0.0684491730612797	0.04573242810867655	0.2098221474546747	-0.013808233466148177	0.05911361179239325	-0.010697146985848007	0.19422455947562997	-0.17472216669652557	0.009462104466935801	-0.1625544033562061	-0.2506571570536717	0.029746205311781654	0.013949779614745887	-0.028483693774220137	-0.010619409003975316	0.3098299434071258	-0.02581751380314344	0.05101243612500749	-0.0649364819613881
0.029523257504060315	-0.023823367505561754	-0.04105184827297301	0.18188985322003248	0.1177184963184339	0.013674664739923069	-0.2304211935943967	-0.03610092232525697	0.2703027564405084	-0.023066166663970815	0.11032175720536581	0.1441942401952601	0.02189639158559751	-0.08418216318681523	-0.24353123317828884	0.06841632086089545	-0.08147560028235482	0.017615045188769215	-0.12498203395893642	-0.02652375404702022	0.0033719054901053245	0.026859358104429788	-0.11148221873524143	0.11969109487613523	-0.05968947847319714	-0.16744694604532454	-0.010902341996346382	0.0034375309026460094	0.01605894331717598	0.13621324036850793	-0.02364488367358594	-0.011961962436877135	-0.11031843812330935	0.0820553502887897	0.01843090640781035	-0.04200277272941626	-0.19046746934654638	0.14444121950550876	-0.12276799644560572	-0.059127800936970565	0.03583445110760033	-0.11965579286166866	-0.14935097782531434	-0.21239475827006649	0.07209969529056358	-0.0545186244726322	0.292727009247333	-0.09943550656308735	-0.09214510234289214	-0.05653929702854015
0.02431346551384891	-0.047020333878531134	0.061233221400251205	-0.09785883899886544	-0.13815917184635812	-0.17982147394091075	-0.22235741679371968	-0.05180690194750568	-0.030098031239322195	-0.06314370274831833	0.1243405797187162	0.12280302096081351	-0.03348029874445019	-0.1793921113191963	-0.05667051080550528	-0.05998213939170615	-0.0657134962278058	-0.0697718903898245	-0.06534628957248072	-0.03865416158977598	-0.06355410988155567	0.020832250862559215	0.03603687159048611	-0.09106450871824899	0.12710653260070334	-0.09800623018406142	-0.16178006138153372	0.03807780713650517	-0.08174081344143398	0.0321291470757388	-0.24036686011005304	0.13924559414830676	0.06722934080404022	-0.15004765491630018	-0.14787771238462857	0.16722659040975277	-0.07373799034979586	-0.08341848487326238	-0.2266052094149283	-0.03507782056015542	-0.022771961483575284	0.07154930967694853	-0.13990784281844756	-0.15202867922406096	0.04509626347764769	0.10067300712270649	-0.15711523511178832	0.10815140862997413	0.0037541841486821454	0.10918053390746457
-0.007022036151761658	-0.25222779174879506	-0.015196738231603888	0.106014381867127	-0.08937460190837143	-0.03879649689074522	-0.01761335035509783	-0.2899513879868482	0.16713475754374763	-0.09013756798971745	0.050573543247279897	-0.008670113614820873	0.125761905635936	0.04060561224280809	-0.023492427152097463	-0.08935150925192803	0.0797850701382139	-0.1873441303954617	0.06458904202758925	-0.10990447515548728	0.125228366195664	0.016129954266269512	0.06441237678501087	0.008198881382471938	-0.17523770951409967	-0.08607291633953384	0.06723893376113825	0.0166655817359844	0.11809899053056722	0.040327456303717174	-0.09667018907026598	-0.0796064137720634	0.010291739052323723	-0.23140440660001055	0.16734418856229852	0.04417467363775573	0.12270345970488723	-0.1580603940809169	0.12445651603552557	0.22314989110277486	-0.13208783553773176	0.07714017949037666	0.00011099446872931465	-0.15444338482482445	0.04928839718518698	0.08336032048373485	-0.06011265526688469	0.1165916520255223	-0.1666763406789198	-0.14947561464496442
0.013659739558875237	0.002538527797227172	-0.07165734884241053	0.0809594435971886	0.05308943142159494	0.0858139070934016	-0.012313643535226761	0.06025802679783409	-0.04456503030299946	0.20538186900865957	-0.08125457701219858	0.21052974294583124	0.003488794708940857	-0.13755108895687426	0.1368079350488601	0.012590138839495902	0.0851124098380238	0.12238559185425933	0.03379555541450253	-0.05922408448128146	0.09757133776692502	7.555074545955481e-05	0.0685857818608419	-0.21537305737914614	0.044698171700985195	-0.06385858251450302	0.16533096371785305	0.06230873478890952	0.02398577458492966	0.04863099933502216	-0.09984408528767183	0.1623256690528054	0.19913704184169045	0.039291351054821635	0.15904035685736387	-0.056914819867253386	-0.07971135662249808	0.004092474872892285	0.043494103836789866	-0.039398668124312045	0.05377681903684838	0.030638948207341407	-0.0998306775291055	0.05187930174517213	0.08635282425215213	0.017146931759039096	0.11526481032616925	-0.1217403793496952	0.04679504221318517	-0.11702807063967749
-0.11140813582330876	-0.063093083373779	-0.0942060183574245	-0.05479958187411378	-0.021415031071118876	0.08371544863313846	-0.03211590387057025	-0.15856257067695928	0.11400678464951604	-0.08370901336150396	-0.005872042710462873	0.04465365069407115	0.01996104184027828	0.10941795475214755	0.04790031433927589	-0.0861309579697108	0.2178562173991662	0.019433346333823324	-0.014734022662150624	0.0963925423055571	0.024945094593007224	0.03992281929393271	0.2492183998600687	-0.027512142825504668	-0.031776089401739586	0.011657851201246381	0.10715159355810387	-0.15065340301903993	-0.19655558914765053	-0.05871152706201476	-0.16339229590592874	-0.04248313475256385	0.050249969612929025	-0.08907488635522637	-0.14268265767813423	0.006933716171534797	0.08625434846151703	-0.16949734385166126	0.08202323983059842	0.08173062037383262	0.09540851021566281	0.12184802148716865	0.2202013924659616	-0.03560920486190552	0.010957158007785812	-0.04164384332480256	0.00019768447558107758	0.1532873355636312	-0.13450144839306688	-0.08610496721655755
0.13771809365045615	0.10200365069020899	-0.0363131646817078	0.08544020011207198	0.03412158424920333	0.1500274609000988	0.007450959382677262	0.10256321138725824	0.26420119104926204	0.059809915504746625	0.004932816579484363	0.07224469852209794	-0.03652808582038849	0.23879677055247323	0.01800710376959815	-0.027293332022551287	-0.08356890050200362	0.10972201916064384	0.08671874128277389	-0.04973543714140932	0.05764513451224227	-0.15085559682128566	0.018497057507315628	0.04527563520766945	0.1707329809559223	-0.07708188027286894	-0.12783526288023245	-0.08954279609250418	-0.133656850031492	0.13366573577589833	0.15486392950240369	0.03202165779488289	0.12212949456851481	0.013395838058023532	-0.009511164770076602	-0.03330376190537617	-0.03103909913775655	-0.15478015563090314	0.026425476360733908	-0.0040333910214043756	0.07453607240778758	0.009352349643860971	-0.01627037015690918	-0.08711930300076308	0.0072153236821761325	0.07382372308161621	-0.11433389910838608	0.008747375368073925	0.023304295152948393	-0.07180647836182644
-0.058785630490800024	0.023061084876621445	-0.1133421018292623	0.03499237152493925	-0.08953543736592001	0.10628536930332165	0.23378277453883	-0.08607568017018197	0.05342078623746747	-0.07267419048820194	0.10409541737977895	-0.1265258409085215	0.048058675842771265	-0.08729889668893527	-0.020698458909836875	-0.1031025275147307	0.08223504708957537	-0.08369803544395871	0.05519642593318276	-0.03440980282623329	-0.011447237179886294	0.014775590740012855	-0.07618246716588488	0.021036711354088692	0.1530334564354411	-0.07780947858327143	0.11718101432738448	0.14980976334877844	-0.0816154989028044	-0.1455054605090552	0.03019609001717647	-0.0547407522766873	0.18686032191630025	0.0034807540499832202	-0.08021994080351792	-0.11471595110117115	0.10899049590908304	-0.057118397408418654	0.004382879946042826	0.09558027451124809	-0.04842583519308302	-0.004592882874016064	-0.0016568409822520077	0.06833245115160919	0.05907443355103258	-0.022011373125482854	0.006364906149651771	-0.03717790115234884	-0.1477612406919445	0.02576008573981294
0.1892191760833068	-0.08837191406910629	-0.0773029709602703	-0.08707277716437414	0.07245917787231225	0.04484854541964401	-0.015853769241645672	-0.0918019061638965	0.00923767916399243	-0.15646221273358044	0.014342656685749322	0.08715243860879342	-0.1251199136633678	-0.15325182768296639	0.15794378916948595	-0.06117596395045849	0.1135947845943822	-0.01539976651978317	-0.016195481694132745	0.04384126994966453	-0.08839988567464407	0.013249714349564554	-0.03814894148240928	-0.13204934434050317	0.03374820747263991	-0.026330780687791617	-0.015702482844470782	-0.12101609434141579	0.1591400367762804	0.08767141863861161	0.09641558841719787	-0.0305444702441682	-0.17291828895034203	0.19529173824895107	-0.006109750800586814	-0.07487997960200538	0.04168015744831139	0.11671207880032974	-0.002305055608546619	0.12785751679393745	0.10829999385168686	-0.10763811874020585	-0.06737901056594764	0.09575371632797675	-0.2712612563810438	-0.014945569316498878	-0.1430831201624672	-0.047655380143352466	-0.029882008902920417	-0.0358244377907508
-0.05522612521126086	-0.10971436496288141	0.2291911266818686	0.1867462004161351	-0.11620658202562831	0.15821167513035672	-0.03994654904728529	0.012918747333171048	-0.006327395989691587	-0.06597486412539659	0.09838523436061468	0.01258865305766578	-0.04765514232192414	-0.13045894438004726	-0.08935950137191205	-0.16413801156020968	0.0012223548415169466	-0.11966655922843959	-0.026556051251854125	0.1370101853610371	0.11992995729215856	-0.0032276894102617813	-0.008708472614314993	0.1879874549421008	0.052075612035871126	-0.03278064598765229	-0.1426018117120452	0.03938732181647433	0.08293237725828624	-0.06316515245136439	0.02912027551380325	-0.03635732949150291	-0.018403239919900272	-0.24878220575623314	-0.02217814037161355	0.09693693024080544	-0.06314025555665582	0.005252636821531626	-0.07559507066919205	0.03604416762927729	-0.021652319753617363	-0.09392415406820069	0.1332551467665128	0.09289320135322152	-0.06049067639281748	0.04977883094177774	0.053741200282038076	0.0642301235011176	-0.1694255895995078	0.1006606541032628
-0.056969896292573145	-0.03578279334412669	0.26378817522602	0.03018733807210118	-0.03863224754471756	-0.2205294372755906	0.13897641339463557	-0.13452096708086025	-0.10034389034995035	-0.03313522990878492	0.14164117917002925	0.07732399866657592	-0.015783750984025995	0.030829206363882103	-0.06003856928711058	0.013965368956535083	0.007333674477813668	0.09687698956813534	0.09671781224389496	0.04939773822056448	-0.03623475575461023	0.07418222943901266	-0.009196846620304662	-0.1081914368713133	-0.04032877919109387	0.008452698378432454	0.09102157836647454	-0.018352817215715307	-0.12091987112396062	0.005674168329681942	0.011345604005655239	0.018583762890275305	0.09198715159544302	0.10189232400898984	-0.059421087238166664	-0.06161434580489435	-0.10401987109554732	0.06988156702804764	0.14488201083377156	-0.03150819279089234	-0.024143056472499314	0.14667825568989762	0.05055578532150077	0.04362357048010551	-0.11909165059737269	0.0678728069279419	-0.09291363405097583	-0.11340201859349582	-0.03467715767667122	-0.05857927234486902
-0.022159969438503933	-0.14409816345249188	0.09588163064676725	0.1127686294516429	-0.19473424741408144	0.09784578056665502	-0.08105286298216263	0.08569755369827861	-0.006844649266641564	0.002877556408099859	-0.01850976494212187	0.12121292042334862	-0.12395880125250283	0.060784033873500856	0.11013301648895504	0.07163400805404106	0.23246989143234176	-0.05289467627246989	0.09573048225935313	-0.010609063534142033	0.12334060763526696	-0.0007688995721369475	-0.03878757818624696	0.1306072203871629	-0.049156193901893006	-0.14127257589005562	-0.051684688317382856	0.06190329465885325	0.13920387515870913	0.011112937529651212	0.13181970672340254	-0.13581749214775937	-0.04432634648179029	-0.02885751171541012	-0.011455942747251965	0.008409438825019652	0.06909109573921927	-0.04448068381704903	0.01390286869531256	-0.004512289032405165	-0.092588990389115	-0.01136666890814354	-0.014365952989711814	-0.01650805650030461	0.003175945658145075	0.007567354061338613	-0.043229517910733026	0.1272714733971265	-0.11694806292030167	-0.07209701084698963
0.2779963624223556	-0.103799135498923	-0.13537546747097587	0.07344767450012178	-0.20771198537738741	-0.023527390997243894	0.21458249250764885	-0.15449359221534006	-0.19819644857387134	-0.14991812019576983	0.08983595683469857	0.11247767199858126	-0.05125887969785088	0.06832124040010688	0.13902553275119897	0.17873464144298257	-0.024633528117984818	-0.2301471717669987	-0.08208789224096869	-0.042680419493525766	-0.02589387965783906	-0.01878594010087195	0.11188945979306693	0.12744284266875813	-0.017167365392478335	0.10984848760518187	0.03576613666310894	0.006450597286257172	0.09065441571099639	0.007225204823791582	0.20578111770977625	-0.14384111667945593	-0.05151708990920178	-0.012651889695395031	0.04394526904579906	0.1267960487103089	-0.002439856723615665	-0.14222296495062073	0.08425138964550044	0.07549587661419645	-0.19418586593794063	-0.00038041336707993835	-0.1590141830680298	-0.06646510975020625	-0.09028089269627998	0.08092646982419859	0.01168301741721838	-0.12855910007560276	0.08800659629573424	-0.14338058239284143
0.033011379047094364	-0.08140106692915558	-0.03656770825305199	0.0504270748038384	0.052144939905952904	0.13369690735559603	-0.008225369967145317	0.03064508629633407	-0.04377373224043246	0.018198988262279763	0.04394860480085117	-0.009830984745437601	-0.18037504840924964	0.03314708963308954	0.0364561477355457	-0.0680173476347951	-0.12843870360725143	0.14758791505039656	0.04914455108944021	-0.02290810309217097	-0.11370328831474874	-0.0821814828421346	0.13025903967862315	0.01376619408680461	-0.05505870670007066	0.05096892312246562	-0.08143981874463238	0.15008430302803785	0.1352800534896725	-0.04665740712027766	-0.06286702470308604	-0.261813319869228	-0.14815807715513682	-0.13394697749577564	0.01351903409873859	-0.032623370444135956	-0.13453354874152415	-0.02811640424645573	0.05053371476473485	0.052783934991558715	-0.18996702808588814	-0.012826348048383084	-0.13833407769716105	0.0901728697140274	0.07841464163534985	-0.08980272263244585	-0.07660452024004	-0.04612670504983073	-0.22527933947313394	0.033596817344057665
-0.027284454634013074	0.09701750825678591	-0.10984092179625526	-0.061912294824993164	-0.15065252580391153	-0.10042905634942532	-0.1181981996068219	0.09959736788464457	-0.06982618487513924	0.012417568474461346	-0.03807634038618044	-0.1269465266012813	-0.01683004231716427	0.059910333186359466	-0.12077593925433523	0.08091127907313789	-0.08497209214776963	-0.04829839260728408	0.05306831230100478	-0.0663436157219488	0.003757485933586561	-0.03146908287880925	0.012936800670381852	-0.23807391055234972	-0.1829681815208083	0.06159670060468382	0.10371814056490503	-0.09104867035315213	-0.024402835217113436	0.029471925290230155	0.06932176016587042	-0.20276772716708488	-0.08860402469783772	-0.033257937984987496	0.07031401972360493	0.2498430483721495	-0.022800572680971787	-0.14069774621039888	0.040226807720129806	0.132099578954071	0.010801412097950092	-0.09066485451542929	0.09579939414800191	0.0663545618498435	-0.10260808441956244	0.038142561753434195	0.09972655676588726	0.11818900425588937	-0.006644897530945597	-0.03580794461793189
0.12272738220812628	-0.12101605029808851	0.04385792909210054	-0.13700266273644293	0.10653762722596027	-0.025804551561116152	0.12685832356474694	0.049141275635552706	-0.12232202300619299	0.14246277320772435	0.15512452664277296	0.08822864925992158	-0.076158786503622	-0.030601395435740888	0.01454272174057594	-0.07037103993314334	0.16923465724632047	0.014432647172603683	-0.27033480471073573	0.03393558127562204	-0.034815739681731316	-0.007492655611844788	-0.03686193657856996	0.08070464166066874	0.11196877785533813	0.028305316225865376	-0.033931118713815905	-0.004133720480917025	0.0019599616577628295	-0.0802430039864837	0.057892864857123486	0.04600423238604662	0.15404412397766734	0.1255349780288475	-0.06856749175901303	0.08202983745089648	-0.09509533830944716	0.06959321009408496	-0.051661419876010785	-0.10232532233755845	0.028004534269740446	-0.2674567128154141	-0.1750975574405228	-0.01774918837742832	0.008244176663484246	-0.03693187701581889	-0.1579436298717599	-0.08178918421385056	0.03912093272373939	0.05817817706283626
-0.0016223117595941241	0.11568337810369889	0.03973970234592343	-0.07474556539582122	-0.02805020534116174	-0.14028661572078546	-0.010813899039141676	0.11121006192213385	0.06852900847109679	0.14020093259191221	-0.030288524379899314	0.13460997945142578	-0.01933042264479699	0.1471585082569894	-0.0021856747442123682	0.07072313738042767	0.14751123643098557	-0.01934276285812056	0.02183889875441742	0.12888634252063022	-0.01330031639300636	-0.13208922825061611	0.214300705458491	-0.04697644643371368	0.015875605093754283	0.11560066694511272	-0.060849390373120184	-0.10078679132221302	0.025373729677483317	-0.17930763979123898	-0.028790607686792025	0.024503866431540594	-0.026995189682516414	-0.1543450943185747	0.15941779562040123	0.010353815394917538	0.14311521177617412	-0.026003625018044475	-0.0880011981690764	0.02691809202551599	-0.02157871263282196	-0.11777614579913581	0.14697842587874957	-0.06222702228939961	-0.18402663847955686	0.13281660539573328	-0.050429801581262326	-0.06078238926156243	-0.1765387587029974	0.17409414865969908
-0.12894805872096876	0.00584494807056499	0.09126203225404406	0.042171693300309704	-0.0059654311992191605	-0.17016658582874164	-0.0809724835767284	0.018780033804252205	-0.07871740699869964	0.020335945999876773	0.06817434088151418	0.09625028858001017	-0.12261793578126834	0.21966460549789543	0.07674793445541306	-0.00017141536690639574	0.10895365830766407	0.23654077719999736	-0.14387201010568695	-0.022526264249135362	-0.23784316598733285	0.01926515326480247	0.036539424192514075	-0.003916211544275943	-0.065453357099831	-0.20495145161883255	0.03735336834117687	0.14554344839153252	-0.059101845573343206	0.0440059929023145	-0.15681443134200507	0.04572130636925139	-0.03933822977446571	-0.07624179506029144	-0.07603636412161306	-0.039361158203300994	0.038243331569253546	-0.13121632011955178	-0.039711533156785286	-0.004147177799914767	-0.10990392245318592	0.17966652016750173	-0.08534954800613416	-0.06694369136334904	-0.0978307949822498	0.17984800871381176	0.055290522859948156	-0.09365920062436422	0.11062315588599687	0.020069869428887832
0.02572534211115017	-0.03444772087524527	-0.07494159869569733	0.033776609905460137	-0.054508722999559035	0.18167556295751047	-0.1269291105243104	0.15361567728549452	-0.01113188487978007	0.02990857340211059	0.08331577666294347	-0.06302492950044362	0.08642483846986365	-0.27075438553811776	-0.07199895332219391	-0.09240628073410655	-0.12535060123717617	-0.021495483807895115	0.038574996818169484	0.07026599984993058	0.024087675720040762	-0.06656934648935468	0.036901643782516716	0.012428569485085071	0.09360561679360163	0.07769367029315166	0.003047641392062887	-0.08972530061612569	-0.06529501558320809	-0.054978935963803335	-0.03152663339162558	0.026805042758975328	0.07151743901280584	-0.005111869301537766	0.0016124787900472439	0.014330630500000371	-0.051590531313234	-0.09253922576429562	-0.175543789731071	-0.06951493580768724	0.0473145453267787	-0.07029114380395675	-0.023780703742593973	0.04664312874123169	0.052068949642266875	-0.10795328521660391	0.09970593564536415	0.11273500893554854	-0.11298498572185599	-0.08238368696411541
0.11910906831461916	-0.014685352125530089	-0.2219777947451851	-0.13996815047326863	-0.024936962517248126	-0.1163042650284602	-0.04134237706364414	0.003239621368357873	0.1462254604034729	-0.029045391622778905	0.10725417995727589	0.14287601620367704	0.1434309669352076	0.028475459338556827	-0.19632891478389744	0.04608248654038653	0.1048399887813541	-0.008106710543541713	0.17445838700752486	0.08598335614674578	0.056827337715278425	0.1086380711205838	0.03333698512608781	-0.24928104993953537	-0.04991389514703656	0.11971680272478535	-0.0807591340098296	-0.022347250523693917	-0.10448363139030713	0.1783922595201769	0.16814924574180157	-0.08838688951407293	0.0147298000389084	-0.06804940477640477	0.061494463903137814	0.0509683077242329	0.08117055716132655	0.03319184477078873	0.29354062063884684	-0.1027923765010739	-0.17106033544365143	-0.03930902007014615	-0.15679882655602675	-0.14924622700059928	-0.1001314654197967	-0.09221889054316275	-0.09546181019500602	0.051821895044541155	-0.05061890610853362	-0.017951457487248017
0.08942327745009349	-0.07663225247814263	-0.02645458987047222	0.03657599860929155	-0.19415678006202214	-0.23849055089505825	0.034611732879772275	0.04920142805668986	0.20642201348524108	0.015809487586680993	0.08197397172580949	-0.019547264358597383	0.029722722158508637	0.1667256841749534	-0.21239928181256357	0.041361625757168057	0.21355867300773662	0.028203421920934252	0.1650572963232848	-0.06292121495294424	-0.0032047494163713513	0.003352470238858753	-0.22175910793587708	-0.11681778278502003	-0.10968750793839861	0.08220660780325274	0.08721531056840551	0.032403644270653335	0.08241028968557058	-0.016414941272177394	0.12019316695395432	0.0008788442632071821	0.005786404742675648	-0.02655926332624114	0.06844504776364278	-0.042119881661291325	0.09764313771980682	-0.11321491407160067	-0.10989162547281939	0.06874267551265043	-0.008854421458301271	-0.045389141615312836	0.08900577324754598	-0.06072614140860845	-0.020020125430036985	0.13992279500711594	0.15391423458106504	0.1572398210270327	-0.02821257769339113	0.12307029049844703
-0.09489528277686782	-0.0906902874722061	-0.23504558526243613	0.167286820189853	-0.08639798490760783	-0.012653257974705998	-0.0910324341928284	0.06951652483301406	-0.03756336607173402	-0.13048168904329494	0.04416625641860607	-0.14337300248102286	-0.08374057253154914	-0.2106889114626081	-0.1423958112197607	0.017852916972047786	-0.19645360381029248	-0.14811457246217158	-0.00023689161328080568	-0.05436068960930526	0.1992036635959309	0.18338965460243756	-0.08679224627511536	0.05571376184034819	0.07492825568794513	-0.05974788580244034	-0.1495541536498204	-0.0012298449308057614	-0.017284567481411092	-0.043576449697061925	0.044231686816448526	-0.07507296070055988	-0.11519975475791432	0.010908297034983187	0.03859700925688759	-0.11766449439000531	0.09280906109910812	-0.17704811377760782	-0.057811345871564335	-0.0258008536197609	-0.06362237126519298	-0.05650604735511925	0.1871074482308114	-0.08508840890388987	0.2441221722471914	0.043712677973105185	0.009205513731199199	0.04762403533876659	0.25299277492519523	-0.0993593003931448
-0.11204179189363893	-0.07548661965719211	0.0032143146964560896	-0.17257711248125734	0.002233923931860801	0.1693547133413672	0.015140739062477758	-0.029268545897527695	-0.06181604486836274	0.08985117045515645	-0.08258327732380477	0.1846395920599248	0.19333597477143571	0.025675079866178757	-0.00115150880766451	0.10306598082415595	0.10947985022273253	-0.08059917310594156	-0.0526555133136702	-0.13223474346832956	0.040906493833405715	0.06666278834568908	-0.1349925637861273	-0.045519890481615914	-0.13472539175813492	-0.08987998102438377	0.055101706022629954	-0.07334820666782794	-0.03008259560322987	-0.16273117279473157	0.01869902097246643	-0.004427331984464883	-0.07289592500331622	-0.018901429768247418	0.01802948805034444	-0.08148681489093441	-0.14762625440017793	0.18055744326868153	-0.06332727047102726	-0.009676010318688933	0.10108397350203135	0.35290551875704845	-0.12444864498888658	0.044982721372651	-0.07075522852941063	-0.05387903045767109	-0.072021202100679	-0.1125654967800585	-0.004129136178466144	-0.14745026870482356
0.09468075665118705	0.005500293603337463	0.04224349729014398	-0.046618861194622295	-0.03672039342117483	0.028756390516732813	-0.11640506324058256	-0.03579904344133358	-0.08596135138784541	-0.08905688105910144	-0.21098382406256416	0.13393265894799997	-0.0686538753153769	0.11633760551635502	0.10687923213942924	-0.12859997065164938	-0.10884112356728458	0.2560502959355684	0.17509259419271436	-0.0031518513328104153	0.025737310641734942	-0.06308464029471887	0.043235271420034	-0.07171819007224715	-0.20323537642983847	-0.1321555786511051	0.0021092747850587246	-0.11310672355025878	-0.006727746491353454	-0.10746610394328632	-0.07823539225019936	0.08531653064131918	0.024748054764010468	-0.0009664421313347188	0.08789639730706512	0.04806085933473474	0.14465632912513676	-0.04598592623151402	-0.04296349785275087	-0.13011092663913454	-0.04289807173724197	0.09647698943024458	0.1299987372262134	0.09603051680866681	-0.17941918665494364	0.10831452126607344	-0.18385186232720707	0.08981173241223475	-0.03677845265710552	0.07025333139338556
-0.1332448347894566	0.11711676327061467	-0.1464974746104889	-0.06684549108531777	-0.09980946277690353	-0.1754284852822499	0.009452756758846837	0.18060891178369615	0.2666905222320009	0.009715578708624778	0.11166812750675224	0.023209463792853723	0.04988831947682128	-0.03421486511272389	0.019507692542260216	0.05374787046064286	-0.057845972887633136	-0.007749429989298793	-0.0058430118997488244	0.08264033173305246	-0.10660321716276806	-0.0051542208607651555	0.19120054690526977	0.11640601525859376	0.13491790488887054	0.002443184017803416	0.032099756368602315	0.10022361667029255	0.1560255529530931	-0.19516029128828868	-0.13154413070498458	0.13094441014026478	-0.02768893557688036	-0.06717207892580773	-0.12541609869956039	-0.055501670154410945	-0.1402369283423825	0.20910942727324772	-0.002243605198057349	-0.005795054176271758	0.05880766751678318	0.09623451692665697	0.09458881565546394	0.10736219439075717	-0.06308455507908564	-0.029786680495686127	0.07690316554422755	-0.052738906163962	-0.0005106632027225023	0.03987637644248143
0.07851850823103762	-0.17776809623702014	0.07147456498889451	-0.023372405785172547	0.0707457710864381	0.07769316923548288	0.16079150611191576	0.1353453647621203	0.1346571662610296	0.14436703191662384	0.029137898481594593	0.00321850870368397	0.08728170831783344	0.07320809514330225	-0.030906623673826017	0.040482340880826806	-0.003509646678459442	-0.08539329084600561	0.129046074137635	0.005519924253008922	0.20487082576988508	-0.16254922701998328	-0.05567787728433663	0.003263883669087142	0.1137381097628914	0.03994693726021851	0.031047275418075143	-0.11272637925541472	-0.11569413972294713	0.032250466028990475	-0.13641059938183583	-0.05318777502893286	0.050091732908585755	-0.0982324272276776	0.16053559623618066	0.12239363442378902	-0.15714199983383004	-0.09323712431819872	-0.228577724449495	-0.07825913625481333	0.07663884765723994	-0.041389494227485696	0.04607972436159675	-0.15223343182817442	0.07979752545819054	-0.05551092279283498	0.0012169682282905199	-0.009287450139305273	-0.1271548520892284	-0.11530843317397824
0.09677944690034261	0.03989921575016956	0.10500490415534268	0.032465823550251835	0.014299063480921649	-0.17260106186667667	-0.027036669676116978	-0.002738432040374402	0.19531071982725742	0.06869566320986774	0.15360611817095285	0.05975377058947282	-0.07113032269494794	0.011712421614985135	0.023622364626423305	-0.09391555697706817	-0.03843873765929212	-0.0205766993677172	0.16056198325651183	-0.20807405253909783	0.12058184207160433	-0.09367952349593828	-0.13720791872696142	0.11799421300384641	0.07318980692343811	0.125451870238119	0.08007019475455768	0.2059845001737402	0.05587238369444854	-0.01564773761231585	0.03429263773213426	0.12434691283459637	-0.07793753252601171	-0.06518885825313808	-0.03089600145979074	-0.21045827987653323	0.013807840841754685	-0.18861287039510263	0.005305931293261904	0.08652897561352499	-0.04768764606438357	0.1677115870186871	-0.1460500899418488	0.11912606816318326	0.06751370564069208	-0.1716033248310689	0.27107942990405326	-0.006374528550396618	-0.08774840221556318	-0.1407087194784017
-0.022001802765967405	-0.012740687238995975	0.010264552853966442	-0.02977961562239602	0.06332253101150935	-0.03876298326632464	-0.1934964117240471	-0.014936149564964122	-0.23674776533732783	0.03537706308913895	-0.09793002302826354	0.01633603549158005	0.13140749815246042	-0.09487486952680002	0.1061256258512118	-0.04333895666861532	0.17531948020655855	-0.036515261319821336	-0.08404929855066914	0.06872384503952884	-0.0435789729623636	-0.08414495141290085	-0.04778398507037912	-0.004460653218300141	0.13421801312448542	-0.19340877454595773	0.0023080658950420676	0.0624903594654043	0.01934485749917961	0.13098651694335342	-0.007434532975852426	-0.018455144218594517	0.05923295470133433	0.009931381495134964	-0.03904087382804711	0.05161440395863797	-0.06525282932166453	-0.06111771520193271	-0.052799402176561365	0.13530691601664074	-0.32210163559857136	0.03955988347629424	0.003427181420022223	-0.16808704592381205	0.030972677913600224	0.0475751991831532	0.058963923135740004	-0.2651828063044949	0.13663894118544384	-0.07377367046848408
0.06865677467531761	0.0741073780682286	-0.0876697085619293	0.06604599523515503	-0.03854932409123582	-0.20713771793381575	0.1167741925527779	-0.07750449630162398	-0.08544934627380543	-0.04030658680367222	0.02722367253273881	-0.005727041082210227	0.054806692470717046	-0.1339489366528659	-0.07423863704307347	-0.011599707232153356	0.18978872926587056	-0.011381253841375807	0.10852222636616315	0.003855516878431771	-0.04836586374375685	-0.024672442411444055	-0.016841971202888117	0.06036457389607386	0.13746112675765546	0.03596808476863211	0.11870776787417554	-0.09647897376296856	-0.04146305088140306	-0.07243025342076669	0.031444459087485256	-0.03589583851794138	0.07297729370341954	-0.09310017116324415	0.004303097332128144	0.06868579110122562	-0.20653027750406106	0.21216313073302034	-0.028315188487987572	-0.20250399136761732	0.015809389857678602	0.003344346797315094	-0.0081894379572493	0.09911911129266664	0.07474449714270559	0.02978761910238452	0.04501556339466477	-0.010435844943808654	0.17754908492400484	-0.14791960183577665
0.01396516742158966	0.006502463118878012	0.0813280406064593	-0.08438538774248994	-0.17436726023965363	0.01568230160981932	0.028123049221860416	0.14895994094476492	-0.12703620463250861	0.11546937667167201	0.23674143640271217	-0.03777648875224771	-0.1290942219493224	-0.04069743663733712	0.0014004967371380734	0.05637878750069147	-0.059139472983804744	0.1555198534147342	-0.11145323150080617	-0.17392051521728003	0.11067104242873174	-0.22746210312061999	-0.020412976887271617	0.31176811292080475	-0.00120435529599315	-0.11207676506962497	-0.005739746378679375	-0.005080078861953355	0.016064994035311652	0.06622629821596197	-0.10391111683677393	0.16875480552367939	0.024511428437261784	0.07267940464018038	-0.06281493997556425	0.12863821369955336	-0.02570524088130647	0.027755251349353173	-0.09331060771871093	-0.09969316264021269	0.06882053064528827	-0.044360683020738596	-0.08538230875043772	-0.06431833420270304	0.06989530717174212	-0.0629037861203611	-0.011765493160216408	0.0015027750287097009	-0.1917348886010299	-0.14711264053735182
0.033627788924756256	-0.07370293611526972	0.10567249112804185	0.09668071042505444	0.07191686663554372	0.18197717873125976	-0.008308932774318312	0.0648881925903839	-0.05844009765960311	0.24523699128687237	0.19836336524360196	0.001188043451779194	0.038658622990519226	0.13592975993648057	-0.014713950481410696	-0.06566240707997048	0.08739897510068825	0.00784392460836701	0.01829944496452604	-0.08342713430679655	-0.17176721483633964	0.02361424098791011	0.09049620414941999	-0.022580674907604185	0.1436429519558867	-0.07039163254155445	-0.105470445496592	-0.006723030719613126	-0.008259257535129046	0.07699687313352227	-0.07749628240639848	0.13680942368148982	0.1966916962508254	-0.0039144026968341876	0.12497104201843186	-0.10564970706252602	0.1075221541181916	0.10472764085594627	0.08634372801898788	-0.001556308887029398	-0.29542489412420314	-0.06417271436521294	-0.06259160176846021	-0.09782549380604774	0.012224300454706622	-0.04189634455212347	-0.0824612009765022	-0.10588001482478199	-0.07155129854852287	0.11214992118499284
-0.06610250546274941	-0.05149387064332725	-0.045669761502324636	0.03389935138094197	0.045624948852853286	-0.30446565392431624	0.10216352138276082	0.1436368034243754	-0.10501865373616695	-0.09722982447348348	-0.04502533877782715	-0.07560040194566048	0.02239268739466064	-0.19465252863588645	-0.11179276080367398	0.15391972001749077	-0.09282199673480179	0.12434282781029249	0.035533819559013684	-0.18092677145882582	0.06353291952162063	-0.011766730219285336	-0.04554670562497405	0.024495709317200395	0.04746334855667922	0.07075918219746195	0.11782528475480024	0.04081359127783564	-0.1375634088786362	-0.04736454576511911	0.29430483352686215	0.07244910603817277	0.2369287300811497	0.13954340821991854	0.024180207155574857	0.030140706978111744	-0.0036580039876845795	-0.17378046158464996	0.001804725246822428	0.12106745525421972	-0.05996399948212037	0.041195299906180954	0.08515910458931975	-0.09096804393124755	-0.045130286434366465	-0.10179114904771591	-0.08221656066894069	-0.12876052836530613	-0.09004484613780268	0.14194556807978392
-0.09154770290902925	0.012645921906069005	-0.050286875367095585	0.1178865937036939	0.13111622966036166	0.08640699821389469	0.030613455310275536	-0.02310595368408986	-0.11918747041912499	0.19435288811221973	-0.07596730177525535	0.06636463470328414	0.10595655726233973	-0.055528049690532946	0.10380125273159622	0.07642132033388555	0.17279638353817653	-0.04693464664267112	-0.1285864017279715	-0.05054897554445112	0.020885354253433172	0.005821272708505647	-0.03934378962745505	-0.1909197458977243	0.047048299612910655	0.19723444790822	0.04642512381230036	0.06091355190535136	0.057244530615510186	0.03970466698823999	0.09316659668680949	0.03953736811856659	-0.0312677169653276	-0.07959889100087542	-0.024897365528067525	0.0314129496450666	-0.03160829611229734	0.03143386831314305	0.04391501337004176	0.08331794312701818	0.12827949688389803	0.007800741847885751	-0.13077765651476608	-0.034510409681919006	0.004406256740659936	-0.18357687561770902	0.13886645201024822	0.014237791251046628	0.038135283458028496	0.13655264625262659
-0.06301428301423469	0.05740419308840301	-0.010986412310193568	-0.01840868670159194	-0.07721923878043793	0.16656032136865273	-0.03755000400755709	0.06994642468957021	-0.18750073874719364	0.11799885296897866	0.10522111559570586	0.009743411029730304	-0.022694246613792435	0.04000000056135664	0.22887906608802894	-0.17632366989034853	0.07820273875741277	-0.09116173021539026	-0.0019918396299731206	-0.024788011907866305	-0.04283182577977557	-0.001046512905272934	-0.11341711452777906	0.10291804361279672	-0.17941435111986004	0.05397645128283421	-0.032653585253457115	-0.11709248938074537	0.02023833705986952	-0.1556951086706478	0.0039713821719634685	-0.14228769078115544	0.04612720843178312	-0.09243573336303756	-0.04509940170293095	0.029394938794316223	-0.0772542111842236	-0.005796399966830253	-0.15138305012448539	0.06308756035961556	0.17649138055507715	0.27922088679099616	0.009116814666643918	0.07882041407971868	-0.17806256729074893	0.1502734326305588	0.07762285047241062	-0.04839334449512331	0.12371808002890093	-0.02544760766453415
-0.04580251830145565	0.047533492542749134	-0.10633544998303186	0.10216247643999482	-0.10559898119268435	-0.10500547898231863	-0.09096897884083344	0.07595000375161222	-0.061677536151970774	-0.1347995784367169	-0.060567999993579806	-0.003204237068048687	-0.11809724836643856	-0.11516811090343436	0.21112963340995844	-0.0860565403813887	-0.032304236877300684	-0.03672370007992858	-0.04213568077704419	0.06213467399691023	0.09481429504720496	-0.030595443153159207	-0.1236478286592349	0.12744402278489034	-0.009534109119668262	0.17303218148571686	-0.2245585897565163	0.019540322128332028	0.1918606333876208	-0.03532641354381582	-0.022549342333463607	0.029551169159033875	-0.05587958188849573	-0.03120719320527329	-0.03378150941914031	-0.06274207344263732	0.12288565502005595	0.046107803229643515	0.025062823210330206	0.08085710068901168	-0.026435583320346692	-0.07742038183529006	-0.06026243046145574	0.00017830411046089022	-0.1059211708372902	-0.050026101658667554	-0.05161166418714347	0.21245562298290138	-0.2773814939933917	-0.017961972140563328
0.1725693792814771	0.012184446413245398	0.07534174734210929	0.009982631509976792	-0.06673333812164804	-0.22419159345089132	0.020545568703630286	-0.07756066046023913	-0.08003354061653038	-0.04989872559791119	0.17448614066234935	0.2404837542253973	0.02172079375284009	-0.04647672239117277	-0.11772264174512104	0.04685401615460691	0.17829056000651441	-0.024734038702515677	-0.23789960407532243	0.06700496718155238	0.09853997114500496	-0.15858456403858476	0.01764841836629528	0.04512260161360988	-0.0073107302008938516	-0.07907709190853537	0.10159372235635562	-0.04033797459686826	-0.14851861626999321	-0.20494744856696812	0.12608495199993097	0.06166639764711183	0.008797354712916896	-0.044027463685080356	-0.052899841420312704	-0.10757366484416114	-0.04314556445598849	-0.21200872151201744	-0.07360636534685143	-0.031093751635109385	0.060988004719041894	-0.0039926463373363775	0.07949231138755591	0.13491351051134295	0.10581700938241018	0.04705098473785568	0.0011862679180784205	-0.09807880084135592	0.07399440513793164	0.16797473822215292
0.03421060396504182	0.1917259148426123	-0.1525571708061084	-0.11541633847795414	0.08552015077482626	0.026429021015325106	0.13137821765718077	-0.001547164072673958	-0.0867975422528332	-0.02135932422050425	-0.15326839709237342	-0.11285906730970346	0.09724439979180102	0.087278741446961	0.03630042848060769	-0.17210775209604695	-0.03584035755128886	-0.12249998886600506	0.11765332537877654	-0.05837221335626013	-0.10857477107815494	0.002979616512142444	-0.06401544568346118	0.1483743910203707	-0.07348108975341909	-0.13992282592246313	-0.21529135157575158	-0.0030786502413415197	-0.056193011385792635	-0.1428904606511727	0.11892264612557853	0.06672451474292419	-0.0028217878937229776	0.13643262441708667	0.0662536033398613	-0.08228559015184324	-0.10392201639907661	0.08179815444538614	0.0396366956467351	0.01697477679706617	-0.08464978028689074	0.060794756700575395	-0.07554988831339493	-0.010198665459367798	0.144694414638698	-0.06608342358101459	-0.1572989257072861	-0.10525471918701104	0.09942988266876233	0.02547311373802095
-0.012887737868875357	-0.05090938053115695	0.04853599075531901	-0.08491048509902235	0.030566556864259593	-0.0731254568812957	-0.0897659385275054	-0.06374874348250117	-0.03754074464839619	-0.004882983593370317	0.023545579511111435	-0.3688365291428444	-0.08076505577467649	-0.03915699773560393	0.15050620386083302	-0.10800026083821322	0.016279661809991252	0.14950303097358375	-0.1312968529947273	0.03939752258644024	-0.08022718339345204	-0.050463374228923455	-0.08031108339533145	-0.0731857308415886	0.2721912147906493	0.08444558720716658	0.1101737861786209	0.04919934868364961	-0.16062567884019582	0.03949579703233072	0.10729296145073466	-0.08533994740391115	0.09653266671611266	0.07043362098540788	0.185204004481367	-0.041778301251361886	-0.10976109822757268	-0.03616281093725456	0.14355709931636235	-0.18284058808419631	-0.20683757154310323	0.008939527893161327	-0.04425892927741562	0.0007727893175684644	0.09453117712358652	-0.055256934611885244	-0.18730058309306208	0.20444815571999442	-0.09972282874387761	-0.10590371220120975
0.11037200137225965	-0.0384489121041518	-0.006338985203481078	0.0482790124060318	0.10835831031099957	-0.0333460693181772	0.15199520059142993	-0.21357998487348057	0.07597872369530773	-0.08395275580176574	0.13722713166079914	0.014204447883054526	-0.06729053320094017	0.06628410930216326	0.08931883472072516	0.06418941228586382	-0.10296962396330606	-0.04840171236220848	-0.00040728371214350257	-0.00412596526500604	0.07497454754383477	-0.20149012325066085	0.03343270545535034	-0.028998135443663992	-0.08385006163839523	-0.07424867777695997	-0.021453766451796363	-0.3601085104459518	-0.070128957079155	-0.08758148246462934	0.053278320932262424	-0.08055266825105206	-0.02151138001704899	0.1542276627661302	0.09943515198154235	0.09022713999434527	-0.04998724304108518	0.05430322792896524	-0.023389780045359396	-0.01960932106769379	0.040968534374654975	-0.05969935884209324	0.14930031044432035	-0.016013013959793716	0.0618360566259665	0.14556004792572982	0.10316537745751751	-0.14089191026905246	0.04448958950098843	0.0850719394460647
0.08918630221607488	-0.11132948341146312	-0.0657035237017324	0.09945582357416216	-0.07617603706826458	-0.029969605666431427	0.15758758095019695	-0.004779925038478981	-0.07267741378338431	-0.08776173568629052	0.033271932958518796	-0.1333148008477209	-0.024733596389641815	0.03332305349900218	0.12991498205476676	0.06675480803699957	-0.07140651179821787	0.11784193175637202	-0.029951503754747755	-0.1235703022049409	-0.01720413592654725	0.1438169201145702	0.01652400500649252	0.0012521864329786338	0.16372116447028534	-0.1431354847054427	-0.12855991140527723	-0.16158464709668321	0.03726481864800551	0.016649312711512453	0.15427363672797761	0.024347507713677025	-0.04041571594793028	0.00017948728781070852	0.011770741846095811	-0.16717612733281673	0.2710331644334893	0.05198710181019115	0.021000830802258907	0.061516398427858034	0.0709410980586605	-0.01405534855024317	-0.06312411362407006	0.0599450686321704	0.038571084053145244	-0.08098900990894081	0.1419035611367264	0.029335203632298336	0.07298193622676306	0.1391920887679919
0.002188882116483478	0.03169520069841154	0.08100272385061165	-0.07248610838000523	0.005405166284600094	0.01255485866511483	-0.09560585516833946	0.23176367886738786	-0.14072934434924025	-0.12981039036871578	0.13142265757035793	0.07132662507965425	-0.10259648174807778	0.06072890151016929	0.14678504449973098	-0.0030263057596985757	0.2598822900074582	-0.17240618108680356	0.06938234538591022	0.11665283362210033	0.08913439016052467	-0.020435572664564833	-0.02904414820111494	0.04441451710872574	0.08157544866520694	0.06024734362823633	0.10400578907933894	-0.10188699570667353	-0.022777097912363466	-0.09400159321237542	-0.038611277608614165	0.10152208918143053	0.010798392072522884	0.260685916314977	0.019340636718971696	0.005969188057973627	0.010618291944021628	-0.0637808692859936	-0.0057836612377593745	0.11277880271116458	0.011397066812777235	-0.07934597298834714	-0.09250846204786352	-0.045020189166584346	0.007386343441088038	0.1193586535476262	-0.1340488641366437	-0.031982627788875624	0.014431001943507885	-0.18337057676294347
-0.08335982829664064	-0.06798885397361863	-0.07959703738504983	0.01918895450216474	-0.01605596095017974	-0.05552861026010363	0.042796262655263505	0.172307471764625	0.16392565167417522	-0.19227717720623363	0.05770721838351396	-0.017802329006383844	0.01551553428653563	-0.03982830335425486	0.011758862988720226	0.015140739607201872	-0.057895175734892314	-0.08963675478251809	-0.04486956826194843	0.023425926445676558	0.05989963416842641	0.08533489773401466	-0.04941900230669127	0.028384456730273677	0.09625025919532985	0.11655948951441282	-0.005883285413152221	-0.022093172493961262	0.01911242338363922	-0.11497074728974058	-0.019360951103550808	0.07445863984731299	0.06419471294437011	-0.027026760436388905	0.02177182010871666	-0.08246503402906875	0.07034921482250249	-0.007782143613647309	-0.027595145169613818	-0.03617238360933866	-0.0062893866899858195	-0.04478776449319584	0.06581430360025634	-0.03952835480161807	0.15929640960273814	0.1465210503481381	-0.08915434898545048	0.006970426942928022	-0.0650656621336195	-0.03266475631886115
0.20024274676447973	-0.03075714171157992	0.03602260370774287	0.05413212940082784	-0.10006293724832407	-0.08550954744092049	-0.12060223714081189	-0.0885970733897777	-0.28500301093171826	0.05445824007936281	0.205419384125607	0.014782073903652696	-0.14162688593406075	-0.0642776382899948	-0.04588768450249969	-0.10175847772133757	0.08601826383951566	0.08102600443753338	-0.11554517938176596	0.0725081044447508	0.15268126635772652	0.19025582052295598	0.2865212023085963	-0.09019926494431975	0.2824220426395203	-0.03542063885087883	-0.059246545538051434	0.03270723748778453	-0.058206133409301246	0.039904414064652616	-0.13200771877373016	-0.023875260206343434	0.12855822343616793	-0.005706129143115594	0.014159578673988283	0.04752586047173116	0.11706616293176603	-0.1655224712189433	0.05845240518374348	-0.026813913924176327	0.016663789531183856	0.10599501697623764	-0.11941866514118443	-0.10126444414430896	-0.19354299597138064	-0.05491589417637765	0.13304323443788166	-0.012058718847346953	-0.1340124895654786	-0.048567874457504705
-0.1487861703490623	-0.11251861017311618	0.03888189102637133	-0.11738733263060289	0.11126343052033019	-0.0071120290830336	0.008559470394452545	-0.027837296760789405	0.07728478385437232	0.07831598877770107	0.033505435191217146	0.05647891059076481	-0.021208966992042565	0.05422030069090486	-0.03378777754738068	0.00022316221624020006	-0.027464374936629746	-0.0457218539319196	-0.06891117977217902	0.04676901038588855	0.13106059128134634	0.11711019716695595	-0.12565653359454354	0.12892030514068734	-0.031815850161792884	0.06007330151455917	-0.0906215332047211	0.014197991387400534	0.03137231828969071	-0.14846047919196528	0.06082671663441894	0.13459350078383153	-0.017464794568162793	0.1360168130828013	-0.018969349345240753	0.08495845310466173	-0.22185699659510996	0.24187777793134635	0.1495458245242957	-0.02846255042536789	-0.19720890266438182	0.02880283683054892	-0.1443925547073757	0.0444853537557488	0.04115657191642819	-0.09414031690020248	0.11209670236143776	0.08055747028061735	0.09758233372885634	0.0008857703668895379
