-0.006267909727317188	0.09551423205012383	-0.09857260463355438	0.050404651551784446	-0.053025761837244084	-0.07928728322623442	-0.010703035995455783	-0.10352423224193741	-0.05536493053471821	-0.11978778925888485	0.19647251329163895	0.0035263551971728615	-0.06997255079925856	0.021397991073422204	-0.011232804969082983	-0.0220969599533223	0.061416670004342526	0.07575077100473052	-0.05305011476105275	-0.057581824064468004	-0.027505169715164403	-0.2301921164735585	-0.15151910621985523	0.13668742674445247	0.16449677135012838	-0.024903603955637833	0.05765569630557665	0.031125015454353613	0.30788808084552377	0.11195749114345768	-0.012791759148076655	-0.09555404406004259	-0.16064463202575727	0.020346363586722312	-0.07563507452843034	-0.14222537095976742	-0.06465728842425265	-0.1081548003614395	0.1687141635072565	0.08816397569494505	-0.0007972641316617373	0.14799441388900259	0.00773683076476183	-0.08612842013282637	0.15231240772696575	0.05389100436846587	-0.10372461543264565	-0.01903386780836082	-0.08756182533847573	-0.1382799730964336
0.09261775475316414	0.19094166404701307	-0.13985675738191414	0.056296923669057086	-0.06506425691218269	-0.048712538376469605	-0.05923939242388692	-0.0863990769679816	0.004852162794482699	-0.08309501164110378	0.027045682577983884	-0.005023810944913696	-0.023894804686640975	-0.09075636620415979	-0.05767713305683328	0.07553912258257561	0.05009171876243808	-0.09775552447985511	0.009933230542922588	0.0751387123371789	-0.1669405281121372	0.054336019237993506	-0.06626237589458467	0.05705986685931594	-0.07632591565425169	-0.1804882100664519	-0.16275424378831627	0.0048084946661382	0.025972250172148187	-0.09043166251044087	0.06385924587773739	-0.166152006226896	-0.006607979864731658	-0.12110161997624568	-0.06518361078021592	0.004739867131641402	-0.08604133652839524	-0.03845555442298254	0.10062928092144406	-0.057689186952314876	0.08356921120651419	-0.11297068546576182	0.05298041779152828	0.14415686206579004	-0.24716445001272894	-0.07968952554704768	0.057707212718054006	-0.02030453860429927	0.03711458733713088	-0.06039851867158206
0.008658978747289992	-0.015567723539207948	0.11677820616598074	0.025442084330121312	0.03376026620752022	-0.04118769661224674	-0.048760622407249356	-0.043255818781962094	0.039445214237829686	-0.0420984480820263	0.028977485689641293	0.2075400798645439	0.08711247034316924	-0.03260235321678411	0.12012139221639449	-0.04080753730215514	-0.2038124535177854	-0.10080863109174042	-0.18707919210258558	-0.03515134840413087	0.00184183791895517	0.1676437312275283	0.032692737376416266	-0.021910052880886426	0.08294055811834893	-0.22111353090078853	0.023561455810856596	0.07708651938869669	-0.14785862457798415	0.11437540432069292	0.03384964074944141	-0.04152879139008013	0.06327818661062849	0.2270692857804396	0.018186625505849516	0.02482205863003361	-0.045936089954024414	-0.08498443694647918	0.08303358165442457	-0.08560838259088673	0.007156623721939247	-0.04776574467651167	0.04789798257463919	0.03336621052869483	0.10375399442578992	-0.05100163988547471	-0.026987493529337128	-0.09787637157823074	-0.04442932600761116	0.03773004930448522
0.0756988616645352	-0.09221653241776255	0.08696059201056602	0.13556378588049509	0.041343490322370086	0.1876795812558066	-0.07737891991035731	-0.1244654703311417	-0.17787202489042786	0.1496044311489183	0.06543656563540577	-0.005558467091045507	0.02799686263198203	-0.11254890472983765	0.24457519796168264	0.012922118197522751	0.01093947946048929	0.07257666238986919	0.048100923173671324	0.022388402427913137	-0.07904744554453119	0.04714683571359957	0.18820244964750338	0.13454200461549778	0.1593186626639397	-0.051121567643118516	-0.0989604820258581	-0.012578692009964816	0.0055724912288694604	0.10941915184709486	-0.16924646297148194	0.1529550319460614	-0.015800789857898942	-0.04268810699474201	-0.10121043752601676	-0.16548566718657695	0.08231705839619147	0.007331796718840389	-0.1289960899741054	-0.12950787720636162	-0.033578469929012825	0.1669021525289393	-0.02595913513636048	-0.15031429531181062	-0.024574306408594433	-0.02727235697476705	-0.26968866429415717	-0.005429486651781221	-0.023093453020867797	0.06962063648134184
0.18489560949453454	0.11265650295477575	-0.02688886905548306	-0.11065259087416704	0.25733598032498606	0.005921843401448826	0.0013929291912946203	-0.002412508711000328	0.019808476076785497	-0.014436041192394248	-0.05736620068802363	-0.054685894124039215	-0.003275327021599839	-0.0543424771133765	-0.07128457826771643	0.010643022769189684	-0.02549772174208553	0.15039929885826886	-0.2650969808393012	0.10915068519224619	0.1246085192497629	-0.20733902324081496	-0.03426875940803488	-0.03714408659957915	-0.14075116947178212	-0.07778166875908754	-0.11105758454658288	0.17522704434236228	0.09356783931474612	0.12715550949941587	0.07216720640432352	-0.11290517712172293	-0.05245202662797737	0.04893745612279181	-0.12221278088919454	0.07129984301723881	-0.024032539815813506	-0.037482080754959755	0.07109599682034916	0.044426331148603976	-0.03609661658190799	0.11593298033642481	-0.10810633275998974	0.061593560694426376	0.05931012579683838	-0.03095464393139903	0.0326133022242118	-0.1251113576385303	0.09240270192069011	-0.018490213644298904
-0.05227230205190395	0.10490092258368894	-0.07043436905427593	-0.14084612963635598	-0.15566291735239038	0.06060099513456396	-0.12804293524962831	0.1754794181984365	-0.20819294078837222	0.16964563682900383	0.02110174672026184	-0.00967131118703924	-0.05449190868089498	0.03991361143520709	-0.0037634702424848366	0.11033018820165215	0.011422764866203965	0.01503017614618776	-0.03636122122138559	-0.005694562372106746	0.03078017688920592	-0.17101683926566258	-0.1348185422105713	0.0743264094022715	0.017086543812794185	-0.018398333635267914	0.001843393306539316	0.03475817053616711	-0.053975968030936156	-0.07783047254023127	0.019584525509768157	-0.09783727776150321	0.04082527557144719	-0.17025836042378406	0.10291556373256437	0.0472597482413043	0.025602973431387566	0.09826909839455139	0.1665474444462577	0.10143700650181305	-0.18408742313316453	-0.12795769667357015	-0.06248185776956788	0.0026091050210833786	0.05176590204691231	-0.07257438131534656	0.018676676447707832	-0.07553829323533226	-0.061151780299194824	-0.14066610968482224
-0.09232332461109044	-0.13516846056163337	-0.09758732529773329	0.10536417966078396	-0.09493988888319431	0.2632382064837391	0.049331790088088925	0.018483612369487392	-0.08583577801812137	0.07003098794089914	-0.0575637826237774	0.012200981464536145	0.2560084538268795	-0.009605989972464988	0.11492733262856758	-0.07031764251258875	-0.00349884904969617	0.177080063563551	-0.06269670577877674	0.18124485579969288	0.07077519354554755	-0.056246677589426766	0.06324077390555209	0.097255444962673	0.062180996221719645	-0.15702247198904565	-0.07271371758248686	-0.024751863555150477	-0.007443342910004629	0.0620672097550678	0.017770100093325383	-0.13353443587101013	0.03801978510059632	0.061058574528382314	0.055979044793103984	0.10807807255546219	0.08339221545489041	0.04591800792284367	-0.007016571145864703	-0.16609609335159914	0.04296182191325859	0.020768768716311115	0.027157883719537347	-0.12767485758203095	-0.10810565404082624	0.10531528533329036	-0.0039555153856655045	0.06815006973726244	0.0028318376130461176	0.002975613949574519
0.09382838059759978	-0.05160447282173739	0.009612077694098338	-0.04622752887050425	-0.04344962274323156	-0.03091721234686394	0.022213377163371285	-0.04787486216634773	0.12557561255735208	-0.08946073022195039	-0.018687164416135906	-0.043973105827417494	0.1446977884353733	0.019655477651157466	0.10318445394686349	-0.1485560373036972	0.026705026586925886	0.08896307956234371	0.00822839892754242	0.10654803750653513	-0.05172884501003722	0.140934744018558	0.22988981236192504	-0.03628385604396591	-0.044550252140077184	0.1453384477117701	0.15795721457307124	-0.05228600271532683	-0.042018681709585726	-0.02817846088605072	-0.13444505110342772	-0.09186519464841983	-0.1004140766752068	-0.07677975651041286	-0.0034684887386781183	0.023421473253652077	0.1550500492814077	-0.0998354040738791	0.09843223984765838	-0.021398884422550897	-0.004946370965243295	0.06748194921666038	-0.11227220215622986	0.03824097461840506	0.01664522082130561	0.04924512640081491	0.02891686439078181	0.24553001399108942	-0.0637739984251316	-0.053099695500181766
-0.06231405264247644	-0.05554771191602547	-0.06373871273065178	0.11890165311075518	0.1420504247989855	-0.05707462937494763	-0.08323555731042287	0.04714155563864041	-0.05522230442809713	0.06329318177555109	0.02029230208512997	-0.1515744114997232	0.15475052013300616	0.17958776730955217	-0.06127886904843863	-0.03877015599359842	0.028586539072490497	0.0334456789987025	0.06585442726728305	0.20102045387663497	-0.01769472274940494	-0.07982972445384538	-0.13793192280145272	-0.07309300399419191	-0.0033126972873797097	0.17945578635177878	-0.05176112990361714	0.022378795163889853	-0.0016422896072752075	0.1188393273448084	0.2526932425873622	-0.05308687729203207	-0.04894394425182222	0.1044160877069072	0.06818914896263115	0.18467073257360336	0.0583928185325964	-0.035929209078705955	0.05906548306923093	0.11087035805829078	0.08204821811973641	0.05072740311072978	0.10666746895891539	0.11692955904456728	0.13821589910375273	0.06487098875896427	-0.016711808031685437	0.014671368643332284	0.12065089665083568	-0.08169356709872361
0.03686733088729012	-0.03933388123273607	0.0028744822934817487	0.12784518626072988	0.019109906801990335	0.004643654815614881	-0.13598561409799192	0.07462535660272207	0.06454841811410754	0.21632547233054603	-0.030777823495300085	0.021915032766393897	0.024938368371075527	0.15774532797634744	-0.00952955323869521	0.027902152577033924	0.060789650971653925	0.01866091231563581	-0.04464336145505283	0.01940899928983076	0.10736317498597721	-0.10265152994110603	0.0132969674146876	-0.07001208149391733	0.11950466289248425	-0.15231869047837748	-0.05589218472715884	0.03772118750645209	0.15655240292343406	-0.00657502610729878	-0.05551995266931984	0.18811570694405902	-0.1448013900416244	-0.2198805956620082	0.04400144500533324	-0.05020542243526112	-0.10212328171307133	0.07083564472993534	0.024380071377119884	-0.05640786307367284	-0.12803043986708945	0.08724573282801447	0.0650201177958661	-0.00991758637793829	0.18466369960476658	-0.10700847663261526	-0.1525525170924739	-0.06919080698812445	-0.004558601635549781	0.024333944932269185
-0.02412360578563299	0.03520553965142968	-0.1251539424190444	0.14437646040732596	-0.00821511783925688	0.11172958315881276	0.03427253463777041	0.045675321915378396	0.056976728023220395	0.0447708560017315	0.06427227598675439	0.13291525301324314	0.019652116970147016	0.07090037575885123	-0.008973569428722673	0.1440117215449473	-0.06763923020592698	0.18009404329108158	-0.0040157950644343415	-0.14307751021180481	0.012810441491078928	-0.06810516574748808	0.08406435489887241	-0.0652623979302391	-0.044618343321477974	-0.18895407309455312	-0.04523063192490767	-0.24238793266289568	-0.15839028234857233	0.07604146561442975	0.07858001586508323	0.04254575617849648	-0.0966976143129213	-0.004771135614197986	-0.0003602539090568405	-0.11583646891925428	0.15033983017671507	0.08773622905756714	-0.022096417382966395	0.002688583899453078	0.02083828079475525	-0.20417348684242909	-0.024717738252059696	-0.06819842479977986	-0.10016200098949156	-0.02811002928859549	0.17976865268495226	0.06408428612670099	-0.05711789897827968	0.05725827813561586
0.13993554365860023	0.09246336829127688	0.005963036992017413	-0.06469367777055739	0.069822331361359	0.03934853854217496	0.08951932200277324	0.06351718016819695	0.10495527153193351	-0.0535235211560568	0.13173940656343258	0.019759960469239966	0.20752608726252655	-0.06891878180895679	0.17359638031652494	0.01979107834626478	-0.06514180036144483	-0.04838858340543216	-0.03203473081943202	0.042416594640191645	0.05228354880354996	-0.0573700003938579	-0.0024354592260982843	0.21422703586118638	0.17275431701007116	0.04363236696740321	0.003800347816820029	0.012003132671826131	0.061351797273041665	-0.10227925651984056	-0.025737653742334513	-0.16685840738775895	0.03992231226052793	0.0647195939702741	-0.0483186462299374	0.15739867632900328	-0.12257656630023413	-0.14643748802098203	0.022445181855997205	0.10470983026121546	0.16839276914578688	-0.045888426286894005	0.10786808334312957	-0.003850846950070721	-0.017262729994081964	0.08836599374866724	0.06523228784134197	-0.15763921569842496	0.14765403497258958	0.13800913541474516
-0.06255627015095294	0.03958035334374091	0.049403018628273884	0.026067376582390712	-0.05503051538454201	-0.06716233679380516	-0.002555407099144528	0.11727290192593648	0.05436001545944324	-0.0370614332086106	0.07716987106483447	-0.28485426206300757	0.11487657003721036	-0.17397137787780997	-0.03624409414031322	-0.1119669894626144	-0.12946814757209058	0.11608267873785194	-0.04677012013118914	0.03465038817307158	-0.0046920578879184075	0.04770408272231215	0.007682189106025536	-0.12829922241885697	0.09962668194471401	-0.04937565831613125	-0.15565818986597513	-0.04281151609659126	0.1500759790634311	0.08502217421134929	-0.03486521344078592	-0.03492577043184288	-0.03216350512173826	0.2076747983560841	0.03819354522315534	0.043004164719106966	0.10302834540318423	0.023878915902651354	-0.025904214582070314	-0.019634984908497827	-0.007160125941406395	-0.003722223650984159	0.072762954363698	0.005194588580729943	0.07326400772155793	-0.008071658010858232	0.00786351903160906	-0.19982006845321076	0.09163276747024815	0.03464884758979927
0.09980101098596522	-0.28962553781936895	0.20883747047807277	-0.013958962815517376	0.11081828167375166	-0.10399059271255309	0.06127739050625697	-0.10534155631736562	-0.062376896069580516	0.19140313538667864	-0.01906824007633466	0.021743287317972287	0.08700677306887543	0.049568188797260465	0.015041890514357642	0.036496100246622545	0.24034155852382752	-0.005761879703358539	0.020109904671496752	0.1050654396007612	0.11055259329579839	0.11870303055603802	0.06387302220291846	-0.11430049127304837	0.16334315323010962	-0.1146345393018688	0.030263546523903326	-0.0754275850019358	-0.006413834659299254	0.032876241030348044	0.03213572154502731	0.04219207542352848	0.16137112690586472	0.045353430151397985	-0.02441566352906487	0.09640871682883573	0.11894704889246406	-0.12276078151369925	0.059740006984985806	0.07011727423108984	-0.029756350335999195	0.13757068133116196	-0.015005558703252674	0.012557645347154226	-0.017307182428386962	0.0015579047581467534	-0.10962750868952019	-0.14400508825942945	0.15945050632249724	-0.08469613483183279
-0.09913923494563072	-0.21533901136037148	-0.06389617476895022	-0.13230897934074984	0.16420151601363692	0.10098170893426342	-0.06881503451777238	0.2252435805344309	0.09817654869915943	-0.032483138350862244	-0.24994057148735732	0.22909425725907417	-0.1389572466763596	-0.1645398746956892	0.10225704320096403	0.24397524063392728	0.13842728185105183	0.056390912005235966	0.0594754341665286	0.08534155587803077	0.07589285897867652	0.02811914239693758	0.010420110395187608	-0.006259312789952242	-0.07539645888666763	-0.028067507686677408	-0.16929568141953855	-0.00983396267947499	-0.09885911071509175	-0.1103589317215771	0.017989415115347848	0.13920022863445994	0.0918316606002313	-0.15705006036231772	-0.09896281365703376	0.0940771187988216	-0.09824873935383097	-0.02246331499970246	0.05500520990245519	-0.09683444548636354	0.010537550614595992	-0.13340254949182045	-0.06013676439512137	0.031978193414253696	-0.15929937335316693	0.044047473796039904	-0.001963779892668122	0.05524899544171478	0.022391413406466144	0.13641404299738444
0.012522450264790728	-0.0429405541125253	0.012229750303228377	0.05432980290363879	0.004886007032570434	0.004059169120388238	-0.07019916878067554	-0.06629009175509482	-0.14026052717996937	0.17495767431869394	-0.12438632353912851	-0.06929051977959073	-0.07184072655691974	0.08949243769444414	-0.02949496782920278	0.12477420726737339	-0.06734906242438686	0.027899416222380197	-0.08353470532597573	0.21451491277733883	-0.11875984190295129	0.030982071022702753	0.06337768809320986	0.04137990974514982	-0.018528765887770828	-0.012982069973342617	0.0043811471979109595	-0.014700200162848863	0.09638791167949097	0.22105230015913513	-0.05574917850078336	-0.13698029795790778	-0.008828204835125482	0.25797093376543184	-0.08036745679697309	0.16391168054440675	0.16777008140764407	-0.05535882417079946	0.05689830791852754	0.16283966231285382	-0.037912774098748714	-0.02035803601023618	-0.058168091394864375	-0.10147567306928669	-0.06492775450660071	-0.12239402667622566	0.0034083468259226072	-0.07699732310586418	0.023378591179074773	-0.15558956462036275
0.03308802322144571	0.08335289616089248	-0.19937356425714556	0.037405656984757216	0.12276689924732923	-0.12096410186912054	0.16725723868377035	0.04190190093660452	-0.07050118557584088	-0.005576907765770601	0.055832691252172245	0.007600539141241151	0.05387559924463692	-0.09206735930793664	0.0169360824036078	-0.14137144969049803	-0.011122606134870032	-0.09039076414647898	-0.07355299425897666	0.12360931752104375	0.10913101205942691	0.0609138120907177	-0.1092312764672579	-0.03164084496948019	0.12130976999791834	0.014171691363990475	0.23193295399816943	0.03933178393943719	0.019204911649003162	-0.03091164642025014	0.013354090478228232	-0.015246983638054391	0.07081086766885905	0.09567023167945841	-0.07859894605079495	-0.1331232953557778	-0.18362053731032968	0.05079913269125437	-0.11033666061738737	-0.2152890592952483	0.038857860453096416	0.24929995174327907	-0.0006070911539893324	0.08384907744516419	0.008182935854756502	-0.009888965319114268	0.09190764829877686	-0.029027454418865135	0.026739231407190298	0.032169780619601365
-0.06680904536430488	0.09920423495365228	-0.017495975669540864	-0.07557451594928448	0.053650984357040354	-0.08984679817910374	0.002818115736912825	-0.0009118996644203544	0.10858955658315782	0.04746982328799528	-0.002502695874514392	0.08177662992002871	0.13902075490173135	0.055781030635186225	0.0010352619843380607	-0.13118362323501595	-0.10651136630753727	-0.030522470435466766	-0.06095122021592832	-0.0186971302985446	0.005664992489710717	0.052969275435673084	-0.007049877805909122	0.048650164382620195	0.006447441481012024	-0.19754665663538715	-0.09393353938187543	-0.014408755572161548	-0.12096947428411076	0.05999287299962045	0.15307508323436975	0.12187618516973167	-0.021344287093020803	0.14907261368499522	0.014866745720211155	-0.033708597111803934	-0.06134026635409398	-0.030246968648812836	-0.038817681854122876	0.01704162223754877	0.01605739810498646	0.000304602015341447	0.04369381697463499	0.11906462747863414	0.09495541354413238	-0.14848979684499036	-0.25539211349019547	0.09343199112392737	-0.1366878698415421	-0.022476540189268354
-0.11701130260593595	-0.18019804375800197	0.054146272820478805	0.0759155160302647	-0.057651040072671945	-0.259104229214491	-0.05462444482524828	0.03918040054025465	-0.1478911568774129	0.018335991977915564	-0.0015309849172995557	0.05792914996010884	0.011958036841415326	-0.09730689408815556	0.11965715016644914	-0.015852957302697004	-0.002730453950993186	-0.09332679590731961	-0.044328225119151035	-0.0884802714026901	-0.0172946059923423	0.17117084801423435	-0.13719011429313563	-0.16135613978767413	0.14711703274936086	-0.02093236771518661	-0.06690727386599166	0.10399046873960766	-0.06056155397368641	0.18260097135469364	0.06779258713392691	-0.04879114081457027	0.21573082132655036	-0.060571492300333846	0.0742095372009307	0.029929258040649193	0.1301741289398798	0.15615111967268527	0.0032004149065766626	-0.07534178703461836	0.04599721429391165	-0.06777153697521061	0.20133872475266232	0.013653533108273745	-0.03653215513121087	0.018468030586490842	-0.13471262895296965	-0.09716140385106516	0.12004139079444254	-0.06568942789713958
-0.10469109826819396	0.05366527525272862	0.1185704154662997	0.07189533106650668	0.09960476858058165	-0.07567950885694608	-0.14218106667418437	0.15013336519554868	-0.03226798388421358	-0.025083301645504735	0.1328194141849058	0.055623000940065996	0.04558877720816076	0.2165002344901084	-0.0643518230380143	0.09278401280812372	0.005701312489708451	0.026859227886325693	0.15284684264125317	0.05078357562896238	0.0538296079049633	0.10725073373098022	-0.03649527295428853	-0.08392096673390065	-0.10448091940210336	-0.19663565893760018	0.20562071299403223	-0.11032083657216832	-0.022125362358577202	-0.02768132998889207	0.030740669780910074	0.08157372125392968	0.08604734883597454	-0.05830774385689385	-0.01671217137864115	0.028257995048829965	-0.02486911261835471	0.16073455760199928	0.04909749516382514	0.07348777860498175	0.06628812686674128	0.1173473857485325	0.018102155870370697	-0.12968319479558466	0.039968795175264166	-0.0651356893791829	-0.05286166817497569	0.05863640187550933	0.12382830714336357	0.002127157673606165
0.03088330125989638	0.1702214944635238	0.02407531794885683	0.2601683114180395	0.05655096456315442	-0.17607627591558178	0.07533416211045325	0.03811583848827778	0.12897527540827455	0.06731813512699585	-0.013845598398377382	-0.12242982362893658	-0.02090232572860253	-0.08505204542093002	-0.05805234498047227	0.058857840442060966	0.16699045043514063	0.03946715298229811	-0.11958830620351844	0.04446026682201407	0.11966314866456512	-0.060978290431938226	-0.01340171666729177	0.0014688194729197094	-0.07848983130822401	0.0648280433843859	-0.012094814860778158	0.041953244390702776	-0.08874921778021001	-0.043745830032341046	0.07223813578277714	-0.0372833152091767	0.1726963851233405	-0.03996361856146024	0.022468472575188594	0.093259083187309	-0.14183657329330318	-0.1760808811980776	-0.1525656314570095	0.1262584103427182	-0.05518581458924468	0.2558199285668252	-0.05642475986573886	0.018455130319703698	0.15421099525678758	0.2006092888159123	0.2061503576636398	0.12083662305931425	0.10240625258114625	0.05925269492011831
0.07783610761666378	-0.055118571632853344	-0.08181988834223072	-0.0003374457410952052	-0.017018462252492844	-0.04532280493272752	0.06963874474567154	0.09553052085705108	0.008840688629184737	0.1477530081055262	-0.1141689114133505	-0.019365945927971813	-0.0716822320602805	-0.18665366170730602	-0.008268068584269926	-0.012174750838328354	0.15134497432421312	0.06308116845547776	-0.1024186824329205	0.18540925663341884	0.1221033695525353	0.05820977034686158	-0.022648409884983192	-0.09594392367234798	-0.037220677607105304	0.10887486197041861	0.1884586305934609	0.1543243528272189	-0.04888494217862741	-0.11196174332890113	0.014088624691120395	-0.17684393655628516	0.03231677141847815	-0.014760258629866869	-0.046603650186824226	-0.15947030672667956	0.051360010656971655	-0.053270083966191144	-0.1169916835710288	-0.28722622132816494	-0.0027514905050636256	0.1772251596669744	0.166125921454787	-0.045709625658627184	-0.06022120603617806	0.04687742560750238	-0.09983854391882915	0.0301791899819466	0.07660802783846904	0.12269332238843077
-0.01001540764799528	-0.020367375017696587	-0.0877982586756561	-0.082688035403986	-0.022647889190152676	0.03673655068161781	0.09135846262332495	-0.0803178950680345	0.14926885689595218	-0.02711236010425688	-0.002136729434843616	-0.07472116791478234	-0.24242402602729418	0.08840453963610498	0.07368438970924333	-0.02813275571182134	0.0066990717224871925	0.051593921770409945	-0.15625458568865427	-0.05290526773462948	0.07942646796218272	-0.12542894231692495	0.02935579321666293	-0.13565818046234052	0.046642998243352635	-0.003564148229748357	-0.16151318159055095	0.11647393544571714	-0.07345915767980492	-0.0810252437014381	0.020056919723094285	0.11486373494287153	-0.1015821818978397	0.006167984984797165	0.0428816500330573	0.0693105607263144	0.01764415552772252	-0.03670278390833223	-0.08275902206487197	0.008614388304637476	-0.1072139011985607	-0.29213504834946075	0.043655980415766786	0.09039348410861953	-0.23629324355418385	-0.10097307047099376	0.06191542610051978	0.20574954697116987	0.0020793707675407897	-0.07280029412291344
-0.018289644110484015	0.1374876419148185	-0.06459641791245353	-0.07991920066502536	-0.04827435221820325	-0.09533286082587124	0.012267031599479554	0.16246784584695606	0.03230792731160291	-0.025235350212628762	-0.029181126891554412	-0.15631908086966573	0.08831097771471591	-0.007783719701280204	-0.018047991359062567	0.3193107567844861	0.029875290836568626	-0.07517910500951844	-0.04263575962055433	0.11484457091967548	0.011327041053776446	-0.1438277978317367	0.09192289345752036	-0.0668144085538994	0.18732977762175457	0.10800480657146486	-0.04473218956587512	0.1281016361735113	0.00678555105274033	0.08527736751222195	0.04847328172944748	-0.08463566549908735	-0.0643549832317462	0.10299608175811613	-0.03347753321065409	-0.04036484632419968	-0.0955122579349353	0.04235990655934611	0.2062524919243145	-0.10675329142542729	0.002421945667275807	0.14122205554154293	-0.007964139124571515	0.045237179624973395	-0.10623935281468798	0.04283070972076486	-0.018714426500454878	0.0985729995679863	0.11873860515647512	0.2589563642018614
0.057963317321357566	0.032579631658216646	0.019438430157733604	-0.03531662928106884	0.033848384346169116	-0.029540141013902944	0.016846097626961428	0.13175975356079597	-0.10065425652796411	0.11398785611290455	0.13171150673398654	-0.011806852699107875	-0.21218548990085948	-0.06078219870944325	0.12969945465611094	-0.0022868062298882124	-0.09993022322949108	-0.050477492122821745	0.08406200265045531	0.054673356820137936	-0.023893209916969433	-0.03668244118146876	-0.03917581490438219	-0.09224101844985026	0.16153756894694418	-0.03223204692113399	0.12171585208254965	0.15213160519224514	0.09983108981479605	-0.043162031271804846	0.04037300903366095	-0.0024195606390916167	-0.09037018607301282	0.0324359281721603	-0.11790397911598026	0.11876793884615638	-0.04646172972983931	0.02011596558728393	0.02832878715461422	-0.025890497370407734	0.058669380147527476	-0.04749036566225245	0.08712972974572442	-0.13459796802467486	0.012637957954641184	0.19389289990582848	-0.10003313246055748	-0.06777449705248516	0.0513907849658915	0.017958178193959794
0.03506300992735592	0.04891871301476636	0.063472146856177	0.11096998419562232	0.040981865692851255	-0.024125765461854246	0.06725737012027314	0.18998819348952156	-0.013263374638257356	-0.09745293046706416	0.11070806692869728	-0.012038116395359824	-0.21726695460140363	0.08474216771504217	-0.05353281859539227	-0.009053328230416078	0.03319803305690146	0.019049967977906642	0.07094518171390395	-0.043548637056984335	0.051310579817608275	-0.02595466775839172	0.0738810480887503	0.061536748401305345	-0.09354387020445953	0.10859821161750323	-0.053596344511404805	0.08080577982811452	0.03672873134013407	0.18381836767951226	-0.022346598237185215	-0.03493167961181975	-0.001941960588773261	-0.030317978283427544	0.079994190194205	-0.1616310608436588	-0.10536824191463541	-0.10678029215791932	0.09503075919735758	0.17106133725819253	-0.01044492185374715	-0.016882172319001063	0.007005216311318139	0.11618783026081905	-0.09273531341905741	0.023836898273478513	0.09751976297824298	0.050109416993984524	0.01895816165987434	0.10010460925671412
-0.27032322929992375	0.06778753195309077	-0.06540756831274239	-0.1830632896856457	0.051120259952498075	0.13736585451629577	-0.013744851462769186	0.09528745472029389	0.16122782579886455	0.13149144535840473	0.1639964529371393	0.07421274910718922	0.0075433638901592805	-0.16019658118971686	-0.02460624881299486	-0.08432465953161918	0.21709427174978138	-0.01758858124323366	0.012320480678448568	0.055148537604046755	0.004360244637245373	0.1695051040430753	-0.062264936173445196	0.019460745523724274	-0.07424705856980483	-0.1320022511220706	-0.061176909090528545	-0.0037036797048412024	-0.042930222451726	-0.0692420979873856	-0.1406317463671834	-0.008310557262869478	-0.15047203740310022	0.07600559636896026	0.008243975293450329	-0.14575514994649305	-0.030920907704986345	-0.07521564055905833	0.031917451041918045	0.13404504460231445	-0.18751724696457447	0.011502607914741718	-0.01601327955666404	0.06713400764504657	0.021319662823768917	-0.07519693317388192	-0.03190539356666182	-0.0796025856803489	0.10760071385985984	0.002131164867194222
0.19011906857530075	-0.006066081381462078	-0.07084067669104628	-0.15137143926128271	-0.1803139676255945	-0.158413594300549	0.026712665101148343	0.05087250232299339	-0.15811907020321336	0.08950383140761155	-0.04830610516834395	0.014679301198554937	0.16122206282554244	0.08968393158655319	-0.026853064790583234	-0.08911922254152875	-0.2151815401329305	-0.07191533192424202	-0.021113023882769446	-0.0987179527151184	-0.013125696709230472	0.007685188295876822	-0.022485598180807857	-0.06500025808234598	0.016865467196672767	0.04419406495694091	-0.10903990774428461	0.141093237974627	-0.009858813228426175	0.0018849622944847662	0.07082144232565572	0.023321613126350168	0.09531366339132452	0.028712416520182422	-0.061243737464043796	0.03615035252061016	-0.11437262073206618	0.010855970577652314	-0.00332299906444608	-0.020811685727253972	-0.012853751143893075	-0.18818490454976392	-0.05487249077409615	0.009284490114111471	0.015985639199740036	-0.10276751409259582	0.12657078408647007	-0.0866174848214501	0.09694572005267368	0.04271943618716849
-0.0646227309843803	0.1775310892609512	-0.11936368317564801	0.09191541736100016	0.10005823180429783	-0.06706202090766449	0.1392465300064329	-0.025004651459895277	0.028869362927985705	0.026032183877122073	-0.01343087414705478	0.08108082731597821	0.0793488720552213	-0.1748531973238181	0.13043402428781525	-0.16624919880356745	0.10325462043416574	0.11267051368275834	-0.10909664302151983	-0.04108142879545848	-0.11057046684859358	-0.021492103028873534	-0.030803428418574128	0.07796605322693399	0.13103087461196083	0.1395683810789956	-0.05621680265783022	-0.02092218737445278	-0.16834381922209504	-0.08058700664961888	0.09648516330974577	0.16155828235482317	-0.12343488718799221	-0.059246425915289426	-0.0026405756958927033	0.02801611588196068	-0.08096035199216461	0.04240610444640897	-0.04738393470709162	-0.0014452270878279104	0.05462842480036996	0.0006422269810937817	-0.04363858905265686	-0.010960980392583084	-0.008836295920533532	-0.03700110298821277	-0.025879606266710237	0.1598647170504717	0.056091944794123876	-0.029548031802916038
0.06969544045107356	-0.033381948975601	0.11731246375866414	0.03696421921980939	-0.01073021440042289	0.04477169258102776	-0.15708761520684994	-0.11267674689098053	-0.11939250063990554	0.014294309476370677	0.1732514999485092	0.22313001461926324	0.06380511014407572	0.0500844474944457	-0.1801057734152739	-0.054267379973402176	-0.0787783751908239	-0.06208475982511161	-0.01681438185847896	-0.04720905776971274	-0.19792998103757878	0.07479102561175338	-0.10727430257398066	0.023924686411114955	0.20740826697499737	-0.09193845915864235	-0.253028752274633	-0.028600422188011083	0.11009596349985712	0.1958347454220594	-0.1229549594452417	0.04966992232365217	-0.04653104567800534	-0.010594835430413566	0.26443433470170347	-0.15029703283951534	0.025373966149457347	0.04676931717654332	0.10857863249393472	0.009798315347089545	0.030805053950410236	-0.039164856742179115	0.026912694124510736	-0.03431922754974105	0.062157188985605086	-0.0369610336043634	0.03771003939021865	-0.0029262813684978357	0.11260502507721681	-0.005139372358848624
-0.17730324682068815	0.12619215007139917	-0.09057323008626189	-0.06537663386488199	-0.059566129404349216	0.13744380931708175	-0.21356742139786955	0.3137748533659994	0.10560568090660519	0.022323891412915967	-0.005489400061628639	0.028555407485765696	0.052112242837933836	0.0645215585950057	0.05556044660034485	0.008958068125524882	-0.019733842030732612	-0.01512732836535117	-0.019490828035268103	0.11337700968670646	0.05935567222808619	-0.29403886346642805	0.0655900776529761	0.019473619471877486	-0.0018708756445897418	-0.038851845308888584	0.11241127199860135	0.0947526462122858	-0.07728776678236092	0.040705228712453516	-0.0971656734541286	-0.13796181647889305	-0.06267172245899652	0.08623934723827588	0.09531250453760867	0.0513085420097293	0.07250957868479972	0.05161782871149584	-0.06414815952229523	0.04319225446739407	0.08004095252276823	0.07542913298135744	0.1188913371474643	0.07083038472010637	0.03514482075415829	0.10701502383164274	-0.0026521259249060064	-0.08818746512277179	-0.016306696394376388	-0.07449026448064491
-0.06751782749743816	-0.014451867071551784	-0.07924199209999613	-0.03079615296390403	-0.18936146669537857	0.021329370737293858	0.00012054753622242369	-0.08170886310681907	0.06592456684324051	0.09375701376265584	-0.16075598643689742	-0.07627247785662143	-0.07691423497872983	-0.09399031011088647	0.08294748419317485	-0.019382613877280352	-0.026451484131061076	-0.20038623644067535	0.06354180302092265	-0.12392583948534726	0.005993263026632826	0.02773769379581917	0.1360658595838651	-0.13088203991191122	-0.30195121558208254	0.018384954475369485	0.18005111815108538	0.12389463529394373	0.02096594152746258	-0.04916361856320474	0.08071225966373104	-0.09735461997044687	0.04763577693562193	0.05054701591666269	0.10602099074988798	0.27596600389110776	0.039241596717876706	-0.05089636257074988	-0.002557431219199444	-0.17690759048891183	-0.06947131310890582	-0.040928243811310404	-0.052408839793459255	0.0152354872033722	-0.08224199323822007	0.11210306673244715	2.0706491819709387e-05	-0.0009300321138614418	-0.032789471651291785	0.015519068385897915
0.08250982646676347	-0.08671302157109004	-0.06581164890752567	-0.030372602877666466	-0.1345870923473215	-0.08192578597214978	-0.04762208735446591	0.08743891807127276	0.0262561329001925	0.019358991136754437	0.08508979621679723	-0.013737178839939666	0.03904648499288896	-0.010322175293249624	0.026536234939962846	-0.05827586576115821	-0.24388171582764293	-0.013427916218630416	0.14227481360999403	0.09262154022415925	0.09653974845911707	0.12361307218062179	0.008865759096143745	0.019731570740559562	-0.06176518954343502	-0.031607285602704975	0.061577114977114156	0.12038844371688162	-0.013944627568099955	-0.045018926485141164	5.279588565972928e-05	0.06012067489291149	-0.14438548161335418	-0.22961809531372382	-0.055053684949158355	-0.12207124259141587	-0.05081401976473109	-0.014778031881747153	-0.04532484090230134	0.14524675344707455	0.032674476460232006	0.030047435961082836	0.0622207144043402	-0.11388331177807692	0.10391117874202688	-0.007576428653545989	0.06704806172412126	-0.10718572330401555	-0.15537587660160646	0.08178896580250287
0.037640952609751664	-0.09020515543575104	-0.08696630812746944	0.11254347844147694	-0.11894118928673279	0.16426729532559636	-0.09006207346478688	0.0638391925608383	-0.03286184757489846	0.06031874310823431	-0.05441140021141926	-0.01627929060722942	0.004091917539572113	-0.10021874557814728	0.07408243454201259	-0.05132135664715853	-0.02285999153400186	-0.09943493746085123	-0.25623336587953105	-0.019102776260016902	0.2412615421612916	0.07846042878980239	-0.001926037973439464	-0.026289082920826767	0.002246589281204638	0.054711911517521	-0.11808128153088449	0.11143216946688722	0.0715381315441244	0.07181857257079345	0.04384757388097273	0.0019616657693989903	0.067286123596682	0.059181413374137806	-0.03540407109410238	-0.0573601772896901	0.01018562952619867	0.15490201514951873	-0.12391070756539009	-0.146752526575244	0.016476084123651674	0.005088770185601807	0.017334166437040822	0.024395319790850026	-0.022320225463480513	0.14898634386020823	-0.16009039784765156	-0.0828497024780246	-0.010325476014904739	-0.16431888111541673
-0.017585440443207118	0.16614701657280184	0.002088648829596179	0.02307009057186835	-0.12601647651725803	-0.06163614080394775	-0.0375196380323937	-0.03177150967562341	0.12816437950037687	0.05576910607251245	-0.1111457956937032	0.02465047784320049	0.04982217484967852	0.11401490385212665	0.15805406865683735	-0.10150941918278687	-0.08108575112103383	-0.12575778589146164	-0.02340198591069814	0.046635837444633454	0.09873345165891019	-0.007595102364252277	-0.031984752325484395	0.015175799224874038	-0.08351429016300231	0.20895387216947736	-0.16076610271180589	0.018474057889572446	0.20236062192296395	0.0006799844559997769	-0.01900390350014945	-0.03574454228104272	-0.018039168176240784	0.13728484746765302	-0.22118619113295068	0.15334337012963256	-0.14239571524501451	-0.02666523292344148	-0.042924442029866186	0.05885532697707198	-0.15981243518837476	0.046217266608194287	0.20243096232868527	-0.13631740045928106	0.018970616761039567	-0.06619821777966091	0.04258872061930358	0.001914777741575206	-0.06414869090443097	0.0487872284871074
0.1804348109786743	-0.01909037917272987	0.07197579421481819	-0.12932729578711638	-0.09564363768180088	0.04724062778803774	0.1484116028535965	0.035561334878566	-0.03130580305231544	-7.085945766459172e-05	-0.12504077339697175	0.06045153263553668	0.08823330623234092	-0.04520903328330804	-0.047004214775950154	0.02658782296520485	-0.043671973604059555	-0.0066132614625822456	0.20997217891665154	-0.024702570074599667	-0.035834015202122226	-0.06475418056351592	0.07441919714999368	-0.0181224173218103	-0.0649373038321426	0.1321304032273012	0.14196030045136374	-0.06004235657387052	-0.18665399513606162	0.10075136898369222	-0.0684629825760004	0.07906255991627686	-0.19701038177118357	0.08925973382993092	-0.12111719292807813	0.07307641190665246	0.0014273067836434107	-0.0953939419396645	-0.04070363129267805	0.06863184569567009	0.010589445311523425	0.05844129804724843	0.19764405845154856	-0.15642416117110514	0.1617212574968624	0.010435593752321294	-0.08987840483231282	-0.133031362573899	-0.01891203907770335	0.09216501119244594
-0.012754912037753422	0.15111549302473476	-0.1451175690051559	-0.0012088947846054562	-0.1252393444413119	0.036363188262496786	0.08868873900973004	-0.04207617936810533	-0.26042138566271344	0.019894814679649455	0.043673855173350956	0.040429475496169764	0.12357821918221541	-0.10710536796490489	0.06802161054504495	0.11925075124779749	-0.17785875840065168	0.03196518259189773	-0.05041798310076715	-0.00815226731016459	0.034767648353833634	-0.048722856411355236	-0.06757080791616119	0.00341524174880246	-0.10872459388628027	-0.10858251288851856	0.06793732829565034	-0.11487940351586562	0.06663125009092119	0.04625912928539512	-0.17258067287905968	-0.06775646523356552	0.11941094030473726	-0.09811655311396816	-0.04644042623093877	0.04620608932518965	0.07833905092825955	-0.025153888604449573	-0.05975101946916416	0.14223698616985078	0.1738899663797579	0.09788580507817955	0.008531814256502407	-0.08082657216409264	-0.08304444065565653	0.05225141052657575	0.04183982208886838	0.14015985929464295	0.06504500925361392	-0.15030803017598182
0.10519476177229187	-0.0998060627314413	-0.038397127195235164	0.025020020625169448	0.19956674897839644	0.3109918556005361	0.060672305913618274	-0.018319661872038786	0.05345056484805503	0.08876554258738362	-0.03206676255571917	0.17952113559123223	0.02300707591914021	0.04977430890913943	0.06659242520544614	0.04215866106144557	0.08389405004696122	-0.06172531865469232	-0.055830175394603054	-0.1100154232971695	0.043950123062022645	0.07789365035121142	0.04577728661518858	0.16744924333475375	-0.0005596018829046555	0.06687416555925127	-0.10917008761393143	-0.038709970247440106	0.06955377575657776	0.0849102110743144	-0.029396694766418225	-0.0071599251858066836	-0.15178737466808095	-0.03570292008066094	0.08903831635197862	0.05752050161065663	0.05006657213812097	0.004977368718096008	0.0007063158628176452	-0.0660321139473447	0.06988284202025348	0.04209729443893898	0.04920188479927993	-0.05260348426675804	-0.21533429198712445	0.10971527117536957	-0.04788374560084042	-0.08627757640431206	0.06934789119139938	-0.03920126399191296
0.1059936384046622	0.061700594957669753	0.06835693232004776	-0.13659557112005344	0.12119439853864006	0.026125053123385606	-0.03692771392462032	0.014338846734225108	-0.177623523289832	0.04086528114806709	-0.10293715081820716	-0.13526702858435344	-0.15223591862178912	0.11126883749899252	-0.06292633936927887	0.15337277099164992	-0.05358014630522978	-0.17073579575929468	-0.11165244399486592	0.12358116200069387	-0.015589817793666753	-0.0548287296490601	0.01600182258527877	0.050178273616754504	0.11173988159024609	0.14484992298929264	-0.03597686457890858	-0.13260476860820383	-0.041346516112327605	0.026028050658288615	-0.0963758926210611	-0.0957150914895043	0.03437878815498854	-0.0048652351570451155	0.0032796995411586514	-0.07584953347000695	-0.023040071420576735	-0.09242331442683044	0.08901984111247868	0.10352493347237526	-0.1846187862238094	-0.09295108601924101	-0.1496529255090079	-0.06500239344068982	-0.008343796979036087	-0.14496452196985302	-0.09218598131253132	-0.10039573720814986	0.020726732939894396	0.006934433703625043
-0.07217375533372533	0.0176820872139398	-0.05466800845872654	-0.027165511032605328	0.16734520902985373	0.13404610517903479	-0.12995812369275977	0.08297324178791746	0.08113965544915921	-0.11482632887526184	0.08187776437548606	0.15379319184125528	-0.11225448062444139	-0.09175028210142637	0.10176614668435024	0.0271495310825648	0.05514762752395233	0.03405892164004968	0.039069592092814416	-0.1326472128311083	0.10473177066214484	0.11695899924277736	-0.022939074406802776	-0.004347694981386243	-0.15311075025557222	0.05142547560178349	0.05720574417141441	-0.0062191016999311	0.11243533598705027	-0.03340772309799405	0.05646059258936003	-0.10196643386921156	-0.002355215087423812	-0.017435425790283586	0.02253079220409416	-0.03695269288333586	-0.01314725956716678	0.08260471714415063	-0.043676423723821745	-0.16065771007386795	0.17495839042054206	0.13814540786904866	-0.12922626951056188	0.06897078052451944	-0.050297477055134314	0.026348721533105957	0.029422412901349372	-0.0234407800316322	-0.07837656655863966	-0.06905410523162595
-0.09161919154812426	-0.08318222082304448	-0.006717829004935526	-0.07157599891107518	0.06820520657126199	0.14872461553359273	-0.0580053241370043	0.023940450053537708	0.049968511030293386	0.04720022709192744	0.007595526791608741	0.07426824183597223	0.048224895268065726	-0.12376624223272979	0.08691560643892732	0.08872908372667421	-0.07632861041785816	0.003793783544760203	0.06833289928110695	-0.02093138195793616	0.10729780477660118	0.2363872494619361	-0.07859860326349824	-0.1381044603153775	0.030381859560487574	0.07215625051261436	-0.0230866373844769	0.14532606633210343	-0.1338605799723249	0.06929186230316112	-0.060586082075889336	0.17193779062072967	0.19925153531681183	-0.0766656587783348	-0.05495571359085802	0.0859587886979802	-0.03871306497895147	-0.004541121793223822	0.0025388420542410183	-0.19196731561976565	-0.001383774609423725	-0.06897277740641738	-0.049312282239977204	0.1443632003468814	-0.12565068942792565	0.08132051867479773	-0.027896293033180853	-0.02797601684958344	0.07903718960517114	0.03400512945688904
0.0570612997219531	0.09681846605328612	-0.03313083831833227	-0.061223673450775035	-0.10851505265577982	-0.08254105299789552	0.29490944253087253	0.12446795807367868	-0.13510743662080213	-0.13224579567435701	0.04818660617184915	0.0547264797377967	0.054888383531736445	-0.025495579355369787	-0.012545426000290023	0.03278795241593574	0.008589300629333042	-0.22193003727475352	-0.022979963057519384	-0.08514064342603136	0.017521141890851206	0.29852590026034104	0.03674816654743044	-0.03135296861723979	0.09218015019772523	0.048268788720921274	0.04200944904518413	0.060685059321567106	0.20565435648295416	-0.11308884353259158	0.04736320768114545	-0.09263811299815385	0.05555126463422483	-0.09186865114860944	-0.04173668136050844	-0.029508991423790633	0.09758167193447091	0.09184544439424139	-0.12457173764463846	0.005493411099984873	-0.07095798547491726	-0.12585049106753346	-0.02170170504243704	-0.030848278845581972	0.24267164863455226	0.043295982536069616	-0.13776175007542374	-0.05647740041709423	0.10213832954293985	0.2088442772869925
-0.15859833122379585	-0.18799243851390451	0.18709651753717824	0.03896141773709039	-0.08682927318763665	0.05346290861224354	-0.26357477390168776	0.00033755065971609994	0.03278211728430853	0.09242701395378299	-0.10138959522925378	0.008568716140335905	-0.09254246260595873	0.02553837556743171	-0.08953463223630242	-0.04081008391602206	-0.09958153947902292	0.0651136241823657	0.08584511166566654	-0.02346205699574138	0.003823799496002834	-0.1448591414633544	-0.02996766480067871	-0.005020461704174479	0.26207930910299754	-0.11119670257741637	0.14641772387524374	0.0996858773465808	0.02806364044901364	0.17586204841951336	0.03721054726068629	0.03891591956679288	-0.005312065301754535	0.12235688824186275	0.10964692338108838	-0.06256772874962124	-0.13192471945987674	-0.02029806373956571	-0.08000385643976465	-0.00635245746153551	0.12374381346841393	-0.045730165508679005	-0.004282338131157488	0.005802273480839523	0.08484308822052847	-0.22468893339846052	-0.06067002947652968	0.021128369227947273	0.12000789564268613	-0.04919024475062052
-0.1876552706041874	0.061971144596613625	-0.06353623888256293	-0.11896666590903614	-0.06243453897132241	-0.018452535765584956	-0.06047446645382128	-0.22055660570990693	0.08970661968871323	0.12748750412787221	0.06515219913395058	-0.11376856704248167	-0.0201491533947518	-0.0006521315229458063	0.05987943895619102	0.06683404887180809	-0.07341737987784958	0.008199555641356042	0.045728040461524115	0.14558223221467667	0.07045065398247231	0.07890566873755189	0.008382662792936094	0.1410459145203504	0.04097627959594974	-0.08610879101735705	0.1403369970125191	0.06979032725390276	-0.04430440211284823	-0.04794929673992434	0.02965755451407618	0.04631847952675847	0.019729226563120646	0.03113086734428849	0.16999573745763807	0.10715431522348857	0.019063559126502434	0.09413105807674833	-0.10325239035275396	0.0397927049946809	0.18093063497331102	-0.021804589539237387	-0.08476339286190848	-0.06520888885930608	-0.10896330373423885	-0.07847619081277035	-0.0370508098590029	-0.1405567019178642	0.0015618333949603048	0.09022771737866472
-0.09077561801469204	0.15192839236417688	0.051079208852759475	0.10305805856240574	-0.06578345538521371	0.08545252270666158	-0.10919339003953131	0.08902475008365088	0.01718393397935312	0.05532512199847837	-0.11755946056248517	-0.08950698422766047	0.05972282182533848	-0.09483480042242008	0.04632062920991231	-0.13671378064602457	0.08481742126666682	-0.12325233147685091	0.055229993767952325	0.06256309336460009	-0.0696771818429575	0.05820265670847269	0.026044226333355597	-0.05388418561927383	-0.10085546840762082	-0.19626256916725793	0.03496500472996937	-0.15648027713620552	0.009534419944130821	-0.026344821608224912	0.06791427754381955	-0.03020454994898642	-0.03294477863470914	0.07318707042882956	0.03350580290841176	0.03161559571827783	0.04692675898085263	-0.1535572123207106	0.0756788679986982	0.061246879401360234	-0.10166831285764973	-0.02440804736742013	-0.003930728762763119	-0.013449678440173272	0.03338599665685347	0.14313667818311834	0.10817667276728288	-0.13122191934314062	0.06220699903060487	0.13289333195354097
0.03868085206892027	0.1090980425185967	0.20122704457007654	0.10237095461069814	0.02493085956417289	0.10450884740847535	0.01448878330968912	0.0023903043284955474	-0.03514142357137325	0.15634133588321084	-0.08184286659420015	0.15323677246781162	0.04998641237403714	-0.13993061748019417	0.03676492929914216	-0.21000265076516242	0.06255080168310358	0.08852314829889911	-0.05923559556520536	0.012354769595558234	0.19541574337502865	-0.05057467042619367	-0.10589075870566006	0.14816634024625988	0.19625871905307948	0.00036956718478473255	0.10114630354083563	0.1341475915530881	-0.0742484232538384	-0.04853058353678683	0.1230874513154735	0.16850142787085096	0.056288086017435485	-0.08798143535020543	0.19870611116994413	-0.053097089781196455	-0.033513778117145177	0.03423378344896215	0.1554160420714774	0.08539759765522237	0.04148655003619105	0.046328853011810625	0.004351466864346608	0.055813951451850634	-0.25295600776943034	-0.029660745906979837	0.0241321934916781	-0.11510140836195071	0.038632331781156	-0.020447122098612155
0.175547569831549	0.15730197252148564	-0.046580556911816284	-0.015083771156669533	-0.007394756560839259	-0.04516594761596227	0.019502498402812676	-0.07582820688875902	-0.11306153349375264	0.062271122390026856	0.06295295842218109	-0.08043157596599924	0.08953554307625997	-0.06315777291653314	0.02531652380379812	0.08203440126124562	-0.003361256470371301	0.04547409121411344	-0.05164296438875718	-0.01964665834280972	-0.020585943088034037	-0.0746578346540239	-0.01767741631157821	-0.15486182988637467	-0.04911537471421047	-0.028487549336967084	-0.025617975249538013	-0.024149744587077884	-0.006176419986012893	0.047944151808606394	0.08745170741325226	-0.06497652268482672	-0.12032008553891445	-0.1042044412243103	-0.04872029211949272	-0.03519213178165091	-0.07699960661974574	-0.12961166642498945	-0.04561208274741882	0.018142662011397137	0.059502946583556475	-0.05574230531083212	-0.04129978221434341	-0.09266983088473107	-0.003143917037477642	-0.08484286341908147	0.057312781324120016	-0.17858664919341113	-0.035962967245246245	0.03011073391917421
0.018383451632250438	0.2693033663980497	0.034980002456790754	-0.10040545968420103	-0.009546424708907304	-0.1776246333466452	-0.008059974929676089	-0.08330560570007588	0.09153902755601617	-0.054954027459553495	-0.011676591579524664	-0.06355578414044034	0.17388513518533313	-0.032124276611791173	0.18325570434792018	0.08141517621182666	0.04820667273353862	0.036873314731751976	0.03937972982162516	-0.192767257934561	-0.027888339415075653	0.08451579711843216	-0.004889718347410555	-0.1405189846803575	-0.005240445057746946	0.17041055162554913	0.12468917155347195	-0.006200400936603175	0.09514492770580867	-0.036650702036805184	-0.1703871586826719	-0.09244659881295544	0.1562888768508198	-0.02739930818293042	-0.02433839793750181	-0.029983819627488056	0.1904136589573007	0.16259589153620635	0.2218780233448134	-0.01590452104000513	0.029562448874709508	-0.15166425494207914	0.14769344261182746	-0.11677795512679351	0.02167755637626291	-0.10973025276328441	-0.05888668267386961	-0.08372624310497004	-0.06078752606758179	-0.05391227031489786
-0.05482687949250771	0.08333339117803072	-0.11048627930625202	0.022054142701386687	0.12179591523055584	-0.051319636451339606	-0.07179188907476018	-0.023052462518025084	0.11797252083607102	0.01941076309533577	-0.05312142946075985	0.04838766511880398	-0.11022921498364234	0.0681359510442948	0.04086073077017677	-0.030780847113888413	-0.08385857984472311	-0.08866809222834574	0.05348173363459102	0.1228980502489062	-0.06373077470287948	0.04583867035514843	-0.2087027018602069	-0.05846177306571996	-0.0031058932870901956	-0.09096834169818337	-0.0936506374789596	-0.06677795564688863	0.029219272832637318	-0.01873290184063747	-0.2238231233324972	-0.21207001526350663	-0.06068651778571754	0.04576865860535521	-0.27475048427252347	-0.04997301761516307	-0.05262478565174211	0.1388337778208448	-0.03850218117128637	0.038298898474092846	0.014125714008746324	-0.21305664798072008	0.07682072166317373	0.021539650545628796	0.05082686396745896	0.3926237706436327	-0.20841129394985886	0.17246966497611085	-0.02874475194003556	0.02873289044030093
-0.0045512245301242175	-0.042423633339804354	-0.056983292823875875	0.03295087355730091	-0.15171736966716792	0.07505791675217656	-0.041619440488525394	-0.11300693390403578	-0.045001285799581375	0.12571492168625728	-0.053533508701622316	0.03584536182096203	-0.07309562757154733	0.07579218499236196	0.06855077387902041	0.18486088332964115	-0.017556394549921552	0.06686548047579066	0.009806753953894456	0.12958717818630144	-0.07188323876087303	0.07450053128772811	-0.01946972961166817	-0.006418817710849775	0.009175248444837287	0.025224039642667742	-0.011622904312195818	0.021471318317052637	0.15781180575621845	0.09854496856152184	0.08691545924968966	-0.04555395260238707	-0.08892408282283243	0.09553005582377529	0.08760467925297943	0.1472670675750982	-0.06039806259692296	-0.022954865536034708	-0.16394841625254342	-0.03924711060608729	0.09965705105794473	-0.0466495379228198	0.06404797952008238	-0.019050310599781135	0.03240570282215607	-0.11476913898156674	0.008520944963390106	-0.29911359709007235	-0.018689615816198487	-0.16304732437151404
