0.12059945165468161	0.07774073527645113	0.04666709819660811	0.15210062271593802	-0.09489165208248374	0.17473631979155582	0.09321915642603848	-0.023655528721894605	0.11356201471829441	-0.11062935124116342	-0.08245141615276735	-0.06085897232397004	-0.052897770806401526	-0.10565576427602529	0.12230830670953251	-0.025885440036983166	0.035250496835687956	-0.057035136641368056	-0.18206033005485173	0.02700573583914221	-0.1912254975419777	-0.006863404608546861	-0.13683150388328105	0.1987275999230808	0.09113627221747217	0.010575379127148043	0.12637066776546688	-0.08463159774657358	0.054347937867009304	0.01998104337187135	0.026402008133367003	0.1272353500106768	0.07324921027798023	0.028872366282502327	-0.16548874362282961	-0.09600462952794638	-0.012270893359572415	0.009337237427665124	-0.11302037246739238	0.24116766755784214	0.1516394055253573	0.06021183203924835	0.007203686128374476	-0.02122089699011517	-0.09519184600222357	0.007748051851886254	0.025775254014275068	-0.12417605754816244	0.033417641724489744	-0.015525904882474876
-0.19078075578773912	-0.08603850107795019	-0.04136055334216443	0.18876876573401905	0.05565531245337582	-0.13354815690998914	0.048603628941763705	-0.15473039889383655	0.10826910538870733	-0.04711246518178786	-0.009363618873917085	0.132579664754219	-0.128716356858425	-0.13971181851129913	-0.058359932634600487	0.10383788510193166	-0.15193460754768426	-0.2832155598110569	-0.04511588584089988	0.05517407999109204	0.12002617497388293	-0.0463161362085399	-0.04114266071160025	0.11539007342557472	-0.18697416996954208	-0.03885207751830093	0.019042388992505776	0.04492187212850343	-0.05098066931908826	0.003444101170584135	-0.24883273534129896	-0.06582484123338483	0.04535087125544674	-0.09822940342546796	0.005898422158959738	0.0446872500802698	-0.0342549200857765	0.01704637709965709	-0.09627325652846123	-0.020661127969604665	0.061021616958922255	0.01569729609684342	-0.058653126956393555	0.022421640429079303	0.0714609790636618	-0.20499412785774782	0.11590740649558978	-0.0336254738681072	0.04254899332402303	0.1197246923645228
-0.1371673697230466	-0.07094410024275466	-0.028854869587570484	-0.07837535211244284	0.17349365758368085	-0.08567720938267928	-0.05555467794868666	0.02043890316029768	-0.1202149526076089	-0.039568071175626385	0.031745326125017514	-0.033286040438251126	-0.009338685889994829	-0.05293321124483709	-0.1514470309180767	0.032159321133923856	0.17549330716472417	0.001840163078343813	0.022526411724754954	0.06927227551168595	-0.12693304965466992	0.17025146581296058	0.020232879642280203	0.1631856899089109	-0.07330329955239893	0.18180619225578248	0.07751554940347832	0.05530400858523585	0.023402445435314796	-0.024852861807444938	0.12005316584738726	0.014035986984804696	-0.19670697035871523	-0.11171864617070025	-0.01858457521927473	0.03099989831655551	-0.005658848889989584	0.12189707897936633	-0.1951101864038625	0.01435879365051602	-0.1817979225387155	0.07597122954841684	-0.009445871444200275	0.041960997202411816	-0.08638829605897662	0.1279464931657751	0.10417246640588514	0.05835443030118877	-0.012951724686344077	0.05798572852951322
-0.07068925679873489	0.08555556590207121	0.16494808943239211	0.10706105599791862	-0.07296024698074095	0.03614173172731029	-0.12931415437586477	0.057239031117567576	0.045060341286253885	-0.18698163395321643	-0.11617838439123639	-0.028313889674376716	-0.030085974714082628	-0.12094769354188054	0.038897872935218375	0.02514736089405121	-0.019426913197851933	-0.0755791500158363	0.10487071264165636	0.16554071130882952	-0.04835614838465371	-0.06121669171548208	0.04912076654119963	-0.03580293797469863	-0.013939720066323416	0.07396531517246714	-0.1909356087507293	0.13183023248526693	0.007268052432934134	-0.04114931445621803	-0.008923415422144892	-0.003757064497948127	-0.17312013034449256	0.1494938227453236	0.0041325632270618464	0.044300213044737524	0.09515497705740428	-0.10211624575603002	0.04734718990352285	-0.02676410908987936	0.08467707752164938	-0.21272274203514954	-0.0099094300241269	-0.06028206557839616	0.04322629506341555	0.047004418736820215	-0.07076258948220261	-0.07121738641760436	-0.011066536855732945	-0.08966422273152082
0.0841983695452127	-0.036920720044744615	-0.2906988219321642	-0.037482205662180614	-0.10385438208439723	-0.16312758154609455	-0.12374266382225725	0.010940847183297006	0.13286408282482312	0.031318447386498	-0.060650338821573974	0.04559041951707027	-0.04590903102189918	-0.06946003691631446	-0.11543626682329844	-0.17518288067517193	-0.03899237065594453	0.015805348992013187	-0.009662367001488974	-0.041596692794735865	-0.09457460606967812	0.06082461916849685	-0.1317131919946585	0.07760279138434754	-0.10022170189267249	-0.0752435237353035	-0.1466785190615677	-0.05014021468856367	0.09753124584779789	0.05156280884439565	0.09784221120280351	0.052214254593393586	-0.11036698285303692	-0.03307892243275574	-0.07801991291174627	0.13305749040390402	-0.11967886464263117	0.08936976893891109	0.08929538701087693	0.18296202017160873	-0.040968659262949736	0.07123221595801621	0.22816518365388427	-0.06176416769336967	-0.153504024753236	-0.18800100339077638	0.07127120288613313	-0.18831502080585838	-0.037231905293792285	0.04373131870389607
0.018517553682991406	0.04254448641841723	0.022228985580085407	0.12788658133133932	-0.0952316380738797	-0.06769951384585314	-0.07726594452708241	0.08301918118626102	0.09003985883950637	0.04512253193185082	0.11834936668899279	-0.11780408673763808	0.16672241115511371	0.15232386217122584	0.07356219972457467	0.178179890877106	-0.1656623207677774	-0.052444813626265185	-0.07353034606819524	0.07214793237573433	-0.10501407396021456	0.07574951493374855	0.13705361439967134	0.06952029000839993	0.028375102366150113	-0.09878733409007492	-0.08468509661253647	0.12496189052966666	0.07793490039053325	-0.0039019519377544117	-0.04179095457658906	-0.2025807873111377	-0.10708524186844388	0.19114190871397235	-0.12804555710024668	0.018947982122108065	0.10074439731951985	-0.12549226680022926	0.01847104747810833	0.09379155375106552	0.0012499321907250335	0.28684030556667683	-0.16685992588781953	0.10587285298838789	-0.017280173739646437	0.07719201548366751	0.04413071516992459	-0.07331561971099966	0.022899639245934026	-0.18579014513982872
0.06032475005713938	0.029815846599052565	0.06386601686431025	0.10581183250871502	0.03676198402097109	0.014808941979827621	-0.08810683366612923	-0.0712220763649051	0.1186734620177331	0.14363354057059785	-0.023811043631205408	0.004600274725327412	-0.09046143749937662	0.11727568452674449	0.06654168236917787	0.1941217436463749	-0.0878323077179739	-0.03780078990182172	0.02314459225255723	0.06464895377257707	-0.021566763754763234	-0.08729610904537005	0.08814075289235712	0.07211353625455817	-0.0916274100563725	0.1355442801105496	0.11701987091966037	0.013429649724779289	0.00795978623760364	0.05540577711159072	-0.08617030702562582	0.0030031479164082174	-0.21523835446091805	0.08764556455029356	-0.15614932224418596	0.1503419828428999	-0.03301200939664503	-0.02116669819311769	-0.06277339060845057	-0.02880388739220764	0.14185313451480366	-0.24878086565350796	0.12769653860881877	0.03380234811017082	-0.12070216478572156	-0.1075312393049238	0.1676393027208203	-0.09455068799427313	-0.11533505105959595	0.11373145423647293
0.03385528762859143	-0.09379255765363989	0.0216624975404619	-0.10257526836402774	0.11008213984226052	0.10613709648731336	0.053200619882194315	0.03616610612470166	0.17611881248673739	-3.136726117747121e-05	-0.11818741254208012	0.04494739128323069	0.2086047049537114	-0.10147594931858522	-0.036146276669398576	0.041644603810145266	-0.005390484900573916	-0.09823035803773146	0.1121857856230471	0.23200407220172595	0.019613145902390734	-0.09040682897360003	-0.15489605250534752	0.025797598122118088	0.11038773433162577	0.047516774649538164	-0.00024038409188538443	-0.058927165178930624	-0.10921636327180897	0.08347513263248822	0.09137716213855857	-0.15457297866907332	0.1589838978180684	0.05740712208940013	0.13995946451457936	-0.13421277484851152	-0.1365824155415439	-0.014896930976729693	0.05027844268951942	0.17963608229269637	0.07060789138151316	-0.024268127681203334	-0.10263692076658922	0.12300005727191501	-0.09647054257507148	0.16284685547723218	-0.028438464960650934	0.15905820726178505	0.06789312900592784	-0.013699548944245826
-0.051939637182612665	-0.03409078773460798	0.04283166923752375	0.007715649621771674	-0.059381140806870514	-0.016563141031763224	0.00785770297191498	-0.21287340944148123	0.04581681147886987	-0.09797212247168069	-0.11533324032057451	-0.16873443471107105	-0.17938924978678905	-0.13554475031122892	-0.07090209576304905	0.19532591375265684	-0.05258796758952039	0.017775010626803135	0.04004813865063287	0.013106518621584873	-0.007744346072599365	-0.11952937635992447	0.1450927548279212	0.18071966436378853	-0.1682658694122686	-0.10240285908863796	-0.02798103423770061	-0.09645377949101913	0.050596555345586526	-0.07282722024066131	0.21650560678066025	0.11905485943435962	0.02125740306322149	0.10269862633197323	0.1105900424357309	-0.056394748805824325	-0.08162172445419648	0.007814306296964744	0.08616361244979441	0.013906039865341766	-0.15769964821909974	-0.08028244439508424	-0.007397286359437804	-0.007566560432583027	0.19725421767898083	-0.13859879423989982	0.05055892418358746	0.14891131083282896	0.2271449745422796	-0.04043974231839613
0.04914294527201998	0.0569760357198647	0.019548173155329085	-0.009884520123930606	0.043597538950004594	-0.25322460852196854	0.06820694900626313	0.012617790366196719	-0.02224748967782654	0.2046862195719558	-0.06749340187905523	-0.04030759890650308	0.1991553302204734	-0.08320613048498567	-0.05501152829365389	-0.014702542343084999	0.08407344821295493	0.02078025073533134	-0.12926253471522628	-0.053216856312718955	-0.06073544332122114	-0.007722104522304558	0.04258436586298291	0.04182057558879721	-0.17760117540484022	0.10639409875608562	0.02525688459966235	0.13845320475939063	0.04441983272906719	0.11013229577357622	0.046654531145012695	0.13462257562027483	0.05222506360177786	-0.009791524644290407	0.2272434720446882	0.0889037122279892	0.05737444210044132	-0.1276304416538336	-0.12883076174635377	0.02927154821418534	0.01455211977682408	-0.061412256500831625	0.014098269961206	0.1588626928043596	0.06954024745502987	-0.11410085097527384	-0.011150882714294371	-0.08049664808525608	-0.03876999164085612	-0.041361566562964275
-0.04776455826040052	-0.1255135371973395	-0.012765468151819013	-0.056060763684731	-0.2929448690002268	0.2052972024501663	0.10887696542166721	-0.03763007249249961	0.0018819049740598425	-0.11716543473175618	0.16957228778108654	0.18972886947731116	0.015669372824652462	0.10235306441853448	0.017528677893392387	-0.13367254388759306	-0.04118233689636573	0.013192796677195707	-0.04545477187434442	-0.0218653277435036	-0.009139955750911446	-0.008087849786546131	0.005225849049748321	-0.1060605066396601	-0.07170161491279363	-0.12845842656999693	0.09778155496862004	-0.21056469418403245	0.11535903433169255	0.13863493972628435	-0.03021805869826214	-0.26031370878272986	-0.03613105619672905	-0.006418416128881928	-0.10105982199289135	-0.051521839380824275	0.15301951988633514	0.0664927162301741	-0.09245641143781	-0.15975991695954322	-0.03270173176097711	-0.021345677935043827	0.049619918736331634	-0.0535316712567659	0.05114995753618615	0.19351540400602293	0.08155010224442627	-0.0048088507330772585	-0.01831504710532947	-0.03566731341798712
0.11806409124521447	-0.06273134459513029	0.004522270899998257	0.005119790188108535	-0.0501784192811532	-0.13724655478841008	0.032297450361766816	-0.006100397185538356	0.05002404694365699	-0.053360030643916694	0.12208212988130479	-0.08767737812118448	0.17120402840178928	-0.17476365098282617	0.04347700645568912	0.04754306825266235	-0.07955570679408824	0.04243939378610126	0.12795186697601588	-0.22168188393540644	0.05027448074908147	-0.24932708203300777	-0.09656648035232081	0.16291663649009452	-0.058178203339205405	-0.11738799644089726	-0.01979377289846819	0.2067906338163552	-0.18316822472060262	-0.10513099116393446	0.14974316831796264	0.18577023435377327	-0.010343122429028392	-0.12390527025266425	0.20958435018091592	0.15944423917491968	0.0678946987762233	-0.081240234893742	-0.0049029340838036735	-0.016036008104483076	0.033085130461557775	0.1451001438131336	0.08794170411374032	-0.10773760769847583	0.13764964500195379	0.03131321400131553	0.06870657958589163	0.1466540859278603	-0.11115802495135513	-0.0035825578706462934
-0.053145455135921504	-0.1567859425365456	0.03467099776049199	0.25115565515844235	-0.18400777445057528	-0.003228061104947033	0.06405429350747735	0.012307820165618115	-0.011312805251574042	-0.12992163634458243	0.023278674294016366	-0.07567639770159264	-0.21899217049785535	0.11945922205137308	0.09583858198420425	0.0051660976851079805	0.022907468820570258	0.10743180127155615	0.02243396567780826	0.09040175547613144	-0.029748220087385015	0.13119837385739466	0.03207857259326839	0.019405194360587404	-0.1270061088712032	0.028695585430170874	-0.08319549174944513	-0.06382827265284942	-0.08153756283161212	-0.10662349318992251	0.21247714030169618	0.13313390619884033	0.19203675021442612	-0.12228950195555639	0.007125374991089249	-0.12935076252040958	-0.0695694877197064	-0.09181269834165749	0.12395840064415616	-0.03962296781017599	0.10683793336940164	0.0604120889588518	0.2303638752104789	-0.1479444223139724	0.1259233239786799	0.11464408704007277	-0.09733788380270347	0.10071333364731597	0.033614496302622886	-0.02274762599534078
-0.08239354869719996	-0.0719109451449186	0.20498120957859262	6.82818957482628e-05	0.07821300015314592	-0.07908993816675532	-0.07798529462216389	0.10819848092499423	-0.13495762115515322	-0.041521376790527156	0.003402741107223205	0.011137260184005243	-0.017909328501615626	0.03958197810959231	0.06928557558178115	0.073463754545933	-0.09858038086678267	-0.02841550979287972	0.11947628618769378	0.08946471875738723	-0.1372859451481064	0.03514799003522017	-0.19782252493748104	0.004693490206036963	0.1897767016745977	-0.09478927172689863	-0.08343230454915822	0.07640297815728596	-0.1542801515209646	-0.06327550298850391	0.05964411375817527	-0.06342858476894031	-0.023596998721097162	0.07441857103150346	0.04215460835365613	0.02668183962954019	-0.03391222792700387	0.037006111526895535	-0.012373268009975662	0.045780560992578476	-0.049693202511797825	-0.01825689743795411	-0.0989957792552014	-0.0035007610006235904	-0.08110008636288449	-0.11140464501619934	0.025866114785538814	0.021273977585766032	0.07828737349485726	-0.04311255695750991
0.04080528468367557	0.05507975722736633	0.04447738078315948	-0.08256536828021421	0.01493634822711889	0.036414029605466136	0.0007178466907941943	-0.20864776583710848	0.01604896239734801	0.22125310393972422	-0.036003926875698276	-0.07280770978553212	0.03733485597113982	0.031237821046657174	0.11927351654164145	-0.12578681559088878	0.07313802525749924	0.05904220612514635	-0.014214653694054611	0.033868731792169	0.10294574815983573	0.08723153800284504	-0.11430193120737286	0.08201581867554845	-0.006468860503251849	0.0072874098015515395	0.00731969910016945	-0.015024298879825999	0.1191707497107065	-0.008371795984921201	-0.11195461283831687	-0.03935298559697289	0.01786947168104756	0.12292147842970505	0.06030946849488336	-0.0850535278747044	0.24851899166788916	0.026477531097797963	0.12753907379990148	-0.015171443357722914	0.05333592447054494	0.08394685045184047	0.1218194711754256	0.10573683053782251	0.08721970000729778	-0.031508673119410864	-0.05717460419560614	0.03326075103241976	0.09331280723410694	-0.022272070077660706
0.10651719657143865	0.14526167454861794	-0.09163209190734198	-0.083692070379628	-0.014037505890533646	0.030761266818919643	-0.0524567013767051	0.13522026788671446	0.04240668615184512	0.003944704824073949	-0.14359095238685277	-0.13158158164275072	0.02810092502818063	-0.21325956261548362	0.10126374096440718	-0.01581538443723203	0.32430929695947336	0.23079162506161108	-0.018144906924751677	-0.010633700253131498	0.09955815140020298	0.17031726099180378	-0.16380290574360168	-0.17863754653546868	-0.062203480555438145	0.05827375831738644	0.049687359050759716	0.10697714549838502	-0.11996975283653083	-0.2316143862968877	0.08580141953021454	-0.08281962729652347	-0.2018487864388638	0.014506374595938162	0.07931756882186775	-0.012205713212127727	-0.045784838618248926	-0.015936223214590657	-0.037058276240078285	-0.1348047111940167	-0.07146806769904318	0.05212799050138145	0.03216785413765001	0.016805980596682025	-0.09951484818533796	-0.018150316213566716	-0.21770650464428548	0.017847666388538973	0.14288577078135675	-0.14741321320421058
-0.058592767331775535	0.032910677871012955	0.12528426344274837	-0.044822461630014944	-0.06922503292658964	-0.19689231424160833	0.010343812930810638	0.20420760401437443	0.02773584619646759	-0.0022278979183713316	0.03220823107669855	-0.001109200394860206	-0.08130143722601299	0.08232799156777054	0.02257615231117544	0.0017613251933657316	-0.097536602727825	0.13035079319347592	0.06647027453331099	-0.0552920837367302	0.10018248536819373	-0.04975708383852072	-0.0782003492511037	-0.07597031174802871	-0.17710685530880912	0.047154238041820576	-0.18311448783383502	-0.12284438312657626	-0.20755880090785334	-0.008606969279089306	-0.015032046027187208	-0.032669621318636405	-0.10425776946705763	-0.117223375343664	0.04643698635465742	-0.055055193170848775	0.03163583215361448	-0.08852486861242226	0.018106274277108234	0.13032780373160638	0.05861658003927833	-0.04124138182164804	0.02571989703559274	-0.024066517453021304	0.0007880184694728153	-0.03256110521485036	-0.01643352058853912	0.021209335307417525	-0.09933586995819507	-0.10158788269899784
-0.1388542553831211	-0.160027110450371	-0.12172826922204794	0.01594625068041292	-0.0892787515491884	0.05136144642310963	0.0034713748752561863	-0.19685042134380537	0.06549755842216898	0.08107986455917099	-0.09938626748348534	0.042019154289499164	-0.0856498237409199	0.00976703767483354	-0.12644984069549656	-0.1793106452534577	-0.03828171896129687	-0.012372894627483616	-0.039767969361460404	-0.11840305582225595	-0.03998990621311371	0.0269294752580734	-0.004489303012253698	0.018250103059921342	-0.0670115200454233	0.11717179147161597	-0.11761733365547807	0.048756029708671864	0.11818910929599616	0.04809080927488954	-0.020252422706483003	-0.05282970466629792	0.1036087651046256	-0.1422974925261673	-0.09701242603796437	-0.039755776549172145	0.12376537575119982	0.03797676360408961	-0.09680457585102453	-0.031030770538490366	-0.06143231440962944	-0.07097889922335351	0.09788895585567792	-0.13717431292635057	0.16087808557343736	0.08282296901846228	0.1090861670603698	-0.04629395120252583	-0.014994071907910937	-0.1433151814524712
-0.0524662407066803	0.04936548476431509	0.12960630617813962	-0.11071568168024518	-0.03655059369852658	-0.015129922023252232	-0.13957892021924853	0.059134924175840035	-0.07239903317426091	-0.0195390351177024	-0.04519493719118777	-0.07893385057196745	-0.00070449854805547	-0.02156095785680224	-0.037185788227866556	-0.07284616216803429	0.03195246707829554	0.1653617268492285	0.013988723283912739	0.0996118214911129	-0.13902219251534628	0.01577614392937695	-0.10973683189710666	-0.14769249275319016	-0.07393714074590363	0.1191899334413573	0.09500158286696457	0.02430047220543997	-0.1532700559889931	-0.01962806513879368	0.030170000890173555	0.017553622957859793	-0.1843793583480746	-0.08903178480198719	-0.0064077764148716635	0.053629090951719	-0.21961278210999466	-0.016212397547985844	0.014304876987895235	0.08496119885162132	0.06928575842374367	0.058257131880880525	-0.07999405067019343	-0.19080021371233077	-0.0393052757061401	0.10016318252085601	0.13934545275244314	0.07105491022977854	0.04293408228017344	0.03796396483859655
-0.05561187467607806	-0.013006029355362004	0.1669069525826331	-0.09425580057918764	0.16147787907098515	-0.03220281544920584	0.13254321090950785	-0.14068150094975382	0.05859042011646492	-0.0736770135947622	-0.14152671919241874	0.021853404241094568	0.10094717885959688	-0.08449414385934964	-0.14990159604584014	-0.009184476433495513	-0.008743532877718108	0.054831962755449874	0.09495945713644882	-0.00594151812724941	0.18555033147942632	0.02242347445352918	-0.03464265060068996	-0.1611567359102828	-0.026265952031616774	-0.03363869454111362	0.09603047962814704	0.04624836240668541	-0.11793691216326173	0.01722543864110375	0.06715311717290534	0.15280313593878328	0.08875039674140595	0.07608466543114778	0.0060085994615163615	0.038831200542344964	0.12495049007061587	-0.13327773974796497	-0.034943932721695596	-0.07725687487562408	0.03791531187261241	0.12302221756507876	-0.059697428672107394	-0.2390304367469438	-0.04122207450244702	0.09134737320174066	0.05376299029498797	0.042818624781057614	-0.027999330187447977	-0.12790307362197864
0.051529432162446744	-0.08342818100346248	0.21840967333804562	0.057050720835451596	-0.058064830255395106	-0.061138524738862825	-0.009294420661358828	-0.02395019220217498	0.11168337755299543	0.018641616974404633	-0.0731631738908528	0.18904406851557828	0.004930833152022264	0.07688396759688969	-0.06082265074447593	0.03631156277445234	0.031110999114319523	-0.1889649292096153	0.20152751104606403	0.12906444609225473	-0.03971953161459876	-0.11022697404558555	0.034756161380355206	0.00866976994143966	0.03556689485632294	0.01915773961940896	0.05062409893059261	0.14473056993918065	0.05681032051286461	-0.10496554989099412	0.1362562852712452	0.16406145634882874	0.31520567345120853	-0.1123494033239598	0.0242882013150275	-0.20820987031889873	0.05531491563792092	-0.05482002981667727	0.19234457948249534	-0.0774614970018582	-0.16891830379672618	-0.04712637407025197	-0.19754877712171376	0.07510994545073102	-0.20650830462563208	0.0028457581183158882	-0.20778118198561968	-0.03202978045366419	0.1643378155804534	0.036064789143579495
-0.0863493604964934	-0.0031203488939083976	0.0018016872044446586	0.047263034584340564	-0.13668583632808265	0.05925672738473307	-0.27043916316027755	-0.06298845523638104	-0.04882738424515447	0.06333268260712385	0.002263085267686914	-0.14055630538562866	-0.09849931258170153	0.01986800095474069	-0.007906734186455629	-0.05791241096357465	-0.048083378951197936	0.0696167997159289	-0.05176925728692147	-0.008809124402907329	0.2169936588080543	-0.1423682636883923	-0.18518427315746588	0.07835896647986068	-0.06786430612941033	-0.031823752774262026	-0.07811563781311143	-0.025980014076751254	0.15985381120963416	0.08021284586181193	0.08622235118869771	-0.14162270557926457	-0.11511537365528693	-0.2839078659485427	-0.08093808210827541	0.09567031863856584	0.051694651574837096	-0.02215132629521239	-0.002230028371805305	-0.06888855425754056	0.020475888240178416	0.07658782794806149	-0.1615886787410473	0.029964768783734816	0.09324348709546673	-0.04151002889633696	0.07007006121205837	0.2814654444472553	-0.010434279298689193	0.039330705000532366
-0.07380570836613916	0.01812511626020504	0.046027162498230384	0.019484234027013807	-0.10196953197088568	0.02063617713254507	0.1462195938717637	0.04486357645145273	0.09619871890718411	-0.023701197001262775	0.07499002394237106	0.027926783821652597	-0.09509107296872321	0.03185210047988745	-0.09916966634403106	-0.0632880274884792	0.018932830729237415	0.029724427338012407	-0.11892324650771291	0.10539857711828762	0.05720062783004729	-0.07047284356108839	-0.15375847964491754	-0.014490457908143132	-0.04459437138611602	0.011314045705302282	-0.036311666115556654	-0.200745686074501	-0.03883469383011584	-0.030561911106831298	0.06336610247740587	-0.06981996746110497	0.16786746733725663	-0.19116405506517573	0.13111674978026244	-0.02243189708781048	0.08595848723435562	0.00798014840587331	0.11395555360254693	-0.038736196455281126	-0.10986204251778123	0.14205042872710633	-0.01134806458821412	0.02215584736242106	0.12347519140447952	-0.1031955242094435	0.059549089763925735	-0.05898947564628909	-0.013216935564437185	0.007227896538428889
-0.15002218614469362	-0.07788370428204348	0.13510728924131393	0.08861911885847956	-0.006263957732723487	0.02431234585128931	-0.029424250563645768	0.13565833858279822	-0.02003525777941639	0.023184209213484807	0.1146030144142065	-0.07773714848459067	0.1558789184496894	-0.1530461409743377	0.16296421311127987	-0.03726755839519746	-0.024269874782528178	-0.1890010171182943	-0.04547947173776929	-0.10398065310268843	-0.06076463453734726	-0.013731096578887962	0.09577916144729057	0.020760335140062577	0.030767665340111383	-0.10955193888455624	-0.08807540896027302	0.1798725018351312	-0.07352010347632466	0.16562082520572957	-0.02430611988808665	0.00022879361435040494	0.10703651602299298	0.12718924219386565	-0.01108125602790875	-0.03882430535215389	-0.005592044852221312	0.03379575282321183	0.08913036868697555	0.00042298589941515766	0.06188862980231537	0.1638359732270941	0.038130961226478466	0.031165285600477835	-0.1518910825090068	-0.26307301368290636	0.03883757292301684	-0.009482423128087225	-0.051478267491474196	0.024353020418634463
-0.006040372919690829	0.11277802506338985	0.00861108682589779	-0.07469232850701676	0.09901662389592891	-0.02171310749462025	0.05265366836723071	-0.04774107061928005	-0.06498268854974364	0.008416823018569615	0.001282864354368512	0.047982703536683304	-0.026864575330974257	-0.18363597837703974	-0.04327738835883887	0.07938184671438157	-0.029737607924310645	-0.024638340251454803	0.0986376505905937	-0.07119732272589228	-0.15428032182428997	-0.016063111952549437	-0.048417395124873704	-0.0966246319753254	-0.017537845589869074	0.04915056472467837	-0.0009288561567815747	0.030698107268623778	0.18134076985154232	-0.03428788615575641	0.02783486346446696	-0.050921336259913456	-0.0846359719886973	-0.05849076534177699	-0.047875857152168855	0.03594757975471256	0.23490757867007575	-0.07160434362758404	-0.04166253056154626	-0.006312301311124826	0.03957988487097471	0.026355081195478497	0.12840957939481173	-0.24263920705352082	-0.2386929870195673	-0.04958781720101493	0.10973001875437088	-0.15656480316055965	-0.30076323396937577	0.057117940621920875
0.024365722370271445	-0.10902084067994298	-0.098553960072093	-0.09697437196346745	0.011053531747394013	-0.0626315276183007	0.04940639189755197	-0.2854626662904391	-0.08568518651277994	-0.11260539609110504	-0.02563406783724922	-0.05380477584901386	0.07978437798957666	-0.18593367716600576	0.0045491476330752	0.05583364232117055	0.18566474365619548	-0.04817659710934752	0.03244586043525171	-0.18038627925623651	-0.23919562043130238	0.08447743757817	-0.0005560293648070566	0.11785126897984229	-0.13734028889697492	0.05199021395287526	0.18688178405438532	0.04197056083572659	0.02765815055910488	0.0008556080824349832	-0.15708814571259122	0.13555729357103483	-0.06108576398050658	0.0504483256383017	-0.15630343065712538	-0.11794596645077804	0.14350873992222354	-0.034730228895784296	0.14532754760425445	-0.007823065905851781	-0.18418977729578576	0.08920675997317207	-0.058989231775560785	0.06986888135170435	0.002521086754008212	-0.15431182279428704	0.016429476537056908	0.21962231421527992	0.04929864585144592	-0.005751775300546313
0.10753434019568978	0.021066846520311083	0.020953423026279436	-0.10916251721591026	0.023384802578959838	0.10354434164169449	-0.08360621521000247	0.14244958212469477	-0.009170602414512598	-0.08877695115385408	0.09976320769202446	-0.02867942357382693	0.0759514887486108	-0.029175863225853717	-0.00598261435299037	0.04935602043342916	0.029089705759000592	-0.19955317804517386	-0.11212437400943918	0.09294099847908155	-0.013213658890154726	-0.05237313027714218	-0.13585740152574743	-0.10797363212758485	-0.20217986399619475	-0.010128071870153289	-0.05984375805810469	-0.09665878909853153	-0.00681234251679531	0.036397063085273816	0.20931979322099448	-0.15118834195632136	0.11593810433005221	0.0973101561015072	-0.07790927393767005	0.020323595458603103	-0.04576332493376153	0.018568858041873894	0.15091310134045507	0.0605606232631313	0.050860837323344205	-0.04303093199546424	-0.14840566649243353	-0.02084682105404079	0.12066081548639151	-0.15271678565896477	-0.10550893681766951	0.012626773623406818	-0.09846547848472625	-0.07925234471152126
-0.04235985817281771	-0.13656174041901495	-0.09741218462163684	0.07034279167873088	-0.1307369782230964	-0.15978721344948377	-0.06300249795338944	0.07319555025098458	-0.019692180799688958	-0.04645810781156184	0.004435879751560705	-0.17457074328596522	0.049470565377503245	0.038343503140364416	-0.040930847409572126	0.10059245117964166	-0.11274960989530387	0.11279089932535691	0.015449366559525113	-0.03365525898781734	-0.001987363536831157	-0.010726476581094175	0.1220282896417717	-0.10766791274710136	-0.07625192391465983	0.10363028920724798	-0.05955349351838593	0.09005330773315917	0.16994359830087097	-0.04017950269416337	0.06813623265753053	-0.11536922813398585	0.07547332980678093	0.019942398598676712	0.047303828216021526	-0.06455720720353951	-0.16610834155671728	0.05032520647495048	-0.20634031524794547	-0.031735049224253485	0.09411818664199698	0.01918977358730361	0.19483426447898133	0.10251091525817735	-0.06538983883255765	0.002731337985143867	-0.004737070254443595	-0.15821767633461273	-0.09403989164843533	-0.056076090697986025
-0.20362205028559366	0.004749346825164296	-0.024907184465304072	-0.16728939013115743	0.04042128652773321	0.07158727446909595	0.02270344788648889	-0.03240681752089702	0.05914421517518549	0.06802203604766911	0.030740356971968842	-0.0824612250434761	0.02766007655111807	0.1195480650825479	-0.059662905861173024	0.20979393391324314	-0.052563093398538444	0.003240701334013622	-0.06724855960063363	0.02232708359202609	-0.17422216926352752	-0.05460417988167213	-0.10921212003485672	0.013533834789229092	0.09944473755089074	0.06460061871145516	-0.23716593608588923	0.20420696529278803	0.029527994062086838	-0.07764991404930004	0.015712791899094084	0.017618982250269238	-0.06668487169515637	0.019791666734207552	-0.06074722876203073	-0.04043619926900228	-0.06862791357550845	-0.1432671289739653	0.01458364702153839	0.05852994365163381	0.05148835960763723	0.08199252526352344	0.03243402100148682	-0.05327254982169036	0.08396638644311888	-0.1357517539841935	-0.09006713825124801	-0.09642000714232447	0.10800560591393103	0.09427885141400756
0.048730523704499484	0.10719298652117973	-0.08792827824119881	0.03485951198609804	-0.012517442838316423	0.08468821038849139	-0.011522423255219759	-0.03849428884100812	0.054090851856099	0.08761691671912329	-0.06683451948468017	-0.0061075671352376106	-0.10584406336416528	-0.24980610174929396	0.0200459631413729	0.0608905356254632	0.026206680908672553	-0.19495617177543673	-0.03508494300764746	-0.22183477600510815	0.13697011076541848	-0.10860545821180861	0.12554036094598964	0.09458696436841457	-0.09005903525360617	-0.11327849512677451	0.03503702163863383	-0.08443240371830711	0.010248464215820754	-0.04828275908069184	-0.17811584144656334	-0.2230468019124459	0.022668424849459717	-0.05615577463306254	-0.05530898169141323	0.06958638390937853	0.11734422766324448	-0.02725447213618092	-0.03405987069098615	0.050014303311388376	-0.13569355696995752	0.022315305474769703	0.05518859718221541	0.06802302084176291	-0.1936752702502465	-0.07613552698089407	-0.08782632528234667	0.009988695440921298	0.0480744579767984	0.14967104074459814
-0.04949654803680731	-0.04975724983092139	0.11496720188787471	0.02965769385303051	0.12676515111879738	0.02887280030098363	-0.11571166187132709	-0.13331283547778067	-0.15515122490589292	0.06620518347584732	0.11885968230870081	0.18493621413863812	0.08431053323232401	0.11628385775349859	-0.058001633265368474	-0.11564158167438568	0.08500793324175533	0.04176807522394007	0.010744437434089255	0.03873714806329899	0.03231854824582059	0.12838168598535613	0.12949855848169559	0.05442203523403471	0.08458028725629282	0.051406255242477585	-0.04611697320346189	0.07565646749131401	-0.13944950688592617	0.10538915522958832	-0.11945229397660351	0.028580328679473296	-0.0845153958426159	0.05533889830744268	-0.003392522592790888	-0.15947559581633325	0.042069963101847886	-0.05779207768327106	0.08811467208133691	0.00013256887344072294	0.03954209853880382	-0.0957568955015212	-0.05893322314273619	-0.045863863610108455	0.08567024802425557	0.16773770878054894	-0.08051717517428764	0.10768481446576804	-0.21696774177257022	-0.11941894010922893
-0.09587784561867749	-0.13525086894407223	-0.15835883897875802	0.041299891213779756	-0.02140676977278614	0.037940539760510976	0.06904726861215131	0.026561699317253346	0.06577631761503737	-0.006953228624226939	-0.11869933883057447	0.10578141808207962	-0.0589112132781127	-0.0935596298762426	-0.017791787580439818	-0.09128109192965131	-0.041743038198943226	0.03440539215634665	0.03483417392461269	-0.08978300664256295	-0.04877053729487446	0.10743330047702437	0.04964001177339411	0.20750650393485418	0.11801281737415277	0.11442930685599391	-0.1387868550455802	0.07638603516334226	-0.005310680169691065	-0.05509818035382496	0.01680153405325285	0.09452115346114837	0.05008315910042116	-0.08784738013420601	0.07424589135926203	-0.0637587542075964	0.02166831189642862	-0.030335006747713424	-0.021886625173562574	0.07662429750405096	-0.1040193719815898	0.1945195074276933	-0.18210860692944963	-0.05976676832548571	0.0370211889941741	0.05843141664353099	-0.010047572057170516	-0.005739070300154241	0.04105500853276166	-0.023106947745768033
0.1393181257934906	0.08393491142316023	0.08728243510056347	-0.09661567233704171	-0.007938842440570288	-0.03004659487207037	-0.10056013756894658	0.03601641839457669	-0.05376457577798165	0.06554038298502371	-0.10701915628943318	0.17190406128418212	-0.08963326585920618	0.02193023372004361	0.07918593103880676	-0.05706404302001128	0.08524686434329506	-0.12291835978004162	0.14521176991825605	0.0014149264965758294	-0.05964114079688796	-0.02991817724274345	0.08089192693927194	-0.058445529185043824	-0.07493576894227776	-0.022153659758373818	-0.11769621127699681	0.18205439079418156	-0.05663945912147233	0.08316167861804036	0.02094700836477726	-0.09845340504819682	-0.0005954709212729384	0.0784002779310748	-0.018826133508630657	0.1193112945851028	0.10215153927818639	0.09189148546583294	-0.045965677227299696	-0.1079842447781487	-0.06135876053627945	0.019624094066672048	0.054578671353235554	-0.21715714047604476	-0.000811320161175029	0.015808922532318442	-0.027754425631555158	0.1291273839015879	0.042178007425087094	0.1310191908080897
-0.021596052035023225	0.0937477492506925	0.16350663945275196	0.13116934492726612	-0.10921415934287332	-0.0253676077542381	-0.034516470544979645	0.04892545350763276	0.06863535550145332	-0.08388926740257363	0.006783851391693768	-0.20199273321561365	0.14419450058018898	-0.05123742406766936	0.005586393984449697	-0.030964971398806124	0.11460275750134151	-0.2837506441397379	-0.0016610342325908988	-0.010581875749769789	-0.04536363875916828	0.17262265456356327	-0.08873294588557712	0.07717961772356613	0.03562527887060836	0.1261519252535516	-0.06671890847775054	-0.0732968899123759	0.10960699074773986	0.04253213083301104	-0.15449373466767588	-0.053930501446327044	0.0386382653848061	0.08377642215465891	-0.06792306531929551	-0.2914255989816941	0.05232231857370332	-0.12203206899439759	-0.20173387981224114	-0.2832325924984141	0.08139808601977412	0.012861745040496654	-0.022565638071225164	0.13890243629627616	0.06373246830230726	0.16163000427219165	-0.13927354721669966	-0.0034550623953963516	-0.16167133749480145	-0.022938233185546723
-0.024861585376667737	0.06266136372630708	0.004556388114189832	0.062340713827991556	0.07034401331388943	0.21549286773831422	-0.03152966552861244	-0.0941022700666379	0.024608361531640883	-0.08022800271395436	0.1481960768436536	-0.028321803894523257	-0.056557636787399036	-0.04713157211511179	0.0718417423471641	-0.015774698323148525	-0.06416668201303824	0.1665351917623531	-0.08561698406617502	0.003556607403299353	0.06523061516102305	-0.16313351104170734	0.0480260501405925	-0.10551076754804495	0.08227827808340026	-0.09626510119189763	0.06927690318488605	0.11058330662947127	0.08614365256328049	0.02513166482381024	-0.023130094292969944	-0.05764195763348439	0.1471034690817104	-0.06994952201676433	-0.10370660735699962	0.066536893503283	-0.07961368031864954	-0.09500634974661272	-0.1443604262169765	-0.048290983946051774	-0.00827150238964932	0.024309172766069878	0.09513062442994835	0.05268979236657937	-0.01908722195531798	-0.01981956763797199	0.051015746891518346	0.12725701629285696	0.01263141994832002	-0.0469130854210409
-0.09928660010855456	-0.14452052644122257	0.06662696720435232	0.057797852363955717	0.05773635251066616	-0.01286594463520559	0.14069347458917508	-0.04841184945848177	0.09552692372072055	-0.0038742894989543027	-0.06083507646793376	0.05925303073177614	0.04096361186839937	0.03569727592669261	0.008127842205619877	-0.003789308171683088	0.23883719928704386	0.1184256645196173	0.07228268949855121	0.011179915820338827	0.10071572005966692	0.05179947763914519	0.002620475277403566	-0.030356432526591506	-0.008091733766268821	-0.3170425735878056	0.02106008392976418	-0.04884760801103597	0.1592669998282884	0.0019344070811754292	-0.11889634195349619	-0.00498801541281177	-0.10461210850625043	0.047340741571246646	0.02909473643394854	0.09578396311082676	-0.07908817916945654	0.0034008096228146803	-0.13650217954266353	0.07014947819247146	0.051887118044012207	0.049580502102757086	0.000161903135694112	0.0414772890788791	0.16043391083085964	-0.028509425704201397	0.01386451837100845	-0.10861262991814098	-0.08682609615983324	0.00978132930933074
0.11039335467019072	-0.025628082425157246	-0.023591652931212393	-0.04068852445043747	-0.05347566708443231	0.029497145570882156	-0.14972576451786446	0.12809395766667275	-0.06654222981294605	0.07219034854381415	-0.1269998597393876	0.06688401305462181	0.06719446078144975	0.038420207200589654	-0.09944285217997922	0.024954818959807702	-0.1183056184734389	-0.025276325509618537	0.1029413100955326	0.0796701927070742	0.0015182942540433123	-0.09748065759228419	0.06455877121741935	0.0019381237698025214	-0.23203155982304235	0.07826298263165182	-0.002423283386969215	0.12024512479830723	-0.10952705188428047	-0.31767038131960007	0.027908385834518518	0.029156367668197278	-0.1690671627606452	-0.09784995458666064	0.27552177437199016	-0.030561061415380338	0.07309589763762162	-0.06506598273683838	-0.2090302898853157	-0.017025824679590552	-0.02656045602861052	-0.03998782386683715	-0.011464083550639246	0.026426827164563654	-0.01501169512538066	-0.12640061679473638	0.04861847915619389	-0.19493717553224232	-0.20503574572842004	0.07391804947015679
0.050702027213535686	-0.005739536507403602	-0.13954485047550721	-0.07079109406740754	-0.026274674768650405	-0.15958939685741136	-0.07390286580232329	0.06523303381766798	0.14273053642892164	-0.04194347526585507	0.07564883543160984	-0.19140600705874675	0.06594512411136115	-0.08039484147274811	0.03073456167079701	-0.024775241823970926	0.13204140097838343	-0.08744356483399182	0.06276062975618311	-0.02795074632965335	-0.015830547800966377	-0.01838538931592097	-0.08456731044941129	-0.0014098965906671579	-0.00626482221218215	0.02412402484067293	0.008450514569286258	0.07979945496122363	0.09235086160473688	-0.10506233218278012	0.08687725005907711	-0.11863364271098545	0.05878558881377351	0.061973878470286875	-0.19113168916625042	0.009297924652940966	-0.04684961133603158	-0.0758765257935375	0.13508523306990056	-0.0653679140637419	-0.08063769291180499	0.007569494000509345	0.06855897462984165	-0.01416485860101269	0.11663705456692522	0.053097566196409055	-0.21782113197314304	-0.05294669635070083	-0.056184209935169906	0.047936095342942235
-0.2624817056374112	0.2549009708717722	0.053102609489421006	0.01488768039176911	0.11815677164191463	0.23436540528126248	0.08707466445884032	0.09488130964716202	0.013069002446438233	-0.014152575336694829	-0.047579544400490115	-0.08261119917145421	-0.06870140996994974	-0.13505559643429832	-0.007587145068502332	-0.1684667577226387	0.01909165241437107	-0.0036330608042341745	0.014693529838668779	-0.052213157001999244	0.30768603701805036	0.1360115900180313	-0.12445425000847228	0.023286808742689825	-0.06080061429373236	-0.1014479726707414	-0.1340072071123935	0.043221669075925395	-0.0681380235069574	0.09678260240252042	0.09937822145304391	0.13739143852114497	-0.08523867660741036	0.047536561069201025	0.06324542166423008	-0.04741781751039649	-0.07717719573928751	0.1609520665775973	0.022749587573205374	0.0635967750711738	-0.08220760118279274	-0.12192844665221939	-0.056944977449211044	-0.012402138738999703	-0.1064220006817349	-0.0009844808650383006	-0.16885051880685	-0.11200474224698723	0.06709112482768752	0.06037905202778942
-0.03918767653868664	-0.10177643090769531	-0.1027403551526011	-0.03732682459413141	0.06445184916452915	0.09282456913443246	-0.049653173548196906	-0.1153492425984784	0.026784363786633333	-0.08235349706258495	-0.05182526388612024	0.13252760904370375	0.08271154285657681	0.01579743122514517	-0.1271919001112723	0.02113965674706589	0.10626572907875265	-0.03756336657655356	0.13511140899867152	0.1292745289518207	0.16637328321434736	0.030524312653135294	0.058739169980601226	0.141418728833109	0.044739393706897564	-0.05012341077902127	-0.04485428365278614	0.023855495377373918	-0.1290561421946219	-0.014325891536419263	0.10965471182302539	-0.21912538511652813	0.1534482101794515	0.11223742187031596	-0.045976461583047634	0.05433908278718096	0.0003147726906326633	0.12299903684386831	0.09826831427699412	-0.14000707231830092	0.05872624134641768	-0.020562785364324765	0.00828325705180999	-0.07281719009698155	0.17481370691208353	0.1040061819902576	-0.07397711639729673	-0.13346106069102326	-0.038567263097784826	0.043450264609130575
0.0240205843946223	0.12531328247682436	0.07899197221808524	0.09695690257529069	0.03268554006104373	-0.13892987302109902	-0.019569853114690144	0.10600897399086656	-0.005152292852464606	0.05030903686237468	-0.03187483152461331	-0.1029811848541845	-0.012334406404611045	0.030904744303265393	-0.06556877194614437	-0.023571124485666853	-0.09394632419859827	0.1119244917564096	-0.0294455757588034	0.1452755545126183	0.15287478505409086	-0.008104596472174376	-0.10084487325473497	-0.20858978777333373	-0.14720370730267915	-0.137383482489866	0.13784696274615046	0.01158245872269461	0.038960452409198786	-0.22204210089351262	-0.11979664292172616	0.0887079776446287	0.02867741123825862	-0.014720527868559728	0.05648423586001226	0.1635797806135815	-0.02210424635370506	0.006936980265806943	0.019259691873130515	0.23921096352739926	-0.20993562644190256	0.0683223014788808	-0.011480224875906367	0.05667717261841796	-0.06573725539947244	-0.0048965030858450255	0.07114105794654951	0.31129102010438414	0.08080361894020716	-0.08480655980305087
-0.042375968202270325	-0.04534141083838541	-0.1795643172630015	-0.033009019170143726	0.0732829081821745	-0.12742321190767952	0.10484826510505925	0.04877748210843382	-0.07342333219710379	-0.014152963733784744	0.15983218076410333	0.07335478135058658	0.0008783654898147817	-0.023768331696098433	0.007660907045165962	-0.05117635579423035	-0.21047495057190146	0.2042177910534731	0.015532499919940147	0.03981472651225371	-0.005790774987690872	-0.0735116800724588	-0.018592448094877072	-0.15993947621943114	0.22770864980533045	-0.12345119984223961	-0.10319662838471795	-0.044025920438640044	0.12880757248523775	0.0014508999262654136	-0.12361357960304625	0.12543383607573397	0.07310006267854814	0.05384349572164524	0.07157342411708405	0.2394361900582451	0.21850948950361124	-0.06867153430032953	0.16238849928111523	0.03831681897589004	0.04990958161377494	-0.16922708316433288	-0.017038576538819596	-0.08128235903365649	0.08280588148933093	0.10710805004028051	-0.20744863510163114	-0.002203486400427045	0.11218615047942522	-0.0186678962313445
0.07290636450023645	0.03511654676270841	0.034166023195262636	-0.027131497806829746	-0.12165808041357096	-0.11215301474250275	0.07093525144553173	0.001945825551888312	-0.013851224460722476	-0.04238900423223526	-0.03051888454807518	0.10469117944881395	-0.033524408186802676	-0.13410647133015688	0.07436517755401732	-0.020487666386471724	0.0031395865532776444	0.16075783063995105	-0.002056055735050719	0.028918367311872535	-0.11789234912983254	-0.021966945235096014	0.060952604520860126	-0.15553737338412424	0.02008450931157096	0.01007910726448063	0.004128745558743939	0.10371588986582432	0.03344385148485215	0.14780718983564442	-0.09935895155940362	0.013592456721834798	0.008446678638994743	-0.10692544937550802	0.09562950020913462	0.2324673305852818	-0.0017006074483830996	0.05050210882737669	0.008451847581532725	-0.07135846699071759	-0.18207602778020163	-0.07057734830953652	-0.13919583809517314	0.1704102078059118	-0.011510969392323916	-0.03459193290471707	0.0889153824787806	-0.1121751102855888	-0.07668640380045524	0.006807226924862103
0.10287689914234806	0.05016850451687882	0.024832514251588222	0.007811773523601635	0.040023585552677515	0.020165290512925465	-0.10299722747769358	0.004607922163315134	-0.10736886589177526	0.008108254290082372	-0.04806479414882414	0.25393816227828614	-0.003989438375171192	-0.1404239566261589	-0.013418021067692458	0.051935874563788814	0.16733639461525238	-0.05894523999387185	-0.15824279740236402	0.08168370114309813	-0.13805987058996513	-0.0436155441507485	-0.025762048551099405	-0.006963345330010817	0.06891644570743356	-0.06836342822863876	-0.027372925216676072	-0.0014270352949388506	0.014959795751878805	0.009782717470792268	0.04360057752225798	0.08438395096417373	0.0392634115650968	0.045358552350921844	-0.15822231667464778	0.005022769916568044	0.047950754800160866	0.07289411945704503	-0.06923507742337942	-0.0659039274888645	-0.05741006752835984	0.05364138998913434	0.10338810549242086	-0.04074601072916016	0.0907962313627049	0.012347980916459422	-0.01242857771624363	-0.021138422981796898	0.07466113646021572	0.03255778167870701
0.22758254276476375	-0.08522246429973242	0.05181017020299758	-0.05292010098115129	-0.08692869869886438	-0.0010867137034972145	0.013735247940703603	0.29181735550600924	-0.018414581568320206	-0.11301787294846835	0.027301071749438573	-0.20746400375463683	-0.009195678260426587	0.0016025282295160427	0.07946003829452114	0.0973622249427847	-0.05035696189077175	-0.015061401462993302	-0.0766120830610671	-0.11280625548076939	0.030989477938063455	-0.12735855485965994	-0.041462690057186315	-0.09951739598992375	0.05496831862902597	0.1801430099266488	-0.13015879828033314	-0.18530184828975693	-0.01248868853500674	0.001569779595775838	0.021865930675729773	-0.044632051523434496	-0.020063929882543186	0.03675104105406022	0.1040430892644839	-0.19550487703182828	-0.03689394390314622	0.02138087939410634	-0.0917976104610736	0.17311696317672998	-0.06354098802287371	-0.004129268700728284	0.055602209684229076	-0.059128478880189454	-0.18465730478044173	-0.04286545269165333	0.10294405559270406	-0.033689512678513854	-0.08464343014589787	0.09256722095027217
-0.03307748960230527	-0.051016081365021726	0.014945608966330954	0.07707502096187874	0.2381713531732546	0.0827236107657423	0.11598399663883444	-0.050596619898785535	-0.10258681059694763	0.006233134961912297	0.010716991525959622	-0.10785127413645973	-0.017529452990401286	0.03993176017191309	0.036039339501808015	0.05042878533842724	0.029096473013744295	-0.05070086592700558	-0.05139006266488432	-0.1198951397993876	0.1784775039185095	0.0013450364619293008	-0.022485305579485193	-0.09287920814524588	0.29356579023277785	-0.10733280322228955	-0.04288479256060734	0.04158368362860605	0.06002129657442778	0.0957932055215684	0.18076085077692633	0.05061576554607124	-0.10560307999666677	-0.025694512512178153	0.0307832372513885	0.2068226041505824	-0.13978054784242971	0.12025765052252275	0.01799143695464168	0.08378305352294807	-0.0101994716635932	-0.08424326301263264	0.0750872779401332	0.06544310271056213	0.0972056965739722	-0.001330463537863531	-0.05998220233198494	-0.15587869950238417	0.08193732681394064	0.04238894824439861
-0.09657826328639593	-0.053857367329662426	-0.046675881195144056	-0.1482984431982418	-0.08176823966051339	-0.11338303568063542	-0.04124790118879367	-0.07386974983295629	-0.1627004920866749	0.20225902305694815	0.12525407310292308	-0.07790194215199857	0.027242139665360987	0.041746508982129504	0.11910858547734769	-0.08186050266600786	0.10921067839824261	-0.05479053042069351	-0.13358624041686135	0.07241365593144973	0.12907584241224282	0.2587908973530685	-0.11997252650902135	0.06989196850807888	-0.040980124379353305	0.07833587105240314	-0.14704895512312507	-0.12627697756985642	-0.07758748231664839	0.007896404566808452	-0.06410812665383554	0.06590543439134197	0.10268946182579144	0.05995775412453558	0.1618787639660868	0.0415826629455343	-0.12168967103401672	0.136337651353834	-0.060515623560599745	0.091041849968557	0.15737342165551063	0.045668801073039916	-0.14961588131646497	-0.09182121665097916	0.13227444668851357	-0.01691226856428164	0.007957353494216583	0.07588244161636093	0.06963228620803234	0.02787998123854607
-0.020866837122046584	-0.03126684457323573	0.0857898825291343	0.05535695310677933	-0.025730000061778963	0.10821123129931408	-0.012903411512978379	-0.08516621743343933	-0.07589706989033448	-0.0978740836309766	-0.02724100166036872	0.1233724278336193	-0.08050951810305089	0.01884757610181029	-0.06566893456274132	-0.026030904127143758	-0.15100412119852524	-0.02205382291565374	-0.019370537980496205	0.05402879440356954	0.022328091325537057	-0.11983921249520453	0.10841982440435427	0.021030304022199537	0.01983935171774867	-0.0009182353385138938	-0.051775744722221975	0.02178023397487261	0.047558843592858245	-0.1746895691345555	-0.05387608373460957	-0.025494697040358935	0.025617060569427814	0.1193311005927126	-0.07717408145967825	-0.049796184681784206	-0.05125341106465501	-0.08015275901045416	-0.034718649511226246	0.07708022199879712	-0.10538354953643457	0.04278143951529032	-0.17019022300183356	-0.0561337996442206	-0.032948930021798606	0.1674859672914065	-0.027480230475268805	-0.22012434734509184	-0.199888890686125	0.003402958634668099
0.06137708557899087	0.037545585762725285	0.01675701058009903	0.1162259597505667	-0.053959122073713166	0.08949105560268253	-0.16320148850264174	-0.09049478329380663	-0.18070413949318165	-0.027484530066979224	-0.004626121726634254	0.011410149222651992	0.0061883352887135215	-0.0927553330811728	-0.01902408444132157	-0.14974466686057486	0.13632289751322504	-0.0303626072898001	-0.04888861190436913	0.15889403284440828	-0.12422465335492293	-0.11255871140319691	-0.10962203248685652	-0.00678713816994819	0.04316316296375974	0.07396754681178337	0.2571995317494969	-0.22494324542007638	0.0608735589124417	-0.05571305725722312	-0.058641514888877345	-0.06197721282538776	-0.09087696708079734	0.1684524834603452	0.08422973270139028	0.0023195978557374822	0.13510157524870003	-0.15125289652988758	-0.13307051313309262	-0.21779677321946878	-0.06994145401232875	0.016169852670475292	0.010285857793233408	0.014934191105988046	-0.14110568310660818	0.0803154742614022	0.023962751823899796	0.07330542814659985	-0.1892762177590052	0.03114908587977899
-0.1187765239917527	-0.03973232525513619	0.05343648986363834	0.009109360625591317	-0.08515399797793188	0.0006273156184418285	-0.1531535315243643	0.11502673958982962	-0.020528401949625127	0.1118549944255326	-0.052653168709604306	-0.0523575988406583	-0.07641867866378466	0.08761739316930754	-0.07094311573284759	0.06445954324151765	-0.03824523976692903	-0.197596329989162	-0.05703140677864661	-0.11791082143628483	0.003390272368233751	-0.11904077356744902	0.09259751007146168	-0.009107586035302723	-0.017759599475873897	0.06558921377875826	0.09639069340758626	-0.0020098751769651647	-0.07712002995492906	-0.17739696161121296	-0.068604975703518	-0.06172122466479616	0.010705745299229677	-0.03451468811380272	0.06879329720514281	-0.06129832712706895	-0.005704116685294177	0.11839874431968894	0.03418252139549665	-0.006003754168856451	-0.06019444419351771	-0.0633231396714977	-0.08506132529519478	-0.05410068657828994	0.07556658387443146	-0.022188827129226874	-0.13497730693812313	0.17681692930597837	0.03199651911451631	-0.14069434005131695
