-0.021862157975196334
0.033615322688117934
-0.05450689639957881
-0.021204847389053347
0.02985566425563312
-0.031675789857159735
-0.028429996951742826
0.036091326625925776
-0.04758188298382168
0.045361664852056026
0.005053185805745484
-0.022365677543239985
0.015814198115491576
0.10808904654147716
-0.002087063505634119
-0.03183046753737557
-0.059816542518273993
-0.08551471060232166
-0.07111255219072216
0.018106765651595094
-0.03407125396063391
-0.009387918452268601
-0.0166462892725582
-0.016827448511265976
-0.02703905760143271
0.03737071368299948
0.07427793394787141
0.0179117873134796
-0.011953623751086346
0.031313818833142396
-0.03299938687120019
-0.023856090078763475
0.14677293543397701
0.016864743318328646
0.012796645782975269
-0.015322169107630228
-0.007282978702761819
-0.019863082333153495
0.04743233522757959
-0.060587803255940334
-0.0017470921289244007
0.06466081472018144
-0.01969497335293426
-0.009084448156225009
-0.017995133251860473
0.002111446586893326
-0.0298733222685904
-0.009538975520714019
-0.009472333708563029
-0.044632305804114876
0.004674865622603214
-0.021524555721943894
-0.0008774644372634632
-0.019417624875877938
-0.021427907940985307
-0.009849760878695287
-0.01658608681009256
-0.0008814268185288064
-0.03522362971017044
-0.019401700966279387
-0.01691316332934703
-0.08241913043721752
-0.041494042290326966
0.005210094189271296
0.0033530265301117074
-0.04147512618858849
-0.014519394234507285
-0.04518840503996228
0.01781335634579212
0.0028707364316065006
0.006107506112580256
-0.027802082568921884
-0.026789736267221878
-0.022520720393602915
-0.017507123069125212
-0.03307632784432816
0.02004379661939267
-0.04435503970268756
-0.0043427383885291816
-0.027369387077494995
0.02139272619498557
-0.054045386432769155
-0.013184643215313503
-0.020666817369514704
-0.04250748952440518
-0.007362898226572131
-0.040811188283338434
-0.0151473615770534
-0.043393811958038764
0.017368548956555555
-0.03782661332638727
0.010434434664693614
-0.03784249118612766
-0.04261862100681976
-0.03359662364768006
-0.03550543722020825
0.0019524444889411127
-0.017996916129030593
-0.01986829029747397
0.010461724178762597
-0.0432061177063513
0.014165579005772417
-0.021825484354602822
-0.025719988593805167
-0.0029711311046894304
-0.05077718223156149
-0.021212505820538487
-0.05369828318299253
-0.046544225728353456
-0.04161849427908991
0.031223297671225964
-0.06018391140886946
-0.03610037685505956
-0.02590895530611731
-0.05302096097365443
0.0017281372445726007
-0.031924331728894265
-0.048306908828931634
-0.029201100446474046
0.06466535591974332
-0.012838553363191427
-0.009054604193769153
0.004363492828412759
-0.05008179861869233
-0.011088249700664523
0.03207035976244317
-0.02742475564111543
-0.01176754780840308
-0.0742998449515086
-0.06466861460215989
-0.01111248619537512
-0.03531707547957217
-0.010593381492477289
-0.042579817321745574
-0.037509730838339674
-0.034012766357312846
-0.018582666817161874
-0.041835355451705976
0.027740790739605566
-0.05631413780041849
0.006809908569047484
-0.025135260519887893
0.06307580664870387
-0.03995538790404131
-0.021669696462020098
-0.005791943754043843
-0.026815880644373444
-0.05604340836221338
-0.0007836150111974856
-0.004129632489583861
0.040747736951031406
-0.024423281696799408
0.02697570829681424
-0.02091471143550783
-0.04328997958832008
-0.003859939360560216
-0.06606338600164546
-0.02092966056309065
-0.025347148899285944
-0.04016698673307517
-0.04352167688153549
-0.03939514447578362
-0.050646335635819495
0.015589339046824677
-0.0008348847663090311
-0.01793018126962668
-0.015320707888002615
0.04141040297145947
-0.03980157231849592
-0.03894992994746263
-0.01737491355911496
-0.041147455540509734
-0.037488988752917105
-0.048444722348267355
-0.035465390946162766
-0.06187700724275733
-0.036393264696134714
-0.0007149585347779379
-0.0037908824985278954
-0.00798667578839776
-0.0039055436788351825
-0.05082924722693038
-0.02889243374881853
0.016946892395905244
0.04214350809046305
-0.06239692561367062
0.02397642972148079
-0.028195574033388786
-0.03588780554744937
-0.038625055209592
-0.030404230045089208
-0.023643135946464465
-0.007764164689723063
-0.00370178416358751
-0.023675226258527245
-0.01532845499262632
-0.01599379668973951
-0.05306938261805664
-0.025274237881075298
-0.026892265218711277
0.011716362273854896
-0.011251838625668933
-0.02865908796195464
-0.027725332663554005
-0.00849831997532291
-0.014044278994377433
0.010044390285976349
-0.01957158782738451
-0.005972655673754111
-0.08244215289353024
-0.07514192123524943
-0.04864752803063701
0.013168859488053677
-0.03468557094251718
-0.02223638890467102
-0.04226544697905607
-0.04456267975024596
-0.012020801673423238
-0.03992509661592938
-0.02978182210355896
-0.018390507601882912
-0.024869197515825954
-0.014880724271834888
0.008880353859535206
-0.013116045841525925
0.011194926089256922
-0.0665211895803005
-0.015211386659441438
-0.016340251141847006
-0.025597798960431167
-0.011695820841087712
-0.03205777618188815
0.007389178657952788
-0.037006184425438245
0.03417778788254355
-0.0252117230147751
-0.03930233374734018
0.0591231387457722
-0.003644540193545748
-0.009250119686107717
-0.027388775347353046
-0.0299948255007264
-0.0070551474046242554
-0.05470624973421021
-0.020764714973856863
-0.021306603751129024
-0.03321643007938953
-0.04535180846884194
-0.017806417630437398
-0.006824936507350342
-0.013649753262656427
-0.05458552420619564
-0.014270444777883758
-0.050844918878033246
-0.03421703310897015
-0.020230573474125997
-0.07025293538622251
-0.014332237046066844
-0.016919296360674893
0.021128605842002587
0.015341496571057982
-0.04675616197246991
0.01883526193311843
-0.020257093530063705
0.017625168289961097
0.024591154524755496
-0.04206150847779288
-0.04734667937093392
-0.006572963174874567
-0.006122472018667868
-0.011500853324586826
0.0007450006335310463
-0.040766144138732315
0.0027812702524284295
-0.03335950372135816
-0.018566408008318054
-0.043394853468506404
-0.02674554200726571
-0.07688187320094919
-0.047459073055452494
-0.027696204902865194
-0.040950453998194906
-0.018847665529813297
0.009256672494462869
-0.04517047249550524
-0.027513226450413965
-0.028199680774934028
-0.05536531877506738
-0.011884153907698343
-0.03616266011254063
-0.04314737410918782
0.05773415688837675
0.0017432332473869643
-0.0289610520678967
-0.05408344998145645
-0.02485921463709389
-0.005249226193891734
0.0075424000066048845
0.00010032259431834499
-0.035268834584540026
-0.05742204528962596
-0.0023879979339207504
0.0037432355300989445
0.007222952579410305
-0.03041952372214773
-0.024721628823520327
0.0330799806862159
-0.015970099634097422
0.001477607706081122
0.01913168581901435
-0.030362485542530314
-0.03887017635034019
0.012112273442134563
-0.020202876190253412
-0.012866962809523637
-0.028306660969103815
-0.05452310732379123
-0.029197287192747105
-0.06924129331649267
-0.0252325490836915
-0.009831114800251376
-0.0036519737703339023
-0.02317698824451573
-0.0021225792884318625
-0.09544235962878443
-0.02062897167925901
0.033966751165802354
-0.013586778397101476
-0.004165499360750909
-0.041133607015301214
-0.03812573104241411
-0.05313600620738365
-0.03752656592219851
-0.031718074728981444
-0.03688991159122212
0.01511989527117794
-0.0021910728671109044
0.000422917364759241
0.014834634097129725
-0.033639624355954155
0.030327341985959603
0.0041093721674335185
-0.030308916149038734
-0.0381936688835947
-0.010043512409992652
0.015983077803444646
-0.024675676170981143
0.04232941887759216
-0.0414133547353213
0.0009298354045568212
-0.01271784339166317
-0.028844121296096332
-0.053931959556506336
-0.04487423756106149
-0.035387982543173664
0.03812275440311001
-0.011958550954956503
-0.02783061334151347
-0.04097418466618613
-0.033050448792386417
-0.03454817884186878
0.060352323523706744
-0.012141255887833092
0.04565489442059525
-0.045066876906503836
-0.008846384900810661
-0.006998177794854985
-0.05258196896065808
0.02723400709661832
-0.05318149141561635
-0.016034600563300347
-0.006235038561290084
-0.016078300522921758
-0.02940964194388327
-0.025530679434819403
-0.004879732585965532
0.11583854916038593
-9.181250586764046e-05
-0.04608968545039358
-0.05525649748399727
-0.014523003903195511
-0.041781068210747146
-0.03880082781529198
-0.03333086445029459
0.05043629448229863
-0.048213011097463676
0.013113343336278425
0.07807092593281673
-5.11475760253087e-05
0.04078860402209086
-0.05102717933950808
-0.03812086439008187
-0.04491177759111894
-0.05433659035078796
-0.057307491769029995
-0.006535067394771173
0.007344955405408233
-0.004799403091986614
-0.004571893228574112
-0.042384616634731094
-0.03441218040862885
0.0009480939777566013
-0.00047797321604950947
-0.023275721376526046
-0.03129347344947501
0.005565365818682208
0.06608580432429241
0.016364416359974137
-0.03640990038924913
-0.025256999243830694
-0.0001848773757690051
0.0035168452752827204
-0.07530161609847028
-0.00968159830236492
-0.027325859445385972
-0.005394480479097075
-0.03917030211837024
-0.05909184163581808
-0.014694817746530938
-0.047127540440468144
-0.03959151446066093
-0.045846962701440695
0.009458414740224057
0.04034438660508401
0.02259622044041388
-0.01359010696756842
0.05876162632545349
-0.023173674940386513
-0.003300096860450081
-0.02794886700815052
-0.04301196618363707
-0.04005091347692117
-0.007148558802431596
-0.02825849169635336
-0.006776935654143813
-0.007385475445804232
-0.008500843692403143
0.07860587009586051
0.012145878961387116
0.035684852446221035
-0.03598415151193539
0.027822022000237045
-0.05525159082084924
-0.0036262842925710984
-0.027191676736576145
-0.005368111729686683
-0.02669677436867938
0.09872377863282326
-0.013723811749216535
-0.012683739335238874
-0.03347946724405445
0.014986030101750846
0.015846630482201765
0.024678476383570774
-0.009174192812318106
-0.02762273823392185
-0.03282671898824684
-0.04252479111704958
0.010029192927988366
-0.017747170351558414
-0.004951346887986898
-0.07292593541432912
0.03159997147774153
-0.03826393939585867
-0.020403268653638743
-0.016183003531554722
-0.024330502983137006
-0.07184785293489483
-0.03007768662454127
-0.011403136861759536
-0.024548079575036262
-0.037561497431178995
0.014731515590167915
-0.0430128620387988
-0.014327581243229
-0.016806893379117165
-0.0006716392253557696
0.020874605399649044
-0.026639403270873507
-0.013207081869234449
0.01993672831904842
-0.024153749931628762
0.03152973898140807
-0.04108230819792721
-0.015146373414550638
-0.05964510863701595
-0.030613281372702455
0.02265359391334357
0.0021511761142071826
-0.027575229232769418
0.03258673356643476
0.004442394425885975
-0.03459325927738506
0.008259021408865185
-0.011957428733416186
-0.0002097629901376203
-0.020487584023498005
-0.03752981545686028
-0.01574432172522676
-0.04432662778164447
