-0.17817368791144544
-0.06462154164448464
-0.0174927947113765
0.03318397642551233
-0.003502047729322803
0.011401986858807339
-0.24660925447683996
-0.07998096302599149
0.0208626890533761
0.004206791310833765
-0.3013681638875137
-0.06925392640856612
-0.0124754407554133
-0.019302034555046404
0.0031749982241315337
0.048968196958678586
-0.0009429019220648561
-0.023489142629632833
-0.0920122026317721
-0.007647664967986073
-0.018855300681506263
0.024093703818167823
-0.09984972346371714
0.006441610062993906
-0.15007997636379766
-0.0973919867394887
-0.2288292480752693
0.06767840598665023
-0.024668879603620016
-0.06373386570872036
-0.016883225774556122
0.0056239481691071165
0.03950304419520166
-0.010858195565498902
0.014989553629399415
-0.05117387805140206
0.02649958221579574
-0.027667850524221303
-0.0909946894158
-0.06217718847666913
0.060703019423654185
-0.03623555621128704
0.027806658615891246
0.010642034099724107
-0.20880815627441995
-0.0549457443055141
-0.04626975415236499
-0.16999055400500163
0.03304107907851264
-0.0011710162604224058
-0.05249008382313558
-0.005691054479992085
-0.2560435213962481
-0.03826272501509034
-0.007276625689855853
-0.0111087958154802
-0.10900274940104407
-0.05516720806408942
-0.14341130520202802
-0.04315499859360955
-0.12712069732869877
-0.0827590508877596
-0.11629562550733573
-0.011941678411043918
-0.0336292097905392
-0.019389672078795932
-0.13287370400197812
0.01339395581659064
-0.14381721226199884
-0.0474057559980333
0.0045546860395308
-0.022027950474067255
-0.018501413308840458
0.004607874775230668
-0.04106095276688675
0.0317968810508148
-0.014394374880832998
-0.10412443036076863
-0.0672599616503571
-0.020926872127911274
0.0025261568054369384
-0.02052618720034199
0.08020107647786441
0.025508643618990506
-0.0004918393738873074
-0.0009053657466242336
0.028906246351120216
-0.026398613023546617
-0.002020412934164162
0.019075377395344633
-0.050531339257480844
0.04454430423716718
0.013809112584653593
0.0005518978248152203
-0.047433961990999945
-0.08983045622024177
-0.1060358433915345
-0.11189176573346521
0.09231802112448799
-0.10304441387797218
-0.05243345529278852
-0.04175807896208277
0.020021881245547535
-0.05123197369648407
-0.15349678812462633
-0.046902325942584165
0.07811347870968537
-0.08747205486934828
-0.038458435387971696
0.022595846161818978
0.018524530145883768
-0.06054978815543224
-0.02997141550373347
0.009556079437274233
-0.04295019878032093
0.018767829609234208
-0.019688481030402348
-0.007964465865435236
-0.03557419723006702
-0.13583036912364754
-0.06309008788872751
-0.07676375097772778
0.05480713246446959
-0.08220890749780337
-0.07814721904819338
-0.024396574967147037
-0.058081312014434304
-0.08343574573977237
-0.06453274893539648
-0.0035898473387923255
-0.015567875528276211
-0.04408280415405174
-0.032479060975855865
0.01274396350370988
0.049343154812452196
-0.02006822794778736
-0.07304783692683575
-0.05679673515589166
-0.10172316397187436
0.05650852787638018
-0.010667470593530681
-0.04252094903443062
0.02111636184010279
-0.07692498137762994
-0.015190986785912216
-0.01766855537735971
-0.02366144849609864
-0.051416384882752554
0.046372635666512
-0.02505823348866757
0.026013699389979144
0.023265800673241962
-0.01557397483666647
-0.10190209935093349
0.04048268850061498
-0.0854547148016911
-0.04037002949509577
-0.049089391045365555
-0.07409421370489318
-0.04638300306757169
-0.06914976055219965
-0.04129319468512259
0.03631955111399636
-0.009143960084761668
-0.032143618907130814
0.028646537376914326
-0.026589225644634156
-0.1441359221428932
-0.03839705090109842
-0.0054140709478157105
-0.006614903418479965
-0.2636068634812395
0.050893224229177726
0.02002965945388051
-0.2146920917130923
-0.015957833789322688
0.019301414203900642
-0.10095394769075657
-0.02847592628300733
-0.1430318948404634
0.009689747457290074
-0.013463885459151637
-0.020012958704234203
-0.09309843804560992
-0.09060779938323096
-0.09162193170734893
-0.18112259320252158
-0.013541058304862668
-0.002423162888988018
-0.01872628369427058
0.02023076260965856
-0.09083819897905639
0.007658324944712457
-0.029493825849416212
-0.06920347536575161
0.09376485890053124
-0.023644465185833873
-0.007148360871761202
-0.03311619168879434
-0.024645885967798726
-0.007889802751791094
-0.011209629919146471
0.0030718963239090074
0.043776753462965806
-0.15031783351273245
0.04583691231622178
0.02327687445841901
-0.015565411189782458
-0.06194506134234801
-0.14672770604092303
-0.03554691509625714
-0.04537750102787877
0.0003946856982206499
-0.010649985262493793
0.01934693313036686
-0.1182226975842851
-0.02812334732855092
0.02236257566015482
-0.00817615260589837
-0.012752072581248303
-0.0527469783035936
-0.019159825273194892
-0.08564795742599057
0.030581185931918897
-0.02400932117433339
-0.048561223157198366
0.049881305948436636
-0.07108269505168559
-0.18114461376090402
-0.05161151417729787
-0.011720407370408428
-0.12656244383422902
0.02929954424895286
-0.04654087306426343
0.01206981004594666
-0.05144824455421191
-0.0358443934338291
-0.05666640619592043
-0.04372504758781807
-0.18209927993035907
-0.01854556297044127
-0.040864490842003706
-0.09224054648482546
-0.014719256620758023
-0.04167404866837099
0.006847791918681678
-0.08610448985939889
-0.04455396403775298
-0.054988696441785036
-0.0938064263830026
-0.02845429666610969
-0.1265929313799205
0.042517110403927125
-0.14059937262861794
0.05609039908566202
0.003077976507154315
0.024311839711177053
0.008479801893017226
-0.059007042273655774
0.049182611454694256
-0.1588385294080947
-0.008835142423452206
-0.07297941407192496
-0.02859002495962931
-0.06343049843051998
-0.048160908723572565
0.03404495166810108
-0.03833585077461765
0.06564797358985633
-0.07857479160688934
0.04285483630461263
0.008863163852597403
-0.010835257932016045
-0.055608731153273736
-0.07786920657590869
0.09920567091475663
-0.2471538390533636
-0.05670424576130606
-0.060293629718650384
-0.21015429696524898
-0.12620539509653986
-0.04164149857810724
-0.05497993755830144
-0.05424704414164666
-0.02382645184642302
0.0055426433666451655
0.0010818767842541571
-0.0752883799781058
-0.06721468499071288
-0.00941312384660307
-0.03688338967620938
-0.06526484324210854
0.009836043431233798
-0.06403243710472212
-0.09286994683708179
0.008475326214858372
-0.0032507484742425982
-0.05468690075078021
-0.011313423680675842
-0.13180371077042752
-0.0717790198356618
-0.17503000244501218
0.004878888659246835
0.011808695929369563
-0.02100509628365281
-0.062195673167603105
-0.05689662372341006
-0.00969976108895061
-0.01424040178472461
-0.07237976174904868
0.010963397741917775
0.07515394644370432
-0.006949970002967252
-0.027847740735804535
-0.034894575498418144
-0.06483357967499173
-0.03049805184501995
0.020962751870080374
-0.157020610149361
-0.0058109374855735045
-0.01433295777407792
-0.005419842463802093
-0.048932466623643776
0.025673166146055484
-0.024081616736970204
-0.05420464658930865
-0.06411288272895933
-0.04145058535491867
-0.052784673792747414
-0.039288482978521035
-0.08518140608810564
-0.09853591597379009
-0.034913624520043984
-0.04230727545027255
-0.07636192007326242
0.03115489657430437
-0.014095545203872005
-0.029274042744234844
-0.020562126941199823
-0.004128029326940684
0.012518851025138299
-0.020137416962458812
-0.011301141957040833
-0.01478519367348002
-0.17817940660609838
0.005567908651508041
-0.045302642931830464
-0.052640892192778316
-0.028991587430746105
-0.0665654832528411
-0.048835282288270124
0.008366956925208488
-0.023305318207328285
-0.029879986164748136
-0.020256159058053003
0.004238716089016811
-0.051824933523955494
-0.10481641629656033
-0.03136873496151511
-0.05269354319746382
-0.004726230163841772
-0.015660538344200066
-0.08909094811709636
-0.014730599476199991
0.03713801064075136
0.007191570647491139
-0.03756142552595925
-0.017021772646789692
0.007457445877417195
0.0051202106014782015
-0.0013179670505397722
0.06677317325501032
-0.06045356200778686
-0.05285911402887109
-0.060185219138629564
-0.06671867400982429
-0.015181687706675754
-0.0005668018308131757
0.014720064962988038
-0.014262750009742873
-0.036999937763997355
-0.0761957451993287
-0.06375788873796508
-0.13033237624964472
-0.019051296608933233
0.0010725374470313283
-0.023135591213385057
0.03260958077930049
-0.036377663344740165
0.009736067358741678
-0.0487066467707077
0.11632311890561463
-0.03745937171180506
0.0354437612770187
0.0658938010175388
-0.1669649068247648
0.05420450069830632
0.02938257287267939
-0.018662882687744367
0.040370985855219615
-0.09800455453930709
-0.01415996709037635
0.017944014915516223
-0.10888391567175033
-0.019546985378804636
-0.12079080259414639
-0.03494722343760054
-0.0796315097077688
-0.03779581647429529
-0.07651658998311077
0.050527868127623214
-0.07266420299196846
-0.09955953376780692
-0.017486203570173615
-0.06366605624086918
-0.027406801184817097
-0.053512863649641654
0.016310337445353495
-0.02524823781471594
0.003145265763864289
-0.14289566317556068
-0.037136093884308934
0.05969162417662317
0.09499348710687168
-0.1557217434216369
-0.028465658648929023
-0.03296181127615952
-0.06601230478302661
-0.006833133464542647
0.03729545326507486
-0.11439087493009116
-0.048226196446473434
-0.12238876243118174
-0.021113496025245447
-0.09653904784194092
-0.02616673139389593
-0.09155372741609326
-0.07008669435269543
-0.007851689760915864
-0.19659414439108358
0.005369632252009424
-0.026086057319216597
-0.04778364166339215
0.021382259047612266
-0.015613343797012985
-0.016775752172647956
-0.036303171440459275
-0.24844815887573574
-0.06219151915565584
-0.08488177547806264
-0.06343426928403295
-0.028469185174388952
-0.0773499305927349
-0.05766543130045344
-0.021932938510781597
-0.07171559499322638
-0.007624941885853824
-0.017326595782813113
0.0159739047506394
-0.11475710641712913
-0.029403603828578775
-0.11393038955478087
-0.010264537418723607
-0.07776398821982675
-0.09661066241212728
-0.19284850025451222
-0.02544653338526024
-0.011235498835469199
-0.03225573566034971
-0.07724920809703163
-0.04445066598131877
-0.07993737462841549
-0.043671024463611985
0.0004954451743124746
0.01992694894008566
0.02085215796123244
-0.04766693811896084
-0.014186975138564406
-0.06784084208972513
-0.018402759646644607
-0.08255926674806775
0.05918508854826398
-0.022796408738048304
-0.02636613673027977
-0.05765059443144976
-0.03452032866449196
-0.022556111166715916
-0.034781316999325886
-0.034044672098564786
-0.050842878378336266
0.011265626142628462
0.041824043654352855
-0.06645439016615051
-0.07360725036987927
-0.27900852753477706
-0.05260857332886178
-0.06225990866610181
-0.027318477346850892
0.0077528268676645236
-0.03172991313604284
