-0.005461090749361123
0.0250856399435312
0.00047182173406603596
0.017451205663352648
-0.021410824257674595
0.031654299536372
0.000825369723710382
0.0603750376889003
0.0483286443554251
-0.0042528634488121836
0.01061060731771886
-0.0010094848571750661
0.011040027862811821
0.00333037159613932
0.048965172984611054
-0.0005333692182605326
-0.014808730894735092
-0.015633783457674976
0.059352919314807635
0.03828322571912952
0.009358767252842156
-0.030986786608127235
0.005244636233677318
-0.0003511580011493784
-0.0001948149812353279
-0.0022876385317759803
0.02287112779816512
-0.005686104491488868
0.023925087064536433
0.040041764689290577
0.006871557249431792
0.0010517155441314922
0.007278886798962805
-0.003278226676609204
0.04789817990595727
0.009109333681777057
-0.00023305640415811457
-0.0017935778845476582
0.06431200963045683
0.0064568362679551855
-0.013509044440024865
-0.04764319505973267
0.000984804585195674
-0.019694134539767812
0.05373460882788966
0.001579736727298087
-0.004359060234710805
-0.01708691367472324
0.005350742265374626
-0.012664512363673448
