0.013194417555122922	-0.10367812530944799	0.0029009011537218877	-0.12835928317171705	-0.11049758401500888	0.0410553881317475	-0.13619993780895678	-0.07284236424487119	-0.11668401821848791	0.01251894004528154	-0.0675669076637772	0.05431988401416343	0.043398372634132	-0.11880663312660969	0.11288752503547549	-0.009534630862174109	-0.11520858486452298	0.03646089762419319	0.1728034221886804	-0.019144647914579985	-0.18409632671528797	0.09253193504734611	0.15732033882707291	-0.10647467618751531	-0.07365245381118139	0.019828069090495577	-0.18515385885274158	0.1968707431262339	-0.006533123011506214	0.020232968356763675	0.04347924188698112	-0.01404826309991888	-0.03590506287448029	-0.09672839922097515	-0.11936492653268407	0.03917699431240667	0.13191871423382687	0.09548558366707852	-0.023843883452444644	-0.008898926482064091	0.16006631222288256	-0.0698327197076079	-0.16683130753942557	0.028209706364548507	0.08291972998949548	-0.2479693914413397	0.040902965590593074	-0.12119475940152959	-0.14177845992631627	-0.028084624463111045	-0.1100858990432145	-0.17761149729341807	0.025690053936265136	-0.006760939254415638	-0.17718495771927395	-0.15009938773588946	0.032474597898427215	0.05278460100768307	-0.2514931396541313	-0.12078125990403211	-0.008875816924679689	0.04107022794559013	0.04079013912290113	0.05573433964816281	-0.05915300832597347	0.020283116321109386	-0.033354840210127856	-0.0515613682808315	-0.14984969111138913	0.038540708243139626	-0.14665990080744215	-0.11140239023262363	0.06283492419751283	-0.010026947534026014	0.11726341361165506	-0.03733739204677679	-0.05181720224971388	0.12306272089532197	-0.02861297850639727	0.033930306960835786	-0.017559368167821852	0.0024711376924200783	-0.02724837824600577	0.08789064413212591	0.006582481755722389	-0.034913568505754486	0.02521898725311861	-0.1341891034511182	0.11964479928391154	-0.1308168858454626	-0.07437200376966928	-0.05160428452251283	0.015770380092001105	0.15899498215357358	0.10618024034791965	-0.15418422348263905	-0.07806334088805073	-0.13649189039823456	-0.13204030845797649	-0.059901662366807565	0.12222765586756386	-0.024138428491139844	-0.011114353733327085	0.018072725005519853	-0.09334474510951721	0.01397961922543366	0.03140538404768139	0.26212492212993826	0.10015764908654258	0.17332248093408037	-0.007020939410800738	0.05191743362358908	0.02652957627538571	-0.18345023395053062	-0.24365002270283634	-0.11367450941763715	0.11205611599232616	-0.05073507892580163	0.07784626741520972	0.14168731799484752	-0.13973689920787316	0.15790795304472668	-0.10924151651889313	-0.011536079476045284	-0.10396548990378357	0.03635316561689828	-0.006555008683555103	0.10359466507579494	0.09518159276787143	0.1663497995091971	0.07516075225364535	0.08615932023127025	-0.04240389695247121	-0.014177249758567951	0.032542747139758285	-0.12264125372229168	0.12835866327340564	-0.007280752428511942	0.01975068066126593	-0.15160452750521458	-0.029325897307273016	0.084378615087593	0.04160158942955612	0.08877251443494706	-0.032833810117094325	0.03581082093297171	-0.0016800009170004112	0.07552623286094369	0.017091235412616198	-0.02422873145497507	-0.2585194012644714	0.017204484846301896	-0.18390749116669047	0.06932186999785009	0.0792527914411922	-0.22706472967413302	0.03638913287515924	0.035588803659097085	0.03764063719147953	-0.12065526328329622	0.04736980545283737	-0.12064873303148327	0.07686234541026395	0.03588442869023831	-0.04494173372553068	0.05141316274630613	-0.09456380341229352	-0.05269867141018842	0.11634166961822177	0.11452198871670416	-0.1097565077553994	-0.054246508950202325	-0.05736265272665828	0.00894101374341915	-0.013048793158506716	0.1477878321636325	0.15301771372820108	0.2165719146662475	0.21294585975736313	-0.1515129464944641	-0.011596616441149319	-0.07084667713784047	-0.07851300459400382	0.13844644330568834	0.05405152454497684	-0.1515587554322307	0.2693626949101173	-0.1885724182653086	-0.04067846888605242	0.007710362207655216	-0.11338216994005564	0.04649486321174842	-0.06523590359872558	0.09437548329329588	0.04296537324441887	-0.2367696972346735	-0.1423408544468871	0.08867003838360812	0.03528526408349634	-0.10636182322564695
-0.03899423575816795	-0.010968017734322821	-0.20613453147223057	0.2433975855450533	-0.11659807691369943	0.005222875332203878	0.18709496094622352	0.007862598053256077	0.06141657816206324	-0.09968746075420178	-0.05469193782890761	-0.08681082963996485	0.13097524938197372	-0.08424885176126665	-0.07502308735358315	-0.10329430990353154	0.006795610655262807	0.05612803619723676	-0.1890328659400331	0.0191498331348194	0.045607569869954	0.1600150344375528	-0.12209047456720352	-0.09816765362844938	0.046105666411706006	-0.02406067231857188	0.17997771649552427	0.10256406142630087	0.03125022236422804	-0.033890746988030226	-0.05894497847820203	0.00643459903033798	-0.03252243026767612	0.18405657544700438	-0.1920324724269114	-0.033200969102861716	0.06048332278056218	-0.06689535957676193	-0.02756463612775829	-0.022257120662475937	0.14181625820846908	-0.032231318816071865	-0.038522773923610795	0.07002890631425952	-0.04472587209295694	-0.010959698398861583	-0.10475133142345583	-0.06686568041476741	-0.003868654517191572	-0.12484136487760632	0.01887905233569733	0.05476920782708135	-0.1437809311298237	-0.05039484205765924	0.2824724819078351	-0.022726762409311943	0.1752152089965314	-0.0003764552569366082	-0.04360399145563617	0.14177403176112818	0.11504707587982799	-0.09402116284052878	-0.10278007482945041	-0.14859937597972742	-0.09861204271036494	0.15516042515850606	0.016209304299293237	0.1564194881671025	-0.10244925855888225	-0.09164394875783215	-0.04743852886473502	-0.00880964048934485	-0.003875935777120716	0.08217837549532765	0.04293549342073098	0.061798157327363525	0.07687195062965611	0.13841766019867768	-0.2326604083741767	-0.0027062551219359894	0.0699109655683158	0.2864922587376388	0.004290279493932897	-0.21953265370124503	0.13377969377655483	-0.11246938322620031	0.04618074011210175	0.02565904202587507	0.04106697623153601	-0.2182682345070971	-0.012178985364902506	-0.16798277475103257	0.0615496014385944	-0.09691555476187574	-0.2222525302369703	0.0784949783824402	-0.12809664192981177	0.01603549875012793	-0.04721067446698701	0.08266612341649275	0.09337215741542766	0.02468436027011406	-0.01239328949632476	-0.055422884018178305	-0.12166212708485204	-0.09005462081154948	0.06788562271744608	0.22536357889134373	0.08936210835182792	0.08338323310086954	0.054093116129448476	0.05655931423868951	-0.21296984045568765	-0.08585975545814678	0.056391313546094175	0.07197082931956468	-0.0594526016342125	-0.11333430066020292	-0.007109974103536042	-0.03029335422938658	0.11973217678555818	0.06268435787522623	0.16119421177791313	0.099935137082044	-0.028870127627257363	0.01572633826048133	0.19854655946859204	-0.03309632774636956	0.007665200219295142	-0.004705545081276065	-0.006984362822202889	-0.0850375029650562	0.14731750166626487	-0.09495235475282256	0.1932886041524331	0.16932668698573264	0.031357373453002754	-0.0056238043506159465	-0.07703315886697036	0.007492515615785206	0.12999113957126066	-0.06911747820663869	0.18084793944659078	0.061823268701777956	-0.009861466372630228	0.08545141391351817	-0.09355384948462073	0.027068247850165084	0.20242526581219106	0.14398085628058474	0.03220868754702064	0.037990859296240534	0.0357487972695391	-0.007354435118817687	-0.08054831125574309	0.06432119773661216	0.11652523410780537	-0.029598106828840398	0.04669179263487348	-0.0511175496149109	-0.0093214955365515	-0.07116485748020256	0.012707998775877787	0.0033695098263055476	0.10524558918719515	-0.08764821733159814	0.04599903281668921	-0.08376272870372933	0.027663722515271865	0.21969585872860706	-0.037616958790954794	-0.176604803959963	0.1049254326167724	0.07132112355619867	0.07465390447722994	0.12295635851972499	-0.10933124575242031	-0.09805921596624093	0.08855396660372199	0.13299132272017106	0.015266937178627324	0.03582855473762795	0.053580553000026766	0.10737125360286764	-0.16585345615572952	-0.07735100784030575	0.013542941641663152	0.10248653864922644	0.25425744039631587	-0.005748803164116844	0.034148512849842896	-0.03136086252839618	0.0808825581769984	-0.11900029769339403	-0.019791781177042483	-0.10314731604914133	-0.23417499640465866	0.26304116711414927	0.10478955751686204	0.11300664127829305
0.10023747913978677	0.1405350588499991	0.01593504121887441	0.09136533899404833	-0.03160678972416084	-0.015734507657539767	-0.14082410875194593	0.04612981820361974	-0.03291103660715777	-0.013074042431697335	0.09260460517290893	0.018261361700909973	0.11183433724239968	-0.05297761817420045	0.0487315552251577	-0.0810416746347477	-0.0027155855224485458	-0.03397346964814535	-0.1056791449115224	-0.020963288130733074	0.035751477057172486	-0.07584113211421874	-0.06581668190183945	0.13443229044426533	0.14047687312052756	0.09497938633591278	0.17236544053263939	0.12259245522083127	-0.00983116219935791	0.2158982694876786	0.15466193822215263	0.0046898145559709625	0.02501944636901759	-0.07977063300462184	0.012578137341706043	-0.14017084943041694	-0.058290818426754494	0.10637626661999881	-0.09708233185450972	-0.022767839792879985	0.05239022622439416	0.00303379062091081	0.10889585888587683	0.12276457933903788	-0.042164175772697925	-0.04059428799978765	0.0022830054216375524	-0.0762005059893435	0.16385158549599202	-0.04149675409783774	0.09112149085559872	-0.16128995698183377	-0.0782744158753215	-0.10358261938162049	-0.1466179677316534	-0.04133094953438496	0.042480788479832214	0.13295502506839335	-0.010344206104548713	0.01043072519696932	0.03276819739207141	-0.07264902274946827	0.0035354143640643786	0.20273668327911767	0.03879126964438374	0.20697936338840514	0.006005116113927244	-0.03607923595192519	0.10513254004445635	0.14046827936752032	-0.05249339817734699	0.09196947670146861	-0.01010294487322714	-0.13433889869925342	-0.12691822634035754	-0.011472560169257646	0.11609531599524998	0.08600564569451581	-0.0868836458981387	-0.10062759268898668	-0.09191309778547274	-0.101738540247529	-0.08287167370411781	-0.20255906226596684	-0.24634068464379621	-0.25427132455047835	-0.15504628791147623	0.11573263433343531	0.3917775412776231	0.20695492369430799	0.017910440566626915	-0.07515218010966218	-0.06484781552987133	0.02197983481142275	0.2117855541312029	-0.09568377873985856	0.03225229536621582	0.01359658127524808	0.002275216823973343	-0.2042871748264011	-0.023172255623084614	-0.13311212537330602	0.23051564848419243	0.06672959266963437	0.11903676716729023	-0.10386288030675771	-0.03864723553147841	0.21046883996149765	0.12678083099210105	0.03364254045802424	0.15297059687140732	0.18748762323269996	0.15132746768311578	0.08893805189293935	0.1055738113622122	-0.032623418129538125	0.015432241379573325	0.07661492596192321	0.0318228402576917	0.04373440472862405	0.0009082724552589936	-0.27460589484438713	0.06484537038985064	0.012700068408020102	0.024567663512767117	0.25612051451690193	0.03286084227732502	-0.09495100942886134	0.06306940075699799	0.00010115311840873692	0.10967523038138337	-0.058346569282721764	-0.06752222509650965	-0.05692795040575952	-0.17510688076655223	-0.07333710663437366	0.16861904245972878	-0.08170019036956015	-0.13550443039216697	-0.05231182220779718	0.035698970984158224	-0.07524990711583379	0.033583554411280296	0.022897832339233908	0.00043552680725968086	-0.025543256638949324	0.1752186141311972	0.01707450203221722	-0.06225088007205939	0.08717901525786809	-0.0016136040872377863	0.02305595709628561	0.12289246394357735	0.13083352687355035	-0.11334071904495063	0.17445780371255717	-0.006021855315862817	-0.011490736467148006	-0.08244341404311745	0.07341744957317037	-0.14827080014132962	0.055958410145957885	0.17378845382716676	-0.05248987367177142	0.12780664810083373	0.003531802750981456	-0.13963135452746936	0.01991596903345692	-0.01654167051052347	0.08887704386792777	-0.03657742491668895	0.06470601255790898	-0.10111681300373795	0.06551292789809592	0.016479462138813693	0.013277179492371647	0.010817771271930912	-0.0051192520061461595	0.021916698586808402	-0.02353374830605338	-0.08194383240207835	-0.14309205286961119	-0.04952368791923442	-0.027380044447301993	-0.2904065891070278	0.01589370473315552	0.26490505617682325	0.06629722523844814	-0.016218854612606106	-0.07937209563710555	-0.1672511806219914	0.10084008671175868	0.06810412323931168	-0.13472477134396346	0.10518530571574208	0.07444761880760199	-0.056561211775491844	-0.03359624660509559	0.034152831055922234	0.047646005700333685
-0.10776417180127044	0.05758504176331099	0.009205321173488658	0.11224080617828362	0.08230692952761473	0.010384534145478802	0.09417968985299931	-0.14816670034592538	-0.03774372119822053	-0.09629660608841616	-0.05449155907344713	-0.05649685545890044	-0.12418953199836885	0.09873053151474484	0.0839657511205282	-0.06259518103255562	-0.22703956057979865	-0.0505851351266611	-0.006314505455777202	0.1327858156315399	-0.06028093011369257	0.09798319409665397	-0.05046401025736461	0.060201869200512785	0.08045747750713658	0.06602508976928252	-0.09943909995411994	-0.03616097594277898	0.0587018721742322	-0.15707194488885468	0.07980640299695557	-0.12164553511667138	-0.13393773385805735	-0.05722302495698691	-0.061735891957582535	0.019360493696452263	0.015867761451555253	0.009033470806103405	-0.09811821041183044	0.12187054547253022	0.002586870129558348	0.09862470480766812	-0.23077023164095645	0.06041618243698677	-0.0542711796290076	0.07676182895525287	0.1739735097262947	-0.11733973540979106	0.08578479147114822	-0.059821047778562945	-0.18808222377100098	0.0892152256136328	0.18108063660176993	0.21269148554397405	0.0264393205024632	-0.14542535757033723	-0.019048115057994648	-0.020747497269428962	0.11552665936584701	0.0016625156512971395	-0.20783806067135766	0.06352654878521902	0.009367298754939102	0.09032829948694589	0.029629249276935107	0.06914616842470211	0.0026948710567680032	0.031137680933557694	-0.09198610021960119	0.03924510341962102	-0.014829549018430897	0.055974331763514164	-0.11582864936481203	0.1374562002841626	0.03144360447058749	0.08051583634331952	-0.001234921924902694	0.06043728230531048	-0.2308669103308658	-0.003710052481428391	-0.07998254175237633	-0.040818215780115685	0.103408223201602	-0.15994385783545642	0.07402392774634023	0.04597438280830001	0.12810246188548635	-0.19887954793245496	0.06965201400744092	0.028559460850611937	-0.007495686991019575	0.141036794155653	-0.2130427071177855	0.014944680588934278	0.10558912493915575	-0.16445823324644007	0.06521185632261794	0.03309199216545159	-0.2106645700608365	0.10928427846889119	-0.08662047199393365	0.1579150704384136	0.05867638472537657	0.031960590228826316	0.10011516423457831	0.08900179659122186	-0.19419942303753765	-0.17073405545103212	-0.008255316657959411	-0.10893413490870596	0.1695024500150722	-0.09704263630917856	0.00942827547106	0.05600877213956882	0.24373886788873647	0.11492429854268012	-0.06567748943349969	0.05633609597388884	0.06983212779341248	0.059590423109869846	-0.09670304020707345	0.2049631682461474	-0.12114942205872954	0.06654707376411235	-0.08206395392016948	0.04854072653503817	-0.023180815591653112	-0.13564693133537825	-0.24727473748910267	0.09184596452313963	-0.05603645150851231	0.014741679865347117	0.18107624581461595	0.06302864879378345	-0.2853112168510417	-0.12795383202575034	-0.18586395899815816	-0.08515440488107408	-0.027015279555638292	0.25546308534476003	0.1032279053332106	0.03502073519651621	0.0479457346441757	0.04912273496545931	-0.17519037532571657	-0.14408984198719	0.048811694981923705	-0.0011375267489612487	0.031630809804361094	0.15938000993655377	-0.06795957324320222	-0.036119755898281355	0.032591109416856626	-0.16980300455659658	-0.14801563799368697	0.135773955100164	-0.033707715842858754	-0.04951724595871104	0.0277662226780438	-0.16621405260657246	-0.03130432639179211	-0.05644200762195997	0.03674198865009164	-0.21096154655623092	-0.0814070588800324	-0.04655685870396398	-0.048487459275387466	0.10663659375487985	-0.07883112907140889	0.309426592122923	0.07469616241510778	-0.04289985786187313	0.06133332777725732	0.06952525776524651	-0.02849313019488328	0.11684690721129963	-0.09475749117071933	0.06410321221875648	-0.010880096833983565	0.028292375976447688	0.025399177963257403	-0.0005034898237065051	0.19576770923452858	-0.05583559211374738	-0.08163866285917255	-0.0019026587454063011	0.13975423123364702	0.0005369106495136751	-0.0023305141618344912	-0.05494084779329314	-0.04859899490458691	0.10893228117477766	-0.004177642367997148	0.015330679717835752	-0.06549817992197823	0.07381726784566497	0.12490523782975312	-0.09277844161144916	-0.0896641190785669	-0.08193289139705386
0.1018751375461412	-0.09680763551385815	-0.03256820711989039	-0.10092730013242178	0.21157017953093044	-0.03857992280009593	0.1907300761320815	0.00816284444534093	-0.034007521036507414	0.07400360685077802	0.004945617415401773	0.1526444728289452	-0.009936576307590574	-0.044958778966210186	-0.016958320233342723	0.09824184276397617	0.0294820196762208	-0.07439839076921063	-0.14470140376638538	0.045725762361341925	-0.11512070385802682	-0.17489753329841667	0.10938728526548672	-0.1132399809383253	-0.19037641692221935	-0.020903786164583466	-0.04153870979293417	-0.08804965994805794	0.020121060486707008	-0.037893708953938045	0.18811566861803836	0.0025793613874452717	-0.11087406574147739	0.01205931202981017	0.08715055914804257	-0.04067229170586016	-0.1598840104338084	0.1786756182289257	-0.13253152922039735	0.11414537886485573	0.11296418963710365	-0.0021897938154635884	0.06894763056945571	0.09969414202156568	-0.10753149746838618	0.150586570457672	0.03463014261728832	-0.21974267495678051	0.01973431232144158	-0.054748332391218846	0.052712239650337785	-0.07739422234672547	-0.05663965215033456	-0.08784542242092402	-0.006776120069553149	0.051319950270316946	0.001985558091233256	-0.055130349431280735	0.038766160677522796	0.1048423756562241	-0.10971651608612276	-0.12910548847970177	-0.11292043347707816	-0.17235995345338584	-0.104008285299992	0.13588990077387117	-0.17736138099477652	-0.010430751303211735	0.06823523811592146	0.015845483517381066	0.08480398822942575	-0.0038346120156677508	-0.04866591000262685	-0.043871284750626	0.057918347424695836	0.2759283118908333	-8.461676580460551e-05	-0.029292573443861002	-0.09368159644854593	0.2007896486219125	-0.04302363225601482	-0.05659196732973533	0.01341768971259828	0.18261866947169364	-0.056664550527680414	-0.011944270003814563	-0.25161570765473434	0.1039642494199102	0.0212301863852289	0.10291472464681442	0.054553719528571104	-0.027098389316704864	-0.07921128842384284	0.021356418302870078	-0.11978691132144881	0.009362551538145976	0.08284759822252198	0.011838289699869818	-0.016237782017396764	-0.060847787362163244	-0.0148113992954692	-0.1088278972382226	-0.055254098339678565	0.20123973894682265	0.015969439357148976	0.026751094563244454	0.004757627309026696	0.0335962665409613	0.049907423014279105	-0.03925251812160572	0.08646519470439151	-0.08803491486306383	-0.1484644523421265	0.008897305593064748	0.11107016637919363	-0.06874629558228032	0.07491627327036755	0.08752913577208032	0.15602627493302193	0.2069762853444327	0.07850318512478756	-0.02728255870957776	-0.1672525250850955	0.09531708264612314	0.11227806196896956	-0.0034688472363255504	0.03910478300362158	-0.11147243851302846	-0.06326553705089813	-0.12282919385674246	0.025320388564262795	-0.03806525526321197	0.16000519958695553	0.025489713605078616	0.04188897257539453	-0.043813873684664925	0.16142662438025931	0.12905593810164437	-0.016470794775918368	0.029856890821918336	0.16151176393577932	-0.1186094991164558	0.047594548585753384	-0.05928207451444994	0.1479255367141516	0.05409645503278866	-0.17686224444167048	-0.039606460293929606	0.16183300712759816	0.10812141399251154	-0.1075602891180273	-0.09663408204641898	0.018823150532652475	-0.006621010500564824	-0.030542125150156783	-0.04143152205321647	-0.04851386025076008	0.24116871674777612	-0.016744436721750033	-0.06348234442762307	0.04272994517833647	0.021021226752648347	-0.07590796685631603	-0.05919721988997901	-0.005399499532669374	0.03286064586156866	0.030376015871831728	-0.1080848466598446	0.05772614175367153	0.09442445668905364	-0.10761607891176633	-0.06589215035976628	-0.026285519963476944	0.040923434547951214	0.03772160892862018	0.020386378862315833	-0.14400482842202117	0.12998633769113832	-0.08680489757494046	0.1342408025101924	0.15780685979220488	-0.13008910073164673	0.06516593212840698	0.13518245568476162	0.08832158742823662	-0.1261475312803599	0.05064391966502247	0.07105011402464707	0.17114743269646085	-0.0074142067597442705	-0.1664610138569709	0.23309569107773961	-0.0019143169344891897	0.11438804325135772	-0.02722161964074491	0.04285544561272552	-0.08587734090327452	-0.08308839639937347	0.22284938927221895	0.10492876655616719
0.004139731234590538	0.09785558434755687	-0.05399729575823071	0.001545302719454013	0.011849024002472026	-0.07676961864094797	-0.08914707980193454	-0.2049212664977537	-0.10281728366917728	0.18193005172029542	-0.18140142123755096	0.007745189124054086	0.010763419500130328	-0.0025274808295567453	0.10572990152155447	-0.011137288422108302	0.1114283128594522	0.05423371500358997	-0.13852892340108525	0.0998428250720936	-0.03543563111372745	-0.1772466027583276	0.04630750505286443	-0.029790987721271176	0.17324594443712799	0.13454631347673834	-0.09947236495539265	0.08931578426887499	-0.06886059267371376	-0.17311222018608027	-0.04421157669634969	-0.1375467801792465	0.017458791395011417	0.1880598985155125	0.0055146466010006605	0.03972931710432873	-0.10074326852257844	-0.06011796574028969	0.03657258506764132	0.0015516113117307387	-0.07349335801227333	0.08904243803275062	0.02030953873151612	0.22264682263036895	0.05485050562595984	-0.11377831992045831	0.011442931903250346	-0.1088243533806177	0.2004022767225685	-0.09801892804155003	0.10917893488637125	0.08438916800479233	-0.06317202687975695	0.0335332355715634	0.037767581042058775	0.0762432417649994	0.003427520621234017	-0.0471232496988079	0.04369921031099403	0.06507499772088586	-0.09351491622798629	-0.23051683693714223	0.06373059579123382	0.03408345741461635	0.050366297446457306	0.12256226405102773	0.09757363326756807	0.13229547298732552	0.07979860968971444	0.01216396117329642	-0.0993823156912648	0.1201668072021789	-0.027845991039265012	-0.052670261316046504	0.07464023602325554	-0.17365599974986665	-0.07873262455102616	-0.059784123856782875	-0.04714207583881211	0.19741540896324297	-0.00967887632677019	-0.08253427773273071	-0.01283550478860193	0.08526672602933676	-0.19058503337978572	0.005834576821675761	-0.04531119284265458	0.047618701383450805	-0.12572935830181434	-0.013814274255716076	-0.01675654450489282	-0.12463236451064809	0.178808410516172	0.05065133572175292	0.094706219483395	-0.055707717201215694	0.005633409766210438	-0.1178618561974248	-0.062466768778497474	-0.09054387657633675	0.03709967144576439	0.17200236056044557	0.09198488626116859	0.18204073586532699	0.08068852324519611	0.08224961254178055	-0.08591377628263441	0.039042829201305876	-0.03573238511864451	0.10356167150402841	-0.14016606031799828	-0.005329634295579906	0.00220177221070998	0.17726891345155862	-0.10915274738415243	0.11701255918848959	0.07513770892778765	-0.028992505864786137	0.04097040114071047	-0.013682888798966193	-0.023213217678848853	0.0780549875668161	0.2697308290438067	0.10413815602908731	0.03493934422071675	0.13110657749416985	-0.1443969489075068	-0.010557733038211597	0.0051592452038766515	-0.09044450069904215	-0.054981148062477406	-0.1652087919000285	-0.13392133773752218	-0.020043447194954198	-0.081729210105522	0.06081665336060692	0.034352370086116205	0.04751329037505772	-0.05037476479579374	0.10880166941322045	0.048382689858240464	0.0211652921890114	0.022427081803479337	-0.012165835223884876	0.1327861416637497	0.13790129713825244	-0.025854059793374178	0.024908472511188808	-0.05181619909109359	0.24379782700990646	-0.016291710733523635	0.1222242358126929	0.27430922652395445	0.02856299436613692	-0.17713270639581538	0.15294662294687913	-0.042336862682258426	-0.06876059163040443	0.16532042972907374	-0.1273358309928903	0.14087696579201078	-0.01720697534373186	-0.18894717153407908	0.11165141596824142	-0.24108465622604394	-0.002289605910263006	-0.16347914274293915	-0.014177072410203304	0.06958679288642648	0.045646998139058384	0.02079891778617208	0.11430040179909796	0.013613261690059325	-0.04983697099803229	0.03126852480157278	-0.058562689191266434	0.09146875481371232	0.009118958237072702	0.06364605085149488	-0.018889006399016584	0.029265928754648025	0.07417287904356308	-0.20354173503021117	-0.16002007678601193	-0.051949252669489084	-0.013437399736750563	0.1182932183402048	0.04726616987945187	0.05709844166026583	0.15590349545659749	0.13679288281229735	-0.11295730303566301	0.13162798690425256	0.04730011655446407	-0.039153526355480514	-0.02688305937349804	-0.06576564315685424	0.021015816439710476	-0.010018503672662894	0.1341472624403731
0.19385690452141888	-0.0481136101322168	-0.1216881722643949	0.07124347358256561	0.11615525333269873	0.07915392978641703	-0.16668846434820847	-0.10279763558433636	0.0211373940945046	-0.06272537817611791	-0.09602222313397223	0.18851809976185108	-0.11065014240363094	0.1199345858185841	0.03744978875159403	0.0812190220329158	0.14126815902434206	-0.0707563771605129	-0.012883223383379633	0.036279501039858504	-0.2026950516105635	0.15183108526227101	0.011319545884860706	-0.08601738011921355	0.10053052553011375	0.024428929255773932	-0.03310576705520218	0.10501776368854915	-0.23265417011935186	0.056049848853570096	0.13388501756209067	-0.07658553304489	-0.14623296922486162	0.06869155289895906	-0.09750627282811725	0.23493035687077807	-0.03610552612492359	-0.019824649545881246	0.06936002040003326	-0.1665696715468209	0.011765261822170251	0.10866409019698524	-0.01855467607316897	-0.15005572580475046	-0.016451602875424364	-0.18874839405868551	-0.047980267884287164	0.10487464102531803	-0.06165564269420411	0.07620179951451757	-0.12490461580368521	0.1962627297717105	0.16771420057747033	-0.05408014901636056	-0.1522347557974021	-0.05426396331773467	0.05366433272213911	0.12806893513689205	-0.19524919373940255	0.13362207809303406	0.02143535806643427	-0.11411076597311144	-0.2526122653143384	0.007618754209321318	0.029926173094051083	-0.025510212753929	0.10223347224768144	0.23756625106145055	-0.037271171817652535	-0.06728107072252831	0.1828636383997498	-0.014583076117467514	0.06527052692297895	-0.03505852584425308	0.13405380576396964	-0.12093459364246606	0.017039520695222427	0.03868026106319442	-0.011299733935239965	-0.08355988671499187	0.16890476171975405	0.09013471458362342	-0.10578476566085195	-0.18829938144664998	0.14671554654142455	-0.07881570918822396	0.006087637166656385	0.014576696299457709	0.06326611745059749	-0.14308848119231266	-0.025655499230160573	0.0009650259100254179	5.17323108258162e-05	0.06994697793498059	0.010801202532895718	0.054992898116265454	-0.025035970437024782	0.17440485295261143	-0.010928229199853846	0.032159185215335534	0.00981056099161886	0.04473980677605425	0.12220086228551824	-0.08943661448789005	0.08100743921143187	0.09389274771660662	0.025550787980613318	0.029692144765248035	-0.14169647544886757	-0.003963649892565888	-0.20177080212970464	-0.01097913160441865	-0.005919957653270431	-0.15092775026666777	0.049824629220085834	0.11926880978507903	0.021500497620192946	0.0010388118698290364	-0.05254416349557706	0.07337215012013076	-0.08871545234041638	-0.22548816146018746	0.16742772311907514	0.10006000320839957	-0.11093927964057106	-0.13237775311836	0.01860857154995071	0.023869446643013485	0.08004833795931279	-0.0454764654019183	0.1130650771980045	-0.01591307388815878	0.1223838955723597	-0.025017189761289183	-0.08542062760223323	-0.03945991613444081	0.06683861892385703	0.0463861239906264	0.009048583647045026	-0.10444603156168068	0.0007908748593896334	-0.06559652865851087	-0.0592237704606568	0.09418789886282956	-0.07377272972694124	-0.050984178210437214	0.05413201117338603	-0.08573281355869901	-0.08913977425715258	0.22264581720233553	-0.0237449656475999	0.07665602006954005	0.25699930167366897	0.025448645572108117	0.046368705475050745	0.030559515749929603	-0.05742600634079665	0.031289439771734116	-0.00859188494292475	-0.07014365526761482	0.08358560756557804	-0.18955149191440027	0.018812709295808524	-0.008803815532266229	-0.10996257505010656	0.07876156413703998	-0.10238068514977815	-0.024524398353569	0.06523933929441804	-0.19426527905702648	0.10743233841747558	-0.020546458984382357	-0.02479839517113952	-0.11749585987097054	0.027423968732501674	-0.005408407692225601	0.043208839337867885	-0.0164070711207708	-0.09751952820257564	0.04892107714034045	-0.04881237161646699	0.07102199467821634	-0.10218521820526263	0.0862456851876571	0.15081821733340783	-0.014190838991988572	0.14703519768104237	0.1163690261594755	0.027221799315505692	2.8258554415994857e-05	-0.047112226517695345	0.10783593430705607	0.08396800586589324	-0.11013150770635868	0.008889732925296477	-0.0758740906267526	0.04988972250109849	0.08212424442523013	-0.1646897551371422	0.012329378320335212
0.0398519092344555	0.012221998927598546	0.1830890710470974	-0.1565999994941324	0.14339062021605953	-0.08905364496037695	-0.21104005096118034	0.025130298833347987	-0.012055984651058373	0.0072427804721603125	0.05195420154709645	0.046113340917148214	-0.05226680823413801	0.08667068660336366	-0.20230252713031177	-0.015771586395691612	0.11371116746761224	0.028210922077793903	0.0048758622230961075	-0.03469028444061509	0.03544586947224074	-0.024372336965386286	0.06273550745773031	-0.052108875646942034	0.15793927487332146	0.05201214942919538	0.18526241077153321	-0.036612796804875024	0.1213421227950512	-0.12692268446451246	0.06661958881652381	-0.009457622444490048	0.005105314563353092	0.0749645433771858	0.064182676520189	0.08294493560124795	0.04150671611523668	0.061060041741052014	-0.03075471854124334	-0.05951908063989184	0.02255832760972228	-0.21277918934407367	0.038587733986433025	0.08250800209978824	0.05301721732614711	-0.060674758608612045	-0.20734791280878645	0.0701612441809433	-0.07884910453674066	-0.12872174550630347	0.09847779483605831	-0.137850060371061	-0.01123268884947187	0.1741768741267623	-0.07283979663140172	-0.10670013293666407	0.05581605836664937	0.03495617951495397	-0.16940805377026721	0.0006862023250812474	0.11678161409706088	0.1399281928257852	-0.025011184282182394	0.05148533286991122	0.05028886580880479	0.1163558794846406	-0.007765166362497394	0.13811937947836805	-0.0726115254540845	0.07606435926158539	-0.0977379992930816	-0.17796780245150282	0.05587129646283845	0.29217008216919177	0.030683011716177794	-0.014342697156619458	0.12542438128765646	-0.04296782945405959	-0.17569304403574162	0.0847839247280781	0.15457653351026143	0.002190818741988925	0.02667613228551737	-0.060956372796324376	-0.015631520461944423	0.018599101110570282	0.004531077156111335	0.005371694698138626	-0.3127603886861056	0.01627341116591578	-0.13199415739353296	0.05200907770665849	0.09961485019944209	0.05418857183761784	-0.11271252994540949	-0.08789377654673274	-0.004883103194000859	0.08726145264589616	0.09582030292714072	0.03542156300293311	-0.09511652881671738	0.11714514052829073	-0.0016835442826499778	-0.039029807167429	-0.04786873683231405	-0.152576374873326	0.10645230214581264	-0.005334314860946434	-0.07338733062261608	0.06016140895161962	0.07736123048394475	-0.16879947955330804	0.1552164438536037	0.220250136214492	0.009010896445587462	0.022635755241418417	0.2506399393757658	-0.10583499171833453	-0.05216104269898354	0.06329292561689631	0.11906228536980219	0.002196287386343156	-0.08338592447169528	0.12856174702238654	-5.362074204872609e-05	0.002199519726374571	0.09276405044791954	0.13955180573019899	0.02244245348507954	0.053690524703922056	0.10443054507290847	-0.02345661542954016	-0.04895515400088114	-0.0368188044307505	-0.09353439527294614	-0.11495409215539823	0.22833470463820157	-0.09022653564977547	0.02704130662185512	-0.008614076992298427	0.09822485057176623	0.011057860574575126	0.1404825283571635	-0.010573528407595087	0.024618468794750086	0.07149510994505195	0.019622811036738828	0.04714038739122107	0.024995891769580152	-0.1447121999932135	0.07790812265970007	0.11730642524960795	-0.010619644877369248	-0.02094578645489114	0.028718656739554586	0.19367762886235979	-0.026996556679624313	0.06038043070803576	-0.01583781237036529	0.06288599349033787	-0.12966434789367481	0.18374527810736146	0.039358517163021994	-0.023834868200494196	-0.030372718581640454	0.031692282013621106	0.2001703366845061	0.15766770892657156	-0.026821555241798984	0.011127639832414729	0.014330703506079194	-0.18800225983526078	-0.01786467135089635	0.01955119765077779	-0.08689217304773394	0.17396187890295242	-0.11403232946491582	-0.10655000905389933	0.06280379736087116	0.029113380024447067	-0.0426589651926819	0.10140732905055491	0.02601462674429212	0.18631967926355228	-0.1703126518562202	-0.04704251239403471	0.16930162621486858	0.05288863829199126	-0.005610344750825833	-0.03977854242828202	0.03622478448782558	-0.10393500822826515	-0.14475631507549558	0.06494268554192088	0.09126677691657883	0.09129663773853398	-0.039723625907499296	-0.04467940240950419	0.008835916449464723	-0.09891934430680129
0.06116504888309117	-0.02691087601767555	-3.329093849300807e-05	-0.031236292288253014	0.07552788478432294	0.03704875167770239	0.1899620451944276	-0.04312907977332572	0.18966030507454926	-0.1814256607984407	0.05490054679095979	-0.15292127811727863	-0.10940550502444488	-0.09334429309225911	-0.10789376803147205	-0.0539540621618706	0.24640044637455027	-0.08756076726071638	-0.15460122659906617	0.04865173930938564	0.022065599128241985	0.22355715368364185	-0.00417920961674779	-0.2296377466831381	-0.05796832883637237	-0.042028726046524544	-0.11423217006990513	-0.05517621296232774	-0.015713278554638634	-0.016980971193634772	-0.14256036934409663	0.06363527389716295	0.16991609448878436	0.02550596533904073	0.12441138037150641	0.017040081223303825	-0.10455049857822747	0.035990123329623654	-0.06519716558001636	-0.10542188856930944	-0.00261891696775985	0.06749303244484824	-0.04424858332263545	0.18606740989549983	0.08692841067365537	-0.054522315717250865	-0.05790492678745407	0.22602771535027438	-0.033443574995143374	0.03979934412991105	0.03778633596835405	-0.17118980110959214	-0.1661775776428479	0.0966574498757435	-0.11176819404987982	0.0032469501842470644	-0.14239038123635253	-0.030134803925082453	0.022037465733379145	-0.18983227839072878	0.00497801469429675	0.011168194638141317	-0.04733526022006091	-0.11071040577255402	-0.038602774083927795	-0.04426092361660262	0.19043639323521885	-0.003867153697327912	-0.04411933671361539	-0.013699561958861569	0.03866041944235791	0.03889550497735881	0.03661221318753562	0.06787080874859265	-0.15878668364259393	0.047988710845831783	0.015705872303380233	-0.05605160781753154	0.03190607174292804	-0.011863608165960923	-0.0031509696884731812	0.02357471733525181	-0.15772595232171605	0.026579604580881874	0.06372828435027567	0.02404602050193015	-0.07251266828232558	-0.08595588699312143	0.016815671963437483	0.08332372967741196	0.13054029002869527	0.09049433818124884	0.040659764613404176	-0.23747298692233518	-0.05735723282109004	0.02790205448240572	-0.06715658268017934	-0.09015874334605173	-0.10889777131167631	0.17419040473132177	-0.13181266559479976	-0.020847487864426497	-0.07271304351230297	-0.09255345191582313	0.04861544434375276	0.10366123196895904	-0.11838509885253315	-0.0011105154846620593	-0.008274761002440172	-0.03040409910714651	-0.09485581224032377	0.11361879898999448	-0.10371299665405692	-0.13352484324218541	0.11761615302348014	0.01938454784112166	-0.11201443501145288	0.001421956324260064	-0.06239252201570932	0.14979881137160725	-0.03050597276077844	0.054994743174427665	0.004635360565038485	0.14335429598637744	0.014123786039286186	0.10970601662327917	0.06308406003286574	-0.03561754755279489	0.0012394647266463605	-0.01807248341879423	-0.0562225176487156	-0.10955099078640422	0.14072903980931623	-0.20459947860177793	0.14042296854147854	-0.12369487845436486	0.056853933887152965	-0.0587590661652783	-0.16532843069947575	0.11476026103565344	-0.2392863729794859	0.07941541009430572	0.020456158270452163	0.10117111463094199	0.06384997978210111	0.06198731145482303	0.08276284767300471	0.08552100885559584	0.05484497173899748	-0.015343141564585064	-0.022597011996541034	0.011778516478500456	-0.011134988243795838	0.2219110878328413	-0.016761640253424814	-0.1158662885136919	-0.013296476478665777	-0.07651671411073162	0.19287903535611986	0.011561256191565741	0.06179134412893331	0.05160980129468444	0.09868193873251577	0.026367030452093095	-0.03651852430425766	-0.0031354597172308456	-0.1227109225154751	-0.005807253864866044	0.1800074783208783	0.07732424576849399	-0.010739780004609274	0.21093521903980608	-0.06789666247085709	0.03457371749264211	-0.025328054749167578	-0.032215723621259955	0.036390924925356644	0.06389874876375629	-0.006607125431516211	-0.08310404768661005	0.17498023053504813	0.014081711155353945	-0.09431433188421615	-0.10816426295404584	0.21026793200436947	0.2431903108908092	0.04004448117111065	-0.04838906614396258	0.011295232567673515	-0.027671001338639624	0.05828515385377908	0.02193378315452876	-0.0023396254411992084	-0.007864547767762683	-0.026594876063901495	0.09097892113578954	-0.030353085446042084	0.20687817368166325	0.2146879005246815	-0.024806721159110985
-0.03180756470313258	-0.00931040884137366	-0.054752228500009235	0.08814336386114482	0.15296147756778386	0.1523708799167548	-0.027801460087963605	-0.03515821854286805	-0.19939233593787567	-0.06561565607412305	-0.08759082280594023	-0.11475401692036939	-0.05384977253447937	-0.013699480132373295	-0.005273092730132274	0.15209691490035807	0.15091596889183284	-0.11384553972153572	0.035339163092517625	-0.07441844354698313	-0.01455468809016255	0.14421813994958904	-0.04947989138724166	-0.09684054132103462	0.01365072709993538	0.1590478874466576	0.22032499763906213	-0.06052907805174168	0.012168688171816808	0.06498691092325902	-0.11712565847546733	-0.13824717391161295	0.039005599627920995	-0.03324289744394726	-0.15655583700271145	0.08230937808327711	0.008898315855744179	0.021423153448676912	-0.09959567116171904	-0.16397906968800735	-0.060624927387168515	0.026024066716138827	-0.0881030425093002	-0.10672488570995187	-0.017486223588515155	0.007854416841925501	0.13717222474271146	-0.0031127814622277238	-0.14663169313601632	-0.20146965078472404	-0.23812023751368114	0.03367832741619924	-0.08310074350127958	0.04523225625482334	0.09491494433062787	0.0558791688531617	-0.02629083477472087	0.18892762822157913	-0.03228762457232618	-0.09925559968210046	0.032056237827295025	0.07762149545636565	-0.2517166807496178	0.09807084753908463	-0.15473384115456928	-0.2008886388218544	-0.026175849855910018	-0.08442113891029825	0.041566894558526045	0.04620769913496657	0.05732989708413022	0.15882768343274722	-0.04064452292178767	0.04821651949431597	-0.14883259120082418	0.09762445657557718	-0.04515792321718059	-0.026478993630230593	-0.021344763692853267	-0.013839511181260972	-0.040907316192073204	-0.22431512282108182	0.10814691496486978	-0.0649761074366799	-0.03719833954506354	-0.0177064132729422	0.052486377613595314	-0.03484167013742514	0.12157498406169279	0.2171019545639281	0.16347832273160187	0.040262992570369804	-0.06984421590881974	-0.044107805984852484	-0.023164824389085653	-0.08464191371577967	0.06851345707554474	-0.017887472604188104	0.01390605839972862	-0.032427946217522624	0.04429481490350912	0.028400742175252302	-0.03356574038609388	-0.02101839372632277	-0.01343424336055331	0.0944657786959137	-0.07495133173754172	-0.03311273283917669	-0.20162569655403997	-0.09132045325777004	-0.026583226858196703	-0.04241827133156151	-0.196554625491909	0.04042555995580567	-0.09985050383325653	-0.16148424735074218	0.023357738649826407	0.0767183454681605	-0.24372336036739575	0.07241674903641468	-0.023604774118614506	-0.006534711987928188	-0.10145738066543782	-0.0042867560152884225	0.003412203554703692	0.2465944579602203	0.060174420499334295	0.016148747758959848	0.11084741253976284	0.07422671585301557	-0.14736960219724	0.06946146306198102	0.008355403145324135	-0.07095012060309468	-0.10315276267307187	-0.02832129163192054	0.011413200264544428	0.12302299225202176	-0.22492756188833596	-0.12580174157262705	0.025604535673050363	-0.014622392250400571	0.01958691234172706	-0.034823476267464466	0.0263558329150205	-0.14468813136759295	0.22909983143720136	0.045348194229285335	0.04666151351808942	-0.08195088635274257	-0.051733891476476564	0.05742827064337146	-0.03819708264066331	0.026182843986162	-0.07712851473673862	-0.1288873300538852	0.1133739524558525	-0.09507638747075406	0.10182127118331473	-0.07485191683441746	-0.022711881839119825	-0.03713608649132309	-0.01787099257558971	0.09275090902932552	0.15375181737304233	-0.01774156251111236	0.012318755707023706	-0.011028882465124915	0.012102151549223658	-0.07411399029021665	-0.10357762945548575	0.024958081076186106	0.028350971458626584	0.1350745279776874	0.00985131679703697	0.025179567491910155	0.05482167265963728	0.13793259595443386	-0.02034449758370052	-0.25450114656175266	-0.09346932577639472	0.10270826520607318	0.177274275200427	0.12853663512551633	-0.03823356178560904	-0.025814927978491425	0.09231750586617499	0.07508676126951826	-0.26580033644585876	0.0035782353040987084	-0.0022290845819793767	-0.13616300115662688	-0.06546213151754715	0.03814484861577	-0.00717613163684493	0.0933203379822479	0.18402355965310516	0.09684563228869758	0.038516558893538354	-0.0206484804679694
0.07989468562321393	-0.061218849633337256	-0.05303669587044183	-0.12089540713215709	-0.15213164484139444	0.13183561793456283	0.025991909794014976	0.048865707353047995	-0.013840791435699327	0.18941275515034126	0.17538049883468756	-0.003189952331716552	-0.0030616488510807984	-0.01861649245629379	-0.10974142823745493	-0.03876413295719843	-0.02880193585602462	-0.2218054193732611	-0.22771449114486317	-0.008515351309038181	0.08256837983490645	-0.07768987414271461	0.17480869487572934	-0.02791493107174484	-0.08262716355382976	-0.13731963038628012	0.0097804485185972	-0.19996037518987456	-0.07501193246089817	0.004864120018319206	-0.13806337861659423	-0.051629703783401	0.00420873668823714	-0.12282309572221989	0.06232328747390445	0.09344977718328658	-0.10562928682867985	-0.019292849236963956	-0.014160775859022801	0.03549919852712124	-0.02960574426528866	-0.0740643009890509	-0.10794379427135262	0.083897836327156	-0.05859269394353905	-0.07759671503781113	0.10403663726013418	0.01855462698970855	-0.10217373845093095	-0.019522951810255106	-0.0962371708299894	-0.12137830850078962	-0.052402493428146124	-0.020377939777335985	-0.0635558824270619	0.05319998613419712	0.06354367302350221	-0.06977665204636473	-0.01816536198752084	-0.04692691157155955	-0.0989274211956498	0.014750309920852425	-0.18711113019247005	-0.09558710551945841	-0.11449391544867403	-0.08765048705753437	-0.10678557894263904	-0.15975570159099745	-0.028793117065412377	-0.03733514229896846	0.004783331263039324	0.023433177796653465	0.039434202564540784	-0.08099182396519933	0.008953492304236714	-0.026635732585477412	-0.011279675871748938	-0.043909372344865444	-0.08015219960426412	-0.025176763326311774	-0.047777383748353185	0.025560528611788983	0.09207480660891526	-0.0940995244748686	-0.05340458339454701	0.23184342875925276	-0.18208425105929854	-0.156502954615641	0.10519145698857964	0.19201246484577686	0.1445033306931243	0.031971957210378384	-0.0441055870565049	-0.02611681370452654	0.03953636847754644	0.09113508161500006	0.055273156721827275	-0.2013401493431122	-0.11673542925307674	0.027816979055761935	-0.13749017492338264	-0.19040703312202814	0.08692402478912718	0.02598471022513568	0.15587532826170963	0.10351153394580911	-0.06278641520404207	0.02561451204736916	-0.080828105670754	-0.15785254735249163	0.11475243036504934	-0.014340015904462877	0.13526559424802417	0.010690998879129839	0.028022723042319023	0.057624670565613316	-0.016967685586761077	-0.02345478545113693	0.02423226148357504	0.12606895965697643	0.04815150930581509	0.004635649880693139	-0.03972316011549152	-0.010851740180991517	-0.08417694819582726	-0.0975074552234438	-0.022826628438425364	0.0028383790858508453	0.07308460925246935	-0.11087860235910994	0.0005372712490889916	0.042542723234749814	-0.09769881144510494	-0.04587927496793395	0.07616163790359602	-0.003765331511402667	-0.19840466163855616	0.07818610933859059	0.008959419024283738	-0.16058660595651342	-0.08811889574970418	-0.012748859716786107	0.0316830143610965	0.10831753416865467	-0.08999398937798418	-0.04349146279618736	0.08960102541781667	0.10302447150495692	-0.033289356999084904	-0.0543289713009607	0.05191023183648393	-0.20734107580307534	-0.0017412021346711899	-0.0023601616101120958	-0.04698667190286206	0.04715002830070106	0.10741816447121212	-0.09818339065157508	-0.07391439721795781	0.06696245437173405	-0.1448232046599608	-0.05343388204544167	0.2168258936605415	0.023147384107439457	-0.03369064781049126	-0.1695781003085578	-0.24067394045198498	0.10911594699123292	-0.11613531789155175	0.00571381104824552	0.12743183522929527	-0.045704342313419195	-0.0415977401043847	0.064921059467316	0.13656842355990254	0.08393687841895262	0.149538427647668	-0.228140708030506	0.03861037376601343	0.12880098275808174	0.04357647729887927	-0.013217493468810668	-0.12331516454967083	-0.07624018076929472	0.15256455809785777	-0.006267134117644299	-0.0614651977536129	-0.15607222037046842	0.04565174417947879	-0.08072200999067411	-0.0027485810368384094	0.1710000073641414	0.07873888614153167	0.13397245510425362	0.019196011412841923	0.07219896309218655	0.13277430778113491	-0.0812527857239878	-0.004196611117695492	-0.06741575860251352
-0.05156875007418993	-0.013340248535583516	-0.09231286878388956	-0.044142234050346105	0.05698589443336728	-0.03405948017363862	-0.06891381076849629	0.08144680539909456	-0.08191317846501392	-0.11111723440317083	0.11961303428233916	0.08294276896310877	-0.03658456629946005	0.1912644686245469	-0.06175790515899787	0.06451840742119803	-0.16416108691703343	-0.10163946722496439	0.09979703184331165	0.1518227573840821	-0.005226449112789935	0.2583863317557282	0.13086410840592785	-0.0679967045798701	-0.03524904064550609	-0.14467302220324632	-0.03883593300568267	0.014214573180976112	0.0044610022756687955	-0.0006807932889739055	0.09126883146339408	0.018318879616329657	0.05185797039558163	0.047814354147977585	0.01929485599254506	0.09154123262509226	0.11592820633095742	-0.11154945504161283	0.16893714592205608	0.017846569047061757	-0.07864118461404056	-0.0066416134219214416	0.04174162814741235	0.057687028573262834	0.08141068368843493	0.07911245088671809	0.20019694355565085	0.009312767733833485	-0.015908701510946078	-0.14671798077419665	0.09962492323908735	0.0616455355848985	-0.05733406651157738	0.01515992935318799	0.011056014606646462	0.01811666329722195	-0.02673944774532531	0.03556162173189801	-0.15924683246280485	-0.0312382082167181	0.030906648899019482	-0.0713169689784736	0.03476828950045958	0.20207631096789183	-0.12537419517570983	-0.17094622460261727	0.11502639602197916	0.21458764670308547	0.03734433754326498	0.007399347538909228	-0.08444054390480236	0.04154413369722804	-0.011035773363578276	0.0918753850276548	-0.18652458695113822	0.050769725288875536	-0.07329696390731524	0.09489937933287093	-0.08930918985910279	0.04811078484771659	-0.05857119763812568	-0.05013784042866398	0.08540621550040214	-0.07974648007880332	-0.1507293779031994	0.007575215560239464	-0.0660853742487276	-0.15160907701083248	0.02582406489667584	0.024155274164664245	0.01606608561058567	0.06426144904385649	-0.19982905881726554	-0.07980282382472505	0.02598433856318588	0.09867218518547563	0.008801005913799356	0.11905575402035061	-0.07190473601662337	-0.06215559420474188	-0.040354211349002515	-0.007743311782166398	-0.1784489795105959	-0.0037527686642360018	-0.0037069252494216624	-0.06961032544870666	-0.07670300690379772	0.04113238739784485	0.07327257117423878	0.006043349795077352	0.024715136774032948	-0.018817465249787953	0.0016679346198131492	0.06730939998943788	0.15818898166357162	0.14970750191092766	-0.11045952005245674	-0.21174003330743493	0.0530385489624459	0.0017226365624979842	-0.011180795088733266	0.025619474900737956	-0.03104910100544257	-0.1609904414575625	-0.12198787887451595	-0.1185496679787942	0.0667198721157901	0.1986885671123814	-0.05132169306446327	0.26262606167208086	-0.19000451734540955	-0.050727697948562904	0.022331073830218325	-0.25424255491121156	0.14417863858321397	-0.060893232299221556	0.02426593964273157	0.0422507763989366	-0.1592776866412112	0.24415693567319516	0.007832432629763521	-0.034254582350367116	-0.11027001017036363	0.018017508395086434	-0.15761336316739105	0.01742995015617793	0.12150430751834392	0.12677777069801935	-0.06053612750495828	-0.0274703077161436	0.059535084739021214	0.11685123174960557	0.15339531580168825	0.15577922274288464	-0.09319657803276046	0.07581865965240744	-0.11108851713102413	-0.048308390922040575	-0.12542684019675904	-0.11025102984428004	0.020710112494279998	-0.06173489391608798	0.03136396285634904	-0.13289955262376496	0.06146186737423111	-0.04291073432550995	-0.029304715238417	-0.13519708911610007	0.10388306442497008	0.014345793220781796	0.053907629287334724	-0.12323404097904586	0.06368195594725441	0.011563255381672218	-0.0426188578626007	0.14249380788637095	0.03610715427112469	0.03297773746638462	-0.19268305544283218	0.11482081964985587	0.03777195789742181	0.13039193133784338	-0.04826423789617604	-0.07349737641945721	0.16295217062993309	0.10648610187827315	-0.14790385869782638	0.00898870220563152	0.10919242955110048	0.019368603816155096	-0.052598047569161775	-0.04700024584604611	0.007717143459202207	0.13521285821644097	-0.10387457634784848	-0.21337958944359234	-0.039484384626900876	0.04050992575694798	0.07366483097869858	-0.10697755143095819
0.026820124283729877	-0.05732643055720492	0.08048271995782211	-0.0198977850753723	0.09052865149611375	0.01211146126194554	0.0541592161132514	-0.02953669129641091	-0.05537324035403077	-0.02921700024187805	0.0686613016268461	0.24798014397021442	0.11838025769578872	0.15295872468069732	-0.012216390950036656	-0.047461950235279785	-0.19124706427089033	-0.06062253833533588	-0.13485160382621228	0.08451867194109008	-0.0026097924301514233	-0.14966051141520806	0.05449750427264847	0.035507204908525304	-0.12268135591548036	0.16238182789070613	-0.06872683983429262	0.05811171518547979	-0.013094908035747279	0.1655155193945128	0.09322121686689239	-0.11246051569392003	0.1907514760079859	-0.12306163136831072	-0.10689045261456162	0.17168030310300064	0.0004909150119135511	0.03262778233616544	0.04627424467952107	-0.10105198555842863	0.18655500164723832	0.21153017303449634	-0.18176096421600568	-0.04765770775107339	0.073237268402959	-0.009701487403024895	-0.0491290435936799	0.05441210726318019	0.06640885339743562	0.17137661162914855	-0.1774815751874511	-0.10598025176528265	-0.07976106771228844	0.2513351296048598	0.1594926652589459	0.034974338916779556	-0.014388940549705615	0.059959504797195876	0.1123730314611282	-0.004391697641127863	0.027224818825819137	-0.03547089904751033	-0.14509313113061545	-0.1791572800250628	-0.07290695371048041	-0.05839604513492224	0.04588723723933289	0.03960067082918526	-0.1364862553233248	0.015588940528503114	-0.05725099111543612	-0.022598896232242708	0.0072466284879760205	0.14707868431334536	-0.048775229152750794	0.16762379888646564	-0.12808129830926845	-0.09087811805206776	0.0028093361073141315	-0.1100487216541852	-0.13343971171633837	0.02015439635995861	-0.11676959465345242	-0.09566912752178526	-0.009952164905402325	0.18006749944229328	-0.019143912422269163	0.006599206655520888	-0.1210284616155773	-0.10412478056523236	-0.23062147045336798	-0.06970184886127805	0.08463149484923196	-0.045822826474241754	0.010451710967001749	0.03832381470301507	0.08013014562890176	0.16644455633696184	0.06768122375987093	-0.029747906881973714	0.08484392734107203	0.030984861866385553	-0.22019277075175567	-0.12069567693008955	-0.015989954654636897	-0.043812527803956856	-0.012043774356443226	-0.25799453332522554	0.09627814341998436	0.007091751348098594	0.12523105914274835	-0.0038390620418277885	0.01801203588364141	-0.10586615368206935	-0.11095181064359932	0.013437292606807623	-0.00898998452441953	-0.16092867966553076	0.0940128619380413	0.00488339974440692	-0.058474699778581975	-0.07358850933432348	0.0791412854660917	-0.06467051453286222	0.02202020288520456	-0.015275202836621149	-0.045386903688210065	-0.10166719892086046	0.1342118818961505	-0.1007353574287449	-0.08467525942327417	0.13679055309977345	-0.008997515911546822	0.027903175565736727	0.1529608645641378	0.1568805605695477	-0.05792973311414577	0.119020635084243	-0.15860845081142824	-0.17516323665560155	0.008088755390675528	-0.0077639783140181	0.06572853231347155	0.06577846274766308	0.07006938034074975	0.15965105845280464	0.18747384176238377	0.10198725963326837	0.002807275673700321	-0.01198412722859318	0.004596954053959978	-0.054484615117452444	0.09894348951338909	0.10380839834227956	-0.06705649591341237	-0.017068037987694233	-0.18792961308630002	-0.003379487947176471	-0.0004223881809492581	-0.10844073980367433	-0.053179477747997875	-0.12973307120068736	-0.1523700521533251	0.1507057766727755	-0.1401270882456161	0.009314307047000196	0.09748144809927699	0.1495827297386512	-0.10233756046484603	0.13017088649958436	0.016007396423805612	0.06857416255748107	0.16522310574273064	0.06791863437526183	-0.09076350332840791	-0.21645458542704193	0.0677433687021012	0.03445110991539567	-0.058428290153131036	0.02130411327541432	-0.14787884103848362	0.03734009078714249	-0.13472159662643887	0.10585570336555052	0.20613536838373972	-0.000617034241665098	0.0315022320833854	0.06986412429177746	0.015226776627264266	-0.10932652997899824	0.14052369524722205	0.035780961906353506	0.06069129296863275	0.1168504114772065	0.09355627142519944	0.1211852573678242	0.04044890648410556	-0.08637094601329637	0.035940996590849345	-0.006328757920647115
-0.09212474961864306	0.15381692296296257	0.002492011591825523	0.010374398255511794	-0.060182452633764975	-0.019499277186601632	0.09684407358929335	0.22334343132812504	-0.1483775761410157	-0.005539452472064975	-0.3178339888357684	-0.039248298516509725	0.000615053314420094	0.02593007230418288	0.15673921022890577	-0.025903343953967883	0.1798182197376125	0.023917983078659857	-0.043127102588247125	0.03146264036488609	0.04855026519511975	-0.0006471287289881086	-0.06974987158578332	-0.06355650375243403	0.12649218768109127	0.10909355870491838	-0.05987915451940591	-0.025648817066553874	0.036603030051298134	0.10230220838273459	0.0020253625721443516	0.1144918197596209	0.0019926272256398925	0.17991266797144445	0.21298158417453397	0.029117883452956166	0.06350723338496345	-0.08900460136745585	-0.019943556299012812	0.042731444811555795	0.06643041879415808	-0.02799179294125446	0.10998584801268918	-0.031168801790793208	0.09874923654866319	0.04499749951103255	0.042838445989600314	-0.053006247267718104	-0.007997955949778597	-0.03362654593739486	0.09523056796502175	-0.1331522672032431	-0.05931998836683158	0.12844877588514936	0.05283133974217739	0.11342229724338937	0.07408449959122326	0.12647305918277074	0.03800942261363741	-0.054826612502456	0.004101053288405474	-0.13053196865262884	-0.025005598965633008	-0.05537172821384105	-0.20020394565807573	0.027379035647969143	0.034103385817616884	0.1481220048035269	-0.12047768784089621	0.10368674238598316	-0.21404877846737527	-0.030443531873295484	0.1935396004909664	0.013696198452169385	-0.07330076739570866	0.011083285102052053	0.0897746290459932	-0.026757953261786257	0.0558383255457419	0.020491158015671678	0.051670740173106605	0.10333062074005342	0.20601808011028938	0.008773964685556275	0.031009029880567	-0.12311490649960617	0.09467975431430954	0.12348552751635931	0.04238453430815623	-0.13709610952934878	-0.03549412954183329	0.06871270153618156	-0.06818910560722688	0.21102621528763588	0.04129262634929064	0.12841807219636941	0.07820394306169517	0.012256365553162276	-0.1301707157923959	0.07457267449893058	0.2093933433452251	-0.037866806718359326	-0.055139658931460285	0.0739927617661834	0.0921021728681196	0.13098626326677873	-0.013687506202820273	-0.01651210693978109	-0.2595665020843283	0.016625412196106637	-0.05167204948366275	-0.23920378644909174	0.19075486904389888	0.02228302056064538	-0.17143251052442393	0.03483647062493365	0.1711062940839274	0.11606979826977694	0.09666238615136795	-0.11763286636729771	-0.061995717220202994	-0.058505786630826485	0.00994512836937291	0.07713921167875008	0.049221512323601994	-0.10990085051132521	-0.016881887819657257	0.1204039618673229	0.03183034778082805	0.045936524860754196	-0.0884391592008927	0.017663348879927918	-0.10926846419559591	-0.08070312692922273	-0.136826998471608	0.1978118374551434	0.16671930401693524	-0.08516618220532773	-0.07679496076179232	-0.030767280366036927	0.12017013922814246	0.05908141008561343	0.14021900988980113	0.18259703334541302	0.04874246794205601	0.020757078783058578	0.1262271049234144	0.12046484772899457	0.09630409802883595	0.051595821376719184	0.11725010101745804	-0.02469836410658475	-0.059766612456911464	-0.04151399175369505	0.21781840601004365	-0.10590794071398421	0.09936275608501796	0.19085201534497265	0.030087877264616012	-0.019433987802192798	0.057715973265549135	-0.05482247581352475	-0.08523043594116997	0.16649043374402012	0.1570961090635317	-0.028294780157796084	-0.04936605136823058	0.03227936741083603	-0.009972361334870656	-0.07569016419704504	-0.15243003588107992	-0.12282045662135009	-0.12424795028452781	-0.08242413064664984	0.02869597925289278	-0.0841302590124344	-0.09505482448640971	-0.16979256521250258	-0.12220165121885632	-0.11729063634900286	-0.019688198971028463	0.10355378356112603	0.15809173283801664	0.005939873194076831	0.11650556700661728	-0.1001928020395577	0.031999919520278315	-0.06418327096194605	0.0438241855912015	-0.07889892446690276	-0.07600202548966863	0.0020507450786905104	0.1682443769458682	0.14651344224125556	-0.058861436306703305	-0.1073264982599749	-0.0627444496633903	0.06074083015675236	0.01725314413532465	0.047471630947944474
-0.06842573024859291	0.03588621163167398	0.04997869090733154	0.1354838879899389	0.18427989252209612	0.13248672866205283	0.1061170148996801	-0.030056845272260956	-0.07962394896399573	-0.003402100496391173	-0.0158398572317664	-0.031774227310795634	-0.017802949793781147	0.01783871452666734	-0.024090359694107763	0.008618822086960383	0.1266343909913356	-0.08848945343747545	0.1556996836367495	0.06762160610112261	-0.0003776113421560717	-0.26083684902219234	-0.2176541271825872	0.014782270162179286	0.0734491896801125	0.21536222308194072	-0.02839276007947838	-0.027706952863713975	-0.12283629757383022	0.04477291717749167	0.01231466471998912	-0.05053373586132509	0.010660414199780664	0.013249373549485119	0.07858492843735798	-0.04553896188982554	-0.012102760457729862	0.08563651903423634	-0.030094634053716006	-0.05279442168431351	-0.1414422793904466	-0.1381841139595209	-0.08368958370246556	0.06914043945100119	-0.0710957843347348	-0.019540799689905408	-0.12691680812958442	0.040199376555704554	0.02927824936122499	0.04415373917702324	0.1823768752854398	-0.01572247474007676	0.0721435497629323	-0.04358649704508303	0.20767355861623235	0.06844514389088993	0.09960467772116367	0.1347047094247103	0.07069056017825623	0.1274493904614186	-0.02152858445364719	0.22632352689041044	-0.14608592577619803	-0.020529471253252517	0.19449333729436938	0.004748796571238907	0.08310197752155819	-0.009176194890401676	0.04837510556090705	-0.0448823891368254	0.15296965158752232	0.010089963032159392	-0.1771876689905526	-0.06549360086548997	-0.06767053348562735	0.14709287754808345	-0.132854994769433	-0.021331419150024757	0.20888997156719782	0.11520728632980358	-0.09324707323364027	-0.09769419978782246	-0.10357399351696009	0.020998385588218465	-0.04820328376333638	0.031512844142184505	0.030913059882892068	0.03800698452598569	0.034836062923712455	0.03175840484981461	-0.0789660545295275	-0.13723167597423114	0.01709192019966391	-0.07051294844835536	0.10640854836073646	-0.1154316289763266	-0.012450946071040673	0.015857770156385467	0.14389605729650537	-0.03858915060796017	0.03148905220593973	0.06342853972144155	0.08218859027072527	0.022197477933693987	0.18543020661474927	0.021164178871472254	0.18976100854272795	0.05372000907745963	-3.5565716607481e-05	0.07680140549415587	0.056341173119269734	-0.03221156454048314	0.017936919889494075	-0.031090952368595257	0.18777261494971403	-0.06919022022387863	0.21187289504357815	-0.031808504362784325	-0.1388439784434773	-0.05501883456112756	-0.09844135985786488	0.18080095764670442	-0.11118728449137562	0.04165943987016385	0.16513992678004014	0.2853573110319374	-0.008544811867854869	0.03180512271360014	-0.11710841351691224	-0.023394863244162747	0.22170754588321406	0.09672227087348394	0.12392382495413705	0.06583393782643013	0.1258136635920994	0.21865283591790227	-0.06439646317913537	0.09670567674089116	-0.06460369597336448	-0.20353901183456544	0.0295420739111577	0.008869310956135702	-0.013455724192296051	-0.05071640604982159	0.017445770899682512	0.07781520432772017	0.22455528863058552	0.05012410448214721	0.02600613610751558	-0.05931721629213899	-0.08077684440200375	-0.09944163228109966	-0.005351953278441633	0.00674217260953091	0.0069931946393021775	-0.08433394177453281	-0.2711291049382087	-0.00545335939376687	0.09285167496525557	-0.020551912519019708	-0.009132445179538156	-0.16411826324704323	0.015829111524763014	0.10350504337210595	-0.08374031216845129	0.11505695896112623	0.11968617267055608	0.2506376343181334	-0.10098257947360924	0.03634932062509187	-0.11879360832977828	0.07517282275320247	0.07337330495534503	-0.21356855561070792	0.038453323932361186	-0.04435703695791042	-0.10959486486876839	-0.01809778376186771	0.18830489194351405	0.05445252702360264	-0.10148139660086235	-0.023571967734358552	-0.1907289479995338	-0.11105801146335233	0.1814220599941506	0.09168258253511474	0.04619760302238385	0.07755883192812145	0.1348407168479475	0.0392678164959189	-0.027024272710728766	-0.045092145037155085	-0.03463908501768785	-0.01257782331112118	0.18432889935233338	-0.11069826500547136	-0.045539815974001654	-0.1620274077172601	0.10302423851695618	0.06414585733026201
0.18268387367713257	-0.0628404857599428	-0.06885255885597742	-0.11940052332298867	0.03774450220448641	-0.042813018467732424	0.03029618258098411	-0.033746118225963316	0.1434606110833891	0.1261918917313871	0.004900595050902133	0.10013605162899308	-0.01639662666554033	0.0072616171886402845	-0.2036276701002459	0.051743543201444996	0.010745836283791907	0.08683595688562117	0.07153526739875024	-0.0669898823018743	-0.019174787107238623	-0.04834823461017719	0.10448800383231129	0.16244507004804995	0.09443556218568092	0.21393535233496308	0.055938131853965255	-0.11504402797521497	-0.1390676389295191	-0.0662602448485914	-0.03922005106234525	-0.06603762898770917	0.007456069154822252	-0.017897972310261395	-0.008111373658147583	0.25113155010875615	0.08884191224875686	0.02895984098659921	0.11100471722203205	-0.07298734367125645	-0.08663359137778127	0.09805737003407386	0.01793587007730865	0.022048802528010083	-0.11284320606193643	-0.04581792460180385	-0.03870234356828935	-0.05482288541814181	0.21454281230897776	0.2134215758257085	0.11317906883840742	0.007176422221022571	-0.0595441461947333	-0.1125973623057725	0.04418842782367781	0.12171057964549911	0.060231942121708015	0.012642424859930994	0.07210046964389477	0.002326581954854827	-0.02760341979143931	-0.10164371465263129	-0.043035897328286346	0.031076540493015326	-0.03528442822234597	-0.11719902901256068	0.011026826544361674	0.03218996452132414	-0.03605635740099459	0.0055547456715518174	-0.24722198110519983	0.08084225147037583	0.025947825512865424	0.15025734354704592	-0.013743272685938468	0.08394262598030452	0.12167200713322998	0.0017227782790837068	0.037649599665508376	0.014463165138424635	-0.16003083904064924	0.022554555873572062	-0.09756959402223617	-0.0856435914291181	0.05236031370886719	0.1296859093020117	0.07803539270270968	0.07057426374419593	0.03713666419955311	0.09303563052326072	0.15850417018697527	-0.03546009699767826	-0.05423821209032353	0.06339551145637909	-0.16981890009912584	0.0001327064155619536	0.026363141783173068	-0.051485307284535486	-0.19755013699528834	0.13744979692888473	-0.06108156990023937	-0.05571797029731289	0.13371654431338428	-0.29465860189138837	0.14887922352140306	0.2266533875565701	-0.08917734970765118	-0.05046559861930637	0.05980940134958857	0.01730515166904598	0.09208052796277781	0.041622868989863754	0.083559092989557	0.33885338697326706	-0.15336598297720422	0.13378097352185012	0.13709806009484704	-0.11871691506291579	-0.07987527196045092	0.04352503826138984	-0.13121447940162145	-0.0490714514634083	0.024055658733967207	-0.06534202628461055	-0.016869700527213247	-0.0713789047903021	-0.09713506988956734	0.05373709989401917	-0.020391302243888368	0.013046937012555491	0.07027610411743657	0.020901117322749574	-0.03476606627553004	-0.08700420067417998	0.04324880468655854	0.20947609550108542	0.09371479385384202	-0.14678530825965677	-0.2019897327754262	-0.0730108419735796	-0.1533706106175778	-0.12997656206571886	-0.23766197623181956	0.03590950825020128	-0.11548220129199417	-0.11814488071096105	-0.0686251856873845	-0.05927848862890873	-0.03382611654035835	-0.1408626907451065	0.1055811392247142	0.02860162584072586	0.03159519355263808	-0.047491808806824576	0.10722609994159826	0.04912570642505612	0.02255098099559301	0.10043997211257884	-0.16841943152310623	0.023272748530255443	-0.06601941480903156	-0.07977884852854586	0.08465841018222665	0.134117782693006	0.13636350619991855	0.010312121787339342	-0.03237216552554059	0.12363631225083727	-0.09743595938834211	0.17144865599704834	-0.038605865082627755	0.02125917607964199	-0.05647750501848316	0.00959965259818509	-0.08577165682287256	-0.03106897346719562	0.015436577571695139	-0.0056081993552687245	-0.252432141132107	0.2491022004835702	0.15562913687044808	-0.121301326145814	-0.06750206689926243	-0.013585147345275658	0.06929827222544672	0.046192288342881783	-0.1135007606676671	0.2245091118665677	-0.033875768323403	0.17938380770083062	-0.06003175297721931	0.11354864934060542	0.03767389890447194	-0.057982295232859915	0.06810146672296494	0.021067241971602053	0.11803970349632252	-0.07929313659173616	-0.022209075750938993	0.059565740639858686
-0.18886282349625344	-0.12184955538961757	0.0067746963577064315	0.020875157419741924	0.01535097364627062	0.11870618261948471	-0.02004912178085707	0.10157971942658103	0.034931457024376715	-0.10945680074362577	0.02136310490714541	-0.002231794146516228	-0.07355724249060155	-0.13464196485647795	-0.1286080556416808	-0.06464599763964446	0.15659442450304187	-0.03484334648143063	0.12753544137490003	-0.10055876025540275	-0.0921000941858811	-0.03883019007378061	-0.02913204544694724	0.034374384290697856	0.05239300783209138	0.15228406675781028	-0.1931468845384425	0.21334070287178403	-0.1066920667372832	0.032638457998776585	0.09376142033850311	0.08419950603454272	0.11013542907425238	0.11059098338408989	0.04411788139795866	0.08306117313724891	-0.12271934020533869	-0.04885737784248214	-0.09252287119670499	-0.22628179774974366	-0.10101914803474223	-0.10372013127248893	-0.11605587104777947	0.055015862108954046	-0.05264967969333505	0.09159945820687707	-0.15358190783919515	-0.07010269691691064	-0.038654023369026264	0.12167338614599259	0.013830811499544423	0.02201089784036163	-0.07683316578247733	0.10487315549178196	-0.0334530827436015	-0.1842084384747998	0.08778295525045168	0.03338920736189693	-0.011956479073081875	-0.032681297371892314	-0.10908951364861644	0.11660366722192632	0.08151259772984028	-0.11375297560955136	0.010641296946171011	-0.05473175591347052	-0.12791446027143474	0.18665267650577935	-0.03332386092554359	-0.08169513023682148	-0.10438981163796866	0.017929059481243473	-0.2218795964172577	0.001917930316454641	0.11934568849445028	0.08439491865169446	0.049233712235479954	0.25548462313956405	0.05079710484084442	-0.09442477157872638	0.07397420828728328	0.03118881153238633	0.009385224562912884	0.029552774270216232	-0.04072370596312839	0.19289951603629266	-0.16285266743811125	0.08405589145572334	0.017908100166759273	0.07019620046542954	-0.03626770197561518	0.16670638291220166	0.0781402019236771	-0.06914026024212719	0.12023407788394785	0.04522413879873442	-0.024621996034710845	-0.1639307140511395	0.09250278681457019	-0.07266812166999888	0.059422510981309594	0.14880758271172972	-0.07980761991684768	0.12299354099382659	-0.11253763488899607	0.17534211123314328	0.19789180825615316	0.09195873057533879	0.028080266970729618	0.11625741929914711	-0.025379734761665787	-0.1188114976475606	-0.07244956549738304	0.21312782626948798	-0.1167909786418051	0.09626344314763957	-0.010484421640428374	-0.021148751259220794	0.16890849195200566	0.016262744573111027	0.0940367094358023	0.252299610533129	-0.010991063392210771	0.05708716667816836	0.07880531133326324	-0.01285189277117883	0.06888133427774451	0.13267082971159905	0.07535879031855648	-0.007759248616770767	-0.2914071164386558	-0.13719197420512433	0.19351476269421886	-0.096096510811327	0.11745751649314153	-0.13443560703948582	-0.0920906928000511	0.07229741143522408	0.15727819534174484	0.06522753137818044	0.05815197072918623	-0.13737863123359284	-0.20655633316998165	-0.027218517459287522	0.017315893884712677	-0.00018555997115440287	0.22696924551736755	-0.1522036842707522	-0.013173844314537353	0.20863790263676749	0.06285378440278057	-0.102544374808324	-0.19833196175623852	-0.03896375643465004	-0.10232230601882995	-0.04190553642497358	0.21059350809896615	-0.100266704094632	-0.052116996159015265	0.1047491339896493	0.019696583736873868	0.15659744974797057	0.0919288012118041	-0.04661750920051216	0.05278001451367749	-0.000498909958842783	-0.17596371022736143	0.23357174230350114	-0.1102184081746248	-0.009643766812176473	-0.047286532376039914	-0.008260386690990443	0.018152535470051436	0.08183533694289741	-0.029883412724440478	0.1156348612611787	-0.060577405165855705	-0.02479787446857649	-0.16808681666631875	0.03002232114639745	0.17322952093042482	-0.02405503344751255	0.20210359146475926	-0.12292379740885365	-0.12440234774512653	0.15850162578532762	0.0214489251477218	-0.0678894121188803	-0.01151562115613344	0.03415189090182193	0.0967744166986871	-0.061862538400300815	-0.12499172613886185	-0.0395055698206349	0.00025637053783742565	0.09817687949323144	-0.15780381431770754	-0.03337148944576681	0.037181068221150734	0.17218654691606003
-0.044414751280771256	-0.07897814494753302	0.06996373138946778	-0.17955568644601294	-0.044445117953238696	0.10550907932181579	0.026253326526216744	-0.0037353306868853947	-0.1626972414624221	-0.12743661834273212	0.14925614425873307	0.005743213240547572	-0.017121536133151417	-0.07792816293716293	0.023992867218543143	-0.05572423132121348	0.05037353908670761	-0.10788506895154086	0.08124399088737617	0.16578267447400397	0.02950628929607642	-0.11358740780139735	0.0818977031775525	-0.04108248412752811	-0.04553678683608569	0.016280996326443725	-0.015337151655268718	-0.04231260078092596	0.06598930100437186	0.018528222440870566	-0.1892611015828849	0.14018109048732022	0.14299130492125336	0.06374561104225605	0.08326425279108621	-0.04217385865670242	-0.13589623675073184	0.0047230101259636255	0.17036831890923385	0.03672853629062524	0.15736399534928594	0.19139670266314013	-0.01873436128244247	-0.0427854108263604	-0.04978592478327952	-0.007738894033599654	-0.10755259055284466	0.03224208163852759	0.0956879345867247	-0.18517020089747296	0.19534496426255551	-0.05155313630811455	0.012752217022322834	0.03337598144855154	-0.09427549293916156	-0.06249925513455015	-0.09123986363799888	-0.03649877387565596	-0.03173247872206996	0.04421271479475494	-0.13186223765451927	0.0485600564341322	-0.1131806899014723	0.09701251142676884	0.10006412335031549	-0.19906120533996313	0.1074348802396578	-0.27953414379527114	-0.1160744597726786	0.12032322977718014	-0.01136044745805654	0.15979564958874082	0.0808140686696222	-0.04305261486917375	-0.025704789375561525	0.11356383145472985	-0.028873461197491106	-0.17588001035728965	-0.10016096992244275	0.047134624608776494	-0.08241840839520097	0.2553932005213529	-0.05176872888609361	-0.062496322029992786	-0.0992437174185542	0.09570617931036592	-0.028183300610344134	0.11332563066509142	0.1571580715899966	0.06434860270101393	0.04047750231753904	-0.19004253353035191	-0.15306385282490773	-0.1489825323006293	0.0048033290663872805	0.20437330842042806	-0.026663684960902833	0.11210606057456676	0.06599371137271162	0.0024739319396741167	-0.03628677657531548	-0.04148006052656974	-0.0491583614456266	0.04143433301294133	0.09358947311024632	-0.042174058113103687	-0.018812908661495382	-0.03442395980965513	0.10733675904450071	0.10459970101105832	0.13586704575695907	-0.07404463923706282	-0.06170213196033467	0.1594567879585672	0.13421854743551836	-0.09899893002927465	-0.10283058965217208	0.021203822782082774	0.12416753856712612	-0.07867399113094461	0.0037546341565217684	0.11987208025888219	-0.0153256122502789	0.0029494250514522334	0.13786066173771436	-0.02458234652590402	0.14586323308567042	0.006514810090527313	-0.11289589998693735	0.0548012032066918	-0.06530535994195351	-0.1071491877688465	0.20136425281834136	0.04293263718148607	-0.03299961476985955	-0.021637085475545444	0.1567534661127963	0.16465620955318797	-0.05357317810395678	0.026499616067290767	-0.009498089694649907	0.07505124137803669	-0.02819553323024203	-0.218836244448355	-0.10253343864378078	0.14238078064264592	-0.03034663357165737	0.09347145131887509	0.02547004814215077	-0.061059883790769584	-0.030108011016777035	-0.0554596176194966	-0.08531715392935922	-0.17817963765905223	-0.012726328908018027	-0.05785544512611995	0.01332561337016019	0.05653641039772881	0.07465789733922625	-0.04565229722946816	-0.05676787419437253	0.011101745311296207	0.13516802768400582	-0.07508480739504243	-0.10050463261218721	-0.10417535907388574	0.05046682404267702	-0.02847340480682607	-0.10446487065848413	-0.07960363918788026	0.06681412422977934	0.009570278261861988	-0.05456705491887934	0.07017952027111499	0.11342345055558858	0.08352114190767634	0.012769620922189513	0.23092739898120093	0.1499975949477124	0.018053186994825193	0.1354796929931414	0.07703306961267922	-0.04049501414397057	0.17581820953548832	0.19268052069378258	0.13742163078672529	0.08418442836313372	0.05833899465915606	-0.03176940280028299	0.11336228014514642	-0.12806301619126406	-0.04702646501308085	-0.25834809165419514	0.01519867035674042	0.09910772467279526	0.19025326975819104	-0.018551064105970724	0.04021638855515184	0.0024616934705058726	0.18991500051170104
0.022283227192011038	0.19669497293402968	0.138190607358307	0.08213711646597198	-0.026362705157159376	-0.0713047187803865	-0.002011081685002613	-0.0006649830795412245	-0.112055454661876	0.10675830897562519	0.019209781371023627	0.062121200756502744	0.1607695761606598	-0.06147450755236609	-0.23018745682204345	-0.04478251436204965	0.204008707915285	-9.89967646152003e-05	-0.020581045555467192	-0.06449188193599005	0.017414783920399555	-0.05615254994258694	-0.049203134691230103	0.10964239416995002	0.254879117297266	-0.06780098772639899	-0.020990453066233324	-0.036873287223371534	0.15805666237794327	0.08079737967827595	-0.03343688509764638	-0.045019675751963605	0.16591377242519884	0.026914614184654205	-0.031621393907842306	-0.20986626552104487	0.06884902822797608	0.012829204225086432	-0.0055983394339122125	0.03431087741534118	0.10096596128151739	-0.24386031096063393	-0.1436087982983022	0.19046421367471406	-0.13317054570168751	-0.0740535073908416	0.12226109141138435	0.014531505569341931	0.006074624900587983	0.16277117149643888	-0.04684553131997	-0.06591007935760164	0.11603334451754363	0.040288991136301806	0.10087073855105193	-0.07541080912284386	0.042153117021543854	-0.005702433269659606	-0.040171790122004385	-0.11516211845239666	-0.04439619145802375	-0.06068235465795873	0.12681641981235248	0.06069001298887488	0.036783339810466345	0.01076194848537745	-0.07273143355729053	0.05129949167484467	0.14451980333711986	-0.10136186409994322	0.08043748811563774	-0.05880904728427996	-0.012624653566220714	-0.004452788324610099	0.04576106606340532	-0.031230935570441282	-0.04742226510595508	-0.1323485540687348	0.03205654122386827	0.041549070249468426	0.0015568397730075147	0.00036479094779425376	0.152437053696808	0.161958556387087	0.1057136167969753	0.032538854510050425	0.00972250960101905	-0.10193350755763907	-0.20518113292783277	0.14956080050652767	0.024852644140807213	0.37078217228080784	-0.05487588439282291	0.06058926183298991	0.09941556912128673	-0.05494364387363192	-0.017492790904337238	-0.014362874198300103	-0.03022614509874008	0.038340546066895874	0.0176132059936942	-0.20264817639553775	0.012207290936515715	0.02112706059932829	0.003861663317149488	0.20617589318547525	0.03777242948617524	-0.002559557779113391	0.07189920285210433	0.26573661729531833	-0.014839659263183355	0.1379906853763623	0.18528550581158357	-0.02841464175961216	-0.12176072201203166	0.04252438312367048	0.15692987143135553	-0.018254402637676317	0.10956480291318212	-0.08206518109877599	-0.039606787086943734	0.02100349031657344	0.005340350712849505	-0.08100770198532437	-0.02735621840941722	-0.20601449906881333	0.09130006130996333	0.020083165208239814	0.10297538890348121	-0.004028243186312784	-0.18346615853461945	0.03196832130027936	-0.05610573338877099	0.11018960434192313	-0.017701593503654606	0.21810902322625153	-0.08854506973252473	0.03267855730449242	0.06093448440989038	-0.03211338626309944	-0.1288982187824837	-0.019807498016242372	-0.1792733918635702	-0.048248112037933534	-0.01706415402858017	0.0935042787947919	0.03367710670583624	-0.037678476755440116	-0.036868512840306705	-0.03496841725517276	0.09052643929860771	-0.14347420020477084	-0.07331598177715319	-0.14832576450716536	0.05151616248568775	0.15095277883381902	0.04697142271339652	0.05430552374399203	-0.05180259357869995	0.06710418430753025	-0.07169657247276176	-0.05603911870650535	0.014102832059000807	0.05149044640167016	0.17307774081260388	0.0754548724342021	0.011461100192471374	0.2002518147900447	0.2367201044778187	0.01033087400422686	0.03806562989714355	-0.10745957365349836	0.03965087981690772	-0.06501891237068035	-0.17803569251072712	0.08250437770328761	0.010808983678558494	-0.1110252223918211	-0.16874856426548948	-0.047673953600262574	-0.08371136365034672	0.0031967474982891667	-0.15741853789815788	0.03822261185313283	0.07868942792865938	-0.14790898960785603	-0.1618232756868169	0.12415167181842501	-0.03700211613826663	0.06785760673037951	0.013617738910092714	-0.026674038321951643	0.09356119536669939	0.09569848936841333	0.054338111581914025	0.037560780594004875	-0.057247028444701455	0.07035293216274142	0.16215010898941717	0.12403259005366878
-0.17996408970266733	0.047078379001273055	0.06198413263100649	0.109082342328546	0.1001967458366013	0.02616653419299465	-0.11441532940674368	0.004447049305255517	-0.07773631247888307	-0.1187098999745269	0.13855550781997403	-0.03949655827665514	0.19509915269049455	-0.03552182712632283	-0.060216238730935435	0.058728452385849256	-0.009327921274681981	0.027197842929353826	-0.04979340552732626	-0.05374953886255533	-0.037953083343449504	-0.1118984114443877	0.09660265209800065	0.02041403265560644	0.02250422258628536	0.07609552855408788	0.029209565397630335	0.2102471007913432	0.04376614357317499	-0.21019726072767833	-0.047336289985206066	-0.1021644446426747	0.052777822373429595	-0.03729009434423245	0.0552108340729312	-0.06603109208453244	0.034116766261680906	-0.06219528355495893	-0.03419425928345346	0.02665275589207046	0.03910602360085339	0.13638259399198072	0.14331586674637814	0.10886460099713663	0.04224656078132975	-0.048675832485664004	0.06683690567467364	0.11703717860780663	0.119384984345571	0.003098472622080422	-0.040221018641700655	0.07878309287455024	-0.248361946904959	0.1593768316296978	0.1534881656378602	-0.026562275752548173	-0.040745038887370834	0.22404728158525472	-0.11389275129389062	-0.014764018480500594	0.17501540996988804	-0.10696512810466673	0.012758909549952449	-0.02560650057120199	0.20913891708286292	-0.07928397864766096	-0.13523973071470577	0.02852890910260431	-0.05367854756046173	0.06806814028345719	0.041261512268925084	-0.1487288402874068	0.18940951001756093	-0.049465112966277806	-0.04762450696436004	0.07348431747202712	0.1590148895781592	-0.13686149484012353	-0.03949689710782995	0.1031044169053331	-0.058255995038693095	0.012813051306211947	-0.03627513712431673	0.05021682958394226	-0.1251872942410449	0.033567917901681656	0.048633385271395796	0.06683184531488434	-0.058569152628966226	0.1362965302412804	-0.21117058478876377	-0.054571758866896	0.2551609065127808	-0.0037708435935279237	0.11553255990378572	0.023639636411977322	0.15044797083538236	-0.020894400295475374	0.02075211753294458	0.08663116456299765	0.15903514232690588	-0.18411652083457838	0.052941524372623325	-0.08514176656777586	-0.0073210577940028875	-0.04881004109440448	-0.22096817812814	0.09923365059149185	-0.10696847776597596	-0.010365712263187436	-0.00014130271656521352	-0.0984375875486142	0.06458653478254905	-0.03705342911637151	-0.07081406441718154	-0.14632591652781363	-0.10691545100501115	0.03898261408255476	-0.19987583805534503	0.16778891207948893	-0.024805591416603167	-0.08681829640191283	0.06531421558072106	-0.04169684295925889	0.09303672105208609	-0.11647308112574307	-0.10993923292212447	0.07507231708676093	0.11618583420146825	0.025793654948464674	0.023080007509722503	-0.08216171332387164	-0.05942513538970005	-0.06489175254771824	0.13773828809063568	0.15739146195653997	0.043048168256831866	0.21049518138109036	0.06186064588959723	0.11894421400178358	-0.0234487094485967	-0.01561838015123382	-0.016780558978687406	-0.09959748982042928	-0.044056623734623025	0.04281623937729336	-0.06263989629454467	0.0722651330769091	-0.08620641940959059	-0.08550946646390495	0.00599370388947706	-0.20308226001942803	0.11755380454536729	0.06606637756280595	0.08028958600624583	0.0741510639256323	-0.004797771869744625	0.031366720791855235	0.030624413105822135	-0.14540573935567228	0.0177051733129117	-0.0397420610244413	0.1832733866243597	-0.01588074942855831	0.007279443994234985	-0.12558423318642728	-0.039500260589873874	-0.20570793993396752	0.18998131034530033	0.059072113639165924	-0.03676093427565012	0.05363691525585264	-0.10071511339488973	-0.02063911719773496	-0.11120410596115687	-0.15251548043519836	0.07060258429004472	-0.029663684824650618	-0.1717880109879993	-0.08747356614178235	0.11419008935195073	-0.07126068044572753	0.05624966931264507	-0.07074810929684666	0.01794337168177843	0.04778432357998991	-0.08636228823045583	-0.008260561666129606	0.04712894425670992	-0.05606727332446957	-0.02331536873262919	-0.08968752418852739	0.02410435160533849	0.1370758915836762	-0.11920433350984701	-0.0715533449825594	-0.19660190369089217	0.049447650924422965	-0.1662052161605525	0.04250479585326352
0.07980977406181061	0.1046754317569998	0.06195163801566193	-0.1294450751945288	0.010957536406884226	0.039362457108683795	0.060941432909453745	0.08386636810439728	-0.042151677340366324	-0.014500371143469647	-0.005787169114385708	-0.08311782438442004	-0.10015802413806055	-0.00037825838615629484	-0.04943281683373658	-0.16268022174057498	-0.1415676393000076	0.06626569430288272	0.029371827521922265	0.023571234813113653	-0.025166160059014297	-0.043143956956413286	-0.2013865381850074	0.06587937365034628	-0.03645850457765618	0.07390834146915817	-0.06602757124285712	0.14434879249731417	0.018163678923694047	-0.0015637291777871854	-0.11892262648553993	0.034992523669893125	0.08755708929409259	-0.20465072144330795	0.01065028663326933	-0.010994246203120724	0.0372014692883745	-0.15730473688709207	0.06315321221894121	0.1017469263254805	0.07118611495987384	-0.049326221063790726	0.123802888523063	-0.04428678356850562	-0.2445548731498463	0.03648749680048299	0.0015975584485812917	0.10722592073587485	-0.10357084859301036	-0.03163058029424207	-0.03550099844221784	0.06709641863924472	-0.07107465883658114	0.15994584936001938	-0.042118070605622976	-0.05878133904182769	0.0017609625866867634	-0.13387977466994783	0.04039215039463374	0.049722268559758385	-0.06654587034315942	0.021574155025767212	0.02318540121089929	0.05238114655027049	0.11395290132034139	0.030075626939198036	0.06979623313589761	-0.0875376733841771	-0.14874259497602849	-0.04740796699452451	0.07794711175320097	0.02670418744563714	-0.25984818351493233	0.02454122028550539	0.11069082377288035	0.21413604095362104	0.1535002692482936	-0.01760335167325769	-0.04067935335282653	0.08341240942180372	0.06989604321224122	0.11037355861053703	0.09656293056478103	-0.12204177360802763	-0.1401108761636118	0.13374157017638127	-0.017015354240645673	-0.059704580208212836	-0.10380148362945509	-0.036380704534729795	0.15031848990581537	-0.006293587624979517	0.0503033235039411	0.06302982990814139	-0.015074153472645185	-0.19429658274693112	0.08759209726256745	-0.07380325858148307	-0.14907718773143008	-0.19021048652742448	0.061741794322349	0.0820010402504251	-0.22613125437380902	-0.06912148245906907	0.040881888802071636	0.03244286151510302	-0.035847011867424707	0.00809702311963589	0.1411457272778125	0.0576349335042202	0.08485959351267906	-0.050065837538750144	-0.12621276370791157	0.001873476066079062	0.062147808242288986	-0.06874865143973907	0.010010019918787116	0.0013362671785078339	-0.16625300964758738	-0.0166740758737521	5.695547168122408e-06	-0.016877129238732243	0.13165315402945668	-0.12894079114813567	0.2207755628381938	0.009761770195403988	-0.00045310802819114405	0.10908757340608394	-0.17537294956704522	0.24242461634167015	-0.07181252968549767	0.09531772388211111	0.017198983045172776	-0.09630617124266841	0.12202446761719327	0.07901197857819048	0.31244090200170704	0.04483755333480008	-0.06314343250577523	-0.18466493018549648	-0.057507649468029685	0.021904192967952017	-0.029840430832741124	0.06899983275769436	0.03752706262413276	-0.1300136104002346	-0.04346072633828015	-0.057287889020301595	0.04384926881625491	0.062205880605595495	-0.059423364367409984	-0.1560261584056333	0.2783821182063026	0.02680420254723029	0.02156244050780347	-0.186361513274087	0.08936845714972895	0.09240704285055608	0.03080889876665432	0.028257473466636047	0.0037485972331516627	-0.0685527969187095	-0.04438750876337792	-0.022842667393923956	0.13572543033582868	0.010255165383683297	-0.07425501587745302	-0.03883482548435894	-0.2183589665491194	0.05317435363366125	-0.021101771976826392	0.06719192075079077	0.32455671565489713	-0.01869488809582215	0.04316842203363113	-0.04585562909216615	-0.028240624436156863	-0.11041513526213916	-0.08266527919894764	-0.172926851205379	-0.11820864337691125	0.03297805156070557	-0.004692567893252498	-0.000756896560975062	-0.015619475435225762	0.03463729273180405	0.0366212644981526	-0.012973948859683464	-0.026500748908878127	0.07974324426259155	-0.20115700485803384	-0.06694342174308918	-0.0717746259927861	0.09488572354560774	-0.04156569930135105	-0.08550979910495451	0.025607437737988337	0.09398017448503612	0.08739077538731191	0.08929094488715791
0.021690587825466998	0.027934739927833293	-0.015314606204023674	-0.03319741173131553	-0.10121846192399174	0.05496181181483237	-0.1662382886721546	-0.14500645071130266	0.1954442562432229	-0.012849650387009016	0.01022865254702206	-0.12401026918162071	0.04451920659940951	0.1417899464901992	0.12450893766506893	-0.14937807967195077	0.1121693166547251	-6.828862515373849e-05	-0.2550654668874898	-0.14622202276511798	-0.1752894353508124	0.11099667177582324	-0.01910922404805152	-0.06305864305673417	-0.0023068177074305938	0.1685491394802209	-0.010922896779485894	0.03201770630621629	0.06458609481638342	-0.1308094692125459	0.042983079117315214	0.10002572546293124	0.056950438695815786	0.0004931317176856218	0.05973448667835245	0.04292472250790552	0.07162649903941504	0.09579574122292554	0.15269627244351403	0.10263665979497287	0.019168777587130953	-0.044878044324071505	0.0624582921112033	0.002037845892978843	0.0903410406279279	-0.09341014457683174	0.12143626344951507	-0.13764179546177852	-0.01779773787345798	0.05825531319432775	0.006131971231054108	0.040861878982620566	0.16122934959819724	-0.06877243892278208	-0.1356009173459421	-0.11481054229174531	0.0059019034452899985	0.1698592328780543	-0.0429417333713176	0.2168753650702764	-0.1283540075008916	-0.17612405151879168	0.022753388033426875	-0.0646888316741954	-0.09255955628094675	0.039879382811529134	-0.12484439218496103	0.07649274223216858	0.019514723785631325	-0.038758155263623625	0.006251724950502324	0.17946143782913682	-0.041487562657200695	-0.03959044887819129	0.052318566729923445	-0.032134049444556896	0.06345640693132963	0.08399287846211843	0.1774160956732755	-0.06522011950183042	-0.13606737848745068	-0.03369519206573435	0.010291941838877416	-0.061881495049124755	0.01271650381118169	0.17758572569572692	-0.057073558925541085	-0.09795623262573822	0.07500234371646088	-0.11901274318718537	0.016054496363861193	-0.04248365627966318	-0.16831023298325448	-0.01505422543230512	-0.07200053634999362	0.033563389288391934	0.007934370962676216	0.021348456838840586	-0.09438998639022379	-0.05732685570201844	0.027543231019753377	-0.08920035786205036	-0.007010538536230076	0.03076514479051535	0.07347759363208975	-0.060113819078064394	-0.039311625890533726	0.06098101010541547	-0.06922568721984589	-0.13418615559996408	0.04619910732344911	-0.033424280658771115	0.053443705426847656	-0.06473656637882948	0.00011164995386308863	-0.1801556617671418	0.06449360109518726	-0.04620196487795166	-0.013926431231732917	0.003678808727665503	-0.03018677763243183	-0.010443814647221755	-0.00761787201452362	0.022284793816432648	-0.133840553788816	0.058564364643217515	-0.00535401235590785	0.04448350898879212	-0.013440743618481554	-0.10421753860019525	0.2481614906271768	0.015284827770872879	-0.14296687117150095	-0.012811219675445138	-0.055360256268037526	-0.024206254078882865	-0.12534928836801448	0.0006950111050417301	-0.08775162270215389	0.14777772015312562	-0.020450869178132196	0.07181121581313495	0.09101313374022599	0.04183480276390311	0.016729272095447716	0.12456421996630028	-0.07485338662982194	0.08914347192955266	-0.05868529587968716	0.01534035174459696	-0.11114293645935198	-0.12636712678889922	-0.003272844445876925	0.10312740705354431	-0.020550272253506915	0.17151005580096293	0.07683289643495378	-0.02113485206999766	0.1401149508476969	0.15219785677915085	-0.14133394340208777	0.013493985833036641	0.06433533487417556	0.07050120909264769	0.06396761613834737	-0.007805665999303485	-0.031260060555349724	-0.010568982588861943	-0.07322932969545297	-0.13594722158888467	0.05144550300594441	0.04973569705575684	0.18483420658423066	-0.04598299280156541	0.05645648910748052	-0.016119770712745826	-0.019330205068476745	-0.082977644435312	0.0027427686020710506	0.15269753803874708	-0.049416846418909345	0.05880715437803456	-0.04751150502207649	-0.14547221181094705	-0.009204775288054289	0.22133299069069817	-0.08035895983336998	-0.06918666502579993	-0.06900419048207733	0.1799470909914293	0.12177445671801028	0.09709243676102569	0.12630814528349782	0.14732538742148144	-0.008240338735220095	-0.04638225702254833	0.09675979191857496	0.007566686846681332	-0.06400532252139549	0.059518637565654293
-0.03446484901777163	0.11096714790961075	-0.09642844863950899	0.0541070117053253	0.020558482361608756	0.017812272372746026	0.040477188743010255	-0.009457468005490539	0.055135287724237626	0.027451124547383635	0.01202305166945868	0.1315559699609098	-0.13079561041410545	0.05023970758295593	0.03288919949563762	0.04719117050278389	0.06179060753395043	0.06676323557821004	-0.03707520001857363	-0.0676956668014359	0.048359211505594905	0.14482136366310813	-0.02061841378668393	-0.09984437872710723	0.06736932713761157	-0.081550060216655	0.020380071873042704	-0.09996169963545816	-0.027992032971490242	-0.01934363593089205	-0.0344821965820305	0.019121329477898834	0.03411279462368306	-0.056776133112165485	-0.02568256053022367	0.12255581395606015	-0.02954715075899126	0.028867143296225424	-0.14174802249603102	0.18098355638303745	0.04178582387119142	-0.19951345913304314	-0.10107471509528607	-0.06741784324231599	0.16991003994905643	0.2516057892008982	0.049827165898752857	0.11253979774876392	0.12478754214617922	-0.10952761339492895	-0.010721960717012882	-0.013746107265718076	0.1335160454696859	0.2195859749988523	0.22167237268370066	0.052678332197412865	0.04584674692063079	-0.05016429282032754	0.0076909218179017184	0.11480480619431535	0.09449000931144493	0.05590695439748629	-0.08133610839648397	0.19282772511271787	0.04710620650017671	0.015370615042131767	0.08794011876327175	-0.06297358353706538	-0.07329196253601179	-0.03333198492294358	-0.10684596911167998	0.008302663792383853	-0.198065620786515	-0.050556468748888056	-0.19426398172890147	-0.02486436595563101	-0.026340554150780814	0.11291173280169405	0.02460263837299905	-0.06266200033506046	-0.03976027864891693	0.15149434810792592	-0.09604289065264392	0.21389335580085606	0.04201637884596432	-0.13000241849497615	-0.10363792521371906	0.08386791494545763	0.08310717722755678	0.04239467271450914	0.00820507271742423	-0.021243370820378728	-0.0780816205036118	0.046294183377480834	0.1625190886653851	-0.0069531627562210725	0.024006538291355402	0.1032696777782595	-0.052933775461748864	0.040178080718976536	0.08428132902306172	-0.07313900332851009	-0.12931269096342668	-0.021408134885417908	0.08511879113702568	-0.1486025868049922	0.024088427780567717	-0.01956958065701751	-0.004842541003711078	0.028028633286987566	-0.15725940756412032	0.11796488930131649	-0.08929567494180356	0.03466925064327487	0.06822689720451403	0.1459902643813013	-0.0027662110497825828	-0.13647907460334818	-0.15908423224019147	0.1293238273104937	-0.054599768882702564	-0.04572889863950328	-0.10861960904817573	-0.040551852944951026	0.1767944451086162	0.0016682720788709874	-0.08689343009921269	0.10426431443451778	-0.2429608025552478	0.00409876617072348	-0.03500380908214916	-0.02872856266422117	-0.13965889791958244	-0.014679776463644554	-0.032633901097304456	-0.10220069379701929	-0.046573069062531273	-0.19820815187403068	0.21718788768581512	-0.3426759352187292	-0.009539727398619425	-0.01606113265482962	-0.05434509580029411	-0.03813620075253301	0.06362069258676194	-0.12522047090132277	-0.176976999082475	-0.048669801353539	-0.26628177460200964	-0.08591094162143283	-0.057550358467059456	0.009976894703882896	0.1469111538883203	0.02997507870518734	0.03308733245152042	-0.07258736185274188	-0.06303397314550954	-0.057208705228908245	-0.009960981358731651	-0.045624723956334205	0.02892756145017759	0.06494395304820168	0.1305922900618077	0.02210690640567453	0.0388315631250404	0.10666020601084002	0.07182694915917007	-0.03538529650994994	-0.10237108274977257	-0.04744741734577036	-0.08283070296115289	0.01011828741677211	0.04830339541582966	-0.0458592552485484	-0.03811881346237435	-0.2648076758579093	-0.05720227868632545	0.3142915930432667	0.12367258150256437	0.12938722408973963	0.046616093594602004	0.09246426830052369	-0.03331881800087779	-0.08135936970831475	0.13780740114273843	-0.10336848467773643	0.05859122410765466	0.17859563600714656	0.10323725006573263	-0.024480169533681546	0.1260149084730891	0.0221476405920166	-0.004533471291414324	0.05514577350775232	-0.09359850919767357	-0.14815644367695693	-0.033557986582408716	-0.07064905146968559	-0.13480017145562972	0.016799978477387394
-0.029464096189629193	-0.09548798580622116	-0.008032701147929084	-0.0947644729069676	0.14248547506704012	0.19115399609036743	0.09067256212067036	-0.003938779433714172	0.06697703814939146	-0.06810127638711626	0.08165885862596778	0.08906092155559898	0.0937279118972018	-0.04556812756499436	0.11777517833979025	0.026224885612644744	0.03810618712708992	0.0069295306397793585	-0.11067398493169704	0.058482028122019615	-0.058740560796008354	-0.1480971789621077	-0.06989149035917416	0.05646954331652203	-0.06462696183020464	-0.05066665396992598	-0.2282462691402412	0.09035026551081686	-0.11149907285096872	0.010080601912991401	-0.047457022035935194	0.032914493199435776	0.042072211285028235	-0.05821198507208	0.10325512142612271	0.0050051958014222875	-0.16863334631293192	0.13227442063645106	0.1742932433868349	-0.07624969561481452	-0.17153659983481917	0.17381960136297683	-0.11890316931775029	0.15147737041092968	0.154293881783992	-0.01311087255190649	-0.029402959600257166	-0.11476175712574245	0.0066856943293983825	0.049660661532242745	0.03971596080408412	0.042393314089738454	0.09391802847772537	0.010277743041211138	0.25367617112643814	0.05827527276132405	0.03240765006971951	-0.01230104600980268	0.06925461207020045	0.057641865313264914	0.10485087412433981	-0.2479948403588301	-0.018971796148169025	-0.1677197063656517	0.15352081929607841	-0.16085588880406973	-0.07552640032696586	-0.05881628018404194	-0.12078269234655163	-0.0003401195254981428	-0.20957962842436803	0.21357443866396558	0.059671129365377655	-0.07885241670959708	0.08285082328135984	0.023428158236342495	-0.09489119445337708	0.05473444970702747	-0.04353434965559729	0.16700026131825807	-0.05136128470660782	-0.1282087152498887	0.12621499819524387	-0.02242392282503195	-0.005673627782864601	0.0263433116884341	-0.09814918532856107	-0.012363061231865388	0.028927356768685197	-0.027490392097663536	0.11129458743058958	-0.12733202009277467	-0.09947013001741957	0.16035718631806475	-0.09242115186997896	0.00875727083107902	0.1068274417027092	0.0714976285245095	-0.1385187141838488	-0.07251196125234595	-0.1685532734546987	0.08721643549432789	0.106841849379109	0.11580380156531604	0.009195257345329425	-0.05213417300031679	-0.040386511906392905	-0.14521784101795554	0.10570044190438387	-0.11896840084997677	-0.18211071769239473	0.11444049979767618	-0.06123646708400584	0.011396083231409207	-0.01804604180832177	0.11253930815020392	-0.17219252803820836	0.08615557593479119	-0.004695674385069293	0.040429033658718624	-0.01754842897073165	-0.04839987834583197	0.09477883824561227	-0.07267665988868054	-0.04303909771779233	0.026708514087264917	-0.15510031957556436	-0.03369903058162342	-0.02636632922962212	0.06664179613936738	-0.05345684691246993	-0.1851250042720823	0.018599588338224626	-0.04578637068453562	-0.10639570804611481	-0.0063944221331806005	0.03607105264978109	0.04148405084538319	0.03784600691366878	0.07425397958130407	0.07086815881395729	0.20157708530870114	0.1782113354181215	-0.0036943435439791353	-0.17241244052905935	0.1828322405428103	-0.016565498477997067	0.07658501278499352	0.06731579078719166	0.008094566985539297	-0.056823032159231096	-0.012240628093324305	-0.24808669676874406	-0.1160387250260449	-0.05123414750804418	0.004282345652557736	0.0468206660919287	-0.04975951511842429	0.10018715862166257	-0.03164747950814531	-0.03672512003170084	0.009450273361008534	0.08457362104183216	-0.07763123217880566	0.052174658411338205	0.06494326411896441	0.05346843851750456	-0.06436089819128778	-0.04844644686414887	0.05959626329244872	-0.013805926948670395	-0.06801890918955017	0.005243219424430998	0.08843458751872052	0.09675103522629601	0.1389225205818144	0.005921595689730058	0.09542317067631632	0.14168569488169913	-0.06588419504576785	0.11017011239308604	0.04519556834440026	0.06325048314312288	-0.157474578917519	-0.04918104932357002	-0.04136210833623009	0.20823560609167033	-0.11978473456174132	-0.09782841174519072	-0.11438210405533084	-0.04074765776598563	0.043323807503002895	0.21391645699792552	-0.10035688298733779	-0.08017244027116058	0.155246724346464	0.16864131199331545	-0.18309529840371488	-0.041617411026546855	0.021960478500810825
