-0.0017034540998695526	0.0811165045599319	-0.0988565367066761	-0.10205945048770228	-0.028777813732685998	0.11452498311719742	-0.15119324438663498	0.12638434253659678	0.16458708767761457	0.0268701983900561	-0.0953918488048122	-0.16881320201607947	0.21828007624348653	-0.11962809447428101	-0.02575789083926424	-0.18323243885186113	-0.21708569681497444	0.05466182952301879	-0.04289238710668462	0.10614397561398985	-0.040660074943037416	0.0967781266896127	-0.026564991667051938	0.09586541605693867	-0.08072155915076747	-0.07946534352309677	-0.08836722016637215	-0.06374888040184308	-0.15659880348999505	-0.11187436639783951	-0.09308032496407892	0.1937036946527976	-0.009801111884961161	-0.029295589839421786	0.10793557795742238	-0.05214759449599094	0.02991429947481516	0.06570248670655389	0.1010989439685411	-0.0006308129175458576	0.011277555369895203	0.018931622121020404	0.05368921802049383	0.025571254928312186	0.03895358670812408	-0.09349789975235277	0.06221495103698778	-0.1480493902254334	0.004187598294040202	0.0013028485032301324
-0.15759453142345167	-0.07040833447877766	0.12799173261721578	-0.09249747706501359	0.07458845212769845	-0.12093526028035236	-0.13696302960354523	0.06201593815776857	0.11327938851491745	0.014737856670344876	0.04037506733312154	0.13270527051633213	-0.0027055739052711716	0.00012714087707040652	-0.027805135571893985	-0.07463199047334705	-0.15895197326492982	-0.07553957323764918	0.12193759350788638	0.16501397696458014	-0.12389384211263678	0.06936518682793608	-0.023992497759700186	0.15227726052184148	0.023239284433691335	-0.07452042946021643	0.012035291817482117	-0.14848928860358107	0.018645583159774208	-0.0332156825692992	-0.034328974769157014	-0.06299480293414698	-0.08165210327093048	0.051668204343951966	0.008149967750399738	-0.020810456569628544	0.03706785772141049	-0.009401406954206838	-0.022688077042905434	-0.06855228859142014	0.10754259282438096	0.20985035952691758	-0.2390906833990914	-0.02473825533808198	-0.022357967929301475	0.016198690393210483	0.2814808981955305	0.002777904167565015	-0.034385405267396266	0.06361380305947867
0.07312876208474416	-0.06114082164829552	-0.008501573128906498	-0.022975507745138277	0.1797461480307897	0.013597029951147421	0.04182059933985301	-0.06356693234816176	0.05271626184419523	-0.0028140772052621136	-0.022725529159436104	-0.05751060251494307	0.05537874411271298	-0.0265704245214282	-0.10456772640720668	-0.09098554478937147	0.002481501395106025	0.022991282392350845	0.07064089663874824	0.03275247721156894	-0.12769139248209394	0.04086148168748508	-0.08323355183725278	0.10329904058017018	0.12493704022684778	-0.06752334311351982	-0.09089294974770416	-0.11999601394945691	-0.13781864680896325	0.14404864236165657	-0.08260108703540864	-0.03901686548883493	0.2401300608524323	0.1446214908470307	0.11075491889760104	0.04990785029371059	0.10425736628680778	-0.23555402392542102	0.004148166807379457	-0.066730098671882	-0.15759670581472923	-0.15892026717441257	-0.02148146335348187	-0.14071756044326544	-0.018142789723992917	-0.04486898255873143	0.17384912664502256	0.06860696948825212	0.08679621730892143	-0.10762412138080044
0.13247518185077864	0.04573202397433357	-0.0096242349526665	-0.15596420362763194	0.03862134358404853	-0.0319074135164197	-0.05513649562381769	0.017774459355273876	-0.048776272340565204	-0.01101588177324418	-0.11704155703689667	-0.15287017856218757	0.17109865599129406	-0.11796289308482127	-0.11105061854858593	-0.061399525895387136	0.07572819565548715	-0.04668382635006348	-0.030510339800113747	-0.10880025828143224	0.12603045633471316	-0.1902307085269834	0.020565130562489337	0.19214857210406133	-0.039187484081446566	-0.09433932222467904	-0.2090990822520626	0.03430014898751824	0.07782853396305082	0.11245811136519375	0.1719525386620656	0.07672368084248178	-0.14911620587665386	0.1366734591962937	-0.10726364669238689	-0.05283467333096765	0.07208591748647011	0.03389859419249471	-0.07247609442593023	0.03816323159252377	-0.27440887425850113	0.11152169017142702	-0.04887654554521036	0.1913374790139499	-0.014590121095435865	0.12225622446228665	0.07876072245237896	0.08446475639643121	0.08448688818938949	0.057202016778815305
0.07123850095080965	0.07177392754194982	-0.025110015719394325	-0.06146672576998089	-0.060306845706339415	-0.03604087223756746	0.032846567277831334	0.10725323377084937	0.009926897134241084	0.10293441153568957	0.027040810667161883	0.22183063444174944	-0.0023434230902810963	0.010820566366002218	-0.05423784089005965	0.11259590418374055	0.14953384758858787	0.1830117040142044	0.16202401138915964	0.006682738466803056	-0.12075735384688002	0.005646984395853441	0.11695192708302193	-0.0073545745825287605	-0.05568872774922508	-0.011789618312273795	0.1480763299835572	-0.04067068106314365	0.06078034235216302	0.10450632449415363	0.05478143933726401	-0.06393551012213644	-0.017869788536470983	-0.1809783622294581	-0.054823784994495986	-0.18908439170133517	0.10307538655558028	-0.12838998980195407	-0.08660365632205186	-0.025912281844277046	-0.05286614422578738	0.19761545735214225	0.11941646308705146	-0.029071655267552555	0.1670789387592501	0.04572648124933595	0.011265192691678643	-0.09291140027798728	-0.06061199477305166	0.21262291713956688
0.06962635932440438	-0.02114998116454554	0.008057057454352808	0.010210161113852612	-0.00782225040473674	-0.24687503697517785	0.09797948396229092	0.20228499419521043	0.04473924452913643	0.045257669917660635	-0.0697589888996729	-0.023584396262782366	0.038387749237169734	0.014836904680227482	-0.03322040347968618	0.1049812234082906	0.04917815923842002	0.07547459931566801	-0.05691687170604057	0.08577796326461248	-0.113546450477261	-0.003722806159472041	0.04363431559574006	-0.041698068802406896	-0.012577293589132772	0.08563091712219043	0.056832137045735885	-0.0038761940387326064	-0.03850070259211375	0.03467571667802888	0.24068916334444077	0.059009308580839914	0.17280528448036253	0.01181536508740852	0.04511552162215217	-0.2411547929594919	-0.016530694696419494	0.09833931062311971	0.04438527212671049	-0.002519124186075853	-0.0007022332967423297	0.18850248994744614	-0.06706025376536927	0.0930385470861577	0.1656018175263773	0.06994260469503094	-0.08190362473049181	0.08914235491554036	0.056010570850526985	0.16666095354192714
0.021474874766511325	-0.18818428504391033	-0.09685564032240018	0.029883609413385658	0.0010391353105904265	0.09883588826703654	-0.0037247054085591843	-0.024245809910219043	-0.048463946631522245	0.0005294880636843231	0.029284286702254476	0.02690014661142606	0.0028810959589608423	0.0502242494439043	-0.1115210470598571	-0.1343518508139232	0.014714655066869302	-0.05600115534314782	0.14218923160663344	-0.11274121395184189	0.07844790446174006	0.20364812265605414	0.07045519327450103	0.09671099806129504	0.1288604290354712	0.06839026740055053	0.074767298205053	-0.002012180937790096	0.25180437203808764	0.059162513658176985	-0.047981845921614384	-0.08341545652810686	-0.0360721461263355	-0.17465010021803318	0.16109489193700569	0.20988381283676788	0.09268688404661551	0.005277084724894533	-0.10780268235847777	-0.054206681100826826	0.05151614413956562	-0.04303183731393323	0.020343549154892473	-0.12856245442834016	-0.143045347563724	-0.05403073620723207	0.11559340630997114	0.04443019378663533	-0.07418135843252853	-0.022481964855183997
0.17384602314160694	0.08988758450726905	-0.09952618056408451	0.04957175876621365	0.017076339864080817	0.11653868892302995	-0.10870682325499659	-0.02753540813025312	0.12608657011445787	0.10175221993384395	-0.05135155664807128	0.03827929427009425	-0.051880629227272074	0.06265132670594556	0.14007090098121258	-0.0734992705775225	-0.01500122761918441	0.0036421698486339836	-0.05107867318216337	-0.05545720680585851	0.07411350494709516	0.13419882845137848	-0.0504390975018733	-0.07499689147402407	-0.0861806441168064	-0.011572817703313715	0.14717298025438658	-0.049129588013900286	0.16005486900833318	-0.0567465380209456	-0.09265109781067112	0.17174509618418196	0.008382883391063873	0.12847028439659422	0.08627599643188166	0.11832479393270616	-0.022597335253433035	0.04078695508134714	0.0020650101481244007	-0.13276467082375834	-0.03795775611038228	0.08143511841192085	0.11910697147429702	0.09552801788009127	0.000733484835582888	0.1307281791175318	-0.08666800305809184	0.27261486192458295	0.0009073045693236966	0.011494441991784524
-0.11549366551775715	-0.03953528817709406	0.07129597412546751	0.06417450165358687	-0.1514522482086784	0.037562197622941385	-0.16951254370195884	0.13629893955303687	0.13727208089851162	-0.10994660171691431	0.018456458868583	-0.14075013988795776	-0.07032853402652142	0.030530574908112628	0.024730303944678494	0.030827945141287786	0.0174396240921908	0.015821425311416257	-0.05308054735903098	-0.014505646220863547	0.011368749962023144	-0.012961692849812323	0.2690676792317012	0.009276172376596122	-0.1474863739610698	-0.10256194298512074	0.03028985391493014	-0.011912617355689444	-0.0019516439635976406	-0.14670467361568923	-0.1448279766864957	-0.11266123688729353	-0.09528476596482094	-0.1495143181963087	0.07903690552928071	0.03009270543743616	0.08550942829611616	0.13347706781286622	0.023031612709472734	-0.0782602584275902	0.0810919212074014	-0.14122056491591425	-0.05431619153912701	-0.022665230321750468	0.014715585351837139	0.11928705981112427	-0.088384187753238	-0.13867889259597757	0.1534401716940352	0.0966864252498558
0.30114011226331505	-0.15246761547508558	0.015266206731228029	-0.14602208801142413	0.16351032706909485	-0.18549825410954013	-0.0954971494283475	0.032039173347700185	0.01540782699338704	-0.004748777132114666	0.04472179031064201	0.10652327517774403	0.040341954828058926	-0.040152301421374104	-0.08322434266655566	0.029977907336510838	0.04312170801908708	0.05915137289023046	-0.027566929722238506	-0.16921159578312175	0.06306400851934196	-0.052730116940422775	0.015729646507784453	0.0069914695477208385	-0.13584469542069394	-0.00314040225119296	0.03533484611558974	0.0803906480757087	-0.18883086291406953	-0.15467003906638016	-0.057565613726877025	-0.031417915866056974	-0.16745274639163207	-0.06696316775401104	-0.12702371029903542	-0.11342258011589366	0.004465584186127058	-0.05690968462177773	-0.11966065303644793	0.07670373933990388	-0.07634534063330704	0.13479591035419872	-0.18395072855186687	0.06412104859750195	-0.0034530724742833823	-0.030673401675257905	-0.023482684090430656	-0.0036286852762965347	0.014909754966867281	0.1271432627653345
-0.013487247644436734	0.1256614722595532	-0.031451625174397944	0.01628546034884834	-0.02384823981451325	-0.16807895899768774	-0.08511703898951435	0.15604959969164098	-0.08162023601266996	0.08033111001893879	-0.2195284888752295	-0.04516782346422629	0.037536324784943	-0.004364889481890815	0.0427992018168656	-0.24960460956573127	-0.10441579592086321	-0.07629255662880852	-0.10376252910444758	-0.009891788284824085	-0.1780076574562271	-0.03575477557969194	0.19490911301092043	-0.037033423125050126	-0.16030956335037314	0.10131449674315211	-0.06377867930213972	-0.15535659769791205	-0.012560402485848589	-0.05440514211755695	0.011471032949926355	0.002019924806630346	0.04924460544851562	0.016970209203049254	0.23605535559114266	-0.05929053748713609	-0.1372793377829674	-0.09448374425479719	0.112042059715956	-0.16892851479457185	0.09361162329665743	0.2099596330433903	0.13700155226538552	-0.04450479632196942	0.0608798510282498	0.08809309812745743	-0.04029087489021642	-0.11172379364309237	-0.007200850674921396	0.08731821835493243
0.1351257280103019	0.019477652738726692	-0.021284954534507412	-0.014896366606672935	0.18980863737710066	0.03285016592936283	0.06514425681820991	0.13533797252630414	0.002398944051055021	-0.07212638231313577	0.0114389230111004	-0.06760853184693283	-0.06164756421569741	-0.21777631280420268	0.12681062290370274	-0.08988262628135936	0.08254965293782544	-0.12375053938329524	-0.11117350026176538	-0.15757737410030104	-0.21919786485399184	0.1585477488359739	0.08199253939659244	0.0167891727909473	0.13903103348690146	-0.10724407149797338	-0.09270796319413434	0.014067537218577201	-0.0316106531808654	0.12639501320470095	0.303247123359284	0.10905385985531638	0.030766382525263713	0.000280454965446026	0.19422010087085614	0.0307096500103546	0.057361944084777516	-0.10045277478017293	-0.03732196641677216	0.051399902115818276	0.11923233595185986	-0.05152580181917248	0.04657412405630485	-0.1027745065683393	0.05116550959759297	0.11219598445928339	0.0029627978499438806	-0.011937796942573202	-0.04565425906570667	-0.05719506524958184
0.14837295091521213	-0.05015679401297551	-0.0030753084779670454	-0.10177148019246454	0.0012830897954256531	0.10780025045032539	-0.1109824892151743	-0.09205644914207013	0.16758209175144445	-0.049658224219886866	0.08000659310246734	-0.03533910497635907	-0.09015076539696143	0.22439388083699477	0.004812938840031484	0.0649723210578278	-0.03484426336509959	-0.023502202230462066	0.12540218547293294	-0.034145229545483005	-0.08679200833491248	-0.007712682971748371	0.00881500639275516	-0.04722875230523092	-0.07333630862822649	-0.13354930130696405	-0.03739518907718859	-0.14468174601550116	-0.0927033085228074	0.05511539002736753	0.10345672983388968	0.004096221768810109	-0.14604671985792528	-0.03775773815678515	0.11023117675063648	0.07770911028856071	-0.11803601020624109	0.08010437212940194	-0.03629795846489961	-0.06085550538138254	0.0372804184372289	-0.01159727992333965	0.17091124171074445	0.07128395837882637	-0.010066055374700388	0.06560174346174627	-0.08932436710432656	0.151877619348279	0.03729682014237914	0.21227454163223777
-0.08941785340477418	-0.19648728618746097	-0.022307499871583675	-0.18195888895296503	0.2322348130172036	0.01750043934497996	-0.14025905043275708	-0.06356872261826707	-0.16372350125290636	-0.08096735971477491	0.16163766073468086	0.025812552288465067	0.05201022660684651	0.052477727092293924	0.03157237560676034	-0.14547908136104054	0.0336803389650998	0.22547896718450594	0.11697631760916717	0.05680056067431529	-0.0019186222180630334	-0.08184591103826955	0.3447646998249831	0.07841936519603276	0.019398411078312024	-0.019025840810393473	-0.08454446313778555	0.15235483632103242	0.030790220865981415	0.08641391971846585	-0.14632721296192738	0.0531939171374397	-0.009275606508303714	0.05299391412610875	-0.03540171179350771	0.021216582082151384	0.05046820412840416	-0.09430482386599608	-0.10747768008124266	-0.17418496447006077	0.011378329284261406	0.03481158714720006	-0.09009644510966301	-0.1280198145774882	-0.020357464006627597	0.06644779806399884	-0.15173117027390784	-0.05213756514200714	0.11268375571142598	-0.07373955041588204
-0.02310844371849127	0.09092720902308277	-0.01746923722931713	0.05046758543039952	0.10393594641152724	0.15388197786588373	0.10249104631021244	0.20631408694456496	0.24866295812088807	0.06504086212817953	-0.006733493784267782	0.004919502153632528	-0.09485481621600712	-0.180441372810596	-0.03961901874092064	0.11448538954980243	-0.11486900041612598	0.11302549716802449	0.005207470284140339	0.14130920514089834	0.1050289875650962	-0.06132929265807664	0.17876338019662943	0.18954239211044038	0.05507168521737184	-0.2341233283703164	-0.0717536940496529	-0.15542850583941203	0.018519728168437763	-0.11445935846189219	0.05256005484603956	-0.12555234402706963	-0.2410664025269767	0.10582924447230001	0.15035645351117902	-0.15790043288225505	-0.054040752906781266	-0.0422315028043555	-0.05977987570686535	0.13278085625390845	0.019082431704023028	-0.20623801140741554	0.06772735319162175	0.011924331690549081	-0.0037720371974236215	0.0675902769521827	-0.1847629848630567	0.023930215468241773	0.05196691524454688	-0.07477376337446055
-0.05227191368636463	-0.044252380983762746	0.08853698250395421	-0.12095409083932442	-0.01955261005897213	-0.04240225194577521	0.16048051739138366	0.0053184666781749485	0.003029606100580321	-0.18304756554601453	-0.11581505137883219	0.07241386103401383	-0.009310834398908134	0.05214991437489807	0.12047439953421647	0.11892160501521559	-0.11875335071746902	0.18841661911564603	0.07024767931940888	0.02719714290238919	-0.1851974970759424	0.06811105246903919	-0.08073739210890978	0.01191860367080503	0.2041901068365871	0.017393870046641873	0.039888500122509246	0.03809387478751645	-0.05831896630299536	-0.1557918687900899	0.07325847559695595	0.012417331131788126	0.14769073816252873	-0.06387489030345202	-0.15273888822500215	0.07349000069980605	-0.06579220536317781	-0.1551623770915419	-0.029145915220807013	-0.10266902663449062	-0.154631325730887	-0.0008952514739224576	0.05654872137143532	-0.035698154134090825	0.21250835057142742	-0.023885311709462755	0.059490002243200626	-0.17997860458886478	-0.1147514410010493	0.0764414136288758
0.112174613849903	-0.04322457566383805	0.06205091801050823	0.004005401727818592	0.04135895099615554	-0.10261871430793387	0.29982068288262115	0.32345904337478887	-0.08860207440404377	0.006336099689554301	0.11420278480834996	0.10737967990435661	-0.006324977127037793	0.08545518300247106	0.01259475575644183	-0.11529605677851834	-0.014783525821716733	0.09675840686954101	0.07934668547771076	-0.08611238985886265	-0.02704397280589463	0.0846521236306763	0.06846018995050654	-0.0011484266913476032	-0.030797471306524066	0.10657041116453835	0.1827896048228218	-0.04490932654813389	-0.33219380753488614	-0.16721312070895986	-0.12364511960495998	-0.011531497057073448	0.09141199770580999	0.09377263708833768	-0.16835058735258254	-0.08793251786403722	-0.011818950850498323	-0.012446453620921632	-0.007788790048588966	0.2613751602316225	0.024053898906016526	-0.1100769788868343	0.0007095485865959199	-0.05458401367913381	0.04603812342937689	-0.08725139119723604	-0.08923470811040467	-0.2266298186030573	-0.019611587652273176	-0.029882035687535113
-0.05782194143628042	0.08971277686362594	-0.004333884975088332	0.004469970243290008	0.023476841547770418	-0.0021430411139367594	0.004238923183255369	-0.13936415183769515	0.11092341566110424	-0.13594840548104312	0.09114876138473449	0.03323881770374753	-0.05184592918674732	0.039528189590398284	-0.028185644289723914	0.0984120277159251	-0.07428908674997403	-0.0023510469811565764	-0.07612206488085897	-0.09527792707791703	-0.00994785110223435	0.13901845746909658	0.048565383294467204	-0.014733012682931028	-0.010857877406304383	-0.15958528732458663	-0.08515655975699557	-0.07728025857944074	0.013652958097371439	0.09715359937961004	-0.015062364062050075	0.021061324601689496	0.003631953541143001	0.016088397328854937	0.002319092680084706	0.03939686795978974	-0.07076988384313247	0.08864635042094386	-0.10588017933297285	-0.15694834905444488	0.019047118068936816	-0.005201578955561984	-0.032812006518511475	-0.04000969120558644	0.06672609008174948	-0.08398019500214148	-0.09985671273099334	0.05240052042035488	0.08007961884903564	-0.07958557811910985
0.11766381014834847	-0.02683234230067479	-0.035771176148419556	0.021747602447155394	-0.004683672073648468	0.08688067006100342	0.23607497897018928	-0.09740041961289851	-0.03683099278061443	-0.03251048599921729	0.19743402158920492	-0.17193032358947183	-0.01299208111475778	0.05462312667932606	0.12318748926851003	-0.03252827491515691	0.123648548061099	-0.08718785110622437	-0.03259120685726193	-0.17023162909508252	0.0843016367120637	-0.10456900830016705	-0.020946898215638134	0.1462830607411784	-0.09914940350122331	0.11396606086323026	0.12569838538107964	-0.011139545101292623	-0.0061265106464886395	-0.05915119108891985	-0.006270178157977987	-0.06396088935552079	0.167015811753513	0.016801212553708974	0.09964232413584007	-0.06862438846843913	0.1357408385599304	0.087401239169765	0.06225356306297787	0.06106642515043253	0.004687578955842866	0.05835819806828496	0.07744261683923316	0.05983438087165288	0.08800765823955671	0.019187284845434017	-0.15447960368188182	-0.040403469620098616	-0.0798253737199053	-0.1538970627168863
0.08050344907279956	0.18103121635389544	-0.22680722409728268	-0.07780337752638282	0.019785220750078648	0.041284196880399096	-0.02734085059660735	0.08538946535862034	0.1712629189025303	0.035621230997748596	0.034176294215962334	-0.11331009440927199	-0.25915251147296436	-0.05529322152055947	-0.018944168972656775	0.02243192926061171	0.037718193133020335	-0.05317991249815795	0.051646507542441426	0.0338883565489991	-0.00544601673651621	0.0078614205355438	-0.053914142532368155	-0.04013096772716738	0.1655704839020494	0.08250865100995775	-0.007462094665172953	0.0074388374077308155	-0.017450339289202327	-0.04218708076158515	0.029757392006558202	-0.06338254249299029	0.031607575172763684	0.005663031236747719	-0.01913721166154571	0.13108849232590322	-0.0625986263953317	-0.0982913475143754	0.06989469667495156	-0.08903000065584922	0.06056454444997091	0.16936381068158074	0.10011270678679991	-0.05257400241160683	-0.0832771501213968	0.09697250634824299	0.049268893113949754	-0.10709912123370795	0.06659570107520829	-0.024240967063339496
0.04541824232182683	0.025374043785825078	0.03278056710517878	0.24427323300488132	0.16393652519276114	-0.12020171667111425	0.05529744392097423	-0.1509678758327948	0.14520074262776403	0.13167787925568236	-0.07219923534824489	-0.011583691582993829	0.0550534053322385	0.01121521387029838	-0.011324663991184637	0.0033980809489391264	0.15490826348086464	-0.15240761420084314	-0.09496934375751208	-0.061010669967089155	0.22769632824491828	0.18346359370518803	-0.0817903655662593	-0.008949954062580109	0.07083749494555917	0.08658370090777023	0.026950212031726737	-0.002440136002279131	0.21085268690786227	-0.029749194293442693	-0.1429543783548961	0.016215956459103634	0.04508471890681712	0.010962829923052033	-0.14036205044051855	0.10026882704388719	-0.09694527455670941	-0.0011564758103973678	-0.05783514381919118	0.10480160422385737	-0.15510132253430284	-0.08654383692827554	0.014574936974414407	-0.00034537629390419666	-0.0524637168837551	0.03650838519802134	0.03702973027975933	0.1107213373071278	0.01800353867673401	0.1831191697980495
-0.13641963427070136	0.19376342579556965	0.0032626966996193657	-0.11876071076575744	-0.25049401861747383	-0.04166648316192448	0.06763753968276837	0.09552438699378958	-0.08395408585838189	-0.06710196285634398	0.10315418780969639	-0.17722137104559516	-0.10056117897577399	0.08488348761010103	-0.08510597996600738	0.03333189407296409	0.023835560713412536	-0.05780999474135825	-0.06488403092714404	-0.023868670497823	0.22328362995957782	-0.10264691366368742	0.009607953595829692	0.043403423914577036	0.2610016376549473	0.18278183090367728	-0.17536997105867727	0.05772175301493603	0.08704621355793025	0.19258898703819416	-0.1811804239218018	-0.00517922573182701	-0.04560298431401781	0.01751705637869072	-0.0196921422102702	-0.001985260218036476	-0.14081819337120838	0.07455930206004566	-0.049407886945024265	-0.028535689786868216	-0.037353136579809314	-0.06203322144407765	0.09457556486730873	0.046339921341691646	-0.21115157749878818	-0.1500036462451371	-0.1731219756490704	-0.22770896556661355	0.11630890495100077	0.08773121703076199
0.15477743156116305	-0.03410465531070853	0.09355854464194346	0.051988691374484676	-0.1965621202917007	0.11202660704427972	-0.04768883017578651	0.043579528473298254	-0.04838143002406931	-0.15331139183609988	0.03247696163831572	0.16078647581708394	-0.12187169731642945	0.020867782217951603	0.12608178474816373	-0.2530090543796768	-0.10056896696864794	-0.0008373197981148818	-0.04522613502160799	-0.06433291648726212	-0.12422659020060246	0.007321214173828813	-0.09084277517920275	-0.12706931950913913	-0.12079123326966673	0.12255896813316401	-0.08159904552998255	0.04625745529917457	-0.05857713526445961	-0.1664826006060023	-0.07827939489687645	-0.05827879475081012	0.004633489087050629	0.013361098675267162	-0.12253996016969561	0.13520531119584223	0.1429432291510454	0.004461336965332933	0.03180803790761314	-0.08397581058330843	-0.1548901434329702	-0.006881902642328172	-0.04010294824794618	0.15931220220261633	0.2425313791386296	-0.08375943763096673	0.01227401971503716	0.08370856996185752	0.045053065049921244	0.03965099100560553
0.13071722071283487	0.14099031820428143	0.034688065909564005	0.2242082889461326	0.0891310359501559	-0.06991743065656077	0.09957519766269188	-0.07418723926270047	0.016441687972531493	0.08528230903432694	-0.06426518882987753	0.08123760281152279	0.023895257583987754	-0.11952865602308094	-0.18049860904796733	-0.1740834734176872	-0.03232854002858416	-0.05950281979693503	0.1663120907292751	-0.018582681897705403	-0.066897725628874	0.01960625179581334	0.007772961983667377	-0.05694415335586231	0.004150977875987373	-0.026968945940987313	-0.049885969064433475	-0.049453280829370797	0.055098225029533265	-0.06787647067596622	-0.14370347607489722	-0.013434576577116499	-0.009167580826250294	-0.06851472401273788	0.24720110564178543	0.0822910290740266	-0.022299998115177133	-0.07347234931403526	-0.13244999922086273	-0.11764501327444372	-0.02853353430756394	0.07980981223837132	0.08418437608517118	0.03075792225569767	0.06660231783599341	0.025575456362030118	0.05844729171076719	-0.001619170480726181	-0.07381594610206514	-0.00622974474421178
-0.06502846836604861	0.04652430939770401	-0.10640726797498755	0.06891015991095759	0.21209980242170767	0.2163766069756777	0.13176271754568403	0.06265492935560452	-0.10016827472935454	-0.007902337243448429	0.019282775038281578	0.20395502035299037	0.16898902900246887	-0.07812654247078307	-0.0021876490393752785	0.08908462575308906	0.2007596616740777	0.04900738396132401	-0.008248228568441702	0.04743715139094796	-0.1235313054527902	-0.005558432076623887	0.039901549346344094	-0.035186818763560807	0.18492265494279017	0.05473488097734154	-0.12046803693878708	-0.05612273336270234	-0.18883486389136064	-0.02862528484528551	-0.07304504352309318	0.006399982178550392	-0.021036961700786744	0.09119964903247821	0.09661953982256326	0.21021815317139117	0.1641737138593381	-0.012089810011437913	-0.09054988118045569	-0.06923146235012248	-0.06703122919588493	0.024231326493052895	-0.12792368548959757	-0.046127290409181405	-0.14005698025319496	0.002332788784432071	-0.08206310184142097	-0.07729540551564998	-0.005142721700207491	-0.12831303826561913
0.010684301892521713	-0.05727550851696254	0.01054141579280466	-0.20505223780177742	0.14982457937886276	-0.09327999484090413	0.18171927683221448	-0.04487096875706267	0.13985858939031742	0.10248056255588694	-0.044463688313927385	0.07724039810209517	-0.005513207556006493	-0.03260199523472758	0.10467798293317075	-0.15582257906720284	-0.10900553195140579	0.062283401867846186	0.11863684453840406	0.033282893672752195	-0.05964500103952488	0.05736569168447521	-0.02446886776812167	0.22019192387061962	0.04090036251175711	-0.1998144544923114	-0.037374259802353864	-0.09065540951491166	-0.14514251422444935	-0.12999067771082332	-0.03433477817660004	-0.08193669669826177	0.024855470516164855	0.0690283900072567	-0.0344783116938905	0.009204698601353515	0.18117813678009786	0.14968815206869462	0.036469864918270097	0.024032785533191617	0.05022622967989925	0.011490260017001533	0.03519813796581348	-0.15717993784118925	0.01589672585982991	0.0767142144885653	-0.012270468251652978	-0.08440867272384668	-0.011366407712397664	-0.005026553745300158
-0.1298885889790002	-0.030053201328466398	0.07165891893915913	0.10446048210925359	0.019522461256644967	0.17023800719400078	0.029638328659954513	0.021368452817348317	0.11524305875471466	0.0018493717514668163	0.029093946587152593	-0.17788599503818822	0.04282501302365517	0.01124512043563417	-0.025086050197137652	0.14660007648801893	0.08623357795972178	0.0725963170321866	-0.03399109640781086	0.04361356860432883	0.15945668633965487	0.019144351567556995	0.1684538800618456	-0.08695800022147603	-0.20684230493257444	-0.0037930397830923312	0.13622472123359936	0.020139061183171377	-0.17688352968419324	-0.033337099753970895	0.0666405394497998	0.09795815971205606	-0.060009938661968125	0.1321834864531352	0.06297481717445956	-0.003819791700295281	0.1855636219762948	-0.05487393568389464	-0.07229481311495072	0.0938526723843806	-0.026974963291513984	0.19600777319661866	0.11476254428428696	0.02726909380383918	0.09842035380034972	-0.04952710337360881	-0.015629211166110192	-0.08978531853216458	0.045351331717248033	0.23296579157252154
-0.06340040934231472	-0.1825766132157205	0.07333873960050138	0.03897024053230621	0.05849293913854074	-0.025833077661318336	-0.14867043670985192	-0.06324149003619779	-0.1765125496097219	0.07837620298066136	0.059422021419594885	-0.007821053586825935	-0.10578594404928515	-0.03673767514831023	-0.17790392923875034	-0.055454826074158484	0.22436052612964957	0.053806297894351304	0.26206058841249324	-0.1829694565825567	-0.02034280783176259	-0.09832790429528539	-0.054558400736150044	-0.0010626977974912473	-0.06959566871605122	-0.10904072963220482	-0.057139175693688725	-0.10001584356043508	0.029019335629442127	0.1297977359338958	0.11989924756029295	0.01926692512874871	-0.0009465736391820293	-0.16957428180507828	-0.008329484656683605	0.011240037156683041	-0.03231726695667129	-0.11842497481419993	0.08809002452088567	-0.07632133264284674	0.07838862680820227	0.0730599386685809	-0.2147358273824378	0.0734444982791206	-0.009561210492628652	-0.1644677854903503	-0.07168358406912957	0.1467353965973433	0.004147613010348959	-0.0383051405997557
0.00812280481775659	-0.013486731774786754	-0.1206619224137597	-0.12360226809934975	0.022046931539985524	0.06411154682992865	-0.04173629553422567	0.02532658519480037	-0.07717440054155013	0.1875942002611468	-0.0010523201462193457	-0.18515621154392184	-0.10207651741969702	-0.03127688438259117	0.10473880133990102	0.06520931692047058	-0.06647431038724642	-0.15892286351981783	-0.022303824556943457	-0.06875484500576909	-0.02163247834836641	-0.007423942415414755	0.02715933331560038	-0.014796149341968873	-0.21198462555127603	0.02561941451893873	0.04006565326119189	-0.058849339006720666	-0.13838749863371924	0.056114202680442336	-0.03104824929791927	-0.08213360012927919	0.010332433978404545	0.10592625675368655	-0.04836802346823239	-0.02685247662160481	-0.03250834987555454	-0.12494719651540259	-0.008125964746728657	0.16247337667823875	-0.1783326880527832	-0.024834440229919423	0.08035509215319153	-0.11680093861849619	0.016137482769727828	0.08796250826016384	-0.1504598706200462	0.15486199056126584	-0.012129799510294505	-0.041547247382217524
-0.11885604705812766	-0.05542127811755523	-0.17523931115942687	-0.20299350820414427	0.024513675585383032	0.003550919949012829	-0.16177886116559334	0.029323220285550143	-0.1264895617338797	0.03444233447259789	0.0567185443246724	-0.19626028621390515	0.013028033794754831	0.08542807539219958	-0.13904066637254087	-0.03625796646443448	0.11739669827440148	-0.002772573105184346	0.09546966904179317	0.18216705958359686	0.13630083826401249	-0.07750819282362335	-0.10033157544839771	0.060254624401263536	-0.03600345511012014	0.010419710572954504	0.21675032403782632	-0.016691952736503996	-0.10983620146728887	-0.3807806994792274	-0.0785924102402392	-0.030974899065757604	0.08758532000745399	0.15261151447975058	0.004538672277110757	-0.036804075135667705	-0.0530362731017708	0.0346135729824107	-0.07237443110579128	0.09370159439197713	0.11680536146958753	0.16729675711771477	-0.15448285134550604	0.03139217030461362	-0.010356709667231597	-0.17472646622669155	0.02395236501351372	-0.011958219003366794	-0.04438721441610737	0.1620060211564756
-0.15849840676248883	-0.0037062707481845835	0.01888947465236864	-0.2587788355873321	0.0020220948183296617	0.03237105342372058	0.09409342818455585	-0.2755637872599825	0.001648930690295472	-0.031803456518456834	0.04710844359577179	0.03332710404847542	0.018191168168031683	0.022034713201539286	0.027315878657714503	0.012371880531671344	-0.16994344641023296	0.3201881883007728	0.09790265036660777	0.16658472329758434	0.006755628336095924	0.05743940962685459	-0.16339302052023175	0.16670987983306207	0.13552539440366532	-0.10152600775565952	-0.036047078017059295	-0.019558635865454338	0.04268984206626557	-0.01682805628632911	0.05894227897896842	0.025428375286212286	0.03427563034889969	0.016151908984248668	0.11398941076749834	0.10379771596678766	-0.036917925519263796	0.09158832140038976	-0.0791845345914602	-0.05294097145535996	0.08479452416992929	0.03639341543790765	0.02765368243465697	0.04312361939813825	0.17655259762603884	-0.004301359246370014	0.0020086574260581515	0.11652883173296752	-0.10562541272326155	-0.06786288007854224
0.05830584080809648	-0.05632114347988786	0.005490803226838588	-0.10883745286682737	0.014098810146610038	-0.14481055304796106	-0.13564646649769996	0.05188241133132618	0.10009265529726118	-0.0049073087263551045	0.1393311545413751	0.03371685359473506	-0.0417913130893885	0.12676234137757136	0.06353912724719685	0.047346276019101456	0.12134849002362573	-0.051342978014868576	0.08113761014438728	-0.03328921290529596	0.003929137449522989	-0.12180145095518312	0.03480489918612572	0.07574754028588403	-0.008723373416658919	0.03393827469790885	-0.22579366926626013	0.04226088234768515	-0.12368634424138449	0.13504784687614174	0.10445794195635985	-0.0885237671501218	-0.055570828126626406	0.13404169552326858	0.15836891917596882	0.03285283448572052	-0.051533478555554124	-0.18303965516152368	0.09919933917359422	-0.05556155506507422	0.06235144050304134	0.06893305575479505	-0.018590333288264815	0.01659267036440987	0.15488811043500728	-0.021899091254467404	-0.062009968944017356	0.04512936126224578	-0.015762565204883405	0.0183912870534904
0.08771547895217573	-0.11360003478336562	0.0570614728579863	-0.07425409152301528	-0.02232299680643034	0.017313993404866664	-0.020153718439137477	-0.17252205057543993	0.1379953250673819	0.1271559716818561	-0.009123737841554647	0.06879217671745669	0.01740669846642232	-0.1122681644931043	0.02901699913935909	-0.11693283782080371	0.03590194346566743	-0.0768105546886154	-0.16234095039887955	-0.3562234670338781	-0.02282358666101631	0.013455048992473434	0.12904592314278998	-0.17352878402190952	0.15108024991613603	-0.05241632942834595	-0.01817718093445336	0.001629756505684829	0.016537410949893593	-0.1983817930680397	0.09016528126255206	0.08306495487167066	0.09457007251706305	0.09435627824419247	0.0021128040827014735	-0.16258222462788624	0.04513659277124717	0.00298111706383727	0.04204803413097269	0.046008926188448165	-0.011669411676335128	-0.07053061820123509	-0.11643174411856969	-0.013065466539674874	0.17069771498031727	-0.1090406605818352	0.10120973360652176	0.05169986449425259	-0.16804557435623332	0.06781400981146514
0.0011345221580845583	0.0040070358905612	0.1997276916581645	0.13625534619882343	-0.09334694483334394	0.0705948049039119	-0.07584289225768653	-0.09674832240985784	0.004097422921778715	0.12642093346855016	-0.15260824993944352	-0.06102210996405168	0.1291450072067631	-0.07136835639507037	-0.012426534112149362	-0.031177866694542263	0.191401750718017	0.06577352319094905	-0.034171823455522124	-0.07170935320865283	0.20734759147230594	-0.01876967488010157	-0.03376390191740402	0.04990179273664461	0.0508635158405918	-0.11182995517101395	-0.01816116098105591	-0.10890048235897963	-0.06830781514454984	0.15604675772413018	0.13205301951978965	0.05948282738080372	-0.13034341084222467	0.019925911022969735	-0.06738240677325205	0.11324836520981478	-0.05630072354227554	-0.08331699450689549	0.014474351607259838	0.12514519178532396	0.09966916707984753	0.14786508908869855	0.13899559798969643	0.1514475735588898	0.021683410773191213	-0.0444915264468605	-0.07569493190106234	0.14576872604633337	-0.009131630730976587	-0.06237292380547291
0.08030876920520541	-0.12889310411085475	-0.10770486323422777	0.02840513197173823	0.0977649916778501	-0.012348175470049464	-0.01030744735176405	0.10743002343674783	0.1286282803265693	-0.19580958904516266	0.15648910272675418	-0.010576959293934051	-0.10029510905506478	-0.05625619367455794	-0.09177744751241598	0.25296494642546213	-0.140911344144827	-0.16133607429855906	-0.010107162990941497	-0.1556845180145118	0.026118802244337366	0.20265155704445853	0.023556587672687545	0.033718988969434385	-0.03562486293373609	-0.11137876795009802	-0.02634928658093742	0.09748863461482453	0.19557009060486144	0.00900663991359377	0.11500647010888146	-0.07753697761687527	-0.051559836138242734	-0.15686079017099702	0.1259753073627546	-0.015671488696807744	-0.13277779658765193	0.048652782610705395	0.15861570853378504	-0.03356997102904323	-0.1780979912785765	-0.06881219305951701	0.029363739085149634	0.0564764976889799	0.07419218981666754	0.010961272811521896	-0.03910011350965956	0.08466232186943523	-0.13148437789474396	-0.10063653561432628
-0.0424504261047338	-0.04328079552113948	-0.13810263500112577	0.10021229720859329	-0.1277793199345317	-0.2662347473966311	0.09820319546652813	0.0820805994233771	0.009162640514075813	0.050014290825993235	0.014936789686180802	0.13296442319515417	-0.08171247371461657	0.1892903456699395	0.09127686776623234	-0.06094923293924505	-0.0676092953908741	0.02351822627915872	-0.10822775581690075	0.009420403793725263	0.14761197449048466	0.01603577948755561	0.21736729483181022	-0.07710068062778194	0.009379759906380973	-0.04503486768184045	0.004600652340343806	0.049574304259179074	-0.1036213925049419	-0.12012510718207832	-0.029351409724978753	-0.05387081208754999	-0.09611088688152683	0.14622169638851168	-0.0230663627544679	0.09780833580911287	0.07570080823756584	0.1013764488585571	-0.11871409841923271	-0.030142911031261065	0.0671965506415783	-0.02569786453275864	0.14168514627638104	-0.12832756568363837	0.09514739234457176	-0.04316165004389897	0.12255054936794156	0.043043961201040315	-0.08536967878844257	0.07546733702343413
-0.20184997565091384	-0.01446417362724168	-0.04514242479472449	0.12101910238292732	-0.2771546694811059	0.08952026242347266	0.023905486010559703	-0.09648135189880169	-0.04028063665912409	0.02558601043914196	0.07848500494304458	-0.2799712476544457	0.0036678521169943084	0.09979354408556008	0.1753805367765972	-0.02182083913346843	0.04717081135228134	-0.03954120528248721	0.13022749781820442	-0.058514793621359536	0.010343640685072491	0.05755385630600575	0.053925863411530627	0.05002450553574614	-0.015186718814005334	-0.05868947359237693	0.03295964890854018	-0.11647502867419841	-0.07431432153474546	0.20190906367510292	-0.03197404994123994	-0.051707923099390124	-0.03551144308520201	0.10105357407394683	0.18855730334762283	0.20007305328252784	-0.13102833997651464	0.12782339668204742	-0.07116519455243171	-0.061832150942874774	-0.05514760907321127	-0.12549249693455924	0.15603822400652986	-0.0740307318680265	-0.19075220672471815	-0.08501410633744687	0.02653656100980793	-0.2103677048368124	0.037914255973058725	-0.09679684510686475
0.1193892237456415	0.06568584445681076	0.008747766251846754	-0.10947848999512368	-0.11644516343358342	-0.0516516293559869	0.007693344612491164	0.17069777897973842	0.053685993753110374	-0.02244051848498361	0.1487659722628077	0.020244215647438644	0.008515330622664232	0.17580681450007168	0.054156408131087116	0.0429516638308455	0.12174568142931468	0.038811996760152526	0.050767112161621664	-0.13620872626803424	-0.08191951407798584	-0.011176329820393077	0.048662356913051485	-0.043622212195810244	0.20082383997247985	0.09601418416337433	0.04790739471390778	-0.14819049530155742	-0.0033989614724251956	0.06416286987571383	-0.010508711081579162	-0.01255644060937232	-0.014473607397545404	-0.09229936009116067	-0.1413059449800656	0.2603093072521114	-0.10017799751688068	-0.04807260535710818	-0.0051826575765816455	-0.19613567190827405	0.14918223555617785	0.1041278260569892	-0.15056947881019972	-0.039069566562523014	0.08467078662009885	-0.00010590086876357201	0.1159075084636551	0.20630141493712886	-0.07880624005737177	0.05842347934664596
-0.10637273211096573	-0.01653089894840317	0.007048052284670861	0.04958628350519871	-0.0610111185184364	0.08248045181175602	-0.15866782526432954	-0.08765038486660764	0.1436694714938716	-0.052984537637032925	0.013794744778137214	0.15964485878908036	-0.021750944212136546	0.146711367671422	-0.1043557091580005	-0.06038717148262302	0.024246397879211904	-0.12936110768572706	-0.038662306381462744	0.044905072988148984	0.025835108471050527	-0.03392199335291343	-0.18499109926795002	-0.06484103555172202	-0.1173868220117992	-0.01629261886395759	0.0005925517900597341	-0.017420716675942888	-0.05434464262994951	-0.1908682359686295	0.14904836754627818	0.0028306023960535886	-0.034836732115238106	0.02819101278032625	-0.09668378530279932	0.20864732669783892	-0.07128115048378103	-0.012239194824880163	0.045265345729749246	0.0769880912541741	-0.0032445219064806603	-0.1368047181018229	0.06906009952308384	0.08313136533073416	0.09687012713662399	0.057279393222904804	0.22840971414754863	0.026719273307161354	0.022000330320492454	0.11524268325915357
0.14368180659727306	0.14429523050591117	-0.007655383667770222	0.06524036584964275	0.12463569546315069	0.010793861386695724	-0.08564158029787086	-0.10920924020656111	0.040433550242766014	0.09565176550409196	-0.0453825638990613	-0.08287394539202071	-0.03231746399776284	0.009319414940301123	0.0804089884655542	0.03723153082245101	-0.013017440089942206	0.1452433799968603	0.27620589953679603	0.002072954646673061	0.1499681913404635	-0.06974248156679788	0.11514824036448085	-0.08225111925730386	-0.00026362358195101396	-0.009846927101362136	-0.21219425934811567	-0.18233280602474822	-0.07703545038031052	0.14278355625949235	-0.038239405338398626	0.09229424989565539	-0.17157803265347749	0.057163793196227684	0.04736582597425342	-0.10639450255958213	0.18644577534683557	-0.12570219882508288	-0.02144191618896905	0.24626104055732878	-0.09610998010669196	-0.07454184002367906	0.018872300980326898	-0.1330671502078894	0.036395553089994225	-0.17765153396080785	0.004943421740194874	0.15048002752806053	0.06470291320654423	0.011627591844511075
-0.04096186881782994	0.005560647459999071	-0.02854418350207872	0.06364053098111494	0.054134292750174624	0.03396805936453195	0.05923409272554906	0.07422078914973962	-0.11449968722911079	-0.23345288288864963	0.020033311776030717	-0.07160504659252964	0.013999037668051625	0.1728395405622653	0.0027137228865175642	0.03136685663996664	-0.07029112698414805	0.022489115654324147	-0.07258637215841238	0.09477418544267015	0.02423761742569349	-0.019846150804569414	-0.16395092269655615	-0.13729819029910378	0.07071506599874806	0.13211640291510912	0.005480224833773305	-0.027109234497155254	0.036456878284514375	0.03388751621534179	-0.07382252321156879	-0.13447162550139485	-0.1302170505898348	-0.07376953128462894	0.03441588390392519	-0.137427601741151	-0.007142013016089031	-0.07519334722127038	-0.14499340446479397	-0.06365200653372105	0.018867561930972863	-0.07535968272839398	0.15912237339447383	0.0549311016698187	0.09886237597168666	0.3104141114876742	-0.05921654726267043	-0.15111236541836973	-0.07413999718847977	0.023536304391106027
0.05628258761101721	0.04027594754311015	-0.04435146754603561	0.07237958577633448	0.12757900143301826	-0.06803500844278923	-0.0973498397115337	0.22193281470559933	-0.07395529006617352	0.0812794502376368	-0.03784201168852123	0.1648544233231376	-0.043045407034797915	0.05853240682126607	-0.1405436660800103	-0.0688281061548077	0.04328050160980056	-0.05809930266051734	-0.11140763762547819	0.2706278072480914	-0.008649240901755144	0.08847307044364607	0.18773616580805486	-0.05241773337235952	-0.027929312596215384	0.02883967705482894	0.06735969460229198	0.11076896968729542	0.09009068290694042	0.05832745871773835	-0.04896836847804611	-0.0003818517541784967	-0.1361625502524061	0.06245507802518832	0.26071744613725273	0.06942071347124107	0.13984184606575312	0.08154969782766282	-0.06889147725618369	-0.08203115619995921	-0.11104152075530838	0.011880503937074495	0.04758756424647884	0.05541270833871591	-0.11600971403486969	0.126321694779595	-0.02882141448750778	0.051995712061970636	-0.06313651106953731	-0.10697280502726801
-0.14588618569591857	0.0879701032386692	-0.000628136816713587	-0.1010480491294882	-0.03450776474052246	0.17820223520775405	0.06240349623399674	0.0463451816422659	0.21135969375503516	0.1657321546141524	-0.006070215543962368	-0.09573049561325547	0.29137481417085337	0.12783355494287807	-0.007252743598897808	-0.1333358565067763	-0.26033779359946063	-0.1511753738492641	-0.06533786697026049	0.14458768670181385	0.1145346956459102	0.025239635356725767	0.06645730954864441	-0.07818537598025989	-0.051983227253949625	-0.02724999866051799	0.06266457101784788	0.0015120751701723347	0.08491532364190851	0.015696645881468175	-0.1508739071668177	0.03059639625855124	-0.046662910635511756	0.17318741150840603	-0.1280672585565544	0.1734156749700016	-0.12317509196842968	-0.028675627238742063	-0.12898145278051615	0.10420645964855438	-0.11537677755351411	-0.05840958246480897	0.11427538828415985	-0.05368358313243764	-0.03920592277182709	0.05902668882215467	0.05721252180421524	0.01546292805293065	-0.05552381084627257	-0.012894855146206067
0.04414590993270395	-0.029280229219103	0.025523535418307104	-0.20520367235779322	0.0013966371907991391	0.05972254929997106	0.0697000670212728	-0.011349870047651013	0.04348931807080953	-0.06383367870071613	0.14448063730903246	-0.028816654676373156	0.1307997003912712	-0.025824878455459038	-0.1014878885780018	-0.024192382880574854	-0.11701342055965912	-0.028617393204564245	-0.10059243076626992	-0.03776470386608827	0.09906622849110855	0.1618271678357574	-0.057895310562876987	0.07235877343802469	0.15769899302296317	-0.12155850783503733	-0.18332306907274698	-0.13845176622263106	0.013436131601797465	-0.20172123732197614	0.11208429116157004	-0.22339637364264592	-0.001382671125836596	0.030880672323230846	0.07321826473048035	0.10323737190940596	0.1640224666460783	0.03869835917356224	-0.04657078637086341	0.019254707491744516	0.04035453510167562	0.012889808363934642	-0.049195081861534345	0.12059435259544204	-0.04266634619742402	-0.010795844595671407	-0.09213305336565535	0.09810597350278183	0.21961740923059792	0.12858047805051948
-0.06078094059446501	-0.06972452679500726	-0.15651624940318498	0.03989202125752848	0.04948942945115768	-0.06339712732302229	-0.04564082200731387	-0.1726921132984784	0.018086554714433163	-0.05157960539835661	-0.06888979660966801	0.2587592345048415	0.03247431072304467	0.009513637003958783	0.040105679364142714	-0.052545005476422366	0.09722496269446643	-0.029120981962533554	-0.09771306483861382	0.18544609393666292	-0.06602410539954212	0.21574160365521045	0.09417379779482007	0.0679067526419557	-0.12938698148857727	0.14017558668852698	0.28232216919498626	-0.10174663041869449	-0.006906330674980882	-0.15202134549205593	-0.0029695748635511464	-0.017555606391550134	0.1451982816519883	-0.13199066123931613	0.07273675965245328	0.13571660154239987	-0.09161500011956113	0.001110229128428094	-0.053381411018399307	0.01921798806747293	0.18927239195768636	-0.08205014587786796	0.018332325927579864	-0.09417998810414657	0.08163557146032423	0.03684133276766216	0.07226382179621553	-0.0419369470939373	-0.11394838439438913	-0.18883499297896975
0.0023039936833374997	0.055245761606261046	0.03947829172121554	0.07219389983027542	-0.054461819064724894	-0.009112005791631742	-0.2363184924183335	-0.010864310221489655	0.17729291754705853	0.021470749752092105	0.20237055980200142	0.041904064936635274	0.10050391579615103	0.06904116597867434	0.08500156497425931	0.03282875486001165	0.08636087776323834	-0.053876885913623655	0.13581905110224607	0.1550525421166111	0.03620679635422078	-0.04045897654704406	-0.12002358344029973	0.038393429606248905	0.0037035723764770783	-0.06381789444219538	-0.10154213768358603	-0.10619859433886229	0.01114765768666728	0.04663820815616233	0.05474743482226055	0.3208127376913739	0.07385123935893977	0.11223386308017318	0.00810435710430412	-0.14040767732680445	-0.0421888383484023	0.17895672221414205	-0.0772046507188022	0.008236372343922181	0.004916364636736196	0.1490366728476638	0.053704833016372924	0.060201924804841524	-0.014129756004415963	-0.2235495574200688	-0.0385852480106928	-0.004950555607249154	0.017298935510724523	-0.06950569346867337
-0.12110277421359315	0.08982041670487893	-0.0315903758553787	-0.0018780879937850077	-0.1630684842258016	0.011090976108647533	0.0660349646239645	0.0675465800083572	0.004944327248584871	-0.06064997486188675	-0.016641020459858127	0.04371153987360219	-0.007473093597699697	0.0684448773996141	0.16780170703181357	0.010067784326441486	0.1296309959638686	0.028429294558487424	-0.06797031248658868	0.021689992714148898	0.09721712845716828	0.13637901027730334	-0.03557456096384575	-0.19526713179700736	0.156259232454194	-0.027700413279814085	-0.210412411744142	-0.033746503098870236	0.12213157438848782	-0.10464406580356707	-0.12878272230068055	-0.023664714499784373	0.02453968584361424	-0.0406585253441383	-0.010352748260406585	0.13148991314854086	0.001759876976710686	-0.14920369385968496	0.14521057816495367	-0.015168027089859528	-0.09787288435578884	-0.02337900351865752	-0.12307012615897099	-0.004416942866919768	0.01967004977185534	-0.05448626826599718	-0.02901182226579953	-0.048623097709765944	0.07443922942278916	-0.01877277475340674
-0.06594153655177518	0.005870192224905929	-0.02795942240135514	0.011856065479857267	-0.07830452972145178	0.07372691057714083	-0.007154074242253328	-0.03216924472649297	0.01711882868879215	0.21588543279396033	0.09372004578806463	-0.054753493206068996	-0.10975261055540915	0.048561307403012774	-0.04324795221458441	-0.02287808469292779	-0.009097631849682226	0.030418829107171325	0.010199227382992445	-0.043708626861484544	-0.20348684647629856	0.02840922815562913	0.05393650124214006	-0.09478000402921906	0.04954402605422117	0.027046663921202568	0.06526401721625853	0.017373418120150756	0.0651288982144931	0.062230685322697654	-0.13946844395518637	0.13081490065276358	0.06206200596211215	-0.07486251840841568	-0.23405293188530102	-0.10574225647109312	0.1245528743883149	-0.01283327341030383	0.08985782456265808	0.20793562450284633	-0.12338288283755873	-0.13290721831359265	-0.0009391823257830118	0.027073388993440396	0.12168796918085158	-0.09217926313010788	-0.07275669752047842	0.12872256093147538	0.044990454821987366	0.010721534941687564
-0.04451742046430765	0.1318234175889358	0.106148961316469	-0.0037774834424096474	-0.16655632010301352	0.09386682776738767	0.05328464180429546	0.010184578404174829	0.11789973516168646	0.04452334951005122	-0.029933384403449587	0.10075585841643568	0.022274341207519914	0.09276948672547024	0.014835687506746704	0.05605982682951754	0.14739827711748374	0.14004103619464797	-0.052997925212739674	0.09435130725426434	-0.06075358294613786	0.0793346091580464	-0.013092526639932973	-0.1508394898254682	0.02870418770139046	0.10497935202190709	0.061171269735595356	-0.0862380654510807	0.02571091432702715	-0.01345422958670619	0.07983114390170007	0.10349126708931067	-0.1295594267329462	0.009584195549034258	-0.08990220158629013	0.019715854464102234	-0.13866571105010195	-0.006160063367789448	0.028688301670002532	-0.22866170177968306	-0.02685735037715133	-0.14903051996685307	0.08302404573946406	-0.19445775170319418	-0.03474504115743911	0.13150916744071944	-0.10436973360048526	-0.07302132137866617	-0.007460981852290369	0.005076419328225129
-0.2338505433155339	-0.026154011115512396	0.06929115355432586	0.21473125624661704	-0.0773972006049451	-0.029379239402173553	0.04101952929701902	-0.081076564207535	0.1479976121642316	-0.003116005599462746	0.022761169389390545	0.05338008845363158	-0.17021652037993457	0.02689678218247678	-0.0625264581925621	-0.08708332016553677	0.04580719723895151	0.11314919584272926	0.001640299502550209	0.15341298632801562	-0.024733298634038416	-0.17409438734232927	-0.11647745877515506	0.1525548263164455	0.17868567125705845	0.03598464636357728	-0.060205005233942	-0.030674246304626316	-0.003949513521839267	0.0022606887425844907	0.05631827319269754	0.034324339301812105	-0.11866593296192474	-0.1126243918926229	0.05420010973272474	-0.0407059812902499	-0.008073069426373383	0.0016819057612969686	-0.052255463857406814	0.013194955856910601	0.06894026679260626	-0.015765764992657017	0.13717824145861762	0.1562650943289087	-0.081561128788841	0.04087281323634721	-0.02475544817644179	-0.0795655730211402	-0.0037113659936271292	-0.2154823322936316
0.08163308005512047	0.09923567084224492	0.02337962066382928	0.08740973336848142	-0.07448336496146701	-0.28120786640944273	-0.056490963838216474	-0.09160650813969011	0.02426802702297326	0.13430346550371952	0.026251771487471303	-0.020640365548511928	0.12509324298420113	0.16337598692982686	0.03209579092475652	-0.06608394629685144	0.0064768562970146815	0.009374197150707947	-0.01556104046807787	0.15508462483702656	0.07025289912020825	-0.14678354083491602	-0.12350351115706912	-0.05341704350062875	-0.10204309973995976	-0.03457761018201775	-0.004291117306478966	-0.01919449551856291	0.0165547250979771	-0.03286820043440987	-0.12791735971571044	-0.09695614030749057	-0.10602097626425808	-0.08666248615609934	0.0824608630852008	-0.05496755670828452	-0.09292553687735276	-0.009203151128576769	0.05774467383581519	0.02852041932911485	0.24461545479795485	-0.06320128561505246	0.0337040622264861	0.09914853629151142	0.1773620629753395	-0.025196058786048425	-0.1812063990552284	-0.017855026607866628	0.03999278797714869	0.27254135896043724
-0.1310787234534599	-0.007200152667970871	-0.06827316757296498	0.09003785693749168	-0.04609525070504936	-0.15036422359343868	-0.1869076042570685	0.014283888481263593	0.009208894534883088	0.06516962834191149	0.010693081799758891	0.05167254545636404	0.0691754933878513	-0.0827894063218494	-0.009948291395410059	0.05051741298177447	-0.10750827144475329	-0.14214517345304828	0.043543383399190914	-0.003655898694025129	0.13145278107382619	0.06932530494409389	-0.02931834819635358	-0.13526995183539214	0.12924767888634256	0.05913531546289592	0.1496650460187887	0.09689900101786188	-0.14098545966166096	0.021603561098747753	0.11460142333164519	0.012307598503248668	-0.025747374534714294	-0.01847563431300851	-0.09532683997989935	0.006582119160195236	-0.12527985425297183	-0.1830813391962722	-0.05270670234507985	-0.05338140737821164	0.2164946417740796	0.13516117492713506	-0.02456841492173329	-0.00726340129404222	0.1263195451601529	-0.0018342082498576493	-0.013870439924243088	-0.00539520904398438	-0.011770362839581562	-0.11807924208705638
0.1162058217650137	5.426803089814901e-05	0.12660801932273613	0.15303107258688914	0.0410367229710583	0.13052372482884614	-0.017901338953736984	-0.040661067298226314	-0.05948627257865518	0.001267461776107835	0.0548223981003309	0.028061747017875813	0.19270752656896326	0.0684000156869399	-0.08385377075360281	0.014940061543196185	0.13535410764644312	-0.04071494778424969	-0.06073236010170972	0.15272670668510635	0.07394755903203169	-0.03132643613989227	-0.05129335238152288	-0.028803126071499027	0.011158419412609057	0.10677584767733597	0.08727131607535223	0.01537840616189367	-0.12991695284025068	0.1837385787390484	0.12933554997670432	0.09716693684115849	0.13332417149600467	0.05954885455117275	0.03779008215106871	-0.10292531125098818	-0.07776243831710894	-0.0389659397542898	0.05921117618716993	0.16498640954631957	0.1344746630518204	-0.02539613901573472	-0.0065653347016070155	-0.14563123471889597	0.16236527253296076	-0.144994927687128	-0.006958551878046254	0.1854274743492559	0.04823862108677424	0.09408849075602024
0.050567426389783385	-0.16943738846449727	0.045686247011946256	0.08376545199157086	-0.02829010955856767	0.09659802993021502	-0.0313847349873088	0.14630396040569252	0.008228860521652892	0.06902553031137226	0.04262035387370269	0.07064581248199248	0.006131532698200889	0.07431129952717112	0.10536312213001761	-0.12245727140664549	0.09362912674371485	-0.02244971971300424	-0.03952085554798151	-0.07187645157421248	-0.019543390975926955	0.20275903216069346	-0.14181072092416824	-0.2725656267750724	-0.05345181974256651	0.009001138985032258	-0.11842493858683971	-0.10071695469687411	0.11528747549502624	0.03479826292351759	0.26838367973165783	-0.07831373458378119	0.03693067414541648	0.06706093936784663	-0.04430263722417046	-0.09140786163064438	-0.00887774475668333	0.05299559097908712	-0.06462349466753764	-0.020790051040310974	-0.019475961721628302	-0.0628857443329573	0.13554093786105095	0.01028191446875726	-0.07349435322903124	0.08464738617098827	0.01811639468604466	0.1788696402997247	-0.08732773238643166	0.11141897718781511
-0.006278141079818588	0.1518231303263445	0.09735672201397474	0.047080318622523314	0.04802044152596659	0.028288020996737398	0.12452080657387227	-0.05243853577198943	0.014180077834586562	0.06924662817795103	-0.08395759161062745	-0.10534041557978742	0.08977894998464216	-0.1337341365507255	0.14584288872182727	-0.03460249608232052	-0.13841715118121722	0.13862213847311577	-0.1702561841461655	0.10839447190818745	0.3107808002938721	0.2150033201003593	-0.029503920148049784	0.15350049106847158	0.12124441744832141	-0.08934776422516749	-0.09935059568329571	0.020106976787211083	0.08224664904447666	0.13797197753854468	0.08895781050757663	0.022584118738027514	-0.04275960116809795	0.1118873465566416	0.10130785089966382	0.061837964705669116	-0.01873340672086911	-0.05003114737631301	-0.1481534433641988	-0.06778847256632572	0.13735680859457264	-0.015776202039599105	-0.04524842181465659	-0.011654578198113065	-0.04949320099033738	0.046029321580915404	-0.037189725813186456	0.01829543838255012	-0.19930985516651953	-0.07701781617700236
0.03354855654542297	-0.01376918090629288	0.05834489813439725	0.02466375935500831	0.1439557290503826	-0.288788434196003	-0.010610869092836707	0.06511210599434254	0.013800410940474966	-0.02308507314802724	-0.04264961570592595	-0.06698341706146967	-0.04289135731435154	-0.09387796618655929	-0.02470155445084114	-0.08336212653891761	0.10559865996823065	-0.09303826041039152	0.15139470454297638	0.09591509599421151	0.1168957680971608	-0.0013520163402724356	-0.11389198048337325	-0.1700428131633864	0.08971391630305127	-0.006214142389906965	-0.05196998768296221	0.06603464759405991	0.27059739617118794	-0.002250897589769002	0.11248316924998261	-0.01580044218324839	0.09407933013062027	0.014973423903809551	0.09797263206463173	0.06146660252177466	-0.06413351334816711	-0.13852462100201554	-0.2211561752967913	0.041546236531130626	0.1346679179629736	0.0578034751598917	0.13699969700067094	0.16695964413400932	0.045490365415716875	-0.2230163446430741	-0.11426821345359311	-0.06700314390696867	-0.13843691153837767	-0.16300165689890375
0.011277584237172542	-0.10087117654435342	-0.07830749287610175	0.06680361930250678	-0.1027699321767209	0.03281007357266579	-0.0215713417746194	0.14900922976345304	-0.04760067164517046	-0.14266405825708972	-0.03166391372001931	0.20629862623205963	0.1621356459666117	0.19413225295671455	0.06928100700604789	0.0180941446255972	-0.05715672149157135	0.059102759303031285	-0.12521476792495115	0.005349720450388927	0.06895148878892106	-0.06680580179561793	0.040978391496733164	-0.05318673711752949	-0.2924411326071418	0.10057307256754525	0.06968768757637482	-0.06828184641972594	-0.019148223631362208	0.28912400603978217	0.08937902488286796	-0.06001419956117884	0.050278927727022873	0.054001585869568394	-0.013633039065111936	-0.004538529879184101	-0.17414986806341717	-0.01712223501301275	-0.10722974343908043	-0.11289295158160788	-0.05216837430726468	0.0749413198809992	-0.18807424993965882	-0.05605168815917619	-0.1237758277775359	0.21382176395666286	-0.14272581804960469	0.027136603931847414	-0.11340687259959402	0.0674029851563878
-0.23278243996205797	0.15626656866172642	0.24436201067619523	0.14790364138997453	0.02068006303846591	-0.0047213669620228245	-0.07856526194272873	-0.11800583080312432	-0.05341599591498626	0.0872366478899412	-0.044190457468175785	-0.023014517096466992	0.04013570619176561	0.1357600786093941	0.24080693639456904	-0.16274515870825063	0.23818193730925505	0.18988802214416117	0.12111712537540156	0.007823860174253756	-0.02157363500015814	0.10739082631319911	-0.03831496725844448	-0.19631584292866566	-0.021083918979617786	-0.06409178347622485	0.16022608631410412	-0.14118039355530368	0.22268659692304793	0.0004920447775453284	-0.17472373050034493	0.006191711363999957	0.062071144663358446	0.1694288593163833	-0.02803054194227886	0.07358634298863422	0.007885627976182941	-0.12285670804574042	0.015556476208750109	0.006761829202454532	-0.07710383971772475	-0.19541832932187103	-0.030625754121642097	0.03966173428182008	0.17458899505324232	-0.017951878540734184	0.008880932371927571	-0.023114158194307937	0.03544995066958946	-0.05268753707203968
0.08470825253689988	-0.22505504133803403	0.05477308547352499	-0.04726804734352118	0.0036262909603069857	-0.16927663185683706	0.009089999966605639	0.054265068487261404	0.1319018801242948	0.011154466715578583	0.02913907579999579	0.09725126882614867	-0.08672400723873093	0.12335157276650711	-0.16215485257454362	0.08021533095728682	-0.1058858000068689	-0.1177210699214339	-0.07875946607043101	0.07449028267900079	-0.11957865930613201	0.08574282529204029	0.008628498503583906	-0.11579743622961003	-0.0444942440988008	0.06771618411886371	0.14088325310834857	0.07359810454503578	0.09135900007194304	-0.04476983057263154	-0.021649867637303706	-0.02053925203314052	0.1437374625863519	-0.08647960575095019	0.010488039761754693	0.06753217436350704	-0.022950928542039995	0.13097962526770746	0.022483107412885953	0.025239058169647374	0.02245787584209197	0.11122895404859366	-0.05058799336524734	-0.06539233147168555	0.043874398929240103	0.0621286930713398	0.06566514077539734	-0.19992571529471223	-0.0016204867206340181	-0.00056588338303188
0.0784547997344907	-0.10424224612661452	0.06312768593817755	-0.07671941209692693	-0.02551945187157025	0.15336802726916732	0.014472876959257577	0.06809866148416052	0.07098091973910114	0.052885723696009024	-0.26091027000799744	0.0805200740045289	0.15109292016240633	0.008211013645524377	-0.15930159360211923	-0.07180659793795846	-0.12261157874123639	-0.005865319598468177	0.015699750757604346	0.11826449415034003	0.14499029645540068	0.2465478183522168	-0.0564636294050203	0.00033111965144762723	-0.005898540599486187	-0.05249030110885013	0.013103820669214132	0.07005333572995931	0.22984185743127972	0.09906311144822011	-0.09290180806258268	-0.13281519959600013	-0.0777610593466184	0.05624646093388879	0.03963475872006225	-0.17351928025808736	-0.08690455224733806	0.1073662581430934	0.18279700919975744	-0.2169222840186683	0.022964047675354128	0.09504711039608399	-0.028095620655057975	0.0946155174267535	0.20348734857904902	0.10438778448915187	0.039569148088773126	-0.08525118601538598	0.17611241118376195	-0.07305800223242473
0.054925521245544486	-0.060692965127931056	-0.10258694491807678	0.13464293354402773	0.13868610739796686	-0.10734776340914588	0.048321848989529584	-0.011874977980078524	-0.11630550158398396	-0.08918086608607208	-0.038447982651502656	0.02481414296854205	0.20044888545717393	0.10427767291979173	0.026612826774385853	-0.011098730337756681	-0.1620638571188257	-0.06294774134262782	0.11650158644829914	0.097622364432307	-0.12632702928923448	-0.030345249920569063	-0.1326855799616796	0.06993287259486736	0.03952919788403381	-0.14185189664516087	0.06094199423565229	0.08755863796444578	0.07554334175604681	-0.020915214055735494	0.056901280889105225	0.09622785866278578	-0.2138151978715662	0.061957276673708546	-0.1856693262848923	-0.049643146483048795	-0.023545802038122066	0.05769925654703677	-0.008831368629600845	0.0702119211105121	-0.04997439622845084	0.06784126407923878	0.04954109626550151	0.02307624820208921	-0.03462354616535892	-0.020994797541050943	-0.004362233450507138	-0.07416890738305135	-0.006604297115958799	0.030101145217902647
0.00030653530635464345	-0.10492174542770209	-0.02655045538422835	0.006563220631459564	-0.04389146776438709	0.017739601696409535	-0.04379648866858663	0.016324860645463964	0.06785936419832841	-0.030364129026874312	0.04172168389648758	0.12173373332299205	-0.008876233679971368	0.06234079048435275	-0.057479387977123854	0.025121538776145855	-0.02818700523557844	-0.17720029392665593	0.15288936485144167	-0.03414406649187618	0.04488941041764145	-0.02768946759919157	-0.10695380061288443	0.1256898118499261	0.06305472570229269	-0.08796235821874468	0.08988530888055192	0.16104757893099417	0.02757105046913446	0.09581232288015575	0.14037551058186248	-0.07803162570160865	0.0606431679225494	-0.13508924892057345	-0.015796062036364293	-0.054798557970548376	-0.04587832979871109	-0.08176703856852559	-0.08467267722148375	-0.11196811492545078	-0.1666129555470034	-0.047647169679782435	-0.1416785056699495	-0.076884642453193	-0.0823116278306586	-0.14478917627334317	0.028499505020916825	0.005436641280767963	0.024420794063734756	-0.0016861701564368677
0.056881290186763966	-0.019007754322537967	0.15744451809215104	-0.1414420703811184	-0.1388383232014446	-0.1993777003123854	-0.1912460508248136	-0.04769289615238707	-0.017529343256523004	0.09480438537370443	-0.034987524956148715	0.15100046435245418	0.028068562646558916	0.04460614743463501	0.107487379899577	-0.03926160046943061	0.13344590825120198	0.024411116903589988	0.1660822088495509	0.10459335482381699	0.061563456143013666	-0.027007804435687767	-0.0070270500532998	0.03422254799138077	-0.09282286230315392	-0.23899697777224313	-0.04914069705072913	-0.03319393958072513	0.06551521565220281	0.12986156861163586	-0.0097773681618943	-0.11958706539013822	-0.0026473968591792796	0.034695185323359315	-0.010001982969641799	-0.0768865932610905	0.19799483617373434	0.07876702551230688	0.06892035483055062	-0.17954643429153336	-0.1226884243569038	-0.16790977471629892	-0.02869990859766843	0.11851563794079388	-0.028913022088320906	-0.03215134572575597	-0.1657115107129832	0.03131844073629346	-0.04869741515439292	0.1096831530244637
-0.08309987745014297	-0.01561015887569639	-0.05921799584139896	-0.028995038034358142	0.06971413451214155	-0.11425674020330333	-0.019707013451928605	-0.005128970037291323	0.0616030663968959	-0.036870491658403504	0.10319778328052004	-0.20706089691231394	0.04633297388517935	0.0023229814033539557	0.1019566412181248	-0.10330347864357349	0.17257085906822617	0.1355683923756631	-0.040689413605168694	0.04931380703723475	-0.10779550429602831	0.05894886621698765	-0.08290834129012097	0.030874160883436624	-0.09849703522513795	0.11810635218722138	0.059300948264735934	0.19812891949490566	0.017254932270231237	-0.14302009662993068	0.023385223084232784	0.2546153423147259	-0.023240443864963583	0.04967401001535042	0.06329069840731108	-0.12042092931111238	0.025869245159114363	0.07041145152501119	0.07162677694137695	-0.03942153163971252	-0.09339072020937299	-0.07726720981843942	-0.022005119707601373	0.009398208757721937	-0.1324618603723084	0.10508512750393247	0.08927685967384051	0.24609947766394125	0.0299261017591521	-0.016798149725553973
-0.14666266388590804	-0.15149215915328687	-0.10387122464051522	-0.14631701242622439	-0.05042732142826318	-0.05663029451322705	0.10658470557497433	0.09287299992672335	0.11132261954542919	-0.17525562494209443	0.003856528442039297	-0.1415568552191472	0.07989296835725423	-0.10423328011926081	-0.11517928344952433	-0.043815842637374966	-0.12682209052918003	0.05943703225550465	-0.028895107686966463	0.021557188472483266	-0.0984153875218858	-0.05756642498751674	-0.09097194849461683	-0.03761588259254808	0.04881635595121647	0.007696918601797695	0.12537789925518844	-0.13882193914621435	0.009560478777241897	-0.0577291711591478	0.029398098393884405	0.012259861809226537	-0.10039244993571261	0.03253477546822581	0.03901399924352261	0.1371396782203443	-0.1444124154347033	-0.06045494897005892	0.17888451438372868	0.026107652624140398	-0.09745806251382542	-0.05610153487965194	-0.1980019667271885	0.056931040722847735	-0.0528286488925739	0.006021889560397838	0.0024500990306342875	-0.010142225711042922	-0.2557921127418359	-0.04415366967806341
-0.2708820672382198	0.16881336367030192	-0.02993160680386773	-0.0348044366361615	-0.21272504475633996	0.08687450867147699	0.0508891282747405	-0.013619276557152796	-0.018954262443452635	-0.09027278396847953	-0.08907237892696074	0.0904886375412941	-0.03247639682141031	0.06612144009238977	-0.036147979411287647	-0.019299834679925246	0.23945786141556252	0.14857692888683802	0.06933334098510593	0.0008196529473571216	0.11298344234206506	-0.17056159275671173	-0.0010556312569612461	-0.07508205599043566	0.05562622064611583	0.10669469694861426	0.09785206285565953	-0.012634626685831655	-0.03030004970985113	0.1456821769318196	0.11074933679997565	-0.14275282874723744	-0.014545979904079841	-0.2328195795539324	0.07995267915419123	-0.06882154925792631	0.04156350725594015	-0.13470044955505736	-0.031254805454782944	-0.04782375090912477	-0.08213524741350861	0.13799106354732307	-0.07529561717674112	0.10725726098359635	0.13795615012472798	-0.05322242286067485	0.17579964020954125	0.13801592750709926	0.23636648256834092	0.23683715816974446
0.01342332640677172	0.10887303699539307	-0.022876606460517687	0.14077339787649315	-0.11080354358296089	-0.04408922365166287	-0.0602722084835883	-0.03983220496175261	-0.04094975948361787	-0.003338231234620828	0.06372376309919771	0.010418605483974282	0.07133233946080679	-0.1059679839262162	-0.0892167940498601	-0.044141716560669036	-0.009226372356410703	0.14085224671042576	0.0037637354898719558	-0.0670899993357496	0.057809260479819734	0.0005010590680428425	-0.021657448771249335	0.13770795237512243	0.07920740691638249	-0.00025515070923491927	-0.02780062817522066	-0.0321564160762329	-0.14779546429046583	-0.00974877811227018	0.01558487101239013	-0.1323540316736861	-0.11513141249247574	0.23237356919664373	0.1613554993886224	-0.09466802226269057	-0.07359974462397668	0.05435832712704523	-0.04001277594385648	0.011381698816731265	-0.006631020250061287	-0.040143923334873086	-0.14964864534703576	-0.08605112466568476	-0.03484090002499082	-0.06382882726135077	-0.12510850721323624	0.19455335574944957	0.05353933653748887	0.0007591391644469394
0.0487151447623814	-0.010797522115554278	0.23734791794886448	0.3418125638504177	0.16386855637957937	0.12128156736279401	-0.033948962722106346	-0.18547127719370274	0.12791782698565593	-0.05271060363565459	-0.007795274827854209	0.022045790454209565	0.02059509309025846	0.07785842081364817	-0.05062370929183219	-0.01674360353160299	0.005385880326427983	0.11136188943512068	-0.007288901229642191	-0.006903329731822377	0.04026789885830469	-0.02132361880984415	-0.006932238759474786	-0.10645536497056629	-0.13205815379479896	-0.04275340432800975	0.04731157243081259	-0.0912844769132099	0.014732681002262658	0.1456732312632553	-0.19910543796355057	-0.09449635308723972	-0.12937525686659176	-0.15082109419182596	-0.2516207888971039	0.06218449900991059	-0.0897538215697049	0.019327742363387017	0.060927896073301784	-0.09621302131087812	0.0814003396167827	0.12762467186998752	-0.058582388243317914	-0.20220876860346762	-0.14564754525020168	0.24539151812313884	-0.011079245900521457	0.11261644306927943	0.003500110596843586	-0.15963035407609752
0.04940002410779739	-0.06140785120539087	0.19668684591290458	-0.07424138012938035	0.17149165285652754	0.16997762524263288	-0.1460417208026364	0.06714939814572551	-0.035338664464739336	0.11747356201092674	0.040026022056815956	0.01683268875738178	-0.04168312244673952	0.05820400072349644	-0.1387608185972588	0.09453613561530384	0.08142405638518962	0.04947429118123415	-0.09493308340015459	-0.09720667622914651	-0.06506458026748568	-0.08989244912512934	0.030449995969619396	-0.05134567166102808	-0.03476600419559808	-0.047664095784949546	-0.11832800134381964	-0.05415416129115724	0.1120946749821142	0.08349081166793179	0.04737265547292153	0.14957121222375885	-0.053732308729846266	-0.03139537499480523	0.10131907385587807	-0.0014022159021213083	-0.09156403319791061	-0.11893392177571765	-0.09230656002979674	0.1277562635539926	0.021246055373087006	0.02985440362945773	0.005070479353332576	-0.0700777126017925	-0.2651721605893884	-0.1645483862145958	0.12415950453495105	0.0751732860252887	0.1608498277587664	0.026829182179292924
0.09662667225854138	-0.12438098667581811	-0.15881525995617837	0.1021089175130059	0.02903263457510462	-0.0018008142922819068	-0.05735096317520621	0.2040965666022999	-0.06065216278509576	0.15085342587204836	0.009746407503303129	-0.19126459164934695	0.05017625334209314	-0.003626875324545363	-0.04089350010557935	0.010196311952849984	-0.2432182030814721	0.010192607342518258	0.003890310916157148	0.1911619618884819	0.2316187378271739	-0.027377557904109638	0.10458486354208753	0.13440766549875802	0.0030343690339300795	0.03712481738738048	-0.03860300353855668	-0.13319941623305318	0.12220382545850332	-0.12288168852617891	-0.01725233432157159	0.10523600670338931	-0.13985617249212196	-0.03774054584178126	0.1656674831720658	-0.13621927859518648	-0.04353715541162688	-0.12846013596429856	0.1087153857367349	0.19539546741685138	0.12261287446562294	0.04489909098743196	-0.02198333382667289	0.0775398466817042	0.055326776867636464	-0.12385173093709506	-0.099530467661924	-0.1496711058225877	0.024372561975431646	-0.029761839421439527
0.0781672455179779	0.10485095426507467	0.03420490166157786	-0.002231657464143177	0.17015679941221326	-0.1551330207343055	0.04018062924275919	-0.07131826420340753	-0.03954076648982761	-0.011256894252186641	0.14304697114644138	-0.16824260462346724	0.16190667615240842	-0.09777529772222249	-0.23600610310414094	0.04437837259314871	0.08805947173019057	0.2160682439332094	-0.03984607083770182	0.08156079668286119	0.06819170834997239	0.021977253888344574	-0.13868947979408983	0.07168732944959853	0.10417222018800414	-0.07930716497436648	-0.04685676447695375	-0.1750384492238155	0.06223316715194557	-0.14757434477323345	0.1449049304168767	0.08384303952486925	0.06775477315164533	0.08348744326992233	0.049585938286850095	-0.030419503275697354	0.1041443069411677	-0.04376952541799905	0.13033637721515048	0.032516524724412285	-0.0188903726706342	0.03930160891836351	0.11738175452987017	-0.05762358468370154	0.04377104529438594	-0.09841562483758498	-0.03770630387697319	0.10623746652308061	-0.05148671050324297	0.1276252095806025
0.21323328179663806	-0.043847974154098336	-0.05506510315340748	0.07888494245548718	0.023555002910288447	-0.1505836752991188	-0.08105210738879833	0.09686956615914061	0.2517162634552708	0.09574611630844627	0.2751860127336617	0.03955870583223513	-0.2852672621767975	0.2647920194815471	-0.07325258424280467	-0.14387629908378835	0.12646290043662547	0.13546848197991515	0.13793502214377523	0.06517218262293961	-0.18545899017707074	0.040485207013472475	0.15182283686695439	0.04653228573375535	-0.03846148001515884	0.12807629665106438	0.122446407287717	-0.04464210033134009	0.0629036051597784	-0.05346169934703369	0.04423640483475538	-0.0027891957341196188	-0.012763818344595518	-0.10127614746312114	0.0854309046348214	0.07120608050898394	-0.057511651133308306	-0.11149956481843877	0.03202441777093953	-0.01695461451604852	0.10042103415558672	0.12282192787604268	-0.1344133007752458	-0.02796894706117896	0.0279456617748123	-0.031875888096856174	0.16344580817393076	-0.12990741218499258	-0.06846387637212611	0.00034103318085263823
-0.05618914601065619	-0.0047580207450857075	-0.1830029467251374	0.17501267580997432	0.07253620703221157	-0.19437729744540447	0.09258031965141433	-0.019952801172774832	-0.005989262950493401	0.02828487988038697	-0.07409612803467379	0.01036291407289085	-0.12716744441423763	-0.017839898927913916	-0.09981315019452768	0.04522278772072767	0.007949197207010318	-0.013955819781855458	-0.08095673146972464	0.14032295741706652	0.03622817509080711	0.0736324290855054	0.028878673149150085	-0.00803257013526098	0.048832247691713834	-0.05965853715164449	-0.016328028949972147	-0.05493305421020026	0.12320016935588371	-0.04475776526758983	0.020074601598909253	-0.06344359346304862	0.022416933302036778	0.004824411310970735	0.17975542371576475	0.07816650333637062	0.06666381687669344	-0.09741429634679731	-0.027203320153325043	0.041938045890147484	-0.08829862565399094	0.015372413801115804	-0.11811117051084852	-0.22529697240175947	0.015854540243170227	0.10125667329798006	-0.18362123322576723	0.10946745305670835	0.11489329553851871	-0.2057985099296341
-0.013973968229903648	-0.1278072569611054	0.19912614122164193	-0.007646580833833222	-0.1713362123807936	0.0990544142684969	-0.02834906880118121	0.012962954574220076	-0.1079624991402123	0.07696835103106289	0.06784288069656401	0.08273998148602056	-0.047783238337245855	-0.07829574370535002	0.11718163549930322	0.10213155649530485	-0.18567229787834755	0.050392178668266535	0.041214330659078306	-0.005806959139396421	0.07698132044337672	-0.22410228934515955	0.1824717362105918	0.23548446074467505	0.018423126287693697	0.04617664199428616	-0.058057127476757966	0.07044932529212787	-0.0156395389545541	-0.01886458158492737	-0.029302169210946097	-0.09163491752553102	0.13886521339059119	0.16971414025150952	-0.11027255751526775	0.03947444335396494	0.08032154556144439	-0.10487267056993216	-0.038436511676172666	-0.05816085992482298	0.11471169137894871	0.10280066590285762	0.07160768393382166	-0.038208368216389975	0.040164422653212635	0.11661352581300075	0.14550907555286097	-0.09027457046936509	-0.20741590540684687	-0.12256272088148157
-0.0459460994956597	0.03568721500670227	0.05231458818394962	0.018073999267552817	0.048112227272619795	0.06976848407129674	-0.060437027015868394	-0.029222333229666816	0.06996979810240365	0.03512135000645684	-0.14650262329019598	0.0859276973166646	0.013191762847536247	-0.08696514187221438	-0.03228372351738209	-0.023071756350511556	-0.07624462419182976	0.02159484774691485	0.029757820299679237	0.16426729217053207	-0.16067337936051734	-0.0011448687589813667	-0.05535868346591848	-0.03426963300609804	0.19365195008752611	0.11479960591913907	0.13035025808992629	0.025230383286842444	-0.0073696351457177775	-0.1356685926209149	0.17135567264956816	-0.09490700922088988	0.03666348389719013	-0.03485461401561129	-0.018358835630613787	-0.11749510888775633	0.02879497386282708	-0.18395486062979613	-0.2579276672227618	-0.05255211242754221	0.04216475696376723	-0.09556151489499932	-0.2037654442262096	0.17623669275363843	0.20209555550858924	0.06750795859892898	-0.026013862861308707	0.0953985069470262	0.07109606005857712	0.07118315290270939
0.05245531724768313	0.0881054305920272	-0.0351119901652493	0.039976255060575644	0.060102744170806056	0.0772031217726984	0.08254578493710286	-0.0615917768543625	0.05700204838790625	-0.06514915888531266	0.008127810053130713	-0.09387070549340379	-0.021641526950431794	0.09963598045856716	0.09947896601293785	-0.10059782647794874	-0.04887968355180628	0.05728837531593239	0.2407807480463495	0.13062541727397411	-0.06729116535635515	-0.06200707076652774	0.03568312636121904	0.033203942114600656	0.03925457287108402	-0.09503591862677994	-0.025887213632878464	0.019307712656934938	-0.011291886250130183	0.140538399720978	-0.1730036203143471	0.1269614663491887	0.21882653071936178	0.04793357140725228	-0.037041610571615036	0.19525667941753408	-0.03148208095447402	-0.07910714342980377	0.06396256376793583	0.12184251655578004	0.19203820851492268	-0.12958555442326272	0.027235556336820756	-0.006476311590887248	-0.009076928243102049	0.026343710145422347	0.06046584814484838	-0.003940966697201377	-0.08827990642665502	-0.011619895549700356
-0.12267658222533867	-0.1383519067988871	-0.0021924190746144706	0.08293364204348422	-0.001065836866952998	-0.00316020188027498	0.015317472823125516	0.17720609345899266	0.02455716069459609	0.222306422666886	-0.022732110089003235	-0.042626807729334804	0.012686246737450871	-0.2213547015243993	0.04817724165667027	-0.10015172757160729	0.09020459088807505	-0.07927090328611734	-0.06273206476209041	0.028105213255972893	-0.04691956874879927	-0.07951205499710627	-0.006023993625359517	0.1412074534440527	-0.0011329758874479364	0.23458619265392602	0.11143347499207716	-0.03862571278401043	0.0443690276684872	0.07052753271411466	-0.04042953420598305	0.030890991697114237	-0.09712067263713418	0.1348601451561527	0.02578743645705799	0.1273775259882962	-0.050375011399859906	0.19497254128103908	-0.025136145733080324	-0.07944454072933874	-0.2093051581187148	0.016269758992206125	0.08572718810481296	0.08367552288690558	-0.01784239431674418	-0.1024179406091211	0.17682150461220036	-0.03419641997447888	-0.2012677136428622	-0.0027151188720075975
-0.1931354035248294	-0.25326314735345795	-0.04787865506014438	-0.11349373063622978	-0.06821912855817017	0.00862856629143837	-0.11733834470615194	0.08606731191608019	-0.09866694564258623	-0.07267231281872481	0.04486960608099453	0.15874885453616985	-0.03371354001667797	-0.04465677987089132	0.10016597053093214	-0.0048478582544240825	-0.010049475695881396	0.03910292596761737	-0.08212397208510176	0.01144877110922742	0.24288127553072322	0.014543218590219285	0.2154615532105515	-0.15285902021829342	-0.039312529083332465	0.014107264269402718	-0.15495382051752601	-0.03148074283715715	-0.08917363043022464	-0.037545125340067244	0.007060742041654151	0.1635041056728882	0.06427409432012854	0.0864276323000903	0.02352780633603426	-0.12759763041862607	-0.017502180065936672	0.0012206690907193938	0.006962237196957299	-0.023997696835357227	0.04348268928996285	0.14483051566067895	0.13844984512297073	-0.018402010873808262	0.13620240233063027	-0.010066227137877595	0.01001516618112349	0.07318680477894364	0.10145604508058871	0.2366265286544826
-0.13385699835245773	-0.02752903666938781	0.05490286606768186	-0.10190717495362557	-0.163741967451888	0.01098960441486497	-0.09024757831004282	0.06175849856902902	-0.055949132284691866	0.07847307257990468	0.16808840528858185	0.17551513750642392	0.03455609287749973	-0.06280764126304494	0.22350804943305855	0.026376993146390193	0.03551803912327497	0.04585027874968765	-0.07035281137197909	-0.13998124711609522	0.10275360522191639	-0.030317872975867983	0.052532625994102675	-0.0022548751230002735	0.12465207797711333	0.14862656406722366	0.04520294058244419	0.08308506615244511	0.03263242356880753	0.14089765193828416	-0.1346157628171557	0.06195342853715971	-0.0123381332115449	0.10222048684811944	-0.03054423210946382	0.0673419675224332	-0.03508516938742198	-0.28323007796051874	0.1659369497222853	-0.1886275782952662	-0.1087866689020702	0.003464168684377452	0.05731665325257747	0.08431990282593259	0.08147725245876009	0.12074451736620434	0.07446809525064566	-0.2124633303054822	0.020752741995721326	-0.09311668189633716
0.2071839815034434	-0.06336759726409195	0.08117408708169528	-0.16594443980898513	0.0048689355412739835	0.01372939080157419	-0.1578270527545227	-0.014618485249776993	0.075239845331103	0.09935540577676324	0.09814657233830211	0.027208818325802915	0.0658490570259212	-0.12598347656727904	-0.17236849308984184	-0.0017437900420181319	-0.14844703515708765	-0.21926779415112826	-0.05421633041512681	-0.04552681953796048	-0.0880325190036781	0.05235579013986952	0.06019449091273917	0.04220550410282498	-0.008608650541467654	-0.03580314952485063	-0.16227460353813053	-0.012621561113547267	0.08805754130620355	-0.03498325633749975	0.03884766938236209	0.024217949752557835	-0.021336979111277594	-0.05367027998846979	0.030468579251230362	0.01410317173168235	0.05527167584615436	0.21152661222203542	0.03561700461256331	0.049109378337275855	-0.07428490935304001	0.025843034150407895	-0.10792602421958057	-0.14328021940990962	-0.12939024938063778	0.003826993394371455	-0.16502049570116847	0.06764822746143011	0.007631513958402574	-0.1048530758673279
-0.03367939550959802	-0.032506529654517086	0.07529965226270262	-0.07978265899353815	0.12831083341283797	-0.030820324814087585	-0.03628471596487448	-0.20020130123359514	-0.32362604573475606	-0.045154470866562574	-0.16662471278730526	-0.11383629517508431	-0.029048149403853234	0.11189678585013632	-0.02659529820124981	-0.03190997492382064	-0.05879638423120977	0.024378433164262532	0.2384555854571441	0.05118226558584411	-0.11778208104665741	0.02550022578579728	-0.08056078584289947	0.08835175032016894	-0.01187101649255956	0.0407468673963537	0.094379002864978	0.19836975690038372	-0.06843338659031235	-0.2044286190715767	-0.16858047033962503	-0.03977745814101203	0.050281351550138034	-0.01970215735238357	-0.0015822296231877003	-0.13100202115017948	0.018835147139074207	0.028447503523088453	-0.1971175399851846	0.198330377165944	0.07984255029170995	0.026887636653708902	0.21710492944848056	-0.05125799590094041	0.029898491176702312	-0.1518874361057392	0.17250770594160308	0.06786380126626643	-0.07005698720514625	-0.061085180827941885
0.13926073118796997	0.15857332381378242	-0.05603138053611714	0.12542495665356795	-0.0991864578032901	0.08913423969369737	0.005387853518724114	-0.14860208781159143	-0.03621359585173306	0.08460858728424661	0.045718031010698136	-0.13575877499787992	-0.10910837317130549	-0.1601373426002974	-0.034139849213759225	0.01771351590051596	0.0958811629625538	-0.1981456109812601	-0.03014912169865991	-0.15492522819498905	0.045712239237666714	0.23168126738883296	-0.1339120817094466	0.0014272497952507834	-0.32279094711710815	0.07583930128848748	-0.06539460992571786	0.10939245293179402	0.03223986885383562	0.07287944574028823	0.2569927966832282	0.06252309844698618	0.09099013639306917	0.13154829815238697	0.053912924163929864	-0.047044215934516326	-0.2539598024063932	-0.06330566722567467	0.09086565954719107	-0.03970205000333815	-0.03169873269502116	0.001098674410113988	-0.04496776725906173	0.05369654025868403	0.052345589263633335	-0.009645684621310923	0.05211201893057862	0.036781147402956585	0.02257767678195647	-0.005554615986902299
-0.017335100973369866	-0.04398815963902129	-0.014101224118135365	0.059737530682705736	-0.0363499296360284	0.013230379219402202	0.10606867395814437	0.10720831236996424	-0.09672647384019493	0.255080995545415	0.07027508319615206	-0.05995039464567045	-0.1855654467716175	0.09888708292536019	0.06252852569231444	-0.09297054031001957	0.03953789284797727	-0.1482677544700449	-0.16516193565775047	-0.044945474192947546	-0.011699849022757272	0.17738132828612593	-0.0023413187270200997	-0.045618775623926355	-0.057005660261955096	0.039674697861889034	-0.26595668910660686	0.009420604532323256	0.19738278919954994	0.08648369534634846	0.229250577037183	-0.0702047810230888	0.055683574994004045	0.007404790793003207	0.13157665074914518	0.0021528072685642807	0.10723240185145749	-0.09807521491771037	-0.011102036858039063	-0.029738269909561153	0.1168989143301173	-0.07859685957416154	-0.039404466339902175	-0.019897264192813124	-0.21652023962281877	-0.027845365371032015	0.02154313291682755	0.1628954788185335	-0.02978350256914652	0.006349970561593667
-0.05668293709273184	-0.048867249103099086	-0.03052054994717243	-0.010383379162405363	0.03228861768729493	0.060270976839377155	-0.03929037957625817	0.02141008303010556	-0.04510131117335473	-0.07395727559899708	0.12038408211766097	0.0008294231242422687	-0.05639227275685288	0.025943636113968736	0.10868546464851848	-0.057110348080087484	0.03558360529468396	0.05518051404557379	0.017486066540730393	1.76071961709514e-05	0.1812725883093004	-0.034084083540423846	-0.006139583729477007	-0.04166831634184434	0.03803932541905597	-0.15926080068739817	0.10913630934082784	-0.1315868977443571	0.04292114704608355	-0.05860917755534206	0.1611940478340685	0.02918995640286028	-0.2374610222589947	-0.023144291461569832	0.04369558421057108	-0.029783754812585425	-0.10198024202795136	-0.263630239321262	0.19411901883855065	0.26602025859433714	-0.1041670830650531	0.024590135753580485	-0.047075082683767436	0.10024552427526474	-0.02860197512862275	-0.030696007676605304	-0.13263987459977636	-0.07549634334211008	0.08790868643029384	0.0593559016042721
-0.01318064040508425	0.13689946764940872	-0.12658192517342012	-0.11412026975272399	-0.017036335376378064	0.09903113662784382	0.1636469852593394	-0.2384384482221576	-0.06512753817464499	0.126523447512506	-0.1347719723240628	-0.21770331063870765	-0.029046152876100007	0.11703443995675453	0.019877322227326466	0.12402026235985411	0.1683441110655521	0.12186229127471049	0.1450322763801277	-0.157853496720118	-0.05408057862661905	-0.09472236636821087	-0.03835405946292234	0.09884474883935458	0.08255564103607764	-0.02279559248057411	0.12465578549132494	-0.13355539849575962	0.22910297154202905	0.07721072099463389	0.1570023213222052	-0.041233471553316275	-0.07966385629944336	0.14550922745832628	0.015421511894122	-0.054823514878255084	0.009472099917918069	-0.031915993408033604	0.031008090981891247	0.12826201538469917	0.004039903389465194	-0.20894626668942365	-0.08174454601599973	-0.02967869680175212	-0.013674009741598492	-0.1999059196306939	-0.04671130026297379	-0.00781357519629342	-0.07227552242968957	-0.0032464221557002705
0.12442331264628131	-0.05029728109050805	-0.17452536419695955	0.2234022474295091	-0.057387202681511935	-0.02272496144292561	0.004860843679091965	-0.13715936506269774	0.02635963808885451	-0.04355710220383672	0.023540628877561944	0.0563643399996007	0.11800642793807975	0.1779482513272759	-0.02724862076730411	-0.05629841948127187	-0.11365753211248675	0.0643973582828544	0.010243720491273775	-0.004659185608909319	-0.1255308230576951	-0.07650777011134982	0.05760424211427145	0.09240598848542475	0.023845594471373775	0.00881518754665801	0.13056623206269508	0.08572470059253479	0.08235376778665007	-0.07812348751837958	0.21678710792869804	0.1556439539769482	0.03553368541030966	-0.06199776240271475	-0.09296538777972209	0.05352670692539627	0.026830902382347616	-0.023881268019022944	-0.11319032978541901	0.03681724743601485	-0.01584018733915519	-0.15525553527359637	0.001203398951001551	0.09351490770871626	0.034559942278147196	-0.032150449491224385	0.17679034330744997	-0.0652142045311913	0.03749786695193854	-0.05190934790900277
0.007895065384627	-0.042358453961718855	0.12720235469627944	0.031424667190809205	0.02462720060959508	-0.037546562769290005	-0.015355161108510757	0.07116019297293183	0.07289199997938914	0.025084332430020114	0.07295028691197056	0.13840947593855402	0.057494774796179746	-0.18455897851780273	0.023308266030515567	0.19988105895860755	0.09732298239748216	0.0003726807502076178	0.0741987437299178	-0.02941888295161634	0.05571543490871665	0.07458892575786097	0.1491736015083556	-0.1603091686196365	-0.11479612042015147	-0.03967250940295444	0.07231629597523329	0.1002189936990265	0.010138339721527351	-0.19202068056204713	0.1271858934027454	0.04010433941239522	0.04420766313512171	-0.2342337054632247	0.1459815163521851	-0.017555444160412888	0.1215267346733525	0.08008437461866424	-0.06362690117424269	0.041081442802069996	0.11025221111972895	-0.17245187792712008	0.09863220881365242	-0.13077186360534138	-0.08728747594669121	-0.11367272090305537	0.22811387492034593	0.0198165481636258	-0.19503558607772695	-0.07158874521865805
-0.06079670317427294	0.017742488502410832	-0.07366813827577522	-0.13782452248665716	0.14497403947118917	0.004005091032983438	-0.024252174155104677	0.1757203017810919	0.20428190016084677	-0.007007712759681473	-0.11757048095064024	0.0034215604396114125	0.24108824026977937	-0.08487903450170305	-0.10497607395616682	0.022940572741851843	-0.019710182082978377	0.03341125256877287	0.03032666550556781	0.01976551875529519	-0.05049233857040067	-0.056622043040189626	-0.10170009965559776	-0.02331574685629092	-0.008157813517949017	-0.028478079012882143	0.04622648204152188	-0.021771227888241037	0.00961317139886564	-0.008825641883411168	0.007969326433949781	-0.10505848161640795	-0.1047532249046866	0.12290671929489075	0.05711920257404224	-0.09185460210719802	-0.17904895328926448	0.08801029515962817	0.07375013920758547	-0.04007769485190677	0.0061356652521202685	0.02173564568036102	-0.09629436550495211	-0.0029148919214127445	-0.005123195884845812	-0.09466630393207946	0.036541099067403306	0.05075450577064903	-0.10918010822301838	0.095489050737191
-0.03816532136136457	-0.05116940389170102	0.07422504434895479	0.0653062711569248	-0.09882556848594828	0.042295387547733786	0.04670898305097315	0.03245552364490965	0.10794027383887791	-0.20557988733612945	-0.058442019631417805	0.12339022873519186	-0.08742458061458283	-0.08446856462691182	-0.26748458872319975	0.10015365687418903	-0.0608362133533312	-0.1475170059387787	0.0836628529269568	0.22367907289459793	0.007633188826993818	-0.22110857825032895	-0.05922892292446667	0.09910394409467528	-0.02901057394004103	-0.1271434582848604	0.2994047794177288	-0.062247200695390886	-0.051424899818109875	-0.04966550856089626	0.07577897927771877	-0.022598246732298505	-0.18404007990391347	-0.21418828058571318	-0.023003076660821048	0.04742174214419468	-0.05184371469384009	0.059323825671496314	0.16102224069372312	-0.11541962556918327	0.027347296983094953	-0.03930047779027843	-0.0824086034472901	-0.06129161745847634	0.09025269882175814	0.011981572226516576	-0.03244731962616408	0.21228572398063897	-0.03414344618098954	0.019009514082787626
-0.007828013746808018	-0.15653890764954367	-0.030157475535285055	-0.06426585977567732	-0.04176141408680037	0.19777802227262836	-0.05580989648525665	0.011220293523314146	0.07954832671279564	-0.07501673706350259	-0.09426906455881628	0.034271154237098006	0.012456967095000401	0.0490564412536219	-0.1645956612216647	0.16235512451032869	0.00827200044347225	0.11709585991131258	0.2481470190630112	-0.016071268930503868	-0.09327873490496212	-0.04138119221056001	-0.0160826913115493	0.017012390001811567	0.12822649684907572	-0.0005439807732972507	0.1335274835538187	0.11666926933715373	0.006880539203061892	-0.16099253334284733	0.09486723938450993	0.06921561140153487	-0.020562409118628305	-0.101761228523761	-0.013271449030914335	0.04447047429698077	-0.12143825244369978	-0.11997202911230612	0.31761272202107366	-0.11218274418125691	-0.07100207519421765	0.16091016841753744	-0.10211810068641097	-0.10541255295420922	0.10071240539686536	-0.1852227616513655	-0.04893932773128181	0.07024605575226295	0.15123206652701912	0.04896844431632923
0.04448514044738531	0.0165297423024155	0.13070996977503904	0.13410536404492987	0.03192478884245972	0.022582572200333186	-0.10103123614580276	-0.06187790295128481	-0.19209648496210582	-0.030558800185778473	-0.10957971116336417	-0.08594312953333053	0.1301696649460456	0.08934679294588484	-0.06562819516151122	-0.039557680946940295	0.22674000221572	-0.08661106510799395	0.07083215415827848	0.16604197117043806	0.025595108381208317	0.025029761863118463	-0.16921752435797552	-0.04067501910770529	0.014560380103599809	0.15378414269369972	-0.05632130469828555	0.015608622285064001	0.11368314562314107	0.11868287958488179	0.04484221562045327	-0.06085501916353186	0.05411908628387943	0.008790236054432996	-0.10583506768087546	-0.03659487963278934	0.05529718812254017	0.15094153275311564	-0.06267898986876641	0.0860559678620883	-0.06339875939709734	0.004302272813175672	-0.04068793001713269	0.1876653450169516	0.07738252594793306	0.07966114804427053	-0.06799491562579328	0.053611232889945445	-0.1181125881261269	-0.24529080725764918
-0.0407288167295205	0.1392295635456347	-0.04052443967188779	0.0874982366171639	0.2783443603880278	0.00225940725104191	0.18658913427196422	-0.22114059855494325	-0.08548196352227888	0.07085846756974541	-0.00105896033297143	0.031085318597862902	-0.06971696642008245	0.2530921857007543	0.15838486023919182	0.0683544621874064	-0.03189774861953851	0.050364440684941676	0.07484076213640684	-0.04307178298705706	0.1767153830179102	0.05459920235293549	-0.014153003672915112	0.09692846306659268	-0.07012447328760751	0.001053504854257958	-0.0606972612147017	-0.16413279347990228	-0.25300980257773503	-0.0858261446664659	-0.06824180244000384	0.06817295193847585	-0.027735567351183796	0.09846617642217313	-0.19918422206984104	0.019295367022993254	-0.14578390651595383	-0.049467559793867834	0.08858541831253113	-0.027970872043356233	-0.11692152622706357	0.20702117423977615	0.10097807770760045	0.13859684774008263	-0.15105437018019655	-0.17805598986507107	0.18505084726634435	-0.09796953369276143	0.005928217887219455	0.036275519650244704
-0.06773117685430836	-0.10714525046691285	-0.03712469454112688	0.12851249710414397	-0.04999833968888447	-0.12011435848017399	0.008894298303883696	-0.2137520698203436	0.03725587060238038	0.07633842377945474	-0.060708612021442294	0.08059409110884638	-0.019394293294277512	-0.022008213255112586	-0.12065931694744297	0.09546179903210524	-0.0282982206720181	-0.025295819956435636	0.07484727621995074	-0.0588058145146411	-0.0887301206678031	-0.020211761659498454	-0.17190240266264203	0.03735794456018446	-0.007343889579838995	-0.16578522490076208	-0.20681355530419937	-0.055757358141104184	-0.035085349312881896	0.11248176920031068	0.21803040387505326	-0.08495786405786622	-0.09143010919272099	0.14973807974517556	0.048886921476863014	0.4074890304165485	-0.021527809280295334	0.09791108053683731	0.20815004940864626	-0.12186526312691129	-0.09094196452426594	0.01716684559366623	-0.0011972101961844276	0.014261251015571408	-0.07864092489802055	-0.003724420733239504	-0.03010760880444687	0.06277304932316946	0.09396641657801795	-0.15928128190156882
0.1321016116081195	0.0026842921652881907	0.09502567996275851	-0.02480943277552596	0.11936252197657184	0.08391718573709989	0.03446212568224087	0.010063775216769467	0.053922909977279776	0.207547371860204	0.12694981093387311	0.05539851544784951	-0.040378015767277065	-0.05325165521742535	-0.06889320756915332	-0.12355538067400937	0.1119842407177927	0.02432845854324751	0.023855153953511628	-0.16161160564381488	-0.08508290228552538	-0.020738674437207557	-0.12192770883728293	-0.11672073011414257	-0.07432446139931707	0.07686391713073078	-0.2625810918297461	-0.01726731439109329	0.15501199552210654	0.09073792172796873	0.11544012374592322	-0.0345143874501884	0.19151734776689552	-0.04697086409991868	0.05217833340136039	0.03135302263719144	-0.10941610999325004	-0.1971748059296401	0.10465136086975618	-0.09068595162309012	-0.011022982383722202	0.052764803784860995	-0.003918081524701856	0.06566009560451622	0.032514307570059936	0.055258783715260155	0.050670013582645494	-0.14508849632916845	0.0030310922582399116	0.06255361975781681
0.22640910260442706	0.03859665086832041	-0.017274616139002587	0.06310097391684696	-0.05922062296396877	0.14031323663393455	-0.0015682400635343907	-0.022575622934716724	-0.1448737104768359	-0.041337608837804976	-0.0032252435062836275	0.17606093985979765	-0.03593929877522787	-0.003570556545666419	0.06393984494132589	-0.08306191489801369	-0.03750805654861165	0.14804195752762409	-0.14595550344541386	-0.06628366744657134	0.035726989779027565	0.042349970349002286	0.265874701577532	0.01673127222427186	-0.057211019538052896	-0.03945207181911681	0.11259643012725856	-0.06907950308997858	-0.025683259404139524	0.0960649239750746	-0.0379084107851484	0.06016408593792797	-0.15558050732597542	-0.0966901158115549	-0.06856705014475516	-0.15392723652886545	-0.11271452861457315	-0.06485786529358707	0.20818355786324846	0.040671271319529634	0.08196658869349313	0.07262221911019037	-0.22438336617023266	0.012949610143686504	-0.056513703440151136	-0.15811514127474546	0.05131705354291094	-0.17386500117263434	-0.0018771178721272701	-0.019731354872935345
-0.09175609228172368	0.11913877328147142	-0.0188978021422468	0.07383486246133361	0.060565021042976425	0.09121488720292968	0.009756714223538467	-0.08650679874706657	-0.009943232333144475	0.09493928282155152	-0.06520768724828743	0.02386892009052828	-0.0931482000914472	0.1061760919116811	-0.003430870980580907	-0.10655950333095586	0.31712588025071536	0.0031098992958754836	-0.23505205244297006	-0.07574855870927384	0.13876659250867043	0.06660374899690029	0.1151368580796218	-0.03401304470452435	0.07259020010754419	-0.00593456623111459	0.038376135846863786	-0.13155237723760185	-0.014533038200871809	-0.23187193531166897	-0.009374040537793582	-0.0868500551182116	0.03026539072539409	-0.11447597512308366	0.0005009207075989233	0.35048774207865885	-0.018962835088463637	-0.06070911132123223	-0.00666281128333474	-0.3011801346788832	-0.04144831462034946	-0.013650162421429534	0.033091262887542466	0.097264553239781	0.0250983751512128	-0.11485601768194306	-0.17547098624843782	0.0961939287924279	-0.05624123688292174	0.031181873749045977
