-0.1210301703878988	-0.18303786131034783	0.024038370858380557	0.049393883172019655	0.13755860399241432	-0.15758691805361114	-0.09442451205662919	0.120045504725121	0.16248810127068924	0.3512787670694574
0.18324784603861208	0.05421606402127315	-0.05519189462512375	-0.02362714125897094	0.057520740577794584	0.09982755850291572	0.06633025549502669	0.13591297894085316	-0.20102121901502645	0.0250165517753936
-0.1277348371627798	-0.015393546902216768	-0.0003227166278336327	-0.039405030045771776	-0.08120645755377522	0.08776532009707651	0.05428090748568306	0.12179348599864699	-0.03868909955432335	-0.012590861998250115
0.4732996995606952	-0.18985856442984061	-0.2348114276792197	0.12882547096179645	-0.006266285286422306	0.2720317901471019	0.03318004918505643	-0.11144185938631114	0.07615207049662799	0.0657563773674121
0.04990808732796127	-0.13455722575967094	0.30390392151004736	0.024160149853346535	0.0044940197567800615	-0.13892361412477897	0.16107069674076552	0.04105509589673962	0.010031902778501547	-0.03018484500863997
0.012396110512164464	0.039979098193536414	-0.1429830725265621	0.044818386207438554	0.06787235947177483	0.17155483285989603	0.2001493818775079	-0.15129929608435094	0.020926099717621133	-0.15526360738915565
0.11042212173269536	0.0980815148873202	0.16947286956117086	0.0034820265050351782	0.016016946643922923	-0.029328765451919793	-0.1671076320650514	-0.08138251041677437	0.11151760742161766	-0.10834374899833066
-0.2720675249627717	0.028252250731508045	-0.07248945377853276	-0.008290819038286499	0.15109870465038472	0.18802259395480841	-0.27558321639493255	0.28049837372394026	-0.0750313462461769	0.2508526706452843
-0.0918873899312511	-0.19564479668478316	-0.002284966267297293	-0.32522132293481926	0.23157139940529572	-0.09289942054170106	0.02142636610723076	0.2675096464542452	-0.21391099774464564	0.15124027099688533
0.05657391061724129	0.06696374822442021	0.17274642641484034	-0.08414880420641098	-0.18319044384237748	-0.18157358082724542	0.17995421567252695	-0.14160031108197485	-0.03802040607194906	0.054555135027187895
-0.08763088551650819	0.1291583976561536	0.08981116801166832	-0.15011310149688184	-0.09041489327601508	0.04722777758322905	-0.022027717379278774	-0.061145773656075354	0.0395107000705292	0.11612889110771286
-0.0643485365334074	-0.06363132128530903	0.1031565057256805	-0.11939478798198784	0.1034089558052133	-0.1668597961414517	-0.2631790608628032	0.19201163751225842	0.02609944583023073	0.012845353688114448
-0.2060979734815834	0.17797407371432078	0.20983371772625561	0.37874073560613547	-0.20033169575851137	-0.10491390495338639	0.14264135765734606	-0.06545533804069752	-0.08915655213208998	-0.2639434786319159
0.06607025928407824	-0.0748557783202264	-0.09444177769042175	-0.13961015722051073	-0.28251834020722594	0.1832624638736506	-0.026351584720764938	-0.004598833648234087	0.1443091492759776	0.007542754960959583
-0.308293277473426	0.20197815868334437	-0.24694899100746376	-0.37997491428156766	0.1218251990667446	0.1572843705240059	0.24649361395178895	-0.26031614135530207	0.15847087868333048	-0.14903326974901704
0.07804439593289196	0.05423744486861416	-0.08208675416886668	-0.13107916691265942	0.04104121346159755	0.03486800290820947	0.03150013599868049	0.0001366644712360183	0.09629868277458993	0.31703162008215957
0.3121864808454665	0.014275603218897351	0.12086451949549243	-0.010170391216575503	-0.3685411608153845	0.2091040508149035	-0.14104794411016397	-0.254823188397102	0.14204778802008824	0.30609084463781033
0.03813465843238038	0.11922678996725959	0.4028086706663633	0.04989096179210992	-0.3118616128256442	-0.02656323249516539	-0.16355518033364186	-0.03305116713636057	0.11904688687072357	-0.22820832382943274
0.126353384833152	0.22391465288003823	0.11031648178647006	-0.20387498336107815	0.06923134270688748	0.19424858263481562	-0.13452861348632533	0.23706001465101625	-0.14973316166657352	-0.0801152985885274
0.11333489407202159	-0.0951729485428144	-0.13925537867472546	0.07019492229497425	-0.19313129685108318	0.10886206189993305	0.007076956220265515	0.4834460363389508	-0.21798766933084943	-0.08956871260487413
-0.111894206832742	-0.1515009262977631	-0.2492922870555072	0.04401213480246621	0.08364065943172472	0.18987118485457807	0.04377465183511941	-0.11772684013713867	0.27421202520321775	-0.06069073485625847
-0.16503234263143005	-0.1806501534087589	0.07252317225574384	-0.15167662621092287	0.3479761155567946	-0.07360714664172971	0.0868854314895866	-0.16923779593059332	0.35007921130801367	0.004666999706278409
-0.26568306077672277	-0.07363240638830942	0.0744439892562339	-0.012349858867786395	-0.018609715321811337	0.08547804673444706	-0.09674148627612085	0.055516206003903806	-0.01496945025239646	-0.0009366074568246559
-0.03646945947078406	-0.032163707810055904	0.04598507094494482	-0.09285093560922882	-0.058971501152637634	0.15915484676305483	0.05209213711129049	0.08748739103967876	0.0049282007744873724	0.014762593772808282
-0.029770339796579406	0.11365110857212479	0.29753144066561754	-0.022373696665589887	-0.0007357019269617758	-0.017568396943915328	0.32270407547831004	-0.08522616909430707	-0.199997809813527	-0.10994428179413235
-0.008634562443422	-0.04737149214952665	-0.03620258042597524	0.06033367959257131	-0.12769916548301716	0.2021875786685977	-0.1164361441282126	-0.07572075357415343	-0.017374333668972057	0.2381779797818673
0.04764777590682834	0.28569657667351245	-0.1252461442283016	-0.10948223078050055	-0.24439561369616553	-0.008158785853407902	-0.18650787834120572	0.28145022883771853	0.20931100733953178	-0.05983720490256475
-0.0018319983442464597	0.06112930730811684	0.07811928112342001	0.023917177320611865	-0.012333641428038843	-0.15148126609582005	-0.047340320850822334	0.06825066506405011	0.13084483321767718	-0.10475643589567894
0.0045491240338992635	-0.01646868557380043	0.002998870997918269	-0.23965467834884074	0.40435396347990976	-0.004400643992187979	0.12276415759757248	-0.17606066874152018	-0.1322210689311915	0.2222647644351721
0.018397933783424487	0.08204572613514537	-0.05767821624896104	0.1399580471812222	0.16782182676009255	0.48987814250268114	-0.10273484240613338	-0.349036510027082	-0.10613798327592715	-0.18477605557495486
0.030566138879308053	0.05670537155430474	-0.09021186639983995	0.2656870439376297	0.07690228035928535	-0.3781003436578562	-0.1354457958271155	-0.11463587705800342	0.0501994093781927	0.20607327312231327
-0.11957308003428628	-0.0175759176208159	0.1657639887893152	-0.03709475887482633	-0.06067332646484504	0.1866520917951029	0.048913049876412915	0.14078065148121902	-0.06829664430908236	-0.042641585066151774
-0.1369485567302741	0.1581689852023817	0.017802485195483636	-0.10220484010609222	0.011049981508677262	-0.03958305753951595	-0.04627205152538175	0.0034467204918144224	0.15789501743911213	0.08227683390867929
-0.04268861942995609	0.11475224536056086	0.16745231590770487	0.061215207688738005	-0.11273932627575663	-0.2505297825153997	0.40475705977364607	-0.02392592627840758	-0.009910551574711825	-0.24434606900881253
-0.047344241650912805	-0.1652505958713993	-0.16353464207343169	0.05338809321737721	0.1404233799502148	-0.08212461788362237	0.07726123571620679	0.20035901335814116	-0.4897342643800282	0.22313029063362289
0.48728387129845724	-0.27124393925097023	-0.1941573532732185	-0.2868704195430283	0.03716095375611336	-0.1657199725120196	0.2878781281974311	0.005127440528892095	0.0028665321184510617	-0.198966694979346
-0.032703985338753946	-0.1299047146347089	0.08148373526391299	0.10945813733437348	0.02163571114620069	-0.08610361521917441	-0.006234329764761949	-0.020380377246024487	-0.05986324512213774	0.0020180362577703437
-0.028534727595497914	0.11311371430283146	-0.09152659010703355	-0.022416109900856802	-0.08610816429951039	-0.005686035157277152	0.024940068931450697	-0.02398735356962719	0.08732568536625102	0.16582365845336638
-0.4505646321996464	0.28155663964325267	-0.05396163629350681	0.03223098005271903	0.06317743359107515	-0.052264798129321464	-0.0432215005639387	0.10242322624323395	-0.09011113832298732	0.14274341787616648
0.07361187964980229	-0.014659091042633503	0.08613175094254402	0.05813399815975992	0.01366121028094867	-0.07013722640281564	-0.08813141210051896	0.051432709210677614	0.055370007691974206	-0.039948586065444845
0.0719903306620258	-0.07108336618125043	-0.012830491921906266	-0.052745625613397545	-0.05557928020962974	-0.07495057552651685	0.33188542198058485	0.13520023478794005	0.041776075334896155	-0.0635456559499934
-0.18765064075220816	-0.32441994187253054	0.029471854559504913	0.23265604353168592	-0.18296648078535221	0.14955030632741922	-0.11457463378083013	0.0003369590926047422	0.35320022964955045	0.13356235161002328
0.014850006986677032	-0.04993874604873853	-0.09229529937618756	-0.11943274257909856	-0.15078616807526105	0.03441368964811656	0.048200481413031605	-0.2123632282725403	-0.006037363877846362	-0.06263548338004403
0.0689087198344733	-0.023875916843434215	0.07997079596560315	-0.0455108153595564	0.04860464786797436	-0.005473330335985532	0.04006404215345511	0.09660590832714355	0.18114039157994893	0.016652724942438208
-0.19010862649628113	0.43908967050908454	-0.212935443087465	0.16368528867290774	-0.05756437129025052	-0.09578734590309088	-0.2347076150629534	0.14036878852405515	-0.00663091651814413	-0.04899304439787943
-0.12988890347101933	0.015183025704948758	0.10693633729333742	-0.18922007222159512	-0.02959743831980106	-0.05581360903718626	0.08697944762734047	-0.07634359616680526	-0.005738551464522261	-0.13691275542758016
0.08527282676582723	-0.14061069623760966	0.13216828323101942	-0.0056035677468742415	-0.15802950037077915	0.11822200478081822	0.1775127773043881	0.14417148104206037	0.0411378773738148	0.09357633949697176
0.13103934080831395	-0.5831372974745196	0.14363444051620455	0.23367863372781217	0.11669932670412793	-0.020187932328789904	-0.16432117168298133	0.00985578213970901	-0.017006794009433206	-0.05934071095439908
-0.003261812511982465	0.062233048752387436	-0.13059896084491476	0.09697910860230065	0.12626580326662407	-0.177390952529661	-0.04463047816141388	0.08334375617479568	0.03961450268557679	-0.11298919845693924
-0.08078546818637981	-0.26739453368498706	0.158963488491968	0.26034651682862603	0.025215327983108927	0.1507536988420131	-0.03629204365281076	-0.21627985194890484	0.010570913827444494	0.00023812789496023605
