-0.008570501061533908
0.023744082162550438
-0.026078753051957445
-0.012956419408680635
0.023231330598483077
0.1295697450888473
-0.015021724082013329
0.08575193380677919
0.09421277996815024
-0.03252952421020373
0.008915336560621274
0.10089353673383114
-0.010415740551702324
-0.016486055390207057
0.08153244269064817
-0.0037893410745972987
0.051758307858437616
0.003998224001677013
0.10175636312713161
0.10906123763928882
0.06064463323553781
0.021392233101902833
0.06010835543746066
0.004333079588575974
0.11765452184383664
0.11742739759844198
0.0035301022134412064
0.09027630686884357
0.1363826277164711
-0.0015154178629996303
-0.03870782967662466
0.018653430642718426
0.03866381670844806
-0.1250979152029453
0.02751382928719465
0.18117192600256024
0.048137536397596305
0.011153103512004178
0.04482239132926432
0.03584812348667334
0.06532992484047667
3.6949357822045826e-05
-3.9569689382691415e-07
0.1474611084242968
0.023819913651575878
-0.00023938249351911393
-0.0080754577399354
0.14490852891953934
-0.0007944374609824209
0.11839557249338736
0.10435167355539479
-0.0031386918124089403
-0.006502199925793665
0.035956245918472046
0.08003726112572311
-0.026064659704434077
-0.03639666382234353
-0.05426026215231298
0.03709943920091127
-0.005673695542719593
0.04078473688136453
-6.642061594644912e-07
-0.006177781691776639
-0.03107879025179005
-0.049518006752270464
0.04181199410587835
-0.0028326549167201702
0.08699946551278125
0.00035683177177172205
0.014855772423418134
0.12072164586618929
-0.014642510502583401
0.11493762845180344
-0.010433334354582866
-0.010337194050545227
0.02301366296771924
0.01942749553100966
-0.018468057073157938
-0.041431834237838215
0.06629581056277646
-0.00020509572218284575
0.023979316793749667
0.0030315429370644693
0.0077880337726890575
0.029948150377269982
0.02388892679106879
-0.04782447737125896
0.045647173163602464
0.0001394944106838039
-0.00770057544603435
0.041892037070236574
-3.2106892348993353e-06
0.1077235024900684
-0.0243111870110362
0.21108979364928745
-0.03303644570745047
0.06000272263712897
0.0029330756655333292
-0.04193302998315351
-0.009218929556928667
