-0.009946124553249122
7.138718729601812e-05
0.05040641005216937
0.0018680678287150685
0.0
-0.004852331863003484
-0.05826783653970613
-0.008314381973411672
-0.0009362964143756902
0.01846739920519186
0.005182032920401624
0.02597592837489027
0.05876330232606726
0.016427697888940253
-0.017278496812062057
-0.0025657240459777703
0.2643094425162347
-0.017679023604865316
-2.84112693286689e-06
0.06111422908182243
0.039466248795516766
0.04952404512923357
0.027125308942066675
0.02265148631545712
0.02146790754025979
0.10998765472661372
0.009049108833437599
-0.0035354204751298396
0.04034998766671516
0.0
-0.0074685272222282315
0.019291657867207698
0.021152341822729237
0.03104027024644647
-0.00014923802789528992
0.10416594599488378
0.008857627508350535
0.054032575482748355
-0.00783077117700452
0.021030985507598365
0.00024424694471517734
-0.007329593753700251
0.0
0.05821573604815234
0.06051112501889315
0.07688957039609688
-0.01581397530876401
-0.006568106842943312
0.062410224501351766
-3.05664160474964e-05
0.032273748232666426
-0.05356266503445478
-0.04393410064536869
0.052191609025037757
0.11819498045801241
0.01570210404063675
0.06347696166348077
0.08480049274855453
-0.02285806240807518
0.007253157998838182
-0.03901478937977866
-0.0442056702730174
-5.406241738969928e-07
0.06184864098759895
-0.06720638010595456
0.11562386010105916
0.005980175976092813
2.7306807922377012e-05
0.0
-0.00499333737384455
0.04838251054213669
0.01224618612505956
-0.020981763412155574
0.005824509977553215
0.0
0.0446506579985783
-0.07685343149219875
-0.03554071451402587
-0.026134789049912687
-0.051689969102964424
-0.021151556955380933
-0.00030537722680636727
0.0
0.025864998864402296
0.06509886281518353
-0.03984241329229102
-0.017669578185819355
0.10806570923004347
-0.009300990912245649
0.036034878552051446
0.0053550988250010735
0.0017733752575080656
0.03594829010750175
0.0
-0.0011465318148633748
0.0
0.012426783000631464
0.1710601768483701
0.05602112669480531
0.014174904735511773
