-0.092927458132259	-0.05335436528018798	-0.14956937600492065	0.05485764741453483	-0.00825135189113945	-0.17056334104229956	-0.08625992538843591	0.03272244387227201	-0.055478567453369904	-0.0701661474847304	-0.007665890837939927	0.03467529185587317	-0.1415026604014506	0.05550335865800668	-0.08104760774688856	-0.0017927263810972567	0.016782845179034396	-0.053577216248157644	-0.10236624816280089	-0.02695491500457237	0.16325237271945195	-0.1353074086499601	0.17400711473918024	-0.02624990355423983	0.00514393247357219	-0.10353091489169551	-0.07779433291424594	-0.05034473422592714	-0.10311297168511827	-0.020891795737087174	-0.04119727216805437	0.1849629888184964	-0.11537720155726645	0.016012753155677285	0.024774948554254335	-0.10490769860917513	0.06939522166815763	-0.036760022518114	-0.24972994714494287	0.06773468598832298	-0.11169404630635746	-0.1051326420094441	0.06879020828923982	-0.030372450061577228	0.09620998938543676	0.1257696796244694	-0.06498386693109519	0.07915307691751897	-0.07426751993956196	0.223309499523724	-0.06864493739575087	0.09969009402715118	0.07919509376783085	0.03350894626825797	-0.05902200357282107	-0.014265733784947514	-0.21378675949793496	0.02744216406901659	0.033412525045954086	0.015622798459950862	-0.3007003755912457	-0.12987837251252157	-0.07480909828486626	0.031276146549088016	0.02515428222381966	-0.009159110917908995	0.062471025368718396	-0.10262402037133041	0.061023500569399626	0.047461906431265605	0.038510881298797754	-0.019062572562498863	0.18100574386991777	0.04983194628616847	-0.0968335863253559	0.026507388150931246	0.07043516147117	-0.061632777913920044	0.10684894204434123	0.03487368806852037	-0.23498948129454428	0.029940133421799856	-0.040602915441271537	0.055602918714854316	0.09648810694450273	0.019885798388035322	0.16557947437126383	-0.0099763927071246	0.06245779626218434	0.08185411761497377	-0.0093463877313488	0.07799203136137135	-0.05614308070557315	-0.04225684190212185	-0.13124371530479803	0.024140911637004697	0.032516931194052766	0.12546699140641693	0.08031977609791599	-0.0277996036105939
-0.1178179687334277	0.0432850402519974	0.1110753172414642	0.07551849738039434	0.10844775248572876	-0.021188953119824258	-0.04666189681756455	-0.0736901352231799	-0.005589646661359551	-0.007859079596881941	0.02066776285391162	-0.0129297457035508	-0.013362772972677127	-0.07766940529721439	0.09416190135514908	0.00765180622437113	-0.017444393428528215	-0.07474292532492048	-0.1331913110391086	0.13079641925493438	0.055463870813180716	-0.16239178425699674	0.0763142300709657	0.09224811702331093	0.012437612230092952	0.1598110895751759	0.0216719642122883	-0.141682352794919	0.0365169001048321	0.024489730171272928	-0.060329684877815495	0.057355883687742505	-0.1667665266190862	0.09905668274427895	-0.08781217036054527	-0.09849461251170324	-0.011382477230747689	0.04329729280436354	0.016392406359342963	-0.07426591657723783	-0.05060892911918885	-0.1133042347377462	-0.022467990162987013	0.10750212145109098	-0.0004262937643876164	0.08594142547594531	0.14554013377261918	-0.0588018519036967	-0.01865732530553647	0.21711928610624953	0.14443434119799453	-0.16724045258123527	0.038714831606090655	5.599923396953997e-05	0.08264531108587625	-0.07449787674850554	-0.08396083720406722	-0.06760707152936095	-0.05719285461984328	0.08153241668090143	-0.11812011731488802	-0.06226138999593189	-0.17890123905014413	0.1007117823412373	0.12710300994311405	-0.03270734308637865	-0.0297949364813223	0.04532219022828973	0.14744820073782558	0.040861074756391724	-0.06975419424751146	-0.16188225719864405	-0.11151262626634878	0.007321945031246505	-0.06553275232007943	0.019496770599075862	-0.0552924016236234	-0.10581464312944117	-0.11770316314530711	0.15623545093732297	0.08889877491836432	0.17305179518279587	0.05399509007551029	-0.0429991408614839	0.1323340922489938	-0.003306800136176787	0.022084177029035233	-0.0042824379075519	-0.29469042192840145	0.16047350122948534	0.049100394595775344	0.03298230608685101	-0.0061776062270560705	0.0163427820386131	-0.05972789358462477	0.061657935230727115	-0.13070983443991324	0.01860684324705469	0.05615734705711045	-0.0198669133822903
0.03631808675330882	-0.09913313294003266	-0.09995380516119727	0.023819916336847907	0.06785496546210516	-0.18754884096509122	0.04470282931883597	-0.054533800530695314	-0.023783522599739787	-0.14544697583763114	-0.10032787077584894	0.08077388845801396	-0.0060538786202622465	-0.03679348950923022	-0.012581383205724201	0.04884571072319921	0.11944687475645029	-0.008423258963113786	0.1092954531463604	0.08686356754673148	0.05417595202241417	-0.003660109805681848	0.08433325555792234	0.020219852898189457	0.11448727905942332	0.09729109936481212	-0.10244597956992929	-0.10877461928659776	-0.05277939276632118	0.09761386900669211	-0.1576731785433992	0.039358584199817796	0.03840872720681938	0.13818405160447253	0.018031674952777563	-0.14473624410324903	-0.09343541739742747	-0.12600339659968374	-0.0389792417078987	-0.017885524429737253	-0.11653499144799019	0.1471890703774777	-0.13252813719524412	0.1541146715517738	0.12928811724503317	0.11517653407377262	-0.07246046771336569	0.03374291086358266	-0.13920282032597825	0.09108792824665336	-0.029587214226882055	-0.04271891454172613	-0.13328033148031768	-0.2673902163747034	-0.0745609178868469	0.11155957811934858	-0.05343405917847349	0.0061926873345160656	0.0650106497089149	0.1625763130685642	0.12136576577275775	-0.09746651825163313	-0.19425705714374064	0.22106592655882232	0.21661244549411124	0.0443202818223006	-0.14229885457350494	0.09632393471501308	-0.01079836860126102	-0.01163804444465465	0.079012919959487	0.021470528712485833	-0.1190252226550355	-0.03395866860866958	0.06611529286613466	0.04391014649113211	0.013581812133955816	0.09374423726612634	-0.04032382673469118	0.017140675661647894	-0.3399123108996658	-0.04504463857824345	0.07639029085756444	-0.042843523176031365	-0.05154661387642861	-0.1174807811246402	0.0977489890613147	0.07318002502599236	0.08249333512168426	-0.17676524304711722	-0.01604042575631934	-0.02651234271086347	-0.01993360269228045	-0.06160275437179559	-0.034640554154498376	0.08496447827066518	-0.2142428599920063	0.20985428976160814	0.046258732012531396	0.003680961229377232
0.09008920025378919	-0.1451834742265708	-0.0684335889867002	-0.012022872540730237	0.13655603704321775	-0.004649658112655793	0.039432458101449755	-0.05895804078036613	0.04616617446217359	0.16024159343223257	0.09010955579642407	-0.018601519932349243	0.06239240662827686	0.05879872335526406	0.0498887950835915	0.11118817974157631	0.15899935365945528	-0.013289146210707396	0.0641878221115415	-0.04468370682705598	-0.08398554490260866	-0.03187071805578793	0.0035449294707531878	-0.1725091058668536	0.09116739163796299	-0.27147357582949194	0.2713121428877001	0.14998093694787512	-0.01447541494849865	0.0009426360563773239	0.030297171401888767	-0.05854869905922642	0.020474329692290266	-0.0009965666105552413	-0.009426465649769096	0.012452194369412136	-0.1300218971647412	-0.0009748634247311298	0.02638121633786956	0.012636842857443367	-0.021581766523574564	0.11390586578178623	-0.03536525548815512	0.0350197722657356	0.13645519072560044	0.008823195529331071	0.01949088872823224	-0.009856824964620958	0.1173681619781612	-0.025772414318757673	0.11418338905842844	-0.010694470616207763	-0.0934351060970635	0.05519747327781491	-0.010925173527410735	0.0623470469509547	-0.28125660996646673	0.016414656636892552	-0.04606914245640218	-0.11722013443006635	-0.06237049431446136	-0.057380242016835725	-0.004798579485058113	-0.14516745139017712	0.02464885863405004	0.15241371497869544	0.01829322949125686	0.08090105561737586	0.10945624546137955	0.12330945429576763	0.18099173408636976	-0.05745316549280628	-0.07167476411913068	0.07686687390633089	0.07082662196573998	0.07316323804999157	0.18084611719550597	0.002020450799636837	0.04016053782735946	-0.09809424973834131	0.21182630807586558	-0.0337050261884518	-0.030821592816082995	-0.03722863988089755	-0.06700730592699236	-0.08223140538684348	-0.05447629442011407	-0.125357130296445	-0.07854113925235333	0.19266257371513668	0.07357037153109784	0.09310050982122615	0.12186733448761801	0.18341345643623908	-0.17714630826352248	-0.12298831152865407	-0.0962270066387732	-0.024369515217617106	-0.03047172490249562	-0.03892081576907183
0.021391913046867307	0.003529538718385077	-0.07374839294998696	-0.2173714007097663	-0.09928687053786983	-0.054924850976550685	-0.031230006146725674	-0.11297788249986618	-0.052477119486296214	-0.12180215554897439	-0.024005168022143395	-0.12017935160236434	-0.09096402133617142	-0.12966296291571888	-0.016143098827124648	-0.08664703288587072	0.1551981772305265	0.03987173026332595	-0.006985529587557751	-0.08724617018759634	0.04864788952789166	0.0630970472361632	0.029884105449620932	0.1517838405619751	0.05299458318508034	0.09889701030172078	0.012767160151096897	0.06746382730408403	-0.06499901221973037	-0.04583983632127939	0.034932470783536285	0.03484377145362427	0.052977757718492446	0.12788458948153505	-0.14249873323776505	-0.10426983147339976	0.025170988297255347	-0.07772363432038244	0.3499925087352317	0.05203324958602822	-0.007831239722363265	-0.051294947784079704	-0.048016228319304445	0.019242152224905707	0.021189501518858688	-0.024333493032186477	-0.029621098489270876	0.1340341498662321	0.1305727522824074	0.025202688358795914	-0.151173429653569	0.05284431235391443	0.14571649163972378	0.1216496626213282	0.09855794926673102	0.14311334537646989	-0.004785625257862199	0.08279345506735118	-0.06851045644648973	0.014518279218763001	0.12400019066835634	-0.05923537190368901	-0.08614434294642864	-0.0008265973876113333	-0.032113980897190385	0.0865235895606438	-0.05726618502940849	0.1718449817310751	-0.12896760979610558	0.1251272036567577	-0.08362201626827966	-0.18901277212759673	0.02374980766633403	-0.02639935922823846	-0.11096093679030308	-0.17358319000208974	-0.011549905326333695	0.09817033302682844	0.05461722490939295	0.005411870048419983	0.04584937576068647	-0.002797988219345384	-0.1429724243030371	-0.1442953891484694	-0.02283709511226629	-0.027355792103888988	0.08275918403931232	0.09142455180717406	0.06051173996091802	-0.030596706153348925	-0.13805424687739243	0.04247084374584988	0.059652906672491235	-0.2388531462477686	-0.08343738281572212	-0.0691054377393896	-0.006583911056664164	-0.05139770552216156	-0.0042326351407640525	-0.014034047030891731
-0.015914947995745627	-0.07163942937007461	-0.06389850675276215	-0.10802671178419837	0.038006744057383204	0.05711026285913683	-0.07707886426034657	0.15206400960170446	-0.0314617131137208	0.15301780774355853	-0.06421659269727781	-0.20265819682538677	0.04021978028398787	0.02485451042240654	0.00342595428250559	-0.06422324784439894	-0.003342868794148513	-0.05112594601572496	-0.030234956633175065	0.08416464249811974	0.01843207067302581	0.06099505465651396	-0.0231647522808185	-0.03420180514956741	-0.11533874219092538	-0.03697556776787447	-0.3321114555589139	-0.05902219764823607	-0.008173225791671502	0.056367365427015606	-0.026867787752495677	0.03476735422449994	-0.21796953594837398	-0.005658792351650608	-0.16795027929134035	-0.12083036131865892	-0.01871296752290427	0.12762639718193694	0.03713325165783602	0.001823099535659133	-0.0019530389467102205	-0.07136288841323361	-0.05439834133726837	0.04277131199153886	-0.13852197216904363	0.05933466920483038	-0.038846966754041395	0.08255570749584822	0.09610921931229457	-0.167308401250574	-0.058158231165829875	-0.08555276775828316	-0.18128621593946478	-0.10325376640574704	0.24415973096041368	0.06095098962124401	0.191726364446173	0.08293630640442352	-0.07418431526859558	-0.0381771507452682	0.0588429801884061	0.043750621341492955	-0.05773420157083338	-0.15099932275535805	0.32875593741812104	-0.01408059721208205	-0.032574224106904394	0.011333447054178665	-0.024272858931102863	0.012272891023992429	0.12869471988652895	-0.012455083068490738	-0.11627104342441673	-0.01617004867376961	-0.04644017814099108	0.14238989372468513	0.11709719525620896	0.010752500169187745	-0.12788640837132695	-0.12258922634399459	0.001499168772305879	0.033631232252207696	-0.03746228193260549	-0.048016979371766494	-0.05927999455351612	-0.0023404540599735683	-0.2382842631257588	-0.11009281896911448	-0.06270508454473506	0.1207502324507363	-0.08138136419289294	0.01804300862759904	0.02267044270838301	0.12979165056607622	0.12625774069641502	-0.005750296879491638	-0.047561155065747894	-0.06633235508856448	-0.02410632224657809	-0.04338703833030151
0.05523147657673305	0.04203371381704938	0.07228177785459515	0.12634257554360687	0.1862869121400177	0.0122039857228992	0.10849584519658713	-0.036147192161431585	0.1216919837572485	0.1205305690634275	0.11904717633476385	0.02967653273051343	-0.04691324747256155	-0.13906012509076113	-0.005386575650128695	0.15312577576372735	-0.049866555694374225	0.07669234696329003	0.0843951840586319	-0.0062871697804374824	0.12501497756821964	-0.27405951432204684	-0.13164646274215894	-0.07840659120899657	-0.08486556995025349	0.047646727041378935	0.030261206799628328	0.03931823431123313	0.049990202045350984	-0.09501045691456494	-0.1234276538951111	0.04362504090765674	-0.059910279362302366	-0.16868811400125597	0.09711645356972588	0.16650607706570444	0.15570864164774972	0.03686356299944447	0.04651163538496568	0.1413618389143138	-0.06412535396335829	0.11012557539735242	0.02753962341432087	0.08477370189509188	0.02274520056179797	0.11841788451395506	0.024060694670925933	-0.1485975761553927	0.16826086312977104	-0.09475528712250891	0.15469154676693478	-0.01574406178368338	0.12036998837719047	0.14383645550477833	0.035919651169739344	0.054811482597300655	0.06720148123780116	-0.20956634250120323	0.007765817438747318	-0.09301305533084384	0.022176342732437914	-0.12211334135153804	-0.11849521149013086	0.18697674224769176	0.10468174971200334	-0.0025947432069873986	0.03525136371706284	-0.024791588914407577	0.05698763759795229	-0.06758331932680084	0.1187422808098749	-0.01062491684305449	-0.044727619172921104	0.005901352856550195	-0.059114682992561056	0.046752959956348525	-0.05431980678720912	0.039462953588019295	0.11934502632282037	-0.08033716032605161	-0.013491879619304198	0.04612175419532393	-0.04358573549814069	0.05628032236587544	0.07263563500007657	0.11568519780939361	-0.060890332167183245	-0.08919455420962676	-0.03151785209729028	-0.08665679544173827	0.057780455794075515	-0.11611011175599778	0.23537041464704153	0.12959278615737507	0.0011505453331958984	0.0867394492997976	-0.1357828874459088	0.2527974172941251	-0.0478882476746716	-0.01682527175276743
-0.1856378483638407	0.04862873389630388	-0.09860250290143738	0.010467878672003349	-0.05442744329245382	-0.10786597255362756	-0.08080595236245038	0.021970206559933224	-0.12460969354824038	-0.06116097374205267	0.08467656294466894	0.2785984480837956	0.06632558506619331	-0.09159504370890617	-0.037716231589509534	0.0030898232598222178	-0.061767381081479916	0.08881439213700075	0.021747439448255457	0.11073026163595671	-0.03962342535019069	0.14866878096682018	-0.026709222050291106	-0.08411439166428816	0.21326753365029166	-0.17126580639446226	-0.07308235296809533	-0.06275772122668413	0.24012808103038674	0.18068588841465116	0.14778914639828467	-0.02982450654826479	0.24486544341599215	0.023601930242707424	0.09771641995026177	0.042520435249570374	-0.00551558341086697	-0.00993906247111867	-0.036000980221870156	0.06419239404446113	0.036724706882462974	-0.003576576799109933	0.15095239926988546	-0.30598345392682225	0.052366343878979156	0.05872940880802001	0.11709241334018321	-0.006568315773428293	0.04248135271592568	0.098592842715111	0.17711383065178143	-0.033663861738431514	0.02866398972851989	0.19568988932300188	-0.22211242965273192	-0.0654946387395728	0.16862635737333243	0.09974016916200643	0.04914966808030733	-0.02675225065292529	-0.08242440049399381	-0.06546019100592647	0.1548008204028024	-0.03770089681935767	0.009675978008483055	-0.08186143917162073	0.10005696915349586	-0.053872610620460434	-0.009759389015441426	-0.16834676174073426	-0.14264840599334613	0.014580726224100157	-0.13423703677110893	0.2140011288173576	-0.20615231121122496	-0.06855593947541	0.003224588301863292	-0.04176984656250046	-0.11128719619447094	-0.10210047769434769	-0.0991529185139904	-0.028670953956572254	0.19519290895174238	0.01698143061898087	0.1338854605130209	0.059722553058967474	0.11137073820825119	-0.27968189219930295	-0.03064943822844194	0.1393591477999993	-0.05594479707812089	0.17593525982283706	0.14797399958004775	-0.04691307161274624	-0.050335594186268734	-0.10136058423544687	-0.037326977107268886	-0.12626348406946478	0.05249339944052252	-0.14995106812142783
0.06037330114805337	0.06280786969002487	-0.16612044109637483	0.15498186058152646	0.051360929441522186	0.0749698021444869	-0.07586652101471954	0.062237911847311866	0.11263934497220657	-0.009860840398282878	0.20019224582689077	0.004406463400105578	0.11407857980755472	0.02930088074929069	0.058552153285686775	-0.16713322676347722	0.0371053737284624	-0.0734975101257266	-0.08463983064169582	0.17441031844659785	-0.021377024789119632	-0.10033018384817322	-0.03591316239939718	-0.1300450228921914	0.14338844671309547	-0.0695680742603611	0.05292999314420862	0.13561067108457192	-0.05001526770965974	0.0532022432272786	-0.103008605490443	0.2445769569113684	0.09363801347968446	-0.019260643716669995	-0.07728337308889638	-0.011399655283962636	-0.03399837223515192	0.19529445536685466	-0.12255347230755001	0.013480142329020343	-0.001833806663370996	-0.011741030034486948	-0.010861665493834242	-0.011607080917610944	0.08730660738507479	0.06089844510151276	0.04189116102401574	-0.3033989362145269	0.029979487416316383	-0.16556393601700825	0.064632015706724	0.14744973675705147	-0.0926239117107693	-0.026178072430363047	-0.05993556958945322	0.12354317779292344	0.009502788527207305	0.1728329389247926	0.041375420498209546	0.02424501806358194	0.006820678301112425	0.08179920992573368	-0.17376861982453434	0.008534395552050994	-0.007004644372796485	0.07254188286827323	-0.018770160767750066	-0.10387344252496965	0.000735067491969915	-0.10828405288683435	-0.19252622125874855	0.07271224786152956	0.057906157827532015	0.046709094502508625	0.13029284219458112	-0.06650318903039253	-0.14311141431548638	-0.007002977401106954	-0.03475002997059105	-0.08422957167700687	-0.007984915348779596	-0.061160514620458475	-0.18360052833568313	-0.044117669420341836	-0.11363751667038574	0.023164806634994352	-0.06560347642042723	0.1111631473926008	0.1603866067267866	0.06793813693426445	-0.15510261819833202	0.15051959981068544	0.15757204455322044	0.0018790511307940764	0.13229261603355322	-0.05516751380466781	-0.18662459396669448	-0.07602844324521969	0.17293008660447565	-0.14910799211497872
-0.0005233359072315859	0.0034261091608171245	-0.0430793883630029	-0.043960939148931705	0.007224913423620272	-0.057081931876768	-0.14614288140615994	0.020807653969462898	0.10834436067161922	0.09381138464826967	-0.07487008602312796	-0.11525116790708634	-0.017711383759024882	0.1576405101342558	0.06333841814794551	0.06996118263896177	0.09906212077351331	0.04068010961361137	0.012060660102898454	0.07910614744890057	-0.05272453989537984	-0.13325818565719155	0.06853852353404152	0.13010883120456612	-0.11037615422780671	0.09465069700913278	0.17008534947637932	-0.0003764163588475431	-0.08225488340972652	0.012301867352675563	-0.0559906273497964	-0.05827750697584437	0.04608117799518306	-0.16421747060858785	-0.14439956871968454	0.018869996394066415	-0.0013708172196681093	0.04556446240860879	0.18051024763391393	0.013305574670070564	0.05985557484032554	-0.09855771179544384	0.07679376635165372	-0.04941592996029511	0.013664564666085486	-0.01000516824001086	0.10246513238099433	-0.13133760241587522	-0.21549640406432657	-0.021344017011096124	0.0602433809571581	0.007569826429207486	0.12562917371333351	0.05911274824159081	-0.0522216109877532	-0.2300294906032278	-0.009067367681032884	0.10380217617027913	-0.042162614787810665	0.00819440786363034	0.043586008996914255	-0.10702606739275268	0.06232350302487307	0.1771936755827834	-0.022355846110547705	-0.10586284366358951	0.0014068282042097148	-0.2224370176856436	0.033690326397661605	0.045008529315701234	0.17775764425613266	-0.011416177821917362	0.03885270538688795	-0.08470468098599869	-0.03564271205250787	-0.14263494489072864	-0.024563725174305995	-0.03635316922633614	0.026493693460432913	-0.06894613805924353	0.007118895268444084	-0.03337284410101473	-0.033149938829951424	0.012498411531331093	0.014074883814703367	0.07372263168024264	-0.013365610653646921	-0.024484266236333305	-0.01983547524767031	-0.06521108038707946	-0.03526920605615388	0.20323072416368135	-0.08708691380895692	-0.027865633387930938	-0.03895697771367816	-0.02471716122443995	-0.02044374922852352	0.039293397689712246	-0.16276883160525074	0.10237486422718485
0.06325827996421973	-0.12428715860631348	-0.22689052683142746	-0.09770721597483412	-0.024266646142712255	0.25802712665715205	0.054325696497427335	-0.18077099824612702	-0.06896785951752546	-0.005299477646934073	0.025402226843001512	-0.13143882236678478	-0.013460252709137218	-0.07176391376105407	-0.11038261261409414	0.02595955301399233	0.07735233941748383	0.08410376827536291	0.05743863511338761	-0.049695988897301716	0.07143479874691051	0.030921907076017566	0.013369547304027623	-0.06114725903360386	-0.04968933513360951	0.0074109107393231025	0.24398890307621585	0.030124248009139015	-0.06115871779898127	-0.08323894449694429	-0.04918374988424427	0.2177263908372965	-0.039922810276791613	0.09068436953976076	-0.037593505905697405	0.026157702925580634	0.07917212134366478	-0.05715326337377291	-0.06415135719793529	0.1658953663638485	0.0984592894895797	0.07906638792841991	0.07872762931229141	0.04594252648562249	0.20177684348097605	0.004361050957812989	0.05772866388570119	-0.14509129285940126	-0.08247031506858499	-0.12008189998350405	0.12746398245077004	-0.255278867050556	-0.04022420084432924	-0.2993047731488948	-0.0831423598862184	-0.04909837010206825	0.1385258465544783	0.03963635723844009	-0.08333894531359488	0.10664065310554888	0.0017961595866517138	0.0037136380002423903	-0.12026715077719921	-0.09896026468239691	-0.08250951538012681	0.0046428447710414045	0.007822599873645086	0.1544092663524045	0.03850551679378344	-0.2707562544135522	0.02629123130203921	-0.14496952461343607	-0.09661481307537836	-0.08122055991999058	-0.06633383235123018	-0.13748925093056938	0.020343159105600448	-0.1410843204484262	0.03566275137816796	0.22366421576992854	-0.1329299255563934	-0.0284510340041921	-0.252345736251247	-0.03008026325485741	0.06429243989530525	0.07208762920898322	0.007736413476558387	0.08893709304582209	0.25460240641865634	0.17125270229230735	-0.052250391077193856	-0.14511380696199158	-0.04061528446094447	-0.09469827656173482	0.04513477931272406	-0.11811935394294981	-0.007219594972334941	0.08376511971321415	-0.01005758472527062	-0.09464564145790702
0.11722710245129535	-0.18789809447538275	-0.034246344822213746	-0.004213009986985331	0.001590865839963108	0.018050053947522494	0.05843389013881499	-0.0037031487403127086	-0.03836552865341584	-0.04471080035793997	-0.06619024443532914	0.07358212882488074	-0.06784691177682643	0.08507755339041993	0.0016752200531026428	-0.052125304703885766	0.08588670598388294	-0.07296966408117664	0.06381841708301048	0.017674481209876254	-0.05585985516212465	0.049586194182849985	0.06067879493825951	0.11213886038458475	0.0992189759340373	0.05117531143582408	-0.11306109851450044	0.2447573057344762	-0.13496613076790712	0.0949263174282309	0.04312272247984771	-0.11765374254914636	-0.011874168675339644	-0.0006573151965206608	0.1305574356174598	-0.07532547717491508	-0.02551209652092681	-0.23599871918323037	0.1782765701096661	-0.10705773410903473	0.03269108642391749	-0.010106148411715367	-0.009800096678333994	0.08737616225528376	0.17046414279103264	0.03321946366374686	0.06459503058547669	0.032803423632843894	0.0977772659817926	-0.04629185981939382	0.10021808564898901	0.11085010462079573	0.10468333376490599	-0.07255670031078545	-0.007454846996371304	0.023934423513505644	-0.14163036451846214	0.16686079418951488	-0.0013197839966741195	0.02320086748162113	-0.06130289225529485	-0.13277391732893723	-0.0604029885474771	0.01709238470553542	0.0640813641035443	0.024085436340419094	0.029586438171051638	-0.033701054494323764	0.049624856624542815	0.1481544644383556	0.06678801173324757	0.07703480679292934	0.029242955771273026	-0.15094557435163844	-0.10446665306312433	0.043267886194878084	-0.004911546071545171	0.044134753995286956	0.16629749868865346	0.07241606440971743	0.12520842822620518	0.009440673289521653	-0.08072156774844398	-0.007253413184152844	-0.08251124153112317	0.15192639191041324	0.07816294269093502	0.05796615357468167	0.1235943204512919	-0.20342261548100518	0.05881438621416901	-0.13081877429988112	0.0015671922903978403	-0.031170759246721448	0.06617423336838196	0.02281872889609554	0.12675620868759982	-0.05026864430817257	0.06990314639993885	0.018780538388372302
-0.16380026466370953	-0.09186164629045121	-0.012604042263005676	0.11131304714529895	0.046372305755711454	-0.11675282417725688	-0.019137066563064284	0.20129055432447748	0.008863908164809801	-0.03617183504922935	0.04535639169833509	0.07150816801034367	-0.04504787100188186	0.05113185618269519	-0.03402085178176541	0.07189266565334806	0.0636604384932813	0.04726151800629267	-0.0759185980638048	-0.08243185082739661	0.09961295658653671	-0.008681299626200963	0.03955071316417539	-0.03410687396817029	0.09447495194027568	-0.0516782646756991	-0.014304634365723627	0.0785674390122682	0.12511827666267325	-0.05237592910266834	0.19539457533825508	0.032094079553057556	-0.10188649323806832	0.04967415302791909	-0.03830555352308898	0.044069824937816714	-0.002447340329577914	0.008452938807321697	-0.08689559762308889	0.10101284506168594	-0.11560723091583626	-0.11089392300281083	0.036736034914748666	0.17127871634154107	-0.026163262216070335	0.08350394119075112	0.10624112866299013	0.08119395691330292	-0.031800484347253036	-0.10910455800826105	-0.22591877221233062	-0.02843322840415707	0.10918885029677676	-0.11586052937727405	0.08790792320425113	-0.09335689595306536	0.00887632326215807	0.08382794201314932	-0.06746492799401797	0.01241274477084118	-0.04749045911425482	0.06733599533128398	0.023531716848463724	0.004700861530759416	0.14805947422270396	0.08257943383702596	-0.07413476922383258	-0.008586078153761613	-0.007589878507966075	0.007988906909621608	0.2516887784525616	0.03315363623874201	-0.20489403648393104	-0.05408538341270648	-0.19323720874958086	-0.033535980873489656	-0.20758911519968817	-0.08919424636948323	-0.15578802362321617	0.03528890727567423	-0.0015168118337287124	0.030229882162625385	-0.01045513885685264	-0.13789598625514543	0.05368110863924946	0.18803978312793831	0.03898849233473454	-0.02816801160555348	-0.14282780579806104	-0.09031477067570717	0.04579351180129011	0.10812059754181866	0.032759219255621655	0.07998872897059835	0.07073752897670678	0.050653439138591765	-0.07255548317156524	0.03824954518800005	-0.08302038419773736	0.005615364700638863
0.03308530310928082	0.1678783807386855	-0.13101757399097727	0.04815060091513133	0.14812365916235948	0.07588477658387965	0.08299124156996028	0.05876949541020869	0.1297073052578059	-0.1088658826854478	-0.13897076618845222	-0.0009260008674585426	-0.21621621892840115	0.12306530331109508	0.12202201161127989	-0.043335018496433224	-0.03489092915028149	-0.007234836126900149	0.005202084788762324	0.012500401132013967	0.05607673474413254	-0.01735431488603551	0.09486277334210365	0.04439932023071915	-0.060425935373293244	0.13377437853010604	-0.13582728535252087	-0.00921686939191233	0.09709541490075724	-0.07230731049121446	0.030955564676715147	0.05433388520438614	-0.08595522498731017	-0.006644524478810546	-0.01565011044578751	-0.05540467061057299	0.23024113359611265	-0.07632029316388525	0.1008385409792438	-0.03927990566519104	-0.10866361888852819	0.010281524283489222	0.06490933843875007	0.09268336579855618	0.15655951647931382	0.2951833476991908	0.025015187715406284	-0.06631032760476784	0.04501545372649741	-0.026621295040649164	0.09218771964239647	-0.12971642963657218	0.23673590816974782	0.08518782277414515	-0.16762630186961605	-0.07090276947699814	0.08124807238594849	0.1182131475941111	-0.12722375934990748	0.07101302088199607	-0.19490078783618006	-0.008933558116034938	0.11120468421032065	-0.0553991139517826	-0.1510667820803583	0.015296951559866644	-0.060796212004327076	0.06295606791602111	-0.08853264322180604	-0.07726395458030624	-0.2022820682264936	0.016756591716286406	-0.016090402624427538	-0.11894675412565554	0.019379871376709202	0.10266800451831765	-0.021858733137072036	0.026816928089453518	0.02715886470521205	-0.12043298588922188	0.20560202755497695	-0.04709721305896947	0.06561162018602708	0.07686455110647816	-0.014086201120750364	0.060554826880519524	0.024535637047854345	-0.1411070243823806	-0.033227270125008826	-0.06125502714520249	-0.04617450480946798	-0.13041015690408606	0.11289811996507766	0.1601992654613413	0.0978003759200315	0.1270529224147143	-0.035012385527853365	-0.0627778641105196	-0.07788058787060383	0.06465437319683913
0.02249214990351329	-0.007722010319551408	0.13032332559176715	0.040468981370998844	-0.08386576375205848	-0.06809934096959057	0.0660720831724497	0.10392909251115355	0.05443737308829229	0.18880523537606866	0.16235104810414128	0.04287113634658966	-0.08345865796781032	-0.13064801661374084	-0.03920548513402258	0.07532189318109807	0.19777707266119351	0.041268893457747584	0.1168723071391465	-0.024493899644785676	0.06353216326739704	0.08230153641308408	-0.1941846192283419	-0.042202787057053166	0.09622432387210299	0.030712530202427733	-0.12010939585578406	-0.2431003960563355	-0.034133501373219216	-0.007158569289387905	-0.08857175577210008	0.0143734249965455	0.05146202353100738	0.07101074424683342	-0.23559465157936704	-0.13105463011193275	-0.029912965176294458	0.05793365905946845	0.05019158890468182	0.04790873224891562	-0.03834187708305466	-0.032778690633377856	-0.07283292684217407	0.08028742202201046	-0.08910413424608198	0.08932093210148286	0.020493406034229972	-0.004600658874593592	-0.06569166936481456	-0.1355554696740461	-0.06621775666703733	-0.03371087545053194	-0.24021834186445917	-0.020654942143149342	0.09840068231380919	0.05728819900943014	-0.049974655472204275	0.00912657934934349	-0.056076095951433945	0.0139722526264938	0.1516528343596948	0.09569642032997762	0.05207942908596867	-0.049255153714299026	0.07227564428080194	-0.16330913678887485	-0.026985911094031274	0.0583722681749084	0.07404212140477515	0.06688479968534053	0.029326488646254336	-0.02088278321261227	0.05323599910241049	-0.09490197618143388	-0.08446772632932499	0.006204720258078745	0.014358249267666452	-0.18330360632403153	0.044257223006771984	0.07612319070718522	-0.008254021052531361	0.23742416571496486	-0.06829351063151862	-0.035617376658718225	-0.03875591873328859	-0.008512843076965669	-0.033494223094036366	-0.13585287711249547	-0.054657820635654525	-0.009512709940430717	0.12302211337170497	0.22038987401850912	0.1354805392270747	-0.07753790296726065	-0.06957856021514121	-0.015932857750935097	0.17626605909606147	-0.009622732818059782	-0.13222986795179853	-0.048870654222204005
0.07525852300741065	0.06899558607465163	-0.01069174582968441	0.0686160829010661	-0.2273172202546832	0.010164363983828842	0.084214036656618	-0.08401738188206738	-0.08114553073980603	-0.17663519464207408	0.17137686087238901	-0.05856967672461888	0.038320971439336486	0.06105984335435373	0.1499208969711047	-0.01551588909649272	-0.06681552013389055	0.01576936161906885	0.1284079877645998	-0.0018791931663235935	-0.09975253388468462	-0.14148278861409352	-0.1290145700816775	0.09605567535268368	-0.034684847332543865	-0.05037177067687577	-0.07060336415700001	0.008343614162219638	-0.030187050429966094	-0.02731321437192525	0.13372121224145542	0.15650051051545424	-0.15905359020905122	0.023866710589789283	-0.07769967866325406	-0.005078089452257307	0.030609246265363137	-0.009346583265970303	0.012673076383493131	0.06994713994131924	0.02947000042149294	-0.06533390661057867	-0.06291996069703239	-0.14917260161889845	-0.08342233507676619	0.18901255866953542	-0.078218303524227	-0.11962404346827839	0.04835588950817185	-0.011037003243115457	0.00025326755389277995	0.13633619987044576	0.05598358204473817	-0.03256313268702794	-0.046164295042425196	-0.04762848126541619	0.10426634047305829	-0.03517828360056204	-0.18207498659426885	0.007666135229013807	-0.15081796694970406	0.2128367184320343	-0.09656680701671592	0.002369922085829201	0.023852165631293682	-0.03045846354558495	-0.01802007864416549	0.042183208314298774	0.15262159587962787	0.07652975847549415	0.16169825873194724	-0.09486977730229351	0.029818912495252172	0.017861054726847476	0.03510912916767348	0.1467399584141252	-0.022906900481637748	-0.0451692215480177	0.052351543075163154	-0.18360471229254013	-0.024421263914372122	-0.013420159099244421	-0.09203586163069254	0.11240748784088868	-0.09402813228617624	-0.009237106587455246	0.028965956766859056	0.1377159908431536	-0.0015354116622995058	0.10071817620085298	0.07099305589351648	0.01203839617523763	-0.10876357581139724	-0.1434580860904349	0.010585747887199867	-0.05426968739026136	0.1096635379520348	0.07654161157961673	-0.010219922750323584	-0.11847522902129974
0.04993237690561099	-0.10179113820192902	-0.07790110277113495	-0.09785860929433046	-0.013850102193995345	0.11660094906148245	-0.007560193562651137	-0.04451556251999942	-0.15527791718149175	0.046915579676809094	-0.08897089127516034	0.0005446939626574493	-0.04177306085121324	0.08553897143501318	-0.01691548589378876	-0.00601348254086776	0.10336849511183467	0.20931217705444088	0.08884438199734938	-0.014913916494619091	0.010745395791784976	-0.05861005691082236	-0.08334611977385731	-0.062264531685198736	-0.07168822015520847	0.07284337987013237	-0.10706529265784274	0.1329063807744751	0.08873631682943348	0.002050172936766847	-8.91738565911477e-05	-0.05552855521300889	0.028373902024594666	0.1222590813666439	-0.07031748474067369	-0.1583443348840598	0.07179694559630294	0.02505443603493347	-0.10065027912525124	-0.07347350669780915	-0.08590107049834023	-0.07251220787000874	-0.032368275404118775	-0.012868647002765634	-0.0582580430287179	-0.05641098567366138	-0.025440293389911172	0.01621227280962072	-0.03799441879371488	0.11586379743428202	0.03477988097987244	-0.1608939834143285	0.04351602566758392	0.04661872846608284	-0.0207435952157612	-0.14938671083908195	-0.007058237968490887	0.017511886603023625	-0.11253204816692873	-0.1583894497893647	-0.017395595061362436	-0.02404482683718609	-0.04172656420526332	-0.018311753202192072	-0.11807097505129607	-0.024700687042098924	0.042221940923656366	-0.034993541487285194	-0.16719724717925522	-0.04792844309459641	-0.11329870273628198	0.018653824157230162	0.03164527447788593	-0.16709696358354434	0.07590129705821891	-0.11627327515288251	0.145710151982689	-0.004438064047023185	-0.1272796183717643	-0.11512688877235353	0.032394806749982054	-0.039172342284785194	-0.009665390961814083	0.1577417186717818	-0.07249780024730332	-0.005718145201115722	0.1396025250595609	0.039779902980311074	-0.16113689572092477	0.04739146514030625	-0.11629077707193741	0.14127810914573402	-0.0780791958912249	0.29695095077456646	0.1467261971655529	-0.07966125696279787	-0.015395640871928955	0.10269234079036271	0.07760174678656029	0.0506100714379354
0.125215903696611	-0.012295368412274656	-0.036586111965521	-0.03468630617492289	0.08583732319721273	0.03643866039534794	0.029128807350606953	0.07952192845062107	-0.20508015364142113	0.031149086903738278	0.021874359936713515	0.1670246200219513	-0.1527724121570251	0.1557186632376758	0.007542494972306763	0.04889343836036932	0.1672653312079444	0.0560721366686201	0.0400368289462561	0.02435224610488605	-0.04837068179877465	-0.0028070194660014714	-0.07175910362102363	-0.004358460360194705	-0.2336122833630566	0.04295487498369327	-0.012166831722621667	-0.03362037366667643	0.021851936148257322	-0.14335639229654407	0.19291796709417736	-0.010258758295768134	-0.01458399372514538	-0.09676473384414838	0.002394638244926125	0.13888683568194438	0.10358880977147428	0.08563307337215617	0.0544625276613059	-0.03584693677597443	-0.14501631670367018	-0.02014777612280806	-0.02358714645336772	0.10487559951229933	0.03093904348842046	0.16110916394031755	0.11971230355312654	-0.04564956095040957	-0.17935455024352254	0.13855777244057485	0.1361177082172451	-0.13677609966750454	0.15114235700940948	0.03843159191681018	0.015976705932772	0.16147811085597868	0.13465939122537096	0.06496991078747226	0.04732150898493496	0.06175719058983487	-0.03986752860813211	-0.005589677417722438	-0.09023172685053756	-0.03316973517547359	-0.0366633379635377	-0.06358217403127855	0.013853960435461185	-0.03239808389041296	0.05022347203519739	-0.16223206201134738	-0.011227800709730966	0.01334266450986367	-0.031103202668789368	-0.01723926998092313	-0.15852460107298574	0.03586378442361455	0.06474892901326894	0.04923134879032853	0.10382173414698936	0.020061885666980205	0.0478791995132554	0.01560907384568524	0.06875507195924942	-0.15768805796036273	-0.08932580815930402	0.1586908695725087	-0.24604358220962053	-0.013982207141926562	0.11710404771531281	-0.009204686123136284	-0.04050106825449482	0.012866241590303643	-0.03531228204268812	0.003084949275693916	-0.06833670087826618	0.11086744199557241	0.14257887309001055	-0.013477323163697966	-0.13857294610848775	-0.052487397809556295
-0.018479915223414224	0.05055388769032081	-0.10089272869993672	-0.0769135029106119	0.05106761378588074	0.09389088098212833	-0.06261563518524432	-0.13332308314245764	0.3283011319565074	0.07813750566487832	-0.027155901025376423	0.08642185509275349	-0.012688916012337516	0.08680991716366163	0.015909710372819574	0.009127144632198513	-0.00931201393021263	-0.14489646064392575	0.19380949396209848	-0.09442263576141487	-0.13556564488136663	-0.021425466049633926	-0.09555329329836995	-0.005503532735289439	0.06893018202016281	0.09987626890307472	0.08147298159409098	-0.030608189490663844	0.005664586269739598	0.040787905089749096	-0.17578048994544676	0.057072291104478826	-0.1456384455519913	0.2045682218699653	-0.040452217840650034	-0.018698860240520025	-0.07688796434533617	-0.06322071545722811	0.2280145760235807	0.0939976018192966	-0.15492024224338044	0.1504420358663349	0.11932422751414316	-0.027700984740948332	0.03079509757444236	-0.0006976911547977648	0.19715720120207433	-0.07972068664540934	0.014302945457818756	-0.04281516493707187	-0.14407750995253227	0.21918961482088523	-0.11843582550186268	0.02131576721142469	-0.17320140813743107	-0.03990195647858402	0.04175713421753266	-0.08162117584395043	0.05868581597440353	-0.02776111406378122	0.11549613775281438	0.13617533984796623	-0.05867447607300117	0.007110451748964241	0.017886670924104935	0.06276304127079703	0.00092347036751361	0.019021201937634985	-0.02434064747951195	0.011439692563744056	0.1295349378259756	0.06417099282598397	0.07015418594423531	0.07233379898114317	-0.01538087778810355	0.03149864408375262	-0.10889031302364872	0.12701761349353802	-0.2783065940793946	-0.008717253457694654	0.11395269596656783	-0.13638801120113572	0.039977991761685115	-0.06829016019182177	-0.03696607743627	0.09404790949705943	0.019775732109751577	-0.20310815409115643	-0.09764255397315985	0.09745526121031133	0.04489427036382703	0.17489684708056405	0.16829191115624545	-0.03422451301467918	0.2503235828161844	0.002447966985191076	-0.09710239680762392	-0.06219105748849845	-0.22572188240826097	0.1610024777155164
0.15848907355221356	-0.10154460732677996	-0.025040982203902218	0.009779924599484933	-0.09603530521421139	-0.17596890890032127	-0.02955617134999332	-0.03219221808005952	-0.04282895946296382	0.011811993908633217	0.12783592515200512	-0.045552278676976886	0.009195117100307213	0.07445978705584368	0.05438582595824799	-0.06165912894341792	0.08400749841347775	0.05370563579247562	-0.11283551663994924	0.11762211038646583	0.1572474385758007	-0.07987015443354856	0.03541923086193493	0.05462114783499799	-0.04629188510796987	0.05708646631702087	0.016706751012133068	-0.14707443020153768	0.06364104791696956	-0.11001424162710359	0.0937724986899808	-0.06638368025878984	-0.013981109019319189	0.1564770317657286	0.04963782289139206	-0.11507225773370469	-0.09926936700719353	-0.06663301584348867	0.05400458060156917	0.03571039216131768	-0.08429322730135438	-0.11673460446125153	0.028158340508583426	0.0014260455433378596	0.22631777780791493	0.02934237710619259	0.17786579685344636	-0.1176040258984161	-0.16653459066697138	-0.11200952843974293	0.0978400134734268	0.1728925785230492	-0.08713765037682637	-0.06445310317993747	-0.0869808605042625	-0.18076222830209848	0.0603349378836105	0.04581153440704269	0.0004573066454672383	-0.1585499627005593	0.1539925194257921	-0.051056934053961354	0.05336259726718659	-0.1585922710319019	-0.03005691601058216	0.054516614596495844	0.018598348560397285	0.015467663725306655	0.04945224920487726	-0.11359606922681914	0.010993575934014274	0.0008854819424499805	0.0229856831877493	0.005032861774304528	-0.12732127739133978	-0.13737620885776064	-0.23455179248496358	0.0819723641227145	0.07856878705399922	0.08326202007052899	0.027942533189228402	-0.21339104599515962	-0.10267104917852661	0.012943918442382015	0.009987067441424293	-0.03786731487900562	0.033894992633264315	0.01932081911276535	0.011421048153191107	-0.06695997293659482	0.09821608352209135	-0.04214824953303295	-0.12602149124437115	-0.07709990128187287	-0.034907608062829	0.09940027883688468	-0.026937919686365414	0.015927546597928437	-0.12501547743284333	0.08672329445793558
-0.06641831173874083	-0.009995786930220745	0.1590546533392323	0.0513662358700399	-0.16282540477151744	-0.17742975425170254	-0.015908993671629415	-0.12191271538280588	0.06498747336402505	0.008363996579639817	0.02153959495948831	-0.06475266737446031	0.18635732273238753	0.2865385990307995	-0.030301427474730754	0.03503493223957369	0.058853470421220314	-0.028959655033343586	-0.08320727650348449	-0.09421471542902743	-0.1071896482160263	0.05013262543610729	-0.04638563907632476	-0.25364677843881644	0.04876874001833486	0.01881057096635462	0.13603273277767658	0.03687024056349719	-0.14002177849162276	-0.22296766407299812	-0.07349484424330374	-0.057549418509133844	0.09917495444961133	0.00443296930339088	0.113357383261588	-0.11180961935048453	0.09869391012434738	0.08134692626802299	-0.20365283331455525	0.1365266432921831	0.009372336708765583	0.038441931429363835	-0.08648961124284227	0.13820503125686104	-0.10523657685896592	0.09612123743913256	0.08068113558284913	-0.09813646942457543	0.21339067940773015	0.02314987983705683	0.07475123900530857	-0.15982453926446336	0.20403498465605593	-0.10974370689252859	0.12281322527317833	-0.09513232791092513	-0.047170465233129934	0.0933834399989835	0.09875017109044448	-0.12586030374739207	0.1041601422642461	0.09658710868569013	-0.09379538102996124	0.17422001783723384	-0.15757293176035564	-0.042034171606310546	0.05113523810297676	-0.08535265499222171	0.026381908567934098	0.023465002493115287	-0.0068419338600092675	0.08784963857345933	-0.024815478332721713	0.025199013080573724	0.11464718774879026	0.08632668992252397	0.06594573404544997	-0.12105152264894585	0.046873788650896066	-0.09638892712118695	-0.1313494951820274	-0.007243217518854725	-0.09042951866515898	0.08503010025068279	0.09604117817264628	-0.19715691667033444	-0.08617095014444748	-0.12528316764232364	-0.04754278434346068	0.05190029581045413	-0.022915888521344824	-0.057887276748305655	0.13801675942594388	-0.23048571725962885	0.12352169228957621	-0.05442882931554857	-0.0017272783033006475	-0.017899705958843055	0.16510580375766384	-0.1197736879600453
0.0007195808147507836	0.05274808153722027	-0.1482373823819907	-0.091732568477405	-0.014817853349822913	-0.0889418542436043	-0.0833303380139299	-0.035783598081385516	0.06884708848445074	-0.019812169980080785	0.12628628456589647	-0.07987263308527104	-0.10544516117460305	0.1933106561472822	-0.06735938647342507	-0.1312509332645847	-0.19778943816042033	0.10551121148215264	-0.03413026618074256	-0.0036957237313641617	-0.023284768431949827	0.11859234377604932	-0.028553250873515557	0.2482801812161692	0.009205189527987231	0.11980345377707141	0.08155680748626264	-0.0038586693287912277	-0.06830824563435077	0.03319639285665537	0.04950242523902352	-0.0535131037097636	0.019233418690057597	0.10969712572870449	0.20698095468043343	0.1128862466239892	0.18579964864297283	-0.04647396551416139	0.05486175738237052	0.13757299757406383	-0.08962082505646117	-0.049390786753851536	0.17379047618352503	-0.10590094274128099	-0.13198812155007786	0.14094848125439569	0.12161678264507313	0.042947195758279495	0.01890527143566844	-0.043853652974372874	0.05719547424747857	0.15306282020848258	0.025516636407860355	0.24618971124722486	-0.09779897900546543	0.0016647003401911184	-0.012842566752056672	-0.11654655006789648	-0.018529115742512554	0.06045888611394351	0.05724444552668611	0.2100857488196666	0.046446718332104606	0.14162639178768355	0.005063715969257909	0.16335793340144716	0.25618848005598366	0.053110747635874644	-0.09926590154515813	-0.05509040280110406	0.048034353978985964	0.060029638104353904	0.06763649866247695	0.04983083121655762	0.000698491625593869	-0.050697714968085804	0.040335697470290865	0.1793131691105372	0.10065895673243613	0.04596165726955987	0.10224864850732274	-0.03710525072340124	-0.05082651460833204	-0.06542631764620897	0.004459016040246227	-0.03411161686856941	0.1205238221620167	-0.0453690272594321	-0.08105604912469733	0.20377360276905168	-0.04388618671132928	0.014891627033078569	0.0450357486228108	-0.11366931189208151	0.1234617545641266	0.06371190404112276	0.18221321486432118	-0.0672709976513233	0.020858900474470612	-0.0003203357117669313
0.025934220140178595	-0.14546066348085177	0.02221028457457079	-0.14237069011107548	0.03583340711969214	-0.21324521178732847	-0.18868051302372668	0.08070364531168163	-0.05323570753606018	-0.0888809927542505	0.13995725534294426	0.04702998395136295	0.10287903317928512	-0.015790331014735877	0.2663108704500877	-0.06051821330407613	0.17870919006604868	-0.00843971210218405	-0.1654511742364538	0.06560670802254698	0.0276766380636691	-0.09246009726596816	-0.09439728243757935	0.0064145909229568815	0.0339843319721436	-0.23193422725362828	0.10548543804311222	-0.04959799966537799	-0.13824832263800302	0.09410665514519308	-0.004063586672583708	0.12448733425220786	0.047069397961698144	-0.004346099355660305	-0.015290970752607807	0.06971172961565338	-0.0406884344260478	-0.07107826069296058	0.04978439180383424	-0.009933598656823266	0.003363181526122296	0.1081355239269102	-0.011387660773574096	0.0004921970143645411	-0.05360640598035891	0.0394838650439051	0.035898215785109086	0.08972768683134133	-0.03986140557947421	-0.04578358343489769	0.10031016724866983	0.019007757449277806	-0.09325939649072293	0.15346885048680298	-0.16754533932418395	0.08200508282929615	-0.1072416283788622	0.1875149712835067	-0.15835875635014435	0.12945961161710254	-0.007490013749696112	-0.04513405982284866	0.01853966332368827	0.08358395910106804	-0.0952905860669755	-0.07637851766089172	0.07563223651863767	-0.17073324043044055	-0.058422909319208544	0.3039344252983069	-0.0817756506343897	0.12459756985268812	-0.06174622304951323	0.05422588322580213	0.06543556905962175	0.12339243003519719	-0.02452246103743176	0.19144384021960478	-0.06219495941697428	0.014914331002224517	0.02342595687273886	-0.1122247550590524	-0.028587225497912063	0.024584643388249824	-0.02899471648265235	0.2492181854324391	-0.08484321027671032	0.12782468918082468	0.08501695212842311	0.006601809598230883	-0.0851832875573159	-0.07675209920442656	-0.047919095808482616	-0.1785741281946263	-0.10038115996030932	-0.14824765153636427	0.15395748769972076	0.07039370669910772	0.08734291601613148	0.05645548508938116
0.016017597640224472	0.14607049455630294	-0.05359193225339816	0.011021133193449823	0.07470588278241232	-0.1322432796045115	0.3030855968220124	0.0024017916170020973	0.013748324762889334	0.12750150722774833	0.09428924312567202	0.005663394494529887	0.020877136610769148	-0.14908696597800492	-0.057216106561669	0.05163270815114889	0.08487635183976722	0.12035239795003679	-0.01205034939215845	-0.13061425734321291	0.1097727775420601	0.14967232476279307	0.09653456977727852	-0.01468779349699122	0.10775897461823117	0.35870753222242446	0.011606404514691335	-0.13136520682396458	-0.05250139838163117	0.06254760003040509	-0.16146015898842167	0.019974978635883094	0.04176371190794257	0.15990645484299149	0.13101089373504282	0.09852024747645934	-0.21464505267013145	0.0980989549502073	0.07088450785485388	0.028490214728795652	-0.17301155925707187	-0.07790800542667141	-0.11668227695340663	-0.19293154616393585	0.01010377887677733	-0.06933039822629103	0.2620994753522256	-0.017301676391944895	0.1383611275057653	-0.1569099902157632	-0.0481498284678014	0.005936925479939047	-0.0981913436921119	-0.03559778968216588	-0.005411972324149232	-0.019964953517124323	0.19316184137585546	0.04961997750510754	0.04541521673191601	0.05361516258297686	0.057129188169596695	-0.013209578959266638	-0.03207464742812132	0.025518301108878413	0.1066889872073221	0.12825492540960826	-0.023332430914696452	0.07678700173378963	-0.019458466303966783	0.003074784030116235	-0.0401490809598914	-0.01649524391571778	0.13281053032684606	0.011043100698218206	0.013528250855231792	-0.14095707179236708	-0.039813833006489135	-0.02756515294799387	-0.08726453821670078	-0.00285554469208406	-0.04500360246715649	0.007932487701802524	0.012150300981893443	-0.09119507951734414	-0.030690835677327128	0.003357831766178239	0.1161491896225728	0.0408556326874301	-0.06659725634885538	0.04370779943068768	0.17161495147870331	0.09246713705195544	0.061128143699192124	0.07255901754823216	0.14393476987051895	0.107562679401766	0.05861484361748017	0.13252795168249729	-0.1014602583208627	-0.14680457357202845
0.01482154781992277	0.006875810704583855	-0.04952289688432111	0.08302244980476498	-0.1862863586451236	-0.053995483102769117	-0.05969086193444646	-0.1645325258166634	0.14563828714969232	-0.14160583851545372	-0.0678859570588641	0.08262067878960389	0.06610888834435542	-0.1087096114348362	0.06596245496620816	0.028697003553725873	0.32494260578656065	0.038548998306293714	-0.014124617491424097	-0.08512125620922466	-0.061207816664774206	-0.08330992696917792	0.1554117711372733	-0.003894438374208341	0.0665130846187468	0.17070091805265772	-0.23574970957015567	0.12767709608190214	0.0221851178995776	0.043504837164044435	-0.08361303785217715	-0.0726827186213859	0.05388753844382575	0.2599236602527146	0.10031886130197128	0.13089823286729255	-0.01573417679992673	-0.056480757660065	-0.06935263797874829	-0.04541271444031257	-0.2052503125776639	-0.07304802746637473	-0.05603531560598432	0.005658739530393707	0.03168098186741386	0.06370893512766986	-0.004758040544720813	-0.05880846058888897	-0.19643229442379356	-0.057533481450273545	-0.10730270665452968	0.03912794074019139	0.0784905292404591	0.08750742891315715	0.11151609596470295	-0.010198754841305427	-0.05357483508100191	-0.04861111298457504	-0.15398535851291603	0.08814477336897701	-0.0284054307434607	-0.13049112948518704	-0.08264918461798562	-0.08841978627906376	-0.011859261797746623	0.14017681967559534	-0.043695095098665544	-0.22525055485519618	-0.01891803351589201	-0.015909453016334067	-0.023498541757860862	-0.0688371291313973	0.01920576460991264	0.0065089991974742484	-0.00248303141266471	0.04279243496036977	-0.061046048105822474	-0.053288177872672406	0.13007793181481997	0.04963416762040679	0.07923848999504064	0.12247730643599278	0.05259441806248001	0.0946625316955608	-0.1530296935627703	0.007109030194380068	-0.022357394965472555	0.197163181187703	0.0916794129522273	-0.06088508990340533	0.03795112702911585	0.018200303423128818	0.05841434222484022	-0.10188424693746519	0.03584345299539538	-0.022815134928823436	0.015557041747761407	-0.0285099098635068	-0.052766797132320895	0.12483910803296099
-0.10515459215528945	-0.0977713571873231	0.005443769277544528	-0.07699400998014005	-0.08850286322627987	0.010229955050790199	-0.15046729250087182	-0.10143904631433925	0.20871789880357763	0.058792807186500956	-0.058301358150009835	0.059862238247897444	0.07363054339903383	0.09944148693618458	-0.013713179012770126	0.09754338246106442	-0.23095774611980355	-0.10682784165271776	0.016387140173645575	0.05133816186545772	-0.0989450088774316	0.04034240081137964	-0.072717005908325	-0.015489738197468642	0.0985489099169061	0.10019413550115924	-0.09886397799659496	-0.10572516138985041	-0.051783537340104775	-0.0026746301172925133	-0.06710912802083642	0.10684443187250903	0.0364810101826592	0.02767011268131581	-0.12666373264493105	0.1390132727341723	-0.28252983028413003	0.09843942134124956	0.07851247286535196	-0.040017724178917746	0.1272984218117569	-0.006981004256415232	0.006243170332744294	0.025616091181993872	0.31962782861652084	0.12157738322234571	0.07189913441929506	-0.0912772308063659	0.033979236583625415	-0.08131211029833894	0.10854005349728728	0.009968880874974625	-0.10911638665459392	0.03458719450621728	-0.09520896620678886	0.017872401364932657	-0.06486614279893885	-0.007443502089531823	0.07229647881521435	0.012966485674438233	-0.03334022767928478	0.014235300365456945	0.06971822974617034	-0.08760518643983084	0.026156926088324862	0.12510925623241786	0.07265869326591728	0.005775416643548766	0.06397375066988947	0.04531051178625719	0.09208280663607625	-0.1890521038340543	-0.15726860494269176	0.10344057054890073	-0.15052791761614406	0.05215636826013214	-0.033599932031186885	-0.10543646594536844	0.03390079891807222	0.013839541129967112	0.21108686784024255	-0.06247924041551269	0.14401101200691738	0.04350274548519226	-0.052368102703312214	0.08853123240796897	0.056606771352108336	0.004260617949716525	0.02590803104369682	-0.05124975115416091	-0.08153152464010606	0.07532436805772039	-0.022553795854695146	-0.008008299824909249	0.02791900164660777	0.026528834478380815	-0.11819758614757285	0.12347061268681585	0.020743836839195007	-0.025137428343202522
0.04308452428875555	0.02365433786155441	0.07720697646400236	0.053845242955193884	0.07178462289962667	0.13463227425016405	0.08838167260061264	-0.016118180588769643	-0.11217913516543718	0.16775432753746267	-0.023268674980515602	-0.045837856044256595	-0.17301554658072152	0.03384902956553423	0.01501926219917118	-0.15152370258118134	0.04342025292796821	-0.04997164009416823	0.2690315007288694	-0.055640455108510546	-0.04323096171751001	-0.08706582382860159	0.12644660994246962	-0.036580796314756164	-0.07248740047726758	0.07137772472868957	-0.13776732180932807	0.06250854467680084	0.17719515050293047	0.0566607832835089	0.06366598414722426	0.08733164765558267	0.1710733027264103	0.11931672421894164	0.043966432516854746	0.09199334379355603	-0.08860216438654546	0.07879441611204588	-0.1017725491582987	-0.03651871883261735	-0.30825621751432375	0.03998447881453063	-0.06438720111083528	0.11118116153313565	0.039158841446274226	0.1115771071507509	-0.10854266924316221	0.10383501017790944	0.2119390738314387	0.07641504662171558	0.08063259420549568	0.015722620209764802	-0.050893575753856966	0.0780295502189675	-0.151118524464052	-0.04173875087985713	-0.1751991303990854	-0.07153569203037669	0.06395554663827582	0.051502200106390617	0.0059146953682713685	0.01621514475204193	-0.18858646178642094	-0.03610623116123511	-0.06813412999158402	-0.06591634693051314	0.06121491085586256	-0.08605066181040207	-0.06046808501274109	-0.20870336347036886	-0.02845106515503441	-0.10732418250130388	0.0076446041503044895	-0.09509258192395875	0.01045422455492162	-0.013067066665586125	0.1671130379748867	0.048580638044631544	-0.18438939909949964	-0.12708249149240092	0.005520344653289864	-0.09298478949052959	-0.2968368430235852	0.13516752589171174	0.07264769846903946	0.0517834150589364	-0.06072802784207607	0.04334087189486636	-0.07077918604564161	0.02117182218293994	-0.09204107885795096	0.15136889828326405	-0.1568389189229723	0.12322838295108313	0.003935372480229544	-0.048946699534199084	0.01891226179626028	0.07274869705300396	0.13724573530130424	0.030593841892504095
-0.08944341641566547	0.005571826523926847	0.19543984471068246	0.13521649522031448	0.09087634781243586	0.07883099524020201	0.06586865880427019	0.11468588988539961	-0.043061290568351396	-0.12221642335676944	0.02260063112237754	-0.06338957551004948	-0.08551944236624483	-0.07122519569721592	0.24668933273621046	0.0133040639564967	0.03278859527085389	-0.12425808383447719	-0.1843750841211788	-0.06007355167817357	0.13992806964864726	0.049739234269427744	0.05222196003770731	0.08643216070272144	-0.06038978796228641	0.15615472423857818	-0.06167725740653632	0.14040385096952684	0.037587212702370164	-0.17890451542463223	-0.07662127263755175	-0.1740394073865577	0.12001371008999485	-0.011805038324168599	-0.22284661853805987	0.06550259631086941	-0.053418004847478696	-0.12956866735833056	0.15349511572438787	0.015086553589288954	-0.02932083887606877	-0.0410354929289003	-0.15132794691577722	-0.13260458027523725	0.13529022129641216	-0.053455314320347905	0.0030883718790595026	-0.20469387918198187	-0.10867464917250502	0.06098050453724246	0.06482148415321926	0.1671992118020871	0.1359254628986447	0.005535244507635887	0.046824385197700755	-0.02745960814845742	0.2298214420435861	0.11136528129889087	0.012586909280896461	0.03634853784148769	0.148264435812052	0.04899405691814046	0.15586272555556535	-0.19327566617511172	0.040906652187361135	-0.04843799370321577	0.19078677033115574	0.1546420137911224	0.0032835809101306665	0.15341400424108045	0.19743971232647645	0.02149067467411784	0.24415008609306274	-4.9274480068716784e-05	-0.02145209503359089	0.10132555806187882	-0.03912077009550923	0.000362029076304608	0.13732457290705338	-0.0075210952169930305	-0.1706072099746894	0.03669445506060194	-0.06962935790523948	0.09588500921111849	0.0870597932187088	0.15120280911155248	0.08951386122302467	0.1188941889210097	-0.06836028353656971	0.09095793711327345	0.1982407031068191	-0.06926176245644673	0.18324621482606526	-0.05493500912013305	-0.08532192500964382	0.02962004433548381	0.09620079248324581	0.09981247791368336	-0.08377536069646414	0.04013772507576616
-0.06855549795962974	-0.14889222560705767	-0.08512413088278754	-0.07504911194207795	0.05215951603525072	0.11521833725056463	-0.1473520338237102	0.034881999823296525	-0.11576634941841972	0.07098967760267033	-0.05020735208156459	-0.09433554430186851	0.0913388011440576	-0.05869219676132726	-0.032314982248815835	-0.22199888414512517	0.08017452409579952	0.08105542719882115	0.0005457842654434451	-0.1400100909380224	0.11497836892626037	-0.05720859598477836	-0.05016653311380439	0.23875807506929464	-0.07328445939816322	0.0820245097596081	0.05611557773766984	0.039017216503522384	0.02181501760357781	0.037638856188919934	0.025979027668406884	-0.003603090514567758	0.1525895179151124	-0.13828974941656055	0.10214302505432774	0.09689679549959446	0.06962496148147013	0.11982630182980868	-0.018442162428689946	-0.1845682759181476	-0.007229265971448583	-0.09919845415458278	-0.07318592098580638	-0.12988735014422154	-0.04694353903412424	-0.06763330590501923	-0.2357771572110522	0.0700216616569345	0.23581641133050724	0.06062406644029916	-0.002736681176555155	-0.006463258171865097	-0.04221608800962226	0.026534045567499553	-0.009132839562018685	-0.08171913523385527	0.18211757866893333	-0.15431176466233448	0.07003673938721215	0.0008778774941642678	0.19357954717256	0.029584633735491604	-0.035990553718324825	-0.009198196649598672	0.0038816045112656525	-0.1179488252271366	-0.06716519363156602	-0.17849438931385447	-0.0922976898374094	0.009392583705809835	0.04200791683476526	-0.1895386602051389	-0.014637730989572651	0.05875607025021959	-0.01629121933762353	-0.05730778998998872	-0.04035591709538364	-0.057291773978788936	-0.06421667008175778	0.013081727847332171	0.2307813881282487	-0.07436886044045388	-0.031814263266142694	0.0006714127591385551	-0.05894988091998745	0.1165799485158969	-0.23708856295540157	-0.052637835758561305	0.08173931059873304	-0.0247415972625584	-0.08112051505029116	0.043869180842761625	0.09047678531300289	0.021063544521505842	-0.08012285362100928	0.04562033191517433	-0.02424018352697215	0.07366899558663745	0.1534297821460594	-0.2628036252771014
0.011074174719825759	-0.17357337347169752	0.24722791723159698	-0.046514542617144314	0.07463732418253724	-0.0036533783427277777	-0.08119639474488298	-0.09221737118129053	0.1594199827591686	0.09861594873813276	0.19840066776452653	0.009913008737861214	0.033209849725723134	-0.02668359088274429	-0.028888495309963753	-0.10419593937056232	0.008175083666790919	-0.0792809965324657	0.04419089955961063	0.022458584562088654	0.028891641095115366	0.17109946235640056	-0.0061402044582570346	0.0782964322527062	0.20532689891214317	0.13550210530942414	0.11597452188711008	-0.030690228025033364	0.02231339526189622	-0.13182762920299418	0.049728214156541675	0.02932748608350429	0.003586695979367839	0.09967908718222725	-0.12077524436210087	0.17024798136089697	0.09029280277282781	-0.00319382815738604	-0.017185166015715903	0.04875846522166459	0.15208514700972484	0.009976950639901018	0.014403090197922623	0.0017176367576677298	0.18039573555488567	-0.03808571579456602	-0.002553169389301474	0.14634297805150526	0.020734978918627762	0.11370693533392619	-0.08480783676646791	-0.022300161932057846	0.1500701950766481	-0.06102958773884041	-0.01529902813274544	0.02699731071011552	-0.09259348405734337	-0.04196571966152324	0.010377134485407762	0.007226202098150556	0.12935318136654872	0.15277748695021787	-0.08560849015207789	0.01708251677893026	0.06619409066602291	0.152622338810504	0.07577623042101236	0.029091818890077323	0.06665425319826307	0.06735163758825376	-0.08807464683678697	0.023227807749902716	0.14586083699354196	-0.0198332626377305	0.012944664254744423	-0.02112871741486258	-0.23166277535146013	0.000576413970864994	0.029051681418990043	-0.05251868994460605	-0.1156142457888761	-0.08807193942656893	0.07641876161355643	0.19904308588132216	0.14263073291339112	-0.13568793222282943	0.08515746549944901	-0.06404534457037267	-0.05852730085573326	-0.0438162147322548	0.07082670675710594	0.09611572962808554	-0.008784750497589587	-0.008107074100802476	0.046427734149202614	0.05679945395242419	0.12376285746203658	-0.12427403347828676	0.005238985258604466	-0.10705438117446762
-0.005094561304393456	-0.022607667390804834	0.012905487669153066	-0.07947690714052924	-0.1487289793207429	-0.20998719861215498	-0.013051453851794131	-0.04352246661204748	-0.06187536348877867	0.15311255396518142	-0.059721478803156036	0.17038814598408533	0.18919801970163064	-0.19508174373236042	0.007986658701906074	-0.04025777705060518	-0.3344307600080597	-0.14628290700277602	0.07749361071084743	0.23255975124283826	0.0801818809433948	0.05522905807256752	-0.02010778385247207	0.18754712268616974	0.20925181123710648	-0.04241050956860871	-0.19756394440113115	-0.20981877954628886	0.1172514122590974	-0.004705854077438652	0.016293892666710726	-0.17329326957276867	-0.07210650751447324	-0.052061881690841756	0.02077729325024436	-0.002737908192017447	-0.10428222537679736	-0.05555643172075816	0.09798126400516248	0.029178082927319802	0.06124273064367446	-0.0909102239401385	-0.29538234854006246	-0.06481595451114912	-0.08471060141721644	0.014966539352267797	0.3312591468378513	0.06949877870239181	0.30613555090746203	0.05688032905678955	-0.020998556877075636	0.028501524362082965	0.1867024412319688	0.22534169480100352	-0.07430558880233205	0.030055607819012203	-0.10797584501428951	0.06642011004608446	0.15112682433089714	0.028753194388148766	-0.055892138007383664	0.02691965891365017	0.041745831919208824	0.044632787658019105	0.01793084855245889	-0.027594613603974444	0.12501518970032338	0.07362275563978092	-0.09831031471441493	-0.10107809196192277	0.0022594119439872575	0.0963157476767666	0.01303820740114434	-0.059834877713663324	0.026151859672583017	-0.014190918291066413	0.09098652676315089	0.02468725885949135	-0.033267794180188506	0.013627831788900141	0.1316147719983962	-0.05695747632088512	0.0402656981647161	0.0053059558573406995	0.06560989674434263	-0.05559854236336164	0.011037117799675152	0.1116635732372328	-0.09540222749362316	-0.11959609242161157	-0.12747209268187756	-0.11759942591362821	0.05947490644384788	-0.14058596858654657	-0.029990273850990668	0.0618289303310708	0.08167021997318114	-0.04316949456236419	0.0339951057864198	0.003455537345172453
-0.02242409555481863	-0.021083471865458024	0.22354280331040047	0.08093109039313008	0.2480650917512143	-0.04969631329205013	-0.008496659688814742	-0.13321261042613575	-0.08095665138440958	0.1901913783407982	-0.05220341710373875	0.19192821818368944	-0.12433614332122012	-0.10534690340732769	-0.03412310208796616	-0.006374992167917787	0.09230858638544259	0.045077041718626594	-0.04163152573440278	-0.013331525422246818	-0.03190635403342029	-0.0914653011636426	-0.08879641220590193	0.102788478058582	-0.18281652445041674	0.16173587710249077	-0.0342994225602232	-0.07725086063921602	0.0739758195021694	0.14852165841471174	0.11176324416039574	0.05018520876024191	0.1086863489721836	-0.17164980911799171	-0.05218305414881483	-0.09111692071013662	0.12246387083208764	-0.03834767798626224	0.0845405474847625	0.05358567809746879	-0.0862306936163681	-0.0586958610017022	0.1293817690814726	-0.077548335134216	0.012486761019547897	-0.07825420473060633	-0.03139521869158607	-0.00461619439699719	-0.07828658862083346	-0.09604469539838817	0.02862747445719194	-0.0844738040448247	-0.0810657508931617	-0.09390520927584788	-0.0077908582669227126	0.09437008562352127	0.15065293128412074	-0.07259187753649252	0.2150310768037636	-0.10047028845821868	0.1083548524479781	-0.07216972027015257	-0.08709232698700103	-0.07447550427920466	-0.005244769964911914	0.05799718822667874	0.0669868854992342	-0.09439850153478883	-0.09896592875112686	-0.09166388644238535	-0.011135408336503033	-0.02101549813286102	-0.09501762376474604	0.0269603794574219	0.22625688083353182	-0.050471481099141645	-0.04335117210581956	0.05596610420898794	-0.05588162895121605	0.06689640792770775	-0.07185427067790404	0.18321196075773014	0.03447749725922945	-0.06200228316340406	-0.05886915463355317	-0.05137984717329775	0.13727507657174098	-0.12687508225835392	-0.06679416704595047	-0.05616596274322205	-0.0015687933993283726	-0.027111017164092192	-0.14912278313904628	-0.03998226835954676	-0.009955068318496844	-0.06280978350797833	0.06867764197009743	0.09194070699297466	-0.00783865980467016	0.023054097390371456
-0.2165928356293237	-0.042109499495937695	0.10884163287488804	-0.04198747165643072	-0.0737261676391961	0.2275244069991225	0.177998653784634	0.04583803090137334	0.11503180351281483	-0.21538196172007373	-0.07051249981204781	-0.03706868277930807	-0.011769610605252293	-0.048068767302486666	-0.25627150945946736	0.03843441347483768	0.0609765122542518	0.15846029111931398	-0.07883085000142516	-0.07457781529504093	-0.2687930991499401	-0.019356304511774045	0.08806699667524444	-0.05431450412029686	0.21421183870323116	-0.013939649547533387	0.015647433225668236	-0.13653817578933275	0.026664180050085858	-0.19793197948526953	0.06824287313262967	0.07519683797406598	0.13857948203501147	-0.10482108180782686	0.016042139659038692	0.07314899406709663	0.04465849071864892	-0.0753001846780501	-0.24632327161998352	0.03766238561256493	-0.01523555750676186	-0.0572735545222213	0.07639453637154663	-0.00431424338524097	-0.12639761033810862	-0.1937422740504843	-0.11278200287833097	0.238916196750704	0.08534550026697298	0.01885736924161932	-0.003931760711579025	-0.03051061509899958	0.11528141135104791	-0.03361607388579391	0.06114985813196826	-0.03207510728751131	0.20744946568570935	0.07543339909732673	0.12142476525377392	-0.050052819638621245	0.10579228839861037	-0.03666188480044966	0.011003475394862596	0.1783920744052574	-0.10914911436030547	0.02554016646179964	0.05102829307296359	0.052001590612207764	-0.04507844930934654	0.20839757568973324	-0.11876425759509888	0.1525642692435361	0.11930620505252534	0.19219516594888997	-0.15882270987078204	-0.07881417741262928	0.14489535584544644	-0.19245162438806104	-0.1630562333188927	-0.05471210743996059	0.017992969066111583	0.15919524920069208	-0.018526591493035816	-0.055054599764388513	0.04194798755050465	0.048312442048635745	0.04308363857301457	-0.009696650250887564	-0.19585216544498144	-0.08552428902184353	0.14286823506926855	0.019047767394917703	-0.029350632143769508	0.11181685483739748	-0.11306232812731783	-0.02253481337130077	0.0260395644879281	-0.03489479434995483	0.017818583430707916	-0.01987516181876063
-0.13993498178635505	0.018150996817983586	-0.12474362409651477	0.017016137886055594	0.13741358241501095	-0.02822759543463924	-0.11948667461065296	-0.012725810479883071	-0.08219402452153901	0.0659378964175517	-0.00589556869023286	0.17988087849112616	0.12624215058910834	-0.015224943774971038	0.07132344259205455	-0.03951613994377903	0.010707519105430583	-0.03730249699647778	0.07664559598497088	0.1559815268140738	0.0798715512818492	0.09960830278943218	0.09059420394327644	0.060100305566163005	-0.11295422922697254	0.18218581070448264	0.1814872467070225	-0.02338801943547395	-0.03701617070628727	0.0612411652915375	0.05426291377436998	-0.016537139596057	-0.12170101596292858	0.027533779013056224	0.055146316867917794	0.08702346616681725	0.036011227483066274	-0.018479357540296802	0.09384360711471942	0.009261976199073355	-0.046473837285785434	-0.018230569294528463	-0.17459690324749821	-0.01658915522519388	0.07545113957430996	0.03312882934139036	0.1530835147575703	-0.02633341567394944	0.06178195977629339	0.07927436890139009	0.24809502137514303	0.011320248326129078	-0.10285583851040633	0.09949939429985187	0.18811987141526665	-0.02876775029891262	0.09787646544436954	0.12288437235432187	0.09954468575903688	0.01597607633104905	-0.06748309550044834	-0.01167502994974008	0.045860023341146305	0.10402041785393984	0.02960723921759947	-0.033141505227465146	0.06361583869056597	0.08600852081223645	0.03796100564144805	-0.08361811052462066	-0.007565650367575558	0.10261249338769247	-0.13849208495163576	-0.2065412757984227	0.15080828501440208	0.05755436668291191	0.05830289067158064	-0.11112189155188913	0.07072812815371111	0.02336816435045637	-0.1587802226492732	0.14238674969178738	0.015868332361872888	-0.03485126788524305	-0.027606922867687605	-0.20229458276869655	0.05867010198552482	0.034331844650545354	-0.020117840590385117	0.13239305877533972	-0.13758037159332823	-0.05854219874169905	-0.08068361067336861	-0.027879497977155304	0.006615998968850471	0.04300135238113549	-0.02132285911966672	-0.07627511303602094	0.17516760615989602	0.24082927969176823
0.014034964763779934	-0.0756738395301767	0.15310850719787983	-0.14445169864851215	-0.033477332470482755	-0.06976738187337357	-0.11770820452916239	-0.028502454081786754	-0.08519424554401696	0.006522975896271561	0.009237791281111955	-0.05438190565932804	-0.02893834325825421	-0.022613589684446947	0.08009810006114146	-0.015011994604662815	0.08121889416767544	0.05764967266504454	0.057152966317654964	0.14819884413583484	-0.1127314014988626	-0.040739593526383906	0.1725672448751657	-0.02055007392581533	-0.2818188771526461	-0.012762878050848452	0.014579083749340443	-0.2618092596979965	0.13152652675841892	-0.07137124638656021	0.032180309566574965	-0.02050330470664059	-0.12731609048219067	-0.11120305131362793	-0.09351046673003358	0.12047210193050722	-0.014564146254317243	-0.04526482004924032	-0.0989867347786878	0.12137958815707318	0.14643634451168	0.11802166852022322	0.04924373391541667	0.02806869598394478	-0.1188149479655847	-0.026783811939994816	-0.06830158499719272	-0.1826900256985185	0.1154134196104575	-0.06958350799426627	0.13052785584151122	0.0843722808643743	0.056834484899597595	0.07309483430257938	-0.06171898095422629	0.18752188983797843	0.014826850324840919	0.02905764775344683	-0.06681058768521911	-0.08729749447914421	0.04908267832056442	0.018197991100957465	-0.07893525254475071	-0.13332357062940686	-0.12903804803084876	0.12105212420597122	-0.05498348340405733	-0.033889967360128906	0.14503402587590622	-0.11232805801342059	-0.06478972246477514	-0.07093526378035465	0.16068705670406386	0.20050895466312713	0.07515632254021709	0.08406705058763726	-0.05978300073533297	0.19154096555621067	0.025479772949369577	0.08134382372068125	-0.011108298030633804	-0.026809809604705942	0.16630422595961175	0.05758914958101894	0.15271958367156507	0.025804227195994553	-0.08543027712281757	-0.0544422050520726	0.009695324953592748	-0.058513086434444264	-0.11015342282009784	0.12030895702932899	-0.053116146741273566	0.013819274779132041	0.029509427154083667	-0.05881531253205688	0.15523796764057018	-0.1069789169084949	0.031502392073321804	0.02340114323345471
-0.005433974070605881	-0.1296859948929581	0.09799776309926815	0.07470098685325585	-0.06755685285912164	0.07053446288391747	0.03690788256076283	-0.12867360830739447	-0.08254952008896929	0.1262502322550459	0.04644529751163192	-0.038852613139597765	-0.06924534302059328	-0.051507149483063924	-0.045308554686000424	-0.08482787047686852	-0.19458033004241831	0.11272586259943362	0.09706336726114433	-0.10851759153989028	0.00786336411692256	-0.07646163475829834	-0.03540974179087957	-0.023113289766236274	-0.04539314233282623	0.21114415206530754	-0.04264672767617879	-0.08083107343423597	-0.08479769731372291	0.10437769564017552	-0.1665152846464717	-0.07291354259621927	0.14712915219591316	0.013208304783625415	0.019181665988379698	0.2355852134935822	0.024597692158278055	-0.055432472843841896	-0.04230793005180589	-0.11006835768116603	0.12561718825460177	0.056729859530974085	0.11244141499708891	0.11526838934627043	-0.038488817010255263	-0.10521141859884674	-0.003655674328808371	-0.08733439069614175	0.035867154131639496	0.11320914179318242	0.008583640035120367	0.009681865409136403	-0.004908443569715069	0.10631115623214824	-0.07500225534743599	-0.21642334455434328	0.0683920165019602	0.09019054030767448	0.041461963514286305	-0.04886302642053434	-0.10797192181318724	0.04348747576990796	0.014147866842081809	0.009774771163168853	0.1812304771219498	-0.09832562922352332	0.19251587662266412	0.0031783942581167964	-0.18355704768708747	-0.017875332593591062	0.1122761874083925	-0.023291222903825265	-0.1493230432710257	-0.013386431683283243	-0.08571723738917059	0.0613223016616358	0.07787549848121754	-0.11155955535153286	-0.07226332256815593	0.06891944073637589	-0.0858938509300343	-0.10822215187803086	-0.11786911317962548	0.04310533194324758	0.04484503344386686	-0.06238645985407541	0.00043355159489034137	0.15600732605189077	-0.09826756517279334	-0.18684880728593975	0.046594391484776114	-0.010991972058738655	-0.06952407813431512	0.0652080237354908	0.08376604051441452	-0.22082780198800928	-0.040898512869428985	0.23016582803255856	0.06749948241066794	0.06322338768664457
0.11666556081126768	0.001708978265391022	0.0755528399010311	0.07183646629652113	0.053904149675275896	-0.03222972067859082	0.010330057899626438	-0.05883614241887958	-0.0032665517948409287	-0.12908792178406017	-0.09430561881020648	-0.04465052354762411	-0.10488112421104127	-0.0491676123351188	-0.01706399028939575	0.040218645024703174	0.1680661511356388	-0.04710484349452291	0.13351036496430244	0.08297756296735245	0.06310906335666776	0.004866646751882787	0.05011765627535058	0.10686422353754615	0.13061150651184736	0.13981457809098818	0.0034925034740522355	0.05531750925491537	0.1516308941748232	-0.062371603491639276	-0.03184202223535368	0.0013743091597527195	0.09164445914732693	0.11294105255241707	-0.023084348364488635	-0.1625114315970441	0.027035305993576144	-0.101198162082889	-0.1339135893312698	-0.12638355294875117	0.03263892305885985	0.13628828746090405	0.0038894516236243843	0.04052961221090939	0.1281956815539528	-0.1297072340458355	0.049042864252219646	-0.0014807274467876384	0.04475453337266778	-0.04834832605686402	-0.10482326254031993	0.013718727234557143	0.1547652177967474	0.06587716936797791	-0.02239845883221693	-0.1340616967176098	-0.18171819207887185	0.15395646868790036	-0.09566428437326095	-0.051036086753256195	0.12176217623917515	-0.16172152595430708	0.14922644860210516	-0.04111433152490828	-0.12423416686907661	-0.0004109049081415465	-0.08751653620654994	0.044085017722079914	-0.06481324338877778	-0.19149100120521817	-0.03303135111018354	-0.1474278442150018	0.020567935976201712	-0.12083186427689893	-0.048801280317208595	0.010110046633020639	-0.03303783657694848	0.02564864836506392	0.0641101798349337	-0.11615778009447235	-0.008609003750713575	-0.33302068953220787	0.024733330168252382	-0.034510476632492994	-0.103816684837424	0.0181542322749221	0.11462592247856392	-0.03043474691211494	-0.09479273361070635	0.011681729887944891	-0.1335412767852009	-0.06486397035416111	0.1297116873163408	0.006217922981228763	-0.18797376588950518	-0.17969916472794012	-0.0070194149224138335	0.11743880426543178	-0.164665882390916	0.05287310410889869
0.13303435074897188	0.18878589879586388	0.03312227598598763	0.05068025945524743	-0.21331844276281442	0.20997525479959891	-0.05754902130961214	-0.09334711584250414	-0.02552061344396246	0.15116734141854313	0.22080460475435482	0.012540867947584442	0.09980841726036553	0.00432040486855039	-0.1037795473018184	0.14767436707882908	-0.0622127480356389	0.15355307733718826	0.12985413297690837	0.06140362639572081	0.18289747562543532	0.22323460331857384	-0.017524336296431152	-0.08087941184164313	-0.18642698372564726	0.22446822554302562	-0.04396820089184497	0.11350368571017395	-0.07412553675094832	0.15382656409120352	-0.07001175918154133	-0.11917191336173433	-0.020850643095375033	-0.05317757009616373	0.059629978546121246	-0.005139492719252362	0.06277023945519215	-0.0291021473085294	-0.06651073710188053	-0.05835605478960735	0.20449387980310263	0.022517093222693584	-0.19837622094530447	-0.0520209013454081	0.009686603247587564	0.1845399681250379	0.10286987158898996	-0.09217178364819151	0.24183557535724512	-0.003116036480147762	0.12463298110749446	-0.11550084973999027	-0.23981630952508978	-0.1408431490368361	-0.3250333476195706	0.21120893272529084	0.0214532918886416	-0.09246440184480315	0.0452624029980121	0.018933403618016584	0.06209333956139913	0.12095314011362686	-0.028992115302501533	-0.08798393061009868	0.08277752143719178	0.08023327778844658	0.010073580812134494	0.21775541886807726	-0.043782212286165224	-0.08998579716352684	0.041809142750660166	-0.06749378569134983	0.04955165241448957	-0.083300825583944	-0.04002422829318855	0.18908404200391654	-0.04055873567476789	-0.07988515440172964	0.11706787887065002	-0.10510419502866937	-0.06929432301470681	0.05765611205089946	0.09384114238732919	0.12204763910810745	-0.07472218322204847	0.059600867298612	-0.046610819954417966	-0.06056556335106324	0.12032127822922854	-0.054955439585958624	0.02782045960209799	0.015557946923063878	-0.10707543763385026	0.09660928553563208	0.05602808936789538	-0.1986290611870421	0.02774211112373432	-0.07729734341666211	0.10970753064126278	-0.14453998367807583
-0.0357825754227358	0.036202450260775676	0.0040175365656834015	0.07625770837024065	-0.15184219860092893	0.1651913852873408	0.05040725954308027	0.13596815830943237	0.08585403224698364	-0.004899281979002234	-0.13342676818095298	-0.061733855686498	0.15558361802272322	0.13891194356676378	-0.06204219309046141	-0.2818298142408377	0.001860534726603102	-0.028907832314506388	-0.024977107594783755	0.049060114906345105	0.0914279681375101	0.09572653646696579	0.050665990300566704	-0.183928639909817	-0.03146339951238954	0.23206868478127152	0.037144731070223085	0.036732918825255825	0.041335728918231666	0.041537962250598984	-0.23831128186303852	-0.02413421801664413	-0.0032351357695515693	0.13531385457441225	0.004769245295381394	-0.16868197665828893	0.043765642826809746	-0.08290401455995962	-0.1168589572806804	-0.08344576544786736	0.05425042890392703	0.1260278829014	0.048292994517758675	0.06936123774834814	0.05048311798149547	0.017905586304103126	0.06885270370829966	-0.24194697935116816	0.007011822087549764	-0.104492540225266	0.10876061414519697	-0.014588049513727825	0.00028311583065448065	-0.15721574647759481	0.11061211860198332	0.06271807346087577	0.05092194044254374	-0.07429340118278377	-0.0773593399694082	0.01636144523324868	-0.07272149425486582	0.043486802981786664	-0.21609126027667222	-0.05396539564169147	0.17659660916506933	0.05162553648545949	0.011640051863997353	0.1985244311733356	-0.2335953618801436	-0.0816027186276707	-0.04385189436964804	0.08181434846703188	0.08759171553675618	-0.08734291309013614	0.09979543221425496	-0.04306379425158241	0.11759803602475762	-0.1029811606133817	-0.013540135987755669	-0.049022203061726055	0.1050217586219587	-0.05230525104747263	-0.0042448529011756015	0.04927374895894515	0.0525400322215346	0.08495518521384597	0.020404099886710925	-0.03644202527755201	-0.03496967395046217	0.0010941503059202688	0.024959071844495896	-0.014368027169514708	0.004242493989490367	-0.15172538605721053	0.0667359082520883	0.01811122888894299	0.09254596434419035	0.009314174649310955	-0.17485908600909808	-0.033340959657404974
-0.01999504494712302	0.07429033054335989	-0.2068851228732033	0.004136273893377299	0.05136752157933061	-0.06614878852815197	0.007405581991573134	-0.0627036478969906	-0.0729034158677371	-0.04066588000741404	-0.07094105306172431	0.0684830496270561	-0.07324351612798952	-0.09028309509313702	0.17677844799577627	0.09607401683769265	-0.1864400713254269	-0.07647901159030622	0.024246297172271083	0.03250028648817134	-0.14909653928127398	0.11614667802487477	0.08236645035892999	0.048344106147166534	0.13562102502683357	0.04530666270965503	0.04488674641631379	0.15576792642622497	0.11005346547186048	-0.08415074589115312	0.06331951786719153	-0.0663701907002083	0.05043219970839348	0.04748783730452471	-0.13834667186242325	-0.011886237354839953	0.0264947588549679	-0.04336849902710594	0.03139154766184555	0.08058635126227788	-0.0030593032378327736	0.022459688580646238	0.1383424078555975	0.0472031074408632	0.02004945673825034	-0.09590231077136711	0.06710118774708441	0.0330076049332852	0.12857851653521188	0.004687854330331131	-0.18140450740731848	-0.17001836586050115	0.07360648674097417	-0.05681917560362575	0.043616369687614454	0.011453253722634626	-0.01656817117525419	-0.00966458797770092	-0.08654248353015528	-0.001483229335549002	-0.05837100246134872	-0.03722563994282094	-0.032364904470916105	-0.02240423210596432	0.09215166141953586	-0.013049584531786881	0.10249991740379975	0.15378551007391114	0.08549446510561495	0.05344516136899254	0.032868563264061214	0.08663717682643733	0.008936084721570663	0.09848247630263982	0.06141058052896843	-0.03586290746284087	0.08962910823924455	0.009154938868805711	-0.010605096317369025	-0.047619917029554405	0.016586797913444595	0.09964580211899106	0.08889400055930374	0.03543549756816731	0.060131502074452496	0.12709046477949687	-0.014997199498251882	-0.11162056139092622	0.13011298521785727	-0.05282541989233469	-0.06903382717387777	-0.17965250568369592	0.05708594122451771	-0.16214526245522215	-0.07502585124198301	0.05882367945150588	0.0723238677238487	-0.06515083151920444	-0.013221181243228216	-0.08726128283058403
-0.05483962832253746	0.026622460682791525	-0.04995600858546382	-0.02441946067371441	-0.1464706681617567	0.113284212810101	0.05102728183262195	0.07922737587336788	0.12908465029367233	-0.08219353506509135	-0.0356941162449933	-0.18897160398697524	0.31444948197808115	-0.014958447993224069	0.1038458282850388	-0.12390332839604941	0.09851852372412083	0.18581388026446205	-0.006028074902798145	-0.10072508954823678	-0.014006036971632255	-0.22236598288556167	-0.0043720256839806975	0.08253199622205236	-0.0036376464522947863	-0.02841294850006904	0.05292289671639837	0.06040248399594262	-0.1664511798097175	0.008882296227878847	0.24358337622559803	-0.1334969354372092	-0.008537214304537924	0.19375269520530808	0.11041496779355361	-0.050759418200090604	0.020560821145606374	0.0005086473120239887	-0.07537193860654598	-0.007393832547567198	-0.027988451423778874	0.0111777173144888	-0.07483831806910334	-0.12777488346045462	-0.004128194504926982	0.171143604225605	0.008193448840259345	-0.03315865246500132	0.0757237312397676	-0.015832400823832398	0.18748320366836488	-0.0007996964161623043	0.07043521677277183	-0.07479810939491469	0.04990845054940508	0.027504990762138727	-0.005188803032212834	-0.0506268874549937	-0.06386841128812093	0.028685761048380068	0.06315053763592202	-0.01273683705006248	0.0287267827454099	-0.003188162437407742	0.009916965709769934	-0.020264373931766562	0.0022114223379998744	0.26980404712207134	0.03116342988074249	0.06454981877907001	0.04405783722658349	-0.025957273665684247	0.12918189305767064	-0.02911825487180951	0.10550545489425514	-0.03275289243911357	-0.09594006336475253	0.036304029220522616	-0.11049503415828674	0.053298877454106205	-0.11940091779808126	-0.031900818575875095	-0.14317296965247414	0.2825380144147152	-0.16531333683199284	0.0012541688572250192	0.11434096287287034	0.10373834679349817	0.08508782314817571	-0.031540149967471474	0.13510955485050377	0.09126675208138994	0.021232119401963706	0.024058075772659213	-0.03043074240297271	-0.09096520258330384	0.12429257865582138	0.1305510085979385	-0.088150286983064	-0.015640961091896062
-0.014342558513332122	-0.003265590374030994	0.00643124959791585	0.09468614158293708	-0.07472173084867437	-0.08463471962412016	0.12366168427713943	-0.046264474188129824	-0.12630230454641964	-0.04851058991361143	-0.033002627110106326	0.15549850414416597	0.0924857185041811	0.11475211531925181	0.08199608083096573	0.09462436716153141	-0.06881557807934509	-0.019860271174141055	-0.09899153130235488	-0.021046282233144472	0.06840938975397373	0.013461779738302164	0.13114512857454533	-0.11413894707550282	0.05002277270989312	-0.1248295809548317	0.009417796174015471	0.07403309155633366	-0.02145206546101546	0.05511266040869559	-0.09597324127328052	-0.16636899783446504	0.05570303078375684	0.17439745546290564	-0.09960449401698922	0.12222371438042678	0.004341772652113699	-0.13356926682181358	-0.11315226228215833	0.0015784763635250806	-0.04044622879241037	-0.13129113105691623	-0.16940392812254051	-0.08467450586686576	0.0193797342964759	-0.0006423151906325763	-0.05012358337924701	0.02018871942914828	0.10400594322956233	0.03941265401610923	-0.012126938414884977	0.09280749513354349	-0.09598467465316775	-0.02248859436398505	-0.020111021148314107	-0.12369532584428454	-0.0419846233963841	-0.2074974520658008	0.19121794191084085	-0.09373931980928685	0.15861277801460316	0.0038086672063246587	0.05648641321559589	-0.04887600271924769	0.020792963524435066	0.06504670343791435	0.06645773164798399	0.07747752089691798	-0.03683327100391764	-0.048035818797314736	-0.15941443281301376	0.05232382244049439	0.10823798160256652	0.16159852454258272	0.030517263458050777	-0.07664691127537268	-0.16970862873999357	0.10416672755115214	-0.17962734552790333	-0.03406041116652727	-0.02243068589005714	-0.006945514520274091	0.003580260003584014	0.013816167582975537	-0.24153437417457846	0.001465724943410353	-0.22295767419458928	0.0732200233518553	-0.055512520052309736	-0.21570220900662962	-0.08142044988684281	-0.057008084947762994	0.11906897267758997	0.019663774175024504	0.03444449761153914	0.11812216342206011	-0.009611632943892912	0.0754177923886981	0.0683861113931992	-0.1286472497163488
0.14710551283394627	-0.14202111261669745	0.11730932212337204	-0.15104886157154807	0.06012367881516733	0.1853696648898694	-0.023247330988619027	-0.027141296747950024	0.06740684508873991	-0.005394235331099352	0.21679301759469422	0.057700566315725496	0.005848407278532993	-0.05335275474856846	-0.09581842800911325	-0.06312238120549922	-0.07323206171680272	-0.05210773261593878	-0.06581752918332885	0.25240199234035654	-0.11587955200004736	0.046349688668085476	0.040442846535684585	0.08838668474497043	-0.01181218063689811	0.002619541413251422	0.04750858720434555	0.026622600973235558	-0.04487620527480861	-0.1561878571724431	-0.05010570596860968	-0.10714291579810739	-0.0611530688692746	-0.020760496442255933	0.03585045378832134	0.23020651141367296	-0.05370693160386926	0.11084342079217831	-0.0007772146071090473	0.13788448033095355	0.05765578906486251	-0.10249389378295487	-0.17230460292912314	0.018315215541469906	-0.045598860230388116	-0.12010841179297231	-0.12353568624335304	0.015866541339020438	0.19556374075169203	-0.040867815342264746	0.11562665912664064	-0.022015344254712712	-0.12309871121967696	0.13192621594743636	-0.123671503335646	0.009513371571184502	0.014036109992279942	0.07255317457036682	-0.11311677145317048	0.07444458203344304	-0.07303882943620373	-0.06670139194778536	-0.363520076160953	0.26005335817648956	0.051563113623478304	-0.08221539561834006	-0.07988477217899477	-0.04956465550871324	0.07168795348194516	-0.18913329972770715	0.023722001503644733	0.2060169355586261	-0.11813059048766075	0.014823259765936583	0.2203309815257758	0.08963589240008826	0.01163925372591675	0.0360764521482895	-0.044402423949822176	0.11376579051275948	-0.040582900347411896	-0.1959302791073857	-0.03913031039404599	-0.07778963778818561	0.004833145186538858	-0.011554990114288682	0.11903129528832367	0.0783719253271773	0.024363017385811647	0.01869406386424804	-0.103211719407928	-0.21851826376806377	0.014880807972716216	0.07946412035736589	-0.011047247891761371	-0.05348543227867003	0.1002699160192089	-0.007855172890216701	0.1897349471542278	0.11394941692413048
0.09595080570233296	0.07577341142099038	-0.1287105113794219	0.0662994195592406	0.03763259576465752	0.06064059530775503	0.04926094921019966	0.045156028910440904	0.27003083908424064	-0.007352681723194301	0.09418759852351843	-0.04660888163667405	0.07955809211745091	0.09393198902324555	0.03630798384732783	0.1669247801266377	-0.0885522076424581	-0.04879016580538863	0.02123800860234896	0.0887654456560864	0.017606688702837468	0.12883858094594983	-0.06630254708116194	-0.11383441382996236	0.030742558442600296	-0.00725101385637905	0.05428642046646119	-0.0027402290866503937	-0.03448705582126843	-0.007493757172372349	0.002663829450522693	-0.030578539944390425	-0.02028107550695464	-0.04037948360602203	0.08566627819762973	0.02001403340171093	0.22564989207048328	0.016358903789422223	-0.05563477364209299	0.26720562735123843	0.041362637771433536	0.09898983810044826	0.059210298320249155	0.062173084073979264	0.05356540513524743	-0.11055125213050482	0.03680514130266819	-0.1324861303850239	-0.01686307309511542	-0.07256167962489748	0.036596568695810426	0.033098321372347535	0.04812699091423176	0.029717345454144017	-0.06070031271026438	-0.026080037915375946	0.09269198829523995	0.1064810127013202	-0.11500015433212775	-0.1524014239676682	-0.07256703302253434	0.10384046406748765	0.12148840301830344	-0.09183934223151394	0.03073060691134727	0.1834451629852727	0.04193398333575916	0.14215032852330936	0.09987265700830984	-0.09101741056823298	-0.018481138198931168	0.003945745907524093	0.010182355994561455	0.09159019017607979	0.040868476227540855	-0.29337652769394157	-0.13137821434463276	-0.21916002490122394	0.01750568724720621	0.02346646758785621	0.028327156969305413	-0.09589282677146163	0.06741440051199891	0.07189755752694132	-0.1251206215804866	-0.14624006317609275	-1.0927877283516035e-05	0.17941968338455427	0.16996837740264215	0.05656656458091842	-0.07287800620706936	0.08863150300480299	-0.045239965890724536	-0.07675070366738106	-0.21439674659783392	0.010238219834765291	-0.06211397765949638	0.009453647598089072	-0.22983374252932876	0.016812364458764686
-0.24394470058213655	0.10879842803200884	0.059128391889658447	-0.02755485528741852	0.05627198600820792	-0.0981300634838033	-0.00019623693182187874	0.07877142974923133	-0.31011105251361953	-0.043765466327108385	-0.0010413699281339166	-0.018491155936863266	0.15335278014827577	-0.11084285806877123	-0.06422523840876293	-0.1916606028649692	0.19651370097796542	-0.026487680958691927	-0.04384122686597022	0.0019948407065420283	0.06845672508589143	0.040460551582705076	0.2718271156881028	0.04693602511066747	-0.04269082877064845	-0.04015721629497058	-0.03910617254909675	-0.15041784216604384	0.010558989574018204	0.07834681062089172	-0.06238860905449482	-0.07785934109489287	0.15502614033901446	-0.13503256321014326	-0.20679048506569858	-0.10349829141042614	-0.1524605495698226	0.044911797664261524	-0.035317999007566304	-0.019121594826193446	0.11530215329835361	-0.06963676266801382	0.07750894117456408	0.1610414260849911	-0.034959838232004874	0.08599741905963201	-0.025344962769154464	0.09192685069635756	-0.14894205112536005	-0.16455142257273542	-0.03567236757878783	-0.09357478990651255	-0.060062615189367285	-0.016342237131943067	0.09086456716915589	-0.03781982808199499	-0.07548007275437954	-0.02171674855546429	-0.07964838065471391	-0.09269185993641454	-0.16651433309921687	0.0011480565181543499	-0.05687059338535554	0.10481495935194984	-0.1545870407448195	-0.03693799347507714	0.18094674819954074	-0.09395745580454917	-0.0236533252096124	-0.121908750448022	-0.1284577163161065	0.1556212769800608	0.015147479765708792	0.01428426665175717	-0.16963162351162223	0.04032480783448972	0.10534938254998297	0.11071518352078641	0.06223882259824409	-0.11874712400138882	0.028838820455242786	0.06668683198422275	-0.17944435850889015	-0.10799977772309911	0.09756399421319163	0.08272409728441854	-0.15759344423488536	0.0961392275512604	0.008799428399996093	0.0824519210442103	-0.0625857095173839	0.06475967461262978	0.09071315888613407	-0.03513349354557117	0.001720635136229306	-0.06485216295046535	0.16525416091909229	0.015093158383854268	-0.08516429534908662	-0.06799460669829042
0.012677060114211314	0.07533311717782118	-0.13358268451505217	0.1847660002942449	0.03086752940556164	0.04664559729694125	-0.009718954382343641	0.0019258967351125549	-0.0148283137927403	0.10177959690359605	-0.0007928587453370405	0.07670502184927099	-0.04338475233525722	0.01956405283123158	-0.08039203442394212	0.1216528232549537	-0.08337472407191159	-0.03249794442613262	-0.03149604124547449	-0.035395138767376835	0.07224957694429371	-0.03166577647366437	0.13939245305410727	-0.08184750861301682	0.016937746994270694	-0.07757859893126	0.04209727825314667	-0.0015949726976770035	-0.015506204469847846	0.1188474966503524	-0.06543418710551034	0.05865151576180001	-0.07689599126747924	0.011268520016037375	-0.11955753282234455	-0.06625171463067404	-0.008214304557286506	0.1814649167323078	0.010080387045977413	0.16546683158667064	0.022032329169091803	-0.038708424447493915	0.15393565226006936	0.04370176220734189	-0.06427215938827137	0.04705714594002974	-0.029259474990761022	-0.1989034196171296	0.09359731592656176	0.1094934055641929	0.18379420299922755	0.04221436921952627	-0.024872342408253256	0.08349894273785859	0.08498203653189064	0.1638281183136422	-0.004462762306644215	-0.016557897256759446	-0.07155444197585274	0.05374620867252017	-0.15482616682308353	0.07760873728625646	0.05878351218657896	0.058507020245837205	0.013822523650184044	0.1532978247531085	0.08719934654268634	-0.060707719137569977	-0.05891790496976468	-0.08796738134146369	0.055128333277558755	-0.10001389212399568	0.10833921435833523	0.13229733083455433	-0.08790162689504512	-0.01855485345928537	0.0016620981362413705	0.08839831604696677	0.1609343375609877	-0.16854923928685775	-0.031818071752668285	-0.0266016695560347	-0.1400669854886548	-0.04851100193040617	0.042776894435061115	-0.027867890283955716	-0.15446211686074138	0.2874082698009914	0.026617786520418033	0.0111694130106675	-0.10979263630670465	0.026070616197127534	-0.016421378404149433	-0.18885234127154063	-0.10702554400144162	0.0794926017673945	0.19440176500004416	0.036716540504304465	0.11030832782933674	-0.015575530858321
-0.00865461606806029	0.10909790276194652	0.16627772891794693	0.13010966934656218	-0.10663630753848191	-0.006695889031524577	0.02775246844762952	-0.02596779635075291	0.03878575434155958	0.08205768116689474	0.10028097519551404	0.16858701522215233	-0.03294411047248347	-0.13640331648393142	0.03582345940144528	0.18838110311848022	-0.04769758599540591	0.06868469770637195	0.06957457924726428	0.019144204734460896	0.000692472104371437	-0.09234292057213926	-0.22816620724205774	-0.11118507066640289	-0.03903041491116993	0.1097422687422707	-0.010312806235137563	-0.05190257189181485	-0.08909854419534305	0.06568058285094804	0.13583571664306052	0.10634357218674595	0.060614969975846915	-0.14756127463829402	-0.03516742428437714	0.19473042288896752	0.11219504919152248	-0.1537503218234725	-0.00555905231992714	0.036309843266103876	-0.076215846302622	-0.23092040214088488	0.009882404501643172	-0.07877582576204394	-0.07838417390846841	-0.03546803599307581	-0.013367591465481174	-0.0009082794095686442	-0.08839898989220014	-0.02202095296340774	-0.17574233704027553	0.031103906536807824	-0.2856275413341158	-0.028949008043361958	0.09191861536769534	-0.10593406872748266	0.07164302036574001	0.11557327121208923	-0.33078999524973884	-0.015136290357574238	-0.28757734276282754	-0.011820844557094609	-0.0007171210981326813	-0.24825439859108386	0.19248383620798656	0.028601580763462493	-0.08490234320820354	0.14653794274985185	-0.1795613220642317	-0.12291710335183173	-0.22994555236698988	0.1801045196539334	0.03323463714720035	0.0659401789848495	0.030100123391847575	0.05737677611445846	0.007807771389598945	0.027092134270744136	0.010760343622295077	-0.06085918055692785	-0.004662476521466915	0.027359457326167763	0.01105491195521308	-0.1477772107753317	-0.13449866686084094	0.10828414339163912	-0.03069940458834018	0.05847253470359405	-0.10921199097223964	-0.147314587664653	-0.0843596612531713	-0.02225650707714133	-0.06651402992844123	0.1293933523105714	0.017952330153746154	0.18489386185618586	0.04044081540714173	-0.2412550817919811	0.10560416064585545	-0.15095516224699548
0.023053366721133915	-0.07746840576638449	0.21427110344641864	0.14395979274301354	-0.07418206417017582	-0.012735766812111178	0.02445980696492174	0.08634140715616105	0.002915191232501268	-0.1024894899380867	-0.0717558639200053	-0.00044817963767913307	0.12344569787646911	0.042783786053604396	-0.07734149266150159	0.064837277770979	-0.038698483887815986	0.08904080051868413	0.2527010418328605	-0.035882637094354956	0.0801605159726371	-0.07453933320377297	-0.011226376719129759	0.0029562286872101295	-0.01936836600443806	0.2463013688775024	-0.030659307467838237	0.0586851538784868	-0.19300868693234324	0.04319965633696103	0.11420545923522468	-0.05275973425790509	-0.2510222141040413	-0.00386517688273251	0.0017183850385528077	0.07240750507443042	0.20109030354134338	-0.03800536506003068	-0.08562881236602804	-0.11669178013714432	0.019807861703159936	0.047935425881850194	-0.05456553943625845	0.07786827457257896	0.04653840768191757	0.004323168964489037	-0.09024147207441255	-0.04818643154847231	-0.2429755297682545	0.023578706419803367	0.0026341288747435227	0.018847899108948643	0.05043190155645603	0.0385821486432223	-0.01103831806460353	0.0048668043162752445	-0.14043164166961694	-0.05837206456894259	0.005047105368346139	-0.07358535759123606	0.08601507958725464	-0.06586320809550304	0.021630541124831634	0.011656565681533587	0.07462775936104098	0.0900791174028302	0.06940326109679394	-0.21060062013831338	0.11941481480131266	0.1527308224194598	-0.048212428432146945	0.02366469126728498	-0.0890831680130782	-0.19483785067321513	-0.07387152655423863	-0.05401390394636103	-0.03548507313518155	-0.0958914090005988	-0.0733425166817239	-0.0011006321628407698	-0.07702269831101421	0.05435243325500279	0.06816606513974395	0.23803877461644896	0.11256799321234622	0.024310305832841442	-0.06202642966676787	0.02937473516739988	0.032659595991635613	-0.051331308900566086	0.07837313967528776	-0.13980980146818753	-0.024439983553751057	0.05558584593174068	-0.0287584147592097	-0.020675440342927124	-0.013778586119228046	-0.08356012406877456	0.11739009315742083	-0.10180376719228151
