0.041310976155251845	-0.028132089529360603	0.06124918687716963	0.14486489300816868	-0.023415337472333597	-0.029009684970448445	0.1602507330744158	0.09199356064221344	0.015983489083647384	0.1250410777074934	-0.048681098854743775	-0.05741304844539143	0.017717767349467145	-0.1461381936470745	-0.16794558613513264	-0.01950047109732866	-0.09016494910860388	0.03153634931190604	-0.11293131781376672	-0.14669361399293376	0.23525002715554277	-0.02100458510356069	-0.03177904535756055	-0.14879700607741297	-0.0556873776691021	0.08864531256896284	-0.11462217333805501	0.023160707279169822	-0.06243886497895052	-0.028793786104838674	-0.060170661222939695	0.17591798001560655	-0.0013497224737933921	-0.10577109289559004	0.14973727623754288	-0.06079282684482147	0.02060785661584168	-0.19596701238797756	-0.13999981292147248	0.026487512247460293	0.05741271163189918	0.003948606009986104	-0.011564828238824054	0.01996824709378865	-0.14785219903674274	-0.07355290625516449	-0.046063877095978756	0.09103235243637908	0.04104925165338831	-0.1763040155362734	0.03668982943670714	-0.04501724795519107	-0.07260052384141982	0.07747086686734513	0.10793775907916645	0.09234194757478878	-0.07665202605545354	-0.03091998424511482	0.03237538051785185	0.17955420984370263	-0.04908253496645564	-0.04002237328471036	-0.12047834621494145	-0.12164578128434417	0.171340268060503	0.12474405815719898	-0.017541465949735883	0.055060228969448316	0.036163602504763415	-0.07310383058626013	0.07897505440935497	0.18624706135625016	0.03657689307047907	0.22915459310876476	-0.24805043570826682	0.09065342638639394	0.03449835786337667	-0.07320665496440001	0.03212176473301575	-0.1897988056521775	-0.00609260181994757	0.035711257151174645	0.1374322917929121	-0.07039861264473342	-0.033355070908678966	-0.06887778048217758	0.11165504170802625	0.043687007541631476	-0.06349008289103783	0.05131479410510014	0.01715569647767858	0.10921537866281246	-0.07023730104951328	-0.05557758819197641	-0.02634446702384858	-0.14722241535245756	0.029612027706457607	0.07329280747356764	-0.05388706724937479	-0.023648755938457167
-0.13087212102237294	-0.038301235143811126	-0.02035711785272582	-0.0717877080500805	-0.016128571166600915	0.04474809773258558	0.17682190594880265	0.031839703696360265	0.058787027786024515	0.021341129146853415	-0.19742757005296746	-0.025754249803411195	0.011972153024530065	0.26541409339909317	0.004142717863755926	0.04945421038494483	0.002750464214148724	-0.11674977179532404	0.11248426952633597	0.08128875400641197	0.11562455712038336	-0.08322025686444984	0.11884818837572321	-0.10660603174539954	0.06162445854234196	0.2564334006378284	-0.09847168767322258	-0.05733134685418373	0.007028884045496925	-0.04996524421528398	-0.15506634310661327	-0.0032883508309099157	-0.10623037137261049	0.04735924306351816	-0.06706152801313407	0.19265768553349696	-0.07865383575741523	-0.03220615162056756	0.08963734968557793	-0.1206195970084964	0.00507638048501905	0.13054739737120655	-0.16074832345612278	0.05518074781359599	0.025988279424842355	0.07726617029119771	-0.1236950710878082	-0.145800885795088	0.05518590295199653	0.029698467323318607	0.039273061690706726	0.03639060290787714	-0.05992837529739985	0.028981869692614196	0.0320825899563453	-0.07292934589710509	0.195359775971571	0.04738465812321513	-0.11997706079409928	0.10933747301156553	-0.10172235387787132	0.07445208630424076	0.12625578864264025	-0.08460374982087801	0.15747911617785473	0.029346456047007086	0.06956489405765923	0.16660115463530858	-0.02453881160028705	-0.08275578244862482	-0.057457829050678186	-0.050577678364514725	0.010602818582428414	0.06323965092640992	0.0447930724997936	0.0910129538632928	0.01968405527625874	0.1415308204723767	-0.017033339143242256	0.27989422433601974	0.06934108725776979	-0.08571575564162826	-0.11851283861619688	0.041492953088406226	-0.010877924909687694	0.07973693405375692	0.05569339236291643	-0.002042764487624097	-0.1020881740160921	-0.15149750248560323	-0.03953265051731884	0.09623100917639313	0.02074739043734082	-0.11187943162543526	0.037239387866702355	0.03652328089783486	-0.08838574362011331	0.04093644511433603	0.0020658862279096172	-0.10534502594835678
0.019478832729030792	0.033481368770554916	0.08834012752479072	0.08094233555525607	-0.13776693679570912	-0.09365082890550132	0.04084141707805566	0.059227129195955755	0.046315148880509784	0.4507397652887986	0.040717118019178225	0.14707772738033745	0.1007495493836932	0.10871224234867694	-0.0479051757502237	0.1143704403530319	-0.0604655172802409	-0.023660025857855344	-0.08124310019758459	0.0004319507501323409	0.3365370275551068	-0.1919706337221883	0.04572491233582863	-0.21151049967079127	-0.04539523099864395	0.2017751770682136	0.006722516001481358	-0.12737332326708575	-0.07108986558355496	0.06806033696884539	-0.07303666317171367	0.018531816636527775	0.004557183990381379	-0.06516003476058171	0.291351161914815	0.14318202335858296	-0.20274429098734315	0.018645431476942764	-0.09314767852085945	0.11631578951916868	-0.08441963984534345	-0.014992994464412745	0.050498727898045714	0.14995370559177518	-0.12002964070557763	-0.03335509468451023	-0.04749453111609562	-0.08753669780933773	0.17954257216769895	0.040498171096095555	-0.12006910987060129	0.10294227397042582	0.20807276815032427	0.12598849211355476	-0.15329425137414449	-0.05410767842344748	0.13464458677636576	-0.07076644403532197	0.043893889325200955	0.1848283440722861	-0.10731981692594583	-0.026940569248159355	-0.3535229021434332	-0.10337301547712216	0.07639554250834218	-0.12836470137516284	0.1448866368583442	-0.21653880452682167	-0.04400444866969838	0.08746298953517767	0.18885864634002386	-0.13682249999765178	0.1672015718318698	0.08341280220520635	-0.08122117313878814	0.048496765957356365	0.05244422070081688	-0.09355954870724606	0.04676130193294527	-0.024750263117804143	0.022844547564415316	0.06621306745210467	0.1547978544220808	-0.15589762385840703	0.28612261602368316	-0.21791471423129505	0.01581720759540377	0.08339968858639599	0.06098035604660811	-0.06227193075033328	0.004041458305142962	-0.018991151361601687	-0.059180555307812764	0.023953778807276525	0.045634070987568505	-0.07561583366070695	0.08995998754332507	0.08603639336602169	-0.009655340043150197	0.053971468143889326
-0.04804023065514988	-0.006963499918619532	0.10772767790603298	0.11222032226451069	-0.002090159396414813	0.035824204824917556	0.09927480141695987	-0.04979097608195078	0.02964922162341007	-0.031218608440600162	-0.03302446080688688	0.09276103892827624	0.10878647305520493	0.07636754161553116	0.1612725536207881	-0.008379960768415476	0.07611369434581229	-0.03070530871913448	0.059303991556590246	0.0025555521535817567	0.015335288963380787	0.06460565354916112	-0.06930962067227285	0.26143622098666974	-0.09969349550357731	-0.11108482868217982	0.11691132380237462	0.09967814958734493	0.05350425661620487	0.06366288386576706	-0.0012246772846914624	-0.0930216498321615	0.007580455819372634	-0.06771617115121117	0.0791206441852058	-0.01540403774784954	-0.08381688150192836	-0.03213858416529935	0.04714568709870793	-0.029272219879447135	-0.09013899241144209	0.036137393353804344	0.024496657110872278	-0.020487151401449872	-0.04710383056183228	0.023167153573152795	-0.1448084341497324	-0.10624082275605742	-0.0694782580488922	-0.021344715171184726	0.045666747886618016	0.1644671463326045	0.10842094771571317	-0.008084251783402701	-0.02881232422439608	-0.10350588085049571	0.000255461640029922	-0.028858484614689157	0.02897789681836078	-0.09174297013892525	0.0454707368615104	0.18693878644027812	0.010107652210134972	0.031221080034693604	0.07313968603613716	-0.043745444196159534	0.008538238131505805	0.041256784227456406	0.009767609854883173	-0.07217155475000989	0.028628382084228646	0.05140203514712431	0.12778712085925836	0.07393134649573334	0.24773873281635928	-0.07516062607121055	0.08578272983310264	0.08829313957643074	0.20861513994073375	-0.07623262685059932	-0.08960925988090102	-0.05993926454440222	-0.2123895724309807	-0.04423540640348055	-0.07592989912973194	0.046974660299979924	0.03798040152143303	0.18273527186120578	0.05862638861555253	-0.05773054606867868	-0.07973176974416653	0.07195102696848286	-0.1320233207020642	0.21864138419079662	0.15809979190287646	-0.05122570953245744	-0.17131345290908775	0.14039299354309792	0.03209201755074292	0.13783865575416518
-0.1787043241203723	-0.08617858192325027	-0.02225399991296936	-0.023032575950259586	-0.04500654714792437	0.06031732650384769	-0.11515841987310624	-0.006069598215385261	0.009201530117903096	0.12563185477046132	0.055060201728868635	-0.07402384136283678	-0.14976074105267193	0.17572022990697772	0.013193957980765739	-0.03208009755541595	0.1724493338799198	0.01161021218652635	0.08106354237738725	-0.002594343824761599	0.3207121608800902	0.16834164561644255	-0.05181448573749472	0.03858228188492195	0.06616517741833539	0.2370422464686006	-0.09618248234651082	0.04609674177660211	0.10650777467525047	-0.17568312278827453	-0.11832585126657752	-0.20685739195297997	-0.026940683444455778	0.07175422557959624	0.23561823264430845	0.09258987179244096	0.16260462003730494	-0.13801014582148916	-0.2006994527552045	0.02762834564359897	0.0333189886776001	-0.00936265277345102	-0.20674421000398768	0.05860983561922539	-0.13044695005048532	0.06704336089640041	0.03665982460968483	-0.11784932419785842	-0.04742014887918959	-0.10592135218889516	-0.002145449094922856	0.10534774259484767	-0.10444664922593856	0.0755194313774707	-0.05391920734530376	-0.08493655966997844	-0.003119407185882484	-0.10352345066871116	-0.055737712408121164	-0.004033033530012768	0.1814923227924167	-0.020862431428301496	-0.10368829557130385	0.020473472552957554	0.09631953669230302	-0.025559423284563166	0.04354554269609627	-0.0008085411154813027	-0.05305011476105275	0.020224861393709662	0.020349905634045505	-0.22240351616151496	-0.09611838101000415	0.22626309269740627	0.1809605053199959	-0.02275381617385735	0.09121609244837187	-0.010002506801020846	0.3502034908515941	0.12601485582727096	0.0008812661004974801	-0.09555404406004259	-0.16419549866903452	-0.014028950464213614	0.0050489057618673845	-0.1691573609428986	-0.03067590479503217	-0.08204081793417779	0.20210617934667952	0.08815566878036457	0.025877868714538857	0.1781353167065575	0.007528930942774445	-0.15347187854083547	0.1604376588520197	0.0475144110910299	-0.10372461543264565	0.04089400186359842	-0.18599262093033675	-0.14809062596950004
0.12754953908590416	0.2318222042420299	-0.1092800087088454	0.10465830084519163	-0.06506425691218269	-0.025568851694166495	-0.08420969357431751	-0.07570436007935472	-0.008412211420311375	-0.08727963165529824	0.015522152784115577	-0.01764016090698731	0.0016295679525191	-0.0897887967081383	-0.025714260435786333	0.07345031528532069	0.05795548840025279	-0.09778991362039938	0.03278992683837078	0.08846766478465232	-0.14974869769339352	0.05865534406231448	-0.05714616487326074	0.11120445985904305	-0.07045643059206345	-0.16327271386954784	-0.16296169573433816	0.02478826569089943	0.01715755399296588	-0.09080759988352922	0.06385924587773739	-0.16702512282759463	-0.006607979864731658	-0.12110161997624568	-0.07449601834797315	0.008366364697476253	-0.08719269520226339	-0.03845555442298254	0.11035902110898335	-0.02924760465012564	0.07131394435566804	-0.10315044776625702	0.05298041779152828	0.17636444523534345	-0.24716445001272894	-0.07918486392323744	0.057707212718054006	0.009877584623179152	0.04015540163888112	-0.06039851867158206	0.02245970130224759	-0.00045915442775730834	0.13777134889172094	0.03361567661919416	0.009237555684810526	-0.044681501831320705	-0.046799852853387634	-0.0432536690593617	0.03615026464643098	-0.03941544356590342	0.02259881540198331	0.23704689569100018	0.10544683531589685	-0.0416989003598883	0.13289458176527305	-0.04485681619540665	-0.21669321843693148	-0.06626199279297365	-0.18707919210258558	-0.030869863366736396	0.029944304677872992	0.17511001673464527	0.020201065261663858	-0.035259548333086935	0.11279313905143125	-0.2166800615470833	0.022628658526663476	0.13953568536610395	-0.1587326659196975	0.11988750260986447	0.028348476733449857	-0.04152879139008013	0.05648177601690471	0.23365064720961876	0.031252731738548374	0.054908273995550726	-0.04064001765280826	-0.09014518906110452	0.04695519577736228	-0.08559582839107605	0.018511944112288167	-0.0252937773376582	0.04779290038233477	0.07418438643183724	0.14448429961486128	-0.05522525491886254	-0.026987493529337128	-0.08893002705337566	0.004127254506363722	0.05062985660126839
0.1053935854290542	-0.049617874181209054	0.11695538434958355	0.17839638879235586	0.041343490322370086	0.20768296846705764	-0.09441486421673896	-0.12338963331969617	-0.20794354056712136	0.11374559516507385	0.060935219397976956	-0.013876258719404497	0.04737523476261714	-0.13438999308875854	0.26908373303438593	-0.008558556249316998	0.010361151409822687	0.07271804408610534	0.07834994457467598	0.03654725419547	-0.11448874956530174	0.04990594924249764	0.2094088946334456	0.1866539530534915	0.16183739905592245	-0.07965262837084956	-0.09861818127471192	0.011046593556670925	-0.0002278566641479668	0.1096424715877108	-0.16924646297148194	0.15278907163454702	-0.015800789857898942	-0.04268810699474201	-0.14251368864395655	-0.19456771843660392	0.08147700120575295	0.007331796718840389	-0.11620036353946164	-0.1159449670449194	-0.03386115516829436	0.1776681497517539	-0.02595913513636048	-0.1508738334936614	-0.024574306408594433	-0.026947096031999112	-0.26968866429415717	0.028635409623327186	-0.02318099779670084	0.06962063648134184	0.19263677463950898	0.12400253555961474	-0.008441353509607424	-0.113929212381348	0.23604024598471632	0.0048034903281487604	0.0010557629811198577	-0.00240639793073343	0.017619023540855695	-0.058792621619121854	-0.058878306187091146	-0.02109204768087499	0.01960394517243176	-0.060062442207286675	-0.10526714432513398	0.010437047090585938	-0.02964297727729252	0.20440007888404413	-0.2650969808393012	0.10212419869701213	0.1264758223455718	-0.21787911568564328	-0.0647457750492619	-0.08508573161292854	-0.12473874928582585	-0.07801079016342685	-0.12331656191310793	0.24279165028567798	0.07218834911114592	0.12589013206109134	0.061282091153552036	-0.11290517712172293	-0.052840801040121656	0.06614861077991215	-0.1430354847130068	0.10425239257283785	-0.030682909657772373	-0.048263749049818616	0.04481642978656922	0.04440978351338163	-0.03384719349713951	0.12271735191078577	-0.10814361200061501	0.10971816440069562	0.08462091799530465	-0.03262254122518842	0.0326133022242118	-0.1427987699178231	0.1566636451745212	-0.007731406918090403
-0.07278489215956661	0.081980799526886	-0.09337074501299007	-0.16653388246761228	-0.15566291735239038	0.06000713660259928	-0.1347575659420341	0.18035111271403648	-0.21775236415012442	0.23637692391047513	0.005008887098916383	0.032591388823333775	-0.051437756363388876	0.08361392177662937	-0.02782712024141405	0.14753631932540798	0.02810017140287793	0.015041787926923563	-0.0706556817038061	-0.015546074552079514	0.13944876745186527	-0.17972173846935247	-0.15479478390592608	0.011055740845754919	0.01774220358310697	0.0745235533305052	0.002023417095684852	0.014169082182554606	-0.05369743657838306	-0.0777523817116456	0.019584525509768157	-0.0983757964252123	0.04082527557144719	-0.17025836042378406	0.1822941632758043	0.12325150609011182	0.025299450012878276	0.09826909839455139	0.13388646689040237	0.13633717140528762	-0.18501423371090556	-0.1333124745218551	-0.06248185776956788	0.06215915067575875	0.05176590204691231	-0.07236367702365427	0.018676676447707832	-0.09242337903020344	-0.058115804502952194	-0.14066610968482224	-0.091199835668939	-0.1240148884418177	-0.10454327132006964	0.12979209113405396	-0.09928451597775836	0.2569196347224339	0.055228805237669654	0.01848536863226927	-0.08629893490666904	0.174355801481027	-0.0711729766786929	-0.00814749895168487	0.219534623918344	-0.01075111264497953	0.20789929692983367	-0.07093118325918202	-0.019600502617674178	0.10850921940003147	-0.06269670577877674	0.2580353982407379	0.1131230187308769	-0.057840157709582236	0.1135089852346328	0.18048343110302953	0.07750427038013125	-0.1567586133489822	-0.04284728727175475	-0.05873279861933828	0.03130198424720029	0.07455033766190206	0.028931718288021404	-0.13353443587101013	0.037123710411312176	0.028702966341615566	0.13445026286856177	0.07912128412115874	0.11599046653894383	0.07046806267707456	0.029755240814723985	-0.16609595884652206	0.06895894500908749	0.05147254625575459	0.027162036468422347	-0.1964272936655519	-0.09996283234090204	0.09887011120842172	-0.0039555153856655045	0.12207141655108646	-0.09401244399587211	-0.009332163018673652
0.10702727000277702	-0.023717730892186255	0.02470976884096559	-0.019955573699763248	-0.04344962274323156	-0.014457450154162782	0.007242363302905512	-0.04382407763753408	0.10136981647197323	-0.07949885096089294	-0.028106585012933227	-0.03278532779574966	0.15940340306017703	0.02641541626306848	0.11252891830028526	-0.14582868150453493	0.03598721312555785	0.08911367827360735	0.01733384353677341	0.11258570256744693	-0.021913123098972965	0.1370452574935073	0.2347213326061271	-0.021334204382866144	-0.04347243461997989	0.16810194677480086	0.15833267836779308	-0.040795826525190884	-0.048027276148902336	-0.027823588091141205	-0.13444505110342772	-0.09234391955174247	-0.1004140766752068	-0.07677975651041286	0.006291525823939971	0.03424285090097623	0.1539044151951282	-0.0998354040738791	0.09164038324340142	0.006323783970525327	-0.006059906338708822	0.0703295374920169	-0.11227220215622986	0.06647029481421506	0.01664522082130561	0.04938676828514479	0.02891686439078181	0.2681912077708473	-0.06114153231867963	-0.053099695500181766	-0.057683003178222045	-0.04325705353450361	-0.053934509396513314	0.12809868578045058	0.11967975684171617	-0.0603109671171469	-0.08175378008821088	0.04715062808869625	-0.057241150886079804	0.07525614758291628	0.015087858366856598	-0.13320972628521613	0.15462887471272896	0.17241485737177267	-0.04272786888239701	-0.03932104432872615	0.01862959946905389	0.0499133257506217	0.06585442726728305	0.22124761159465484	0.0074244587862902865	-0.08783177136012436	-0.13725719691016833	-0.06917894106679794	0.02017728946104991	0.17967968458231798	-0.04848944705388517	0.06109611122559421	-0.00287679000647947	0.12246107749593099	0.24904384342689012	-0.05308687729203207	-0.0492151006993683	0.10267600935170801	0.08997542879010371	0.1927124442986403	0.06863635641189678	-0.033149639096872255	0.04897980363399669	0.11085770031600176	0.09506952130415845	0.07088875812500958	0.10665715908244473	0.12284981584505877	0.16530079486237753	0.06095799938427748	-0.016711808031685437	0.02824226433342875	0.12425081280576576	-0.07922570294455056
