-0.04432817207690825	0.011088638282841786	0.17045553935972158	-0.11094408196113557	0.09760407193559467	0.13994864037586577	-0.06296151266755749	-0.02772937635448707	-0.10364381522651	-0.02042425389935503	-0.0035814410535077775	0.06594776468856564	0.10901499334930133	-0.0749124282595897	-0.19666419948012961	-0.002115867367624945	0.029252316853162503	0.024942565494439663	-0.032673812104823646	0.01247520996639345	0.15163138078663183	0.03817341689625093	-0.03745699856740959	-0.04979451630769059	-0.017047804192105758	0.163673996183064	-0.01833007095261973	-0.001942714032330682	-0.048231776836392036	0.10980711891087677	0.1959127947129066	0.045080381096106154	0.008202452933531132	0.003678283317423478	-0.2384545202189962	0.07451450186821058	0.013318937430570488	0.04283331528372395	-0.07123543032839376	-0.03855812918551652	-0.041102493650317304	0.10235619211391496	-0.03787598366030934	0.20826534697437718	0.04298820811370774	-0.12756759808343043	-0.013018530685460746	-0.06509021958779652	-0.2194382149477043	0.15994643348833
0.0703142542220004	0.053320731789931256	0.016540366029970426	-0.13820175686924377	-0.04836171395554367	0.08417807747840128	-0.10512200297825028	-0.25317693162508137	-0.0227106007780926	-0.01417575540275386	0.013556341641470916	0.07285186435145362	0.06376058122312087	0.025876980524392162	0.11955313880867094	-0.15189697808133149	0.05045818144773903	0.06265383633369424	-0.12395622860802397	-0.15028706086823895	-0.07459421264756014	-0.0661541442515292	0.07534194635024308	-0.061453878369109496	-0.0856348518281204	-0.061163373669455914	0.11186323341542118	0.0013043374376952134	-0.01792510253569118	-0.011000549870105148	0.12920603343265227	-0.07491717266032419	0.1315508290940104	0.021049629892150364	-0.016041938197534772	0.25009004979342814	-0.10556394897985964	-0.03536857595670061	-0.12324312391640002	0.09524619705361695	0.1689188933651679	0.1669922781404639	0.12239487531460047	-0.019762046779596563	-0.03652409774898465	-0.16711697724940652	0.20358735351817928	0.04689780781484677	-0.04919569048694831	0.13280568889869676
-0.03939592456324777	0.04066221007856982	-0.01816654605848706	0.11694700688066803	-0.006356563624250096	-0.1457300501169336	0.049045716688036735	0.10720347272152668	-0.005505791101730117	0.10526058695994212	-0.11644843967092017	0.002694468257214648	-0.058448463176815756	0.11392958453285135	-0.01705706354286404	0.07051614592172767	0.14509176468446278	0.06918636425213241	0.01933869257533771	-0.09982122585114053	-0.016689664507677674	-0.05330642566133342	0.022178206242380635	-0.065359818935624	-0.07449724201132947	-0.195733858913399	-0.06682524339482396	0.018620631381433755	-0.13548649825081271	0.05015441364540739	0.2181924058240704	0.10087065474087814	0.19139849617180937	0.03911278769327262	0.10763652004868865	-0.0755524552729847	-0.015521040660437233	-0.2757435799520943	0.15778328315205215	0.19732718127918278	-0.055317724534727	-0.054272615841344705	-0.07538621136909615	0.03778805778051282	0.14969105026496007	-0.17306825372964976	0.10960452876209732	-0.028730065028832106	0.011349111524596998	0.04584870203624375
-0.020753907254860333	-0.010358681815325616	-0.02403367899097541	0.09288575800020091	0.04187644226757141	0.017834804910088813	-0.12600491654871285	-0.03279352472347544	0.08922217149996454	-0.002714776471085537	0.08242105732233128	0.1722941495258974	0.1044742195754773	0.006012653137843292	-0.03627866785297036	-0.25505990221785707	-0.02412139328176906	-0.03258752100638341	0.036556563362475265	-0.01539052269746876	-0.009543917617906291	-0.17793910382735784	-0.08989886656540962	0.10158747379018544	0.16942202107767257	-0.009752538374562345	0.0327774101530832	0.10450306667307938	-0.08363843112599098	0.04522528048062894	-0.07440771683751068	0.0893617082329989	0.010535127306564642	0.029845181398143978	-0.07979529540252603	0.06490590768130387	0.21316786490342043	-0.10783062986824518	-0.031503227156713574	0.01871466813408517	0.07864062119958165	-0.010379055988889585	-0.283303029014274	0.13586900788543757	0.06895694216265316	-0.17114949230473492	-0.06303845261572895	0.17153460442809007	0.14484240115607397	0.09384284026186993
-0.01621961080624506	0.008298741881250998	-0.013333302762547506	0.11298967759471974	-0.08758424064951102	-0.08093399451227344	0.10174688523902103	-0.0014827311615458903	0.13774029569822102	-0.0675460633990785	0.0028480463711848688	-0.09380486008499828	0.0009324066339693215	-0.14775573732777292	-0.03953555085322062	-0.14352397346482454	0.06856193336100552	0.07165891778641412	-0.17329215742689558	0.1333885745500573	0.2604323865880746	0.004600638673634095	-0.06116989374273972	0.3084027131384877	-0.13175889903254848	0.002010646686909839	0.017962227263192344	0.13822290136597215	0.033839227500115955	-0.04513917305453815	-0.0942127811239861	-0.03197357053502588	-0.0997739065170837	0.004782531978468295	-0.05677177902888123	-0.15008253396524082	0.12748065227326824	-0.05031358956611785	-0.12411847309674726	-0.01707043026330782	0.006837156596765876	-0.15147429987384686	0.03316476671257628	-0.10456998612129842	0.1712875196809142	0.05470002561320979	-0.03871343351968796	-0.06748932073152158	-0.0104966907487075	0.06127907415832898
-0.0025494880019532756	-0.021715880713685663	0.005837029079190468	-0.060385963702019485	-0.03432059268430377	-0.20857924389050042	0.09737257017009247	0.029879778423166713	-0.07734559441434413	0.1898734548196584	0.0087016653513148	-0.10361436454890194	0.08567373869021051	0.03980476362600187	0.03945799854842194	-0.042575560465159056	0.04504951816955353	-0.026175822262142788	0.05559414128883637	-0.1904944454010639	-0.04338734110619201	0.17221550978081948	-0.07670683039050638	-0.06038379755492234	-0.044796158326856204	-0.12148061358886433	-0.22082807762282522	-0.023058620927387932	0.013585942408165689	-0.005250554259234156	-0.014487886681491913	0.004304083067568094	0.10228410406427994	-0.01904461859292168	-0.05740826177609566	-0.02811254832192795	0.057934628947442335	0.14120268785432497	-0.06281441628188306	0.009893322749050441	0.03383574419359597	-0.09925777710038947	0.002041716721291813	-0.14656738988240692	-0.1769050918148963	0.0366746407892257	-0.03838756156931139	0.020228045606400295	-0.0017894974415832293	-0.09763999845635489
0.03561581144773681	-0.12331012937818132	0.13905981269980996	-0.09811107994467314	-0.019578177019448216	-0.10422797404846049	0.08399540388888407	-0.03178814804133608	-0.05315564188124594	0.10669797175094367	-0.006789716461153741	0.055658035495442446	-0.09547951644000309	-0.1129391869598864	0.0003640097879793922	-0.030888494975486912	0.09007563731689541	-0.007982733445078976	0.01699058422831189	-0.16233825299412435	0.17729211080914936	-0.016423588228891027	0.10432848383663318	-0.10769849170451705	0.046576037529277595	-0.13028447635247453	0.045204941337788525	-0.03817293934708622	0.002670423691999138	0.09880663607306323	-0.10466914954189277	-0.06886913313542718	0.06668785777319049	0.2098221474546747	-0.02115468416637886	0.05908673282721414	0.01681390664873681	0.19421821690592533	-0.1493050624542161	0.03992782744233822	-0.1625544033562061	-0.2722464935670454	0.029746205311781654	0.013859384763584929	0.000498428194250145	-0.010159742662491249	0.356102367985908	-0.027692823715577627	0.05091669109494488	-0.06495201894795212
0.029521076216688452	-0.023823367118749626	-0.04105184827297301	0.18188769957296755	0.1177184963184339	0.013674664739923069	-0.23042126196640383	-0.036101001088116154	0.2703027262223207	-0.023067662258818646	0.11032264966808833	0.1441940884291753	0.02189617562874496	-0.08418245632566691	-0.24353123317828884	0.06841632541383136	-0.08147750392325505	0.01761503806411891	-0.12498150561172966	-0.02652375404702022	0.0033730506095613474	0.026859558427051955	-0.11148216152572428	0.11969109508936251	-0.05968991922823162	-0.16744694604532454	-0.010902341996346382	0.0034375775085329343	0.01605894331717598	0.13621235515962796	-0.023645596158054717	-0.011961982815766527	-0.11032010292227196	0.0820553502887897	0.018431996644059707	-0.04200306389403714	-0.1904675960570879	0.14444121950550876	-0.12276917503280248	-0.05912921983695819	0.03583445110760033	-0.11965516746089233	-0.14935097782531434	-0.21239486478824496	0.07209742215074816	-0.0545186244726322	0.2927246840749459	-0.0994354455481831	-0.09214502899211763	-0.05653929871016333
-0.010671110602125049	-0.0470203313926606	0.056502076725739245	-0.135222414301109	-0.1381589219909992	-0.18769174114598033	-0.24179825496059673	-0.04107255811108184	-0.030113155039891214	-0.092389247206309	0.1701188927762324	0.10966777644978264	-0.034570845888407614	-0.20749486739440517	-0.009791443153360366	-0.06000019441823468	-0.10140841120714839	-0.06976295940037355	-0.06540922043614948	-0.03865416158977598	-0.0030791113519148764	0.020833631057443004	0.0167971641302307	0.04798788438689193	0.11123171886780986	-0.09800623018406142	-0.16178087378462783	0.06018364020298376	-0.088161866729421	0.027118693035373686	-0.2548380697945949	0.14650485202924335	0.04230576950223237	-0.15004765491630018	-0.14455359516994545	0.15754227389015565	-0.08797769334937215	-0.09590884950042723	-0.24030426514553876	-0.06780261565825224	-0.022771961483575284	0.19262706809641067	-0.13990784281844756	-0.15167511556985086	0.008977914946462667	0.10802699458016922	-0.19791685634346362	0.14233374949258518	0.003981053480832543	0.10917499814486945
0.007699508302639461	-0.2522277914999773	-0.017490179974360028	0.11660935756118669	-0.08937405906661987	-0.04229557049149087	-0.00554235664542632	-0.28159553892871264	0.16591754770019557	-0.08844039117403679	0.07072225362109645	-0.012753827040066142	0.1274641672666398	0.04813640870807519	-0.004125041014584423	-0.0884529259937915	0.08263113608828176	-0.18733399504142462	0.0612477931597343	-0.10990447515548728	0.15159761790418694	0.016130843753213345	0.08527873050080705	0.073427464904163	-0.17047341030502486	-0.08607291633953384	0.06723572432281759	0.027933005258325726	0.1134359216134391	0.0642593465904349	-0.08859918571279542	-0.07507170539918848	0.014598135901524303	-0.23140440660001055	0.16353065691425223	0.03901415781575742	0.13988864956042726	-0.16380055721581396	0.13944112837326428	0.23038657683197142	-0.13208783553773176	0.13311420589975836	0.00011099446872931465	-0.15427399427881222	0.05365885972547036	0.08882421288482545	-0.04323467073570974	0.13618114960169694	-0.16661081463320426	-0.1494903651088254
0.013659739558875237	0.002538527797227172	-0.07165734884241053	0.0809594435971886	0.05308943142159494	0.0858139070934016	-0.012313643535226761	0.06025802679783409	-0.04456503030299946	0.20538186900865957	-0.08125457701219858	0.21052974294583124	0.003488794708940857	-0.13755108895687426	0.1368079350488601	0.012590138839495902	0.0851124098380238	0.12238559185425933	0.03379555541450253	-0.05922408448128146	0.09757133776692502	7.555074545955481e-05	0.0685857818608419	-0.21537305737914614	0.044698171700985195	-0.06385858251450302	0.16533096371785305	0.06230873478890952	0.02398577458492966	0.04863099933502216	-0.09984408528767183	0.1623256690528054	0.19913704184169045	0.039291351054821635	0.15904035685736387	-0.056914819867253386	-0.07971135662249808	0.004092474872892285	0.043494103836789866	-0.039398668124312045	0.05377681903684838	0.030638948207341407	-0.0998306775291055	0.05187930174517213	0.08635282425215213	0.017146931759039096	0.11526481032616925	-0.1217403793496952	0.04679504221318517	-0.11702807063967749
-0.04796175127545022	-0.063093083373779	-0.0942087758726128	0.00469847493295899	-0.021414942650919963	0.08371320683990194	0.01009779744404399	-0.15685967436643822	0.11221174090462452	-0.04952983435107703	-0.02139152881144846	0.051103215351606356	0.023871047531985826	0.15323065030164543	0.03197910294567118	-0.08474966948872463	0.2615978407631744	0.01944204117891716	-0.019685967997029787	0.0963925423055571	0.005488695624476452	0.03992281929393271	0.3039084016437882	-0.06590296149938134	-0.006794869885173487	0.011657851201246381	0.10715158767036133	-0.15519800487035776	-0.19687324158396802	-0.013758725442478165	-0.13402130357226433	-0.043013572461165155	0.08353943150744965	-0.08907488635522637	-0.1532818410351223	0.0069304193506072925	0.12938454297231758	-0.16949735625976117	0.12192595468510048	0.13028283051526623	0.09540851021566281	0.08695470208037527	0.2202013924659616	-0.03563130114331461	0.05703114647563102	-0.04100990012987084	0.07374729866303854	0.14970078050312047	-0.13465190485623907	-0.08611653914247243
0.18991675509224065	0.10200365069020899	-0.03641168396016311	0.13382771218729775	0.03412147615670171	0.150016229317741	0.042859490245996376	0.10598870251682412	0.2623920418013349	0.08648855506333478	-0.0027331277073800397	0.07619777692229762	-0.03312292987211786	0.2740624499454627	0.009148233279527742	-0.02586485053078075	-0.04935007016993703	0.10972731078669279	0.08186555624255364	-0.04973543714140932	0.047380291804103025	-0.15085516619063416	0.0661258407531729	0.028250555416309612	0.19161505346174396	-0.07708188027286894	-0.127835853349031	-0.09073217730549321	-0.1354042761004955	0.1753052084175129	0.1801289165321096	0.03227119051212656	0.14864586543250025	0.013395838058023532	-0.018120284505617524	-0.03390466355015243	0.007792504796713437	-0.15483477269177062	0.06169856536209036	0.035262306912316556	0.07453607240778758	-0.006939973445106984	-0.01627037015690918	-0.08709811335797601	0.04342222844031564	0.07589373497598985	-0.05282901587205663	0.009620544136752505	0.023229216181369892	-0.07182003300487741
-0.058785630490800024	0.023061084876621445	-0.1133421018292623	0.03499237152493925	-0.08953543736592001	0.10628536930332165	0.23378277453883	-0.08607568017018197	0.05342078623746747	-0.07267419048820194	0.10409541737977895	-0.1265258409085215	0.048058675842771265	-0.08729889668893527	-0.020698458909836875	-0.1031025275147307	0.08223504708957537	-0.08369803544395871	0.05519642593318276	-0.03440980282623329	-0.011447237179886294	0.014775590740012855	-0.07618246716588488	0.021036711354088692	0.1530334564354411	-0.07780947858327143	0.11718101432738448	0.14980976334877844	-0.0816154989028044	-0.1455054605090552	0.03019609001717647	-0.0547407522766873	0.18686032191630025	0.0034807540499832202	-0.08021994080351792	-0.11471595110117115	0.10899049590908304	-0.057118397408418654	0.004382879946042826	0.09558027451124809	-0.04842583519308302	-0.004592882874016064	-0.0016568409822520077	0.06833245115160919	0.05907443355103258	-0.022011373125482854	0.006364906149651771	-0.03717790115234884	-0.1477612406919445	0.02576008573981294
0.18908494426956715	-0.08837191404563811	-0.07730324429955761	-0.087212269588212	0.07245917787231225	0.04484854541964401	-0.015935130754716652	-0.09179764518216352	0.009237329549126627	-0.15654299967620536	0.014378160791084523	0.08713732626446449	-0.12511973027484893	-0.15334851705827587	0.15796733718279998	-0.06117596395045849	0.11349319743745881	-0.015399761170430492	-0.016195782968812168	0.04384126994966453	-0.08834137144342778	0.013249714349564554	-0.03825631202261369	-0.131932428954301	0.03369093480204383	-0.026330780687791617	-0.015702482844470782	-0.12098957242518874	0.15914002544361852	0.08758780858578859	0.09634215219424903	-0.03054288219669841	-0.17298607336988606	0.19529173824895107	-0.00611083120838113	-0.07488007085292332	0.04158139171162839	0.11671207880032974	-0.002398088078143311	0.12773778070884795	0.10829999385168686	-0.10753759955077734	-0.06737901056594764	0.09575369991511178	-0.27136141644282874	-0.014944458799877885	-0.14326781822526552	-0.04762778837649814	-0.02988197858755366	-0.035824437819619206
-0.09125083118093813	-0.10971436099842354	0.22465431441556605	0.1474372234419066	-0.11620623385715909	0.15092243184664503	-0.05979349933804376	0.02397152238962619	-0.006365791225599776	-0.09613521530545269	0.14499397296481303	-0.0001489965002518224	-0.04871768730394662	-0.15949536670886683	-0.04261680237660475	-0.16411885947747265	-0.03583314385576697	-0.11965341218497112	-0.026743043770205026	0.1370101853610371	0.18156522343687642	-0.003225952587000927	-0.028843705796788473	0.3287595046667364	0.035983240463371154	-0.03278064598765229	-0.14260404322721637	0.06194422297183637	0.07649683094015469	-0.06818343680425744	0.013728289875847613	-0.02900568582060178	-0.04350384080080059	-0.24878220575623314	-0.018740285349799084	0.08774405492470182	-0.07834368826216401	-0.00629990789393265	-0.0900840782100329	0.0015444763702151271	-0.021652319753617363	0.028861944259672184	0.1332551467665128	0.09323783784958091	-0.09754841343970738	0.05761541115487459	0.009616668083717033	0.09888041519535008	-0.16918889918823105	0.10065266066998202
-0.06498419197101227	-0.03578279334412669	0.26298442251805954	0.022548136514061335	-0.03863224768529207	-0.22180007204794777	0.13447008123067675	-0.13344656321748966	-0.10037157908552653	-0.038895219109730296	0.14737157842022738	0.07538550434496179	-0.01609979236939036	0.02495996285304448	-0.0549924532327111	0.013965796341625173	0.00032488222920184064	0.09688001126572643	0.0967668545797249	0.04939773822056448	-0.029371126040739215	0.07418222943901266	-0.013690625509620769	-0.09182102315695859	-0.043575562680457355	0.008452698378432454	0.09102156052120952	-0.015874685159524286	-0.12148231188150363	0.0025453520799983047	0.008252601255615293	0.019156044143960847	0.08629575230648184	0.10189232400898984	-0.05821115152163128	-0.06346753105612593	-0.10691616017769894	0.06766413377533606	0.14105705524256212	-0.03777366547440608	-0.024143056472499314	0.16045221378887595	0.05055578532150077	0.04360711974604535	-0.12680104767305594	0.0683759584234917	-0.10087747423969076	-0.10971007087201318	-0.03462138166907308	-0.05858084833744193
-0.023855130612105674	-0.14409816345249188	0.09561464411492152	0.11038147072817991	-0.19473424741408144	0.0973556840288411	-0.08239183273146329	0.08805521630255561	-0.006864200276548917	0.0012677034767935944	-0.011424311628087736	0.1198461668201704	-0.12387385338963887	0.05905294716092697	0.11785352309094163	0.07166271747261557	0.23014198826561627	-0.05289467627246989	0.0956112938195906	-0.010609063534142033	0.13233495113351515	-0.0007688995721369475	-0.03901062064897368	0.1525294379577031	-0.05029567680635346	-0.14127257589005562	-0.051684688317382856	0.06493194130712776	0.13769073900985512	0.012390872387432491	0.13100852973019989	-0.13389234534205452	-0.0449483113942256	-0.02885751171541012	-0.011549394053095846	0.00784425626934651	0.06842723911351485	-0.04521723462737882	0.01394759669178709	-0.00667226424615376	-0.092588990389115	0.008145483957972623	-0.014365952989711814	-0.016407061703083883	0.0015985926685746102	0.009206466899575286	-0.045492559420508324	0.13310344973617474	-0.11694806292030167	-0.07209701084698963
0.3539228164404713	-0.10379913539723809	-0.13609208511427875	0.14249801312164168	-0.2077125934835764	-0.02418322450300006	0.26663387360180585	-0.1474505012039672	-0.20104336558517696	-0.11327115972192192	0.08513239675650394	0.11682836557495176	-0.046015977213460596	0.1186575075452436	0.13144557148753325	0.18085317632883266	0.022702717425568616	-0.23013709454994613	-0.09020966587070557	-0.042680419493525766	-0.03260439718924817	-0.018785933772553547	0.18338499712233075	0.12464651788381073	0.012560203689713877	0.10984848760518187	0.035764057271665456	0.008517455877858753	0.08703377145461094	0.07209088436636016	0.24253655078482983	-0.14217861433211454	-0.014079144661954293	-0.012651889695395031	0.03099132019591842	0.12416464368576052	0.05660112252676611	-0.14362420201312204	0.1370360921789469	0.1310089893028438	-0.19418586593794063	-0.006039647126811482	-0.1590141830680298	-0.0663785753198534	-0.039763702620775616	0.08528725779778747	0.10061861204151164	-0.121358410620319	0.08791737120099448	-0.14339932850129075
0.06394860263777136	-0.08140106550469914	-0.036772675793955475	0.07913100563174569	0.05214502055282063	0.13343763497192065	0.012740557874321726	0.03151443987865879	-0.044745985275888876	0.03396015771475498	0.03698259774498138	-0.006964703326347128	-0.17845612895463492	0.05414841255549737	0.027851211025101102	-0.06734221988001289	-0.10800094473537528	0.14759222227115654	0.04624010031255732	-0.02290810309217097	-0.1225346299358864	-0.08218047239717959	0.15781630815652023	-0.0029869057240166867	-0.04278344120064637	0.05096892312246562	-0.08144165367484961	0.1485641119347954	0.1349517720940176	-0.022998810929067536	-0.04821674210843468	-0.2623256502043769	-0.13273623954048686	-0.13394697749577564	0.008544304890267366	-0.03337101603062813	-0.11171184622858041	-0.028660470114833803	0.07067664988362754	0.07616925092290944	-0.18996702808588814	-0.028746071858140248	-0.13833407769716105	0.09009992420255844	0.09964704141136264	-0.08930388371924458	-0.04035897607533867	-0.04745339587284419	-0.22532645877558707	0.03358860252410175
-0.026178120501273043	0.09701750825678591	-0.1099247005944526	-0.06135069518326293	-0.15065263393409664	-0.10044666347629941	-0.11680708998064152	0.09974230111394118	-0.06996938305744721	0.012340068212061798	-0.03809610726493133	-0.1267360088950716	-0.016692599386991757	0.06061890984884056	-0.12210313359107403	0.08104016979740236	-0.08488998093122366	-0.048296296948523866	0.052789166090519674	-0.0663436157219488	0.0038809065753489156	-0.03146770078932519	0.014614322303574774	-0.2393604362130669	-0.1820481346870908	0.06159670060468382	0.10371432951983173	-0.09068303385859075	-0.024444863108068586	0.03103166924388718	0.06992297343205162	-0.20313658445444732	-0.088558769526301	-0.033257937984987496	0.07038442753493099	0.24972515854554087	-0.021346192566265753	-0.1407062549061221	0.0410336391608484	0.13255350130806856	0.010801412097950092	-0.0917854413188493	0.09579939414800191	0.06628954063442206	-0.1027059439483088	0.03831876791560188	0.10018496641995317	0.11812349710297963	-0.006610694445443245	-0.0358098033980812
0.12272738220812628	-0.12101605029808851	0.04385792909210054	-0.13700266273644293	0.10653762722596027	-0.025804551561116152	0.12685832356474694	0.049141275635552706	-0.12232202300619299	0.14246277320772435	0.15512452664277296	0.08822864925992158	-0.076158786503622	-0.030601395435740888	0.01454272174057594	-0.07037103993314334	0.16923465724632047	0.014432647172603683	-0.27033480471073573	0.03393558127562204	-0.034815739681731316	-0.007492655611844788	-0.03686193657856996	0.08070464166066874	0.11196877785533813	0.028305316225865376	-0.033931118713815905	-0.004133720480917025	0.0019599616577628295	-0.0802430039864837	0.057892864857123486	0.04600423238604662	0.15404412397766734	0.1255349780288475	-0.06856749175901303	0.08202983745089648	-0.09509533830944716	0.06959321009408496	-0.051661419876010785	-0.10232532233755845	0.028004534269740446	-0.2674567128154141	-0.1750975574405228	-0.01774918837742832	0.008244176663484246	-0.03693187701581889	-0.1579436298717599	-0.08178918421385056	0.03912093272373939	0.05817817706283626
-0.0017712330295331787	0.11568337810369889	0.03973970234592343	-0.07488625754405881	-0.028050241037061024	-0.1402866189335583	-0.010895740587112726	0.11120917237764451	0.06852900806720827	0.14010750528611796	-0.03024188504193333	0.13459966201720724	-0.01934215560559605	0.1470630331246573	-0.002185676905020252	0.07072308631595277	0.1473936297274873	-0.019342760435500615	0.021848328264477614	0.12888634252063022	-0.013235700134699711	-0.13208922825061611	0.2142385758593919	-0.04696714067576071	0.015837055172970873	0.11560066694511272	-0.0608502851338841	-0.1007797126444835	0.025373729677483317	-0.17939211529822918	-0.028843407145424674	0.024497646443614504	-0.02709501118157018	-0.1543450943185747	0.15947910915289326	0.010352639137777828	0.14305471599179037	-0.026003625018044475	-0.08808085411875087	0.026810158208250525	-0.02157871263282196	-0.11773726941446576	0.14697842587874957	-0.062229959984551365	-0.1841654829444464	0.13281660539573328	-0.05058732245682781	-0.0607809538803974	-0.17653649836252813	0.17409414865969908
-0.1386184016003689	0.00584494807056499	0.0893068180378116	0.0306647737210083	-0.0059654311992191605	-0.17340382923636713	-0.08639598711517395	0.024459978261673104	-0.07872474331777532	0.0110278149715903	0.08951242593954137	0.09078342767252245	-0.12276451765489818	0.2110627187087505	0.10042235431099195	-0.00015310766960423985	0.0974327552839043	0.23654212647211914	-0.14397260355368066	-0.022526264249135362	-0.20898466814585212	0.019265153627725615	0.032282910923322736	0.06286635505295529	-0.07065099522508628	-0.20495145161883255	0.03735336834117687	0.1557780211202672	-0.062435301551069106	0.04527525373630695	-0.16118449326229467	0.050021237911782195	-0.04617005888166982	-0.07624179506029144	-0.07587026224525384	-0.04305677209907349	0.03413627962765546	-0.1362043770385397	-0.04256844551744454	-0.01483931115130816	-0.10990392245318592	0.23856661947918428	-0.08534954800613416	-0.06665205585215785	-0.10837449988263963	0.18377980727816323	0.04259562915199592	-0.07655771385940227	0.1106641327016629	0.020069812084438064
0.025823257694741922	-0.03444772087524527	-0.07494160055406958	0.03386953979453765	-0.0545087228473928	0.18167556295751047	-0.12685978596596978	0.15361546614008417	-0.011135447061026413	0.02996009995124518	0.08328801619831662	-0.06301383302585194	0.08642932006683421	-0.270685355707569	-0.07203502627995291	-0.09240178502375977	-0.125283905617045	-0.021495556614106643	0.03856852160591708	0.07026599984993058	0.024049483368979673	-0.0665692765156913	0.03699282811001703	0.012328385910372535	0.09364968817324855	0.07769367029315166	0.003047641392062887	-0.08973949657839274	-0.06529501558320809	-0.054910294683676364	-0.03147754033466483	0.026799997452356856	0.07156486093324946	-0.005111869301537766	0.001595291207796411	0.014330561955492968	-0.05151790510948371	-0.09253922576429562	-0.17548083257548847	-0.06943739401503118	0.0473145453267787	-0.07036976346707428	-0.023780703742593973	0.0466423263175199	0.052134787037468246	-0.10795328521660391	0.09982202984970207	0.1127262345145902	-0.11298489618185611	-0.08238370490829157
0.15882531931201355	-0.014685348075687417	-0.22203439595094615	-0.10295203363319426	-0.024936090886473535	-0.11630680805117924	-0.014628926747176236	0.004074212214414002	0.14498820086030745	-0.007857178961760787	0.09658431390135011	0.1470314051684849	0.14597345526424244	0.05563372690178719	-0.2082546612383843	0.047015131955414916	0.13205322093324715	-0.008097306331765943	0.17092025218105084	0.08598335614674578	0.044181364649976504	0.1086397388515734	0.06661576406285315	-0.2765845318049801	-0.03397878408626204	0.11971680272478535	-0.08076155095664152	-0.025210031029564876	-0.10454634267935414	0.2066282064842375	0.18646202537794465	-0.08929516057383419	0.035382098476381754	-0.06804940477640477	0.054495227265524235	0.050921981777214555	0.10821053515787817	0.03319096818940835	0.318323618680474	-0.07265210154456107	-0.17106033544365143	-0.06377594594928265	-0.15679882655602675	-0.14937557487872827	-0.07161436209160815	-0.09190579575601689	-0.05022092932160579	0.048852033981301786	-0.050712501434817	-0.017970282396366704
0.089296463115298	-0.07663225247814263	-0.02645656927491025	0.03645421292458621	-0.19415678006202214	-0.23849055264413277	0.034531747770669904	0.04919746996498625	0.20642138235210714	0.01572636945360231	0.08201959098487993	-0.019556425461245357	0.029710776692044125	0.16663990862758576	-0.21239939937028965	0.04136156008255772	0.21345351409933896	0.02820354713196073	0.1650782363641354	-0.06292121495294424	-0.0032045220534914335	0.003352470238858753	-0.22177168135435887	-0.11675617190569906	-0.10971637611320974	0.08220660780325274	0.08721531056840551	0.0324055868271908	0.0824104286465784	-0.016477756294633807	0.12015056424207499	0.0008741785580320494	0.005695451691135836	-0.02655926332624114	0.06850040218402662	-0.04212785649676357	0.09763794424951559	-0.11321521223510718	-0.10995886023602561	0.06864888865694593	-0.008854421458301271	-0.04535546143366187	0.08900577324754598	-0.06072615309807196	-0.020145431202490807	0.13992279500711594	0.15380575627157111	0.15723983595574434	-0.028209746253824424	0.12307033489497064
-0.12084356519364303	-0.09069028569803772	-0.23900570867720444	0.1384906525492306	-0.08639797872031921	-0.01919546557525969	-0.10534918220139762	0.07945640678533368	-0.037750507664376286	-0.15348203963701404	0.08355352677935654	-0.154222122797462	-0.08418068978472157	-0.23227995861520317	-0.10268348987792454	0.017823277765469915	-0.22450187261122415	-0.14810855885152055	-0.0015398828947712885	-0.05436068960930526	0.2515612943705608	0.1833916037777241	-0.10000109423226304	0.17826283445921667	0.06222494740619858	-0.05974788580244034	-0.14955879615262563	0.018178184218555913	-0.023064905375555663	-0.04415458208157199	0.03317018888696265	-0.06821992722397277	-0.13393471953784974	0.010908297034983187	0.04031797576724053	-0.12616093877111206	0.08379246143039536	-0.18753236617747884	-0.06699177249685864	-0.05130734867702849	-0.06362237126519298	0.0497820881651428	0.1871074482308114	-0.08483360653940118	0.2163440401168716	0.05042023041414213	-0.021667017065013807	0.07825410731383674	0.2531438267061338	-0.0993642333870081
-0.17832547823963096	-0.07548661859510915	-0.005109467790479118	-0.24245301257745086	0.0022335892834988973	0.15542926387871436	-0.02218049265454862	-0.010643093709460148	-0.06183932771264021	0.03616531866497612	-0.002574436021962416	0.16197982551489784	0.1911539174893297	-0.026465963582071417	0.07910807259791032	0.10304164510944461	0.04369221695001981	-0.08058744516965484	-0.052603552625241884	-0.13223474346832956	0.14496919344371706	0.06666497134366758	-0.1715092335594106	0.19499427838587535	-0.16406233926921096	-0.08987998102438377	0.055096686074924135	-0.035573615847457704	-0.040991788401302555	-0.17563572274495146	-0.008690595934207181	0.008044905259479663	-0.1192202952992138	-0.018901429768247418	0.025409258140486835	-0.0988330307322825	-0.17460043341139328	0.15823386948236384	-0.09061293415951298	-0.07009745971543305	0.10108397350203135	0.5617669228064799	-0.12444864498888658	0.04556057941027282	-0.1379107496896068	-0.041419611323560986	-0.14828228670307733	-0.05393081580943208	-0.0036913428350385624	-0.14745106202080954
0.06829718534854552	0.005500293603337463	0.0382096150040727	-0.07521922883025194	-0.03672039342117483	0.021998927275473052	-0.1310770389103146	-0.026245417364704596	-0.08597557625208178	-0.11164479696426442	-0.17232566872922664	0.12295973444499492	-0.06921689649203597	0.09472192256080725	0.1483429832533107	-0.1285908127300789	-0.13636909598108066	0.2560605746225234	0.17497801143648486	-0.0031518513328104153	0.07851557302670617	-0.06308464029471887	0.028428710407197074	0.04833687771496787	-0.21616086875308996	-0.1321555786511051	0.002109256770699668	-0.09451434721938086	-0.012222338995456883	-0.11045735702595237	-0.08971243553182448	0.09212475848393142	0.006105652428071731	-0.0009664421313347188	0.08888343985434224	0.04015419997843269	0.13251801419785686	-0.056633866892306255	-0.05324004307631061	-0.1556104124156495	-0.04289807173724197	0.2016094492988139	0.1299987372262134	0.09637765454386304	-0.20644331222158874	0.11460787582223486	-0.21547381568702043	0.11993879846560668	-0.03664905509553727	0.07025085145634896
-0.15567334054254195	0.11711676507581369	-0.1502614459059242	-0.091939670451424	-0.09980935798593812	-0.18162767338603703	-0.002232713570733818	0.19018854523748574	0.2664968772791528	-0.011023758685146816	0.14990590421713829	0.0129576914909202	0.04919346363156288	-0.05283186313634407	0.05838237639686582	0.05382005114348607	-0.08324071405265444	-0.00774264591530736	-0.006189149921058378	0.08264033173305246	-0.057097031324510564	-0.005153739157938222	0.1820919652440489	0.23177732090168285	0.12476174064069898	0.002443184017803416	0.03209749506743718	0.11852146654766531	0.14997345098808673	-0.1937497393477552	-0.14009664591883877	0.13730855256863403	-0.04466329624326857	-0.06717207892580773	-0.12247457219622729	-0.06338572244119096	-0.1466175542086093	0.19918001286562811	-0.008784396044751733	-0.02790426287413226	0.05880766751678318	0.19677618162382823	0.09458881565546394	0.10769239697115211	-0.08853934821122729	-0.022890331778242054	0.05084984557917028	-0.02403913391168084	-0.0003111660083125991	0.03986988506719783
0.09763680261379679	-0.17776809623702014	0.07127751492005859	-0.005684303955023063	0.07074500663856387	0.07752273979517975	0.17363264428615616	0.13685677840007643	0.1339282339517846	0.153998813022053	0.02706061003774147	0.004488289503401451	0.0885548916529125	0.0860912216044892	-0.033812882066391034	0.040948794303845945	0.008831243152777793	-0.08539500267074021	0.12691629134053728	0.005519924253008922	0.20162206930253865	-0.1625491968263535	-0.037300088659775965	0.00020419633393556336	0.12126436197366407	0.03994693726021851	0.03104572536678893	-0.11274424962728471	-0.11659925162643547	0.04785520731353149	-0.12707484753803774	-0.05287827707399017	0.05972127934740088	-0.0982324272276776	0.15760138000245755	0.1215027214341367	-0.14181441678950232	-0.09368729503060755	-0.21549061253393215	-0.063816718049412	0.07663884765723994	-0.04514458178270712	0.04607972436159675	-0.1522340925618179	0.09289725906625836	-0.05462899052572461	0.02427850777935058	-0.008322857806345223	-0.12718200737201182	-0.11530935643914385
0.23529553773662581	0.0398992213159084	0.10493018302283298	0.1606078150067394	0.014299989401551699	-0.17260354629225214	0.0645867321097868	0.0023580794954339785	0.19130102122420264	0.14255967929523733	0.1235334864827999	0.0729171340178601	-0.06223902517060804	0.10591179782980766	-0.006395044557542022	-0.09101070200148932	0.05583850879538605	-0.02055593730973373	0.1483400908976116	-0.20807405253909783	0.0866907019119647	-0.09367755375321155	-0.019877934022660564	0.05007290427911754	0.12631648841731488	0.125451870238119	0.08006328662244026	0.19844667468600294	0.054152537290819175	0.08489039025977727	0.09719795529182816	0.12446169231349692	-0.004020992093619538	-0.06518885825313808	-0.055961232589136704	-0.2105055826502262	0.10682614827639612	-0.188613002412636	0.09271659314974913	0.19025664901998326	-0.04768764606438357	0.10672070689256824	-0.1460500899418488	0.11895611975283986	0.1685850650617389	-0.16872693096878816	0.4284687445329253	-0.009874237095601729	-0.08818438131638923	-0.14075826425080473
0.0026433146713309326	-0.012740686981938682	0.010053937161127248	-0.006573123248354019	0.06332247350269446	-0.038826429160714215	-0.1765726783917773	-0.014682972500648692	-0.23759802349322598	0.048327111953272314	-0.10450583968253027	0.0189192127461378	0.13282989424242866	-0.07785921477472722	0.0971263382843478	-0.04283953938785127	0.19203354284896215	-0.03651139881306275	-0.08687252428286454	0.06872384503952884	-0.052881183356861844	-0.084144346572435	-0.024836154526147392	-0.020765621833172276	0.1444117371899071	-0.19340877454595773	0.002305086968504672	0.06100694582045756	0.019263718883298964	0.1497861261548907	0.004556913228153283	-0.01922099851235508	0.07155850291469912	0.009931381495134964	-0.04238232984873658	0.05068170148327726	-0.04535434165693019	-0.06148514683245174	-0.03668964945335437	0.15441679106853956	-0.32210163559857136	0.02348044392070509	0.003427181420022223	-0.16818704880411206	0.0480825908217182	0.04775614462827045	0.08862812630984446	-0.267339151134403	0.13661448510698265	-0.07378820046720352
0.10084266752848232	0.0741073829883668	-0.0886791398901348	0.0951354445812358	-0.03854906514565497	-0.20833436472815026	0.13999545777931316	-0.07495724834635936	-0.08695046588326953	-0.026066224836514332	0.024888505599420244	-0.003970532569667608	0.05707581941006805	-0.11263806162046121	-0.0809958685391811	-0.010802128831606871	0.20861987196234058	-0.011371599559416726	0.10359285795729353	0.003855516878431771	-0.05134123645014247	-0.024668901753517092	0.015883593401807096	0.059233029619239354	0.1498933921651008	0.03596808476863211	0.11869781123840664	-0.09499780091329585	-0.042825789306822265	-0.04288337532403505	0.04737332926835746	-0.0357380133067769	0.08737221074086884	-0.09310017116324415	-0.0009726726292228728	0.06533839884455117	-0.17780869125427012	0.2096027170565688	-0.005325313871011903	-0.17889843456165402	0.015809389857678602	-0.0002454987469823243	-0.0081894379572493	0.09882515618052862	0.09423677236825354	0.031441101282171265	0.08392296354551945	-0.007351597167328245	0.17755055334086645	-0.14794573088674637
-0.034817970557314885	0.006502463118878012	0.07376122177325144	-0.1376885745318544	-0.17436726080952467	0.002779329386765446	0.0009937497456418644	0.16834785968177254	-0.12719368738362113	0.07277135525768724	0.31313635471664053	-0.05857640691238905	-0.1304363117995475	-0.08054162497589386	0.08045653805032886	0.05651727244146874	-0.11164670272854807	0.1555269538819714	-0.11181346452935678	-0.17392051521728003	0.2099683865613486	-0.22746209981442658	-0.04314145224800661	0.5437263213896018	-0.02388522540280299	-0.11207676506962497	-0.005740349822123248	0.030807947860513434	0.004346506124614809	0.06440953561174739	-0.12338265871153305	0.1820147468631799	-0.010631816648226483	0.07267940464018038	-0.057863966056708085	0.11292483762553036	-0.04289378200093149	0.00722140865365233	-0.10968200622458511	-0.14649442379215408	0.06882053064528827	0.1577757696757277	-0.08538230875043772	-0.06357012600754167	0.01754219991599912	-0.04964175253357308	-0.06776445289903421	0.05908979435871656	-0.1913914475908109	-0.14711263837924074
0.15090552884164252	-0.07370292909293126	0.10528785871692714	0.20663484301639348	0.0719175255103867	0.1818939912051141	0.06991688995794618	0.06884878441532125	-0.062385915124475166	0.3077825691344814	0.17039302641911883	0.012827448772988484	0.04631655713118075	0.2161258783004265	-0.04724093814053676	-0.06294201995826404	0.1677444784821837	0.007860170975201903	0.006302719675347539	-0.08342713430679655	-0.20745201928845727	0.023616487342041446	0.19369605795682393	-0.08918457971435988	0.1899738105991434	-0.07039163254155445	-0.10547906482835673	-0.013613345611969276	-0.009159673207290967	0.1633228172656494	-0.022478306856321094	0.1355933272361956	0.257619221795937	-0.0039144026968341876	0.10499266050423608	-0.10739001654607556	0.1928790379022728	0.10415893142200877	0.16144121525328675	0.08823739631855843	-0.29542489412420314	-0.12656874412131758	-0.06259160176846021	-0.09813908549979017	0.0965249773648665	-0.04050797632799742	0.05538392125075296	-0.11125042388965294	-0.07182401740521915	0.11209912200941383
-0.06610250546274941	-0.05149387064332725	-0.04567280558260304	0.033899347588593115	0.045624948852853286	-0.3044670416400204	0.10216352138276082	0.14363986412956578	-0.10501865373616695	-0.09722986393416813	-0.04501435515121336	-0.07560045743379763	0.02239268739466064	-0.1946525337831581	-0.11177960047365017	0.15391972001749077	-0.09282199912375472	0.12434282781029249	0.035533819559013684	-0.18092677145882582	0.0635477433616645	-0.011766730219285336	-0.04554670562497405	0.024530952882044203	0.04746334855667922	0.07075918219746195	0.11782528475480024	0.04081899438882337	-0.13756341789405713	-0.04736454576511911	0.29430482549567194	0.07245168157312927	0.2369287242811732	0.13954340821991854	0.024180207155574857	0.030137535966675157	-0.0036580042089872054	-0.17378080896614026	0.001804718392743226	0.12106744911653881	-0.05996399948212037	0.04122692086128782	0.08515910458931975	-0.09096763898030542	-0.04513028936357402	-0.10178941049034232	-0.08221659688437118	-0.12875114154307735	-0.09004484611854266	0.14194556807978392
-0.003850676332065237	0.012645922987358844	-0.05030384371911949	0.20000519921242016	0.1311168687665033	0.08640467684570872	0.08923426430066993	-0.021130327716057704	-0.12186476874415549	0.24146866900111355	-0.09864593419674053	0.07544480799905585	0.11143097632051355	0.004980008399915361	0.07913115447232895	0.07834023975526536	0.2332437006977572	-0.04692089227648736	-0.13643788296488799	-0.05054897554445112	-0.006711532867327698	0.005821821945466433	0.03534322549711129	-0.24769282488778835	0.08184734403780725	0.19723444790822	0.04641921932516142	0.05491614228435751	0.05691769993396297	0.10211858116432218	0.13386613549302512	0.0381362181055729	0.014641099496276622	-0.07959889100087542	-0.03952992196912743	0.03135574293220592	0.028792329483607215	0.031433776748876055	0.0991129343115009	0.15037946447417347	0.12827949688389803	-0.043566547126378696	-0.13077765651476608	-0.03473518097032991	0.06777765589958512	-0.18283093719093932	0.24014620958084676	0.008322486114049269	0.03792894358091967	0.13651801825565738
-0.09692086643455378	0.05740419456369062	-0.016472249392987474	-0.05740059526744734	-0.07721867727028883	0.15762269741528795	-0.056095582504213315	0.08578986641457335	-0.18756964397260883	0.08699162109983234	0.16660386756094075	-0.006250915729305603	-0.023422024510256687	0.011043359005928453	0.2938144275693982	-0.17620740955198308	0.039897060903081455	-0.09114463042188499	-0.0023792444322116115	-0.024788011907866305	0.039764261027957534	-0.0010451960885152936	-0.13041465879852498	0.29156192799439806	-0.19588348092839566	0.05397645128283421	-0.03265432958770239	-0.08751593570947516	0.010627023200949099	-0.15407650265794468	-0.010542022142343828	-0.1310336479190618	0.022257980968026222	-0.09243573336303756	-0.04334270469201944	0.01866584609229335	-0.09117121332146423	-0.01969265937546686	-0.1622452776464454	0.02779186294444796	0.17649138055507715	0.4452062210003526	0.009116814666643918	0.07942131806946313	-0.21450728281172746	0.1616203069961689	0.03449861749214356	-0.0006093333376091923	0.12392445050348068	-0.025458319049992812
-0.046623195357925494	0.0475334936504174	-0.10742765881260269	0.09969001763788983	-0.10559898185172734	-0.1069455225006103	-0.09207792424320793	0.08100040752804591	-0.06179682586896112	-0.1372734793712774	-0.04500343417422654	-0.006653332329865173	-0.11783329078289637	-0.11741351183228316	0.22922504221155185	-0.08593463920560457	-0.03565961231246187	-0.036723700181432714	-0.042555757544727194	0.06213467399691023	0.11545555163819764	-0.030595391222454284	-0.12213645988617246	0.17684859226080005	-0.010887418919188986	0.17303218148571686	-0.2245585897565163	0.026719126662322044	0.18872539659308715	-0.030435213870671596	-0.022818563935020422	0.03343405088038204	-0.05634285329064365	-0.03120719320527329	-0.034462873590828905	-0.06475997511470839	0.12346352219507611	0.04326026852538961	0.027053442296271425	0.07799765190779004	-0.026435583320346692	-0.03339625733216853	-0.06026243046145574	0.00044971385956638305	-0.10785306217784263	-0.04653762129648373	-0.05335209043060409	0.22571386280268485	-0.27739516534016917	-0.017962001323615452
0.17563413335663677	0.012184447792788117	0.07534174335199462	0.012896269161830575	-0.06673329992152523	-0.22419159345089132	0.022677305570277393	-0.07755059989947119	-0.08018744368665766	-0.048276036240088006	0.17337948777095308	0.2408297032994123	0.021887837771202324	-0.04433318168575819	-0.11898780889312209	0.046991302039962914	0.1803916153639909	-0.024733750744675386	-0.238102735390907	0.06700496718155238	0.09709490759983477	-0.15858456403858476	0.020223054134503596	0.041691392517545556	-0.0058943856449958105	-0.07907709190853537	0.10159372235635562	-0.04071172194542399	-0.1485186154877157	-0.20279133171528144	0.1276538552836851	0.061393023137429434	0.010293732442191847	-0.044027463685080356	-0.05335695051505188	-0.10757366484416114	-0.04088670459860857	-0.21200872151201744	-0.07161756624801002	-0.02865959450477119	0.060988004719041894	-0.007054991076393387	0.07949231138755591	0.13491344388509768	0.10786971385713985	0.04705098473785568	0.004810942559073767	-0.0986868657492879	0.07399420220207867	0.167973800167069
0.006605676699112039	0.19172591770650477	-0.15674814109489232	-0.14480690602723217	0.08552021220493189	0.01924064043668311	0.11545084071598098	0.008260857957763542	-0.08683302139113776	-0.0444432238505735	-0.11383568785789386	-0.12395801769405833	0.09649514186839486	0.06493964916569457	0.07789605250740339	-0.1720845060347322	-0.064227515783025	-0.12249591900782411	0.11753662685071807	-0.05837221335626013	-0.056795140467263	0.002979677355869203	-0.07858822864101844	0.26906618113149866	-0.08661555865916319	-0.13992282592246313	-0.21529135157575158	0.015289402265514559	-0.061879001856894524	-0.14663633451968158	0.107464622707238	0.07368704447558855	-0.022212192573065066	0.13643262441708667	0.0683878364919783	-0.09085615865495004	-0.1152074635185129	0.07033275396207467	0.029109152552220345	-0.008835756761070568	-0.08464978028689074	0.1661106610571138	-0.07554988831339493	-0.009829772894290375	0.11639830740083067	-0.059765786229172994	-0.18865550336513887	-0.07525999058519182	0.09957944441504081	0.025471580709487872
-0.06117119667604487	-0.05090938053115695	0.043487154552752795	-0.13584412816486924	0.030566648746523168	-0.08113229714095888	-0.11666707265420591	-0.051962899168016684	-0.03755404495899698	-0.04271192750637293	0.07566096850395555	-0.38354792484704875	-0.08225862217643101	-0.07682555105510284	0.2018649488911732	-0.107987546451182	-0.030183369033198473	0.14952275894348488	-0.13132279500150074	0.03939752258644024	-0.010903846829210272	-0.050462046807270886	-0.11028487484170722	0.08283015998981548	0.25116994548259836	0.08444558720716658	0.11016948143205117	0.07442600728434591	-0.16726844945603644	0.027601874926559737	0.08649812689505985	-0.07760694246423508	0.06394373076530634	0.07043362098540788	0.18979510205370928	-0.05199351552589231	-0.13212909547503632	-0.048994012227007465	0.12202884284915406	-0.22697504619270692	-0.20683757154310323	0.1450088800064161	-0.04425892927741562	0.0010176430576075196	0.047406831859756804	-0.04726834416112835	-0.24531011546749218	0.2425992605735452	-0.09943503687336532	-0.10591107491887272
0.10824069618977257	-0.0384489121041518	-0.006359223022629734	0.04616587995368956	0.10835814943616544	-0.03335792624070386	0.15077273891701304	-0.213527325664701	0.07597872369530773	-0.0852868494576556	0.13796018368406376	0.014049777771387724	-0.06737565241472812	0.06484028745176831	0.08957002652401665	0.06418941155245528	-0.10461261988563235	-0.04839994987816563	-0.0003577266060118327	-0.00412596526500604	0.07605205311395492	-0.20148971784414824	0.03188604774816383	-0.02756835705261933	-0.08455919470682663	-0.07424867777695997	-0.021457363280827202	-0.3597561125320384	-0.0701290459239015	-0.0888730720123848	0.052328893613477215	-0.08058656230594337	-0.02281148031494157	0.1542276627661302	0.09992374445784491	0.09016315916355577	-0.05119878827332001	0.05429154285679158	-0.024687175352531097	-0.02129179485147137	0.040968534374654975	-0.05833382768088132	0.14930031044432035	-0.016053461407529536	0.06002095944925104	0.14558744339361945	0.10053879611739905	-0.14058109195863325	0.04450806324351596	0.08507193742815138
0.24243227058349687	-0.11132948341146312	-0.06573463968460538	0.24314251440344611	-0.07617591228172488	-0.029973039044157563	0.25961293482635295	-0.0012961991098588079	-0.07706637425932202	-0.004933146019205947	-0.005958689342439101	-0.11762802562686148	-0.015268285158456883	0.13908106135063902	0.09007941698196087	0.07008664323204516	0.034621756270113366	0.11786420505197578	-0.04232311922759009	-0.1235703022049409	-0.06448095810208558	0.14381692014537611	0.14650483664105038	-0.09579487291695861	0.2239437719924136	-0.1431354847054427	-0.12856090811377957	-0.17310213015805442	0.036673118391165924	0.12463139993517047	0.22496525878231938	0.022491676915697666	0.04038919271307847	0.00017948728781070852	-0.014482483448103229	-0.16717673477855877	0.3743270124495443	0.05198606846676252	0.11697078213833471	0.17867912122800375	0.0709410980586605	-0.10139335979106733	-0.06312411362407006	0.05977166315040302	0.15035241658951098	-0.07965866878114643	0.31885737046169615	0.019457208332566957	0.07257828546700683	0.13915138868700333
-0.005173819984930354	0.03169520069841154	0.07903807920798604	-0.08053353525679421	0.005405166284600094	0.00903524242605096	-0.09998695480664974	0.23633811312937383	-0.14072934434924025	-0.13656765013937303	0.1483609813489516	0.06694654552811596	-0.10271141340624333	0.05455654715261285	0.16604890528124047	-0.0030263057596985757	0.25154726791255505	-0.1724058438424922	0.06938236422114595	0.11665283362210033	0.11183121949420191	-0.020435572664564833	-0.03260550824746954	0.09731543906484019	0.07747343479689008	0.06024734362823633	0.10400578907933894	-0.09418819199847608	-0.02527628595767651	-0.09494382986516121	-0.04188727759771071	0.10513376993682229	0.005352141606205995	0.260685916314977	0.019546138416669245	0.002158298757936417	0.007216155371012424	-0.06929193356313475	-0.008519463381544112	0.10551078901405288	0.011397066812777235	-0.03261768689306505	-0.09250846204786352	-0.04483397952373595	-0.0005551896785488893	0.12199001558264419	-0.14248053480821285	-0.018350551776141397	0.014450778520048349	-0.18337057676294347
-0.08261427516849927	-0.06798885397361863	-0.07959703738504983	0.01989484734679709	-0.016055960835228377	-0.05552861026010363	0.04329894578950806	0.1723087670699055	0.16386325098502705	-0.19186936107761648	0.057496592008432504	-0.01772361662966297	0.015555784643128399	-0.0393075455499506	0.011495234857815898	0.015168513727034929	-0.05736996484052395	-0.08963694060256854	-0.04493677161522234	0.023425926445676558	0.059653426045781964	0.08533489773401466	-0.04885602198773506	0.027897399635941383	0.09655317742253829	0.11655948951441282	-0.005883285413152221	-0.02210804154313201	0.019112619710764615	-0.11446735076650215	-0.019012376479881493	0.07443664082412785	0.06458539672401879	-0.027026760436388905	0.02159724063187919	-0.08246503402906875	0.07085032790825951	-0.007782143613647309	-0.027133558672857105	-0.03559240985977343	-0.0062893866899858195	-0.045270284605858364	0.06581430360025634	-0.03952830902550129	0.1598388868109202	0.1465210503481381	-0.08829275434589826	0.0069603714704671365	-0.0650682354000798	-0.0326647858202787
0.19918720614040572	-0.03075714171157992	0.036019877404195544	0.0531123844614853	-0.10006276143064931	-0.08550984086269742	-0.12114774953822141	-0.08857647423146298	-0.2850029592469827	0.05377580500073593	0.20585833557196168	0.014701720300596537	-0.14171015454061722	-0.06493150001726064	-0.045765168180536886	-0.10175847770798058	0.08515988117691287	0.08102600856044877	-0.11545671082940216	0.0725081044447508	0.15326680505035675	0.19025717536601766	0.2861312022982253	-0.08982802680024943	0.28214225029372336	-0.03542063885087883	-0.05925008794742004	0.03288860584050047	-0.05820863747483959	0.03932487237903201	-0.1323946979138669	-0.02388844411441614	0.12784771829486882	-0.005706129143115594	0.014539839496027178	0.04751030710968946	0.11665085297421343	-0.1655224712189433	0.05788851304781588	-0.027597955006800883	0.016663789531183856	0.1065684413958554	-0.11941866514118443	-0.10128526688170562	-0.19453453367972923	-0.05489648604592334	0.13188709997049988	-0.011956280136241925	-0.1339955021443024	-0.0485685612107704
-0.16759018571988427	-0.11251861017311618	0.03588517293686397	-0.1389648217578873	0.11126343230107812	-0.012071179644531686	-0.0021288852102653594	-0.019196599529570955	0.07727009468386328	0.06159302468182714	0.06649556793791583	0.04795609544943992	-0.02148368286452296	0.03824407996637365	0.001913154942909424	0.00026067721625019696	-0.048199458418451926	-0.045711630063916646	-0.06907962247882161	0.04676901038588855	0.1758641059906867	0.11711020928897173	-0.13559196282186817	0.23168451122276573	-0.04137499028215558	0.06007330151455917	-0.09062154336829416	0.030051812924153574	0.026480188788663678	-0.14899478659944443	0.052136118534129305	0.14101014462385378	-0.030172411024993382	0.1360168130828013	-0.018660118320578435	0.0793391417797318	-0.23093153003458267	0.23422653237669172	0.1425992368307699	-0.04815081717491851	-0.19720890266438182	0.11923988841722799	-0.1443925547073757	0.044858386034327	0.02182404651276075	-0.08825610669602095	0.08752987793419993	0.10676011124635508	0.097664390414775	0.0008823071036150292
