0.1207238257767752	0.07774073527645113	0.015367130698979532	0.1569112624737709	-0.07764944596554925	0.17473631853630459	0.067774390263429	-0.02366080722668522	0.15665986325639444	-0.10046269142881611	-0.08245141615276735	-0.07100568477683937	-0.06824528589872327	-0.10565576427602529	0.12225110580000051	0.01182961878986191	0.04133527476422412	-0.04266752046318347	-0.1930939326362396	0.02403492598036727	-0.1983682138491912	-0.006863404608546861	-0.13686837170331495	0.2174614406966364	0.09102675801963209	-0.006044103759250973	0.12583121146711101	-0.04609318869578321	0.12391870053158302	0.05396555575431968	0.07154063787529803	0.12357805749753498	0.06397991371002588	0.018267861341265332	-0.1752595998637478	-0.020748271294247046	-0.05523502557832051	0.009393234070061526	-0.1478244012183719	0.3096011479908829	0.17964294070943496	0.05983772845867667	0.03621590957359554	0.017148787902540197	-0.09738943354766359	-0.02935555411576764	0.040367317405358656	-0.1242529319689943	0.032703057375674145	0.020028103365111308
-0.19079633567323728	-0.08603850107795019	-0.0654418545703229	0.19365660498824985	0.06934835948514709	-0.13354816002224473	0.028273059318816227	-0.15474090387421335	0.14400725247007717	-0.03759846405641021	-0.009363618873917085	0.12626931555768078	-0.13813826520933684	-0.13971181851129913	-0.058397824196775826	0.13562553783099796	-0.14682259173283585	-0.2720401055393874	-0.052383723287999784	0.05184503821394049	0.11132852265387864	-0.0463161362085399	-0.04119019694226311	0.130763116873042	-0.18755966514182582	-0.05275627271143291	0.018491181434660938	0.07547328255116438	0.006313328888577575	0.034004291578389495	-0.2120919569085369	-0.0687740227607078	0.03906274225890818	-0.10522918443454825	-0.0017653433458684562	0.10746103564954446	-0.06589225581707867	0.01710485852468147	-0.12286026344799235	0.03716666489540344	0.08277072979334912	0.015601477325903697	-0.03375619376760435	0.056375757544642836	0.06792568193645314	-0.23281939350632966	0.12867098566881724	-0.034792449928032064	0.04093044367133506	0.15007049191656377
-0.13716736891954687	-0.07094410024275466	-0.02885490366644878	-0.07837534945084781	0.1734936658955435	-0.08567720938267928	-0.055554697938633664	0.02043890316029768	-0.12021492298186628	-0.039568085736128605	0.031745326125017514	-0.03328605661580683	-0.0093387135854055	-0.05293321124483709	-0.1514470309180767	0.03215932895402707	0.17549330927063506	0.001840163078343813	0.022526384151876636	0.0692722779593704	-0.12693305012431266	0.17025146581296058	0.020232879642280203	0.1631856899089109	-0.07330329955239893	0.1818061832018445	0.0775155361036073	0.05530403516679834	0.023402480271991485	-0.024852861807444938	0.12005318196669258	0.014035979649694542	-0.19670697688980857	-0.11171866010445551	-0.018584585829881446	0.03099991402651952	-0.005658886493231162	0.12189707897936633	-0.1951102190711473	0.014358797997577609	-0.1817979212717947	0.07597122954841684	-0.0094458598792283	0.04196101028650338	-0.08638829605897662	0.12794647345630414	0.10417246640588514	0.05835443030118877	-0.012951724686344077	0.05798572852951322
-0.07119765536675189	0.08555556590207121	0.14165638212329085	0.11050251302353481	-0.0625330943895247	0.036141762961708075	-0.1452427213080316	0.05720670040582666	0.08221402760249877	-0.17820026648063123	-0.11617838439123639	-0.027865480983552154	-0.038130745201370414	-0.12094769354188054	0.03873210961981283	0.054201630148811186	-0.012685959081295226	-0.06534456708588811	0.10248493616725175	0.16550334370123956	-0.05137651032928838	-0.06121669171548208	0.049065313098196645	-0.02202051280369025	-0.01622838774076152	0.06874524699817794	-0.19307424386625863	0.16162481046692512	0.06056869081449785	-0.012627581953800262	0.02571606822180985	-0.0087828809146927	-0.17090970803281516	0.14187643715056836	-0.005090491313456161	0.10027968599433904	0.07074943378827984	-0.10207871666646619	0.026749512554681068	0.02422018733070739	0.09966175167981314	-0.21144048055763373	0.011874017342535495	-0.025700930592069807	0.03819027254147204	0.037708905926394226	-0.05879679008013575	-0.07464652892978708	-0.015935088417596582	-0.06496454448418272
0.08422918517274505	-0.036920720044744615	-0.3342406047578562	-0.030393262560931313	-0.07768726633202895	-0.16312758728940008	-0.15892970132734907	0.010940869391571668	0.1925250199062067	0.04863976827695093	-0.060650338821573974	0.03319802289812055	-0.06740294443899594	-0.06946003691631446	-0.11567652284890934	-0.1204520348306281	-0.02946805904215666	0.038584259861305883	-0.02023165408036319	-0.044684120774761686	-0.10050975325211708	0.06082461916849685	-0.1317061158891276	0.10618321710050709	-0.10049265688787569	-0.09443194066195787	-0.14773647787846053	0.0068319566988449395	0.1957278205952666	0.0971326638997719	0.1639954368241816	0.045846903867224204	-0.11693374443431202	-0.049361175450935456	-0.09260848110301326	0.24335054625794114	-0.17889714720510932	0.0894475013025743	0.042691058830502504	0.28183534088099493	0.001203114121314604	0.07089146449529012	0.26955730126251976	-0.007858179893806577	-0.1547236611139735	-0.23218301235443037	0.09373180085799146	-0.18838897459253107	-0.03699631814321478	0.09328327061751639
0.0185118347789591	0.04254448641841723	0.02188700906892366	0.12784781811827464	-0.09514728943617289	-0.06769950494453086	-0.07745756280659792	0.08301910693647901	0.0904629595900239	0.04510751777381493	0.11834936668899279	-0.11783489523458006	0.16649652943269705	0.15232386217122584	0.07354870971306791	0.17842360021624437	-0.16560495580456988	-0.05235930590906544	-0.0736716708188769	0.07220198750544697	-0.10494701337508186	0.07574951493374855	0.13705903352414844	0.06961046191058241	0.0283614410223411	-0.09878858341394164	-0.08468729990520941	0.12523974121885334	0.07852596223418286	-0.003731735309452866	-0.04145723820193233	-0.20261057615864336	-0.10714204223974032	0.19101109046029013	-0.12814107677050293	0.019412408940447785	0.10035300700506167	-0.12549226680022926	0.018181791850378815	0.0942462712234389	0.0013613774275240422	0.28689981265699777	-0.1667209148820009	0.10617067514439096	-0.01732251723581267	0.07694791737752729	0.044234988364663524	-0.07334435817875795	0.022807888016248484	-0.18554307431265257
0.06014396091673057	0.029815846599052565	0.028687654634919804	0.11421324929149075	0.06131734969046597	0.014808936782056784	-0.11823703667748932	-0.07122310197173956	0.1719354092339697	0.16321759075401476	-0.023811043631205408	-0.0019185662710303572	-0.10301421821460832	0.11727568452674449	0.06636307734446723	0.24528434027143198	-0.07922762585660917	-0.016000368725063656	0.020109078109487397	0.060861255164052754	-0.029172322944987318	-0.08729610904537005	0.08814120861218173	0.09961052108278631	-0.09297643569525259	0.12023356139353045	0.11564191156222897	0.06347430777049691	0.09648557122161325	0.09897464984850057	-0.026438908447822745	-0.0023895075685935498	-0.21492919999467688	0.0756882278979735	-0.16834272734392033	0.2533221967092918	-0.07788166132714738	-0.02108891863225151	-0.09959532394932469	0.06333993311416561	0.17946975490140746	-0.24856196692890814	0.1666260625352303	0.08567417878468041	-0.1233331693552973	-0.13834238802429774	0.18951924334420794	-0.096038461562935	-0.11565745908192887	0.16022352941595094
0.03157066466008314	-0.09379255765363989	0.06837410549680635	-0.09130343043272982	0.11632988696430704	0.10613709983957419	0.08017890491600325	0.03615367571266884	0.14935747864937257	0.03568105886241216	-0.11818741254208012	0.09067424392218408	0.2642676303094025	-0.10147594931858522	-0.03649651628514252	0.04310543870956052	-0.0038917239997987197	-0.08471025182259141	0.18581968178308525	0.2320299548283384	0.027248683732920262	-0.09040682897360003	-0.15493991842558605	0.03907765319852848	0.10183894421554152	0.08998215764160478	-0.0009868602820448087	-0.07277419057723714	-0.13626302412793825	0.07864827589470716	0.07770870922160657	-0.15400586064165386	0.23543641811945382	0.07546475035355778	0.14786398703014336	-0.12798769980868224	-0.05106007652085819	-0.014859000896011295	0.11757321596333822	0.18310349168492682	0.06709525199508928	-0.018405995617393846	-0.10513553952112212	0.12832156173990636	-0.09950127900687288	0.2751497751168262	-0.016198322127274647	0.1491856167542209	0.06595799196654946	-0.015794348379705288
-0.051935342237579174	-0.03409078773460798	-0.00238517074117007	0.011494451487653263	-0.04064130759637294	-0.016563152439358523	-0.02509785078932795	-0.2128771063304755	0.10479962392077241	-0.08875457584755292	-0.11533324032057451	-0.1816919639498078	-0.2026024898350431	-0.13554475031122892	-0.07098309227763554	0.2416447227149877	-0.04384029868142067	0.03473886804894486	0.023089458584763214	0.012482138017272352	-0.015713353287653015	-0.11952937635992447	0.14499603945917472	0.20225412212516958	-0.16835664924927815	-0.12227422137432696	-0.02925028110649134	-0.04577468856664512	0.14024795114431599	-0.03064374062968197	0.27492388198346396	0.11354178064744516	0.008622707568566488	0.08745690691395547	0.09685734537703684	0.036383116112070235	-0.13845533137260896	0.007893069900657251	0.03810587608930814	0.09605735851344299	-0.1258678501172744	-0.08065375165106752	0.027941576501860382	0.04013740972527742	0.19327112045353917	-0.18528562282448344	0.06837461248040765	0.14887098054901723	0.22539999985429368	0.0012052407904230697
0.048140942351561695	0.0569760357198647	-0.00201288211326869	-0.00033927290654026365	0.06524950079295037	-0.25322458593133856	0.048322362302509775	0.012586540492542922	0.022911863074737797	0.2285047878922818	-0.06749340187905523	-0.033437395403393876	0.20140936334738954	-0.08320613048498567	-0.055222216088914394	0.03072674098636426	0.09201496699370568	0.04191939177130283	-0.11644687274351083	-0.056063804916893785	-0.06603240059671099	-0.007722104522304558	0.042502444371570816	0.06808261160642902	-0.1815784530705397	0.10341240364510768	0.023331310451409876	0.17853352038431874	0.11880948600975345	0.14945098959106082	0.09513359107747857	0.12985600652876275	0.06944421008835876	-0.016345477325268	0.21766770638078725	0.17883613819999622	0.038418211007145896	-0.12755780947146259	-0.14634467536820672	0.11015663919949838	0.04311032879707162	-0.0590685178951601	0.04737282007482052	0.20888750269346837	0.06390988969902762	-0.11386000304713183	0.010261587675318155	-0.0856193524253621	-0.043145557938358926	-0.0008816916430052742
-0.047764424819026347	-0.1255135371973395	-0.013249604628312529	-0.05615526345736168	-0.2929415677745027	0.2052972024501663	0.1086671173304921	-0.03763007263134177	0.0023933095413131086	-0.11723463618135113	0.16957228778108654	0.18970878563796376	0.015261577320860783	0.10235306441853448	0.017528678086694446	-0.13352481514629727	-0.04110984960664342	0.013201213880171593	-0.04573005778776032	-0.021791408879379203	-0.00913389951664574	-0.008087849786546131	0.005225845987524651	-0.10595046182616748	-0.07170161490692846	-0.12850558962201217	0.09767529613693715	-0.2100555227304661	0.1158566898883041	0.13906464940199578	-0.029809089144026753	-0.2604885380023023	-0.036247839787808066	-0.006687557396816959	-0.10134529954486672	-0.05117173914653459	0.1523983676312571	0.06649271689140308	-0.09276341423456921	-0.15949192709700769	-0.03259153004382332	-0.021345697989369847	0.04973750523063697	-0.05328921880724821	0.05115001436890016	0.19347648948251966	0.08156777083205342	-0.0048088507330772585	-0.018315040131182844	-0.03566837684570624
0.11714699371121909	-0.06273134459513029	0.016239127230247057	0.011042140933638995	-0.04294940065234715	-0.13724655611076722	0.036852884094466146	-0.006100360353805275	0.04888730844858405	-0.036757456394501606	0.12208212988130479	-0.07239615575741448	0.18832359476361185	-0.17476365098282617	0.04322978196319425	0.057204669150599005	-0.07727303132047124	0.05103415146833853	0.15385438089326775	-0.22319760937641991	0.052831206120439934	-0.24932708203300777	-0.09656252195263605	0.17301755466824148	-0.06166000434153102	-0.10471617346542111	-0.020534588505995818	0.21022387180410007	-0.17790719749027434	-0.09877072609089148	0.154682995109117	0.18422471139766958	0.01683105183794161	-0.12001502775113093	0.20982754451833915	0.1797260186181325	0.08963190927699692	-0.08122994931343468	0.01360065727521135	0.0014981008663136268	0.03928734697011957	0.14747836922129196	0.09418359552405345	-0.09638349251631827	0.13724968928768214	0.06721918222122404	0.07662060457573112	0.1424956971588619	-0.11136889673774576	0.0039047374373567603
-0.05553008280729401	-0.1567859425365456	0.108944965270925	0.2604266930667983	-0.18925999221725795	-0.0032280418976811565	0.11126085743085616	0.01230739843316693	-0.07282500609262266	-0.10067145045840477	0.023278674294016366	-0.023431750145111358	-0.1498719319551554	0.11945922205137308	0.0955589801327676	-0.022051868780623526	0.017859631919013245	0.10900910531019165	0.1035746500419165	0.08969880104185302	-0.02093220137526439	0.13119837385739466	0.032095001963896086	0.019577475122757974	-0.13554882582430125	0.07990948133900513	-0.08334391930990243	-0.1097812852272719	-0.16278281707249626	-0.13585720356025385	0.16211097026494375	0.1369289291966329	0.27028907904314775	-0.09484201763877496	0.022709966391874666	-0.18138395662492543	0.0493477482549396	-0.09181269802562127	0.21905152165514252	-0.0870290087151976	0.0837901881693482	0.0668106447482076	0.20687983206474314	-0.1707463791122225	0.12431718719987617	0.2507037290901187	-0.0967600458922928	0.0901876402243583	0.032082519303883596	-0.05033995480738535
-0.082393524605684	-0.0719109451449186	0.20450597239836568	3.91907393933719e-06	0.07824980817420946	-0.07908993391737458	-0.07816733241202532	0.10819740747327632	-0.134470075183272	-0.041590788969104134	0.003402741107223205	0.011065964691183285	-0.01821030892543966	0.03958197810959231	0.06928559566650284	0.07363467362682802	-0.09854569677499342	-0.028376382657928006	0.11922981448392599	0.08956447808748133	-0.13727468190436523	0.03514799003522017	-0.19781247545778616	0.0047669544132633935	0.18978565510636394	-0.09488317649911897	-0.08346188533781378	0.07674808280104975	-0.15376749154845606	-0.06313790179340029	0.060037224087070774	-0.06348906343802799	-0.02383096233711277	0.0741867848932811	0.041971743509024224	0.02700250044954391	-0.03438080400441131	0.037008141614584954	-0.012824759283488191	0.046079464553304236	-0.049590044703645766	-0.018257413428884397	-0.09886605894002974	-0.0032685651947153673	-0.08112762374618326	-0.1117074262851511	0.025903956625689478	0.021273987577743996	0.0782149566043483	-0.043025969275582554
0.03867423743300844	0.05507975722736633	0.04978527800429273	-0.07119767186690278	0.031094410585120618	0.03641405615520473	-0.0004987356589225357	-0.20867249738732088	0.03865490134473466	0.25131012999858476	-0.036003926875698276	-0.046836512383387804	0.06244936531975324	0.031237821046657174	0.118873112620725	-0.0942086674928471	0.07971674075779916	0.07720755210835054	0.025073965620804703	0.03156679750789384	0.10214198676801423	0.08723153800284504	-0.11438534663188164	0.10496203655472222	-0.014299143749821006	0.023794818253972935	0.004704263789615194	0.004943356925203469	0.15930528966162888	0.019988300384410112	-0.08639468439684254	-0.04381992104612645	0.06180406593998521	0.12587834925409325	0.05606245602375201	-0.02384239072215	0.2726649915034936	0.02652522502446219	0.14516405378233294	0.03951113008896071	0.06801435840402127	0.08931229782435308	0.14388626520685857	0.1458451755697878	0.08110356304868464	0.020608255583110337	-0.038051946753444504	0.02343698631095201	0.08803838836212477	0.0036901257766995756
0.1065112181018944	0.14526167454861794	-0.09110715298846642	-0.08372567865299461	-0.014219440095713467	0.030761259789403046	-0.05202505101197259	0.13521694170939177	0.04186800932175508	0.004049338129323573	-0.14359095238685277	-0.13120142267444293	0.02852160082844221	-0.21325956261548362	0.10126345562313731	-0.01622336275639042	0.3242419367030725	0.2307466530731617	-0.0175799422385184	-0.010532086788249573	0.09973352330526718	0.17031726099180378	-0.16380290496942276	-0.1787538774010653	-0.062221868766520395	0.05876669149785922	0.049678655854653586	0.10662672700505846	-0.12084512443609434	-0.23200661096198183	0.08535174067851177	-0.08277802652568746	-0.20127983603169797	0.014701064706731612	0.07943702223248514	-0.012937351371392666	-0.04487513162743642	-0.015934833270462457	-0.03631402364313201	-0.13546558809512574	-0.07175459412286399	0.0521376359021638	0.03180665820621276	0.01641023656927521	-0.09952272045397202	-0.017060802654712184	-0.2178456563562435	0.017804082804593124	0.14285945999795255	-0.1478659715907373
-0.0585885075457097	0.032910677871012955	0.12192496217922699	-0.04524437807868033	-0.06918658500653581	-0.19689231618763298	0.00905197791639589	0.20420391280521424	0.030948908990730672	-0.003280013025979368	0.03220823107669855	-0.0019790066833614193	-0.083781632509525	0.08232799156777054	0.022576154242680658	0.002750012025095995	-0.09730568193858724	0.13037257205242447	0.06434046391136992	-0.05446903996735103	0.10024231268280653	-0.04975708383852072	-0.0781926787507579	-0.07593840746187078	-0.17710471282873905	0.04619009534234395	-0.1837844740307348	-0.12112109548288065	-0.20465438572885628	-0.008387708356595323	-0.012659458905577556	-0.03338349409289206	-0.10592873181413298	-0.1187150918706311	0.045421532523320936	-0.053416981129310065	0.028509484339095646	-0.08852481366434713	0.014513769803062926	0.13055850138331032	0.05872960402811158	-0.04124138608758273	0.026493928261894006	-0.02317602968006585	0.0007875180888928844	-0.03444171470441452	-0.016397039602939374	0.02120896282193571	-0.09934059088790172	-0.10155587839846734
-0.1388540925970464	-0.160027110450371	-0.1218489643591699	0.015923092299552286	-0.08927871413211785	0.05136145216895724	0.00342814562782862	-0.19685057439727546	0.06563182921211831	0.08102968316759032	-0.09938626748348534	0.04198880664358389	-0.08573776416438399	0.00976703767483354	-0.12644983840562338	-0.17928627986352122	-0.038281022634978755	-0.012372894627483616	-0.03985309414937173	-0.11837383914145114	-0.03997460017646488	0.0269294752580734	-0.004489301106302468	0.01825064960912107	-0.06700940883961012	0.11714987438145773	-0.11761796693452933	0.048810275362090566	0.11829641639655855	0.04809164847461526	-0.02017079143882899	-0.05284008151231465	0.10353876502673075	-0.14234520368842005	-0.0970453910244557	-0.03975493566613221	0.12363434616210577	0.03797676360408961	-0.09691568102197047	-0.03097406764672704	-0.0614311689820981	-0.07098165904552327	0.09789788473210476	-0.13712729625416117	0.16087756940816228	0.08269694593083236	0.1090861670603698	-0.04629376606284501	-0.015032902610723108	-0.14329419281359057
-0.0524662407066803	0.04936548476431509	0.12960630617813962	-0.11071568168024518	-0.03655059369852658	-0.015129922023252232	-0.13957892021924853	0.059134924175840035	-0.07239903317426091	-0.0195390351177024	-0.04519493719118777	-0.07893385057196745	-0.00070449854805547	-0.02156095785680224	-0.037185788227866556	-0.07284616216803429	0.03195246707829554	0.1653617268492285	0.013988723283912739	0.0996118214911129	-0.13902219251534628	0.01577614392937695	-0.10973683189710666	-0.14769249275319016	-0.07393714074590363	0.1191899334413573	0.09500158286696457	0.02430047220543997	-0.1532700559889931	-0.01962806513879368	0.030170000890173555	0.017553622957859793	-0.1843793583480746	-0.08903178480198719	-0.0064077764148716635	0.053629090951719	-0.21961278210999466	-0.016212397547985844	0.014304876987895235	0.08496119885162132	0.06928575842374367	0.058257131880880525	-0.07999405067019343	-0.19080021371233077	-0.0393052757061401	0.10016318252085601	0.13934545275244314	0.07105491022977854	0.04293408228017344	0.03796396483859655
-0.05807171544555117	-0.013006029355362004	0.2230726924730835	-0.08685728238146338	0.15833474879134124	-0.032202791419028466	0.17010564100824976	-0.14069425146037837	0.01653938920103823	-0.04652597127164892	-0.14152671919241874	0.07015292409867586	0.1566486426630752	-0.08449414385934964	-0.1503033227268269	-0.026062005420739692	-0.009663769076632538	0.059753425805660836	0.1676724522681134	-0.003408957380391637	0.1982401212897953	0.02242347445352918	-0.034602250072733605	-0.15765419752226809	-0.034842361098353265	0.015397907576967003	0.09410035069354425	0.016757921414998028	-0.17516851146308404	-0.002708322748147006	0.034084089641007245	0.15292063408429113	0.16422946287656837	0.09586010281691096	0.015814589386323144	0.00727809411954243	0.22282500981800257	-0.13327762370897855	0.04371453350857268	-0.10861880689589812	0.020086521322226016	0.12936636806173704	-0.07617360312052471	-0.2507780535159979	-0.042422544394542225	0.21820296643357448	0.05745625749740484	0.03264837220255193	-0.02979236006391969	-0.1490991241448014
0.04898166394099459	-0.08342818100346248	0.25292196074722356	0.066659149482003	-0.05281361161468234	-0.06113850533280931	0.012076952017515533	-0.02397398870090904	0.09990840352319129	0.04875750197294635	-0.0731631738908528	0.2308252124941763	0.050999418043591864	0.07688396759688969	-0.061168402368554683	0.042068659567731696	0.033866005343691316	-0.17734238439026592	0.2637939005233756	0.13024752291954966	-0.033756124378639306	-0.11022697404558555	0.03467704359147506	0.02149494025970246	0.026296557251435447	0.05609797814841504	0.048493398790704155	0.13702706886407343	0.04432793329528988	-0.10213336103422087	0.12931050888629395	0.1623804022464282	0.3817364624385843	-0.0989872028675552	0.0282091240515844	-0.19682376524982523	0.12633476249538714	-0.05479098991361431	0.24651582621064433	-0.06959177347305565	-0.17383766078610235	-0.04056706974622251	-0.19622373109942923	0.08875649245452112	-0.2115026538035963	0.10290931618142721	-0.19615984778747386	-0.04308032078064674	0.15985361019535288	0.03644081256590997
-0.08631858011382847	-0.0031203488939083976	-0.038293340698307234	0.05242494352950872	-0.11686501344277464	0.05925672497443026	-0.3020183080534589	-0.06299610612620105	0.005561932117757526	0.07415275031264196	0.002263085267686914	-0.15330938401717367	-0.11752475967245793	0.01986800095474069	-0.007924786699771485	-0.01223065271969872	-0.040709752503501805	0.08646327942555775	-0.06703345857625537	-0.011738184236042483	0.2075530405283732	-0.1423682636883923	-0.18528361432409035	0.10007552417364729	-0.0678921572427157	-0.05251875635487695	-0.07865473960141979	0.02080446101069692	0.2460247958182633	0.1215845976122207	0.14111762318410023	-0.14549869005416546	-0.12812084767393433	-0.2965916932057376	-0.0926703999699183	0.18655736598528194	-0.0012430176444707605	-0.022077652956621324	-0.046733926876825836	0.013454819783552233	0.053069894683339634	0.07620772037805151	-0.12665886100021195	0.07679308263591575	0.08900679934593826	-0.08939992770585117	0.08772322055894717	0.2813855929799836	-0.01239164875950814	0.08246717567039555
-0.07433409447821117	0.01812511626020504	0.05651798973567394	0.020241657179184802	-0.10406694172980589	0.020636199555496355	0.154210097346133	0.044844548100551475	0.08949996717995855	-0.01989902265877634	0.07499002394237106	0.03757823749507661	-0.08335347525552861	0.03185210047988745	-0.09909372175043067	-0.06781917797727367	0.018244963423519042	0.0298326966435005	-0.1058601642546473	0.10656852673308154	0.05907949350766139	-0.07047284356108839	-0.15378448720241408	-0.015073346432137346	-0.04637135612513986	0.020987432891470377	-0.036459507910512216	-0.20746706988860833	-0.049993812970699686	-0.034834842453061544	0.055575598758057385	-0.06873196054152846	0.1813045161634619	-0.18645745462646873	0.13350008623090656	-0.03164405520254106	0.10653359559501377	0.007983226413549533	0.1290061401487456	-0.046834239384360654	-0.11617411803641804	0.1434638811660975	-0.01588487751298013	0.020089939958336935	0.12120760452888203	-0.07985955952670688	0.05954028820795275	-0.0612458615954564	-0.015765734610978143	0.002435985023631206
-0.15002541464234612	-0.07788370428204348	0.13710957930908263	0.08924045272907477	-0.006275145388269005	0.024312353178705143	-0.028354807204580525	0.13565813796344003	-0.0215527022429772	0.024359236217251654	0.1146030144142065	-0.07570254231808855	0.15759542102917776	-0.1530461409743377	0.16284841585331833	-0.03741315905820611	-0.023954631032786534	-0.18900308342591537	-0.04327873116017567	-0.10429774454221073	-0.060981790180285246	-0.013731096578887962	0.09578988578243729	0.02085195226103993	0.030544724689713715	-0.1084487264513704	-0.08847032451296959	0.17886788583953483	-0.07540276694369447	0.16575270790959754	-0.0249146548044393	-0.00021735642937012857	0.10927063080824724	0.12792954635910242	-0.010972842072138307	-0.038921403532988175	-0.002595758600212793	0.03379575282321183	0.09178354040187456	0.00036718315332390147	0.061530250114622945	0.16392672645417825	0.03828008995274852	0.03138608975821142	-0.15192478206327245	-0.25823116605014	0.03896042106409292	-0.010084243868348068	-0.051574119030014166	0.02417835397606625
-0.007374717877301017	0.11277802506338985	0.016013737932674833	-0.06638680757819815	0.1115485414606967	-0.021713104892776	0.05370785624761705	-0.04774113069135811	-0.0548930948703477	0.0317048460956334	0.001282864354368512	0.06678680610069569	-0.009877105107952292	-0.18363597837703974	-0.043651876735686844	0.10009776066660361	-0.024670335928110996	-0.01100020893876299	0.1300542917301325	-0.07309250649172869	-0.1506077866844793	-0.016063111952549437	-0.048398399864716314	-0.07918393317550607	-0.02278277412581822	0.06362887695959549	-0.0030423994991112986	0.04513716753919623	0.20369470326295736	-0.017304909674675847	0.04483464220152105	-0.05558567123103277	-0.050353169671781314	-0.0569912554519208	-0.051373808516060764	0.07773320618761895	0.2530033215316755	-0.07158531173999297	-0.024468751785740667	0.030253031999641113	0.05279574236963374	0.02992088812747101	0.142953508666305	-0.21803190886615928	-0.23916366942924597	-0.0062074851337099255	0.12298788974520664	-0.16294229704952526	-0.30105294901636104	0.0729692133021628
0.0243657075855804	-0.10902084067994298	-0.09854711389565676	-0.0969726409924447	0.011053572271065716	-0.0626315276183007	0.04940949798500247	-0.28546266601044507	-0.08568761231085023	-0.11260234446260418	-0.02563406783724922	-0.053801520250128104	0.07978867355099269	-0.18593367716600576	0.004549147057916903	0.05583310736888867	0.18566447339290268	-0.048176594819856346	0.032449927825475386	-0.18038824742005272	-0.23919564704831248	0.08447743757817	-0.0005560391422048506	0.11785131815014524	-0.1373402971430952	0.051993673966287075	0.1868824914346742	0.04196801500162867	0.02765107353879601	0.0008556155156333646	-0.15708883816483202	0.13555794553602557	-0.06108209696207673	0.05045088788497843	-0.1563015522860456	-0.11794891596439981	0.14351627070615913	-0.034730214238340246	0.1453345839794785	-0.007822924756791222	-0.18419304466557218	0.08920676010546998	-0.05899063786395847	0.06986890528103382	0.0025210645104728983	-0.1543051392202602	0.01642952364841132	0.21962002036586248	0.049298659458889615	-0.005751704322809199
0.10753434019568978	0.021066846520311083	0.020884953896148542	-0.10916853961424776	0.02338484152075923	0.10354434164169449	-0.08364876307174696	0.14244951044923068	-0.009079849648466393	-0.08880692272725833	0.09976320769202446	-0.02871610459279974	0.07589052720537966	-0.029175863225853717	-0.00598261435299037	0.04939552232349489	0.029095606369981385	-0.19955317804517386	-0.11219859432958064	0.09294114522482086	-0.013219300627050274	-0.05237313027714218	-0.13585740152574743	-0.10797396379327154	-0.20217833591081794	-0.010170370576851004	-0.05984375805810469	-0.09660931496492332	-0.006703440349363008	0.03645548934797114	0.2093701944994268	-0.15118845219811808	0.11587202707349606	0.0972931869548249	-0.07791961569704038	0.020387282882578645	-0.045851441624346886	0.018568858110816776	0.15082975398641146	0.06062465218449709	0.05086170905682645	-0.04303093199546424	-0.14837783905289342	-0.02079418398445541	0.12064870268097301	-0.15283725118903405	-0.10550701977853916	0.012626773623406818	-0.0984693990461227	-0.07920385452366493
-0.042421215087723965	-0.13656174041901495	-0.13928956160443384	0.0776991957527952	-0.10752945862814642	-0.15978721691281186	-0.09663274170987589	0.07317312178404164	0.04074238992678542	-0.03033440367831243	0.004435879751560705	-0.1839679219383822	0.03218068949655232	0.038343503140364416	-0.041070833086044804	0.1537521479212704	-0.10366679920677814	0.13280246154730646	0.004481025084540161	-0.03753987384191096	-0.012966715630023695	-0.010726476581094175	0.12192777333744667	-0.0814381927646269	-0.07715738757510539	0.08340507969384556	-0.06092376974518814	0.14322937412573403	0.2664007830311067	0.008671914495625311	0.1309226054894897	-0.12089450756212461	0.06769126576312434	0.006639062242489909	0.03359965058529005	0.04134115164044457	-0.2195420065645751	0.05041541238264844	-0.25084300035862367	0.06453543587847242	0.13085281222923922	0.019161563981869148	0.23557544278313006	0.15829316229509735	-0.07064409989078164	-0.03969677828424858	0.01672624178830224	-0.1598485497792809	-0.09699754929759116	-0.006734880461512517
-0.20354820070150192	0.004749346825164296	-0.06363380717046575	-0.16093109728828453	0.06150648259908946	0.07158728201618324	-0.009265423360774952	-0.03242401019652894	0.11334781054434452	0.0810390626512055	0.030740356971968842	-0.09422808641491326	0.011249621831550918	0.1195480650825479	-0.05966162658412545	0.257182657775542	-0.045223957732680314	0.021486528865412	-0.07993582306810462	0.018769595274649907	-0.18500239892417072	-0.05460417988167213	-0.10926823782100455	0.03640447266429328	0.09931541566333478	0.04369890171211268	-0.2374165647214481	0.2511495903040416	0.11704009854702117	-0.03546829166104964	0.07194175676286811	0.014341885464479487	-0.07676125437812367	0.00816499330601204	-0.07162368507659336	0.05442537640838885	-0.11892084375083932	-0.14318157081647934	-0.02871550253882576	0.14457934981168208	0.08503746718146474	0.08153096988725529	0.0685946724107686	-0.004785712566124829	0.0796139172286055	-0.18216113539083273	-0.07078519633430207	-0.09656358836397519	0.10601929511992002	0.13966115474553728
0.048386756266142486	0.10719298652117973	-0.08522565394589147	0.03840179660628256	-0.007772505308291343	0.08468822574666819	-0.01168909196189845	-0.03850637126723203	0.058378516253522125	0.09635388898376308	-0.06683451948468017	0.0006929379914182675	-0.09790798514446407	-0.24980610174929396	0.019975580543195388	0.06946132526173211	0.02729748437294021	-0.19035165338173068	-0.024330279137283358	-0.22325959981315488	0.13535822491677518	-0.10860545821180861	0.12552173542178008	0.1006134840200738	-0.09183424259443926	-0.10987005075652108	0.034759454058372684	-0.08010218130288395	0.020149654268075367	-0.041051087131224434	-0.17194411736346044	-0.22361293406329652	0.03358725713456628	-0.05445959855243886	-0.055815830587461444	0.08593353474271592	0.12479991938951482	-0.027235881837644613	-0.028490457206870337	0.06597431760707778	-0.13109558323263115	0.023399794499766237	0.06137081215682034	0.07839747437143023	-0.19559005004736904	-0.06384776445429274	-0.0828360747483061	0.007465367140336276	0.046403272986381076	0.1577811357220696
-0.04949658205180705	-0.04975724983092139	0.11473639621697242	0.029634014002089395	0.12676900306989491	0.02887280030098363	-0.115768965867346	-0.1333128321486932	-0.15494961671525057	0.0661407697325859	0.11885968230870081	0.18490217341202886	0.08414862000233596	0.11628385775349859	-0.05800166131935764	-0.11558179419893297	0.08502408013862202	0.041768015996847485	0.010605889274415727	0.03878158791196169	0.032328626545582155	0.12838168598535613	0.12949891106539677	0.05442291443115431	0.08458020440104733	0.05136011339339092	-0.0462525503958638	0.07578020860709157	-0.13928247442284825	0.10540432938349592	-0.11928368852451358	0.0285231074583755	-0.08458656023441335	0.05523119715206504	-0.0034689440200187365	-0.15937379238135702	0.04187549037117361	-0.05779207768327106	0.08789810112112162	0.00013759852887543103	0.03955704372982937	-0.09575680416806617	-0.05890229389348681	-0.04581000513510783	0.08567033611992096	0.1677302102202633	-0.08051599200540356	0.10768126306561221	-0.2169676742609691	-0.11941838316267243
-0.09587778085987916	-0.13525086894407223	-0.15835885580117162	0.04129993214643821	-0.021406766891013895	0.037940539760510976	0.06904720294316885	0.026561699587182786	0.06577660709290617	-0.006953341738150613	-0.11869933883057447	0.105781219721043	-0.05891138248317922	-0.0935596298762426	-0.01779178741615791	-0.09128101796020113	-0.041742932073370966	0.03440539215634665	0.03483417392207192	-0.08978308498295999	-0.04877054274918684	0.10743330047702437	0.04964001270870424	0.20750650394026626	0.11801280064786955	0.11442917201348321	-0.1387868969543133	0.07638613449000181	-0.0053102132946262525	-0.05509817625698472	0.016801466292521685	0.09452110976978635	0.050083187565197286	-0.08784727729006124	0.07424593837826275	-0.06375851960913412	0.021668249807549774	-0.030335006747713424	-0.021886599143168345	0.07662453343165736	-0.10401935389000307	0.19451952910800152	-0.18210845279444457	-0.05976668540285383	0.0370211889941741	0.05843146510179012	-0.010047572165547568	-0.005739291534246673	0.041055008954046054	-0.023106940854657525
0.13806910738491157	0.08393491142316023	0.11765969386669922	-0.09132421654770398	-0.008261885857817322	-0.03004659376577907	-0.08203339298852988	0.03601290015023705	-0.07543607318032582	0.0805137726298408	-0.10701915628943318	0.19566715071047433	-0.05792624529350754	0.02193023372004361	0.07903884476011898	-0.06420504313283519	0.08362437877257145	-0.12035026504027424	0.1821371130578237	0.0007843847643966823	-0.05802656560110262	-0.02991817724274345	0.08085713020275517	-0.055980927464550585	-0.07938216202311574	-0.0008973707146311412	-0.11781390052482336	0.1647857935518823	-0.08437900430882742	0.07468182849719109	0.0033509618520943885	-0.09685046446517848	0.035499014938255344	0.0902155357124506	-0.012400569147797883	0.10531873110244276	0.15389731053178965	0.09190026533417238	-0.006683024203749315	-0.12136135957200368	-0.06961879295171218	0.02279180525930353	0.0481683855733662	-0.22160774159321048	-0.002666608627772831	0.0747627777691445	-0.025117650975898107	0.12379873187500179	0.0410075980708886	0.12298523933955637
-0.023097175176649828	0.0937477492506925	0.20696454583571255	0.1360361250529253	-0.1126758646812639	-0.02536760956991612	-0.006137480958728982	0.0489254528231864	0.03252844748962638	-0.06711974625632375	0.006783851391693768	-0.17036472107216843	0.1841233099682825	-0.05123742406766936	0.005377331268598075	-0.04732007817883534	0.11194450605156213	-0.2830039360968055	0.04697260347062725	-0.010085600422437259	-0.0385523429876294	0.17262265456356327	-0.08873411541443477	0.07706290206881715	0.030305010392239453	0.15818558270355662	-0.06690633304836469	-0.10022703194338335	0.06153189875706538	0.025069736548243664	-0.1847863388596313	-0.05225275472260097	0.08635686681742924	0.09938349699501534	-0.05896896429583597	-0.32333845865101674	0.12297482249969424	-0.12203206869600813	-0.14450896995794255	-0.31250434059569143	0.06741141376028705	0.01695996520865077	-0.037002945657329235	0.12494199529392952	0.06352753073089717	0.24492101931404833	-0.1394994246565381	-0.009814617805962761	-0.1617869998877253	-0.03998123326577331
-0.024861585376667737	0.06266136372630708	0.004556318337738259	0.06234070313010221	0.07034401610334583	0.21549286773831422	-0.03152967220897302	-0.0941022712396256	0.024608416569110135	-0.08022802390649926	0.1481960768436536	-0.028321804335616953	-0.056557689672776135	-0.04713157211511179	0.0718417423471641	-0.01577467996592212	-0.06416668283497128	0.1665351917623531	-0.08561701611247835	0.003556618692261237	0.06523062519290125	-0.16313351104170734	0.0480260501405925	-0.10551076754804495	0.08227827939607626	-0.09626510146421312	0.06927686541010698	0.11058334042424692	0.08614369150496937	0.025131665707111617	-0.023130050592623828	-0.05764197035758972	0.14710346407576325	-0.06994955018031705	-0.1037066240292475	0.06653692093850319	-0.07961373921728132	-0.09500634974661272	-0.14436043715702943	-0.04829098128989311	-0.008271493547067015	0.024309172766069878	0.09513062160971063	0.052689802146159675	-0.01908722194689192	-0.019819571684617267	0.05101574674674273	0.12725701629285696	0.012631416704562231	-0.0469130854210409
-0.09923693977467321	-0.14452052644122257	0.011909198995912902	0.06446290592381934	0.08457316531897517	-0.01286594993065703	0.09851185578580884	-0.0484154882636327	0.16892028223714303	0.010260643820278659	-0.06083507646793376	0.04248690676886383	0.012806757113818693	0.03569727592669261	0.007989662252113677	0.05720159033782886	0.24916434118764735	0.141042501226384	0.05155875420415225	0.007893041875094068	0.0901261231487138	0.05179947763914519	0.002535276292245152	-0.0008607176196058075	-0.008347856579008451	-0.3438752913414454	0.019288429049948905	0.014895162989172412	0.27383142829237206	0.05683586684391478	-0.04437118044116904	-0.011942118050167951	-0.12128197288019475	0.028233198118726575	0.011956925379979442	0.21686549359186616	-0.15187674556095068	0.003488363289479384	-0.1965274856700914	0.1786326150274978	0.09577750740391006	0.04913430286824522	0.04700340009201867	0.10380245599255387	0.1567613332285728	-0.08916299495714408	0.03680356365870521	-0.10887156188614777	-0.08812895007815535	0.06553177481231112
0.11039335467019072	-0.025628082425157246	-0.023606162238504456	-0.040690676590205796	-0.05347566708443231	0.02949714670200534	-0.14973233558061788	0.12809394003385957	-0.06652469782670518	0.07218339769422057	-0.1269998597393876	0.06687758983755737	0.06718247917148815	0.038420207200589654	-0.09944282736100303	0.024958895553799314	-0.11830528028725062	-0.025276325509618537	0.10292867556859024	0.07967269959513	0.0015197164564975313	-0.09748065759228419	0.06455877121741935	0.001938348752044731	-0.232031331076506	0.07825865345852606	-0.002423283386969215	0.12025285560115018	-0.10951041863538782	-0.31766751028596013	0.027917872825552727	0.02915569125410803	-0.16907672740023988	-0.09785498411647887	0.27551823309213735	-0.03055841878610091	0.07307811369315662	-0.06506598273683838	-0.20904436140194121	-0.01701699673605485	-0.026560401921511843	-0.039987958537525334	-0.011461679926959695	0.026434385858037292	-0.015011973868055804	-0.12641892461840054	0.04861847915619389	-0.19493717553224232	-0.20503896412376404	0.07392378690254867
0.050702027213535686	-0.005739536507403602	-0.1395448476165389	-0.07079109394941996	-0.026274674768650405	-0.15958939685741136	-0.07390286514513145	0.06523303381766798	0.14273053395464255	-0.04194347454105764	0.07564883543160984	-0.19140600677984407	0.06594512467022923	-0.08039484147274811	0.03073456167079701	-0.024775242548640178	0.13204140097838343	-0.08744356483399182	0.06276063242998992	-0.027950747010229135	-0.015830547800966377	-0.01838538931592097	-0.08456731044941129	-0.0014098965906671579	-0.00626482221218215	0.024124024659002548	0.008450516999025548	0.07979945352031859	0.09235086056838279	-0.10506233218278012	0.08687724733178263	-0.11863364288627493	0.058785589953276284	0.061973880289501446	-0.19113168821620008	0.009297924652940966	-0.04684960852920068	-0.0758765257935375	0.13508523642982906	-0.0653679140637419	-0.08063769359470685	0.007569494420699144	0.06855897437441726	-0.01416485860101269	0.11663705456692522	0.05309756953543102	-0.21782113197314304	-0.05294669770154095	-0.056184209935169906	0.047936095342942235
-0.2624817091772956	0.2549009708717722	0.05310269875323546	0.0148876933386643	0.11815676723654418	0.23436540528126248	0.08707472652508451	0.09488130964716202	0.013068969207344535	-0.014152536346889451	-0.047579544400490115	-0.08261113101817867	-0.06870132457698247	-0.13505559643429832	-0.007587145068502332	-0.16846675830107283	0.01909163542573769	-0.003633060711076934	0.014693628811727288	-0.0522131581918687	0.30768604261672056	0.1360115900180313	-0.12445425000847228	0.023286808742689825	-0.0608006202391492	-0.10144790498990573	-0.13400720380598732	0.04322162793956458	-0.06813816087457279	0.09678260223162989	0.09937815264139618	0.13739144553187166	-0.08523856777449121	0.04753658882477102	0.0632454403350773	-0.04741783204943762	-0.07717705198417882	0.1609520665775973	0.022749705642738247	0.06359677458955715	-0.0822076560043757	-0.12192842908146634	-0.05694503368322366	-0.012402138895656136	-0.1064220006817349	-0.0009843100628753813	-0.16885051880685	-0.11200477614016315	0.06709112482768752	0.06037905186927329
-0.039179170304524676	-0.10177643090769531	-0.10323181477638964	-0.03726374994285505	0.06478246444483718	0.09282456897264205	-0.049894892101941556	-0.11534950974223947	0.02760496835575995	-0.08188378496718594	-0.05182526388612024	0.13244899696115497	0.08237799800928987	0.01579743122514517	-0.12719152536524903	0.021716428124275718	0.1063860292889613	-0.037213138362036845	0.13529413877589522	0.12934192853361637	0.1662529467458581	0.030524312653135294	0.058739186956105825	0.14204459915874112	0.04474208311731029	-0.05028996601889152	-0.04496917998799154	0.02502708786689175	-0.1280116341882148	-0.013727318287885766	0.11067936768580675	-0.2192888506506039	0.15330835848571114	0.1119704504172542	-0.046387319500376153	0.05573994727983567	-0.00023643207371362146	0.1230062078893753	0.09789637103243708	-0.13868826014672658	0.05954486164318775	-0.02056282224866987	0.008785339231078744	-0.0721365620785129	0.17480040551024212	0.10377054612110607	-0.07367730604122474	-0.13346106069102326	-0.03856545848549266	0.04379323579918436
0.024021314735980608	0.12531328247682436	0.07890693573591352	0.09695208357156282	0.03274401616702856	-0.13892987302109902	-0.019603863168261685	0.10600897399086656	-0.004992955301792024	0.05040738066931632	-0.03187483152461331	-0.10297175123246478	-0.012409001441616137	0.030904744303265393	-0.0655687938049539	-0.023478768940531386	-0.0939144965652583	0.11199004275824614	-0.029394799927658897	0.145289556163701	0.15288440020600125	-0.008104596472174376	-0.10084487324315076	-0.20845627452355617	-0.14720375921858644	-0.13737048080459494	0.13782501437547148	0.011843617237376007	0.039132330245506976	-0.2218853410524327	-0.11959830664182682	0.08865481146505162	0.028685985088536245	-0.014787302332165426	0.05638077994167729	0.16383235486294895	-0.0222575399234381	0.00693761832418969	0.019240659051999266	0.23944363117201528	-0.20978614955260597	0.06832248144537612	-0.011409508397973524	0.05679518384544984	-0.06573780870066245	-0.004871090059562518	0.0711864696769592	0.3112897796280142	0.08080361894020716	-0.08477381033340321
-0.04540538378625164	-0.04534141083838541	-0.0927186938054131	-0.02163034141899055	0.06846768176789857	-0.12742319610897532	0.15971992848574937	0.04875868250364458	-0.14398013377043273	0.022405006437308778	0.15983218076410333	0.13663858132771697	0.08329295535794005	-0.023768331696098433	0.007233422326698734	-0.08060104047048287	-0.2154781067045487	0.20829540913073435	0.11413213963114305	0.03949676858862078	0.006550061380573848	-0.0735116800724588	-0.018585666460847916	-0.15808674617080867	0.21723204314040057	-0.06087170324972069	-0.10343581793720515	-0.09574106564008382	0.03641794241758021	-0.03231916874072846	-0.17997321978993436	0.12971051768353606	0.17032867933765147	0.0854268350375429	0.08980848800651317	0.18317886825106588	0.3592882443887687	-0.0686714719566591	0.27451789813900407	-0.013515091885272492	0.02406571816274424	-0.1615234200424844	-0.04336856042959504	-0.10591643176911353	0.08110825120931094	0.2711340877868259	-0.20494840107265053	-0.014670286962483266	0.10986072256542642	-0.049747238507292325
0.07221808233425117	0.03511654676270841	0.0058121558483910955	-0.019327133679358937	-0.10081983167016972	-0.11215302329281435	0.04720496889279174	0.0019439994083540735	0.0348095186123062	-0.022570365447872245	-0.03051888454807518	0.10527901958898125	-0.03988113617080438	-0.13410647133015688	0.0741912029376089	0.025447209363474867	0.011931799263209987	0.1799709419683814	0.001973090119213881	0.02613226676239515	-0.12329600702278658	-0.021966945235096014	0.060872331891318146	-0.1301123039781113	0.016917875806106077	0.0020349108227892283	0.002340401296145511	0.1478350582164746	0.1121068888655515	0.18994510435251646	-0.04809892804251446	0.007408427960040976	0.015792042429938286	-0.11654035466624703	0.08372207814496768	0.3236176336491615	-0.033971174635338	0.05056332451470743	-0.017433454633809426	0.01069144367400464	-0.15118535092580046	-0.06883325124870267	-0.10458422844413845	0.22037709387832255	-0.015922233413595423	-0.047905542557600496	0.10896598975845881	-0.11610009769541328	-0.0792305123278261	0.04783116933398526
0.10287689914234806	0.05016850451687882	0.024828209039034137	0.007821213034748467	0.04004374455402531	0.020165290512925465	-0.1029994833373215	0.004607922163315134	-0.10735058607812391	0.008127614043752047	-0.04806479414882414	0.25393875595221577	-0.0039874251452971556	-0.1404239566261589	-0.013418021067692458	0.05196664494382935	0.16733632788463293	-0.05893033461455267	-0.15823181958718557	0.08168341525432563	-0.1380934361022115	-0.0436155441507485	-0.025762058111281162	-0.006945764106561956	0.06891644570743356	-0.06836869045828022	-0.027372925775577667	-0.0014033359866521809	0.015008464588930123	0.009798474111954067	0.043637869914828036	0.08438400583008807	0.039277665520257285	0.04535803084588516	-0.15822217417311754	0.005086904476289349	0.047951871526588336	0.07289671139876205	-0.06923440391377107	-0.06584390718094542	-0.05738269227829203	0.05364138998913434	0.1034126999867099	-0.04072488167516454	0.09079162379401992	0.012348214787541363	-0.01241307017229889	-0.021138422981796898	0.07466486257021882	0.032589797970553315
0.22766221752567176	-0.08522246429973242	0.03782716950348736	-0.052116962395726205	-0.08278584997888863	-0.0010867075593640817	0.003689186458245228	0.29179853383110943	0.00032574183184645933	-0.11214715331050146	0.027301071749438573	-0.2118182168469484	-0.015106043638831546	0.0016025282295160427	0.07953251177538599	0.11021170349462191	-0.04851319133692165	-0.011158819723711268	-0.08385759691865804	-0.11287475927342698	0.026086565485992193	-0.12735855485965994	-0.04152808610179152	-0.09496361790948746	0.055065211958114424	0.17235326715037533	-0.13017629975021333	-0.1722143529624671	0.01445486249023834	0.014203708228916848	0.0377938069522396	-0.0447527262343968	-0.025973394220787045	0.033465477781386414	0.10122117667559614	-0.17053687141411625	-0.05244468634603994	0.021416209504869926	-0.10739581040502412	0.1959970589349967	-0.05675614971625226	-0.004367771616847687	0.06525570054178217	-0.04485016647145848	-0.1876920738631528	-0.060840263180484765	0.10757363450854686	-0.03369781454606857	-0.08693361189555295	0.10534528586621103
-0.03309693036679721	-0.051016081365021726	-0.0514984000107033	0.08673877495317754	0.27319997398587603	0.0827236082688325	0.06353322445035726	-0.05061523900219147	-0.010866315095779143	0.027896966184432444	0.010716991525959622	-0.1259231514237343	-0.04789365730326013	0.03993176017191309	0.03584508561448899	0.1294071558402484	0.0427436186677296	-0.019929562811796694	-0.07178325748485424	-0.12432353694005163	0.1646978292569077	0.0013450364619293008	-0.022597498862582267	-0.054044072279116756	0.2929377242973166	-0.13874549974029762	-0.044524881240252265	0.12270388891900717	0.20579947680962243	0.16580471428521623	0.27608778857273536	0.04275986622657744	-0.12020469630954247	-0.04792045352014024	0.010137471023036582	0.3649822677978816	-0.22602975553590274	0.12038378742464576	-0.054041423009927834	0.22585252366264474	0.046012628057694106	-0.08471048061791582	0.1352188106779082	0.14622768620460896	0.0911172500181092	-0.07216650373497593	-0.028375400190829812	-0.15656380348367585	0.07896743796780903	0.11517998837505468
-0.09750085703739331	-0.053857367329662426	-0.015407702152741702	-0.1460001065749155	-0.08601695005682852	-0.11338303568063542	-0.019560827341070456	-0.07386974983295629	-0.1919518695859664	0.2125750303853293	0.12525407310292308	-0.05597914173891728	0.05502327849585576	0.041746508982129504	0.11897177150585618	-0.09727203660166163	0.10663258816921703	-0.055242783034820574	-0.0998597987660625	0.07392918831341844	0.13445472933956043	0.2587908973530685	-0.11997417121098898	0.06779985058630235	-0.043919015684710835	0.10165494099232768	-0.14704849635696227	-0.14720291877201241	-0.1178886433886517	-0.009333349273601674	-0.08787678861242705	0.06763297742976962	0.13561932859086845	0.07108529459646803	0.16867387945956921	0.012548615178068916	-0.07014694244613238	0.13633772337803604	-0.01952886855659609	0.06385452718871326	0.14549253876768137	0.04796955123229572	-0.16277002951015324	-0.10706005062979809	0.13218864078360493	0.0420803590011553	0.006796404139647941	0.07242376961669908	0.06955168681329242	0.011623930229930975
-0.02195866904270268	-0.03126684457323573	0.11451225776484784	0.05850721108250266	-0.029506928932183797	0.10821125469461368	0.0067614634727310345	-0.08517952036649605	-0.09793089212517476	-0.08662954248801444	-0.02724100166036872	0.14636082526801944	-0.051476597092233047	0.01884757610181029	-0.06574832778850576	-0.03711235967278371	-0.1522715440768712	-0.0214066276646364	0.014532771477060485	0.055507131282812136	0.026039490930453962	-0.11983921249520453	0.10837646007727982	0.020223629310943902	0.015948657127838762	0.021766735259912896	-0.05194606389525608	0.003911744118486027	0.01599262373738213	-0.18607763633270252	-0.07348033729546169	-0.023641051011721235	0.059880414655332	0.1309963586812549	-0.07072660929319426	-0.07113263389484675	-0.0001806370076386326	-0.08014193148896759	0.0039512048546029984	0.0575542317760521	-0.11782746556596585	0.04553385771355288	-0.17994467378952278	-0.06389914156635657	-0.03561017599871323	0.22599458988041526	-0.02669421642261329	-0.22491129699652396	-0.2023688913553588	-0.00847597072003445
0.060598887224247854	0.037545585762725285	0.02314686456597102	0.11890182427463712	-0.05125230406345322	0.08949105909128614	-0.15819601982933493	-0.09049601173586799	-0.17895151455625033	-0.017684363316329547	-0.004626121726634254	0.024127802212022733	0.01538180524364108	-0.0927553330811728	-0.019240175330675957	-0.14457485268986453	0.13885685375452303	-0.02613972649967529	-0.030560056695693123	0.1599121901447614	-0.12012111480453297	-0.11255871140319691	-0.10961129839567992	-0.0006509771936085193	0.039858264156181884	0.08583540268032754	0.2553883907764537	-0.22104140397699523	0.06333974296241657	-0.05049898782799128	-0.05538275424961543	-0.06546297416895283	-0.07046303159407673	0.16957848565127326	0.08214260930896015	0.01205513463078357	0.1506797861397885	-0.15124737778021252	-0.11845466268809375	-0.2098500452260227	-0.06858514911648968	0.018534390403862858	0.013584763062791952	0.02329712812035294	-0.14116015207915544	0.11314786555941253	0.028012259309404767	0.0691014189852591	-0.189372410292794	0.03261663019068394
-0.11964985270521128	-0.03973232525513619	0.0788659926796832	0.0121403959798299	-0.08847325885197099	0.0006273269226864696	-0.1352610435362488	0.11501150016034488	-0.04003157830774295	0.12321795455030086	-0.052653168709604306	-0.029575306949334208	-0.05192578483220327	0.08761739316930754	-0.07117388574664937	0.0558100057058069	-0.03787643002207262	-0.19726717201167443	-0.025554984855592405	-0.11701887962314363	0.008561600577489881	-0.11904077356744902	0.09259638837906226	-0.009091428471250997	-0.021477698127615748	0.08780851252984762	0.09494277689442115	-0.015311582588277188	-0.10492198891322874	-0.18489858749505453	-0.0840055738550778	-0.06255618679531674	0.043580603645454796	-0.025067187303821438	0.07242362359171234	-0.07762821009710064	0.038125505011455785	0.11839950344536325	0.07081238825255032	-0.020585629156162872	-0.07042323472357445	-0.060701693636344554	-0.09289253124760277	-0.05900828648135545	0.07370066723292011	0.03697546708945452	-0.13419643130439432	0.1715154181705122	0.029616352580452615	-0.15112379020057207
