0.11491710529008183	0.07456494284685927	0.0892289016177616	0.08758689936450434	0.040474024883041235	-0.03403948865606407	0.059712586854407106	0.06131499492431279	-0.03206973089940239	0.1845518569153724	-0.046341769281246226	0.07317086728871257	0.02254864184870837	-0.20118330187044337	-0.23065227403134894	-0.03954387958527347	-0.21357142052713626	-0.014142641177314464	-0.10509342530524445	-0.14123037013352915	0.2968456901692402	-0.026775067773536422	0.20392333449966557	-0.3297827394078731	-0.09255855533005146	0.14678832873055062	-0.13848953729620553	-0.01622092742103825	-0.07900132260079919	-0.03231952883244853	-0.060170661222939695	0.3486988375062325	-0.01957798372505281	-0.10572014730988363	0.07969936840839968	-0.12869378864173991	-0.08985752463605941	-0.24040161570367033	-0.13293638594033633	0.02132182801047477	0.14459773832207076	0.251235973600303	-0.011564828238824054	-0.03960795861852451	-0.14786410411347195	-0.07217683531954407	-0.04527299764091929	0.24426642750120564	0.3258708930171743	-0.19913998495142343
0.05593048222420653	-0.05924481453589234	-0.04766012277596308	0.04993617838114375	0.12572487793807555	0.08158350460790534	-0.062108501682221096	-0.047960921599644706	0.04287846350373925	0.08695037892569052	-0.047917423784529	0.011604227908126881	-0.11037710203368782	-0.13717765718242436	0.12405988078132221	0.15371998563162695	0.06868286273686076	0.08931598260316365	0.008412408688113545	-0.06451197546051243	0.04673528698084313	0.15076447893056094	-0.027015675429938834	0.24871092949122992	-0.3249708023694952	0.06711737242571313	0.058320386228367854	-0.011696710941563913	-0.01515522938241133	-0.20270952915199314	-0.021967188783751194	0.04400799409732975	0.16827382722334272	-0.0517700385518461	-0.04633201328606189	-0.08667869748619636	0.11817512364862622	-0.09806715467442645	-0.05326185066393253	0.05275840466022615	0.01559809241012727	0.10542625891568269	-0.07020530938773524	-0.0679725831842451	-0.039242501438700346	-0.14661438581368474	0.030528006866520057	0.05058833726458804	-0.009140947659065058	-0.0826601365375581
-0.15397760637565663	-0.006582226856376962	-0.019106281587219814	-0.11782313255178797	-0.033246048051755114	0.0367609999979747	0.13653319531366662	0.012078336541629481	0.03365668996196249	0.03831392007412259	-0.19187712152990416	0.06438334164624793	0.006651745864615488	0.27713880320681866	-0.02227540302586508	0.03458679620636288	-0.017817241935517193	-0.1328725134688935	0.13931083797412386	0.07519330326867742	0.1435115028469497	-0.09135541509342936	0.20511973011897106	-0.1800908014290507	0.24177571273214535	0.27318783392777946	-0.10121763748320545	-0.07595462038277517	0.06791103335861062	-0.05243191766960839	-0.15506634310661327	0.040321376125763655	-0.08868788634084007	0.04737776417368943	-0.09074183794687173	0.17214644160966874	-0.09773203916105672	0.11617856674331778	0.0805501447891493	-0.1228156578157463	-0.009155701096988255	0.23968519933552593	-0.16074832345612278	0.016248088123993223	0.025926862759753824	0.0779459992943363	-0.12343307380404316	-0.1751779538471945	0.18577621904515282	0.06733575021059651
0.04783429323977888	0.0317348785293362	-0.034274936162354365	0.04662710769594502	0.04132776604891799	-0.07227063874204855	0.25044725574864957	0.03634116908440709	-0.11490436455801027	0.09772425954741827	-0.09746816702273214	0.12052716290704439	0.11453237246594002	-0.0672121265079313	0.13229180843899868	0.041164928148654384	0.15336719074319466	0.20913498865398292	-0.02720083479207419	-0.07537361643574897	-0.032387751246566183	-0.08655456969163933	0.0007145310774951724	0.07736769025976768	0.039189559413272644	0.08844076373174378	0.024320710517303654	0.15439238516106585	-0.03627200122824303	0.2575054813547141	0.06256673477650063	-0.04444680107392784	-0.08700096087696386	0.048435609357748904	0.015796274048020215	0.08843340952542952	0.09056055431639488	0.00115375450695738	-0.08479315316714142	-0.15148472246858646	-0.02383230931462599	0.09592784482305995	0.021409374413020398	-0.1143017949346434	0.017295783188608374	0.037968923353852775	-0.08838574362011331	0.029995322064265684	0.03088959017911436	-0.08047463697022164
0.021646478120847367	0.10680299379692051	0.12440545523885552	0.06091154826525868	-0.14728259942968655	-0.09716018968748238	-0.015974296293101514	0.04597100954786116	0.0597653920513548	0.44900093093454124	0.0570890510693167	0.19234607234295173	0.095898544949375	0.10235082544566848	-0.04863977003651085	0.07992338345422337	-0.11704857915463422	-0.04531852718926228	-0.014640565615762526	0.008187413938632256	0.3145779859506156	-0.18730564007384348	0.16322804218629205	-0.23914737002872447	0.16324050416543376	0.18334306664918068	-0.006152450556011148	-0.13702851993058635	-0.0021805953666286853	0.06601065772028565	-0.07303666317171367	0.07632566704727672	0.01607551526137145	-0.0651302812527003	0.21029362459382792	0.0898100490958097	-0.23896712328422234	0.19452728225787835	-0.06695354760740492	0.08546949366537743	-0.1030617230403974	0.1278274984825161	0.050498727898045714	0.09045327055693714	-0.12008078800431138	-0.03370597703483105	-0.047258106489072735	-0.09988864034919173	0.35011369424095135	0.09092499904910166
-0.10756145623821599	0.08861691634439214	0.24616318955326932	0.14210077370903737	-0.1454517727900566	-0.049869307735391506	0.22163262625610736	-0.0757722006077939	0.053405018005137264	0.07421684735166333	-0.0926930471578083	0.01314479694148507	-0.3241267340069073	-0.08421796503692594	0.037351307154683155	-0.1208931095311665	0.2726234219070813	-0.11561837722108735	-0.04257014435446046	0.013074057728609135	0.1644026209621468	-0.14291479838790433	0.08284216483230393	0.11581821917609925	-0.08340404034210458	0.01328697721752576	0.05585944917414276	-0.04183873012137112	-0.01261986630358125	-0.05429963173248736	0.011351734525124805	0.07091898690182317	0.18045059690671567	-0.12378154988268492	0.2618405737089868	-0.18295858970846368	0.062110733409515055	0.044945790090036575	0.02752477703013188	-0.06110622216798474	-0.013996383344040382	-0.09672569892586468	-0.058936475694421155	0.08981213237934568	0.035650987647695934	-0.06900689556771626	0.09088705678038571	0.01230284453494458	0.0334746536053789	0.07582371942322035
-0.09286692690882949	-0.11432852603237735	0.09022607980324936	0.11966060456952472	-0.014557694466702362	0.01176696621801894	0.24691707507001426	-0.059741767904042876	0.055115600050602315	-0.07901875206934783	-0.02176812032272203	0.07199160897777161	0.08242317472284019	0.0865080158557694	0.20465792502425162	-5.6918412075638985e-05	0.20604196591652615	0.008519628593292451	0.03116329641176456	-0.013014305436768459	-0.04074747162148608	0.05880953833306835	-0.20247856848219484	0.38349737765901115	-0.10706367638899311	-0.20720694151077348	0.15762551022829058	0.11653710564234075	0.04774682404416133	0.05310339894090918	-0.0012246772846914624	-0.1532217113013195	0.03121516653624657	-0.06760705212129828	0.1377243240317861	0.0037226759736992934	0.019403104457829022	-0.021283393481759057	0.04105522452745297	-0.05656715998887035	-0.09993251427321626	-0.11567837361151413	0.024496657110872278	-0.03577071715940868	-0.047119394405771835	0.023005734233459526	-0.14467625393014244	-0.19656503205782813	-0.23947206464171575	0.0030845623431886844
0.0211459168203479	0.2133754148454823	0.10015315349946341	-0.05931297443435271	-0.01504882957697066	-0.10083311055210421	-0.07884756176738272	-0.029882684704565256	0.038805547267067066	-0.00024250849245780173	0.05193465142411723	0.23569641927381052	-0.010835313296654589	0.0823073613181891	0.03640682244411484	-0.04037628182414898	-0.04629041195778838	-0.017933613933999722	0.04737390913527485	-0.07730097838554666	0.10027280156091342	0.04971522303302945	0.2657358447039384	-0.024689859583862234	0.43379148101620274	0.015313048330409204	0.05712640699008012	-0.023458060675883505	0.2850327496806665	-0.08293286823508902	-0.08397218421807762	0.00940142053589398	-0.2073899521135743	-0.05255188251988867	-0.08780188562064603	0.054993061043002577	-0.01835798228431848	0.394793918794802	0.09429276018011248	-0.05772699468503223	-0.10858301205950989	0.2061498080214285	-0.1320233207020642	0.19684199471960975	0.11788509900799576	-0.04708100673380218	-0.1712353226770253	0.10227521180341294	0.19435503204168558	0.19021232659181425
-0.15404824707519169	-0.04290154719307005	0.02574497259697504	0.02208251972887517	-0.04308815024615389	0.06212069054516936	-0.06955639702448971	-0.01593271834074289	0.017034938406478267	0.0854894513230022	0.07116148780888898	-0.0769237214996497	-0.15429889089068485	0.15037077476443853	0.05343087113674844	-0.07658101067228923	0.18808875589084215	0.02811395192367417	0.1316105362157643	0.006751848141010895	0.2538097888682245	0.1742534850524072	-0.0013892924322080685	0.10546957290612882	0.14697522018784254	0.15157711748257305	-0.09286452565692191	0.058136280590595425	0.1175471742966945	-0.18517228135153996	-0.11832585126657752	-0.1688754323238416	-0.016651733866489035	0.07188600310444221	0.17177652591078496	0.048229055907404624	0.1812962256113506	-0.021762590633363183	-0.17051354703123417	-0.00564786905726266	0.04061736749067416	0.017602152113650404	-0.20674421000398768	0.016780635389460227	-0.13045259968644046	0.06679141296433906	0.03672952031253536	-0.10654770417627213	-0.005116146132716034	-0.04556978222581456
