0.008354864136859557	0.10710534785152413	-0.09857260463355438	0.05281136183663761	-0.02642243380662744	-0.07926813765133178	0.011013695849193273	-0.1110552321797979	-0.039918989103682884	-0.10610244884743203	0.1964725125286688	0.003990136791550245	-0.0867579794118501	0.02122724264321924	-0.014810389601260063	-0.021809714701744646	0.061405697747254184	0.07576959110886071	-0.05305011476105275	-0.07588032741221952	-0.043042331046711506	-0.21321908251148813	-0.15837765510694626	0.13665893969921114	0.16702581108129624	-0.02490629849775588	0.057763419608269036	0.05112325725637348	0.326210608701858	0.11676460447141798	-0.012791759148076655	-0.09555404391894894	-0.16821790710049517	0.006445658101661605	-0.07563505576839777	-0.12108457183684149	-0.06463615750263209	-0.1081548003614395	0.1687141635072565	0.08751481322453637	-0.0007899010167981899	0.1321132157633306	0.01833272730395113	-0.08607986076523708	0.15542204290427758	0.08153516222069915	-0.10804221149449099	-0.03016707059372175	-0.09494809336206605	-0.1468547385043671
0.12295773582532518	0.21445993674804129	-0.13985646253491202	0.05876303007013569	0.0021102558811306325	-0.04701671523826213	-0.009881705650078657	-0.09567928389315333	0.0358592851162772	-0.053418341880976515	0.024757178663256	-0.0043372912879363025	-0.04908092578488025	-0.09165332504962755	-0.06869750267761365	0.07452447404391013	0.04652060259688727	-0.09775271965548932	0.009933230542922588	0.03372695808359831	-0.2004643785000479	0.09470883045030219	-0.07522295444306855	0.05627985563800438	-0.07147479780039588	-0.18048798374901848	-0.16275388415703587	0.0516503478489373	0.06558525957821591	-0.0795070145500195	0.06171542705842604	-0.1661519136108739	-0.018826627243741338	-0.1549850611876061	-0.06518135573896253	0.04818954771162096	-0.08604133652839524	-0.03845555442298254	0.10062927953468943	-0.05744974628311259	0.08343116885990187	-0.13981396029623439	0.0746204008018213	0.14417423449439082	-0.2451070579402777	-0.018860618386260564	0.05171846666959926	-0.0393803671414482	0.009966060360501915	-0.08356738487808635
0.02616119028270005	-0.01401815376868389	0.11677864254059898	0.02671983292924785	0.07365165575726623	-0.03966888082663976	-0.02340526907474922	-0.0138672594230829	0.05618869233240444	-0.014283639138670132	0.025692836812454403	0.22394724497342353	0.09585305419026857	-0.03460292754270652	0.13639945422097635	-0.04674147576900443	-0.2103773219985198	-0.10080536854007799	-0.18707919210258558	-0.031097936468134357	0.01670027330695505	0.19074526475951625	0.03722931531496706	-0.02735514823062254	0.09975303946085218	-0.2210982167125957	0.023655946232644758	0.09412140771922388	-0.1294413439171424	0.1208773507067029	0.030773401499927848	-0.041528810638454955	0.07283827576562424	0.22586518260332947	0.0181903995209496	0.047011010868771436	-0.04593642350646674	-0.08498443712862697	0.08303302476866917	-0.08573931933860675	0.006812648693405802	-0.026592505672387533	0.06714529638184254	0.033411455104123	0.10603061929187862	-0.020964042123585633	-0.01921992994639152	-0.09429554364966997	-0.05433218125652174	0.018317096439777553
0.08038886955937438	-0.09886122842783676	0.08696103622555035	0.1356012216289014	0.037320338435754774	0.18778650504888242	-0.07639116211414655	-0.09969225358339812	-0.1746569527463405	0.16148966337176246	0.06456556499942535	0.007241896193648092	0.03928520058021318	-0.11486739355187663	0.2609696098881086	0.008604205300117206	0.007454842400444943	0.07266913177412423	0.048100923173671324	0.040816783781232005	-0.054997667694755406	0.05146754821947566	0.1925791527208799	0.1302835223353145	0.17169159257501576	-0.051107594001158864	-0.0987123264818883	-0.01574144159993322	0.0063744279006698965	0.11191285197339687	-0.170515561476922	0.1529543459880207	-0.0065180234809156055	-0.025460918212581337	-0.10120845752659788	-0.16238927680176016	0.08241409995366195	0.0073317686653057886	-0.12899652035992534	-0.13128233586260757	-0.03374796994174317	0.19030999052573763	-0.0169245611919439	-0.15026276424596363	-0.01895891111450727	-0.02677387549666968	-0.2593145798636492	0.0033444949282946806	-0.014127142607853983	0.06268726779529148
0.19341798584665795	0.1192008186277596	-0.02688886905548306	-0.10925806185195665	0.27236180241641356	0.00593294238819192	0.014068360069619139	-0.006292828610325157	0.028561202227820444	-0.0061845970724287705	-0.05736620196871071	-0.05396343458646122	-0.012481018233057308	-0.05449553059548843	-0.07311633296276387	0.01097608247970239	-0.025507096942362386	0.150418501369904	-0.2650969808393012	0.09901130988699625	0.11607981789957927	-0.19758746759264428	-0.03825610466110511	-0.03717568939262933	-0.13901450826910955	-0.07778386853070132	-0.11098106960242951	0.18690017072615545	0.1042621193421697	0.13000402372937178	0.07216763240246046	-0.11290519209610077	-0.05663346779449817	0.04132690323181405	-0.12221268762091354	0.08360789877698287	-0.02400857830449101	-0.03748208266868064	0.0710959883820181	0.043893749382838444	-0.036067696659499424	0.10757512480856256	-0.10180570461063894	0.0616343059165	0.060836674998332965	-0.014789375817025165	0.030638990704268995	-0.1315067653443808	0.08797117653927326	-0.023044183335773946
-0.05167141347645618	0.10543023904797787	-0.07043436905427593	-0.14089746483970686	-0.15528811366728795	0.06060442024557578	-0.12745041911138452	0.17511325188372023	-0.2076630089830206	0.17005859547350277	0.02110175153004772	-0.009637054436516697	-0.05473092484938906	0.039877777679408935	-0.004194964814270707	0.11038078640067472	0.01140956845311967	0.015035119999491845	-0.03636122122138559	-0.006243444070764571	0.030059712279985124	-0.17026769691923854	-0.13503335307878045	0.07431972205808325	0.017128782335865553	-0.018399043661878327	0.0019048984740268192	0.03563395077580753	-0.05324086119163676	-0.0775540539125525	0.019584631847456943	-0.09783727776150321	0.04042249237469887	-0.1702574725977082	0.10291571324115872	0.04801121342277925	0.025608912062877628	0.09826909839455139	0.1665474444462577	0.10137568643330691	-0.18408742313316453	-0.12855510575497772	-0.06207987146256616	0.0026163568628195157	0.05198848092084823	-0.07164621712463819	0.018674810369845963	-0.07587493080270612	-0.061370772032251567	-0.14099326051851943
-0.08487921255949242	-0.14890535086072723	-0.09758591823085606	0.10478086992798241	-0.08281154190039876	0.26445327744704483	0.05475990815084097	0.07420425944765456	-0.07997449272046056	0.09369999105653475	-0.060989334634092125	0.03817425764547759	0.28819576637625677	-0.013511685651171864	0.1490362981753472	-0.07904185600875888	-0.012776582343933508	0.17718932648198368	-0.06269670577877674	0.21709496266819506	0.12057677686578108	-0.04568826265379031	0.07723046401042882	0.08753359006161905	0.08639458769838615	-0.15699805715639897	-0.07256042041321985	-0.029561187870610437	-0.005610466508730362	0.06592148820253531	0.01355195329503613	-0.1335356240382348	0.06187046751888279	0.0843853391987349	0.055983629691345536	0.11297816439744068	0.08350242850522277	0.04591795365447997	-0.007017511420608775	-0.16823653525162569	0.04249418962227457	0.07567949592352481	0.043256442334456004	-0.12763050991223215	-0.10269041085226259	0.10916796197136898	0.016562461182782345	0.08831455733222462	0.005860725209160765	-0.012068627221791263
0.09637054482188982	-0.04933610412850034	0.009612313383020666	-0.04630521249394769	-0.04109359761447654	-0.030832667177493087	0.025640337040248696	-0.049467269776188635	0.12803200157923939	-0.08765535407666607	-0.018698192679562197	-0.044194527949800326	0.1422883150302421	0.01930499655766716	0.10150148661628912	-0.14849810391984267	0.026649822945048286	0.0889980982167624	0.00822839892754242	0.10313785705062549	-0.05488774829576724	0.14419142863251094	0.22891347548569713	-0.03641170924961109	-0.044442304828837986	0.14533802207062324	0.15801217540499662	-0.048405617059211724	-0.03879982599844109	-0.027067962767646128	-0.13447960138885268	-0.0918652390516453	-0.10216197714471763	-0.07841034779653196	-0.0034683441861281393	0.02665855415534637	0.1550852260079859	-0.0998354071620418	0.09843223984765838	-0.02194168678572032	-0.004949997985991293	0.06459342408380436	-0.11074682953756966	0.03824723310240072	0.01762590409207329	0.05335663641902984	0.028871913364287818	0.24383818631955956	-0.06536639606436517	-0.05454773653627657
-0.06026729833576391	-0.054815357881154235	-0.06373853156375964	0.1181852787285965	0.14841566261686925	-0.0565306703348848	-0.07850142527820597	0.051147233467246055	-0.054021413555689776	0.06706248669772402	0.01961629486852011	-0.14936670802619612	0.1587026926216696	0.1791668301730765	-0.06181733102381944	-0.039021936445923035	0.02728646025172345	0.03344692113008812	0.06585442726728305	0.20076780504645853	-0.017888171041694895	-0.07621256443312804	-0.13689886438662488	-0.07373381026055596	-0.0014529853099599776	0.17945571664670346	-0.05174869165121367	0.027144602712134213	0.0012825397388107928	0.11986521687280992	0.25176689594175533	-0.05308683698024868	-0.0476021621803708	0.10377923636163694	0.06819105952867993	0.18720721879054178	0.058392889089124475	-0.035929209078705955	0.0590653974883185	0.11090077246371045	0.08203597149399455	0.0545591644624638	0.10881197494047015	0.11694598600511709	0.13644375230027742	0.06953543034361133	-0.014343098229938397	0.0152441836689776	0.1168250815489484	-0.0839105179194247
0.09208987112428531	-0.007363055565954812	0.0028763103323645733	0.13018611826629214	0.12493523914078332	0.00789926477002383	-0.04972399055582443	0.08736896804950277	0.11756229623279715	0.2802950702956816	-0.0353915155287715	0.038380387680462355	0.000847947957115036	0.15318856621789645	-0.014083058429726038	0.02316899124791278	0.05070780249801523	0.018789331920028594	-0.04464336145505283	-0.027942226844420524	0.07499813485727039	-0.031090097390931184	0.00288876956111266	-0.07567531631764986	0.14179104444744978	-0.1523108964212432	-0.055487412125832074	0.1166315310204607	0.22354240990464652	0.015561187990396365	-0.060370493378009885	0.18811487572627109	-0.15447366394462497	-0.25512193331894645	0.04400637959802526	0.02495410875378216	-0.10200593617533804	0.07083561151695039	0.024379833156277887	-0.05929708637358292	-0.12829738079957298	0.07210678507255752	0.11107588706058963	-0.009758513641574948	0.19077719415002345	-0.00494657714013741	-0.1444453696583517	-0.09227149023016303	-0.04092287763926377	-0.019998959794070806
-0.02412360578563299	0.03520553965142968	-0.1251539424190444	0.14437646040732596	-0.00821511783925688	0.11172958315881276	0.03427253463777041	0.045675321915378396	0.056976728023220395	0.0447708560017315	0.06427227598675439	0.13291525301324314	0.019652116970147016	0.07090037575885123	-0.008973569428722673	0.1440117215449473	-0.06763923020592698	0.18009404329108158	-0.0040157950644343415	-0.14307751021180481	0.012810441491078928	-0.06810516574748808	0.08406435489887241	-0.0652623979302391	-0.044618343321477974	-0.18895407309455312	-0.04523063192490767	-0.24238793266289568	-0.15839028234857233	0.07604146561442975	0.07858001586508323	0.04254575617849648	-0.0966976143129213	-0.004771135614197986	-0.0003602539090568405	-0.11583646891925428	0.15033983017671507	0.08773622905756714	-0.022096417382966395	0.002688583899453078	0.02083828079475525	-0.20417348684242909	-0.024717738252059696	-0.06819842479977986	-0.10016200098949156	-0.02811002928859549	0.17976865268495226	0.06408428612670099	-0.05711789897827968	0.05725827813561586
0.1669982350526476	0.10644514518023616	0.005964021495927325	-0.06305437036950898	0.13437100615500885	0.041567620001848014	0.1363399917284562	0.08056526613744787	0.13072374696014968	-0.016945848446871314	0.1283111984943835	0.03336147211854148	0.2038272817813139	-0.07057625876295064	0.17804720943704258	0.016987800006405148	-0.07139724365528714	-0.04837198986838397	-0.03203473081943202	0.023826177174858146	0.04353841034841772	-0.021027230606437977	-0.0037719741021438363	0.21052302711966753	0.18746393894821983	0.04363485317434697	0.003835880094262967	0.05136074736092355	0.0949613747592521	-0.09227794075684113	-0.028984918018580826	-0.1668588060146046	0.04113023422427987	0.04273483046854442	-0.04831551956406497	0.1955425936358924	-0.12256743278444399	-0.1464375080797099	0.02244482793639057	0.1042511557781636	0.16838880692586883	-0.04186271920583001	0.1322538481486233	-0.0037841064757944518	-0.018230293487142633	0.1432803005269733	0.07075402624383836	-0.16558035304244972	0.12188067677135418	0.11453393075824465
-0.062123833945724884	0.03987345404820924	0.049403364618579124	0.02613278617323538	-0.05435333670136536	-0.0671595980895019	-0.00194615827467527	0.1170305073634623	0.05474965694027816	-0.03670263108612174	0.07715794927785594	-0.28490644943688476	0.11443194737180665	-0.17400252605828692	-0.0364558062666941	-0.11189213077590954	-0.12948532805275456	0.11608797414579645	-0.04677012013118914	0.03399392534052182	-0.00516260657773943	0.04819528138551042	0.007481512991687566	-0.12830374703178166	0.09960906599217965	-0.049375643793399204	-0.15565818986597513	-0.042182019107893855	0.15064707720246248	0.08520992726734145	-0.03486887693179543	-0.03492599672000704	-0.032384865433554094	0.20725110146667308	0.03819354522315534	0.04357574322084882	0.10303080764879417	0.02387890425587935	-0.025904235339325805	-0.019760997407910087	-0.007146721045138337	-0.0041139394382614354	0.07302648908017151	0.005194710640217417	0.07337834195370459	-0.007288401956921509	0.007829315899788688	-0.20011172661618953	0.09128123554963233	0.034422799261452926
0.13673836302907286	-0.2588944074108961	0.20883860746336771	-0.010213274270327283	0.19157014266131647	-0.10248545887515784	0.11964336891439456	-0.12187282498793132	-0.02299775865848952	0.22484712548554278	-0.02117481406133386	0.020433367327219443	0.0518244480197266	0.0485221560589972	0.0005932696595085454	0.03543903135168666	0.23608422572725996	-0.005751434020299396	0.020109904671496752	0.051750438172523124	0.06697525194673234	0.16846741183013342	0.05175527330575334	-0.11639304355679131	0.16729913356799883	-0.1146322934153314	0.030263546523903326	-0.01849806369554627	0.04257105285430083	0.04574226039753187	0.029068262770663593	0.04219219659135177	0.14365308452432995	0.0018318812252506376	-0.024412438192227815	0.14993796405285906	0.11894704889246406	-0.12276078185323734	0.05973978482621915	0.07011216092451823	-0.02985699410064896	0.09852746482623126	0.010126842439734211	0.012555411024937851	-0.012460080085564514	0.07549213507762534	-0.12121765881770866	-0.16851419335451484	0.12625556688533823	-0.11219155830602248
-0.12773170088300667	-0.2510438480194736	-0.06389562683004264	-0.13514686412662055	0.1159923841361205	0.1009276309798523	-0.11384661051446231	0.2774970302729867	0.06792084908507055	-0.04637053799275338	-0.25135918446166533	0.2480348302519253	-0.08285404215191783	-0.1652314818271115	0.13809202140674495	0.2387672171360186	0.1349379545153855	0.056395676880181156	0.0594754341665286	0.153807621380908	0.14538111691976421	-0.006590026922343553	0.03307223843859489	-0.011082842454095413	-0.06419493411886912	-0.028049388263402166	-0.16929568141953855	-0.06161755198935882	-0.13911790106876193	-0.12065615761808808	0.016702708799764054	0.13919929290546948	0.12485222613114727	-0.1126998443655349	-0.09896220530877671	0.05121389382822221	-0.09824688576103346	-0.022463358718378436	0.05500442054262108	-0.0969519178720331	0.010487121755031581	-0.06212359066301617	-0.0732734355083664	0.03197630220872192	-0.1649675260733479	-0.013280272309311931	0.01792489227511572	0.09104606911605484	0.042151177800779836	0.14987728601773068
0.01083958167375498	-0.04630395224837469	0.012230255984702383	0.0529265138676541	-0.003855768809333043	0.0042630072220644355	-0.07177486612602911	-0.059582060712162516	-0.14412695326791466	0.17601897205868336	-0.1244390840176284	-0.06564408908232343	-0.06349453769102846	0.08874269951733058	-0.02868749537668006	0.12540477220205215	-0.067613470671077	0.027954147435354078	-0.08353470532597573	0.22277513389485076	-0.11328135751422715	0.02799026684333055	0.06463843639602823	0.04116026415551368	-0.015988622454522372	-0.012985814025046085	0.004568494149323332	-0.016064777363800492	0.09368546477399332	0.2212858967159387	-0.05578435807202908	-0.1369804659481802	-0.005737854716985558	0.2662692100601729	-0.0803671035108666	0.1602686325641216	0.16782435323827305	-0.05535882855842463	0.05689829262816388	0.16142523491015237	-0.03783141514559348	-0.010039422146083771	-0.0580793726289313	-0.10140884559242395	-0.06700331716340834	-0.12700727640742437	0.011308058926512633	-0.0739886394618572	0.026322605935899395	-0.15344415761389843
-0.0009456165707011016	0.032994511377646814	-0.1993733018505191	0.03559582538965835	0.06488497491013594	-0.12132164588537912	0.11020123794897702	0.12549193325121105	-0.10535257290770182	-0.015330210618183435	0.053562397160209066	0.04034498176901035	0.13065690091785476	-0.09322237650814297	0.0784508971114951	-0.15147923342316244	-0.016514359917887318	-0.09038886794050605	-0.07355299425897666	0.2236693497882284	0.21661665555518322	0.018614997565175175	-0.07680460235226112	-0.040067263380575376	0.1438141532855771	0.014205926337561986	0.23193295399816943	-0.032248498960874526	-0.032059112263014444	-0.044008957514042955	0.011660947832821317	-0.015247854670369449	0.11982648325266153	0.15902220134422254	-0.07859794638409673	-0.18548069222255617	-0.1836205393864806	0.05079908756319916	-0.11033786330305413	-0.2152104679626498	0.038715108228413224	0.3548180202972408	-0.011960878923137979	0.0838477661748256	0.004949043837253078	-0.08172032979975663	0.11848989783360594	0.022229256420379758	0.05665114553140154	0.04459469937773218
-0.06724169594100714	0.09386335824830422	-0.017495833477200688	-0.07521911995275059	0.041951376578000577	-0.09039391729586232	-0.000979058400158527	0.011505220386927292	0.10716632975562283	0.050352580939823685	-0.0025090032209042737	0.08814980109936879	0.1454167663844892	0.05485788838743451	0.011219238708742037	-0.13284160662650424	-0.10655225694012925	-0.030441410095852606	-0.06095122021592832	-0.00524273891491154	0.02116109508186402	0.05058058976623079	-0.004685341515245567	0.046444587275551064	0.012030663999978326	-0.19754387172107843	-0.0937789550244277	-0.02113965385543914	-0.12394931783127788	0.05997738937439223	0.15326483910437472	0.12187523351047815	-0.016160804319891087	0.16052426657307925	0.014866902382714722	-0.03623054710351112	-0.06125002745499694	-0.030247015507718588	-0.03881788851574634	0.015216163384238686	0.016095937976396392	0.014160667730493917	0.04565594621581692	0.1190988537044232	0.09822227873962266	-0.15428012587628614	-0.24903232964174393	0.09882118164790342	-0.12983946004120275	-0.022479134192276113
-0.10271599501028462	-0.16954325099084155	0.05414676121771939	0.07728465929877787	-0.023103011691989875	-0.2582960222764014	-0.032368635226446875	0.0353022124573493	-0.13191250206267818	0.0317556222228932	-0.002738085721047712	0.05796817929791707	0.0005694911399672449	-0.09784765429968915	0.11527883492394346	-0.017020838481200017	-0.00519225398921132	-0.0933223570311112	-0.044328225119151035	-0.10776941849461806	-0.031948304565496785	0.19085141663198674	-0.14062482555145206	-0.1621203488416574	0.14915951835189392	-0.020925247535280543	-0.06690721582916084	0.12515746912997366	-0.0418049977784951	0.18769087141217358	0.06646544528482842	-0.04879139979188756	0.21030372476440776	-0.07685781185391471	0.07421051460034715	0.05023500676902705	0.13017412140705326	0.1561511049432869	0.0032002185426961557	-0.07534738474129027	0.045852171552415694	-0.08036075437822125	0.2113773375511169	0.013653140387246918	-0.03503324514523876	0.046785788610392634	-0.13830284009801527	-0.10574144663151035	0.10657287113266399	-0.07697734752938241
-0.10469109826819396	0.05366527525272862	0.1185704154662997	0.07189533106650668	0.09960476858058165	-0.07567950885694608	-0.14218106667418437	0.15013336519554868	-0.03226798388421358	-0.025083301645504735	0.1328194141849058	0.055623000940065996	0.04558877720816076	0.2165002344901084	-0.0643518230380143	0.09278401280812372	0.005701312489708451	0.026859227886325693	0.15284684264125317	0.05078357562896238	0.0538296079049633	0.10725073373098022	-0.03649527295428853	-0.08392096673390065	-0.10448091940210336	-0.19663565893760018	0.20562071299403223	-0.11032083657216832	-0.022125362358577202	-0.02768132998889207	0.030740669780910074	0.08157372125392968	0.08604734883597454	-0.05830774385689385	-0.01671217137864115	0.028257995048829965	-0.02486911261835471	0.16073455760199928	0.04909749516382514	0.07348777860498175	0.06628812686674128	0.1173473857485325	0.018102155870370697	-0.12968319479558466	0.039968795175264166	-0.0651356893791829	-0.05286166817497569	0.05863640187550933	0.12382830714336357	0.002127157673606165
0.09576349045152734	0.20514457772564337	0.024076957093761116	0.2644073570376787	0.1851012970094866	-0.17249573009527108	0.17521511233316506	0.060815451138781874	0.19277561320206557	0.14522637328687382	-0.01952617950488188	-0.09870786022470072	-0.045621591540583296	-0.08957257204461583	-0.05469638735020443	0.051713578917998194	0.1554780932446376	0.0395677090677993	-0.11958830620351844	-0.0036334328241768655	0.0913962886219122	0.022550709359882775	-0.023272964641279977	-0.005761066208026388	-0.04907344303119625	0.06484406467241982	-0.01163151711356392	0.1300973725776996	-0.01052621044043287	-0.018988717075224353	0.06662501280621197	-0.03728389643958691	0.1649432699682264	-0.07895937743468703	0.02247483474580775	0.18165537225818765	-0.14174633335434306	-0.17608090942683888	-0.15256623769343405	0.12391822956733506	-0.05547180323997804	0.24526602290505906	-0.0009569079325768849	0.01864703225521135	0.16194862738496968	0.3205965201196724	0.21288249383770233	0.09676866754014513	0.060620725580454025	0.006243931976457076
0.07882308438147627	-0.05439393965441477	-0.08181988834223072	-0.0002594942186541327	-0.015745234394269038	-0.04531906583797636	0.07088300166919671	0.09507082052368467	0.009724036136682337	0.14856881109276662	-0.11416891145506824	-0.019288744234393664	-0.07225437293537489	-0.1866769103673938	-0.008617050568874868	-0.012155816239847147	0.15133292998462697	0.06308830231634012	-0.1024186824329205	0.18452550811961915	0.12114377599198241	0.05931152481927449	-0.023029450696751854	-0.09595293401585814	-0.037069145865801935	0.1088770860397075	0.18853186605116867	0.1556314096659527	-0.04765384666965737	-0.11159011074423963	0.014107252356310872	-0.17684422783806014	0.03179471274062672	-0.015122072653271389	-0.04660353745141836	-0.15816988561242462	0.05136959376558682	-0.05327010456689315	-0.11699182091171394	-0.28729156022835994	-0.002734992833012601	0.1763409577099269	0.16680575299711703	-0.045697501188241625	-0.059983440751075666	0.048570682360044	-0.09999020416528726	0.02952953148055302	0.07617656294218045	0.12222920068624653
0.053653705326034924	0.027334019362811095	-0.08779717115907196	-0.07898238132073054	0.11160536905346875	0.0403333587376636	0.19436486052392957	-0.09531235954787722	0.21287206321217772	0.03703270621918816	-0.006756000069109492	-0.070643142719752	-0.28961274681309457	0.08565991460474523	0.05022255829970916	-0.02984951866276403	-0.0017055286458429254	0.05162496177307233	-0.15625458568865427	-0.13388563942708023	0.012280633836094132	-0.04176579110419186	0.010661234409319929	-0.13793138107361425	0.0593328965287634	-0.003567149664456789	-0.16133977225413032	0.2156366846264217	0.008712216441603058	-0.05691906194865392	0.015259272775673459	0.11486386590939572	-0.12558896217482685	-0.0565220071465179	0.042886950138139604	0.15907772293364558	0.017666155714497048	-0.03670278390833223	-0.08275902503614707	0.007777714281584896	-0.10753585035913656	-0.34148199536197704	0.09046645372891651	0.09050409664264597	-0.23213772713718592	0.023819665180511287	0.05600778176693463	0.16704870305344177	-0.05027560579497227	-0.12048206836327781
-0.07914560970929628	0.07058670402390553	-0.06459641791245353	-0.08461178689859349	-0.1683274563134437	-0.09732665892469518	-0.08702663490261767	0.24233777315858862	-0.03167440070927042	-0.06532279753103369	-0.029285638037268264	-0.12976155640446338	0.18190335122912413	-0.007790487826904078	0.04301074889500086	0.31226855244858825	0.029389509786835296	-0.07518127698419795	-0.04263575962055433	0.24210661330168345	0.13527907480497586	-0.22197334912668296	0.12895736618033884	-0.07301499076982836	0.20038900308727992	0.10803008497589041	-0.04473199360865108	0.019825844839820077	-0.07770309343808542	0.06246381479391199	0.049096493340661435	-0.08463670944882112	-0.009968445298636414	0.19255629998558374	-0.03347753321065409	-0.13105386458331642	-0.09551207552250515	0.04235985468144625	0.20625129624747746	-0.10679019630873408	0.0024174466090128416	0.2595170492328762	-0.04103393295782621	0.04523434736895377	-0.11343450754961255	-0.08184787847679603	0.010959877375588432	0.1621343643693566	0.1699818954768463	0.29442675333611673
0.11966412305369017	0.08257013485922379	0.019438719472293378	-0.027642493707615023	0.1650246883737075	-0.0268310431231618	0.11473262867453689	0.1061963897936225	-0.035201804570702454	0.1726726770172188	0.128213055142693	-0.011948555902424947	-0.27381530895324935	-0.06136454624720213	0.11091285694235986	-0.004548490380493685	-0.10338397686745034	-0.05047339937633251	0.08406200265045531	-0.03167228956387941	-0.09315195966666819	0.043513059135856076	-0.05892151385205549	-0.09228574886266132	0.16919538946385013	-0.03223117237487595	0.12171585208254965	0.2430797248113058	0.1805849912771259	-0.02226906665032843	0.03846501664780302	-0.002419433978761935	-0.11951250963268281	-0.041079224352363344	-0.11790286311082755	0.2090749346059267	-0.04646172972983931	0.02011596558728393	0.02832862685346157	-0.025237472138225567	0.05873871241527678	-0.11207555607463833	0.13010068604153685	-0.13459901977361424	0.02138117651308523	0.31894765924975255	-0.12110281685914154	-0.10867331036990063	-0.0027148994970659407	-0.027924391804260745
0.08922874840136251	0.08359732611609032	0.06347376016157649	0.11341100254913859	0.14952718250473998	-0.02085022851551848	0.15267924379008316	0.19147283387986958	0.04036070880218497	-0.03892589816422197	0.10620692755916922	-0.0019474977928951064	-0.2477106252131306	0.08083014282129466	-0.06564243422310184	-0.012758432902097149	0.023915863544239795	0.019156356510736206	0.07094518171390395	-0.10008723963679535	0.00835852974469544	0.04502817173693149	0.06165262631428065	0.05763024635344457	-0.07696219870194689	0.10860570821257234	-0.05327865525323556	0.16096797874964316	0.10425259914591796	0.20532274827570926	-0.02693902540540586	-0.03493233706209303	-0.016352893349255875	-0.0726370081267925	0.07999838462958599	-0.0872873425099868	-0.10526838040831131	-0.1067803227736913	0.0950306949559201	0.16866389052685826	-0.010847254208956705	-0.04369466989007115	0.04950014818426871	0.11631912202651028	-0.08760664429591895	0.1259428296367992	0.10102101838356095	0.023175339354117138	-0.021058020677578938	0.057613212649809925
-0.287629891126107	0.05010951957038866	-0.06540756831274239	-0.18542189104425263	0.016583430036275992	0.13706144404513584	-0.04084985350276907	0.11719504814481256	0.14198423547426275	0.11976171775534548	0.16391244626165047	0.0811437311499605	0.03559510597291707	-0.16021069797111787	-0.00973209223891176	-0.0856303390608344	0.21700992406458589	-0.017588582515861293	0.012320480678448568	0.08988113825949123	0.037182616215799186	0.14782469053741315	-0.0515373239542344	0.017523072534736665	-0.0710231378536665	-0.13200023343059314	-0.061176909090528545	-0.032137906550629695	-0.06642244315755125	-0.07531916468351528	-0.14062959772241504	-0.00831055875379168	-0.1353772730434516	0.10047414668418941	0.008244095192843309	-0.17161526015819237	-0.030920907704986345	-0.07521564059007937	0.031917118583772684	0.1340812391541771	-0.18745748725817102	0.04514306015153768	-0.02585273201241847	0.06713284066856597	0.018518098209805763	-0.11025259336545408	-0.022787776502362814	-0.06169165221060045	0.12007207979386171	0.012285459538052648
0.17449052591044767	-0.02660274892329098	-0.07084066394692135	-0.15077157618195608	-0.21299097460518618	-0.15935467995994537	-0.0014409571799431425	0.07655079837214812	-0.17374962984704337	0.08045076477950183	-0.04832523167785597	0.024552040628095195	0.18542646534039403	0.08951374998718689	-0.003719062743648089	-0.09244391548197145	-0.215241383948494	-0.07189808794266422	-0.021113023882769446	-0.05996054245433752	0.027290092276570116	-0.013983071749064482	-0.012074414764680784	-0.06737607505408016	0.022742092153704346	0.044208944224525815	-0.10903990500699301	0.10749140511433741	-0.03293811763885229	-0.004788429872858335	0.07131268436849571	0.023320711140022984	0.11177752286289111	0.05533516631440678	-0.061243737464043796	0.01242940510113147	-0.11435095404730762	0.010855918927041745	-0.003323495671059264	-0.021323093188154375	-0.012841070045466248	-0.1530885218365409	-0.06224931855194914	0.00928559770128074	0.016110471553326365	-0.13631471647641835	0.13389172851755535	-0.0677378773345849	0.11368611680321143	0.051383594435224625
-0.03779991338375688	0.1973251783800829	-0.11936315948245678	0.09519408132984489	0.16400228297085914	-0.06560364534025552	0.18087725902777652	-0.032503997070591664	0.05864408100586724	0.051368262500834046	-0.015799389725709212	0.0814694998256563	0.05644148067094722	-0.17574340679195935	0.123014973437142	-0.16847145220584714	0.09890667186393894	0.11267689475337607	-0.10909664302151983	-0.0770508205030349	-0.13765154874197869	0.014992012312875447	-0.03763434513043507	0.0766292931813731	0.1348757754346723	0.13958081887740886	-0.05621680265783022	0.017991441709353215	-0.13336512621370814	-0.07138222800163932	0.0938946279705558	0.16155803293407572	-0.1336893892071793	-0.08988525988087397	-0.0026381035121048864	0.06635849813813816	-0.08096035199216461	0.04240608330477552	-0.04738425228751117	-0.0012980124697157883	0.05430403923076412	-0.023514168428821057	-0.024485141663237984	-0.010960971433122512	-0.005821192113970611	0.016550013294255	-0.03323341065404913	0.14385541704218419	0.03143081400941031	-0.0506377618547983
0.06897666056825869	-0.03464603567482168	0.11731247167700516	0.037414794967418154	-0.012118605963335223	0.044723356592454064	-0.15830731229883663	-0.11153404609698606	-0.12017397733022155	0.01426419570880171	0.17325148990654218	0.2237120112238332	0.06409558568524999	0.050083391061152414	-0.17850471826080927	-0.05432867158043803	-0.07878036141906801	-0.06208447602444576	-0.01681438185847896	-0.04543340739854087	-0.19584908891269104	0.07344949785789137	-0.10690963852109009	0.024334830515433205	0.20760034852680984	-0.09193770847128634	-0.253028752274633	-0.030618083512732094	0.10868107264726697	0.19554251276714224	-0.12281108922094479	0.04966938452291983	-0.045819166872144254	-0.00975909923575578	0.26443433470170347	-0.15104227086055522	0.025373966149457347	0.04676928930011017	0.10857860917424882	0.009798222722735495	0.03081280414367982	-0.03770847827306507	0.026962953950943367	-0.034319227614790795	0.06214035809231224	-0.037870005553794675	0.037899093427514075	-0.0020316946901312925	0.11353743424761226	-0.004814372067302397
-0.17730324682068815	0.12619215007139917	-0.09057323008626189	-0.06537663386488199	-0.059566129404349216	0.13744380931708175	-0.21356742139786955	0.3137748533659994	0.10560568090660519	0.022323891412915967	-0.005489400061628639	0.028555407485765696	0.052112242837933836	0.0645215585950057	0.05556044660034485	0.008958068125524882	-0.019733842030732612	-0.01512732836535117	-0.019490828035268103	0.11337700968670646	0.05935567222808619	-0.29403886346642805	0.0655900776529761	0.019473619471877486	-0.0018708756445897418	-0.038851845308888584	0.11241127199860135	0.0947526462122858	-0.07728776678236092	0.040705228712453516	-0.0971656734541286	-0.13796181647889305	-0.06267172245899652	0.08623934723827588	0.09531250453760867	0.0513085420097293	0.07250957868479972	0.05161782871149584	-0.06414815952229523	0.04319225446739407	0.08004095252276823	0.07542913298135744	0.1188913371474643	0.07083038472010637	0.03514482075415829	0.10701502383164274	-0.0026521259249060064	-0.08818746512277179	-0.016306696394376388	-0.07449026448064491
-0.02484148157304095	0.015930974481078095	-0.07924199209999613	-0.02679562542832023	-0.1285151437557742	0.021816832233742353	0.06457391819039016	-0.09427611552621834	0.10597962585438346	0.13856868028374192	-0.16084289298145482	-0.07002537543971939	-0.11652407331109008	-0.09529088206772843	0.07157693663251619	-0.019008540540769496	-0.02672157038233664	-0.20033295256152142	0.06354180302092265	-0.16790140133590156	-0.03420491136945193	0.07530445746619908	0.1168328159334437	-0.13140877297954842	-0.28986003576562036	0.018374118071711236	0.18055716186575713	0.18472841041114452	0.07281135173389909	-0.0328236536574605	0.08069549924235768	-0.09735461997044687	0.028557062505666406	0.023954298013701966	0.10602152557719496	0.3350976105376939	0.03930237093472524	-0.05089636257074988	-0.002557431219199444	-0.17941394181853199	-0.06924535797269554	-0.07483228688403804	-0.018966868744235376	0.015424352446655607	-0.07328200803720969	0.1888923554342334	-0.0013753731040675873	-0.029282360845982125	-0.046218404435782096	-0.011714219143707969
0.07482217159595074	-0.0978453742029234	-0.06581164890752567	-0.032289789047610803	-0.16247126559096645	-0.08255006800397802	-0.061888440457116854	0.10360564779838316	0.015019905495864608	0.016681580891736738	0.08508988844166564	-0.0066046368229794985	0.056189770684292976	-0.010950436565495622	0.03578311586869182	-0.059269958051088395	-0.24390614362038648	-0.013413006608540818	0.14227481360999403	0.1167530580567247	0.11796396007309566	0.11149999603218498	0.013460859418985371	0.01809307052603499	-0.0562518859947517	-0.031608312272850665	0.06177274334285076	0.10571238297676563	-0.02660247480596725	-0.0471202072274774	0.00015489182583079648	0.0601206232960309	-0.1351925876877357	-0.2056747076849812	-0.05505352608662385	-0.13552950452596352	-0.050796880015505565	-0.014778031881747153	-0.04532484633052959	0.14465822256212021	0.032625120122475565	0.05331379228839078	0.06010556916199812	-0.11383336521188463	0.10373554247960125	-0.028072530719059723	0.07713253261861822	-0.09644707489771671	-0.1401645088225872	0.08623800425233423
0.03764774360657669	-0.09020014238283341	-0.08696630812746944	0.11254505042032445	-0.11892705805035884	0.16426729532559636	-0.090052173027585	0.06383422103579388	-0.03285503995361342	0.06032461584923782	-0.05441140021141926	-0.016280158517180968	0.004082634971200542	-0.10021874557814728	0.07408116232496116	-0.051322383742773654	-0.022859988590044886	-0.09943493746085123	-0.25623336587953105	-0.019112863535982034	0.24125396533982724	0.07846869607005988	-0.0019294279983041857	-0.026289137409819842	0.0022474895158885997	0.05471195335232257	-0.11808128153088449	0.11144124627453837	0.07154781158373705	0.07182075629186761	0.043848528175996736	0.0019616654210103256	0.06728226055928159	0.05917374444136375	-0.03540407109410238	-0.057349673893474666	0.01018562952619867	0.15490201412543844	-0.12391070756539009	-0.146752526575244	0.016476238317446552	0.00507996208481397	0.017338894490868378	0.024395319790850026	-0.02231823925017854	0.148999622422238	-0.16009429265254962	-0.08285493568161878	-0.010329246600573631	-0.16432361949163576
-0.013852855309538217	0.15101739683864457	0.002089217007194023	0.02470644411649933	-0.11452800269632747	-0.06088312851406333	-0.03588501756511637	0.016764161698112644	0.13175021641956508	0.07546873313538104	-0.11388034339301847	0.048403418988656945	0.07685512282629993	0.1119082114789278	0.19220475244418786	-0.1097575534675745	-0.08751781539547668	-0.1257446114655057	-0.02340198591069814	0.08177807118692089	0.14520424080156064	-0.0029641122985912855	-0.01960279365755348	0.008611229918200698	-0.06261248687157159	0.2089835539180044	-0.1606817733155723	0.007883473790230222	0.20074741195221577	0.0016960698238453775	-0.021404821965175357	-0.03574518012949428	0.003983766926138755	0.15725825820846462	-0.22118376615196306	0.15558524443575789	-0.14238745477618367	-0.026665263616977866	-0.04292526985479454	0.05839342654292871	-0.16004198838782624	0.09371162811197557	0.21495574904890655	-0.13627871029683622	0.02143150389512377	-0.06450043204038322	0.05611803512243397	0.02001779290820977	-0.05888919906986349	0.03732773589913529
0.2049761847402941	0.0004745417131971074	0.07197675927804735	-0.1267180719024191	-0.04172842972886973	0.04852630275816523	0.18804911416109948	0.026441061085210715	-0.005969611247758274	0.02334334627985422	-0.12664383227924342	0.060583658452521304	0.0660518259984041	-0.04579911166454396	-0.05567216959996488	0.02611879650558912	-0.04595879365144818	-0.006605043787175427	0.20997217891665154	-0.05935846240904359	-0.06373146012536282	-0.03218754283324036	0.06678476599695889	-0.018807116331287267	-0.06170066392664444	0.13213065990493258	0.14196030045136374	-0.022543344684216014	-0.15407755586905994	0.10928769428727182	-0.06987167036925895	0.07906243252665551	-0.20784899187448763	0.059961432425288265	-0.1211162911833793	0.10871526910004885	0.0014273067057658168	-0.09539395142085692	-0.04070368085000736	0.06870402697062533	0.010611231424403511	0.03461981859574287	0.21457022503226122	-0.15642439425069538	0.16394530112098013	0.060543297693980584	-0.09675178316095026	-0.14867746571045204	-0.042142618857229766	0.07364149158434036
-0.030515808893624548	0.1267330307707338	-0.1451175690051559	-0.0016942522092387195	-0.16863195506747553	0.03509853059226346	0.05565777695722244	-0.00691666588455182	-0.2787440961527921	0.011076880339389469	0.043641919819838636	0.05434148512035367	0.15581701261277456	-0.1075727167542249	0.09711376650289055	0.1147396800687177	-0.17788684689999246	0.03199010373007939	-0.05041798310076715	0.04176670752733012	0.08664432992269568	-0.07314013402081733	-0.054344719777057224	-0.0010667602745302466	-0.09913772041121878	-0.10856964816935458	0.06804242036959118	-0.15363111103412844	0.03985379942872011	0.03915593809100166	-0.1721912101576042	-0.06775682219176185	0.14024503591003443	-0.061148561313361875	-0.04644036884931486	0.01807978160186114	0.07837798749842853	-0.02515391503153593	-0.05975152539204187	0.1414042938965769	0.173857773985234	0.1443711047953403	0.0010534129950814934	-0.08081895442873929	-0.08106366365191173	0.010807020724522182	0.053249266181458504	0.16394220101551904	0.0873896491154456	-0.14101454382939801
0.14834950322901963	-0.06558182663985743	-0.03839696453977455	0.028975332067306632	0.2951077205970753	0.3136096028912451	0.1316066535002319	-0.0321642399523609	0.09785977436958453	0.13148436152515922	-0.035227514979032745	0.18130560776969662	-0.013335449264637976	0.04892553422049843	0.05279223964367723	0.040441298031010924	0.07995032025580523	-0.06172363682363689	-0.055830175394603054	-0.16947102679256112	-0.0038993267939184933	0.13522767758118717	0.03386848583631254	0.1670854889456077	0.0064156661118626186	0.06687431462814103	-0.10917008761393143	0.027346510573382776	0.12650530492035272	0.10002819859575647	-0.03122914136016387	-0.007159907417592972	-0.16947098855610218	-0.08747914669005138	0.08904048154031231	0.12040730360354666	0.05006657213812097	0.004977368718096008	0.0007063080855655478	-0.06549198413347203	0.07000943089554737	0.002749757729474782	0.07961154425426781	-0.052601752338617865	-0.21237005047615629	0.1983865623293658	-0.05884692707337912	-0.11310603705383326	0.02749103465400241	-0.07258401185014669
0.10605310855701329	0.06174785416819693	0.06835693232004776	-0.13658926125192333	0.12136331802973897	0.026129298590617425	-0.03681571956209707	0.014335323738034356	-0.17756436638125567	0.04092196440526533	-0.10295142939005504	-0.13527127462042585	-0.15224823444016614	0.11124065675009452	-0.0629660932739591	0.15337162868987417	-0.053589401934061635	-0.17073579575929468	-0.11165244399486592	0.12348615542489838	-0.015656125892035334	-0.05473633831797282	0.01599764732819347	0.05016402780492324	0.11174628095798878	0.14484992298929264	-0.03597686457890858	-0.1324967573573939	-0.04125483756373283	0.026040731982613956	-0.09641861196882731	-0.0957150914895043	0.034368294507958815	-0.004954719024441525	0.0032807796988245388	-0.07577638493365038	-0.023040071420576735	-0.09242331442683044	0.08901984111247868	0.10352278676640396	-0.18462128503678255	-0.09297001834101193	-0.14960118238005055	-0.06500242153971393	-0.008349133184308452	-0.1448383825019159	-0.0921908236483332	-0.1004087929146127	0.020639050496971935	0.006896847168220747
-0.07121134064274119	0.01838073168331957	-0.05466800845872654	-0.027112256737862286	0.16847931962557083	0.13404663799543712	-0.1288004119493035	0.08261045187212791	0.0820311497764174	-0.11396574474563949	0.08187776437548606	0.1539571369728305	-0.11261447100140667	-0.09176344450091917	0.10142989873790206	0.027200630956652903	0.05513504835416529	0.034059908486828806	0.039069592092814416	-0.1332875887543976	0.1038546318767349	0.11799390289020131	-0.0233181838878266	-0.00434768701950239	-0.15288453284363754	0.05142437795572059	0.05728216444020708	-0.004938562005525984	0.11359564028251741	-0.03303837723678226	0.05646059687410079	-0.10196643386921156	-0.002806274501257036	-0.017513387963500854	0.022530825631576396	-0.035697930433905914	-0.013146414845251508	0.08260471714415063	-0.043676423723821745	-0.16071674546362175	0.17495839042054206	0.13745493539167153	-0.12849778251960292	0.06898732463363377	-0.05010470376680049	0.027961944111522016	0.029347294009964307	-0.024031378988799448	-0.07858551457007187	-0.0694824594559249
-0.07172070804091427	-0.06731480979668043	-0.006717829004935526	-0.06853929719759558	0.10351592941910759	0.1487312684463069	-0.028981593128343745	0.01282534652732159	0.07070148293958413	0.06531804911339631	0.007595526791608741	0.07400651337568104	0.02491352474986598	-0.12392788390533083	0.08130146132854316	0.08873685506012195	-0.07634294307754173	0.003805882294775169	0.06833289928110695	-0.04659098630046195	0.08544638489551915	0.2594378204662364	-0.08802579021645777	-0.13813370435766836	0.03338566524094597	0.0721531186363327	-0.0229702785875846	0.17258598613170917	-0.10905835082672831	0.07599309979410471	-0.060586075575505834	0.17193779062072967	0.18856245669040053	-0.09498742875997147	-0.05495556981099863	0.11445521210444873	-0.03869831960197258	-0.004541121793223822	0.0025388420542410183	-0.19245090407303422	-0.0013803216664685172	-0.09162459996830263	-0.035115450650060345	0.1444159483707869	-0.1208510711295122	0.11826237232539343	-0.03457517790013037	-0.043082654195899815	0.06990868089953964	0.02147889526942016
0.11344064514961552	0.13640048725613635	-0.033129829433358876	-0.057069655452007394	0.00028879580050447103	-0.07972346252806566	0.3872499562660096	0.11701020220088883	-0.08029938826008916	-0.07060467796005244	0.04494611997018881	0.06434312403453167	0.014402634208349408	-0.027948241533521583	-0.027651666243328193	0.03184565919538679	0.003068120641599718	-0.22184838741368373	-0.022979963057519384	-0.14818638513437343	-0.03541228882442523	0.3690507787645959	0.01930229085748897	-0.03243515198021195	0.10765262215308179	0.04826398680248953	0.0423555179040169	0.14628632916238266	0.27706821803443316	-0.0916503814259118	0.044781410738958284	-0.09263873765808163	0.03594811011568045	-0.14155251539058433	-0.04173411445255148	0.050345535492179336	0.09766074755580656	0.09184541305994535	-0.12457177618509782	0.0032557971569032347	-0.07081003229230272	-0.16264092153952125	0.02195372893039428	-0.030675515884029017	0.24672409465407708	0.15380094100885572	-0.1377120966719058	-0.08989976154243054	0.06145135558645563	0.16839160647519358
-0.15859833122379585	-0.18799243851390451	0.18709651753717824	0.03896141773709039	-0.08682927318763665	0.05346290861224354	-0.26357477390168776	0.00033755065971609994	0.03278211728430853	0.09242701395378299	-0.10138959522925378	0.008568716140335905	-0.09254246260595873	0.02553837556743171	-0.08953463223630242	-0.04081008391602206	-0.09958153947902292	0.0651136241823657	0.08584511166566654	-0.02346205699574138	0.003823799496002834	-0.1448591414633544	-0.02996766480067871	-0.005020461704174479	0.26207930910299754	-0.11119670257741637	0.14641772387524374	0.0996858773465808	0.02806364044901364	0.17586204841951336	0.03721054726068629	0.03891591956679288	-0.005312065301754535	0.12235688824186275	0.10964692338108838	-0.06256772874962124	-0.13192471945987674	-0.02029806373956571	-0.08000385643976465	-0.00635245746153551	0.12374381346841393	-0.045730165508679005	-0.004282338131157488	0.005802273480839523	0.08484308822052847	-0.22468893339846052	-0.06067002947652968	0.021128369227947273	0.12000789564268613	-0.04919024475062052
-0.16057885052181545	0.08443689801149866	-0.06353577809320832	-0.11725576003120584	-0.0010553927538856798	-0.016944498863649526	-0.017712759578662394	-0.2320557864452009	0.11799638908654334	0.15124692631518447	0.06296948382032724	-0.11570315739248745	-0.04274009580138488	-0.001684662045579973	0.04692782917052761	0.06605455077480754	-0.07736825987352709	0.008203457775956245	0.045728040461524115	0.10569535340350245	0.03764846874260375	0.11630662792767953	0.00030363310674612646	0.13931315725520146	0.043283474421092316	-0.08610876158146125	0.1403369970125191	0.11281936790606141	-0.00820545906671798	-0.038097721483927795	0.026786297270661827	0.046318618863109916	0.007494333613172551	0.0003608416141211938	0.16999963801793117	0.14532176045047088	0.019063559126502434	0.09413105807674833	-0.10325239022660579	0.039915195463530714	0.18063310793821147	-0.04857904849749701	-0.06665753274130588	-0.06520838379184378	-0.10680827646543654	-0.025246254954480976	-0.044075023901041156	-0.1580920200338466	-0.024395490990467644	0.06987279292101595
-0.09077567305168784	0.151928182012954	0.051079208852759475	0.10305818010749906	-0.06578198565680693	0.08545236254042334	-0.10919287890271798	0.08902612074220703	0.01718376946566053	0.055325151788627194	-0.11756027765547408	-0.08950690580070202	0.059724323062068645	-0.09483549903938943	0.046319940915585646	-0.13671375826953544	0.08481723375853019	-0.12325233147685091	0.055229993767952325	0.06256288574287014	-0.06967682210207121	0.058203324017052444	0.02604469638720461	-0.05388456618650576	-0.10085590407280896	-0.19626256916725793	0.03496500472996937	-0.1564797004990275	0.009535048840458497	-0.026345111617569437	0.06791281335403057	-0.03020454994898642	-0.03294415889038325	0.07318679695023601	0.033505870199615644	0.031615049392911876	0.04692675898085263	-0.1535572123207106	0.0756788679986982	0.06124708169975154	-0.10166870616099764	-0.024406423856415886	-0.003930587175868484	-0.013449678440173272	0.033385793301105186	0.14313724485652485	0.10817729224188534	-0.13122097519433684	0.062204962140713894	0.13289336838619903
0.038828647126289695	0.10919906765755998	0.2012270529761369	0.1023985227543495	0.02522693967610151	0.10450884740847535	0.014698978354631494	0.0022991142972738233	-0.0350098616127299	0.1564661364448467	-0.08184513614613716	0.15322204649653595	0.049802329235390075	-0.13993063167482558	0.03672643119061813	-0.2100199936801188	0.0625482488582995	0.0885235603225024	-0.05923559556520536	0.01214151380577085	0.19525481942392472	-0.050405467325396414	-0.10595611605668778	0.14816608717282853	0.19626796507734462	0.000371099590646975	0.10114630354083563	0.13434232801008697	-0.07405588191272952	-0.04848086927321986	0.12309447433402128	0.16850129565937014	0.05620859453837378	-0.08814800631279673	0.19870611116994413	-0.052882965978277796	-0.033513778117145177	0.0342337752734873	0.1554159315101061	0.08538676521318198	0.04149290414156037	0.04614721105433374	0.004451013945433557	0.055813951451850634	-0.25291901390010935	-0.029379844383172145	0.024061470192672976	-0.11520642202735495	0.038534831408738285	-0.02054908292696783
0.17556296376283428	0.1573148800942647	-0.046580556911816284	-0.015081633162361002	-0.007368259281273991	-0.045165947498046505	0.019524467198419236	-0.07583875070611322	-0.11304623430357459	0.062284756332354085	0.06295295842218109	-0.08043216681512998	0.08951492873021795	-0.06315778781356349	0.025310847380893	0.08203440126124562	-0.003361256470371301	0.04547409121411344	-0.05164296438875718	-0.01966908052585863	-0.02060478647252311	-0.07463917620218395	-0.017684892092607214	-0.15486182988637467	-0.04911314765384187	-0.028487549336967084	-0.025617975249538013	-0.024127773002355503	-0.006157494492603845	0.04794955188837315	0.08745170741325226	-0.06497652268482672	-0.12032914381054013	-0.10421836543520491	-0.04872029211949272	-0.03516934734233313	-0.07699960661974574	-0.12961166642498945	-0.04561208274741882	0.018142661967259027	0.059502946583556475	-0.05576312207129722	-0.04128855278106565	-0.09266983088473107	-0.0031391913379495216	-0.08481459507567912	0.057305227989190084	-0.17859792311879172	-0.03596792193558196	0.03009990051068054
0.0549913225497269	0.2988190565962032	0.034980002456790754	-0.09578504773603756	0.04992862348953816	-0.17756174551191783	0.04524902799814904	-0.1042424683591864	0.12935108415232105	-0.022173168526688724	-0.011679912484019754	-0.0650339683139847	0.1306637669513281	-0.032729966823624404	0.17067227271474564	0.08139830690107712	0.04818796844132495	0.036899565911264996	0.03937972982162516	-0.24038010534590953	-0.0693396992398435	0.12728391829574048	-0.022139739957191297	-0.1406683140424321	-0.00022216790809471233	0.17040550464942514	0.12491357887789988	0.04490381047081073	0.14061988120281269	-0.02353003559318938	-0.17038778030930862	-0.09244659757993182	0.1357255795883238	-0.059490267317087675	-0.024338276686132507	0.02166638945239802	0.1904476931479499	0.16259589153620635	0.2218780233448134	-0.017216973684081073	0.029569614514497865	-0.1939821733671187	0.17361809272159334	-0.11669445730869722	0.031969522496441215	-0.043244629619470426	-0.06881861902173945	-0.11129042852794953	-0.07647172113263222	-0.07744067257463313
0.01691537986800075	0.13524836500530238	-0.11048545487456053	0.027727509326945073	0.2635615239627091	-0.047818501501930934	0.04569990762471252	-0.03597230563092803	0.18790077443267045	0.09650537617155235	-0.0570818965759495	0.058596072564393864	-0.16495388505985337	0.06562939777539906	0.02103406232599877	-0.03212252330129097	-0.09024945798984804	-0.08862536960914084	0.05348173363459102	0.038953803589886295	-0.13385514523981257	0.1358122299198451	-0.23155625162140095	-0.05986372053470828	0.015443579023041469	-0.09097719531397801	-0.09335447924728225	0.042260060113362974	0.12056117400563293	0.007959841165381829	-0.2268716879824004	-0.21207002392229898	-0.0867889837391318	-0.020994585297152205	-0.2747472507651938	0.05244917884053815	-0.052586601356543666	0.1388337778208448	-0.03850218117128637	0.036802524687316096	0.014328915827277215	-0.26454425036252754	0.1315746989214321	0.021718618687878097	0.05591218240076729	0.5340721440224047	-0.21315844097137068	0.12888756886205396	-0.0811279678382451	-0.023383179144461953
0.01811671029091064	-0.02440274192677167	-0.05698326613155404	0.03576789969951975	-0.10295113917586943	0.07633572723084245	-0.004560457442709395	-0.12096723591501252	-0.02167838846300515	0.1480324416435592	-0.05502457371437719	0.03682104432083428	-0.09421072212129353	0.07541228115086193	0.06188412867581215	0.18391552282933002	-0.018931488765305614	0.06686575990664394	0.009806753953894456	0.09825305884758005	-0.0970036925694412	0.10416939480427255	-0.02642557556565758	-0.006569686914107089	0.012708403063695202	0.02522419580087492	-0.011622904312195818	0.05535409298375271	0.18778824871509053	0.10609377099787458	0.08604833101381192	-0.04555394366968569	-0.09873204193183673	0.06799453861330572	0.08760695823556247	0.18052992667319642	-0.06039806259692296	-0.022954865536034708	-0.1639484195589025	-0.038874747242217476	0.09969051747493764	-0.06876639929462289	0.07993363343231583	-0.019050732514061117	0.03451245974680057	-0.06789916466600178	0.00165808173774944	-0.3134461863822325	-0.039932666501384266	-0.1803931855248296
